SVM-light Version V6.02
0 # kernel type
3 # kernel parameter -d 
1 # kernel parameter -g 
1 # kernel parameter -s 
1 # kernel parameter -r 
empty# kernel parameter -u 
3111 # highest feature index 
1600 # number of training documents 
1087 # number of support vectors plus 1 
0.32068269 # threshold b, each following line is a SV (starting with alpha*y)
-0.022508955019934107077972385013709 1:1 2:1 3:1 4:1 5:1 6:1 7:1 8:1 9:1 10:1 11:1 12:1 13:1 14:1 15:1 16:1 17:1 18:1 19:1 20:1 21:1 22:1 23:1 24:1 25:1 26:1 27:1 28:1 29:1 30:1 31:1 32:1 33:1 34:1 35:1 36:1 37:1 38:1 39:1 40:1 #
-0.022508955019934107077972385013709 5:1 17:1 41:1 42:1 43:1 44:1 45:1 46:1 47:1 48:1 49:1 50:1 51:1 52:1 #
-0.022508955019934107077972385013709 2:1 14:1 15:1 30:1 32:1 42:1 53:1 54:1 55:1 56:1 57:1 58:1 59:1 60:1 61:1 62:1 63:1 64:1 65:1 66:1 67:1 68:1 69:1 70:1 71:1 72:1 73:1 74:1 75:1 76:1 77:1 78:1 79:1 80:1 81:1 #
-0.022508955019934107077972385013709 11:1 14:1 15:1 17:1 45:1 59:1 63:1 66:1 82:1 83:1 84:1 85:1 86:1 87:1 88:1 89:1 90:1 91:1 92:1 93:1 94:1 95:1 96:1 97:1 98:1 99:1 100:1 101:1 102:1 103:1 104:1 105:1 106:1 107:1 108:1 109:1 110:1 111:1 112:1 113:1 114:1 115:1 116:1 #
0.00064651674399339963128507946521495 4:1 5:1 14:1 34:1 35:1 65:1 72:1 83:1 85:1 101:1 111:1 124:1 129:1 147:1 151:1 152:1 166:1 171:1 182:1 193:1 287:1 306:1 345:1 353:1 360:1 377:1 396:1 416:1 458:1 513:1 525:1 530:1 625:1 638:1 757:1 912:1 1052:1 1157:1 1185:1 1245:1 1425:1 2070:1 2287:1 2320:1 2351:1 2384:1 #
0.022508955019934107077972385013709 3:1 4:1 5:1 17:1 22:1 30:1 33:1 48:1 59:1 68:1 83:1 109:1 136:1 140:1 153:1 176:1 181:1 214:1 227:1 257:1 275:1 290:1 350:1 406:1 469:1 494:1 534:1 663:1 680:1 709:1 717:1 741:1 801:1 803:1 943:1 1015:1 1021:1 1049:1 1068:1 1186:1 1196:1 1208:1 1346:1 1485:1 1578:1 1644:1 1814:1 1943:1 2413:1 2614:1 2869:1 2932:1 #
0.022508955019934107077972385013709 3:1 4:1 5:1 14:1 22:1 27:1 45:1 50:1 64:1 83:1 105:1 114:1 140:1 144:1 147:1 159:1 187:1 233:1 247:1 257:1 272:1 377:1 451:1 471:1 540:1 662:1 682:1 730:1 911:1 1052:1 1084:1 1287:1 1604:1 1727:1 2197:1 2219:1 2549:1 #
0.022508955019934107077972385013709 4:1 5:1 7:1 15:1 33:1 35:1 45:1 51:1 57:1 59:1 63:1 77:1 83:1 103:1 109:1 110:1 148:1 181:1 238:1 249:1 290:1 296:1 298:1 308:1 353:1 566:1 656:1 805:1 1122:1 1217:1 1363:1 1428:1 1608:1 1614:1 2026:1 2256:1 2865:1 2933:1 #
0.022508955019934107077972385013709 4:1 5:1 21:1 55:1 56:1 57:1 64:1 66:1 70:1 90:1 140:1 147:1 166:1 174:1 176:1 249:1 266:1 306:1 314:1 440:1 456:1 504:1 544:1 632:1 640:1 943:1 1031:1 1070:1 1074:1 1084:1 1252:1 1298:1 1483:1 1514:1 2000:1 2618:1 #
0.022508955019934107077972385013709 15:1 22:1 25:1 33:1 34:1 40:1 59:1 70:1 94:1 124:1 159:1 169:1 213:1 230:1 247:1 276:1 301:1 348:1 349:1 403:1 408:1 508:1 522:1 717:1 924:1 947:1 1009:1 1023:1 1055:1 1175:1 1243:1 1309:1 1325:1 1543:1 1555:1 1709:1 1890:1 2353:1 2866:1 #
-0.022508955019934107077972385013709 5:1 7:1 14:1 18:1 22:1 28:1 30:1 33:1 34:1 35:1 45:1 51:1 57:1 59:1 65:1 83:1 85:1 90:1 105:1 109:1 110:1 111:1 116:1 140:1 141:1 144:1 147:1 148:1 151:1 166:1 171:1 175:1 181:1 208:1 221:1 224:1 230:1 237:1 249:1 256:1 290:1 293:1 298:1 308:1 309:1 348:1 358:1 402:1 403:1 410:1 416:1 440:1 443:1 454:1 478:1 479:1 538:1 566:1 587:1 613:1 638:1 665:1 668:1 714:1 852:1 1070:1 1074:1 1091:1 1217:1 1284:1 1369:1 1444:1 1459:1 1743:1 1783:1 1819:1 1917:1 1922:1 1926:1 1927:1 1928:1 1929:1 1930:1 1931:1 1932:1 1933:1 #
-0.022508955019934107077972385013709 7:1 12:1 14:1 22:1 24:1 33:1 34:1 56:1 59:1 72:1 80:1 83:1 109:1 116:1 140:1 176:1 181:1 205:1 208:1 233:1 257:1 292:1 298:1 308:1 353:1 358:1 360:1 377:1 458:1 479:1 534:1 538:1 724:1 745:1 805:1 814:1 911:1 1068:1 1120:1 1189:1 1249:1 1347:1 1809:1 1810:1 1811:1 1812:1 #
-0.0072337899803129896564302114825296 3:1 4:1 5:1 7:1 12:1 14:1 15:1 27:1 30:1 32:1 33:1 35:1 45:1 59:1 61:1 83:1 103:1 112:1 123:1 124:1 144:1 147:1 156:1 166:1 169:1 176:1 195:1 199:1 205:1 209:1 216:1 225:1 230:1 259:1 265:1 268:1 317:1 321:1 338:1 358:1 370:1 374:1 384:1 395:1 399:1 429:1 447:1 456:1 457:1 458:1 465:1 488:1 494:1 508:1 521:1 540:1 558:1 560:1 574:1 602:1 616:1 622:1 632:1 706:1 714:1 753:1 794:1 809:1 824:1 834:1 901:1 923:1 936:1 947:1 954:1 962:1 963:1 1024:1 1040:1 1065:1 1115:1 1127:1 1173:1 1188:1 1204:1 1206:1 1265:1 1287:1 1374:1 1441:1 1515:1 1523:1 1614:1 1664:1 1764:1 1795:1 1863:1 1941:1 2106:1 2112:1 2146:1 2228:1 2371:1 2442:1 2546:1 2551:1 2555:1 2556:1 2557:1 2558:1 2559:1 #
-0.0070207697488668509636089432035533 3:1 4:1 5:1 15:1 16:1 18:1 22:1 29:1 30:1 33:1 34:1 51:1 57:1 59:1 64:1 77:1 81:1 83:1 110:1 124:1 129:1 134:1 140:1 147:1 156:1 159:1 170:1 176:1 178:1 187:1 209:1 232:1 249:1 252:1 264:1 290:1 308:1 330:1 377:1 400:1 440:1 443:1 475:1 532:1 632:1 809:1 827:1 929:1 946:1 957:1 1013:1 1050:1 1199:1 1212:1 1331:1 1378:1 1624:1 1635:1 1721:1 1824:1 2211:1 2212:1 #
-0.001538875265898258151014976746751 3:1 4:1 5:1 13:1 15:1 22:1 27:1 30:1 33:1 34:1 51:1 56:1 59:1 63:1 68:1 69:1 83:1 85:1 105:1 110:1 129:1 130:1 144:1 169:1 180:1 181:1 227:1 230:1 240:1 249:1 306:1 353:1 370:1 377:1 381:1 430:1 440:1 443:1 461:1 466:1 473:1 479:1 662:1 724:1 726:1 733:1 802:1 868:1 908:1 912:1 937:1 1006:1 1136:1 1143:1 1216:1 1236:1 1373:1 1378:1 1407:1 1411:1 1466:1 1567:1 1585:1 1651:1 1670:1 1863:1 1962:1 2065:1 2255:1 2304:1 2394:1 2442:1 2657:1 2673:1 #
0.022508955019934107077972385013709 5:1 11:1 14:1 19:1 30:1 66:1 72:1 77:1 83:1 85:1 95:1 176:1 197:1 478:1 737:1 746:1 782:1 824:1 856:1 910:1 925:1 1035:1 1053:1 1632:1 1666:1 1870:1 1987:1 2080:1 2205:1 2472:1 2947:1 #
0.016764943068663839403908966119161 2:1 14:1 15:1 17:1 24:1 27:1 30:1 35:1 55:1 59:1 103:1 110:1 152:1 167:1 308:1 483:1 492:1 501:1 538:1 575:1 589:1 896:1 910:1 997:1 1089:1 1345:1 1437:1 1627:1 1689:1 2032:1 2070:1 2091:1 2954:1 #
0.022508955019934107077972385013709 3:1 13:1 14:1 15:1 17:1 19:1 45:1 83:1 109:1 129:1 209:1 291:1 440:1 454:1 810:1 1261:1 1369:1 1401:1 1411:1 1958:1 1977:1 2651:1 2744:1 2858:1 #
0.022508955019934107077972385013709 3:1 4:1 5:1 9:1 11:1 14:1 17:1 66:1 69:1 77:1 90:1 153:1 161:1 176:1 416:1 430:1 456:1 516:1 605:1 724:1 731:1 859:1 874:1 1110:1 1136:1 1227:1 1378:1 1757:1 1993:1 #
0.022508955019934107077972385013709 3:1 11:1 12:1 14:1 15:1 56:1 64:1 70:1 111:1 112:1 129:1 230:1 249:1 306:1 376:1 399:1 430:1 537:1 587:1 665:1 668:1 681:1 688:1 731:1 852:1 1308:1 1386:1 2110:1 2653:1 #
-0.022508955019934107077972385013709 5:1 45:1 176:1 227:1 399:1 407:1 501:1 521:1 731:1 734:1 805:1 910:1 2176:1 2213:1 2214:1 #
-0.010841481776433851275109887524195 3:1 59:1 66:1 150:1 246:1 359:1 414:1 469:1 525:1 646:1 910:1 954:1 1002:1 1074:1 1612:1 1613:1 1614:1 #
-0.022508955019934107077972385013709 1:1 105:1 182:1 227:1 276:1 399:1 414:1 910:1 1376:1 #
-0.022508955019934107077972385013709 11:1 30:1 70:1 97:1 148:1 160:1 196:1 376:1 422:1 463:1 488:1 569:1 824:1 852:1 915:1 916:1 1095:1 1561:1 1653:1 1714:1 2058:1 2622:1 #
-0.022508955019934107077972385013709 33:1 167:1 435:1 584:1 707:1 737:1 1173:1 1530:1 1818:1 #
-0.0088760523476543902454682921643325 4:1 5:1 14:1 17:1 18:1 22:1 33:1 35:1 40:1 42:1 50:1 55:1 66:1 72:1 83:1 85:1 90:1 109:1 110:1 111:1 125:1 143:1 145:1 155:1 159:1 169:1 176:1 180:1 186:1 199:1 209:1 245:1 257:1 264:1 290:1 338:1 341:1 451:1 473:1 490:1 632:1 648:1 696:1 772:1 784:1 808:1 812:1 822:1 886:1 924:1 941:1 966:1 994:1 1052:1 1139:1 1188:1 1223:1 1373:1 1376:1 1393:1 1399:1 1440:1 1466:1 1657:1 1769:1 1831:1 1940:1 2036:1 2085:1 2147:1 2197:1 2198:1 2199:1 2200:1 #
0.022508955019934107077972385013709 4:1 5:1 14:1 18:1 22:1 30:1 34:1 45:1 55:1 57:1 59:1 66:1 83:1 85:1 90:1 95:1 97:1 101:1 109:1 117:1 123:1 225:1 237:1 269:1 328:1 333:1 345:1 353:1 360:1 417:1 431:1 440:1 443:1 478:1 479:1 501:1 511:1 519:1 534:1 761:1 874:1 877:1 886:1 942:1 993:1 1030:1 1137:1 1235:1 1259:1 1266:1 1378:1 1532:1 1566:1 1910:1 2080:1 2701:1 2751:1 #
-0.022508955019934107077972385013709 5:1 15:1 34:1 51:1 66:1 83:1 140:1 175:1 230:1 297:1 333:1 402:1 726:1 730:1 769:1 807:1 1016:1 1463:1 1568:1 #
0.022508955019934107077972385013709 3:1 4:1 5:1 15:1 16:1 22:1 24:1 29:1 33:1 34:1 42:1 51:1 57:1 59:1 66:1 72:1 77:1 83:1 85:1 90:1 109:1 110:1 111:1 116:1 123:1 124:1 140:1 147:1 176:1 230:1 237:1 345:1 414:1 440:1 443:1 458:1 592:1 639:1 646:1 665:1 723:1 724:1 910:1 1416:1 1465:1 1582:1 1670:1 1733:1 2732:1 #
-0.022508955019934107077972385013709 33:1 101:1 116:1 181:1 290:1 297:1 399:1 456:1 501:1 774:1 1033:1 #
-0.022508955019934107077972385013709 3:1 4:1 11:1 14:1 17:1 19:1 24:1 56:1 66:1 72:1 75:1 79:1 90:1 112:1 116:1 147:1 157:1 169:1 180:1 182:1 185:1 223:1 230:1 255:1 276:1 290:1 306:1 308:1 331:1 340:1 394:1 414:1 430:1 456:1 499:1 546:1 599:1 608:1 666:1 691:1 716:1 741:1 745:1 812:1 928:1 976:1 1074:1 1137:1 1175:1 1178:1 1339:1 1360:1 1363:1 1377:1 1378:1 1511:1 1554:1 1614:1 1725:1 1822:1 2305:1 2360:1 2392:1 #
-0.020243039064123096587577421701099 3:1 4:1 30:1 35:1 66:1 72:1 77:1 111:1 116:1 123:1 131:1 147:1 150:1 161:1 167:1 211:1 218:1 230:1 306:1 308:1 404:1 417:1 466:1 500:1 519:1 534:1 551:1 566:1 724:1 770:1 921:1 996:1 1035:1 1072:1 1179:1 1181:1 1217:1 1254:1 1275:1 1363:1 1608:1 1662:1 1921:1 2040:1 2105:1 2378:1 2468:1 2548:1 #
-0.022508955019934107077972385013709 2:1 4:1 5:1 11:1 14:1 15:1 22:1 27:1 30:1 33:1 35:1 41:1 45:1 57:1 59:1 60:1 66:1 72:1 76:1 83:1 111:1 113:1 140:1 148:1 156:1 164:1 196:1 218:1 264:1 265:1 396:1 403:1 414:1 492:1 551:1 575:1 580:1 592:1 639:1 652:1 660:1 665:1 724:1 774:1 831:1 868:1 996:1 1014:1 1016:1 1127:1 1172:1 1186:1 1191:1 1208:1 1243:1 1345:1 1387:1 1396:1 1466:1 1514:1 1638:1 1679:1 1683:1 1689:1 1855:1 1957:1 2219:1 2386:1 2633:1 2656:1 2669:1 2670:1 2671:1 #
-0.016508478702070037563709448136251 3:1 4:1 5:1 11:1 14:1 15:1 24:1 33:1 42:1 45:1 57:1 59:1 64:1 72:1 76:1 77:1 81:1 83:1 85:1 90:1 94:1 111:1 112:1 143:1 146:1 147:1 170:1 208:1 216:1 230:1 377:1 403:1 513:1 569:1 639:1 665:1 668:1 691:1 766:1 827:1 881:1 944:1 1074:1 1141:1 1146:1 1175:1 1266:1 1296:1 1346:1 1507:1 1689:1 1820:1 1935:1 1936:1 1937:1 1938:1 1939:1 1940:1 1941:1 #
-0.022508955019934107077972385013709 22:1 33:1 83:1 94:1 116:1 174:1 223:1 230:1 232:1 552:1 564:1 849:1 977:1 1204:1 1208:1 1226:1 1667:1 1700:1 1786:1 1797:1 1916:1 1917:1 1918:1 1919:1 #
0.022508955019934107077972385013709 34:1 143:1 194:1 209:1 221:1 289:1 348:1 421:1 447:1 515:1 517:1 626:1 658:1 875:1 952:1 1013:1 1023:1 1204:1 1557:1 1884:1 1915:1 2209:1 2735:1 2767:1 #
0.022508955019934107077972385013709 9:1 16:1 32:1 40:1 59:1 123:1 136:1 150:1 169:1 181:1 281:1 288:1 291:1 314:1 454:1 535:1 563:1 574:1 629:1 638:1 660:1 714:1 745:1 761:1 814:1 944:1 1073:1 1155:1 1347:1 1458:1 2046:1 2318:1 3097:1 #
0.022508955019934107077972385013709 3:1 15:1 17:1 18:1 30:1 33:1 56:1 59:1 66:1 67:1 73:1 74:1 84:1 115:1 119:1 159:1 181:1 206:1 227:1 231:1 232:1 314:1 353:1 385:1 395:1 404:1 440:1 447:1 454:1 460:1 479:1 492:1 501:1 509:1 632:1 739:1 786:1 802:1 846:1 974:1 1023:1 1050:1 1153:1 1234:1 1325:1 1353:1 1400:1 1471:1 1498:1 1613:1 1627:1 1707:1 1907:1 2045:1 2681:1 2769:1 2774:1 #
0.022508955019934107077972385013709 13:1 51:1 59:1 68:1 156:1 390:1 402:1 878:1 943:1 1153:1 1285:1 1347:1 1918:1 2672:1 #
0.022508955019934107077972385013709 1:1 3:1 14:1 22:1 32:1 34:1 41:1 51:1 66:1 79:1 105:1 110:1 144:1 181:1 187:1 238:1 435:1 534:1 538:1 834:1 846:1 1165:1 1498:1 1658:1 2353:1 2434:1 #
-0.022508955019934107077972385013709 3:1 11:1 13:1 16:1 25:1 31:1 34:1 35:1 59:1 70:1 94:1 121:1 157:1 160:1 176:1 181:1 209:1 223:1 290:1 357:1 417:1 515:1 541:1 725:1 805:1 877:1 910:1 1023:1 1060:1 1347:1 1373:1 1514:1 2259:1 2260:1 #
-0.0026804950923512266790227354107401 3:1 4:1 13:1 14:1 17:1 22:1 51:1 59:1 70:1 83:1 169:1 181:1 209:1 285:1 367:1 476:1 490:1 508:1 519:1 687:1 745:1 768:1 897:1 913:1 936:1 1053:1 1277:1 1298:1 1662:1 1750:1 1821:1 1871:1 1872:1 1873:1 1874:1 1875:1 1876:1 #
-0.022508955019934107077972385013709 14:1 15:1 27:1 33:1 105:1 144:1 213:1 257:1 264:1 291:1 292:1 360:1 444:1 456:1 476:1 492:1 625:1 672:1 681:1 764:1 997:1 1005:1 1021:1 1049:1 1095:1 1123:1 1204:1 1207:1 1444:1 1603:1 1790:1 1811:1 2003:1 2080:1 2095:1 2096:1 2097:1 #
-0.022508955019934107077972385013709 33:1 59:1 109:1 111:1 130:1 152:1 154:1 159:1 208:1 237:1 278:1 290:1 405:1 454:1 478:1 479:1 680:1 681:1 709:1 726:1 810:1 1089:1 1213:1 1243:1 1597:1 2029:1 2070:1 2184:1 2191:1 2227:1 2295:1 2768:1 2769:1 #
-0.022508955019934107077972385013709 30:1 32:1 59:1 159:1 169:1 176:1 249:1 473:1 586:1 807:1 992:1 1080:1 1204:1 1310:1 1346:1 1373:1 1386:1 1536:1 1573:1 1957:1 2058:1 2442:1 2443:1 #
0.022508955019934107077972385013709 2:1 3:1 4:1 5:1 14:1 17:1 29:1 30:1 35:1 37:1 41:1 51:1 57:1 64:1 66:1 72:1 76:1 77:1 80:1 83:1 90:1 92:1 94:1 101:1 108:1 109:1 110:1 111:1 124:1 126:1 143:1 147:1 164:1 169:1 180:1 205:1 225:1 242:1 262:1 268:1 347:1 348:1 392:1 396:1 416:1 430:1 443:1 507:1 537:1 587:1 597:1 602:1 639:1 646:1 1031:1 1069:1 1084:1 1325:1 1439:1 1460:1 1608:1 1801:1 1941:1 2394:1 2562:1 2646:1 2681:1 3083:1 #
0.0097552805001101337151192538499345 4:1 5:1 11:1 14:1 15:1 22:1 24:1 25:1 28:1 30:1 33:1 34:1 45:1 50:1 56:1 59:1 69:1 83:1 90:1 94:1 110:1 111:1 116:1 137:1 140:1 141:1 176:1 209:1 210:1 230:1 239:1 242:1 286:1 296:1 306:1 316:1 345:1 351:1 377:1 384:1 386:1 396:1 403:1 407:1 440:1 475:1 476:1 492:1 513:1 524:1 528:1 577:1 608:1 657:1 675:1 678:1 714:1 716:1 724:1 731:1 749:1 824:1 891:1 893:1 915:1 988:1 990:1 1049:1 1074:1 1140:1 1175:1 1339:1 1345:1 1411:1 1444:1 1518:1 1582:1 1656:1 1689:1 1717:1 1897:1 1928:1 1954:1 2020:1 2021:1 2040:1 2223:1 2501:1 2838:1 2879:1 2886:1 2985:1 3038:1 3101:1 #
0.022508955019934107077972385013709 3:1 4:1 5:1 7:1 11:1 14:1 18:1 21:1 22:1 24:1 30:1 31:1 32:1 41:1 42:1 45:1 51:1 56:1 59:1 66:1 83:1 84:1 94:1 99:1 109:1 140:1 147:1 152:1 153:1 160:1 196:1 199:1 213:1 234:1 276:1 306:1 308:1 318:1 334:1 338:1 345:1 346:1 399:1 400:1 403:1 416:1 429:1 469:1 478:1 494:1 521:1 534:1 549:1 577:1 598:1 602:1 676:1 724:1 782:1 824:1 852:1 910:1 994:1 1042:1 1218:1 1317:1 1387:1 1409:1 1466:1 1493:1 1530:1 1606:1 1651:1 1766:1 1946:1 2410:1 2486:1 2523:1 2618:1 2671:1 2685:1 2941:1 2951:1 2968:1 #
0.021028318046144078845571812053095 2:1 5:1 14:1 16:1 17:1 19:1 24:1 30:1 35:1 41:1 44:1 45:1 57:1 59:1 76:1 83:1 84:1 85:1 90:1 105:1 110:1 111:1 136:1 140:1 144:1 145:1 148:1 176:1 193:1 224:1 230:1 269:1 275:1 291:1 293:1 308:1 331:1 345:1 370:1 389:1 395:1 435:1 440:1 456:1 473:1 488:1 492:1 512:1 521:1 549:1 587:1 651:1 680:1 707:1 766:1 870:1 1035:1 1050:1 1067:1 1101:1 1140:1 1217:1 1358:1 1378:1 1463:1 1503:1 1516:1 1517:1 1574:1 1596:1 1713:1 1736:1 1927:1 1931:1 1957:1 2606:1 2810:1 3056:1 #
0.0065121939917395822716716935474324 5:1 15:1 17:1 22:1 40:1 46:1 51:1 64:1 70:1 83:1 92:1 97:1 101:1 105:1 109:1 119:1 140:1 141:1 143:1 147:1 148:1 151:1 153:1 169:1 176:1 199:1 211:1 219:1 225:1 235:1 246:1 257:1 291:1 297:1 353:1 360:1 364:1 390:1 429:1 432:1 447:1 516:1 522:1 527:1 660:1 724:1 766:1 774:1 812:1 840:1 964:1 1136:1 1180:1 1287:1 1317:1 1422:1 1460:1 1478:1 1639:1 1822:1 2003:1 2627:1 2695:1 2893:1 2894:1 2986:1 #
-0.014319046909614373611074888970052 3:1 5:1 17:1 59:1 66:1 109:1 111:1 144:1 147:1 176:1 227:1 249:1 255:1 308:1 370:1 414:1 416:1 436:1 442:1 583:1 681:1 693:1 743:1 782:1 805:1 881:1 913:1 1000:1 1199:1 1325:1 1425:1 1430:1 1443:1 1955:1 2026:1 2627:1 #
-0.022508955019934107077972385013709 5:1 15:1 25:1 56:1 109:1 176:1 220:1 291:1 514:1 540:1 1200:1 1277:1 1998:1 2269:1 2565:1 #
-0.022508955019934107077972385013709 4:1 5:1 14:1 16:1 17:1 22:1 33:1 41:1 45:1 51:1 56:1 57:1 59:1 63:1 66:1 70:1 83:1 90:1 94:1 110:1 112:1 129:1 136:1 147:1 148:1 180:1 181:1 208:1 211:1 221:1 249:1 258:1 275:1 296:1 339:1 345:1 403:1 592:1 597:1 622:1 678:1 717:1 724:1 735:1 807:1 881:1 998:1 1025:1 1122:1 1152:1 1222:1 1307:1 1453:1 1458:1 1484:1 1565:1 1566:1 1567:1 1568:1 #
-0.022508955019934107077972385013709 3:1 4:1 5:1 7:1 17:1 19:1 35:1 45:1 83:1 85:1 90:1 92:1 94:1 105:1 109:1 110:1 111:1 119:1 132:1 147:1 166:1 176:1 199:1 227:1 333:1 360:1 362:1 392:1 440:1 447:1 451:1 476:1 508:1 528:1 529:1 587:1 678:1 694:1 779:1 831:1 874:1 886:1 972:1 975:1 1428:1 1440:1 1441:1 1442:1 1443:1 1444:1 1445:1 1446:1 #
-0.0062058828664441657851913447530023 1:1 3:1 5:1 14:1 18:1 22:1 24:1 25:1 29:1 30:1 76:1 83:1 85:1 103:1 109:1 110:1 111:1 145:1 147:1 161:1 171:1 176:1 181:1 197:1 223:1 224:1 230:1 233:1 258:1 259:1 314:1 338:1 370:1 376:1 394:1 402:1 414:1 416:1 417:1 440:1 445:1 479:1 488:1 515:1 556:1 568:1 587:1 589:1 643:1 664:1 690:1 717:1 782:1 789:1 928:1 944:1 994:1 1057:1 1092:1 1161:1 1222:1 1395:1 2026:1 2207:1 2270:1 2334:1 2444:1 2574:1 2596:1 2616:1 2639:1 2659:1 #
0.022508955019934107077972385013709 2:1 3:1 4:1 20:1 22:1 130:1 184:1 233:1 255:1 318:1 336:1 374:1 414:1 456:1 618:1 714:1 766:1 1004:1 1034:1 1376:1 1511:1 1566:1 1662:1 2108:1 2161:1 2398:1 #
0.022508955019934107077972385013709 5:1 22:1 55:1 101:1 103:1 130:1 141:1 167:1 290:1 291:1 394:1 538:1 584:1 668:1 681:1 1056:1 1089:1 1374:1 1614:1 2067:1 2408:1 2585:1 2671:1 3019:1 #
0.022508955019934107077972385013709 16:1 30:1 33:1 35:1 180:1 204:1 219:1 456:1 551:1 556:1 1072:1 1523:1 #
0.022508955019934107077972385013709 66:1 76:1 83:1 196:1 216:1 249:1 298:1 410:1 488:1 745:1 784:1 1128:1 1396:1 1496:1 2344:1 2759:1 2855:1 #
0.012470866850604483272446643127296 15:1 27:1 59:1 64:1 91:1 112:1 124:1 138:1 169:1 202:1 205:1 227:1 246:1 257:1 287:1 306:1 360:1 377:1 456:1 476:1 515:1 613:1 812:1 1037:1 1052:1 1053:1 1112:1 1179:1 1378:1 1403:1 1532:1 1551:1 1814:1 1872:1 1941:1 1994:1 2047:1 2175:1 2546:1 2808:1 2959:1 3052:1 #
-0.022508955019934107077972385013709 14:1 45:1 46:1 51:1 75:1 83:1 124:1 191:1 199:1 225:1 227:1 246:1 308:1 365:1 400:1 409:1 469:1 515:1 542:1 549:1 572:1 750:1 774:1 875:1 924:1 1006:1 1274:1 1367:1 1389:1 1396:1 1591:1 1618:1 1728:1 2537:1 2668:1 #
-0.022508955019934107077972385013709 5:1 17:1 22:1 31:1 41:1 56:1 59:1 64:1 91:1 115:1 143:1 152:1 230:1 234:1 377:1 430:1 456:1 563:1 602:1 724:1 801:1 1599:1 1711:1 2787:1 2793:1 2794:1 #
-0.022508955019934107077972385013709 4:1 15:1 17:1 30:1 46:1 69:1 103:1 237:1 256:1 278:1 374:1 408:1 601:1 638:1 646:1 681:1 724:1 741:1 1074:1 1089:1 1287:1 1369:1 1735:1 2092:1 2568:1 2623:1 2746:1 2747:1 2748:1 2749:1 #
-0.022508955019934107077972385013709 22:1 32:1 33:1 51:1 66:1 90:1 176:1 333:1 430:1 492:1 521:1 709:1 1151:1 1401:1 #
-0.021164913701182862248995064646806 3:1 4:1 14:1 22:1 30:1 34:1 35:1 41:1 63:1 66:1 83:1 90:1 152:1 171:1 202:1 207:1 230:1 231:1 234:1 246:1 249:1 278:1 296:1 353:1 364:1 432:1 494:1 516:1 560:1 741:1 903:1 918:1 940:1 958:1 1439:1 1622:1 1774:1 1802:1 1881:1 2216:1 2461:1 2526:1 2527:1 2528:1 2529:1 2530:1 #
0.004728478888495809412395587401079 1:1 3:1 4:1 5:1 7:1 14:1 17:1 18:1 22:1 30:1 33:1 39:1 45:1 58:1 59:1 64:1 75:1 83:1 85:1 90:1 101:1 110:1 111:1 132:1 147:1 171:1 176:1 180:1 197:1 199:1 213:1 216:1 221:1 227:1 237:1 264:1 265:1 289:1 327:1 338:1 353:1 357:1 360:1 367:1 402:1 416:1 417:1 435:1 440:1 447:1 456:1 501:1 534:1 560:1 627:1 639:1 709:1 733:1 825:1 852:1 875:1 915:1 976:1 1035:1 1074:1 1090:1 1153:1 1175:1 1206:1 1213:1 1275:1 1320:1 1363:1 1373:1 1376:1 1479:1 1511:1 1628:1 1629:1 1694:1 1745:1 1757:1 1803:1 1825:1 1890:1 1899:1 1945:1 2112:1 2139:1 2338:1 2388:1 2438:1 2526:1 2619:1 2713:1 2847:1 2920:1 2953:1 2978:1 3050:1 3093:1 #
0.0040033029466228940360106314244604 3:1 5:1 10:1 14:1 15:1 17:1 27:1 30:1 34:1 54:1 58:1 59:1 66:1 72:1 79:1 83:1 84:1 94:1 105:1 109:1 110:1 111:1 112:1 114:1 124:1 129:1 145:1 147:1 157:1 169:1 199:1 205:1 211:1 225:1 229:1 233:1 258:1 265:1 308:1 345:1 360:1 394:1 399:1 417:1 440:1 447:1 454:1 466:1 477:1 501:1 547:1 596:1 601:1 611:1 639:1 807:1 840:1 855:1 908:1 948:1 949:1 1018:1 1042:1 1052:1 1084:1 1097:1 1186:1 1203:1 1222:1 1266:1 1308:1 1341:1 1378:1 1395:1 1423:1 1428:1 1444:1 1449:1 1453:1 1573:1 1581:1 1614:1 1620:1 1654:1 1689:1 1763:1 1929:1 2026:1 2036:1 2124:1 2175:1 2325:1 2379:1 2423:1 2524:1 2634:1 2652:1 2736:1 3067:1 #
-0.022508955019934107077972385013709 2:1 3:1 5:1 7:1 14:1 22:1 29:1 30:1 33:1 45:1 57:1 59:1 83:1 109:1 140:1 147:1 176:1 259:1 269:1 498:1 501:1 513:1 543:1 643:1 691:1 694:1 731:1 762:1 812:1 986:1 1277:1 1370:1 1532:1 1578:1 1686:1 1753:1 2366:1 #
0.019686011601806000653747119599757 2:1 5:1 13:1 14:1 15:1 17:1 24:1 30:1 33:1 59:1 80:1 83:1 84:1 85:1 86:1 90:1 101:1 109:1 116:1 123:1 124:1 129:1 133:1 144:1 147:1 152:1 166:1 174:1 176:1 223:1 230:1 264:1 293:1 298:1 306:1 360:1 396:1 479:1 506:1 577:1 580:1 587:1 693:1 757:1 991:1 996:1 1089:1 1123:1 1126:1 1152:1 1226:1 1445:1 1478:1 1519:1 2105:1 2526:1 2623:1 2894:1 2917:1 #
0.022508955019934107077972385013709 3:1 5:1 15:1 23:1 27:1 30:1 45:1 57:1 59:1 60:1 79:1 80:1 85:1 90:1 110:1 147:1 148:1 174:1 225:1 330:1 366:1 411:1 430:1 440:1 443:1 479:1 542:1 639:1 661:1 745:1 776:1 825:1 868:1 1032:1 1143:1 1161:1 1311:1 2080:1 #
-0.022508955019934107077972385013709 5:1 7:1 14:1 16:1 25:1 27:1 28:1 30:1 33:1 34:1 45:1 52:1 55:1 63:1 65:1 70:1 72:1 76:1 78:1 80:1 83:1 85:1 110:1 111:1 121:1 123:1 124:1 136:1 144:1 145:1 147:1 152:1 166:1 170:1 173:1 175:1 176:1 181:1 214:1 219:1 232:1 264:1 265:1 290:1 312:1 318:1 328:1 341:1 348:1 353:1 360:1 390:1 397:1 408:1 411:1 413:1 443:1 453:1 456:1 476:1 477:1 481:1 505:1 508:1 532:1 536:1 538:1 573:1 581:1 602:1 643:1 645:1 654:1 668:1 710:1 723:1 795:1 801:1 826:1 868:1 873:1 874:1 877:1 921:1 924:1 976:1 996:1 997:1 1003:1 1011:1 1056:1 1068:1 1102:1 1111:1 1123:1 1129:1 1140:1 1174:1 1185:1 1296:1 1375:1 1406:1 1503:1 1514:1 1548:1 1567:1 1725:1 1733:1 1759:1 1806:1 1837:1 1842:1 1889:1 1945:1 1965:1 1969:1 1970:1 1975:1 2014:1 2021:1 2125:1 2190:1 2427:1 2678:1 2849:1 2903:1 2904:1 2905:1 #
-0.022508955019934107077972385013709 10:1 13:1 15:1 30:1 33:1 34:1 45:1 51:1 76:1 77:1 80:1 83:1 85:1 101:1 111:1 124:1 140:1 147:1 152:1 160:1 170:1 197:1 224:1 247:1 265:1 272:1 296:1 306:1 360:1 435:1 463:1 469:1 479:1 515:1 577:1 584:1 588:1 798:1 807:1 835:1 874:1 931:1 943:1 991:1 1049:1 1254:1 1392:1 1545:1 1689:1 2018:1 2025:1 2080:1 2164:1 2281:1 2447:1 2503:1 2538:1 2912:1 #
-0.016179268045149148430583707636288 1:1 3:1 7:1 30:1 33:1 34:1 35:1 72:1 76:1 83:1 84:1 85:1 90:1 105:1 109:1 110:1 111:1 144:1 145:1 147:1 167:1 213:1 226:1 290:1 359:1 402:1 404:1 454:1 466:1 469:1 476:1 483:1 498:1 534:1 541:1 544:1 629:1 632:1 639:1 745:1 825:1 835:1 878:1 939:1 981:1 988:1 1018:1 1038:1 1062:1 1084:1 1101:1 1129:1 1161:1 1217:1 1279:1 1283:1 1291:1 1471:1 1819:1 1948:1 2371:1 2414:1 #
-0.022508955019934107077972385013709 5:1 11:1 15:1 25:1 27:1 30:1 41:1 72:1 76:1 77:1 83:1 94:1 101:1 109:1 144:1 159:1 166:1 181:1 237:1 247:1 287:1 290:1 306:1 321:1 330:1 375:1 399:1 407:1 435:1 469:1 501:1 581:1 587:1 627:1 632:1 668:1 724:1 875:1 926:1 943:1 975:1 1057:1 1074:1 1084:1 1107:1 1186:1 1308:1 1466:1 1679:1 1694:1 1888:1 2065:1 2080:1 2171:1 2172:1 2173:1 2174:1 2175:1 2176:1 2177:1 #
-0.015887562809645889433385335109961 3:1 5:1 17:1 21:1 22:1 27:1 29:1 30:1 31:1 33:1 34:1 59:1 83:1 90:1 99:1 101:1 108:1 109:1 110:1 111:1 130:1 142:1 144:1 147:1 148:1 156:1 170:1 176:1 207:1 213:1 224:1 225:1 228:1 230:1 231:1 245:1 255:1 327:1 360:1 447:1 461:1 478:1 521:1 529:1 534:1 639:1 656:1 660:1 662:1 682:1 782:1 783:1 798:1 836:1 910:1 929:1 935:1 936:1 943:1 951:1 974:1 977:1 1013:1 1068:1 1072:1 1084:1 1129:1 1678:1 1715:1 1731:1 1815:1 1883:1 1905:1 1925:1 1946:1 2085:1 2101:1 2195:1 2244:1 2267:1 2322:1 2421:1 2422:1 2423:1 2424:1 #
0.022508955019934107077972385013709 22:1 25:1 33:1 41:1 64:1 72:1 123:1 140:1 176:1 182:1 218:1 230:1 290:1 297:1 399:1 456:1 492:1 587:1 809:1 886:1 972:1 998:1 1054:1 1363:1 1635:1 1662:1 1688:1 1689:1 1823:1 1856:1 1935:1 2014:1 2090:1 2092:1 2106:1 2125:1 2243:1 2296:1 2518:1 2657:1 2950:1 #
0.022508955019934107077972385013709 3:1 22:1 75:1 83:1 105:1 176:1 181:1 218:1 227:1 257:1 376:1 382:1 488:1 668:1 694:1 1101:1 2012:1 2080:1 2738:1 #
0.022508955019934107077972385013709 5:1 7:1 22:1 24:1 33:1 66:1 77:1 111:1 147:1 148:1 166:1 169:1 173:1 179:1 181:1 202:1 404:1 417:1 538:1 560:1 662:1 681:1 735:1 835:1 854:1 855:1 868:1 910:1 921:1 1094:1 1136:1 1331:1 1475:1 1630:1 1964:1 2042:1 2070:1 2113:1 2738:1 2814:1 #
0.022508955019934107077972385013709 17:1 32:1 65:1 72:1 100:1 209:1 218:1 230:1 297:1 306:1 355:1 364:1 403:1 597:1 625:1 681:1 733:1 745:1 946:1 975:1 1008:1 1013:1 1147:1 1204:1 1213:1 1222:1 1297:1 1458:1 1585:1 2111:1 2164:1 2823:1 2870:1 3050:1 #
0.022508955019934107077972385013709 19:1 41:1 56:1 66:1 91:1 175:1 176:1 224:1 230:1 298:1 886:1 1074:1 1353:1 1399:1 2119:1 2143:1 2401:1 #
0.022508955019934107077972385013709 3:1 4:1 15:1 22:1 27:1 30:1 33:1 41:1 42:1 45:1 69:1 144:1 223:1 258:1 333:1 337:1 338:1 417:1 534:1 659:1 723:1 731:1 805:1 886:1 1010:1 1023:1 1057:1 1268:1 1574:1 1755:1 #
-0.0067248561821214329278784127552626 3:1 5:1 7:1 15:1 18:1 29:1 32:1 33:1 59:1 66:1 72:1 81:1 83:1 90:1 101:1 140:1 176:1 181:1 186:1 190:1 193:1 196:1 219:1 230:1 298:1 385:1 417:1 440:1 475:1 592:1 626:1 640:1 675:1 680:1 693:1 750:1 763:1 812:1 825:1 880:1 945:1 1056:1 1264:1 1418:1 1725:1 #
-0.022508955019934107077972385013709 14:1 32:1 59:1 64:1 75:1 101:1 115:1 211:1 227:1 230:1 305:1 414:1 488:1 630:1 662:1 681:1 833:1 1013:1 1074:1 1521:1 1796:1 1801:1 1894:1 2167:1 #
-0.022508955019934107077972385013709 5:1 14:1 24:1 57:1 69:1 72:1 94:1 112:1 129:1 169:1 176:1 221:1 230:1 243:1 392:1 429:1 456:1 464:1 471:1 681:1 812:1 1172:1 1217:1 1418:1 1433:1 2253:1 2294:1 2687:1 #
-0.022508955019934107077972385013709 4:1 7:1 17:1 22:1 24:1 51:1 59:1 64:1 66:1 72:1 83:1 84:1 105:1 109:1 116:1 140:1 147:1 176:1 218:1 231:1 260:1 308:1 395:1 400:1 429:1 823:1 915:1 993:1 1081:1 1133:1 1210:1 1307:1 1313:1 2282:1 2609:1 2791:1 #
0.022508955019934107077972385013709 4:1 14:1 25:1 30:1 33:1 45:1 51:1 57:1 63:1 79:1 109:1 113:1 129:1 144:1 147:1 159:1 220:1 223:1 227:1 237:1 264:1 290:1 308:1 360:1 403:1 437:1 471:1 486:1 490:1 513:1 886:1 898:1 932:1 944:1 974:1 997:1 1022:1 1161:1 1266:1 1281:1 1590:1 1798:1 2081:1 2311:1 2636:1 2774:1 2960:1 #
0.0051780439487508298640472403917556 2:1 4:1 5:1 26:1 34:1 45:1 80:1 94:1 109:1 110:1 113:1 124:1 129:1 147:1 159:1 170:1 221:1 244:1 290:1 308:1 348:1 372:1 403:1 409:1 429:1 479:1 482:1 515:1 521:1 591:1 651:1 724:1 741:1 868:1 986:1 1049:1 1074:1 1089:1 1127:1 1264:1 1416:1 2021:1 2182:1 2219:1 2312:1 2397:1 2442:1 3033:1 #
0.010342049652660126324299483258073 3:1 4:1 5:1 17:1 22:1 24:1 30:1 33:1 34:1 36:1 41:1 51:1 59:1 66:1 69:1 72:1 75:1 83:1 90:1 101:1 108:1 116:1 124:1 136:1 140:1 145:1 147:1 170:1 176:1 181:1 197:1 203:1 230:1 231:1 232:1 237:1 353:1 381:1 389:1 399:1 407:1 414:1 434:1 456:1 504:1 505:1 533:1 599:1 601:1 614:1 618:1 631:1 670:1 687:1 707:1 710:1 724:1 733:1 800:1 807:1 915:1 936:1 952:1 1024:1 1039:1 1049:1 1074:1 1181:1 1254:1 1282:1 1437:1 1450:1 1548:1 1590:1 1632:1 1817:1 1851:1 1997:1 2175:1 2242:1 2412:1 2580:1 2641:1 2667:1 2685:1 2687:1 2822:1 3022:1 #
0.020842063217521342166627107417298 3:1 5:1 7:1 11:1 30:1 32:1 45:1 46:1 59:1 72:1 77:1 83:1 85:1 92:1 111:1 124:1 136:1 141:1 147:1 166:1 181:1 197:1 202:1 227:1 249:1 257:1 264:1 290:1 333:1 345:1 353:1 359:1 399:1 414:1 415:1 456:1 474:1 479:1 490:1 514:1 521:1 538:1 587:1 622:1 683:1 714:1 784:1 802:1 812:1 828:1 831:1 886:1 910:1 948:1 1025:1 1074:1 1217:1 1378:1 1411:1 1414:1 1419:1 1440:1 1639:1 1779:1 1797:1 1842:1 1860:1 1909:1 1933:1 2071:1 2315:1 2739:1 2957:1 3060:1 #
0.022508955019934107077972385013709 3:1 11:1 15:1 24:1 27:1 30:1 34:1 45:1 59:1 60:1 85:1 94:1 140:1 152:1 159:1 182:1 187:1 204:1 211:1 227:1 230:1 234:1 237:1 246:1 265:1 290:1 417:1 440:1 479:1 572:1 629:1 640:1 665:1 717:1 724:1 943:1 971:1 1023:1 1057:1 1155:1 1163:1 1265:1 1315:1 1973:1 2059:1 2388:1 2597:1 #
-0.01532108099154773361849635193721 4:1 5:1 7:1 11:1 30:1 33:1 41:1 45:1 55:1 56:1 59:1 90:1 129:1 130:1 169:1 203:1 220:1 227:1 238:1 341:1 355:1 360:1 399:1 417:1 443:1 456:1 560:1 618:1 624:1 805:1 915:1 971:1 1094:1 1106:1 1143:1 1155:1 1183:1 1202:1 1222:1 1582:1 1736:1 2035:1 2057:1 2925:1 #
-0.013003960876010151742621090420471 3:1 4:1 17:1 30:1 35:1 50:1 66:1 85:1 90:1 105:1 109:1 110:1 124:1 129:1 147:1 166:1 167:1 198:1 199:1 224:1 227:1 231:1 237:1 395:1 396:1 399:1 437:1 456:1 492:1 516:1 527:1 573:1 624:1 662:1 665:1 722:1 804:1 941:1 1035:1 1056:1 1074:1 1089:1 1122:1 1179:1 1180:1 1234:1 1251:1 1269:1 1320:1 1326:1 1390:1 1466:1 1588:1 1596:1 1620:1 1674:1 1786:1 1816:1 2011:1 2070:1 2207:1 2219:1 2312:1 2313:1 2314:1 2315:1 2316:1 2317:1 #
-0.022508955019934107077972385013709 5:1 17:1 22:1 30:1 51:1 66:1 90:1 110:1 116:1 124:1 140:1 144:1 147:1 151:1 157:1 159:1 170:1 181:1 213:1 290:1 306:1 447:1 451:1 477:1 492:1 533:1 535:1 580:1 584:1 587:1 668:1 809:1 828:1 867:1 901:1 1049:1 1089:1 1124:1 1149:1 1311:1 2012:1 2064:1 2105:1 2423:1 #
-0.022508955019934107077972385013709 3:1 5:1 17:1 30:1 34:1 45:1 51:1 56:1 59:1 72:1 77:1 83:1 88:1 109:1 215:1 264:1 281:1 291:1 298:1 338:1 357:1 395:1 396:1 403:1 430:1 542:1 546:1 643:1 688:1 761:1 809:1 913:1 948:1 996:1 1030:1 1188:1 1266:1 1369:1 1492:1 1576:1 1680:1 1792:1 2036:1 2219:1 2327:1 2451:1 2454:1 2623:1 2703:1 2806:1 2807:1 2808:1 #
-0.022508955019934107077972385013709 14:1 22:1 30:1 45:1 59:1 70:1 85:1 105:1 109:1 110:1 134:1 141:1 166:1 170:1 171:1 176:1 182:1 225:1 237:1 287:1 289:1 290:1 297:1 346:1 415:1 417:1 430:1 454:1 456:1 492:1 556:1 560:1 617:1 665:1 734:1 869:1 943:1 1274:1 1296:1 1523:1 1591:1 1596:1 1634:1 1739:1 1758:1 2233:1 2428:1 2434:1 2821:1 2822:1 2823:1 2824:1 #
0.022508955019934107077972385013709 5:1 18:1 22:1 32:1 33:1 34:1 57:1 70:1 75:1 76:1 81:1 83:1 85:1 112:1 164:1 169:1 176:1 204:1 205:1 230:1 342:1 390:1 431:1 432:1 458:1 469:1 479:1 508:1 782:1 807:1 844:1 886:1 948:1 1047:1 1050:1 1123:1 1124:1 1129:1 1203:1 1444:1 1537:1 1945:1 1952:1 1987:1 2057:1 2198:1 2482:1 2639:1 2765:1 2772:1 2957:1 3084:1 #
0.022508955019934107077972385013709 4:1 7:1 15:1 18:1 29:1 30:1 33:1 34:1 59:1 64:1 65:1 66:1 73:1 76:1 83:1 105:1 124:1 181:1 193:1 199:1 224:1 225:1 247:1 249:1 251:1 275:1 278:1 283:1 306:1 357:1 435:1 492:1 505:1 508:1 586:1 587:1 617:1 632:1 726:1 739:1 807:1 868:1 921:1 931:1 935:1 951:1 957:1 1212:1 1288:1 1319:1 1413:1 1417:1 1476:1 1512:1 1632:1 1634:1 1751:1 1766:1 1822:1 2375:1 2806:1 3054:1 #
0.0011864664892203451770219535532647 4:1 14:1 30:1 33:1 34:1 49:1 50:1 59:1 66:1 69:1 70:1 72:1 83:1 100:1 101:1 115:1 141:1 152:1 177:1 180:1 208:1 230:1 231:1 242:1 247:1 249:1 257:1 290:1 353:1 447:1 519:1 544:1 587:1 649:1 680:1 805:1 807:1 844:1 889:1 915:1 943:1 1035:1 1114:1 1270:1 1320:1 1567:1 1700:1 1934:1 1941:1 2439:1 2638:1 2665:1 2670:1 #
0.022508955019934107077972385013709 3:1 5:1 14:1 15:1 18:1 24:1 30:1 34:1 45:1 55:1 61:1 66:1 72:1 78:1 97:1 105:1 139:1 144:1 167:1 169:1 176:1 181:1 182:1 208:1 218:1 225:1 230:1 231:1 249:1 250:1 259:1 347:1 353:1 359:1 377:1 414:1 425:1 461:1 479:1 488:1 502:1 515:1 519:1 528:1 558:1 613:1 630:1 683:1 856:1 867:1 891:1 926:1 991:1 996:1 1122:1 1124:1 1127:1 1172:1 1287:1 1354:1 1375:1 1391:1 1494:1 1532:1 1692:1 1783:1 1816:1 1903:1 2020:1 2063:1 2513:1 2583:1 2766:1 2879:1 2973:1 2991:1 #
0.022508955019934107077972385013709 3:1 5:1 52:1 59:1 72:1 83:1 85:1 306:1 338:1 407:1 476:1 478:1 488:1 745:1 1965:1 2324:1 #
-0.022508955019934107077972385013709 4:1 5:1 7:1 11:1 15:1 18:1 30:1 31:1 33:1 34:1 59:1 72:1 73:1 109:1 111:1 123:1 140:1 170:1 247:1 249:1 265:1 306:1 308:1 357:1 376:1 384:1 417:1 454:1 474:1 482:1 574:1 584:1 618:1 668:1 735:1 749:1 833:1 1113:1 1271:1 1369:1 1378:1 1386:1 1411:1 1427:1 1476:1 1553:1 1578:1 1751:1 2058:1 2091:1 2232:1 2256:1 2307:1 2337:1 2338:1 2339:1 #
-0.0071698829896037338457737142505266 4:1 5:1 17:1 33:1 34:1 45:1 56:1 57:1 169:1 181:1 226:1 230:1 257:1 259:1 265:1 307:1 349:1 360:1 376:1 390:1 400:1 435:1 454:1 697:1 724:1 906:1 1048:1 1049:1 1050:1 1053:1 1089:1 1416:1 1526:1 2012:1 2282:1 2283:1 2284:1 #
-0.022508955019934107077972385013709 3:1 5:1 19:1 22:1 29:1 33:1 34:1 51:1 69:1 83:1 124:1 141:1 176:1 227:1 257:1 328:1 382:1 416:1 447:1 534:1 538:1 540:1 577:1 776:1 802:1 834:1 1091:1 1118:1 1227:1 1267:1 1355:1 1356:1 1357:1 1358:1 1359:1 #
0.0076885375099634721204888698764535 2:1 3:1 14:1 25:1 27:1 30:1 45:1 57:1 59:1 64:1 70:1 71:1 83:1 89:1 90:1 101:1 140:1 145:1 155:1 159:1 176:1 198:1 213:1 227:1 231:1 264:1 337:1 396:1 400:1 402:1 416:1 454:1 456:1 501:1 505:1 512:1 551:1 564:1 591:1 632:1 665:1 680:1 681:1 801:1 807:1 884:1 1033:1 1058:1 1122:1 1187:1 1222:1 1271:1 1397:1 1717:1 1741:1 1789:1 1855:1 1936:1 2018:1 2051:1 2154:1 2203:1 2299:1 2632:1 2667:1 2735:1 2797:1 2857:1 2880:1 #
-0.022508955019934107077972385013709 4:1 14:1 15:1 30:1 34:1 45:1 72:1 83:1 110:1 111:1 116:1 140:1 176:1 230:1 398:1 435:1 443:1 534:1 538:1 552:1 774:1 1075:1 1212:1 1230:1 1382:1 1462:1 1471:1 1562:1 1830:1 1915:1 2590:1 2863:1 2915:1 #
0.022508955019934107077972385013709 5:1 14:1 22:1 45:1 47:1 51:1 59:1 66:1 83:1 99:1 105:1 109:1 110:1 147:1 155:1 166:1 176:1 180:1 181:1 213:1 216:1 221:1 237:1 261:1 291:1 306:1 363:1 415:1 443:1 527:1 913:1 1013:1 1033:1 1137:1 1156:1 1170:1 1229:1 1302:1 1409:1 1596:1 1698:1 1903:1 1937:1 2149:1 2251:1 2915:1 2931:1 2990:1 #
0.022508955019934107077972385013709 15:1 17:1 27:1 66:1 90:1 109:1 124:1 129:1 130:1 181:1 196:1 227:1 333:1 608:1 630:1 643:1 694:1 774:1 805:1 971:1 1023:1 1081:1 1094:1 1188:1 1578:1 1611:1 2065:1 2972:1 #
0.022508955019934107077972385013709 4:1 6:1 7:1 13:1 14:1 22:1 30:1 59:1 70:1 72:1 83:1 84:1 109:1 110:1 148:1 152:1 157:1 185:1 237:1 257:1 271:1 290:1 291:1 318:1 321:1 330:1 336:1 358:1 360:1 391:1 443:1 447:1 454:1 494:1 560:1 564:1 649:1 654:1 791:1 794:1 1023:1 1152:1 1159:1 1205:1 1243:1 1296:1 1572:1 1824:1 1922:1 2012:1 2023:1 2244:1 2259:1 2365:1 2397:1 2501:1 2674:1 2698:1 2837:1 2905:1 2994:1 #
0.022508955019934107077972385013709 3:1 7:1 14:1 17:1 22:1 24:1 25:1 30:1 33:1 34:1 40:1 45:1 51:1 56:1 59:1 84:1 111:1 116:1 121:1 122:1 123:1 131:1 132:1 148:1 152:1 159:1 166:1 171:1 175:1 198:1 230:1 231:1 257:1 282:1 283:1 291:1 299:1 365:1 394:1 407:1 408:1 473:1 500:1 510:1 527:1 538:1 546:1 547:1 551:1 554:1 587:1 615:1 716:1 728:1 809:1 916:1 925:1 937:1 976:1 992:1 1003:1 1122:1 1217:1 1382:1 1530:1 1984:1 2184:1 2259:1 2316:1 2501:1 2530:1 2665:1 #
0.019737847846683063274264569031402 5:1 11:1 17:1 19:1 22:1 33:1 35:1 45:1 83:1 85:1 89:1 93:1 109:1 111:1 144:1 167:1 224:1 261:1 268:1 281:1 338:1 364:1 432:1 468:1 534:1 572:1 639:1 716:1 724:1 734:1 801:1 812:1 887:1 963:1 1020:1 1050:1 1101:1 1121:1 1222:1 1234:1 1308:1 1309:1 1350:1 1473:1 1475:1 1530:1 1642:1 1683:1 1689:1 1861:1 1864:1 1913:1 2052:1 2060:1 2091:1 2093:1 2265:1 2706:1 2788:1 2925:1 #
-0.022508955019934107077972385013709 3:1 5:1 14:1 22:1 30:1 33:1 35:1 45:1 66:1 70:1 72:1 85:1 94:1 101:1 109:1 148:1 166:1 179:1 182:1 227:1 230:1 247:1 260:1 275:1 282:1 308:1 345:1 353:1 374:1 386:1 478:1 525:1 534:1 544:1 556:1 592:1 678:1 695:1 828:1 885:1 916:1 971:1 982:1 993:1 1035:1 1042:1 1049:1 1052:1 1068:1 1521:1 1579:1 1580:1 1581:1 1582:1 1583:1 1584:1 1585:1 #
-0.022508955019934107077972385013709 1:1 4:1 5:1 7:1 14:1 16:1 17:1 24:1 30:1 33:1 42:1 45:1 51:1 56:1 59:1 66:1 83:1 106:1 115:1 123:1 136:1 147:1 148:1 156:1 176:1 247:1 291:1 390:1 435:1 513:1 544:1 683:1 694:1 703:1 724:1 807:1 868:1 910:1 936:1 943:1 948:1 1023:1 1035:1 1054:1 1060:1 1109:1 1123:1 1217:1 1252:1 1302:1 1368:1 1376:1 1444:1 1471:1 1564:1 1635:1 1810:1 1838:1 1980:1 2169:1 2171:1 2236:1 2326:1 2465:1 2470:1 2521:1 2522:1 2523:1 #
-0.022508955019934107077972385013709 3:1 4:1 5:1 12:1 17:1 22:1 24:1 27:1 30:1 33:1 63:1 72:1 83:1 85:1 103:1 110:1 111:1 130:1 147:1 148:1 179:1 231:1 262:1 264:1 291:1 298:1 306:1 308:1 314:1 328:1 402:1 440:1 474:1 476:1 488:1 516:1 538:1 564:1 583:1 640:1 680:1 681:1 682:1 714:1 724:1 806:1 943:1 948:1 1014:1 1015:1 1052:1 1438:1 1700:1 2012:1 2410:1 #
-0.022508955019934107077972385013709 1:1 4:1 45:1 51:1 59:1 76:1 83:1 97:1 109:1 115:1 147:1 209:1 218:1 240:1 249:1 283:1 288:1 338:1 348:1 353:1 443:1 514:1 521:1 549:1 560:1 564:1 571:1 604:1 618:1 649:1 713:1 714:1 808:1 828:1 963:1 1014:1 1189:1 1276:1 1343:1 1358:1 1562:1 1664:1 2273:1 2554:1 #
-0.022508955019934107077972385013709 14:1 15:1 24:1 30:1 32:1 33:1 34:1 39:1 52:1 59:1 83:1 85:1 111:1 131:1 140:1 148:1 166:1 247:1 250:1 291:1 306:1 394:1 402:1 431:1 443:1 447:1 479:1 645:1 681:1 710:1 823:1 854:1 855:1 937:1 993:1 1050:1 1065:1 1124:1 1129:1 1140:1 1281:1 1293:1 1294:1 1410:1 1620:1 1694:1 1731:1 1744:1 1954:1 1976:1 2040:1 2043:1 2080:1 2203:1 2227:1 2300:1 2330:1 2357:1 2524:1 2650:1 2651:1 2652:1 #
-0.0019276110506326008409844208202344 3:1 4:1 5:1 15:1 17:1 22:1 27:1 30:1 41:1 45:1 51:1 57:1 59:1 65:1 83:1 109:1 110:1 111:1 157:1 169:1 175:1 230:1 255:1 290:1 330:1 353:1 403:1 414:1 479:1 498:1 681:1 745:1 756:1 784:1 926:1 997:1 1052:1 1320:1 1396:1 1424:1 1669:1 1779:1 1957:1 2719:1 #
0.022508955019934107077972385013709 3:1 4:1 5:1 7:1 17:1 22:1 30:1 57:1 69:1 101:1 110:1 116:1 129:1 150:1 181:1 227:1 238:1 275:1 308:1 735:1 776:1 805:1 829:1 1013:1 1023:1 1194:1 1200:1 1269:1 1321:1 1679:1 2046:1 2315:1 2330:1 #
0.022508955019934107077972385013709 4:1 5:1 17:1 21:1 22:1 24:1 30:1 33:1 34:1 41:1 50:1 66:1 77:1 84:1 98:1 112:1 176:1 203:1 215:1 232:1 330:1 333:1 374:1 402:1 435:1 618:1 663:1 664:1 724:1 737:1 795:1 804:1 811:1 867:1 961:1 971:1 1277:1 1318:1 1525:1 1686:1 1742:1 1869:1 2219:1 2465:1 2825:1 2850:1 2924:1 3056:1 #
0.022508955019934107077972385013709 2:1 3:1 5:1 7:1 17:1 19:1 22:1 33:1 34:1 35:1 45:1 56:1 59:1 66:1 69:1 76:1 90:1 105:1 106:1 124:1 151:1 169:1 227:1 276:1 404:1 440:1 508:1 521:1 534:1 697:1 832:1 939:1 1140:1 1307:1 1445:1 1656:1 2238:1 2379:1 2509:1 2830:1 3042:1 #
0.022508955019934107077972385013709 15:1 24:1 30:1 41:1 76:1 115:1 123:1 176:1 237:1 290:1 307:1 345:1 402:1 567:1 724:1 733:1 743:1 827:1 1101:1 1218:1 1297:1 1539:1 1662:1 2322:1 2853:1 2950:1 #
-0.022508955019934107077972385013709 17:1 41:1 50:1 57:1 64:1 66:1 83:1 105:1 110:1 129:1 152:1 157:1 175:1 227:1 297:1 298:1 345:1 502:1 540:1 660:1 662:1 807:1 877:1 878:1 879:1 880:1 881:1 882:1 883:1 884:1 885:1 886:1 887:1 888:1 889:1 890:1 891:1 892:1 893:1 894:1 #
-0.022508955019934107077972385013709 3:1 5:1 17:1 22:1 28:1 35:1 45:1 59:1 64:1 77:1 83:1 90:1 99:1 110:1 129:1 159:1 176:1 180:1 181:1 250:1 275:1 290:1 291:1 399:1 403:1 492:1 605:1 679:1 778:1 805:1 807:1 1045:1 1074:1 1077:1 1179:1 1325:1 1345:1 1401:1 1424:1 1454:1 1578:1 1799:1 1838:1 2080:1 2145:1 2176:1 2437:1 2860:1 #
-0.021779397995791201919635327044489 2:1 3:1 5:1 17:1 22:1 24:1 59:1 66:1 72:1 80:1 83:1 90:1 94:1 109:1 116:1 123:1 131:1 140:1 155:1 169:1 173:1 181:1 199:1 221:1 227:1 237:1 264:1 306:1 319:1 361:1 399:1 414:1 417:1 469:1 521:1 584:1 660:1 670:1 717:1 745:1 782:1 789:1 834:1 1013:1 1053:1 1073:1 1097:1 1155:1 1217:1 1320:1 1416:1 1421:1 1514:1 1672:1 1751:1 1804:1 1817:1 1861:1 2006:1 2046:1 2169:1 2226:1 2306:1 2340:1 2347:1 2420:1 2484:1 2500:1 2501:1 2502:1 #
-0.022508955019934107077972385013709 3:1 5:1 11:1 14:1 15:1 17:1 35:1 37:1 45:1 64:1 69:1 76:1 81:1 83:1 90:1 110:1 112:1 129:1 136:1 169:1 176:1 181:1 204:1 257:1 365:1 426:1 458:1 488:1 559:1 629:1 805:1 932:1 934:1 937:1 979:1 1294:1 1378:1 2267:1 2797:1 #
-0.0059542441185602267700316403420402 3:1 5:1 14:1 15:1 18:1 66:1 90:1 94:1 112:1 116:1 144:1 181:1 276:1 290:1 345:1 407:1 414:1 440:1 513:1 575:1 716:1 731:1 1294:1 1379:1 1567:1 1611:1 1696:1 2080:1 2271:1 2579:1 2632:1 2887:1 #
0.022508955019934107077972385013709 4:1 5:1 7:1 14:1 15:1 45:1 51:1 59:1 72:1 76:1 79:1 83:1 110:1 111:1 116:1 147:1 180:1 189:1 208:1 230:1 246:1 271:1 327:1 338:1 374:1 443:1 469:1 476:1 552:1 564:1 584:1 613:1 624:1 681:1 683:1 792:1 807:1 868:1 970:1 1013:1 1024:1 1056:1 1091:1 1123:1 1141:1 1159:1 1290:1 1337:1 1369:1 1386:1 1492:1 1541:1 1612:1 1627:1 1730:1 1762:1 1910:1 1941:1 2447:1 2448:1 2553:1 2555:1 2785:1 2914:1 #
0.010672587333066032092010466669763 4:1 16:1 17:1 30:1 33:1 45:1 59:1 65:1 83:1 85:1 90:1 94:1 95:1 100:1 105:1 109:1 112:1 115:1 145:1 151:1 160:1 170:1 176:1 179:1 191:1 209:1 225:1 227:1 264:1 270:1 283:1 290:1 338:1 402:1 410:1 443:1 444:1 473:1 475:1 490:1 515:1 525:1 534:1 538:1 564:1 567:1 571:1 635:1 654:1 668:1 672:1 696:1 774:1 784:1 835:1 884:1 889:1 975:1 981:1 1006:1 1049:1 1050:1 1089:1 1297:1 1341:1 1498:1 1553:1 1662:1 1721:1 1752:1 1818:1 1897:1 2049:1 2190:1 2237:1 2401:1 2482:1 2548:1 2684:1 2889:1 2992:1 #
0.022508955019934107077972385013709 14:1 30:1 45:1 47:1 50:1 51:1 52:1 83:1 131:1 143:1 144:1 157:1 167:1 264:1 272:1 288:1 314:1 355:1 447:1 538:1 548:1 584:1 749:1 842:1 910:1 916:1 943:1 969:1 1005:1 1089:1 1189:1 1287:1 1397:1 1515:1 1981:1 2067:1 2135:1 2351:1 2418:1 2444:1 2460:1 2469:1 2607:1 2787:1 #
0.018679702173266862080813766056053 5:1 12:1 14:1 30:1 51:1 55:1 59:1 72:1 85:1 104:1 111:1 176:1 182:1 214:1 230:1 275:1 308:1 360:1 443:1 447:1 584:1 599:1 693:1 759:1 809:1 963:1 1071:1 1189:1 1268:1 1290:1 1495:1 1689:1 1766:1 1768:1 1888:1 2032:1 2263:1 2265:1 2493:1 2546:1 2712:1 2883:1 #
0.016795645898255686517819285086262 4:1 5:1 9:1 13:1 14:1 15:1 17:1 19:1 22:1 26:1 30:1 32:1 33:1 45:1 50:1 59:1 60:1 66:1 69:1 83:1 90:1 109:1 111:1 144:1 147:1 148:1 214:1 284:1 443:1 454:1 458:1 467:1 629:1 918:1 936:1 943:1 1046:1 1218:1 1444:1 1694:1 1790:1 2108:1 2146:1 2177:1 2227:1 2232:1 2532:1 2704:1 2740:1 #
-0.022508955019934107077972385013709 11:1 14:1 15:1 17:1 22:1 33:1 34:1 58:1 59:1 83:1 85:1 97:1 109:1 110:1 111:1 112:1 140:1 144:1 147:1 169:1 176:1 202:1 211:1 230:1 232:1 272:1 288:1 333:1 359:1 370:1 471:1 475:1 479:1 492:1 501:1 502:1 508:1 538:1 550:1 615:1 651:1 668:1 709:1 737:1 759:1 824:1 826:1 910:1 991:1 997:1 1023:1 1053:1 1136:1 1143:1 1147:1 1148:1 1149:1 1150:1 1151:1 1152:1 1153:1 1154:1 1155:1 1156:1 1157:1 1158:1 1159:1 1160:1 1161:1 1162:1 #
-0.022508955019934107077972385013709 3:1 4:1 5:1 14:1 18:1 22:1 30:1 34:1 39:1 57:1 59:1 83:1 84:1 109:1 111:1 124:1 147:1 151:1 161:1 166:1 169:1 174:1 187:1 225:1 233:1 366:1 391:1 404:1 440:1 451:1 456:1 465:1 516:1 541:1 632:1 707:1 868:1 936:1 943:1 1023:1 1106:1 1187:1 1188:1 1192:1 1445:1 1620:1 1689:1 2381:1 2382:1 #
0.0082674484194180386520400816152687 3:1 5:1 20:1 22:1 30:1 66:1 70:1 83:1 85:1 90:1 101:1 103:1 124:1 153:1 176:1 230:1 236:1 238:1 247:1 249:1 290:1 291:1 308:1 337:1 395:1 432:1 506:1 587:1 589:1 724:1 731:1 798:1 875:1 891:1 908:1 1050:1 1057:1 1157:1 1383:1 1402:1 1413:1 1444:1 1449:1 1696:1 1698:1 2006:1 2331:1 2866:1 2867:1 #
-0.022508955019934107077972385013709 3:1 4:1 15:1 19:1 32:1 45:1 51:1 72:1 110:1 116:1 144:1 180:1 187:1 221:1 249:1 268:1 534:1 647:1 668:1 712:1 766:1 910:1 913:1 961:1 1175:1 1188:1 1212:1 1229:1 1532:1 2032:1 2162:1 2836:1 #
-0.022508955019934107077972385013709 45:1 59:1 84:1 138:1 144:1 182:1 230:1 268:1 290:1 417:1 434:1 440:1 443:1 469:1 501:1 541:1 589:1 630:1 660:1 681:1 715:1 717:1 952:1 969:1 1033:1 1089:1 1201:1 1320:1 1353:1 1796:1 1797:1 1798:1 #
0.022508955019934107077972385013709 3:1 5:1 18:1 24:1 34:1 35:1 77:1 83:1 90:1 94:1 109:1 110:1 129:1 132:1 169:1 282:1 330:1 349:1 365:1 400:1 403:1 441:1 449:1 516:1 534:1 605:1 632:1 660:1 675:1 724:1 741:1 756:1 846:1 852:1 948:1 1038:1 1129:1 1208:1 1210:1 1271:1 1276:1 1365:1 1491:1 1500:1 1634:1 1888:1 1936:1 2169:1 2479:1 2515:1 2646:1 2650:1 2878:1 #
0.022508955019934107077972385013709 3:1 5:1 14:1 17:1 27:1 30:1 40:1 59:1 90:1 92:1 101:1 110:1 111:1 116:1 129:1 140:1 147:1 176:1 181:1 182:1 247:1 298:1 386:1 390:1 403:1 417:1 466:1 488:1 629:1 657:1 680:1 723:1 939:1 1037:1 1161:1 1230:1 1311:1 1325:1 1358:1 1678:1 2774:1 2826:1 #
0.022508955019934107077972385013709 3:1 14:1 15:1 17:1 22:1 23:1 24:1 29:1 30:1 35:1 45:1 51:1 57:1 70:1 83:1 101:1 105:1 110:1 117:1 140:1 144:1 147:1 159:1 176:1 227:1 249:1 290:1 291:1 307:1 358:1 390:1 435:1 440:1 469:1 497:1 551:1 575:1 583:1 643:1 652:1 768:1 841:1 1074:1 1276:1 1411:1 1471:1 1474:1 1588:1 1910:1 1914:1 2057:1 2278:1 2430:1 2929:1 2996:1 #
0.022508955019934107077972385013709 3:1 17:1 22:1 30:1 57:1 75:1 82:1 83:1 85:1 90:1 109:1 110:1 113:1 169:1 176:1 180:1 181:1 220:1 227:1 257:1 417:1 435:1 466:1 515:1 521:1 542:1 558:1 566:1 627:1 665:1 812:1 834:1 885:1 971:1 976:1 997:1 1023:1 1132:1 1171:1 1224:1 1376:1 1468:1 1471:1 1869:1 1899:1 2954:1 #
0.022508955019934107077972385013709 5:1 11:1 12:1 23:1 55:1 66:1 85:1 90:1 94:1 101:1 129:1 144:1 182:1 226:1 287:1 306:1 314:1 377:1 399:1 403:1 488:1 522:1 527:1 534:1 601:1 622:1 624:1 660:1 767:1 768:1 820:1 852:1 936:1 947:1 959:1 1001:1 1074:1 1090:1 1137:1 1174:1 1208:1 1461:1 1917:1 1967:1 2235:1 2290:1 2349:1 2644:1 2686:1 2943:1 #
-0.022508955019934107077972385013709 3:1 5:1 7:1 14:1 22:1 24:1 30:1 76:1 83:1 90:1 105:1 111:1 124:1 147:1 176:1 182:1 230:1 290:1 296:1 353:1 362:1 384:1 391:1 442:1 466:1 475:1 514:1 605:1 645:1 683:1 724:1 731:1 737:1 771:1 866:1 939:1 1034:1 1102:1 1274:1 1280:1 1618:1 1738:1 1847:1 1892:1 1964:1 2367:1 2729:1 2872:1 #
-0.022508955019934107077972385013709 2:1 5:1 11:1 14:1 30:1 34:1 57:1 61:1 84:1 110:1 116:1 117:1 148:1 167:1 176:1 227:1 232:1 251:1 297:1 298:1 377:1 384:1 400:1 443:1 447:1 469:1 473:1 488:1 492:1 534:1 558:1 724:1 729:1 746:1 807:1 809:1 840:1 1088:1 1171:1 1175:1 1253:1 1296:1 1328:1 1708:1 1873:1 2030:1 2349:1 2350:1 2351:1 2352:1 2353:1 2354:1 #
-0.022508955019934107077972385013709 5:1 14:1 18:1 21:1 24:1 30:1 45:1 56:1 66:1 90:1 95:1 101:1 110:1 147:1 152:1 167:1 176:1 179:1 202:1 203:1 242:1 303:1 312:1 402:1 430:1 443:1 447:1 458:1 477:1 479:1 538:1 569:1 613:1 630:1 659:1 665:1 666:1 684:1 716:1 731:1 770:1 824:1 868:1 951:1 971:1 1049:1 1140:1 1148:1 1199:1 1290:1 1378:1 1409:1 1424:1 1475:1 1484:1 1512:1 1620:1 1784:1 1926:1 1956:1 2081:1 2093:1 2119:1 2153:1 2190:1 2202:1 2405:1 2442:1 2451:1 2524:1 2525:1 #
-0.022508955019934107077972385013709 5:1 30:1 32:1 34:1 40:1 70:1 75:1 83:1 90:1 95:1 103:1 110:1 147:1 227:1 308:1 331:1 407:1 412:1 415:1 454:1 490:1 521:1 613:1 1023:1 1197:1 1373:1 1538:1 1774:1 2032:1 2202:1 2455:1 #
-0.022508955019934107077972385013709 4:1 5:1 7:1 14:1 15:1 22:1 24:1 25:1 27:1 28:1 30:1 34:1 37:1 51:1 57:1 59:1 66:1 83:1 90:1 110:1 111:1 116:1 130:1 147:1 164:1 169:1 176:1 193:1 208:1 224:1 230:1 231:1 308:1 328:1 360:1 377:1 416:1 432:1 466:1 504:1 515:1 551:1 724:1 784:1 812:1 994:1 1047:1 1052:1 1187:1 1229:1 1721:1 1733:1 1814:1 1828:1 1857:1 1912:1 2405:1 2718:1 #
0.0021121564518026998691357931647872 12:1 13:1 15:1 18:1 22:1 27:1 46:1 51:1 59:1 64:1 66:1 69:1 72:1 76:1 80:1 83:1 108:1 109:1 110:1 116:1 130:1 137:1 144:1 147:1 148:1 161:1 171:1 175:1 181:1 225:1 233:1 281:1 306:1 353:1 365:1 392:1 416:1 440:1 490:1 564:1 581:1 622:1 654:1 662:1 681:1 706:1 724:1 824:1 877:1 891:1 916:1 1104:1 1139:1 1270:1 1573:1 1578:1 1601:1 1620:1 1710:1 1953:1 2296:1 2365:1 2523:1 2773:1 2819:1 2994:1 3016:1 #
0.022508955019934107077972385013709 1:1 5:1 14:1 16:1 51:1 72:1 85:1 98:1 105:1 124:1 144:1 166:1 209:1 217:1 297:1 469:1 501:1 560:1 581:1 589:1 596:1 683:1 714:1 749:1 809:1 812:1 996:1 1058:1 1179:1 1449:1 1460:1 1477:1 1514:1 1537:1 1731:1 1846:1 2040:1 2064:1 2268:1 2320:1 2416:1 2615:1 2718:1 2989:1 #
0.022508955019934107077972385013709 3:1 5:1 9:1 15:1 22:1 59:1 72:1 83:1 110:1 211:1 443:1 510:1 660:1 694:1 724:1 805:1 1186:1 1315:1 1441:1 1651:1 1901:1 2423:1 #
0.022508955019934107077972385013709 4:1 11:1 17:1 33:1 59:1 64:1 70:1 72:1 81:1 89:1 109:1 141:1 152:1 169:1 171:1 181:1 264:1 275:1 340:1 365:1 407:1 417:1 430:1 435:1 443:1 451:1 490:1 498:1 536:1 538:1 544:1 584:1 589:1 735:1 739:1 798:1 943:1 974:1 1035:1 1075:1 1128:1 1140:1 1179:1 1268:1 1271:1 1275:1 1317:1 1320:1 1368:1 1449:1 1463:1 1495:1 1521:1 1533:1 1578:1 1590:1 1642:1 1644:1 1646:1 1704:1 1713:1 1714:1 1763:1 1832:1 1986:1 2318:1 2626:1 2644:1 2655:1 2983:1 3018:1 #
0.022508955019934107077972385013709 4:1 15:1 24:1 32:1 41:1 45:1 56:1 57:1 59:1 76:1 80:1 81:1 83:1 109:1 110:1 132:1 140:1 187:1 197:1 247:1 314:1 343:1 396:1 424:1 430:1 714:1 741:1 782:1 812:1 1024:1 1188:1 1217:1 1651:1 1738:1 2106:1 2139:1 #
-0.022508955019934107077972385013709 15:1 23:1 33:1 59:1 66:1 72:1 81:1 83:1 90:1 105:1 109:1 140:1 144:1 148:1 180:1 182:1 308:1 406:1 739:1 809:1 844:1 869:1 1251:1 1441:1 1483:1 1484:1 1485:1 1486:1 1487:1 1488:1 1489:1 1490:1 1491:1 1492:1 1493:1 1494:1 1495:1 1496:1 #
-0.022508955019934107077972385013709 2:1 15:1 17:1 33:1 40:1 69:1 72:1 75:1 83:1 85:1 90:1 106:1 109:1 115:1 202:1 209:1 218:1 227:1 291:1 345:1 360:1 399:1 411:1 431:1 435:1 530:1 587:1 808:1 1046:1 1161:1 1213:1 1281:1 1421:1 1472:1 2133:1 2134:1 #
-0.022508955019934107077972385013709 15:1 16:1 20:1 24:1 27:1 33:1 59:1 63:1 82:1 85:1 105:1 109:1 111:1 144:1 171:1 225:1 246:1 403:1 503:1 591:1 809:1 886:1 1141:1 1462:1 1544:1 1766:1 2032:1 2281:1 2396:1 2901:1 2902:1 #
-0.022508955019934107077972385013709 4:1 14:1 27:1 30:1 45:1 59:1 69:1 70:1 72:1 83:1 109:1 123:1 151:1 264:1 296:1 297:1 348:1 412:1 426:1 489:1 665:1 812:1 898:1 960:1 1026:1 1315:1 1397:1 1635:1 1638:1 1897:1 2290:1 2360:1 2411:1 2418:1 2434:1 2726:1 #
-0.018355659622267983532850621486432 3:1 4:1 5:1 22:1 40:1 45:1 51:1 59:1 60:1 61:1 64:1 72:1 77:1 83:1 90:1 101:1 110:1 124:1 129:1 132:1 140:1 144:1 159:1 171:1 181:1 208:1 211:1 225:1 291:1 306:1 308:1 314:1 338:1 347:1 400:1 439:1 443:1 453:1 456:1 458:1 476:1 479:1 546:1 574:1 642:1 724:1 745:1 782:1 809:1 912:1 1053:1 1124:1 1128:1 1149:1 1183:1 1272:1 1450:1 1517:1 1578:1 1582:1 1710:1 1763:1 1868:1 1990:1 1999:1 2545:1 2546:1 2547:1 #
0.012946013303909735189800578325503 4:1 5:1 15:1 22:1 30:1 45:1 66:1 76:1 83:1 90:1 109:1 110:1 147:1 180:1 181:1 218:1 224:1 225:1 227:1 231:1 261:1 278:1 379:1 403:1 443:1 515:1 534:1 575:1 602:1 772:1 911:1 1013:1 1265:1 1266:1 1297:1 1358:1 1677:1 1679:1 1799:1 1849:1 1931:1 2618:1 2695:1 2720:1 2779:1 #
0.022508955019934107077972385013709 2:1 5:1 10:1 14:1 22:1 30:1 33:1 42:1 45:1 75:1 96:1 140:1 147:1 151:1 152:1 170:1 181:1 224:1 227:1 231:1 246:1 260:1 272:1 297:1 366:1 404:1 431:1 488:1 505:1 526:1 534:1 560:1 618:1 647:1 678:1 691:1 715:1 726:1 733:1 779:1 807:1 826:1 901:1 915:1 1023:1 1464:1 1493:1 1966:1 2070:1 2190:1 2208:1 2489:1 2868:1 #
0.022508955019934107077972385013709 4:1 22:1 24:1 25:1 30:1 34:1 42:1 111:1 147:1 152:1 159:1 167:1 176:1 181:1 196:1 230:1 308:1 414:1 458:1 468:1 469:1 478:1 480:1 492:1 494:1 591:1 664:1 667:1 668:1 852:1 1031:1 1114:1 1199:1 1465:1 1623:1 1651:1 1744:1 1897:1 1943:1 2410:1 2644:1 2864:1 2913:1 2930:1 #
0.002212236179909898847739668781287 3:1 4:1 5:1 6:1 14:1 22:1 24:1 26:1 27:1 29:1 30:1 33:1 34:1 45:1 51:1 56:1 57:1 59:1 63:1 65:1 76:1 83:1 90:1 105:1 115:1 136:1 140:1 169:1 176:1 208:1 226:1 227:1 231:1 235:1 290:1 291:1 312:1 338:1 345:1 404:1 414:1 417:1 430:1 440:1 451:1 456:1 492:1 521:1 540:1 613:1 683:1 856:1 867:1 874:1 952:1 1023:1 1034:1 1120:1 1265:1 1401:1 1437:1 1455:1 1463:1 1605:1 1736:1 1774:1 1776:1 1877:1 2367:1 2703:1 2713:1 3014:1 #
0.0030725561370831349326804282640069 5:1 15:1 30:1 33:1 34:1 45:1 70:1 83:1 101:1 110:1 116:1 123:1 141:1 147:1 148:1 151:1 157:1 176:1 230:1 269:1 298:1 306:1 360:1 404:1 731:1 795:1 943:1 1063:1 1174:1 1199:1 1353:1 1462:1 1503:1 1820:1 2337:1 2405:1 2695:1 2726:1 #
-0.022508955019934107077972385013709 3:1 4:1 5:1 6:1 14:1 15:1 22:1 27:1 30:1 33:1 51:1 56:1 66:1 77:1 80:1 83:1 85:1 110:1 129:1 135:1 136:1 137:1 144:1 146:1 153:1 169:1 172:1 176:1 181:1 205:1 227:1 237:1 241:1 269:1 293:1 417:1 443:1 454:1 474:1 488:1 501:1 515:1 534:1 567:1 589:1 590:1 639:1 668:1 739:1 866:1 886:1 916:1 920:1 946:1 968:1 971:1 1050:1 1074:1 1298:1 1314:1 1321:1 1444:1 1527:1 1532:1 1560:1 1563:1 1577:1 1585:1 1833:1 1904:1 1924:1 1986:1 2157:1 2281:1 2333:1 2368:1 2514:1 2515:1 2516:1 2517:1 2518:1 2519:1 #
-0.0089162502334159607353392118511692 3:1 4:1 5:1 6:1 14:1 15:1 22:1 27:1 30:1 33:1 51:1 56:1 66:1 77:1 80:1 83:1 85:1 110:1 129:1 135:1 136:1 137:1 144:1 146:1 153:1 156:1 169:1 172:1 176:1 181:1 205:1 227:1 237:1 241:1 269:1 293:1 417:1 443:1 454:1 474:1 488:1 501:1 515:1 534:1 567:1 589:1 590:1 639:1 668:1 739:1 866:1 886:1 916:1 920:1 946:1 968:1 971:1 1050:1 1074:1 1298:1 1314:1 1321:1 1444:1 1527:1 1532:1 1560:1 1563:1 1577:1 1585:1 1833:1 1904:1 1924:1 1986:1 2157:1 2281:1 2333:1 2368:1 2514:1 2515:1 2516:1 2517:1 2518:1 2519:1 #
-0.022508955019934107077972385013709 3:1 29:1 30:1 34:1 45:1 51:1 56:1 76:1 80:1 152:1 159:1 166:1 216:1 275:1 278:1 296:1 432:1 440:1 490:1 564:1 665:1 802:1 971:1 1018:1 1090:1 1131:1 1144:1 1473:1 1660:1 1710:1 1751:1 1768:1 2130:1 2367:1 2368:1 2369:1 #
-0.014675282544022128991545450560352 3:1 5:1 12:1 14:1 19:1 22:1 27:1 30:1 45:1 51:1 55:1 105:1 116:1 118:1 124:1 129:1 136:1 141:1 152:1 174:1 225:1 264:1 290:1 376:1 390:1 406:1 417:1 430:1 457:1 458:1 469:1 477:1 504:1 508:1 564:1 577:1 590:1 646:1 676:1 714:1 717:1 743:1 812:1 833:1 868:1 924:1 991:1 1135:1 1143:1 1164:1 1180:1 1251:1 1387:1 1414:1 1499:1 1818:1 1914:1 1953:1 1968:1 1969:1 1970:1 1971:1 1972:1 1973:1 1974:1 1975:1 1976:1 1977:1 1978:1 1979:1 #
-0.022508955019934107077972385013709 5:1 9:1 14:1 22:1 30:1 33:1 35:1 45:1 80:1 83:1 101:1 109:1 110:1 116:1 124:1 147:1 166:1 180:1 181:1 182:1 265:1 269:1 298:1 404:1 407:1 429:1 479:1 540:1 639:1 735:1 842:1 843:1 844:1 845:1 846:1 847:1 848:1 849:1 850:1 851:1 852:1 853:1 854:1 855:1 #
0.022508955019934107077972385013709 4:1 5:1 14:1 18:1 32:1 66:1 83:1 85:1 105:1 110:1 111:1 131:1 134:1 144:1 176:1 290:1 308:1 336:1 488:1 643:1 745:1 809:1 812:1 910:1 1049:1 1339:1 1346:1 1716:1 1910:1 1948:1 2472:1 2575:1 2634:1 2916:1 2953:1 #
0.022508955019934107077972385013709 5:1 12:1 14:1 30:1 59:1 63:1 64:1 83:1 84:1 104:1 111:1 147:1 182:1 221:1 234:1 291:1 298:1 308:1 466:1 476:1 515:1 750:1 817:1 969:1 1118:1 1269:1 1344:1 2159:1 2412:1 2627:1 3000:1 #
0.022508955019934107077972385013709 4:1 18:1 22:1 30:1 33:1 59:1 66:1 72:1 76:1 79:1 83:1 94:1 101:1 110:1 112:1 116:1 140:1 147:1 169:1 199:1 230:1 232:1 312:1 314:1 333:1 355:1 456:1 470:1 479:1 492:1 538:1 687:1 712:1 724:1 809:1 1005:1 1067:1 1093:1 1149:1 1169:1 1281:1 1374:1 1427:1 1725:1 1799:1 1854:1 1866:1 1868:1 1936:1 2194:1 2244:1 2383:1 2438:1 3061:1 #
0.022508955019934107077972385013709 3:1 9:1 11:1 14:1 15:1 16:1 18:1 19:1 22:1 30:1 45:1 49:1 51:1 66:1 71:1 76:1 83:1 85:1 90:1 109:1 111:1 129:1 132:1 144:1 156:1 176:1 199:1 255:1 257:1 296:1 328:1 370:1 391:1 395:1 416:1 429:1 447:1 451:1 460:1 540:1 542:1 546:1 552:1 632:1 662:1 689:1 881:1 886:1 916:1 1021:1 1091:1 1183:1 1264:1 1370:1 1466:1 1495:1 1581:1 1639:1 1699:1 1749:1 1757:1 1788:1 2036:1 2062:1 2080:1 2165:1 2762:1 2991:1 2992:1 #
0.022508955019934107077972385013709 7:1 33:1 83:1 90:1 94:1 110:1 111:1 143:1 148:1 197:1 224:1 225:1 227:1 232:1 308:1 430:1 432:1 479:1 521:1 592:1 731:1 891:1 1054:1 1139:1 1212:1 1277:1 1295:1 1375:1 1414:1 1448:1 1463:1 1501:1 1728:1 1769:1 1908:1 2327:1 #
-0.011376674401432213673546200993769 3:1 4:1 5:1 7:1 12:1 14:1 15:1 17:1 18:1 22:1 26:1 30:1 34:1 45:1 46:1 55:1 57:1 65:1 68:1 83:1 85:1 89:1 90:1 94:1 111:1 124:1 125:1 132:1 144:1 147:1 199:1 211:1 227:1 234:1 235:1 311:1 353:1 404:1 407:1 414:1 430:1 440:1 442:1 488:1 501:1 508:1 512:1 514:1 533:1 609:1 741:1 798:1 804:1 824:1 827:1 835:1 901:1 926:1 1026:1 1072:1 1122:1 1163:1 1173:1 1231:1 1287:1 1297:1 1506:1 1563:1 1641:1 1642:1 1643:1 1644:1 1645:1 #
-0.022508955019934107077972385013709 4:1 5:1 7:1 17:1 20:1 27:1 30:1 33:1 46:1 50:1 51:1 56:1 63:1 83:1 84:1 110:1 111:1 115:1 116:1 145:1 153:1 170:1 180:1 247:1 281:1 306:1 308:1 318:1 348:1 395:1 407:1 440:1 490:1 508:1 519:1 521:1 538:1 681:1 796:1 822:1 891:1 911:1 1049:1 1089:1 1386:1 1470:1 1474:1 1822:1 1865:1 1995:1 2104:1 2105:1 2106:1 2107:1 2108:1 2109:1 2110:1 2111:1 2112:1 #
-0.0080797598352273305999382557729405 12:1 17:1 22:1 24:1 30:1 42:1 44:1 51:1 55:1 59:1 61:1 72:1 83:1 90:1 95:1 111:1 129:1 144:1 145:1 167:1 181:1 193:1 213:1 219:1 231:1 264:1 312:1 347:1 414:1 440:1 477:1 478:1 479:1 480:1 492:1 493:1 498:1 587:1 659:1 683:1 964:1 1084:1 1164:1 1171:1 1192:1 1276:1 1409:1 1455:1 1493:1 2103:1 2510:1 2578:1 2579:1 #
-0.022508955019934107077972385013709 12:1 15:1 17:1 30:1 41:1 45:1 59:1 66:1 70:1 84:1 90:1 111:1 129:1 196:1 208:1 218:1 227:1 255:1 271:1 281:1 309:1 338:1 367:1 435:1 490:1 580:1 587:1 735:1 874:1 1277:1 1282:1 1291:1 1359:1 1388:1 1647:1 1996:1 2055:1 2056:1 2057:1 2058:1 2059:1 2060:1 #
-0.022508955019934107077972385013709 2:1 5:1 30:1 45:1 49:1 51:1 59:1 72:1 83:1 111:1 132:1 147:1 161:1 170:1 176:1 205:1 207:1 228:1 230:1 238:1 314:1 327:1 440:1 494:1 498:1 514:1 540:1 556:1 683:1 945:1 946:1 947:1 948:1 949:1 950:1 951:1 952:1 953:1 954:1 955:1 956:1 957:1 958:1 959:1 #
0.022508955019934107077972385013709 3:1 4:1 5:1 22:1 30:1 33:1 35:1 36:1 45:1 46:1 51:1 59:1 62:1 83:1 109:1 110:1 124:1 139:1 147:1 153:1 165:1 170:1 171:1 182:1 249:1 257:1 264:1 275:1 291:1 374:1 390:1 399:1 408:1 429:1 443:1 451:1 454:1 458:1 476:1 477:1 500:1 505:1 511:1 527:1 569:1 574:1 592:1 660:1 666:1 693:1 722:1 731:1 824:1 868:1 886:1 1053:1 1180:1 1186:1 1228:1 1275:1 1976:1 2025:1 2345:1 2346:1 2357:1 2494:1 2680:1 2909:1 #
0.010137839794732808260113721132711 7:1 15:1 27:1 35:1 45:1 55:1 56:1 59:1 83:1 85:1 129:1 130:1 136:1 147:1 151:1 166:1 170:1 193:1 196:1 202:1 307:1 365:1 400:1 429:1 454:1 458:1 477:1 708:1 800:1 807:1 1296:1 1514:1 1623:1 1696:1 1711:1 1847:1 3046:1 #
0.022508955019934107077972385013709 3:1 14:1 17:1 34:1 35:1 51:1 59:1 85:1 111:1 124:1 140:1 181:1 443:1 447:1 477:1 1053:1 1246:1 2059:1 2444:1 #
0.022508955019934107077972385013709 3:1 5:1 7:1 12:1 14:1 15:1 16:1 19:1 22:1 30:1 33:1 51:1 59:1 72:1 76:1 80:1 83:1 85:1 90:1 95:1 110:1 116:1 124:1 144:1 147:1 151:1 153:1 160:1 166:1 170:1 176:1 180:1 181:1 193:1 218:1 225:1 227:1 230:1 255:1 264:1 290:1 306:1 337:1 362:1 377:1 407:1 432:1 443:1 456:1 469:1 471:1 473:1 477:1 478:1 494:1 501:1 516:1 534:1 577:1 604:1 609:1 639:1 671:1 688:1 900:1 915:1 986:1 991:1 1089:1 1136:1 1180:1 1245:1 1296:1 1365:1 1413:1 1808:1 1817:1 1886:1 1971:1 2025:1 2026:1 2091:1 2095:1 2184:1 2455:1 2546:1 2835:1 2890:1 #
0.022508955019934107077972385013709 3:1 30:1 51:1 59:1 72:1 83:1 110:1 124:1 152:1 166:1 230:1 241:1 264:1 278:1 333:1 359:1 454:1 637:1 712:1 828:1 1074:1 1159:1 1235:1 1851:1 2207:1 2315:1 3060:1 #
-0.020629337958205321706950385873824 3:1 4:1 18:1 33:1 34:1 45:1 59:1 83:1 85:1 92:1 109:1 110:1 112:1 124:1 147:1 148:1 230:1 266:1 291:1 306:1 308:1 337:1 345:1 358:1 407:1 443:1 469:1 479:1 560:1 584:1 595:1 629:1 632:1 680:1 714:1 749:1 763:1 786:1 812:1 864:1 1004:1 1005:1 1077:1 1218:1 1305:1 1307:1 1463:1 1505:1 1651:1 1755:1 2000:1 2313:1 #
-0.0021099402036072983750158993387913 2:1 3:1 7:1 15:1 22:1 33:1 59:1 94:1 109:1 114:1 124:1 147:1 152:1 161:1 166:1 213:1 231:1 264:1 285:1 291:1 370:1 374:1 408:1 441:1 560:1 577:1 584:1 632:1 722:1 727:1 737:1 807:1 828:1 871:1 971:1 1059:1 1068:1 1104:1 1223:1 1277:1 1290:1 1298:1 1353:1 1373:1 1397:1 1428:1 1468:1 1590:1 1619:1 1623:1 1639:1 1755:1 1851:1 1996:1 2011:1 2313:1 2445:1 2638:1 2878:1 2879:1 #
-0.00059047174862709951234651661877706 4:1 15:1 18:1 22:1 51:1 56:1 59:1 85:1 91:1 94:1 110:1 111:1 124:1 142:1 151:1 181:1 204:1 209:1 230:1 275:1 291:1 386:1 403:1 407:1 424:1 470:1 495:1 505:1 534:1 560:1 565:1 626:1 657:1 709:1 915:1 1266:1 1281:1 1487:1 1586:1 1655:1 1706:1 1890:1 2021:1 2357:1 2372:1 2522:1 2892:1 2917:1 2918:1 #
-0.015528497856307684962806625605936 4:1 7:1 13:1 14:1 15:1 16:1 17:1 22:1 30:1 35:1 56:1 65:1 82:1 85:1 110:1 112:1 124:1 159:1 166:1 169:1 213:1 230:1 297:1 313:1 330:1 340:1 358:1 377:1 386:1 402:1 427:1 473:1 520:1 521:1 527:1 529:1 533:1 534:1 537:1 538:1 564:1 572:1 577:1 640:1 654:1 724:1 756:1 868:1 871:1 886:1 921:1 968:1 986:1 993:1 1052:1 1127:1 1140:1 1179:1 1188:1 1231:1 1327:1 1345:1 1375:1 1376:1 1378:1 1501:1 1530:1 1539:1 1590:1 1647:1 1658:1 1926:1 2003:1 2006:1 2007:1 2008:1 2009:1 2010:1 #
-0.0054786920407825668438706046003972 3:1 5:1 14:1 22:1 30:1 33:1 56:1 61:1 72:1 76:1 83:1 84:1 94:1 109:1 110:1 112:1 121:1 124:1 132:1 146:1 147:1 176:1 181:1 206:1 220:1 226:1 234:1 265:1 275:1 290:1 330:1 395:1 399:1 403:1 435:1 443:1 451:1 456:1 469:1 476:1 504:1 519:1 521:1 525:1 534:1 572:1 591:1 605:1 613:1 654:1 660:1 662:1 722:1 729:1 750:1 755:1 795:1 809:1 884:1 942:1 1037:1 1052:1 1072:1 1074:1 1081:1 1234:1 1298:1 1493:1 1625:1 1649:1 1678:1 1877:1 1901:1 1997:1 2046:1 2136:1 2164:1 2178:1 2189:1 2290:1 2327:1 2340:1 2341:1 2342:1 2343:1 2344:1 2345:1 2346:1 2347:1 2348:1 #
0.022508955019934107077972385013709 3:1 5:1 30:1 33:1 111:1 136:1 146:1 147:1 353:1 364:1 399:1 440:1 498:1 618:1 627:1 655:1 775:1 781:1 846:1 1050:1 1106:1 1118:1 1192:1 1224:1 1230:1 1269:1 1391:1 1884:1 2110:1 2982:1 #
0.022508955019934107077972385013709 3:1 35:1 63:1 69:1 103:1 111:1 116:1 134:1 143:1 176:1 196:1 199:1 219:1 227:1 246:1 296:1 297:1 327:1 345:1 377:1 403:1 435:1 440:1 456:1 490:1 534:1 542:1 551:1 567:1 618:1 682:1 733:1 739:1 835:1 897:1 903:1 906:1 911:1 1057:1 1088:1 1161:1 1173:1 1186:1 1224:1 1230:1 1277:1 1339:1 1349:1 1544:1 2131:1 2173:1 2437:1 2438:1 2514:1 2825:1 2990:1 #
0.0078488903038833098685378431014215 4:1 5:1 11:1 17:1 30:1 33:1 34:1 66:1 69:1 72:1 84:1 109:1 116:1 147:1 213:1 355:1 360:1 375:1 381:1 430:1 440:1 459:1 488:1 504:1 516:1 535:1 569:1 731:1 770:1 868:1 911:1 1049:1 1052:1 1053:1 1056:1 1088:1 1264:1 1268:1 1363:1 1369:1 1393:1 1480:1 1774:1 1979:1 2058:1 2234:1 2298:1 2695:1 2709:1 3000:1 3026:1 3056:1 #
0.022508955019934107077972385013709 3:1 5:1 15:1 17:1 30:1 32:1 33:1 45:1 56:1 57:1 59:1 66:1 84:1 85:1 90:1 94:1 110:1 111:1 112:1 157:1 181:1 227:1 291:1 368:1 369:1 417:1 589:1 632:1 924:1 999:1 1057:1 1061:1 1266:1 1297:1 2004:1 2988:1 #
0.022508955019934107077972385013709 11:1 12:1 15:1 17:1 22:1 27:1 30:1 32:1 33:1 56:1 68:1 83:1 90:1 109:1 111:1 123:1 221:1 223:1 259:1 286:1 396:1 399:1 447:1 473:1 675:1 745:1 868:1 971:1 1074:1 1084:1 1274:1 1345:1 1375:1 1448:1 1908:1 2247:1 2274:1 2334:1 #
-0.019637380574392307441833338543802 1:1 5:1 11:1 15:1 16:1 29:1 34:1 45:1 64:1 66:1 83:1 85:1 90:1 105:1 111:1 116:1 123:1 129:1 134:1 145:1 147:1 185:1 209:1 223:1 235:1 306:1 308:1 327:1 337:1 353:1 373:1 376:1 396:1 399:1 416:1 447:1 456:1 461:1 475:1 494:1 501:1 618:1 657:1 683:1 723:1 731:1 772:1 800:1 868:1 869:1 877:1 906:1 939:1 1038:1 1050:1 1054:1 1159:1 1186:1 1189:1 1191:1 1264:1 1536:1 1665:1 1864:1 1901:1 2023:1 2157:1 2242:1 2363:1 2370:1 2382:1 2657:1 2748:1 2831:1 #
-0.022508955019934107077972385013709 1:1 7:1 27:1 29:1 30:1 32:1 56:1 59:1 76:1 105:1 136:1 199:1 249:1 252:1 290:1 336:1 451:1 488:1 897:1 1084:1 1117:1 1186:1 1282:1 1553:1 1815:1 2040:1 2098:1 2825:1 2826:1 2827:1 #
-0.022508955019934107077972385013709 3:1 5:1 17:1 18:1 22:1 30:1 33:1 40:1 56:1 66:1 69:1 72:1 76:1 83:1 84:1 89:1 90:1 105:1 119:1 144:1 147:1 176:1 181:1 257:1 267:1 476:1 488:1 540:1 668:1 681:1 726:1 809:1 811:1 915:1 927:1 981:1 1091:1 1161:1 1346:1 2026:1 2133:1 2139:1 2327:1 2531:1 #
-0.012570912473754213001253532411283 3:1 5:1 14:1 15:1 22:1 51:1 59:1 66:1 90:1 109:1 133:1 171:1 220:1 225:1 227:1 440:1 763:1 805:1 846:1 1179:1 1373:1 1454:1 1738:1 1863:1 2435:1 2468:1 2733:1 2734:1 #
-0.022508955019934107077972385013709 5:1 14:1 15:1 22:1 27:1 31:1 33:1 35:1 45:1 57:1 59:1 76:1 78:1 84:1 90:1 101:1 111:1 143:1 145:1 147:1 157:1 174:1 182:1 189:1 275:1 290:1 440:1 447:1 458:1 490:1 782:1 786:1 867:1 886:1 1294:1 1369:1 1400:1 1478:1 1636:1 1909:1 2079:1 2080:1 2312:1 2554:1 2559:1 2782:1 2787:1 #
0.022508955019934107077972385013709 14:1 17:1 35:1 48:1 50:1 51:1 56:1 59:1 65:1 66:1 83:1 85:1 123:1 124:1 144:1 172:1 180:1 182:1 199:1 248:1 308:1 360:1 377:1 404:1 407:1 476:1 488:1 501:1 544:1 599:1 724:1 742:1 809:1 936:1 948:1 1179:1 1180:1 1199:1 1211:1 1257:1 1263:1 1471:1 1578:1 1620:1 1656:1 1723:1 1793:1 1901:1 2107:1 2211:1 2502:1 2986:1 3085:1 #
-0.0090606154348431243439332405387177 5:1 11:1 16:1 22:1 30:1 45:1 46:1 49:1 51:1 72:1 76:1 77:1 79:1 83:1 90:1 101:1 109:1 112:1 116:1 119:1 136:1 140:1 141:1 152:1 169:1 199:1 223:1 225:1 230:1 278:1 298:1 328:1 461:1 494:1 529:1 560:1 604:1 605:1 607:1 616:1 665:1 668:1 714:1 721:1 869:1 989:1 1052:1 1200:1 1265:1 1284:1 1428:1 1566:1 1774:1 1832:1 1834:1 1838:1 1888:1 2017:1 2033:1 2110:1 2548:1 2549:1 #
0.022508955019934107077972385013709 4:1 5:1 11:1 19:1 34:1 56:1 59:1 69:1 94:1 105:1 110:1 114:1 116:1 124:1 147:1 179:1 233:1 241:1 265:1 290:1 355:1 377:1 407:1 443:1 566:1 574:1 602:1 769:1 969:1 1240:1 1281:1 1376:1 1469:1 1521:1 1586:1 1787:1 2389:1 2624:1 #
0.022508955019934107077972385013709 2:1 3:1 5:1 15:1 17:1 22:1 29:1 33:1 45:1 48:1 59:1 60:1 76:1 83:1 105:1 150:1 169:1 208:1 227:1 233:1 291:1 298:1 306:1 407:1 492:1 521:1 534:1 668:1 769:1 824:1 835:1 905:1 1197:1 1235:1 1454:1 1514:1 1550:1 1658:1 #
0.015885187312691822353327708583492 4:1 5:1 14:1 15:1 17:1 19:1 22:1 27:1 30:1 33:1 41:1 44:1 50:1 51:1 56:1 59:1 65:1 66:1 68:1 83:1 84:1 89:1 109:1 110:1 124:1 144:1 147:1 157:1 160:1 176:1 234:1 237:1 238:1 249:1 298:1 327:1 328:1 374:1 415:1 416:1 432:1 440:1 451:1 476:1 492:1 512:1 525:1 534:1 651:1 750:1 766:1 828:1 832:1 867:1 898:1 913:1 954:1 1050:1 1072:1 1126:1 1149:1 1151:1 1161:1 1173:1 1246:1 1337:1 1377:1 1445:1 1471:1 1763:1 1887:1 2030:1 2105:1 2118:1 2119:1 2386:1 2510:1 2803:1 2903:1 3077:1 #
-0.022508955019934107077972385013709 3:1 5:1 11:1 15:1 19:1 22:1 25:1 27:1 30:1 32:1 33:1 34:1 45:1 56:1 59:1 63:1 80:1 81:1 90:1 92:1 94:1 101:1 110:1 113:1 121:1 124:1 129:1 131:1 140:1 141:1 147:1 152:1 176:1 179:1 181:1 182:1 193:1 199:1 219:1 226:1 234:1 278:1 281:1 290:1 308:1 393:1 416:1 429:1 432:1 440:1 465:1 474:1 498:1 501:1 549:1 598:1 632:1 660:1 710:1 724:1 726:1 731:1 750:1 766:1 769:1 784:1 827:1 867:1 868:1 914:1 936:1 969:1 1120:1 1173:1 1191:1 1240:1 1269:1 1323:1 1347:1 1381:1 1406:1 1448:1 1462:1 1463:1 1464:1 1465:1 1466:1 1467:1 1468:1 1469:1 1470:1 1471:1 1472:1 1473:1 1474:1 #
-0.022508955019934107077972385013709 12:1 15:1 22:1 33:1 51:1 59:1 85:1 144:1 169:1 208:1 227:1 233:1 353:1 377:1 534:1 549:1 604:1 659:1 669:1 924:1 932:1 1090:1 1132:1 1237:1 1264:1 1341:1 1604:1 1616:1 2263:1 #
-0.0073253373403914376002510344676466 3:1 4:1 12:1 15:1 17:1 18:1 22:1 30:1 33:1 50:1 52:1 59:1 63:1 66:1 79:1 83:1 110:1 116:1 141:1 147:1 169:1 171:1 193:1 212:1 222:1 230:1 275:1 392:1 440:1 451:1 492:1 505:1 627:1 640:1 724:1 808:1 974:1 1049:1 1053:1 1056:1 1062:1 1138:1 1160:1 1345:1 1477:1 1506:1 1592:1 1601:1 1838:1 1881:1 1903:1 2108:1 2121:1 2268:1 2430:1 2442:1 2515:1 2602:1 2613:1 2614:1 2615:1 #
-0.022508955019934107077972385013709 3:1 5:1 10:1 15:1 17:1 19:1 22:1 41:1 51:1 56:1 66:1 81:1 83:1 101:1 123:1 124:1 143:1 147:1 162:1 176:1 181:1 225:1 231:1 239:1 247:1 249:1 260:1 298:1 314:1 353:1 371:1 385:1 402:1 430:1 447:1 508:1 521:1 558:1 624:1 647:1 737:1 915:1 932:1 1050:1 1053:1 1065:1 1135:1 1171:1 1267:1 1405:1 1541:1 1713:1 1790:1 1826:1 2017:1 2025:1 2127:1 2548:1 2584:1 2585:1 2586:1 2587:1 #
-0.022508955019934107077972385013709 8:1 22:1 24:1 32:1 33:1 66:1 83:1 121:1 264:1 564:1 745:1 769:1 886:1 1074:1 1141:1 1302:1 1485:1 2475:1 2492:1 2493:1 #
0.022508955019934107077972385013709 5:1 7:1 11:1 15:1 18:1 22:1 30:1 32:1 34:1 42:1 59:1 72:1 77:1 85:1 101:1 104:1 105:1 109:1 129:1 130:1 140:1 145:1 147:1 159:1 161:1 197:1 208:1 230:1 264:1 289:1 291:1 296:1 308:1 353:1 399:1 408:1 447:1 456:1 575:1 601:1 626:1 658:1 668:1 681:1 745:1 805:1 812:1 909:1 938:1 1252:1 1339:1 1343:1 1409:1 1449:1 1462:1 1472:1 1677:1 2554:1 2606:1 2752:1 #
0.010779963253158955649446681945847 3:1 4:1 5:1 7:1 22:1 27:1 34:1 42:1 50:1 51:1 64:1 83:1 90:1 115:1 159:1 166:1 181:1 199:1 211:1 225:1 227:1 230:1 236:1 290:1 308:1 328:1 330:1 334:1 440:1 447:1 476:1 492:1 521:1 573:1 577:1 584:1 617:1 643:1 668:1 682:1 724:1 731:1 741:1 776:1 782:1 784:1 798:1 807:1 825:1 1074:1 1093:1 1200:1 1201:1 1212:1 1315:1 1369:1 1444:1 1492:1 1588:1 1603:1 1632:1 1698:1 1736:1 1758:1 2007:1 2406:1 2414:1 2516:1 2728:1 2903:1 3017:1 #
0.022508955019934107077972385013709 4:1 15:1 76:1 90:1 171:1 187:1 223:1 290:1 311:1 392:1 513:1 521:1 534:1 598:1 665:1 741:1 798:1 1278:1 1291:1 1471:1 1864:1 1980:1 2238:1 #
0.022508955019934107077972385013709 30:1 56:1 57:1 59:1 72:1 76:1 85:1 101:1 102:1 136:1 143:1 402:1 488:1 668:1 724:1 735:1 971:1 2903:1 #
0.022508955019934107077972385013709 7:1 18:1 30:1 33:1 55:1 64:1 70:1 90:1 101:1 103:1 137:1 160:1 161:1 173:1 176:1 208:1 230:1 413:1 476:1 478:1 538:1 544:1 548:1 556:1 584:1 587:1 772:1 782:1 809:1 884:1 916:1 997:1 1015:1 1157:1 1203:1 1414:1 1889:1 2461:1 2502:1 2559:1 2623:1 #
-0.022508955019934107077972385013709 4:1 30:1 34:1 45:1 50:1 51:1 72:1 111:1 147:1 197:1 224:1 249:1 255:1 276:1 298:1 328:1 412:1 492:1 570:1 605:1 745:1 776:1 926:1 948:1 981:1 1042:1 1065:1 1137:1 1363:1 1462:1 1767:1 1768:1 1769:1 1770:1 1771:1 1772:1 1773:1 1774:1 #
-0.022508955019934107077972385013709 5:1 27:1 30:1 59:1 83:1 90:1 109:1 196:1 224:1 230:1 233:1 417:1 479:1 488:1 535:1 542:1 707:1 741:1 757:1 795:1 899:1 942:1 1263:1 1264:1 1265:1 1266:1 1267:1 1268:1 #
-0.022508955019934107077972385013709 30:1 33:1 34:1 72:1 90:1 105:1 110:1 128:1 159:1 180:1 195:1 205:1 291:1 304:1 382:1 393:1 494:1 739:1 781:1 782:1 783:1 784:1 785:1 786:1 787:1 788:1 789:1 790:1 791:1 792:1 793:1 794:1 795:1 796:1 797:1 #
-0.022508955019934107077972385013709 4:1 16:1 22:1 30:1 37:1 65:1 72:1 101:1 115:1 136:1 147:1 153:1 221:1 233:1 257:1 289:1 308:1 314:1 340:1 348:1 374:1 410:1 421:1 422:1 440:1 447:1 451:1 469:1 492:1 536:1 720:1 809:1 942:1 1018:1 1041:1 1252:1 1296:1 1398:1 1519:1 1530:1 1678:1 1702:1 1711:1 1945:1 2149:1 2237:1 2263:1 2470:1 2471:1 2472:1 #
-0.022508955019934107077972385013709 30:1 33:1 66:1 90:1 227:1 230:1 249:1 290:1 308:1 812:1 824:1 1023:1 1045:1 1050:1 1277:1 1278:1 1361:1 1517:1 1648:1 2227:1 2465:1 #
0.022508955019934107077972385013709 3:1 5:1 8:1 15:1 17:1 18:1 22:1 33:1 34:1 45:1 55:1 56:1 59:1 83:1 84:1 85:1 90:1 94:1 103:1 110:1 123:1 130:1 144:1 147:1 237:1 327:1 358:1 403:1 414:1 427:1 456:1 591:1 632:1 638:1 639:1 662:1 681:1 723:1 773:1 948:1 1460:1 1494:1 1509:1 1610:1 1678:1 1819:1 1840:1 1933:1 2114:1 2359:1 2409:1 2528:1 2671:1 3024:1 3025:1 3081:1 #
0.0031435226920865453476006123878506 3:1 5:1 14:1 17:1 22:1 27:1 30:1 32:1 33:1 34:1 45:1 51:1 80:1 83:1 110:1 111:1 124:1 125:1 147:1 156:1 160:1 161:1 164:1 174:1 176:1 225:1 231:1 237:1 247:1 249:1 264:1 288:1 290:1 306:1 338:1 348:1 398:1 403:1 430:1 447:1 469:1 484:1 574:1 577:1 591:1 622:1 638:1 660:1 714:1 717:1 774:1 784:1 805:1 844:1 869:1 877:1 883:1 974:1 1030:1 1084:1 1109:1 1123:1 1183:1 1270:1 1326:1 1347:1 1353:1 1386:1 1396:1 1397:1 1401:1 1457:1 1460:1 1516:1 1578:1 1582:1 1643:1 1843:1 1924:1 2375:1 2410:1 2554:1 2741:1 2787:1 2815:1 2897:1 #
0.022508955019934107077972385013709 2:1 3:1 5:1 15:1 16:1 22:1 27:1 35:1 51:1 66:1 72:1 75:1 80:1 90:1 109:1 115:1 116:1 124:1 144:1 147:1 176:1 225:1 275:1 384:1 413:1 473:1 508:1 514:1 665:1 809:1 1074:1 1093:1 1175:1 1304:1 1454:1 1577:1 1590:1 1661:1 2067:1 2185:1 2236:1 2416:1 #
0.00037787371958187382890714811622956 4:1 5:1 15:1 16:1 17:1 22:1 33:1 45:1 59:1 66:1 83:1 90:1 110:1 136:1 145:1 146:1 147:1 176:1 182:1 209:1 213:1 220:1 227:1 246:1 298:1 351:1 449:1 457:1 469:1 498:1 501:1 516:1 536:1 668:1 712:1 731:1 735:1 781:1 801:1 823:1 993:1 1023:1 1053:1 1074:1 1161:1 1276:1 1277:1 1281:1 1705:1 1783:1 2119:1 2329:1 2330:1 2495:1 2532:1 #
-0.011420179018693304637266372481008 3:1 5:1 30:1 35:1 41:1 45:1 56:1 59:1 69:1 70:1 72:1 90:1 101:1 152:1 181:1 223:1 290:1 291:1 345:1 414:1 424:1 502:1 642:1 899:1 1231:1 1328:1 2383:1 #
-0.013690004174906476863693427503677 2:1 3:1 4:1 5:1 11:1 15:1 17:1 22:1 30:1 33:1 45:1 51:1 55:1 59:1 69:1 70:1 77:1 83:1 85:1 90:1 95:1 110:1 159:1 166:1 213:1 223:1 230:1 237:1 244:1 262:1 265:1 287:1 290:1 360:1 364:1 400:1 410:1 430:1 451:1 456:1 466:1 581:1 632:1 660:1 666:1 749:1 766:1 782:1 784:1 800:1 824:1 826:1 868:1 1047:1 1053:1 1124:1 1154:1 1180:1 1269:1 1297:1 1320:1 1387:1 1701:1 1726:1 1961:1 1978:1 2238:1 2290:1 2360:1 2410:1 2411:1 2412:1 #
-0.022508955019934107077972385013709 3:1 5:1 13:1 17:1 29:1 32:1 34:1 72:1 112:1 140:1 144:1 151:1 166:1 223:1 231:1 234:1 237:1 283:1 308:1 338:1 396:1 435:1 475:1 477:1 571:1 630:1 639:1 724:1 742:1 835:1 1069:1 1070:1 1071:1 1072:1 1073:1 1074:1 #
-0.022508955019934107077972385013709 2:1 5:1 14:1 19:1 30:1 33:1 69:1 75:1 80:1 83:1 85:1 92:1 94:1 95:1 101:1 109:1 116:1 124:1 147:1 169:1 257:1 290:1 327:1 351:1 377:1 380:1 415:1 447:1 516:1 668:1 683:1 774:1 784:1 911:1 1041:1 1048:1 1075:1 1086:1 1203:1 1417:1 1553:1 1623:1 1956:1 2402:1 #
-0.022508955019934107077972385013709 3:1 4:1 5:1 17:1 19:1 24:1 30:1 32:1 35:1 42:1 59:1 66:1 83:1 90:1 109:1 110:1 144:1 173:1 176:1 199:1 204:1 223:1 224:1 234:1 251:1 269:1 408:1 629:1 638:1 812:1 910:1 987:1 1037:1 1053:1 1084:1 1155:1 1373:1 1554:1 1946:1 2089:1 2185:1 2610:1 #
-0.022508955019934107077972385013709 7:1 22:1 30:1 32:1 34:1 59:1 64:1 66:1 83:1 101:1 109:1 110:1 115:1 116:1 140:1 147:1 160:1 176:1 227:1 264:1 321:1 355:1 360:1 440:1 442:1 490:1 498:1 512:1 538:1 572:1 638:1 645:1 652:1 681:1 782:1 852:1 1074:1 1139:1 1157:1 1346:1 1374:1 1414:1 1704:1 1930:1 2599:1 2763:1 2764:1 2765:1 2766:1 #
0.022508955019934107077972385013709 3:1 17:1 30:1 33:1 72:1 76:1 105:1 111:1 123:1 152:1 198:1 308:1 449:1 482:1 559:1 864:1 866:1 891:1 921:1 932:1 934:1 1310:1 1427:1 1585:1 2025:1 #
0.019117635735469352964432943053907 4:1 33:1 45:1 61:1 90:1 121:1 176:1 290:1 293:1 361:1 414:1 447:1 521:1 566:1 647:1 681:1 763:1 867:1 877:1 916:1 1089:1 1211:1 1492:1 1768:1 1847:1 1867:1 2109:1 2553:1 #
0.022508955019934107077972385013709 5:1 12:1 33:1 41:1 59:1 61:1 72:1 78:1 81:1 83:1 85:1 90:1 101:1 111:1 123:1 144:1 147:1 148:1 171:1 224:1 230:1 291:1 318:1 402:1 424:1 430:1 435:1 440:1 456:1 494:1 498:1 508:1 542:1 558:1 564:1 615:1 662:1 726:1 731:1 743:1 800:1 849:1 876:1 921:1 991:1 1156:1 1171:1 1175:1 1209:1 1213:1 1265:1 1532:1 1639:1 1720:1 1757:1 1941:1 1959:1 2019:1 2020:1 2081:1 2349:1 2386:1 2402:1 2423:1 2429:1 #
0.022508955019934107077972385013709 1:1 17:1 18:1 59:1 64:1 97:1 116:1 132:1 159:1 164:1 181:1 278:1 308:1 314:1 346:1 401:1 440:1 479:1 575:1 591:1 624:1 705:1 745:1 787:1 835:1 889:1 1053:1 1123:1 1125:1 1185:1 1223:1 1297:1 1331:1 1359:1 1679:1 1763:1 1782:1 2047:1 2071:1 2533:1 2622:1 2674:1 2815:1 #
0.022508955019934107077972385013709 4:1 5:1 30:1 33:1 45:1 59:1 66:1 72:1 83:1 91:1 101:1 121:1 145:1 147:1 180:1 181:1 182:1 308:1 351:1 415:1 450:1 540:1 782:1 805:1 835:1 1053:1 1207:1 1296:1 1558:1 1598:1 2067:1 2212:1 2224:1 2860:1 #
-0.022508955019934107077972385013709 3:1 4:1 5:1 14:1 17:1 30:1 42:1 50:1 51:1 57:1 72:1 75:1 76:1 83:1 90:1 110:1 111:1 144:1 147:1 153:1 174:1 181:1 233:1 291:1 293:1 306:1 308:1 353:1 395:1 404:1 487:1 558:1 575:1 598:1 724:1 741:1 879:1 891:1 895:1 936:1 984:1 1057:1 1064:1 1123:1 1192:1 1287:1 1787:1 1847:1 2012:1 2313:1 2455:1 2875:1 2891:1 #
-0.022508955019934107077972385013709 3:1 5:1 17:1 22:1 24:1 33:1 34:1 59:1 72:1 170:1 171:1 176:1 204:1 213:1 247:1 308:1 353:1 443:1 479:1 577:1 735:1 1093:1 1287:1 1499:1 1927:1 #
-0.022508955019934107077972385013709 17:1 18:1 24:1 30:1 33:1 34:1 59:1 76:1 91:1 96:1 102:1 105:1 124:1 130:1 133:1 147:1 176:1 181:1 195:1 213:1 222:1 225:1 227:1 262:1 306:1 318:1 333:1 336:1 384:1 479:1 508:1 529:1 557:1 652:1 724:1 761:1 795:1 805:1 1049:1 1114:1 1443:1 1471:1 1523:1 1573:1 1578:1 1869:1 1891:1 2035:1 2046:1 2252:1 2256:1 2334:1 2754:1 2755:1 2756:1 #
-0.022508955019934107077972385013709 7:1 17:1 22:1 25:1 33:1 40:1 45:1 51:1 56:1 57:1 59:1 72:1 83:1 85:1 94:1 105:1 110:1 147:1 181:1 227:1 291:1 360:1 509:1 520:1 564:1 714:1 841:1 1074:1 1149:1 1275:1 1281:1 1401:1 1688:1 1821:1 2204:1 2230:1 2376:1 2377:1 2378:1 2379:1 2380:1 #
-0.022508955019934107077972385013709 3:1 4:1 5:1 7:1 14:1 30:1 33:1 45:1 51:1 59:1 64:1 76:1 83:1 90:1 111:1 144:1 147:1 199:1 218:1 247:1 327:1 334:1 444:1 454:1 677:1 703:1 733:1 812:1 882:1 904:1 931:1 953:1 1039:1 1072:1 1212:1 1335:1 1432:1 1444:1 1614:1 1677:1 1819:1 1873:1 1914:1 2082:1 2367:1 2899:1 #
0.022508955019934107077972385013709 3:1 5:1 7:1 14:1 25:1 29:1 30:1 56:1 65:1 69:1 83:1 94:1 109:1 111:1 124:1 140:1 151:1 257:1 290:1 396:1 399:1 431:1 457:1 461:1 501:1 639:1 724:1 971:1 1276:1 1376:1 1421:1 1514:1 1530:1 1574:1 1996:1 #
0.022508955019934107077972385013709 2:1 3:1 14:1 18:1 24:1 26:1 30:1 35:1 43:1 51:1 57:1 64:1 83:1 90:1 109:1 110:1 111:1 140:1 141:1 156:1 166:1 169:1 221:1 290:1 345:1 390:1 440:1 720:1 782:1 843:1 986:1 1068:1 1179:1 1270:1 1485:1 2767:1 2890:1 #
0.0018912619681888862520346972218022 5:1 30:1 34:1 51:1 66:1 76:1 94:1 102:1 103:1 109:1 110:1 129:1 136:1 141:1 147:1 166:1 211:1 221:1 287:1 308:1 321:1 377:1 379:1 429:1 447:1 538:1 544:1 589:1 591:1 726:1 735:1 824:1 884:1 936:1 1035:1 1045:1 1049:1 1074:1 1171:1 1192:1 1254:1 1269:1 1298:1 1378:1 1462:1 1842:1 1847:1 1946:1 2008:1 2397:1 2425:1 2554:1 2611:1 2869:1 #
0.022508955019934107077972385013709 3:1 4:1 14:1 18:1 30:1 50:1 57:1 69:1 70:1 77:1 83:1 105:1 110:1 112:1 135:1 136:1 141:1 166:1 169:1 176:1 221:1 224:1 282:1 297:1 424:1 451:1 492:1 587:1 812:1 824:1 868:1 994:1 1005:1 1084:1 1122:1 1175:1 1533:1 1591:1 1634:1 1646:1 1652:1 1952:1 2419:1 2599:1 2605:1 2628:1 2699:1 2734:1 2821:1 #
0.022508955019934107077972385013709 3:1 14:1 30:1 110:1 112:1 153:1 174:1 176:1 213:1 227:1 230:1 290:1 345:1 360:1 440:1 501:1 515:1 566:1 575:1 781:1 805:1 812:1 946:1 1462:1 2267:1 #
-0.022508955019934107077972385013709 3:1 5:1 11:1 14:1 30:1 33:1 35:1 55:1 64:1 76:1 83:1 129:1 169:1 181:1 193:1 230:1 291:1 358:1 458:1 476:1 486:1 494:1 513:1 547:1 646:1 668:1 680:1 796:1 824:1 868:1 963:1 991:1 1173:1 1192:1 1208:1 1483:1 1495:1 1685:1 1864:1 1882:1 1945:1 2153:1 2365:1 2406:1 2496:1 2580:1 2581:1 #
-0.022508955019934107077972385013709 22:1 66:1 79:1 115:1 167:1 376:1 389:1 443:1 476:1 482:1 587:1 782:1 879:1 1093:1 1394:1 2175:1 2362:1 2528:1 2665:1 2846:1 2854:1 2855:1 #
-0.022508955019934107077972385013709 5:1 14:1 15:1 18:1 21:1 34:1 59:1 66:1 68:1 77:1 83:1 90:1 94:1 140:1 230:1 290:1 323:1 414:1 443:1 456:1 457:1 470:1 515:1 523:1 534:1 573:1 662:1 671:1 724:1 809:1 866:1 1149:1 1153:1 1425:1 2026:1 2154:1 2155:1 2156:1 #
-0.022508955019934107077972385013709 3:1 30:1 66:1 72:1 73:1 80:1 110:1 112:1 152:1 166:1 170:1 196:1 218:1 219:1 234:1 416:1 478:1 488:1 588:1 589:1 590:1 591:1 592:1 593:1 594:1 595:1 596:1 597:1 598:1 599:1 600:1 601:1 602:1 603:1 604:1 605:1 606:1 607:1 608:1 609:1 610:1 611:1 612:1 613:1 614:1 615:1 616:1 617:1 618:1 #
-0.022508955019934107077972385013709 5:1 11:1 15:1 18:1 30:1 45:1 46:1 70:1 76:1 123:1 198:1 227:1 234:1 288:1 290:1 348:1 435:1 469:1 494:1 538:1 544:1 551:1 603:1 660:1 680:1 740:1 921:1 948:1 1074:1 1103:1 1118:1 1360:1 1446:1 1474:1 1482:1 1917:1 1938:1 2183:1 2211:1 2429:1 2444:1 2473:1 2593:1 2704:1 2733:1 2774:1 #
0.022508955019934107077972385013709 4:1 15:1 22:1 30:1 33:1 45:1 59:1 63:1 69:1 72:1 79:1 83:1 90:1 94:1 110:1 116:1 166:1 169:1 213:1 230:1 258:1 300:1 308:1 334:1 370:1 395:1 407:1 577:1 715:1 932:1 1049:1 1479:1 1517:1 1568:1 1596:1 1754:1 2277:1 2990:1 #
0.015418815229094122790098886355281 5:1 22:1 27:1 33:1 45:1 51:1 57:1 59:1 83:1 100:1 101:1 110:1 115:1 116:1 148:1 159:1 161:1 166:1 176:1 180:1 181:1 182:1 197:1 198:1 223:1 232:1 233:1 269:1 283:1 291:1 306:1 328:1 384:1 440:1 443:1 454:1 458:1 479:1 506:1 514:1 538:1 580:1 613:1 638:1 678:1 737:1 757:1 801:1 814:1 824:1 852:1 879:1 1035:1 1104:1 1136:1 1243:1 1254:1 1281:1 1435:1 1553:1 1662:1 2012:1 2070:1 2293:1 2683:1 2883:1 3009:1 #
0.021840596768229598306776395588713 5:1 14:1 17:1 33:1 45:1 51:1 59:1 83:1 90:1 95:1 105:1 110:1 133:1 144:1 148:1 170:1 281:1 435:1 447:1 458:1 556:1 632:1 667:1 724:1 746:1 798:1 824:1 1030:1 1068:1 1074:1 1474:1 2379:1 2477:1 2908:1 #
0.022508955019934107077972385013709 4:1 5:1 17:1 45:1 51:1 63:1 65:1 70:1 80:1 90:1 139:1 140:1 147:1 164:1 166:1 204:1 213:1 223:1 225:1 226:1 227:1 230:1 287:1 326:1 345:1 407:1 776:1 777:1 827:1 1034:1 1052:1 1118:1 1465:1 2092:1 #
0.022508955019934107077972385013709 7:1 14:1 30:1 33:1 47:1 70:1 75:1 83:1 84:1 90:1 105:1 144:1 171:1 176:1 180:1 181:1 199:1 209:1 223:1 227:1 231:1 267:1 281:1 367:1 473:1 501:1 530:1 534:1 570:1 605:1 638:1 749:1 781:1 886:1 894:1 897:1 993:1 1036:1 1118:1 1161:1 1277:1 1281:1 1292:1 1321:1 1536:1 1901:1 1918:1 2233:1 2464:1 2680:1 2833:1 2910:1 3039:1 #
-0.022508955019934107077972385013709 3:1 4:1 5:1 17:1 27:1 32:1 33:1 45:1 51:1 59:1 76:1 83:1 84:1 90:1 101:1 111:1 144:1 150:1 161:1 174:1 218:1 223:1 230:1 233:1 269:1 288:1 289:1 290:1 357:1 368:1 369:1 407:1 488:1 492:1 566:1 697:1 766:1 867:1 925:1 943:1 1164:1 1222:1 1254:1 1639:1 2070:1 2080:1 2118:1 2119:1 #
-0.017670433879401700044686762680612 3:1 17:1 22:1 23:1 33:1 59:1 70:1 83:1 94:1 110:1 112:1 116:1 144:1 148:1 155:1 166:1 167:1 180:1 290:1 339:1 345:1 377:1 440:1 441:1 443:1 473:1 478:1 479:1 484:1 572:1 617:1 688:1 694:1 701:1 737:1 745:1 782:1 822:1 849:1 941:1 996:1 1034:1 1085:1 1129:1 1416:1 1428:1 1462:1 1479:1 1503:1 1621:1 1644:1 1717:1 1936:1 1953:1 2016:1 2047:1 2292:1 2538:1 2539:1 2540:1 2541:1 #
-0.022508955019934107077972385013709 3:1 5:1 15:1 22:1 30:1 33:1 140:1 147:1 148:1 149:1 150:1 151:1 152:1 153:1 154:1 155:1 156:1 157:1 158:1 159:1 160:1 161:1 162:1 163:1 164:1 165:1 166:1 167:1 168:1 169:1 170:1 171:1 172:1 173:1 174:1 175:1 176:1 177:1 178:1 179:1 180:1 181:1 182:1 #
-0.022508955019934107077972385013709 3:1 4:1 5:1 7:1 16:1 30:1 32:1 33:1 42:1 56:1 59:1 70:1 85:1 87:1 90:1 103:1 124:1 169:1 176:1 179:1 180:1 193:1 230:1 276:1 290:1 330:1 336:1 367:1 377:1 407:1 456:1 458:1 543:1 625:1 627:1 656:1 657:1 712:1 715:1 734:1 735:1 745:1 775:1 777:1 804:1 805:1 807:1 939:1 995:1 1035:1 1153:1 1193:1 1199:1 1273:1 1274:1 1275:1 1276:1 1277:1 1278:1 1279:1 1280:1 1281:1 1282:1 1283:1 1284:1 1285:1 #
0.022508955019934107077972385013709 3:1 5:1 9:1 11:1 22:1 27:1 33:1 34:1 59:1 83:1 109:1 115:1 124:1 188:1 247:1 255:1 290:1 572:1 707:1 774:1 789:1 1068:1 1204:1 1704:1 1925:1 2346:1 #
0.021362962442151432751469286586143 2:1 22:1 30:1 33:1 34:1 45:1 59:1 66:1 72:1 85:1 90:1 105:1 157:1 196:1 208:1 218:1 290:1 358:1 453:1 505:1 546:1 549:1 646:1 650:1 681:1 789:1 802:1 807:1 991:1 1035:1 1189:1 1222:1 1266:1 1425:1 1444:1 1689:1 1701:1 1751:1 1783:1 2063:1 2358:1 2362:1 2571:1 2657:1 2702:1 2866:1 2951:1 3014:1 #
0.015075982685225319118726972078548 5:1 17:1 29:1 32:1 66:1 101:1 238:1 241:1 306:1 314:1 335:1 338:1 400:1 417:1 454:1 475:1 993:1 1068:1 1083:1 1178:1 1269:1 1287:1 1440:1 1677:1 1784:1 1848:1 1930:1 2106:1 2596:1 2694:1 2965:1 2967:1 #
0.022508955019934107077972385013709 3:1 5:1 15:1 22:1 24:1 29:1 30:1 48:1 56:1 72:1 75:1 85:1 110:1 133:1 138:1 152:1 157:1 160:1 198:1 199:1 215:1 218:1 230:1 247:1 381:1 398:1 416:1 440:1 449:1 526:1 581:1 615:1 618:1 665:1 668:1 678:1 716:1 724:1 764:1 778:1 782:1 844:1 886:1 1217:1 1222:1 1890:1 2412:1 2454:1 2730:1 2759:1 #
0.022508955019934107077972385013709 5:1 15:1 16:1 18:1 19:1 42:1 66:1 85:1 100:1 101:1 147:1 148:1 152:1 223:1 230:1 231:1 312:1 353:1 360:1 384:1 400:1 402:1 417:1 472:1 490:1 513:1 515:1 593:1 662:1 820:1 866:1 1292:1 1864:1 1907:1 2457:1 2556:1 #
-0.022508955019934107077972385013709 5:1 9:1 11:1 14:1 15:1 18:1 22:1 45:1 51:1 77:1 79:1 101:1 105:1 109:1 111:1 148:1 172:1 208:1 215:1 223:1 297:1 430:1 437:1 451:1 511:1 516:1 534:1 639:1 724:1 822:1 824:1 910:1 915:1 941:1 944:1 1023:1 1033:1 1054:1 1187:1 1223:1 1247:1 1468:1 1656:1 1772:1 1993:1 2304:1 2623:1 2624:1 2625:1 2626:1 2627:1 #
-0.022508955019934107077972385013709 5:1 14:1 22:1 30:1 35:1 51:1 83:1 101:1 105:1 110:1 124:1 136:1 145:1 147:1 176:1 237:1 255:1 261:1 291:1 308:1 400:1 616:1 626:1 683:1 685:1 823:1 908:1 1188:1 1194:1 1270:1 1406:1 1788:1 1952:1 2335:1 2640:1 2731:1 #
-0.022508955019934107077972385013709 14:1 23:1 30:1 34:1 59:1 72:1 109:1 116:1 131:1 132:1 176:1 257:1 277:1 291:1 353:1 376:1 527:1 639:1 873:1 969:1 1005:1 1030:1 1053:1 1156:1 1171:1 1689:1 2018:1 2019:1 2020:1 2021:1 2022:1 2023:1 2024:1 2025:1 #
-0.022508955019934107077972385013709 2:1 5:1 14:1 17:1 18:1 22:1 29:1 42:1 57:1 72:1 81:1 90:1 100:1 105:1 110:1 111:1 153:1 176:1 181:1 208:1 308:1 360:1 404:1 528:1 534:1 552:1 560:1 660:1 735:1 800:1 825:1 1070:1 1321:1 1397:1 1408:1 1454:1 1503:1 1733:1 1830:1 1897:1 1910:1 2197:1 2378:1 2442:1 2494:1 2799:1 2809:1 2810:1 #
-0.022508955019934107077972385013709 11:1 15:1 22:1 23:1 66:1 85:1 90:1 130:1 176:1 209:1 225:1 239:1 241:1 274:1 275:1 286:1 297:1 360:1 367:1 440:1 459:1 534:1 542:1 647:1 793:1 801:1 822:1 868:1 1023:1 1179:1 1853:1 1985:1 2121:1 #
0.022508955019934107077972385013709 4:1 5:1 17:1 18:1 22:1 29:1 30:1 46:1 56:1 76:1 83:1 84:1 111:1 118:1 147:1 175:1 185:1 196:1 278:1 290:1 330:1 432:1 447:1 516:1 546:1 549:1 634:1 680:1 710:1 782:1 824:1 948:1 1169:1 1208:1 1259:1 1296:1 1297:1 1531:1 1540:1 1640:1 1755:1 1801:1 1825:1 1847:1 1896:1 1917:1 2114:1 2450:1 2455:1 #
0.022508955019934107077972385013709 5:1 7:1 11:1 15:1 17:1 18:1 24:1 29:1 30:1 41:1 45:1 51:1 83:1 111:1 147:1 180:1 181:1 224:1 275:1 281:1 287:1 290:1 406:1 414:1 443:1 469:1 494:1 643:1 683:1 756:1 782:1 795:1 1050:1 1080:1 1229:1 1861:1 #
0.022508955019934107077972385013709 3:1 4:1 5:1 11:1 14:1 18:1 22:1 30:1 33:1 34:1 45:1 51:1 59:1 83:1 101:1 109:1 110:1 111:1 112:1 139:1 147:1 169:1 185:1 204:1 233:1 290:1 291:1 348:1 353:1 396:1 429:1 435:1 537:1 567:1 795:1 805:1 812:1 820:1 1037:1 1057:1 1229:1 1378:1 1389:1 1411:1 1466:1 1534:1 1685:1 2140:1 2202:1 2228:1 2525:1 2872:1 2948:1 3056:1 #
0.020068744002947083021615171105623 3:1 4:1 5:1 14:1 18:1 30:1 33:1 52:1 56:1 59:1 72:1 79:1 81:1 83:1 90:1 94:1 105:1 106:1 124:1 125:1 133:1 147:1 148:1 151:1 160:1 171:1 175:1 180:1 181:1 208:1 218:1 224:1 227:1 230:1 246:1 257:1 285:1 290:1 291:1 306:1 397:1 440:1 451:1 456:1 458:1 479:1 488:1 495:1 505:1 528:1 534:1 584:1 602:1 604:1 620:1 639:1 667:1 688:1 694:1 724:1 811:1 822:1 867:1 911:1 941:1 1164:1 1199:1 1217:1 1299:1 1320:1 1376:1 1437:1 1805:1 1885:1 1972:1 2061:1 2216:1 2233:1 2393:1 2923:1 #
0.022508955019934107077972385013709 3:1 4:1 17:1 18:1 30:1 34:1 52:1 79:1 85:1 90:1 96:1 116:1 124:1 144:1 173:1 218:1 227:1 327:1 340:1 415:1 458:1 478:1 479:1 488:1 537:1 669:1 683:1 717:1 1074:1 1296:1 2219:1 2695:1 2713:1 2737:1 2944:1 #
-0.022508955019934107077972385013709 18:1 24:1 33:1 45:1 59:1 66:1 83:1 85:1 104:1 116:1 152:1 220:1 226:1 227:1 230:1 231:1 233:1 246:1 247:1 312:1 360:1 384:1 440:1 488:1 515:1 516:1 534:1 556:1 589:1 591:1 630:1 659:1 717:1 739:1 774:1 798:1 802:1 820:1 841:1 873:1 900:1 937:1 1136:1 1143:1 1175:1 1222:1 1232:1 1246:1 1514:1 1521:1 1578:1 1683:1 1709:1 1870:1 1956:1 2031:1 2332:1 2346:1 2430:1 2514:1 2597:1 2801:1 #
-0.022508955019934107077972385013709 5:1 17:1 33:1 59:1 83:1 109:1 110:1 111:1 164:1 181:1 191:1 195:1 197:1 199:1 221:1 282:1 306:1 337:1 384:1 432:1 447:1 473:1 564:1 624:1 681:1 741:1 860:1 861:1 862:1 863:1 864:1 865:1 866:1 867:1 868:1 869:1 870:1 871:1 872:1 873:1 874:1 875:1 876:1 #
-0.012760080033706398816573113208506 3:1 4:1 5:1 11:1 14:1 19:1 22:1 30:1 32:1 34:1 45:1 56:1 59:1 66:1 69:1 76:1 83:1 84:1 90:1 99:1 105:1 109:1 111:1 116:1 124:1 129:1 141:1 144:1 147:1 166:1 180:1 220:1 227:1 246:1 255:1 281:1 290:1 368:1 381:1 382:1 398:1 407:1 417:1 424:1 448:1 473:1 521:1 534:1 540:1 647:1 722:1 942:1 1002:1 1034:1 1172:1 1645:1 1697:1 1838:1 2040:1 2447:1 2669:1 2705:1 2923:1 2924:1 #
-0.022508955019934107077972385013709 4:1 7:1 14:1 15:1 27:1 30:1 33:1 34:1 83:1 85:1 105:1 116:1 151:1 157:1 275:1 278:1 290:1 296:1 306:1 338:1 345:1 435:1 475:1 477:1 492:1 521:1 609:1 772:1 824:1 1058:1 1409:1 1710:1 1949:1 2018:1 2098:1 2099:1 #
-0.022508955019934107077972385013709 3:1 5:1 18:1 30:1 45:1 51:1 70:1 72:1 83:1 101:1 111:1 133:1 151:1 166:1 169:1 180:1 181:1 209:1 224:1 290:1 293:1 420:1 440:1 456:1 471:1 513:1 560:1 709:1 724:1 731:1 870:1 966:1 990:1 1074:1 1101:1 1245:1 1962:1 2262:1 2345:1 2452:1 2705:1 2845:1 #
0.022508955019934107077972385013709 5:1 7:1 10:1 14:1 22:1 27:1 45:1 49:1 51:1 66:1 70:1 90:1 109:1 124:1 144:1 159:1 161:1 176:1 181:1 209:1 227:1 231:1 233:1 381:1 560:1 581:1 627:1 703:1 824:1 1107:1 1153:1 1790:1 1818:1 1933:1 1939:1 1953:1 2018:1 2490:1 3069:1 #
0.022508955019934107077972385013709 11:1 24:1 58:1 144:1 147:1 176:1 215:1 227:1 376:1 400:1 404:1 716:1 2539:1 #
0.022508955019934107077972385013709 7:1 30:1 33:1 34:1 35:1 51:1 54:1 76:1 77:1 83:1 103:1 109:1 110:1 111:1 112:1 155:1 166:1 167:1 176:1 199:1 230:1 232:1 272:1 355:1 447:1 465:1 475:1 534:1 541:1 619:1 636:1 639:1 660:1 667:1 714:1 795:1 825:1 915:1 935:1 943:1 1005:1 1037:1 1047:1 1089:1 1114:1 1268:1 1278:1 1373:1 1844:1 1862:1 1923:1 2006:1 2068:1 2529:1 2685:1 #
0.0056082216758794808941779308497644 4:1 9:1 10:1 11:1 14:1 15:1 33:1 34:1 35:1 42:1 51:1 64:1 66:1 77:1 90:1 97:1 101:1 110:1 116:1 144:1 147:1 165:1 166:1 169:1 170:1 176:1 191:1 225:1 274:1 298:1 306:1 348:1 362:1 394:1 396:1 403:1 404:1 407:1 454:1 476:1 490:1 504:1 535:1 595:1 627:1 638:1 651:1 660:1 665:1 702:1 750:1 782:1 870:1 910:1 926:1 1123:1 1191:1 1195:1 1231:1 1275:1 1359:1 1387:1 1521:1 1604:1 1635:1 1801:1 1922:1 1946:1 1950:1 2008:1 2080:1 2085:1 2086:1 2144:1 2240:1 2253:1 2298:1 2437:1 2505:1 2638:1 2646:1 2654:1 2701:1 2936:1 2984:1 3010:1 3011:1 #
0.022508955019934107077972385013709 5:1 14:1 15:1 17:1 30:1 34:1 45:1 51:1 83:1 118:1 140:1 169:1 176:1 181:1 193:1 220:1 223:1 227:1 278:1 291:1 377:1 414:1 502:1 572:1 623:1 800:1 809:1 828:1 891:1 1261:1 1294:1 1363:1 1380:1 1596:1 2022:1 3051:1 #
-0.022508955019934107077972385013709 3:1 16:1 17:1 22:1 24:1 30:1 33:1 34:1 41:1 45:1 66:1 69:1 94:1 101:1 109:1 111:1 112:1 123:1 124:1 159:1 185:1 218:1 225:1 227:1 230:1 237:1 267:1 308:1 343:1 355:1 367:1 454:1 457:1 504:1 694:1 712:1 733:1 776:1 925:1 1013:1 1392:1 1463:1 1618:1 1642:1 1655:1 1700:1 1780:1 1781:1 1782:1 1783:1 1784:1 1785:1 #
-0.022508955019934107077972385013709 7:1 11:1 14:1 34:1 36:1 37:1 45:1 57:1 83:1 90:1 111:1 140:1 146:1 147:1 176:1 225:1 231:1 247:1 249:1 259:1 272:1 298:1 348:1 399:1 429:1 435:1 466:1 629:1 871:1 873:1 927:1 1016:1 1031:1 1175:1 1204:1 1378:1 1392:1 1397:1 1440:1 1460:1 1462:1 1515:1 2286:1 2695:1 2738:1 #
-0.022508955019934107077972385013709 27:1 30:1 34:1 45:1 51:1 59:1 63:1 69:1 83:1 100:1 109:1 131:1 147:1 148:1 169:1 180:1 181:1 218:1 225:1 227:1 230:1 274:1 333:1 377:1 440:1 443:1 454:1 510:1 564:1 616:1 627:1 662:1 716:1 809:1 813:1 814:1 1090:1 1094:1 1149:1 1174:1 1187:1 1254:1 1406:1 1497:1 1518:1 1738:1 1889:1 2039:1 2068:1 2133:1 2646:1 2711:1 2712:1 #
-0.022508955019934107077972385013709 5:1 32:1 51:1 83:1 147:1 211:1 230:1 318:1 348:1 399:1 522:1 577:1 586:1 693:1 714:1 745:1 926:1 946:1 974:1 1169:1 1459:1 1460:1 1461:1 #
-0.010522364541294239662083676023485 3:1 5:1 12:1 14:1 15:1 17:1 21:1 32:1 33:1 45:1 51:1 52:1 56:1 57:1 68:1 69:1 76:1 84:1 85:1 105:1 110:1 124:1 147:1 181:1 183:1 213:1 226:1 227:1 230:1 233:1 238:1 399:1 402:1 440:1 714:1 749:1 757:1 760:1 776:1 1309:1 1532:1 1596:1 1896:1 2108:1 #
0.022508955019934107077972385013709 5:1 15:1 16:1 19:1 22:1 24:1 30:1 32:1 59:1 70:1 72:1 83:1 84:1 90:1 105:1 111:1 124:1 129:1 205:1 211:1 215:1 399:1 417:1 498:1 515:1 746:1 774:1 969:1 1074:1 1347:1 1369:1 1594:1 1809:1 1845:1 2056:1 2239:1 #
0.022508955019934107077972385013709 7:1 27:1 32:1 33:1 41:1 83:1 109:1 116:1 151:1 198:1 209:1 244:1 306:1 308:1 353:1 464:1 478:1 647:1 724:1 795:1 890:1 963:1 1013:1 1043:1 1156:1 1173:1 1394:1 1920:1 2025:1 2358:1 2661:1 #
0.022508955019934107077972385013709 2:1 3:1 5:1 22:1 44:1 52:1 59:1 63:1 66:1 94:1 128:1 137:1 144:1 164:1 170:1 227:1 285:1 290:1 308:1 416:1 469:1 515:1 534:1 564:1 948:1 1217:1 1227:1 1304:1 1316:1 1396:1 1620:1 2047:1 2080:1 2532:1 2618:1 #
0.022508955019934107077972385013709 3:1 4:1 22:1 35:1 55:1 56:1 59:1 84:1 124:1 129:1 131:1 147:1 151:1 166:1 171:1 269:1 291:1 296:1 309:1 358:1 390:1 521:1 710:1 745:1 825:1 826:1 997:1 1030:1 1102:1 1292:1 1454:1 1573:1 2234:1 2446:1 2546:1 #
0.022508955019934107077972385013709 3:1 5:1 7:1 14:1 16:1 17:1 22:1 26:1 30:1 35:1 37:1 45:1 50:1 51:1 57:1 59:1 65:1 70:1 80:1 83:1 90:1 105:1 110:1 124:1 129:1 147:1 150:1 159:1 179:1 180:1 181:1 202:1 211:1 224:1 225:1 237:1 275:1 306:1 308:1 395:1 398:1 426:1 427:1 473:1 477:1 528:1 538:1 624:1 668:1 718:1 735:1 770:1 874:1 1393:1 1639:1 1713:1 2018:1 2244:1 2346:1 2435:1 2766:1 #
-0.022508955019934107077972385013709 4:1 5:1 24:1 26:1 30:1 33:1 35:1 50:1 51:1 70:1 111:1 181:1 255:1 290:1 306:1 353:1 473:1 506:1 526:1 643:1 662:1 663:1 738:1 743:1 745:1 807:1 910:1 921:1 1045:1 1387:1 1449:1 1597:1 1728:1 2193:1 2423:1 2564:1 #
-0.022508955019934107077972385013709 5:1 22:1 26:1 35:1 51:1 59:1 77:1 90:1 174:1 232:1 241:1 285:1 308:1 390:1 552:1 587:1 724:1 745:1 812:1 829:1 912:1 1263:1 1296:1 1497:1 1498:1 1499:1 1500:1 #
-0.022508955019934107077972385013709 5:1 14:1 17:1 22:1 30:1 35:1 49:1 72:1 77:1 80:1 83:1 86:1 90:1 94:1 109:1 110:1 129:1 136:1 140:1 144:1 146:1 180:1 208:1 223:1 230:1 265:1 269:1 283:1 316:1 328:1 346:1 347:1 417:1 432:1 454:1 473:1 488:1 511:1 535:1 627:1 665:1 884:1 886:1 895:1 948:1 954:1 955:1 1004:1 1035:1 1156:1 1416:1 1428:1 1444:1 1532:1 1833:1 1927:1 2200:1 2416:1 2636:1 2657:1 2676:1 #
-0.022508955019934107077972385013709 4:1 5:1 15:1 22:1 24:1 29:1 30:1 33:1 34:1 35:1 45:1 61:1 70:1 83:1 101:1 105:1 115:1 123:1 124:1 129:1 141:1 146:1 147:1 209:1 219:1 246:1 308:1 318:1 353:1 400:1 429:1 437:1 440:1 537:1 560:1 575:1 605:1 627:1 639:1 651:1 666:1 668:1 710:1 731:1 782:1 842:1 900:1 1065:1 1095:1 1124:1 1192:1 1212:1 1278:1 1307:1 1517:1 1704:1 1790:1 1869:1 1884:1 2236:1 2244:1 2330:1 2364:1 2378:1 2455:1 2559:1 2700:1 2701:1 2702:1 2703:1 #
-0.022508955019934107077972385013709 9:1 27:1 29:1 30:1 33:1 44:1 45:1 59:1 70:1 83:1 90:1 105:1 110:1 224:1 289:1 345:1 398:1 414:1 551:1 561:1 562:1 570:1 638:1 1021:1 1172:1 1517:1 #
-0.0074694992710262362797801749536575 3:1 17:1 24:1 27:1 30:1 35:1 59:1 69:1 76:1 83:1 105:1 109:1 111:1 156:1 211:1 213:1 247:1 265:1 267:1 291:1 440:1 456:1 475:1 479:1 508:1 656:1 662:1 714:1 739:1 1228:1 1928:1 2050:1 2102:1 2227:1 2385:1 2546:1 2727:1 2833:1 #
0.022508955019934107077972385013709 3:1 5:1 22:1 33:1 34:1 56:1 69:1 83:1 84:1 91:1 92:1 97:1 109:1 124:1 147:1 152:1 167:1 191:1 218:1 230:1 257:1 278:1 285:1 290:1 296:1 337:1 344:1 360:1 374:1 399:1 446:1 501:1 510:1 540:1 547:1 584:1 590:1 596:1 627:1 669:1 724:1 797:1 868:1 1139:1 1298:1 1370:1 1397:1 1444:1 1568:1 1610:1 1614:1 1691:1 1900:1 1903:1 1946:1 2001:1 2046:1 2148:1 2157:1 2158:1 2218:1 2264:1 2347:1 2611:1 2859:1 3074:1 3075:1 #
0.022508955019934107077972385013709 4:1 5:1 11:1 12:1 14:1 19:1 29:1 33:1 42:1 45:1 136:1 144:1 174:1 176:1 218:1 230:1 333:1 367:1 377:1 435:1 515:1 534:1 589:1 609:1 861:1 910:1 925:1 936:1 968:1 1049:1 1071:1 1075:1 1175:1 1192:1 1201:1 1266:1 1378:1 1401:1 1444:1 1450:1 1456:1 1675:1 1680:1 1682:1 1694:1 1796:1 1801:1 1901:1 1931:1 2716:1 2972:1 #
0.022508955019934107077972385013709 22:1 34:1 72:1 89:1 109:1 130:1 230:1 238:1 249:1 288:1 306:1 341:1 461:1 474:1 536:1 589:1 626:1 638:1 724:1 1368:1 1414:1 1544:1 1616:1 1716:1 2789:1 #
0.022508955019934107077972385013709 3:1 5:1 11:1 22:1 33:1 45:1 57:1 59:1 66:1 69:1 70:1 84:1 85:1 90:1 105:1 109:1 110:1 123:1 129:1 136:1 147:1 148:1 152:1 171:1 176:1 181:1 223:1 252:1 337:1 340:1 358:1 384:1 396:1 435:1 440:1 475:1 583:1 624:1 627:1 667:1 731:1 766:1 860:1 867:1 879:1 891:1 895:1 920:1 956:1 1024:1 1053:1 1058:1 1276:1 1297:1 1471:1 1783:1 1956:1 2060:1 2279:1 2281:1 3003:1 #
-0.022508955019934107077972385013709 3:1 4:1 5:1 15:1 19:1 22:1 24:1 27:1 34:1 45:1 56:1 72:1 83:1 85:1 90:1 124:1 137:1 147:1 152:1 159:1 175:1 176:1 181:1 211:1 227:1 238:1 257:1 269:1 275:1 371:1 399:1 414:1 456:1 461:1 587:1 589:1 734:1 969:1 1053:1 1127:1 1128:1 1149:1 1306:1 1347:1 1511:1 1532:1 1585:1 1612:1 1662:1 #
0.022508955019934107077972385013709 3:1 4:1 5:1 13:1 14:1 15:1 17:1 22:1 27:1 30:1 33:1 34:1 44:1 45:1 57:1 76:1 77:1 83:1 105:1 109:1 110:1 111:1 112:1 124:1 157:1 169:1 172:1 180:1 181:1 221:1 247:1 264:1 289:1 298:1 338:1 345:1 368:1 369:1 404:1 432:1 435:1 440:1 531:1 561:1 562:1 570:1 638:1 643:1 656:1 735:1 847:1 854:1 855:1 879:1 885:1 921:1 925:1 1002:1 1021:1 1063:1 1072:1 1382:1 1484:1 1585:1 1941:1 2008:1 2345:1 2489:1 2536:1 2550:1 2896:1 #
-0.019368047861579605617432520148213 3:1 4:1 5:1 7:1 17:1 22:1 30:1 33:1 45:1 56:1 59:1 61:1 68:1 72:1 83:1 105:1 109:1 110:1 136:1 143:1 164:1 176:1 181:1 209:1 221:1 230:1 231:1 291:1 296:1 349:1 416:1 417:1 432:1 435:1 440:1 526:1 564:1 627:1 642:1 653:1 782:1 812:1 918:1 963:1 964:1 967:1 968:1 1013:1 1049:1 1054:1 1118:1 1363:1 1414:1 1608:1 1631:1 1662:1 1770:1 2433:1 2516:1 2657:1 #
-0.022508955019934107077972385013709 3:1 5:1 11:1 15:1 16:1 17:1 33:1 34:1 44:1 45:1 57:1 59:1 66:1 70:1 83:1 84:1 90:1 110:1 116:1 136:1 157:1 171:1 175:1 223:1 227:1 234:1 278:1 290:1 307:1 308:1 341:1 358:1 361:1 367:1 404:1 488:1 624:1 694:1 731:1 812:1 952:1 1003:1 1053:1 1179:1 1388:1 1401:1 1444:1 1485:1 1897:1 2055:1 2140:1 2867:1 2868:1 2869:1 2870:1 #
-0.018045605107689984686336615027358 4:1 14:1 15:1 27:1 29:1 46:1 59:1 63:1 72:1 83:1 84:1 105:1 109:1 115:1 116:1 129:1 141:1 143:1 166:1 169:1 170:1 176:1 181:1 193:1 218:1 237:1 245:1 321:1 349:1 364:1 377:1 395:1 397:1 402:1 488:1 668:1 789:1 824:1 955:1 1049:1 1200:1 1276:1 1414:1 1467:1 1475:1 1598:1 1736:1 1933:1 2281:1 2324:1 2425:1 2720:1 2721:1 2722:1 #
-0.022508955019934107077972385013709 3:1 5:1 14:1 15:1 16:1 22:1 29:1 30:1 45:1 59:1 70:1 76:1 90:1 105:1 109:1 143:1 147:1 151:1 159:1 176:1 181:1 199:1 218:1 291:1 308:1 377:1 396:1 440:1 492:1 541:1 589:1 602:1 639:1 654:1 980:1 991:1 1121:1 1235:1 1246:1 1319:1 1505:1 1516:1 1604:1 1610:1 1822:1 1939:1 2140:1 2249:1 2314:1 2336:1 2351:1 2445:1 2550:1 #
-0.022508955019934107077972385013709 2:1 3:1 5:1 15:1 17:1 22:1 33:1 56:1 59:1 66:1 90:1 105:1 109:1 110:1 111:1 116:1 144:1 147:1 157:1 166:1 176:1 180:1 182:1 211:1 213:1 214:1 223:1 227:1 228:1 230:1 233:1 244:1 287:1 291:1 306:1 314:1 360:1 377:1 424:1 440:1 443:1 470:1 485:1 540:1 663:1 683:1 716:1 766:1 790:1 852:1 871:1 910:1 936:1 1023:1 1071:1 1074:1 1087:1 1096:1 1369:1 1494:1 1539:1 1569:1 1570:1 1571:1 1572:1 1573:1 1574:1 1575:1 #
0.022508955019934107077972385013709 5:1 30:1 45:1 72:1 80:1 83:1 90:1 112:1 116:1 147:1 181:1 227:1 230:1 297:1 308:1 335:1 475:1 482:1 549:1 745:1 1401:1 1411:1 1597:1 1618:1 1927:1 1964:1 2058:1 #
0.022508955019934107077972385013709 15:1 17:1 22:1 27:1 30:1 41:1 59:1 83:1 90:1 101:1 110:1 181:1 227:1 289:1 347:1 663:1 886:1 952:1 1054:1 1100:1 1644:1 1659:1 2055:1 3064:1 #
0.022508955019934107077972385013709 5:1 15:1 17:1 24:1 25:1 30:1 34:1 57:1 59:1 69:1 72:1 83:1 230:1 360:1 403:1 488:1 540:1 651:1 659:1 745:1 771:1 1057:1 1140:1 1387:1 1877:1 2085:1 2740:1 #
0.022508955019934107077972385013709 1:1 14:1 17:1 24:1 30:1 51:1 65:1 69:1 70:1 72:1 83:1 86:1 90:1 112:1 115:1 169:1 182:1 193:1 197:1 290:1 308:1 320:1 395:1 430:1 440:1 456:1 466:1 506:1 548:1 672:1 724:1 740:1 863:1 869:1 932:1 936:1 943:1 1056:1 1077:1 1093:1 1112:1 1138:1 1175:1 1187:1 1237:1 1281:1 1315:1 1350:1 1477:1 1530:1 1568:1 1692:1 1810:1 1861:1 2106:1 2116:1 2236:1 2521:1 2551:1 2659:1 3023:1 3062:1 #
0.022508955019934107077972385013709 7:1 19:1 24:1 30:1 33:1 45:1 50:1 72:1 83:1 84:1 85:1 90:1 110:1 111:1 123:1 129:1 143:1 147:1 174:1 182:1 208:1 231:1 451:1 540:1 589:1 639:1 717:1 745:1 789:1 824:1 825:1 915:1 942:1 1062:1 1140:1 1189:1 1258:1 1409:1 1524:1 1562:1 1639:1 1642:1 1762:1 2010:1 2206:1 2810:1 2996:1 2999:1 #
-0.022508955019934107077972385013709 14:1 18:1 22:1 30:1 34:1 45:1 76:1 83:1 144:1 148:1 152:1 171:1 181:1 255:1 257:1 260:1 424:1 425:1 441:1 512:1 515:1 643:1 665:1 771:1 1058:1 1380:1 1421:1 1559:1 1721:1 1910:1 2284:1 2460:1 #
