SVM-light Version V6.02
0 # kernel type
3 # kernel parameter -d 
1 # kernel parameter -g 
1 # kernel parameter -s 
1 # kernel parameter -r 
empty# kernel parameter -u 
2041 # highest feature index 
1600 # number of training documents 
1066 # number of support vectors plus 1 
0.29775236 # threshold b, each following line is a SV (starting with alpha*y)
-0.02401085401230589055909803164468 43:1 87:1 206:1 259:1 275:1 285:1 313:1 350:1 437:1 469:1 509:1 548:1 605:1 606:1 618:1 637:1 652:1 737:1 783:1 838:1 917:1 1025:1 1121:1 1149:1 1157:1 1160:1 1423:1 1461:1 1610:1 1617:1 1706:1 1790:1 1837:1 1856:1 1860:1 1874:1 1925:1 1930:1 1938:1 1948:1 #
-0.02401085401230589055909803164468 252:1 323:1 432:1 605:1 708:1 731:1 1157:1 1233:1 1840:1 1846:1 1893:1 1990:1 1993:1 2038:1 #
-0.02401085401230589055909803164468 3:1 30:1 31:1 51:1 236:1 241:1 375:1 429:1 489:1 509:1 584:1 606:1 644:1 700:1 963:1 994:1 1019:1 1031:1 1046:1 1086:1 1121:1 1150:1 1175:1 1217:1 1246:1 1324:1 1489:1 1490:1 1496:1 1790:1 1856:1 1944:1 1993:1 #
-0.02401085401230589055909803164468 15:1 19:1 21:1 31:1 216:1 252:1 263:1 292:1 301:1 395:1 399:1 509:1 577:1 605:1 662:1 667:1 681:1 695:1 698:1 750:1 789:1 832:1 863:1 1056:1 1118:1 1246:1 1287:1 1292:1 1347:1 1416:1 1423:1 1496:1 1573:1 1601:1 1629:1 1650:1 1651:1 1660:1 1672:1 1716:1 1856:1 1949:1 #
0.00063614879718381430340895521524658 11:1 31:1 44:1 87:1 232:1 248:1 252:1 282:1 398:1 399:1 403:1 429:1 449:1 471:1 484:1 485:1 509:1 519:1 542:1 581:1 598:1 605:1 606:1 618:1 698:1 732:1 759:1 838:1 848:1 891:1 916:1 924:1 993:1 994:1 1073:1 1132:1 1148:1 1157:1 1225:1 1234:1 1287:1 1294:1 1431:1 1442:1 1483:1 1493:1 1563:1 1568:1 1573:1 1597:1 1629:1 1706:1 1744:1 1775:1 1799:1 1838:1 1856:1 1860:1 1912:1 1915:1 1956:1 1961:1 #
0.02401085401230589055909803164468 31:1 38:1 94:1 176:1 256:1 268:1 280:1 313:1 368:1 451:1 484:1 493:1 496:1 605:1 606:1 652:1 698:1 704:1 726:1 731:1 752:1 877:1 994:1 1041:1 1107:1 1129:1 1155:1 1157:1 1186:1 1194:1 1201:1 1297:1 1318:1 1339:1 1392:1 1433:1 1488:1 1502:1 1544:1 1610:1 1629:1 1675:1 1706:1 1744:1 1780:1 1796:1 1963:1 2008:1 2014:1 #
0.02401085401230589055909803164468 90:1 252:1 259:1 313:1 337:1 450:1 489:1 509:1 511:1 652:1 663:1 708:1 732:1 750:1 756:1 792:1 928:1 931:1 1071:1 1157:1 1241:1 1294:1 1302:1 1559:1 1595:1 1629:1 1706:1 1734:1 1736:1 1744:1 1780:1 1805:1 1835:1 1879:1 1940:1 1949:1 #
0.02401085401230589055909803164468 24:1 31:1 168:1 190:1 252:1 256:1 313:1 348:1 496:1 577:1 590:1 682:1 698:1 700:1 719:1 736:1 838:1 916:1 1016:1 1033:1 1077:1 1119:1 1157:1 1208:1 1246:1 1558:1 1565:1 1573:1 1610:1 1629:1 1822:1 1856:1 1860:1 1906:1 1944:1 1990:1 2007:1 #
0.02401085401230589055909803164468 87:1 93:1 160:1 360:1 377:1 456:1 486:1 528:1 606:1 610:1 614:1 627:1 734:1 750:1 898:1 899:1 986:1 1112:1 1118:1 1121:1 1281:1 1444:1 1573:1 1629:1 1706:1 1744:1 1750:1 1799:1 1806:1 1816:1 1845:1 1855:1 1856:1 1860:1 1864:1 1912:1 2014:1 #
0.02401085401230589055909803164468 31:1 87:1 228:1 337:1 356:1 519:1 531:1 637:1 699:1 761:1 793:1 796:1 839:1 850:1 944:1 946:1 1041:1 1095:1 1097:1 1175:1 1236:1 1239:1 1272:1 1294:1 1347:1 1367:1 1476:1 1568:1 1574:1 1610:1 1706:1 1727:1 1729:1 1735:1 1856:1 1930:1 1992:1 2025:1 #
-0.02401085401230589055909803164468 15:1 24:1 31:1 87:1 108:1 164:1 168:1 190:1 236:1 252:1 256:1 270:1 296:1 301:1 326:1 338:1 399:1 458:1 471:1 486:1 496:1 509:1 521:1 525:1 570:1 606:1 655:1 698:1 732:1 736:1 750:1 770:1 796:1 812:1 835:1 838:1 840:1 891:1 899:1 916:1 933:1 937:1 953:1 986:1 989:1 1012:1 1053:1 1059:1 1061:1 1068:1 1157:1 1162:1 1170:1 1234:1 1268:1 1284:1 1287:1 1409:1 1480:1 1516:1 1535:1 1538:1 1573:1 1584:1 1610:1 1614:1 1629:1 1653:1 1706:1 1735:1 1744:1 1754:1 1822:1 1835:1 1837:1 1860:1 1869:1 1912:1 1925:1 1944:1 1955:1 1989:1 1990:1 1992:1 #
-0.02401085401230589055909803164468 10:1 24:1 31:1 87:1 301:1 375:1 422:1 429:1 451:1 482:1 486:1 496:1 509:1 521:1 528:1 542:1 618:1 682:1 698:1 735:1 752:1 797:1 838:1 862:1 916:1 921:1 1046:1 1068:1 1071:1 1077:1 1149:1 1544:1 1559:1 1610:1 1623:1 1629:1 1706:1 1736:1 1744:1 1780:1 1885:1 1912:1 #
-0.005512423911303243606596424797317 28:1 31:1 39:1 70:1 83:1 116:1 122:1 138:1 176:1 250:1 252:1 254:1 259:1 295:1 313:1 374:1 422:1 447:1 451:1 486:1 502:1 509:1 563:1 577:1 585:1 606:1 608:1 618:1 631:1 645:1 652:1 684:1 707:1 710:1 732:1 735:1 738:1 761:1 768:1 792:1 796:1 799:1 809:1 838:1 844:1 856:1 859:1 874:1 882:1 887:1 891:1 915:1 944:1 975:1 993:1 1026:1 1039:1 1055:1 1088:1 1121:1 1157:1 1171:1 1183:1 1208:1 1241:1 1247:1 1261:1 1272:1 1346:1 1349:1 1350:1 1373:1 1379:1 1400:1 1404:1 1414:1 1418:1 1475:1 1476:1 1490:1 1501:1 1511:1 1535:1 1597:1 1610:1 1629:1 1633:1 1647:1 1716:1 1818:1 1821:1 1826:1 1834:1 1835:1 1856:1 1860:1 1867:1 1882:1 1884:1 1915:1 1966:1 2017:1 #
-0.0076544644904834105436641777941986 12:1 24:1 31:1 52:1 87:1 95:1 144:1 164:1 192:1 214:1 221:1 256:1 285:1 313:1 318:1 330:1 411:1 451:1 489:1 494:1 606:1 645:1 652:1 700:1 732:1 736:1 761:1 783:1 872:1 900:1 963:1 976:1 992:1 1015:1 1157:1 1198:1 1202:1 1234:1 1294:1 1414:1 1418:1 1499:1 1534:1 1559:1 1573:1 1610:1 1629:1 1634:1 1663:1 1706:1 1733:1 1744:1 1818:1 1856:1 1866:1 1879:1 1896:1 1921:1 1925:1 1944:1 1990:1 #
-0.0025501885025166039569488596328029 15:1 31:1 39:1 76:1 87:1 164:1 204:1 243:1 259:1 278:1 293:1 305:1 313:1 398:1 411:1 429:1 437:1 447:1 495:1 496:1 521:1 554:1 606:1 652:1 682:1 706:1 736:1 750:1 796:1 900:1 931:1 938:1 974:1 994:1 1086:1 1099:1 1112:1 1122:1 1157:1 1207:1 1234:1 1246:1 1272:1 1281:1 1323:1 1328:1 1424:1 1433:1 1435:1 1436:1 1455:1 1554:1 1559:1 1570:1 1573:1 1607:1 1610:1 1623:1 1629:1 1647:1 1706:1 1747:1 1767:1 1799:1 1832:1 1835:1 1856:1 1862:1 1937:1 1945:1 1990:1 2011:1 #
0.02401085401230589055909803164468 15:1 339:1 350:1 451:1 478:1 509:1 606:1 695:1 700:1 812:1 824:1 924:1 1046:1 1081:1 1091:1 1143:1 1157:1 1300:1 1332:1 1360:1 1423:1 1475:1 1483:1 1496:1 1629:1 1670:1 #
0.023561783488220168492066619592151 24:1 31:1 51:1 239:1 259:1 271:1 355:1 363:1 384:1 509:1 577:1 580:1 605:1 606:1 625:1 680:1 715:1 824:1 997:1 1142:1 1149:1 1341:1 1573:1 1750:1 1788:1 1790:1 1797:1 1856:1 1860:1 1912:1 1970:1 #
0.02401085401230589055909803164468 157:1 313:1 326:1 451:1 509:1 605:1 652:1 700:1 704:1 771:1 874:1 885:1 893:1 900:1 974:1 1025:1 1086:1 1157:1 1189:1 1281:1 1287:1 1423:1 1496:1 1532:1 1623:1 1712:1 1783:1 2026:1 #
0.02401085401230589055909803164468 183:1 252:1 350:1 360:1 411:1 437:1 471:1 509:1 605:1 652:1 698:1 770:1 853:1 1234:1 1469:1 1629:1 1767:1 1818:1 1856:1 #
0.02401085401230589055909803164468 243:1 270:1 376:1 399:1 411:1 429:1 458:1 489:1 509:1 534:1 618:1 652:1 736:1 796:1 933:1 974:1 1022:1 1168:1 1175:1 1363:1 1423:1 1474:1 1511:1 1521:1 1532:1 1584:1 1697:1 1716:1 1856:1 #
-0.02401085401230589055909803164468 252:1 451:1 696:1 824:1 997:1 1070:1 1077:1 1157:1 1261:1 1433:1 1511:1 1532:1 1758:1 1759:1 #
-0.02401085401230589055909803164468 43:1 228:1 750:1 824:1 1011:1 1433:1 1511:1 1613:1 1782:1 #
-0.012059380641283347357362032425954 31:1 227:1 599:1 652:1 824:1 1208:1 1289:1 1366:1 1379:1 1488:1 1496:1 1516:1 1531:1 1644:1 1782:1 1961:1 #
-0.02401085401230589055909803164468 27:1 98:1 140:1 168:1 220:1 308:1 385:1 458:1 497:1 606:1 664:1 707:1 802:1 979:1 1175:1 1237:1 1363:1 1423:1 1475:1 1520:1 1672:1 #
-0.02401085401230589055909803164468 20:1 118:1 351:1 363:1 924:1 1404:1 1442:1 1610:1 1769:1 #
0.0040198568600291178370964573218771 31:1 58:1 168:1 188:1 226:1 243:1 259:1 301:1 326:1 375:1 380:1 437:1 483:1 489:1 496:1 565:1 573:1 614:1 618:1 644:1 682:1 698:1 732:1 751:1 835:1 885:1 931:1 986:1 1046:1 1071:1 1086:1 1088:1 1113:1 1122:1 1159:1 1186:1 1233:1 1234:1 1346:1 1431:1 1434:1 1475:1 1496:1 1500:1 1520:1 1521:1 1533:1 1573:1 1603:1 1623:1 1629:1 1660:1 1662:1 1706:1 1835:1 1855:1 1856:1 1915:1 1925:1 1929:1 1990:1 2019:1 #
-0.02401085401230589055909803164468 65:1 108:1 117:1 168:1 349:1 458:1 545:1 669:1 684:1 727:1 997:1 1125:1 1302:1 1460:1 1516:1 1535:1 1601:1 1629:1 1706:1 1751:1 1940:1 1954:1 1987:1 #
0.02401085401230589055909803164468 15:1 31:1 85:1 87:1 97:1 164:1 250:1 285:1 301:1 313:1 371:1 399:1 422:1 451:1 495:1 652:1 655:1 698:1 700:1 732:1 761:1 763:1 783:1 796:1 824:1 1046:1 1149:1 1157:1 1234:1 1256:1 1287:1 1315:1 1496:1 1573:1 1584:1 1610:1 1623:1 1629:1 1706:1 1744:1 1782:1 1803:1 1856:1 1944:1 1961:1 1968:1 1990:1 1993:1 #
-0.02401085401230589055909803164468 39:1 252:1 343:1 350:1 396:1 451:1 496:1 542:1 545:1 606:1 618:1 621:1 652:1 708:1 761:1 796:1 838:1 904:1 916:1 994:1 1121:1 1157:1 1287:1 1301:1 1328:1 1378:1 1423:1 1433:1 1496:1 1573:1 1629:1 1654:1 1744:1 1856:1 1944:1 1948:1 #
0.013338303151653123357345265276308 3:1 31:1 52:1 110:1 282:1 313:1 317:1 386:1 398:1 399:1 451:1 496:1 549:1 585:1 597:1 606:1 653:1 710:1 750:1 788:1 812:1 862:1 874:1 1011:1 1149:1 1246:1 1287:1 1393:1 1431:1 1460:1 1543:1 1544:1 1559:1 1609:1 1629:1 1643:1 1780:1 1799:1 1821:1 1874:1 1912:1 1990:1 #
-0.02401085401230589055909803164468 24:1 30:1 117:1 119:1 173:1 174:1 178:1 189:1 228:1 243:1 256:1 266:1 301:1 313:1 350:1 352:1 429:1 473:1 509:1 528:1 605:1 652:1 656:1 711:1 732:1 796:1 843:1 874:1 900:1 914:1 974:1 988:1 1046:1 1074:1 1123:1 1149:1 1150:1 1195:1 1208:1 1213:1 1236:1 1272:1 1287:1 1295:1 1310:1 1342:1 1398:1 1423:1 1496:1 1516:1 1526:1 1569:1 1607:1 1613:1 1716:1 1782:1 1796:1 1901:1 1906:1 1959:1 #
-0.02401085401230589055909803164468 24:1 143:1 147:1 190:1 204:1 243:1 250:1 301:1 313:1 363:1 366:1 399:1 423:1 477:1 503:1 606:1 652:1 700:1 730:1 732:1 796:1 867:1 885:1 1046:1 1081:1 1115:1 1132:1 1169:1 1289:1 1345:1 1403:1 1460:1 1496:1 1514:1 1544:1 1565:1 1623:1 1693:1 1698:1 1822:1 1823:1 1852:1 1860:1 1906:1 1976:1 #
-0.02401085401230589055909803164468 31:1 52:1 85:1 142:1 168:1 239:1 252:1 259:1 291:1 313:1 382:1 399:1 423:1 432:1 497:1 509:1 592:1 606:1 610:1 644:1 645:1 650:1 684:1 697:1 705:1 839:1 890:1 1031:1 1038:1 1046:1 1055:1 1107:1 1108:1 1111:1 1142:1 1152:1 1155:1 1157:1 1301:1 1302:1 1328:1 1330:1 1420:1 1423:1 1456:1 1496:1 1514:1 1570:1 1584:1 1610:1 1623:1 1625:1 1629:1 1650:1 1706:1 1744:1 1750:1 1753:1 1782:1 1790:1 1797:1 1803:1 1852:1 1856:1 1857:1 1860:1 1886:1 1891:1 1944:1 1984:1 1992:1 #
0.021100868061536055819704671421277 24:1 52:1 77:1 86:1 250:1 252:1 255:1 256:1 318:1 384:1 423:1 436:1 509:1 515:1 536:1 584:1 606:1 618:1 652:1 669:1 682:1 701:1 715:1 732:1 750:1 796:1 832:1 838:1 885:1 953:1 997:1 1055:1 1071:1 1149:1 1237:1 1287:1 1328:1 1341:1 1433:1 1480:1 1496:1 1535:1 1573:1 1574:1 1610:1 1629:1 1714:1 1733:1 1739:1 1744:1 1821:1 1856:1 1927:1 1951:1 1990:1 #
-0.014163002842680598100666422567429 11:1 15:1 31:1 85:1 91:1 187:1 252:1 270:1 304:1 308:1 313:1 399:1 489:1 501:1 502:1 509:1 631:1 644:1 652:1 700:1 726:1 732:1 796:1 827:1 836:1 908:1 922:1 963:1 988:1 990:1 992:1 1024:1 1046:1 1068:1 1149:1 1157:1 1236:1 1287:1 1347:1 1386:1 1423:1 1429:1 1499:1 1516:1 1559:1 1584:1 1610:1 1629:1 1716:1 1797:1 1856:1 1907:1 1944:1 1978:1 1987:1 1992:1 1993:1 #
0.02401085401230589055909803164468 83:1 87:1 95:1 224:1 262:1 622:1 908:1 953:1 1220:1 1223:1 1343:1 1388:1 1478:1 1568:1 1640:1 1735:1 1818:1 1826:1 1894:1 2029:1 #
0.02401085401230589055909803164468 10:1 31:1 33:1 250:1 360:1 471:1 483:1 496:1 528:1 691:1 738:1 783:1 797:1 836:1 891:1 1025:1 1076:1 1121:1 1201:1 1254:1 1272:1 1289:1 1684:1 1713:1 1801:1 1869:1 1886:1 1920:1 1926:1 1930:1 2031:1 #
0.02401085401230589055909803164468 31:1 400:1 437:1 484:1 645:1 797:1 942:1 994:1 1017:1 1284:1 1967:1 1990:1 #
0.02401085401230589055909803164468 1:1 31:1 96:1 158:1 207:1 216:1 218:1 255:1 292:1 297:1 372:1 429:1 471:1 477:1 479:1 496:1 521:1 584:1 605:1 606:1 608:1 652:1 682:1 691:1 699:1 734:1 764:1 977:1 997:1 1017:1 1019:1 1142:1 1202:1 1234:1 1294:1 1414:1 1433:1 1438:1 1448:1 1482:1 1489:1 1496:1 1554:1 1568:1 1610:1 1717:1 1826:1 1856:1 1859:1 1872:1 1896:1 1925:1 1970:1 #
0.02401085401230589055909803164468 43:1 87:1 412:1 432:1 496:1 509:1 652:1 719:1 750:1 809:1 1121:1 1150:1 1442:1 1496:1 1544:1 1573:1 1574:1 1701:1 1706:1 1835:1 1859:1 1872:1 1879:1 1912:1 1990:1 #
-0.02401085401230589055909803164468 31:1 87:1 186:1 256:1 437:1 451:1 496:1 637:1 652:1 664:1 674:1 783:1 797:1 824:1 843:1 1074:1 1077:1 1112:1 1113:1 1175:1 1220:1 1273:1 1301:1 1347:1 1423:1 1454:1 1460:1 1461:1 1507:1 1568:1 1818:1 1860:1 1881:1 #
-0.00068650899302179332808065970183975 31:1 66:1 74:1 217:1 313:1 437:1 449:1 478:1 496:1 509:1 524:1 528:1 605:1 614:1 652:1 672:1 781:1 904:1 944:1 1132:1 1169:1 1175:1 1272:1 1291:1 1393:1 1585:1 1629:1 1633:1 1659:1 1706:1 1720:1 1740:1 1818:1 1829:1 1990:1 #
-0.02401085401230589055909803164468 52:1 83:1 108:1 130:1 259:1 339:1 360:1 482:1 509:1 523:1 530:1 542:1 580:1 750:1 795:1 874:1 921:1 1034:1 1048:1 1142:1 1194:1 1237:1 1239:1 1515:1 1521:1 1536:1 1610:1 1635:1 1659:1 1675:1 1780:1 1820:1 1835:1 1856:1 2010:1 #
-0.02401085401230589055909803164468 17:1 25:1 27:1 31:1 164:1 252:1 337:1 420:1 423:1 451:1 485:1 542:1 585:1 634:1 689:1 698:1 700:1 737:1 824:1 997:1 1046:1 1121:1 1157:1 1170:1 1201:1 1287:1 1438:1 1445:1 1496:1 1513:1 1558:1 1601:1 1706:1 1835:1 1990:1 #
-0.02401085401230589055909803164468 31:1 83:1 98:1 420:1 447:1 451:1 534:1 606:1 702:1 726:1 736:1 782:1 828:1 1112:1 1121:1 1145:1 1205:1 1272:1 1294:1 1533:1 1799:1 1984:1 #
0.02401085401230589055909803164468 85:1 105:1 122:1 164:1 165:1 210:1 223:1 226:1 278:1 285:1 313:1 326:1 375:1 399:1 432:1 489:1 509:1 605:1 606:1 610:1 612:1 631:1 644:1 652:1 698:1 699:1 700:1 732:1 735:1 756:1 761:1 780:1 810:1 832:1 908:1 917:1 933:1 974:1 1023:1 1046:1 1108:1 1157:1 1272:1 1287:1 1347:1 1496:1 1509:1 1539:1 1565:1 1573:1 1601:1 1607:1 1616:1 1629:1 1660:1 1697:1 1735:1 1790:1 1860:1 1915:1 1944:1 1961:1 1966:1 1990:1 #
0.012900790062900449259308821581271 27:1 28:1 31:1 71:1 87:1 97:1 108:1 210:1 239:1 243:1 252:1 301:1 313:1 331:1 352:1 357:1 380:1 399:1 417:1 429:1 451:1 509:1 513:1 606:1 637:1 693:1 708:1 711:1 730:1 796:1 800:1 840:1 872:1 873:1 891:1 1053:1 1070:1 1086:1 1089:1 1108:1 1142:1 1149:1 1157:1 1164:1 1194:1 1215:1 1234:1 1236:1 1256:1 1271:1 1287:1 1342:1 1347:1 1380:1 1419:1 1423:1 1475:1 1477:1 1491:1 1516:1 1532:1 1558:1 1559:1 1573:1 1600:1 1603:1 1610:1 1623:1 1629:1 1636:1 1648:1 1659:1 1706:1 1737:1 1738:1 1744:1 1767:1 1771:1 1797:1 1818:1 1837:1 1856:1 1907:1 1947:1 1992:1 #
0.02401085401230589055909803164468 24:1 31:1 137:1 176:1 206:1 228:1 243:1 252:1 292:1 313:1 326:1 351:1 355:1 429:1 432:1 458:1 459:1 494:1 497:1 499:1 509:1 585:1 606:1 633:1 652:1 664:1 667:1 698:1 704:1 732:1 787:1 812:1 824:1 838:1 856:1 925:1 938:1 949:1 1001:1 1035:1 1044:1 1093:1 1121:1 1149:1 1157:1 1239:1 1256:1 1261:1 1332:1 1347:1 1351:1 1401:1 1423:1 1426:1 1456:1 1461:1 1475:1 1488:1 1496:1 1511:1 1544:1 1570:1 1597:1 1623:1 1629:1 1687:1 1706:1 1744:1 1771:1 1841:1 1842:1 1891:1 1925:1 1966:1 1990:1 1992:1 1993:1 2001:1 #
0.01964917154940498331128218012509 39:1 76:1 190:1 193:1 226:1 236:1 243:1 250:1 252:1 256:1 285:1 313:1 356:1 360:1 399:1 411:1 458:1 489:1 494:1 497:1 509:1 542:1 554:1 569:1 577:1 607:1 644:1 663:1 698:1 704:1 731:1 732:1 761:1 776:1 783:1 835:1 840:1 859:1 885:1 911:1 935:1 1050:1 1068:1 1070:1 1096:1 1128:1 1155:1 1157:1 1225:1 1242:1 1246:1 1272:1 1306:1 1328:1 1442:1 1516:1 1544:1 1629:1 1663:1 1706:1 1780:1 1816:1 1886:1 1948:1 1993:1 #
-0.02401085401230589055909803164468 24:1 83:1 117:1 152:1 259:1 375:1 393:1 411:1 429:1 449:1 464:1 605:1 615:1 652:1 676:1 700:1 732:1 747:1 750:1 832:1 886:1 962:1 1039:1 1068:1 1074:1 1157:1 1178:1 1207:1 1287:1 1306:1 1389:1 1416:1 1434:1 1517:1 1603:1 1623:1 1677:1 1705:1 1714:1 1767:1 1843:1 1856:1 #
0.0072877990669340895341088426562237 15:1 57:1 85:1 87:1 118:1 164:1 256:1 259:1 292:1 301:1 314:1 399:1 485:1 509:1 528:1 529:1 606:1 698:1 732:1 832:1 864:1 874:1 944:1 953:1 1098:1 1142:1 1157:1 1175:1 1220:1 1231:1 1234:1 1243:1 1261:1 1287:1 1309:1 1343:1 1444:1 1461:1 1516:1 1521:1 1573:1 1597:1 1610:1 1640:1 1698:1 1706:1 1744:1 1773:1 1806:1 1856:1 1944:1 1992:1 #
-0.0026981843433427502368382455699702 15:1 23:1 25:1 39:1 43:1 65:1 173:1 238:1 285:1 326:1 399:1 425:1 451:1 496:1 509:1 521:1 577:1 582:1 604:1 606:1 637:1 639:1 644:1 652:1 691:1 698:1 707:1 715:1 732:1 746:1 791:1 796:1 836:1 841:1 843:1 856:1 885:1 899:1 920:1 933:1 986:1 1039:1 1041:1 1071:1 1149:1 1157:1 1213:1 1220:1 1234:1 1243:1 1284:1 1331:1 1332:1 1363:1 1425:1 1460:1 1483:1 1573:1 1620:1 1624:1 1629:1 1706:1 1732:1 1775:1 1782:1 1925:1 2001:1 2007:1 #
-0.02401085401230589055909803164468 12:1 31:1 216:1 295:1 340:1 355:1 494:1 509:1 519:1 605:1 619:1 698:1 731:1 732:1 767:1 796:1 838:1 874:1 891:1 916:1 933:1 935:1 1045:1 1088:1 1157:1 1234:1 1246:1 1272:1 1328:1 1332:1 1338:1 1363:1 1444:1 1490:1 1500:1 1509:1 1516:1 1573:1 1610:1 1629:1 1659:1 1706:1 1763:1 1826:1 1840:1 1856:1 1866:1 1925:1 1951:1 1966:1 2014:1 #
-0.02401085401230589055909803164468 31:1 114:1 168:1 181:1 252:1 293:1 313:1 346:1 348:1 411:1 429:1 432:1 496:1 509:1 604:1 605:1 732:1 736:1 783:1 810:1 823:1 892:1 953:1 1041:1 1068:1 1088:1 1098:1 1145:1 1148:1 1157:1 1175:1 1201:1 1215:1 1231:1 1246:1 1256:1 1287:1 1347:1 1496:1 1558:1 1573:1 1607:1 1610:1 1623:1 1624:1 1629:1 1646:1 1706:1 1716:1 1803:1 1823:1 1926:1 1944:1 1985:1 1987:1 1990:1 1992:1 2008:1 #
-0.02401085401230589055909803164468 15:1 77:1 108:1 151:1 226:1 252:1 313:1 350:1 382:1 399:1 450:1 451:1 542:1 605:1 652:1 698:1 732:1 739:1 750:1 838:1 906:1 933:1 944:1 981:1 998:1 1030:1 1033:1 1157:1 1171:1 1215:1 1234:1 1265:1 1276:1 1279:1 1287:1 1347:1 1433:1 1491:1 1535:1 1573:1 1578:1 1597:1 1601:1 1629:1 1659:1 1717:1 1773:1 1826:1 1860:1 2026:1 #
0.02401085401230589055909803164468 196:1 306:1 313:1 652:1 737:1 823:1 874:1 891:1 990:1 1011:1 1040:1 1044:1 1071:1 1122:1 1132:1 1247:1 1295:1 1563:1 1703:1 1706:1 1714:1 1782:1 1790:1 1901:1 #
0.02401085401230589055909803164468 65:1 606:1 783:1 874:1 1221:1 1607:1 1610:1 1693:1 1833:1 1852:1 1860:1 1882:1 #
0.02401085401230589055909803164468 142:1 408:1 497:1 502:1 510:1 528:1 644:1 707:1 736:1 916:1 1190:1 1496:1 1614:1 1629:1 #
0.02401085401230589055909803164468 25:1 51:1 69:1 204:1 259:1 313:1 395:1 423:1 486:1 529:1 578:1 580:1 605:1 606:1 607:1 631:1 708:1 724:1 781:1 796:1 832:1 993:1 1004:1 1065:1 1188:1 1234:1 1281:1 1340:1 1348:1 1385:1 1403:1 1453:1 1496:1 1522:1 1623:1 1629:1 1706:1 1734:1 1813:1 1835:1 1856:1 1887:1 #
0.02401085401230589055909803164468 3:1 451:1 477:1 494:1 732:1 1149:1 1342:1 1363:1 1423:1 1433:1 1726:1 1835:1 #
-0.02401085401230589055909803164468 313:1 356:1 384:1 507:1 570:1 577:1 586:1 598:1 605:1 606:1 655:1 770:1 1086:1 1141:1 1219:1 1233:1 1241:1 1247:1 1312:1 1516:1 1521:1 1623:1 1796:1 1856:1 1869:1 1961:1 #
-0.02401085401230589055909803164468 24:1 124:1 170:1 198:1 243:1 256:1 285:1 346:1 352:1 355:1 471:1 550:1 554:1 606:1 614:1 619:1 664:1 700:1 732:1 761:1 832:1 1032:1 1142:1 1155:1 1178:1 1225:1 1239:1 1294:1 1318:1 1442:1 1460:1 1597:1 1601:1 1629:1 1650:1 1747:1 1846:1 1895:1 1965:1 1995:1 2038:1 #
-0.02401085401230589055909803164468 87:1 164:1 252:1 301:1 313:1 399:1 451:1 509:1 539:1 569:1 606:1 622:1 628:1 796:1 1046:1 1264:1 1415:1 1438:1 1442:1 1544:1 1573:1 1629:1 1663:1 1668:1 1744:1 1856:1 1857:1 1912:1 1923:1 1951:1 #
-0.02401085401230589055909803164468 24:1 30:1 142:1 175:1 252:1 327:1 494:1 509:1 519:1 557:1 599:1 751:1 761:1 925:1 1179:1 1196:1 1207:1 1220:1 1233:1 1343:1 1376:1 1433:1 1488:1 1597:1 1629:1 1707:1 1768:1 1802:1 1857:1 1897:1 1915:1 1990:1 #
-0.012329271823275856495572000426364 31:1 203:1 259:1 319:1 337:1 360:1 369:1 399:1 521:1 590:1 605:1 606:1 644:1 645:1 652:1 684:1 698:1 745:1 750:1 872:1 874:1 891:1 931:1 944:1 954:1 1027:1 1053:1 1086:1 1149:1 1193:1 1216:1 1234:1 1239:1 1482:1 1629:1 1823:1 1860:1 1884:1 #
0.022816978976400611317520983334362 15:1 31:1 37:1 52:1 117:1 247:1 252:1 256:1 361:1 382:1 399:1 496:1 510:1 521:1 602:1 606:1 614:1 619:1 652:1 682:1 700:1 732:1 736:1 749:1 761:1 824:1 838:1 840:1 874:1 878:1 891:1 900:1 929:1 933:1 939:1 981:1 1046:1 1088:1 1100:1 1121:1 1157:1 1201:1 1233:1 1256:1 1261:1 1268:1 1276:1 1423:1 1433:1 1483:1 1511:1 1516:1 1531:1 1535:1 1554:1 1578:1 1601:1 1629:1 1646:1 1674:1 1767:1 1777:1 1780:1 1782:1 1822:1 1912:1 1933:1 #
0.02401085401230589055909803164468 12:1 15:1 28:1 31:1 88:1 168:1 250:1 252:1 264:1 292:1 355:1 380:1 411:1 451:1 478:1 485:1 486:1 496:1 652:1 656:1 679:1 698:1 727:1 732:1 750:1 843:1 872:1 986:1 990:1 1073:1 1086:1 1108:1 1157:1 1162:1 1175:1 1201:1 1206:1 1234:1 1251:1 1287:1 1391:1 1423:1 1438:1 1442:1 1467:1 1496:1 1532:1 1573:1 1610:1 1679:1 1706:1 1757:1 1816:1 1927:1 1944:1 2012:1 #
0.0059340567981090693375212374860439 3:1 15:1 27:1 30:1 31:1 43:1 52:1 77:1 85:1 111:1 127:1 146:1 252:1 313:1 326:1 399:1 419:1 451:1 458:1 489:1 502:1 509:1 542:1 549:1 605:1 606:1 611:1 617:1 652:1 655:1 682:1 684:1 732:1 771:1 832:1 838:1 848:1 856:1 874:1 884:1 904:1 953:1 986:1 993:1 997:1 1011:1 1017:1 1020:1 1081:1 1095:1 1112:1 1115:1 1123:1 1157:1 1160:1 1234:1 1236:1 1239:1 1273:1 1284:1 1286:1 1287:1 1295:1 1339:1 1343:1 1348:1 1373:1 1377:1 1405:1 1417:1 1433:1 1435:1 1442:1 1460:1 1483:1 1495:1 1516:1 1544:1 1573:1 1583:1 1590:1 1597:1 1607:1 1610:1 1629:1 1640:1 1706:1 1821:1 1826:1 1906:1 1925:1 1927:1 #
0.02401085401230589055909803164468 15:1 24:1 25:1 31:1 39:1 57:1 168:1 178:1 249:1 252:1 292:1 350:1 360:1 399:1 432:1 451:1 465:1 509:1 525:1 535:1 572:1 605:1 606:1 608:1 644:1 665:1 693:1 707:1 750:1 783:1 796:1 845:1 874:1 899:1 900:1 925:1 933:1 990:1 1061:1 1081:1 1142:1 1149:1 1157:1 1201:1 1202:1 1203:1 1234:1 1256:1 1261:1 1287:1 1303:1 1318:1 1442:1 1493:1 1573:1 1629:1 1653:1 1699:1 1708:1 1744:1 1769:1 1790:1 1799:1 1814:1 1822:1 1835:1 1838:1 1846:1 1854:1 1860:1 1944:1 1984:1 2008:1 #
0.0021252938297963187841421728307978 3:1 24:1 25:1 31:1 40:1 85:1 87:1 108:1 113:1 170:1 173:1 181:1 187:1 204:1 259:1 292:1 305:1 399:1 411:1 435:1 471:1 509:1 536:1 542:1 586:1 604:1 605:1 606:1 639:1 652:1 663:1 684:1 698:1 732:1 735:1 742:1 749:1 750:1 756:1 761:1 803:1 820:1 900:1 949:1 973:1 997:1 1033:1 1046:1 1071:1 1074:1 1107:1 1145:1 1147:1 1150:1 1157:1 1168:1 1188:1 1208:1 1234:1 1256:1 1272:1 1327:1 1340:1 1347:1 1460:1 1496:1 1511:1 1533:1 1551:1 1573:1 1576:1 1597:1 1606:1 1617:1 1624:1 1629:1 1716:1 1797:1 1809:1 1823:1 1826:1 1856:1 1915:1 1935:1 1936:1 1949:1 2007:1 2019:1 #
-0.0043022058550276839894443980938377 24:1 87:1 124:1 252:1 259:1 270:1 337:1 377:1 399:1 451:1 478:1 509:1 567:1 595:1 605:1 700:1 701:1 732:1 750:1 783:1 819:1 839:1 871:1 886:1 908:1 938:1 1011:1 1046:1 1070:1 1121:1 1135:1 1157:1 1234:1 1287:1 1363:1 1388:1 1484:1 1570:1 1573:1 1578:1 1601:1 1605:1 1617:1 1623:1 1629:1 1706:1 1795:1 1813:1 1856:1 1857:1 1954:1 1990:1 #
-0.015487778505652294996908224788967 15:1 25:1 43:1 85:1 87:1 110:1 121:1 138:1 204:1 244:1 256:1 292:1 363:1 399:1 417:1 471:1 477:1 528:1 535:1 536:1 606:1 617:1 644:1 652:1 698:1 732:1 750:1 756:1 838:1 871:1 965:1 1046:1 1131:1 1133:1 1140:1 1170:1 1239:1 1284:1 1287:1 1414:1 1438:1 1488:1 1507:1 1531:1 1544:1 1573:1 1610:1 1629:1 1643:1 1659:1 1669:1 1684:1 1775:1 1788:1 1822:1 1835:1 1847:1 1860:1 1967:1 1982:1 #
-0.02401085401230589055909803164468 15:1 24:1 25:1 43:1 84:1 87:1 141:1 146:1 176:1 202:1 243:1 244:1 247:1 250:1 252:1 285:1 301:1 309:1 326:1 345:1 399:1 411:1 489:1 660:1 682:1 709:1 732:1 750:1 763:1 774:1 778:1 783:1 800:1 828:1 843:1 862:1 871:1 872:1 874:1 997:1 1103:1 1107:1 1108:1 1113:1 1141:1 1152:1 1157:1 1202:1 1245:1 1287:1 1307:1 1310:1 1328:1 1335:1 1363:1 1391:1 1423:1 1436:1 1496:1 1511:1 1532:1 1629:1 1714:1 1733:1 1791:1 1818:1 1826:1 1856:1 1945:1 1986:1 #
-0.02401085401230589055909803164468 15:1 43:1 51:1 129:1 144:1 259:1 313:1 338:1 360:1 368:1 411:1 437:1 451:1 489:1 492:1 509:1 521:1 542:1 577:1 580:1 606:1 644:1 670:1 691:1 698:1 750:1 874:1 993:1 1011:1 1036:1 1044:1 1046:1 1118:1 1133:1 1149:1 1157:1 1256:1 1287:1 1294:1 1299:1 1306:1 1363:1 1366:1 1378:1 1423:1 1496:1 1516:1 1560:1 1573:1 1606:1 1607:1 1610:1 1623:1 1629:1 1669:1 1685:1 1706:1 1716:1 1780:1 1870:1 1930:1 1990:1 1992:1 1993:1 #
-0.02401085401230589055909803164468 28:1 204:1 208:1 247:1 256:1 328:1 399:1 451:1 509:1 606:1 619:1 644:1 652:1 682:1 729:1 732:1 750:1 761:1 796:1 838:1 871:1 872:1 924:1 970:1 1085:1 1120:1 1149:1 1157:1 1179:1 1189:1 1265:1 1287:1 1358:1 1387:1 1390:1 1394:1 1532:1 1558:1 1582:1 1613:1 1623:1 1629:1 1703:1 1706:1 1768:1 1784:1 #
0.02401085401230589055909803164468 24:1 52:1 187:1 252:1 256:1 294:1 313:1 411:1 416:1 455:1 509:1 542:1 580:1 606:1 614:1 637:1 655:1 692:1 698:1 732:1 734:1 811:1 836:1 843:1 866:1 977:1 1045:1 1150:1 1246:1 1276:1 1288:1 1294:1 1368:1 1433:1 1446:1 1518:1 1610:1 1650:1 1775:1 1805:1 1835:1 1907:1 1944:1 1958:1 1990:1 1992:1 #
0.02401085401230589055909803164468 83:1 95:1 221:1 236:1 243:1 396:1 423:1 485:1 528:1 604:1 605:1 789:1 796:1 810:1 918:1 1046:1 1121:1 1279:1 1323:1 1385:1 1417:1 1435:1 1521:1 1552:1 1626:1 1818:1 1820:1 1926:1 1932:1 1992:1 #
0.02401085401230589055909803164468 18:1 24:1 270:1 315:1 350:1 605:1 606:1 732:1 827:1 856:1 924:1 1098:1 1131:1 1169:1 1326:1 1433:1 1568:1 1573:1 1706:1 1835:1 1935:1 1966:1 1990:1 1992:1 #
0.02401085401230589055909803164468 57:1 87:1 190:1 251:1 287:1 309:1 340:1 352:1 364:1 399:1 437:1 460:1 509:1 605:1 606:1 709:1 833:1 843:1 880:1 918:1 1052:1 1107:1 1157:1 1169:1 1234:1 1284:1 1287:1 1310:1 1376:1 1454:1 1568:1 1634:1 1706:1 1741:1 1799:1 1826:1 1829:1 1907:1 1930:1 1990:1 1992:1 #
0.02401085401230589055909803164468 350:1 1098:1 1345:1 1610:1 1629:1 1689:1 #
-0.0030443959418261726940224676241087 252:1 313:1 340:1 355:1 396:1 399:1 451:1 486:1 542:1 545:1 580:1 605:1 606:1 688:1 691:1 698:1 718:1 761:1 796:1 815:1 874:1 880:1 899:1 920:1 928:1 1039:1 1097:1 1108:1 1121:1 1134:1 1136:1 1186:1 1214:1 1368:1 1371:1 1380:1 1419:1 1431:1 1433:1 1511:1 1544:1 1676:1 1737:1 1789:1 1823:1 1833:1 1835:1 1907:1 1926:1 1990:1 #
-0.02401085401230589055909803164468 15:1 24:1 65:1 97:1 110:1 168:1 252:1 337:1 340:1 415:1 509:1 513:1 602:1 606:1 652:1 663:1 682:1 698:1 752:1 773:1 796:1 812:1 832:1 898:1 949:1 1046:1 1057:1 1075:1 1081:1 1147:1 1157:1 1175:1 1194:1 1210:1 1215:1 1235:1 1247:1 1256:1 1323:1 1347:1 1433:1 1496:1 1520:1 1528:1 1535:1 1544:1 1610:1 1613:1 1644:1 1706:1 1756:1 1789:1 1803:1 1860:1 2008:1 #
-0.0072511824716606047835920634270224 31:1 223:1 259:1 389:1 411:1 477:1 608:1 631:1 652:1 693:1 736:1 809:1 856:1 989:1 1041:1 1157:1 1175:1 1233:1 1353:1 1362:1 1442:1 1623:1 1672:1 1735:1 1801:1 1856:1 1981:1 #
-0.02401085401230589055909803164468 19:1 31:1 52:1 87:1 187:1 191:1 252:1 360:1 429:1 442:1 483:1 563:1 605:1 606:1 608:1 652:1 698:1 700:1 749:1 770:1 803:1 804:1 856:1 916:1 974:1 1046:1 1078:1 1108:1 1157:1 1195:1 1209:1 1243:1 1273:1 1302:1 1312:1 1418:1 1474:1 1514:1 1629:1 1645:1 1707:1 1726:1 1739:1 1740:1 1920:1 1990:1 1992:1 #
-0.02401085401230589055909803164468 226:1 252:1 340:1 352:1 360:1 652:1 654:1 886:1 891:1 904:1 990:1 1121:1 1157:1 1247:1 1261:1 1294:1 1518:1 1568:1 1631:1 1644:1 1686:1 1835:1 1856:1 #
0.02401085401230589055909803164468 1:1 7:1 51:1 87:1 247:1 252:1 276:1 348:1 363:1 380:1 423:1 451:1 496:1 509:1 521:1 545:1 606:1 650:1 652:1 670:1 682:1 707:1 736:1 750:1 780:1 796:1 833:1 870:1 907:1 975:1 1037:1 1039:1 1046:1 1055:1 1068:1 1149:1 1157:1 1162:1 1169:1 1217:1 1220:1 1241:1 1272:1 1436:1 1444:1 1477:1 1490:1 1491:1 1496:1 1510:1 1514:1 1531:1 1559:1 1579:1 1587:1 1594:1 1613:1 1672:1 1754:1 1782:1 1810:1 1835:1 1856:1 1915:1 1925:1 1983:1 2012:1 #
0.014145595354462567327935573757713 15:1 25:1 43:1 52:1 256:1 330:1 350:1 445:1 451:1 484:1 509:1 604:1 617:1 795:1 824:1 828:1 916:1 942:1 1078:1 1091:1 1157:1 1158:1 1189:1 1194:1 1195:1 1264:1 1276:1 1403:1 1423:1 1425:1 1457:1 1475:1 1490:1 1496:1 1516:1 1520:1 1528:1 1569:1 1613:1 1698:1 1706:1 1731:1 1733:1 1780:1 1856:1 1925:1 1990:1 #
0.0089470370866814689925217152222103 15:1 24:1 32:1 44:1 76:1 108:1 242:1 259:1 275:1 285:1 366:1 380:1 399:1 496:1 521:1 564:1 573:1 579:1 605:1 606:1 644:1 652:1 670:1 736:1 750:1 806:1 838:1 874:1 898:1 925:1 933:1 958:1 970:1 992:1 997:1 999:1 1024:1 1037:1 1046:1 1086:1 1121:1 1135:1 1157:1 1272:1 1332:1 1347:1 1351:1 1375:1 1423:1 1426:1 1496:1 1516:1 1573:1 1584:1 1610:1 1623:1 1629:1 1653:1 1663:1 1668:1 1706:1 1716:1 1720:1 1735:1 1773:1 1813:1 1826:1 1856:1 1875:1 1912:1 1915:1 1956:1 1983:1 2002:1 2025:1 #
0.02401085401230589055909803164468 31:1 48:1 95:1 118:1 146:1 164:1 191:1 227:1 247:1 252:1 301:1 313:1 338:1 399:1 509:1 534:1 537:1 588:1 599:1 631:1 644:1 732:1 770:1 796:1 827:1 838:1 856:1 894:1 919:1 1046:1 1068:1 1135:1 1145:1 1150:1 1157:1 1158:1 1245:1 1247:1 1252:1 1328:1 1431:1 1488:1 1521:1 1536:1 1573:1 1607:1 1629:1 1659:1 1754:1 1816:1 1817:1 1856:1 1923:1 1970:1 1990:1 1997:1 #
0.022730151715613357288336970896125 15:1 31:1 52:1 92:1 101:1 111:1 114:1 243:1 250:1 292:1 301:1 314:1 355:1 375:1 384:1 411:1 437:1 451:1 509:1 521:1 542:1 605:1 606:1 698:1 705:1 732:1 761:1 796:1 826:1 832:1 843:1 867:1 916:1 933:1 998:1 1037:1 1056:1 1108:1 1125:1 1149:1 1157:1 1287:1 1312:1 1313:1 1378:1 1395:1 1514:1 1529:1 1535:1 1536:1 1610:1 1629:1 1653:1 1771:1 1790:1 1835:1 1856:1 #
-0.02401085401230589055909803164468 13:1 33:1 108:1 148:1 357:1 375:1 411:1 436:1 471:1 509:1 600:1 605:1 606:1 670:1 684:1 698:1 700:1 707:1 749:1 780:1 796:1 843:1 910:1 1033:1 1040:1 1046:1 1056:1 1061:1 1068:1 1081:1 1093:1 1157:1 1201:1 1276:1 1287:1 1288:1 1303:1 1347:1 1375:1 1379:1 1429:1 1460:1 1524:1 1546:1 1573:1 1584:1 1607:1 1629:1 1679:1 1706:1 1744:1 1792:1 1799:1 1813:1 1835:1 1860:1 1927:1 1945:1 1968:1 2038:1 #
-0.02401085401230589055909803164468 24:1 28:1 31:1 87:1 98:1 118:1 243:1 250:1 270:1 313:1 337:1 358:1 367:1 399:1 471:1 534:1 547:1 584:1 606:1 684:1 698:1 714:1 736:1 738:1 759:1 770:1 838:1 900:1 935:1 992:1 1016:1 1046:1 1098:1 1105:1 1157:1 1186:1 1273:1 1341:1 1363:1 1423:1 1460:1 1461:1 1495:1 1525:1 1598:1 1600:1 1610:1 1714:1 1744:1 1767:1 1777:1 1856:1 1925:1 1974:1 #
-0.02401085401230589055909803164468 24:1 25:1 216:1 243:1 259:1 292:1 301:1 313:1 337:1 380:1 384:1 399:1 429:1 483:1 534:1 605:1 606:1 608:1 614:1 704:1 708:1 737:1 838:1 852:1 867:1 944:1 992:1 1022:1 1044:1 1070:1 1157:1 1169:1 1194:1 1233:1 1234:1 1246:1 1261:1 1473:1 1521:1 1563:1 1569:1 1573:1 1607:1 1610:1 1626:1 1629:1 1735:1 1736:1 1743:1 1821:1 1834:1 1888:1 1912:1 1942:1 1990:1 #
-0.02401085401230589055909803164468 15:1 87:1 103:1 118:1 136:1 219:1 243:1 252:1 337:1 339:1 355:1 375:1 385:1 399:1 437:1 484:1 511:1 521:1 542:1 606:1 644:1 664:1 684:1 700:1 727:1 732:1 755:1 761:1 832:1 851:1 899:1 992:1 1037:1 1145:1 1194:1 1220:1 1306:1 1442:1 1483:1 1488:1 1558:1 1610:1 1617:1 1629:1 1698:1 1744:1 1771:1 1797:1 1856:1 1932:1 1982:1 1988:1 1990:1 1997:1 2026:1 #
-0.02401085401230589055909803164468 25:1 31:1 78:1 123:1 207:1 252:1 256:1 259:1 292:1 339:1 372:1 374:1 399:1 422:1 509:1 588:1 614:1 644:1 732:1 770:1 832:1 908:1 929:1 968:1 1074:1 1157:1 1217:1 1234:1 1276:1 1287:1 1332:1 1378:1 1427:1 1461:1 1465:1 1529:1 1610:1 1613:1 1706:1 1800:1 1826:1 1848:1 1856:1 1860:1 1944:1 2008:1 2012:1 #
0.02401085401230589055909803164468 16:1 43:1 54:1 159:1 164:1 204:1 243:1 340:1 375:1 451:1 501:1 541:1 547:1 598:1 618:1 652:1 698:1 707:1 737:1 761:1 832:1 856:1 875:1 933:1 982:1 992:1 1046:1 1122:1 1130:1 1221:1 1236:1 1287:1 1456:1 1473:1 1519:1 1536:1 1543:1 1544:1 1571:1 1607:1 1610:1 1659:1 1672:1 1706:1 1716:1 1801:1 1826:1 1844:1 1880:1 1884:1 1915:1 1928:1 #
0.02401085401230589055909803164468 31:1 51:1 292:1 313:1 360:1 377:1 411:1 429:1 486:1 528:1 580:1 617:1 652:1 732:1 761:1 819:1 942:1 986:1 1078:1 1085:1 1261:1 1303:1 1403:1 1480:1 1533:1 1535:1 1558:1 1577:1 1706:1 1819:1 1860:1 1884:1 1989:1 #
0.02401085401230589055909803164468 31:1 87:1 101:1 106:1 190:1 252:1 256:1 326:1 329:1 348:1 360:1 399:1 452:1 550:1 585:1 606:1 618:1 652:1 682:1 683:1 691:1 756:1 790:1 810:1 891:1 963:1 1046:1 1149:1 1157:1 1179:1 1195:1 1284:1 1287:1 1460:1 1500:1 1519:1 1526:1 1544:1 1573:1 1610:1 1629:1 1706:1 1716:1 1748:1 1754:1 1778:1 1817:1 1860:1 1928:1 1990:1 #
0.02401085401230589055909803164468 31:1 84:1 107:1 114:1 164:1 168:1 176:1 186:1 196:1 256:1 292:1 313:1 318:1 355:1 360:1 437:1 471:1 486:1 509:1 542:1 606:1 655:1 698:1 768:1 807:1 838:1 839:1 993:1 1024:1 1044:1 1046:1 1052:1 1074:1 1175:1 1183:1 1245:1 1252:1 1283:1 1310:1 1387:1 1396:1 1409:1 1431:1 1500:1 1568:1 1573:1 1629:1 1706:1 1780:1 1786:1 1826:1 1866:1 1948:1 #
-0.0052859484247429911613069819509292 53:1 55:1 58:1 87:1 252:1 471:1 484:1 489:1 496:1 509:1 555:1 599:1 614:1 646:1 698:1 769:1 843:1 851:1 856:1 987:1 1022:1 1050:1 1070:1 1077:1 1157:1 1175:1 1332:1 1342:1 1389:1 1423:1 1431:1 1446:1 1477:1 1499:1 1535:1 1597:1 1609:1 1610:1 1623:1 1629:1 1687:1 1706:1 1716:1 1744:1 1767:1 1813:1 1938:1 1996:1 #
-0.02401085401230589055909803164468 31:1 52:1 162:1 243:1 256:1 285:1 301:1 350:1 355:1 360:1 377:1 398:1 451:1 487:1 556:1 605:1 618:1 652:1 665:1 682:1 688:1 734:1 763:1 797:1 883:1 942:1 946:1 963:1 1114:1 1133:1 1149:1 1246:1 1261:1 1272:1 1426:1 1433:1 1496:1 1573:1 1610:1 1629:1 1706:1 1716:1 1790:1 1854:1 1856:1 1904:1 1944:1 2020:1 #
-0.022371507646332753488360722826656 1:1 26:1 42:1 87:1 111:1 176:1 179:1 313:1 355:1 393:1 432:1 509:1 598:1 599:1 606:1 652:1 657:1 682:1 720:1 736:1 796:1 986:1 993:1 1246:1 1287:1 1496:1 1543:1 1552:1 1558:1 1629:1 1687:1 1694:1 1700:1 1706:1 1742:1 1783:1 1796:1 1813:1 1860:1 1933:1 1971:1 #
-0.02401085401230589055909803164468 236:1 305:1 451:1 578:1 644:1 736:1 761:1 806:1 843:1 856:1 874:1 908:1 1002:1 1149:1 1157:1 1284:1 1287:1 1327:1 1536:1 1706:1 1879:1 #
-0.013524596004195775511558252901523 31:1 37:1 100:1 225:1 230:1 242:1 252:1 282:1 325:1 338:1 356:1 357:1 362:1 413:1 440:1 449:1 450:1 451:1 452:1 496:1 499:1 509:1 605:1 606:1 624:1 625:1 664:1 682:1 732:1 796:1 801:1 874:1 900:1 908:1 917:1 993:1 1046:1 1122:1 1142:1 1145:1 1157:1 1168:1 1208:1 1234:1 1236:1 1243:1 1260:1 1272:1 1320:1 1335:1 1364:1 1474:1 1480:1 1535:1 1536:1 1538:1 1629:1 1716:1 1782:1 1791:1 1801:1 1816:1 1819:1 1822:1 1826:1 1833:1 1872:1 1891:1 1901:1 1907:1 1925:1 1975:1 1992:1 2031:1 2038:1 #
-0.02401085401230589055909803164468 31:1 243:1 256:1 292:1 355:1 494:1 521:1 715:1 730:1 734:1 736:1 796:1 804:1 1039:1 1074:1 1223:1 1336:1 1433:1 1496:1 1573:1 1587:1 1629:1 1706:1 1769:1 1860:1 #
-0.02401085401230589055909803164468 15:1 51:1 557:1 567:1 606:1 652:1 720:1 796:1 922:1 1001:1 1077:1 1132:1 1157:1 1231:1 1610:1 1766:1 1860:1 1990:1 #
0.0093880135961400511257490819616578 51:1 85:1 108:1 129:1 173:1 176:1 207:1 225:1 247:1 250:1 252:1 259:1 283:1 294:1 313:1 346:1 350:1 360:1 399:1 411:1 422:1 496:1 503:1 509:1 528:1 557:1 599:1 606:1 644:1 645:1 670:1 750:1 796:1 801:1 848:1 899:1 932:1 935:1 1046:1 1067:1 1121:1 1132:1 1169:1 1170:1 1202:1 1294:1 1335:1 1394:1 1460:1 1474:1 1516:1 1544:1 1573:1 1610:1 1623:1 1626:1 1629:1 1647:1 1707:1 1744:1 1789:1 1792:1 1802:1 1823:1 1835:1 1856:1 1872:1 1880:1 1990:1 1992:1 #
0.02401085401230589055909803164468 1:1 15:1 250:1 340:1 350:1 399:1 418:1 429:1 496:1 605:1 606:1 637:1 691:1 708:1 895:1 899:1 1077:1 1223:1 1234:1 1270:1 1299:1 1341:1 1378:1 1435:1 1438:1 1460:1 1474:1 1496:1 1532:1 1598:1 1606:1 1629:1 1744:1 1836:1 2026:1 #
0.02401085401230589055909803164468 15:1 31:1 87:1 134:1 252:1 256:1 259:1 340:1 355:1 484:1 521:1 557:1 599:1 606:1 652:1 655:1 684:1 741:1 796:1 859:1 920:1 957:1 1006:1 1031:1 1041:1 1149:1 1234:1 1294:1 1347:1 1423:1 1433:1 1460:1 1568:1 1584:1 1613:1 1623:1 1684:1 1687:1 1724:1 1744:1 1823:1 1833:1 1856:1 1879:1 2031:1 #
-0.012358429252070307971522744594495 8:1 15:1 47:1 50:1 85:1 108:1 131:1 164:1 221:1 234:1 259:1 270:1 279:1 313:1 340:1 345:1 375:1 411:1 429:1 449:1 451:1 471:1 496:1 509:1 567:1 606:1 645:1 652:1 655:1 670:1 700:1 704:1 707:1 715:1 727:1 735:1 798:1 825:1 854:1 880:1 997:1 1157:1 1181:1 1201:1 1202:1 1220:1 1269:1 1272:1 1276:1 1303:1 1323:1 1383:1 1429:1 1433:1 1460:1 1467:1 1482:1 1496:1 1516:1 1520:1 1544:1 1557:1 1573:1 1586:1 1603:1 1610:1 1629:1 1653:1 1706:1 1777:1 1784:1 1792:1 1835:1 1851:1 1856:1 1877:1 1948:1 1990:1 #
-0.02401085401230589055909803164468 8:1 15:1 47:1 50:1 85:1 108:1 131:1 164:1 221:1 234:1 259:1 270:1 279:1 313:1 340:1 345:1 375:1 411:1 429:1 449:1 451:1 471:1 496:1 509:1 567:1 606:1 652:1 655:1 670:1 700:1 704:1 707:1 715:1 727:1 735:1 798:1 825:1 854:1 880:1 997:1 1157:1 1181:1 1201:1 1202:1 1220:1 1269:1 1272:1 1276:1 1303:1 1323:1 1383:1 1429:1 1433:1 1460:1 1467:1 1482:1 1496:1 1516:1 1520:1 1544:1 1557:1 1573:1 1586:1 1603:1 1610:1 1629:1 1653:1 1706:1 1777:1 1784:1 1792:1 1835:1 1851:1 1856:1 1877:1 1948:1 1990:1 #
-0.02401085401230589055909803164468 10:1 15:1 24:1 28:1 37:1 85:1 87:1 147:1 163:1 164:1 247:1 250:1 255:1 270:1 274:1 313:1 344:1 375:1 451:1 458:1 489:1 496:1 497:1 615:1 652:1 693:1 700:1 751:1 776:1 833:1 870:1 922:1 933:1 935:1 972:1 1024:1 1046:1 1068:1 1121:1 1202:1 1205:1 1407:1 1425:1 1440:1 1444:1 1467:1 1496:1 1507:1 1516:1 1532:1 1535:1 1558:1 1601:1 1605:1 1625:1 1629:1 1706:1 1823:1 1827:1 1889:1 1898:1 1901:1 2028:1 #
-0.01170154361808379422926762458701 15:1 46:1 56:1 206:1 252:1 292:1 429:1 496:1 509:1 605:1 618:1 644:1 652:1 670:1 719:1 732:1 750:1 761:1 796:1 826:1 891:1 994:1 1071:1 1086:1 1102:1 1121:1 1131:1 1157:1 1234:1 1239:1 1284:1 1433:1 1511:1 1563:1 1573:1 1600:1 1605:1 1610:1 1814:1 1840:1 1856:1 1944:1 1990:1 2025:1 #
-0.02401085401230589055909803164468 15:1 28:1 31:1 85:1 122:1 134:1 159:1 164:1 224:1 252:1 259:1 292:1 313:1 360:1 471:1 606:1 656:1 737:1 874:1 1046:1 1088:1 1221:1 1272:1 1414:1 1442:1 1444:1 1496:1 1559:1 1573:1 1610:1 1640:1 1650:1 1684:1 1716:1 1744:1 1754:1 1816:1 1820:1 1869:1 1927:1 #
0.02401085401230589055909803164468 52:1 124:1 305:1 318:1 357:1 360:1 396:1 451:1 471:1 579:1 605:1 700:1 874:1 944:1 1119:1 1149:1 1157:1 1265:1 1340:1 1397:1 1496:1 1629:1 1773:1 1777:1 1782:1 1809:1 1822:1 1857:1 1990:1 #
0.02401085401230589055909803164468 31:1 87:1 168:1 170:1 252:1 292:1 301:1 302:1 313:1 337:1 360:1 415:1 422:1 436:1 438:1 450:1 451:1 496:1 544:1 545:1 570:1 662:1 750:1 832:1 838:1 874:1 891:1 916:1 935:1 944:1 974:1 990:1 1039:1 1046:1 1142:1 1157:1 1201:1 1239:1 1264:1 1267:1 1287:1 1301:1 1318:1 1480:1 1490:1 1535:1 1559:1 1601:1 1625:1 1629:1 1636:1 1768:1 1775:1 1796:1 1800:1 1805:1 1833:1 1835:1 1944:1 1951:1 1987:1 #
0.02401085401230589055909803164468 31:1 104:1 136:1 173:1 204:1 339:1 355:1 363:1 422:1 560:1 606:1 644:1 649:1 651:1 684:1 708:1 761:1 1157:1 1168:1 1282:1 1287:1 1303:1 1323:1 1496:1 1623:1 1629:1 1633:1 1796:1 1854:1 1891:1 1957:1 1986:1 2008:1 #
0.02401085401230589055909803164468 16:1 31:1 54:1 87:1 137:1 144:1 236:1 243:1 248:1 249:1 285:1 313:1 337:1 358:1 398:1 461:1 489:1 496:1 503:1 584:1 596:1 598:1 606:1 644:1 736:1 750:1 761:1 838:1 899:1 933:1 936:1 944:1 1091:1 1142:1 1145:1 1205:1 1273:1 1306:1 1328:1 1414:1 1442:1 1445:1 1482:1 1496:1 1523:1 1524:1 1525:1 1569:1 1597:1 1610:1 1629:1 1637:1 1663:1 1856:1 1915:1 1925:1 1995:1 2005:1 2008:1 #
0.02401085401230589055909803164468 24:1 31:1 142:1 256:1 326:1 339:1 610:1 633:1 652:1 749:1 893:1 992:1 1157:1 1220:1 1246:1 1347:1 1393:1 1431:1 1433:1 1488:1 1496:1 1522:1 1542:1 1544:1 1572:1 1603:1 1706:1 1790:1 1822:1 1835:1 1840:1 1846:1 2019:1 #
-0.01043332147122200473376985030427 1:1 25:1 31:1 51:1 52:1 170:1 247:1 249:1 315:1 343:1 363:1 399:1 411:1 496:1 521:1 605:1 606:1 618:1 661:1 679:1 695:1 756:1 780:1 812:1 933:1 960:1 1001:1 1046:1 1133:1 1142:1 1149:1 1221:1 1232:1 1234:1 1238:1 1239:1 1242:1 1287:1 1338:1 1426:1 1490:1 1548:1 1629:1 1706:1 1749:1 1782:1 1835:1 1846:1 1990:1 1993:1 #
-0.02401085401230589055909803164468 31:1 41:1 52:1 95:1 118:1 124:1 209:1 243:1 250:1 301:1 358:1 375:1 418:1 478:1 496:1 528:1 605:1 652:1 653:1 655:1 698:1 809:1 848:1 953:1 973:1 1041:1 1046:1 1149:1 1157:1 1254:1 1261:1 1272:1 1287:1 1301:1 1332:1 1347:1 1369:1 1403:1 1433:1 1460:1 1488:1 1496:1 1511:1 1597:1 1620:1 1622:1 1629:1 1652:1 1706:1 1713:1 1744:1 1782:1 1790:1 1822:1 1850:1 1878:1 1886:1 1968:1 2016:1 2031:1 #
-0.02401085401230589055909803164468 117:1 217:1 333:1 360:1 422:1 496:1 536:1 567:1 752:1 827:1 853:1 933:1 1086:1 1105:1 1227:1 1355:1 1423:1 1475:1 1511:1 1573:1 1583:1 1701:1 1708:1 1796:1 1901:1 1928:1 #
-0.02401085401230589055909803164468 31:1 43:1 49:1 62:1 87:1 146:1 178:1 184:1 196:1 301:1 318:1 357:1 363:1 411:1 436:1 464:1 605:1 656:1 661:1 691:1 695:1 704:1 761:1 768:1 780:1 796:1 856:1 885:1 899:1 1044:1 1093:1 1125:1 1130:1 1148:1 1184:1 1235:1 1252:1 1256:1 1287:1 1351:1 1391:1 1403:1 1433:1 1573:1 1578:1 1607:1 1610:1 1629:1 1672:1 1722:1 1830:1 1917:1 1930:1 1989:1 1990:1 #
-0.02401085401230589055909803164468 31:1 256:1 271:1 319:1 355:1 384:1 397:1 398:1 399:1 471:1 521:1 598:1 655:1 698:1 812:1 839:1 1068:1 1122:1 1134:1 1224:1 1294:1 1318:1 1339:1 1364:1 1417:1 1469:1 1521:1 1610:1 1673:1 1746:1 1969:1 #
0.02401085401230589055909803164468 24:1 31:1 52:1 85:1 108:1 117:1 118:1 142:1 164:1 168:1 204:1 226:1 243:1 252:1 259:1 313:1 337:1 397:1 399:1 411:1 422:1 432:1 459:1 478:1 483:1 485:1 496:1 605:1 606:1 608:1 615:1 652:1 691:1 708:1 714:1 736:1 824:1 832:1 838:1 885:1 916:1 974:1 1064:1 1068:1 1132:1 1157:1 1234:1 1243:1 1246:1 1269:1 1287:1 1301:1 1328:1 1375:1 1391:1 1467:1 1496:1 1535:1 1559:1 1573:1 1600:1 1610:1 1706:1 1747:1 1813:1 1850:1 1856:1 1859:1 1869:1 1898:1 1907:1 1976:1 1982:1 #
0.02401085401230589055909803164468 50:1 52:1 87:1 99:1 213:1 252:1 259:1 313:1 337:1 346:1 399:1 435:1 437:1 477:1 496:1 503:1 508:1 509:1 590:1 605:1 606:1 631:1 638:1 644:1 652:1 698:1 700:1 750:1 761:1 856:1 916:1 953:1 972:1 1018:1 1074:1 1075:1 1098:1 1143:1 1157:1 1173:1 1234:1 1243:1 1251:1 1256:1 1272:1 1323:1 1366:1 1415:1 1442:1 1571:1 1573:1 1607:1 1610:1 1629:1 1640:1 1675:1 1689:1 1693:1 1706:1 1716:1 1813:1 1846:1 1856:1 1869:1 1944:1 1994:1 #
-0.023278800253212373477795793519363 15:1 65:1 97:1 117:1 218:1 247:1 249:1 321:1 326:1 360:1 465:1 484:1 528:1 570:1 606:1 618:1 637:1 652:1 761:1 797:1 856:1 872:1 1050:1 1124:1 1143:1 1149:1 1151:1 1234:1 1376:1 1488:1 1496:1 1610:1 1656:1 1699:1 1823:1 1833:1 2038:1 #
0.02401085401230589055909803164468 87:1 94:1 145:1 206:1 292:1 313:1 318:1 340:1 347:1 432:1 451:1 605:1 606:1 673:1 700:1 708:1 924:1 1149:1 1157:1 1247:1 1284:1 1292:1 1302:1 1309:1 1442:1 1443:1 1496:1 1578:1 1610:1 1623:1 1649:1 1667:1 1692:1 1706:1 1714:1 1716:1 1726:1 1732:1 1829:1 1896:1 2012:1 2024:1 #
0.02401085401230589055909803164468 15:1 24:1 31:1 58:1 231:1 252:1 301:1 360:1 399:1 411:1 429:1 521:1 621:1 634:1 652:1 664:1 730:1 732:1 761:1 800:1 832:1 885:1 887:1 891:1 899:1 900:1 936:1 1037:1 1041:1 1074:1 1142:1 1157:1 1201:1 1226:1 1256:1 1287:1 1442:1 1452:1 1480:1 1573:1 1629:1 1706:1 1744:1 1869:1 1892:1 1901:1 #
-0.02401085401230589055909803164468 21:1 31:1 43:1 108:1 110:1 168:1 216:1 247:1 250:1 252:1 313:1 321:1 337:1 360:1 409:1 429:1 451:1 484:1 509:1 605:1 606:1 609:1 645:1 673:1 709:1 732:1 749:1 769:1 772:1 783:1 794:1 824:1 838:1 886:1 942:1 1011:1 1015:1 1081:1 1145:1 1149:1 1157:1 1201:1 1263:1 1328:1 1438:1 1442:1 1496:1 1536:1 1568:1 1610:1 1623:1 1629:1 1630:1 1633:1 1773:1 1785:1 1822:1 1843:1 1881:1 1907:1 1990:1 1993:1 #
-0.02401085401230589055909803164468 1:1 15:1 24:1 52:1 134:1 168:1 223:1 243:1 259:1 313:1 360:1 368:1 399:1 415:1 436:1 484:1 577:1 605:1 606:1 618:1 652:1 663:1 691:1 707:1 732:1 749:1 891:1 916:1 1046:1 1122:1 1149:1 1157:1 1206:1 1234:1 1246:1 1283:1 1284:1 1318:1 1401:1 1420:1 1431:1 1521:1 1573:1 1610:1 1623:1 1629:1 1659:1 1706:1 1734:1 1765:1 1777:1 1783:1 1912:1 #
-0.02401085401230589055909803164468 1:1 24:1 31:1 87:1 117:1 204:1 249:1 259:1 301:1 313:1 326:1 349:1 371:1 399:1 436:1 451:1 493:1 509:1 510:1 540:1 542:1 571:1 606:1 610:1 637:1 663:1 666:1 732:1 762:1 796:1 838:1 899:1 917:1 1068:1 1122:1 1149:1 1157:1 1220:1 1272:1 1287:1 1466:1 1496:1 1512:1 1519:1 1559:1 1573:1 1623:1 1629:1 1706:1 1813:1 1837:1 1852:1 1856:1 1921:1 1944:1 1990:1 2001:1 #
-0.02401085401230589055909803164468 31:1 99:1 190:1 252:1 256:1 259:1 271:1 292:1 313:1 339:1 399:1 423:1 484:1 604:1 605:1 644:1 652:1 676:1 707:1 796:1 832:1 843:1 864:1 885:1 990:1 1070:1 1071:1 1121:1 1142:1 1143:1 1157:1 1232:1 1273:1 1287:1 1289:1 1303:1 1378:1 1571:1 1610:1 1629:1 1640:1 1674:1 1698:1 1801:1 1835:1 1990:1 2012:1 #
-0.011540289874285923621410887562888 20:1 51:1 52:1 63:1 117:1 154:1 170:1 232:1 252:1 256:1 259:1 301:1 350:1 355:1 411:1 422:1 459:1 509:1 519:1 554:1 606:1 618:1 652:1 666:1 750:1 761:1 840:1 891:1 942:1 944:1 974:1 1037:1 1041:1 1100:1 1157:1 1159:1 1181:1 1201:1 1212:1 1232:1 1328:1 1336:1 1363:1 1378:1 1431:1 1460:1 1488:1 1545:1 1562:1 1593:1 1598:1 1627:1 1706:1 1718:1 1771:1 1867:1 1887:1 1891:1 1915:1 1961:1 1990:1 2014:1 2023:1 2035:1 #
0.02401085401230589055909803164468 4:1 15:1 31:1 243:1 528:1 652:1 707:1 812:1 856:1 1000:1 1046:1 1070:1 1157:1 1629:1 1659:1 1840:1 #
-0.0073971602170674142368023140647892 43:1 51:1 66:1 313:1 399:1 416:1 605:1 695:1 732:1 832:1 838:1 1046:1 1086:1 1157:1 1183:1 1363:1 1433:1 1559:1 1564:1 1597:1 1679:1 1706:1 1773:1 1901:1 1914:1 2017:1 #
0.02401085401230589055909803164468 15:1 146:1 243:1 250:1 340:1 367:1 422:1 429:1 604:1 606:1 732:1 877:1 929:1 953:1 972:1 1046:1 1105:1 1122:1 1133:1 1157:1 1451:1 1460:1 1511:1 1518:1 1573:1 1587:1 1610:1 1629:1 1706:1 1768:1 1826:1 1843:1 1990:1 #
0.02401085401230589055909803164468 15:1 25:1 168:1 285:1 484:1 509:1 521:1 606:1 843:1 856:1 1065:1 1081:1 1086:1 1157:1 1194:1 1201:1 1261:1 1276:1 1371:1 1501:1 1521:1 1835:1 1925:1 #
0.02401085401230589055909803164468 15:1 28:1 62:1 176:1 301:1 355:1 397:1 465:1 496:1 605:1 606:1 652:1 715:1 796:1 824:1 838:1 899:1 928:1 1011:1 1077:1 1149:1 1190:1 1223:1 1224:1 1281:1 1363:1 1423:1 1433:1 1532:1 1610:1 1629:1 1704:1 1706:1 1731:1 1799:1 1803:1 #
-0.02401085401230589055909803164468 15:1 65:1 106:1 203:1 249:1 250:1 281:1 318:1 363:1 423:1 451:1 502:1 521:1 652:1 704:1 731:1 736:1 750:1 761:1 768:1 812:1 832:1 838:1 856:1 984:1 992:1 1033:1 1039:1 1077:1 1150:1 1157:1 1189:1 1242:1 1261:1 1272:1 1333:1 1389:1 1433:1 1446:1 1496:1 1559:1 1568:1 1584:1 1600:1 1610:1 1629:1 1706:1 1744:1 1780:1 1790:1 1823:1 1826:1 1832:1 1970:1 #
-0.0081747160957395814673276390749379 142:1 249:1 326:1 337:1 360:1 363:1 435:1 477:1 496:1 605:1 606:1 634:1 650:1 652:1 715:1 789:1 856:1 974:1 1017:1 1018:1 1033:1 1086:1 1098:1 1157:1 1168:1 1175:1 1198:1 1292:1 1332:1 1333:1 1359:1 1473:1 1482:1 1506:1 1609:1 1618:1 1623:1 1629:1 1683:1 1691:1 1706:1 1867:1 1925:1 1961:1 #
-0.02401085401230589055909803164468 16:1 28:1 40:1 45:1 87:1 139:1 164:1 168:1 292:1 301:1 315:1 341:1 363:1 396:1 451:1 494:1 509:1 606:1 707:1 747:1 916:1 975:1 1024:1 1136:1 1142:1 1145:1 1157:1 1236:1 1248:1 1418:1 1423:1 1433:1 1488:1 1490:1 1544:1 1559:1 1573:1 1574:1 1623:1 1670:1 1720:1 1790:1 1799:1 1826:1 1896:1 1944:1 2004:1 #
-0.02401085401230589055909803164468 15:1 24:1 31:1 94:1 109:1 146:1 204:1 228:1 313:1 355:1 396:1 399:1 423:1 432:1 478:1 509:1 528:1 606:1 736:1 750:1 796:1 848:1 928:1 1157:1 1287:1 1324:1 1433:1 1435:1 1442:1 1496:1 1507:1 1516:1 1573:1 1613:1 1629:1 1706:1 1744:1 1793:1 1835:1 1838:1 1944:1 1967:1 #
-0.02401085401230589055909803164468 15:1 31:1 51:1 108:1 164:1 284:1 294:1 320:1 411:1 450:1 451:1 496:1 497:1 644:1 700:1 727:1 778:1 787:1 806:1 894:1 1175:1 1293:1 1332:1 1423:1 1433:1 1442:1 1457:1 1475:1 1483:1 1610:1 1621:1 1629:1 1780:1 1788:1 1944:1 #
0.02401085401230589055909803164468 31:1 79:1 92:1 134:1 168:1 250:1 252:1 259:1 355:1 398:1 399:1 415:1 480:1 481:1 509:1 518:1 605:1 632:1 652:1 673:1 732:1 751:1 761:1 824:1 866:1 1068:1 1070:1 1287:1 1294:1 1328:1 1426:1 1433:1 1607:1 1629:1 1658:1 1961:1 #
0.02401085401230589055909803164468 110:1 205:1 252:1 259:1 289:1 313:1 315:1 352:1 355:1 375:1 422:1 429:1 497:1 609:1 644:1 732:1 933:1 992:1 1046:1 1070:1 1149:1 1271:1 1287:1 1289:1 1444:1 1516:1 1521:1 1610:1 1629:1 1860:1 1985:1 1993:1 #
0.021307955431540837737403037976947 1:1 13:1 15:1 17:1 22:1 31:1 51:1 52:1 87:1 106:1 108:1 124:1 164:1 187:1 211:1 307:1 313:1 326:1 360:1 375:1 384:1 399:1 422:1 429:1 436:1 471:1 488:1 496:1 497:1 499:1 542:1 577:1 605:1 606:1 614:1 618:1 652:1 666:1 698:1 751:1 875:1 929:1 944:1 992:1 1000:1 1046:1 1086:1 1100:1 1107:1 1142:1 1194:1 1243:1 1287:1 1328:1 1480:1 1492:1 1496:1 1509:1 1610:1 1624:1 1633:1 1659:1 1735:1 1763:1 1819:1 1856:1 1923:1 1927:1 1938:1 1968:1 1990:1 1995:1 #
0.011759730887484472552917402765615 1:1 31:1 77:1 87:1 89:1 117:1 127:1 143:1 206:1 313:1 425:1 436:1 447:1 451:1 483:1 542:1 581:1 677:1 692:1 796:1 832:1 845:1 933:1 963:1 974:1 992:1 1035:1 1149:1 1227:1 1265:1 1323:1 1358:1 1408:1 1426:1 1490:1 1562:1 1610:1 1623:1 1629:1 1653:1 1767:1 1990:1 #
0.022800004550321720936389979783598 1:1 24:1 25:1 51:1 52:1 129:1 178:1 206:1 207:1 252:1 259:1 309:1 368:1 393:1 398:1 399:1 471:1 478:1 515:1 528:1 600:1 605:1 606:1 652:1 681:1 691:1 698:1 718:1 736:1 878:1 885:1 891:1 944:1 1043:1 1046:1 1149:1 1157:1 1234:1 1241:1 1272:1 1287:1 1289:1 1526:1 1558:1 1559:1 1610:1 1629:1 1633:1 1691:1 1716:1 1782:1 1835:1 1858:1 1860:1 1896:1 1897:1 1907:1 1925:1 1986:1 #
-0.022042891508929407518024845558102 28:1 31:1 50:1 77:1 122:1 194:1 204:1 247:1 313:1 360:1 399:1 483:1 542:1 649:1 652:1 698:1 704:1 732:1 756:1 838:1 963:1 971:1 992:1 1070:1 1149:1 1157:1 1209:1 1223:1 1256:1 1287:1 1296:1 1350:1 1394:1 1423:1 1439:1 1483:1 1490:1 1516:1 1610:1 1629:1 1637:1 1664:1 1706:1 1748:1 1754:1 1800:1 1915:1 1925:1 1936:1 1953:1 1978:1 #
-0.02401085401230589055909803164468 3:1 25:1 31:1 118:1 175:1 182:1 250:1 285:1 313:1 350:1 384:1 422:1 450:1 451:1 520:1 585:1 604:1 605:1 661:1 693:1 698:1 732:1 853:1 856:1 1046:1 1077:1 1100:1 1166:1 1169:1 1170:1 1226:1 1234:1 1256:1 1379:1 1426:1 1500:1 1539:1 1598:1 1652:1 1676:1 1688:1 1847:1 1886:1 1912:1 1952:1 2008:1 2021:1 #
-0.02401085401230589055909803164468 24:1 49:1 69:1 87:1 95:1 235:1 250:1 252:1 399:1 423:1 432:1 456:1 471:1 605:1 606:1 652:1 655:1 666:1 698:1 761:1 783:1 796:1 832:1 904:1 982:1 995:1 1027:1 1086:1 1143:1 1149:1 1162:1 1294:1 1310:1 1347:1 1361:1 1385:1 1433:1 1435:1 1496:1 1589:1 1605:1 1610:1 1706:1 1716:1 1765:1 1768:1 1773:1 1838:1 1867:1 1915:1 1988:1 2018:1 #
-0.02401085401230589055909803164468 15:1 39:1 77:1 176:1 219:1 252:1 354:1 358:1 360:1 391:1 468:1 489:1 598:1 655:1 730:1 732:1 788:1 842:1 1149:1 1179:1 1256:1 1347:1 1423:1 1460:1 1515:1 1535:1 1544:1 1629:1 1649:1 1716:1 1790:1 1932:1 1974:1 #
-0.02401085401230589055909803164468 87:1 188:1 252:1 260:1 285:1 312:1 340:1 355:1 358:1 375:1 429:1 502:1 536:1 549:1 598:1 606:1 614:1 644:1 652:1 729:1 1043:1 1234:1 1294:1 1431:1 1535:1 1554:1 1558:1 1584:1 1591:1 1787:1 1813:1 1990:1 2008:1 #
0.02401085401230589055909803164468 30:1 270:1 339:1 423:1 451:1 496:1 535:1 652:1 707:1 750:1 1283:1 1299:1 1363:1 1433:1 1629:1 1706:1 1773:1 1780:1 #
-0.0081984218287469660252364533903346 87:1 212:1 252:1 313:1 384:1 429:1 471:1 478:1 494:1 496:1 531:1 542:1 605:1 676:1 684:1 796:1 861:1 942:1 1039:1 1131:1 1157:1 1194:1 1202:1 1272:1 1283:1 1307:1 1363:1 1442:1 1494:1 1610:1 1623:1 1772:1 1780:1 1944:1 1968:1 #
0.02401085401230589055909803164468 25:1 87:1 178:1 228:1 243:1 451:1 458:1 475:1 496:1 605:1 648:1 716:1 732:1 750:1 768:1 776:1 796:1 801:1 849:1 891:1 904:1 1081:1 1131:1 1157:1 1201:1 1261:1 1272:1 1325:1 1343:1 1414:1 1433:1 1461:1 1496:1 1509:1 1535:1 1544:1 1586:1 1610:1 1629:1 1673:1 1693:1 1754:1 1771:1 1826:1 1836:1 1856:1 2013:1 #
0.02401085401230589055909803164468 15:1 30:1 117:1 190:1 204:1 315:1 340:1 451:1 496:1 580:1 603:1 605:1 606:1 652:1 698:1 809:1 975:1 1011:1 1020:1 1075:1 1123:1 1172:1 1220:1 1261:1 1272:1 1287:1 1368:1 1433:1 1438:1 1442:1 1460:1 1568:1 1573:1 1584:1 1607:1 1629:1 1649:1 1650:1 1651:1 1706:1 1707:1 1778:1 1780:1 1927:1 1944:1 #
0.02401085401230589055909803164468 15:1 31:1 124:1 175:1 250:1 259:1 270:1 308:1 326:1 341:1 350:1 360:1 399:1 406:1 411:1 419:1 432:1 458:1 494:1 509:1 542:1 606:1 610:1 670:1 691:1 700:1 730:1 763:1 835:1 843:1 848:1 938:1 1024:1 1025:1 1044:1 1135:1 1157:1 1347:1 1358:1 1423:1 1438:1 1551:1 1573:1 1629:1 1644:1 1693:1 1706:1 1780:1 1835:1 1904:1 1917:1 2031:1 #
-0.02401085401230589055909803164468 15:1 22:1 33:1 51:1 52:1 241:1 243:1 256:1 360:1 380:1 398:1 451:1 494:1 496:1 605:1 606:1 619:1 652:1 682:1 698:1 711:1 750:1 796:1 801:1 916:1 936:1 972:1 1068:1 1139:1 1164:1 1194:1 1239:1 1329:1 1332:1 1442:1 1480:1 1496:1 1535:1 1560:1 1610:1 1612:1 1629:1 1672:1 1706:1 1708:1 1817:1 1856:1 1990:1 #
-0.02401085401230589055909803164468 15:1 31:1 37:1 87:1 118:1 123:1 143:1 167:1 183:1 252:1 326:1 337:1 340:1 355:1 360:1 376:1 397:1 447:1 451:1 494:1 496:1 509:1 563:1 574:1 581:1 585:1 604:1 606:1 634:1 643:1 732:1 766:1 848:1 886:1 891:1 1017:1 1026:1 1074:1 1122:1 1132:1 1148:1 1151:1 1157:1 1239:1 1258:1 1286:1 1287:1 1514:1 1544:1 1573:1 1578:1 1610:1 1629:1 1660:1 1706:1 1754:1 1769:1 1782:1 1856:1 1925:1 #
-0.02401085401230589055909803164468 15:1 87:1 93:1 227:1 252:1 259:1 313:1 350:1 355:1 408:1 429:1 451:1 478:1 496:1 652:1 670:1 696:1 715:1 719:1 732:1 761:1 797:1 835:1 874:1 933:1 1046:1 1055:1 1132:1 1149:1 1157:1 1287:1 1294:1 1295:1 1303:1 1323:1 1433:1 1436:1 1481:1 1511:1 1603:1 1629:1 1706:1 1780:1 1782:1 1823:1 1856:1 1931:1 1980:1 2008:1 #
-0.02401085401230589055909803164468 1:1 27:1 48:1 63:1 218:1 250:1 294:1 315:1 337:1 350:1 429:1 432:1 451:1 478:1 491:1 496:1 605:1 652:1 682:1 691:1 728:1 732:1 736:1 761:1 799:1 831:1 832:1 851:1 908:1 916:1 924:1 944:1 963:1 974:1 975:1 1048:1 1114:1 1157:1 1202:1 1203:1 1235:1 1261:1 1284:1 1345:1 1496:1 1617:1 1619:1 1629:1 1636:1 1665:1 1706:1 1816:1 1826:1 1856:1 1915:1 1931:1 1990:1 #
-0.02401085401230589055909803164468 1:1 15:1 31:1 87:1 106:1 259:1 270:1 289:1 350:1 451:1 469:1 506:1 575:1 592:1 606:1 619:1 643:1 652:1 708:1 873:1 917:1 968:1 982:1 993:1 1104:1 1158:1 1243:1 1287:1 1309:1 1558:1 1590:1 1614:1 1629:1 1835:1 1941:1 1984:1 1990:1 #
0.02401085401230589055909803164468 87:1 108:1 118:1 175:1 256:1 292:1 345:1 355:1 359:1 363:1 395:1 423:1 429:1 449:1 542:1 598:1 615:1 627:1 652:1 659:1 698:1 732:1 761:1 787:1 792:1 796:1 822:1 997:1 1086:1 1157:1 1181:1 1208:1 1231:1 1247:1 1254:1 1328:1 1391:1 1393:1 1453:1 1511:1 1558:1 1594:1 1601:1 1606:1 1610:1 1615:1 1623:1 1629:1 1662:1 1672:1 1706:1 1780:1 1811:1 1927:1 #
0.02401085401230589055909803164468 15:1 31:1 49:1 87:1 102:1 108:1 134:1 182:1 266:1 301:1 313:1 355:1 399:1 449:1 451:1 477:1 486:1 536:1 547:1 567:1 573:1 605:1 606:1 652:1 653:1 655:1 667:1 687:1 727:1 732:1 755:1 792:1 796:1 803:1 874:1 894:1 918:1 974:1 1015:1 1041:1 1054:1 1074:1 1121:1 1150:1 1157:1 1188:1 1203:1 1220:1 1234:1 1256:1 1272:1 1287:1 1340:1 1347:1 1352:1 1355:1 1374:1 1375:1 1414:1 1418:1 1423:1 1443:1 1451:1 1460:1 1495:1 1544:1 1559:1 1565:1 1570:1 1573:1 1706:1 1716:1 1772:1 1852:1 1893:1 1904:1 1967:1 1981:1 1990:1 2007:1 2011:1 #
0.02401085401230589055909803164468 25:1 31:1 142:1 301:1 429:1 502:1 509:1 540:1 544:1 732:1 859:1 946:1 994:1 1026:1 1157:1 1332:1 1345:1 1488:1 1496:1 1610:1 1629:1 1659:1 1716:1 1717:1 1777:1 1915:1 #
0.02401085401230589055909803164468 31:1 39:1 170:1 243:1 313:1 360:1 363:1 429:1 450:1 451:1 618:1 652:1 664:1 707:1 761:1 826:1 874:1 963:1 1025:1 1077:1 1156:1 1157:1 1239:1 1256:1 1283:1 1287:1 1347:1 1488:1 1511:1 1532:1 1682:1 1744:1 1771:1 #
0.02401085401230589055909803164468 236:1 252:1 313:1 375:1 391:1 605:1 610:1 663:1 732:1 796:1 843:1 907:1 1070:1 1131:1 1157:1 1175:1 1219:1 1225:1 1239:1 1246:1 1256:1 1287:1 1315:1 1410:1 1433:1 1499:1 1535:1 1605:1 1703:1 1744:1 1833:1 1915:1 1990:1 #
-0.019124375411503035521176840916269 114:1 256:1 313:1 382:1 399:1 484:1 497:1 528:1 545:1 605:1 650:1 652:1 705:1 738:1 796:1 835:1 885:1 924:1 925:1 1045:1 1100:1 1157:1 1220:1 1234:1 1279:1 1287:1 1351:1 1488:1 1573:1 1629:1 1703:1 1769:1 1778:1 1780:1 1782:1 1835:1 1842:1 1971:1 #
-0.0032926734520542151087030280365298 15:1 31:1 164:1 244:1 399:1 451:1 475:1 480:1 496:1 590:1 606:1 611:1 617:1 645:1 698:1 918:1 963:1 1149:1 1157:1 1160:1 1234:1 1287:1 1397:1 1496:1 1790:1 1856:1 1907:1 #
-0.02401085401230589055909803164468 14:1 31:1 94:1 164:1 231:1 243:1 247:1 301:1 360:1 383:1 399:1 429:1 445:1 446:1 451:1 458:1 520:1 527:1 542:1 605:1 652:1 691:1 698:1 721:1 732:1 750:1 770:1 775:1 792:1 796:1 824:1 843:1 990:1 1071:1 1074:1 1157:1 1214:1 1225:1 1234:1 1239:1 1287:1 1342:1 1396:1 1407:1 1433:1 1496:1 1502:1 1516:1 1533:1 1535:1 1559:1 1568:1 1573:1 1607:1 1609:1 1610:1 1613:1 1633:1 1658:1 1706:1 1790:1 1810:1 1823:1 1835:1 1845:1 1856:1 1919:1 #
-0.0025428380767142746456122015530354 204:1 206:1 228:1 231:1 234:1 243:1 340:1 396:1 422:1 423:1 542:1 607:1 738:1 783:1 796:1 826:1 874:1 900:1 904:1 1121:1 1157:1 1272:1 1328:1 1433:1 1460:1 1480:1 1481:1 1490:1 1496:1 1544:1 1573:1 1586:1 1607:1 1629:1 1744:1 1757:1 1829:1 1837:1 1862:1 #
-0.014327374868553208880905813771278 31:1 87:1 131:1 301:1 395:1 422:1 452:1 542:1 573:1 591:1 596:1 605:1 606:1 691:1 698:1 732:1 761:1 824:1 838:1 839:1 843:1 884:1 908:1 942:1 957:1 990:1 1142:1 1157:1 1175:1 1287:1 1328:1 1363:1 1445:1 1505:1 1511:1 1521:1 1559:1 1573:1 1583:1 1610:1 1849:1 1968:1 #
0.02401085401230589055909803164468 1:1 20:1 58:1 76:1 91:1 219:1 252:1 259:1 451:1 496:1 509:1 698:1 761:1 769:1 838:1 885:1 993:1 1017:1 1048:1 1071:1 1157:1 1159:1 1175:1 1268:1 1287:1 1294:1 1433:1 1475:1 1496:1 1617:1 1706:1 1818:1 1835:1 1927:1 1990:1 2032:1 2038:1 #
0.02401085401230589055909803164468 15:1 30:1 31:1 65:1 108:1 164:1 252:1 256:1 288:1 297:1 355:1 360:1 451:1 598:1 605:1 606:1 637:1 679:1 698:1 736:1 757:1 783:1 796:1 833:1 856:1 904:1 933:1 1063:1 1116:1 1157:1 1226:1 1234:1 1352:1 1378:1 1488:1 1573:1 1650:1 1679:1 1706:1 1773:1 1856:1 1861:1 1944:1 1990:1 #
0.02401085401230589055909803164468 164:1 176:1 247:1 252:1 256:1 285:1 347:1 399:1 418:1 432:1 483:1 496:1 571:1 605:1 606:1 702:1 732:1 838:1 899:1 1149:1 1157:1 1202:1 1225:1 1243:1 1332:1 1423:1 1488:1 1607:1 1629:1 1782:1 1856:1 1925:1 1990:1 2008:1 2014:1 2020:1 #
0.0073942079349998829362888841387758 1:1 25:1 31:1 52:1 57:1 219:1 241:1 252:1 259:1 268:1 326:1 348:1 434:1 451:1 471:1 489:1 494:1 509:1 540:1 547:1 564:1 604:1 606:1 615:1 634:1 637:1 652:1 653:1 832:1 874:1 879:1 903:1 922:1 936:1 997:1 1073:1 1108:1 1118:1 1145:1 1166:1 1175:1 1239:1 1284:1 1287:1 1294:1 1318:1 1375:1 1391:1 1399:1 1414:1 1431:1 1433:1 1521:1 1584:1 1629:1 1738:1 1744:1 1790:1 1852:1 1944:1 #
0.02401085401230589055909803164468 31:1 37:1 64:1 95:1 164:1 243:1 252:1 266:1 299:1 360:1 451:1 496:1 502:1 509:1 539:1 541:1 564:1 571:1 600:1 653:1 655:1 667:1 698:1 732:1 750:1 794:1 934:1 953:1 1157:1 1239:1 1290:1 1308:1 1426:1 1484:1 1496:1 1535:1 1573:1 1594:1 1607:1 1629:1 1706:1 1740:1 1814:1 1893:1 1990:1 #
-0.02401085401230589055909803164468 58:1 115:1 243:1 256:1 259:1 270:1 318:1 337:1 339:1 419:1 432:1 484:1 496:1 606:1 637:1 644:1 655:1 698:1 700:1 756:1 768:1 832:1 870:1 920:1 933:1 997:1 1046:1 1070:1 1107:1 1111:1 1157:1 1168:1 1225:1 1279:1 1294:1 1327:1 1343:1 1347:1 1355:1 1414:1 1423:1 1442:1 1488:1 1511:1 1516:1 1535:1 1570:1 1623:1 1629:1 1759:1 1835:1 1856:1 1862:1 1927:1 2022:1 2032:1 #
-0.02401085401230589055909803164468 6:1 15:1 17:1 31:1 39:1 137:1 252:1 256:1 259:1 313:1 337:1 348:1 429:1 451:1 497:1 509:1 528:1 558:1 579:1 586:1 606:1 608:1 650:1 652:1 778:1 807:1 832:1 833:1 885:1 1135:1 1143:1 1159:1 1247:1 1253:1 1344:1 1371:1 1404:1 1414:1 1491:1 1577:1 1643:1 1669:1 1801:1 1822:1 1915:1 1990:1 1991:1 2012:1 #
-0.02401085401230589055909803164468 252:1 256:1 399:1 465:1 496:1 535:1 606:1 640:1 652:1 712:1 832:1 874:1 899:1 972:1 993:1 1046:1 1089:1 1125:1 1157:1 1175:1 1178:1 1234:1 1272:1 1277:1 1339:1 1480:1 1516:1 1532:1 1535:1 1607:1 1623:1 1629:1 1653:1 1805:1 1818:1 1832:1 1907:1 1925:1 1990:1 #
-0.02401085401230589055909803164468 15:1 31:1 50:1 85:1 87:1 252:1 471:1 496:1 542:1 684:1 707:1 761:1 819:1 824:1 887:1 899:1 942:1 1025:1 1078:1 1137:1 1157:1 1190:1 1294:1 1301:1 1404:1 1623:1 1640:1 1685:1 1687:1 1699:1 1706:1 1708:1 1767:1 1803:1 1810:1 1856:1 1857:1 1901:1 1907:1 1930:1 1944:1 #
-0.02401085401230589055909803164468 1:1 15:1 82:1 259:1 267:1 313:1 330:1 450:1 451:1 465:1 579:1 652:1 750:1 875:1 910:1 933:1 953:1 963:1 1088:1 1121:1 1137:1 1287:1 1333:1 1340:1 1352:1 1496:1 1532:1 1623:1 1771:1 1823:1 1927:1 #
0.02401085401230589055909803164468 1:1 15:1 28:1 109:1 158:1 168:1 309:1 350:1 355:1 494:1 542:1 614:1 661:1 682:1 717:1 732:1 783:1 789:1 796:1 819:1 832:1 843:1 931:1 1157:1 1220:1 1284:1 1432:1 1460:1 1496:1 1784:1 1856:1 1907:1 1925:1 1993:1 #
0.02401085401230589055909803164468 144:1 204:1 250:1 259:1 313:1 363:1 399:1 471:1 496:1 497:1 526:1 542:1 605:1 652:1 662:1 682:1 695:1 736:1 796:1 1081:1 1104:1 1142:1 1157:1 1166:1 1234:1 1272:1 1482:1 1496:1 1516:1 1573:1 1610:1 1629:1 1706:1 1771:1 1790:1 1834:1 1856:1 1990:1 #
0.013619655035735858325529612500304 12:1 15:1 31:1 51:1 85:1 109:1 168:1 170:1 313:1 350:1 360:1 361:1 399:1 573:1 682:1 698:1 718:1 838:1 931:1 936:1 1068:1 1132:1 1139:1 1142:1 1149:1 1157:1 1202:1 1256:1 1406:1 1438:1 1486:1 1535:1 1598:1 1610:1 1629:1 1704:1 1815:1 1912:1 1946:1 1972:1 #
0.02401085401230589055909803164468 27:1 53:1 85:1 87:1 347:1 363:1 381:1 384:1 399:1 451:1 484:1 511:1 530:1 577:1 606:1 617:1 644:1 653:1 698:1 700:1 710:1 796:1 838:1 865:1 872:1 891:1 964:1 1112:1 1249:1 1385:1 1445:1 1466:1 1497:1 1507:1 1513:1 1535:1 1544:1 1573:1 1597:1 1610:1 1629:1 1694:1 1716:1 1757:1 1826:1 1841:1 1860:1 1886:1 1896:1 1990:1 2016:1 #
0.02401085401230589055909803164468 66:1 146:1 153:1 253:1 301:1 352:1 396:1 399:1 451:1 497:1 577:1 599:1 614:1 652:1 753:1 874:1 880:1 908:1 920:1 1086:1 1107:1 1221:1 1234:1 1246:1 1256:1 1307:1 1377:1 1383:1 1404:1 1433:1 1435:1 1442:1 1482:1 1544:1 1558:1 1559:1 1597:1 1668:1 1707:1 1714:1 1733:1 1734:1 1736:1 1742:1 1775:1 1778:1 1829:1 1852:1 1860:1 1982:1 1992:1 2004:1 #
-0.0045878758521277346327238433332241 15:1 30:1 54:1 108:1 192:1 254:1 282:1 285:1 292:1 360:1 382:1 399:1 481:1 489:1 496:1 606:1 610:1 698:1 704:1 750:1 809:1 838:1 891:1 904:1 916:1 1064:1 1095:1 1157:1 1175:1 1189:1 1223:1 1236:1 1239:1 1246:1 1247:1 1287:1 1372:1 1461:1 1489:1 1533:1 1573:1 1610:1 1623:1 1689:1 1716:1 1744:1 1756:1 1799:1 1856:1 1860:1 1901:1 1964:1 1972:1 #
-0.02401085401230589055909803164468 31:1 108:1 117:1 146:1 252:1 313:1 337:1 399:1 423:1 471:1 489:1 509:1 606:1 630:1 644:1 652:1 729:1 732:1 769:1 795:1 838:1 940:1 967:1 1157:1 1167:1 1170:1 1208:1 1287:1 1306:1 1351:1 1435:1 1547:1 1562:1 1566:1 1597:1 1610:1 1629:1 1663:1 1693:1 1705:1 1720:1 1835:1 1972:1 1990:1 1998:1 #
-0.02401085401230589055909803164468 15:1 24:1 31:1 64:1 134:1 507:1 645:1 732:1 736:1 838:1 865:1 917:1 1002:1 1039:1 1061:1 1157:1 1163:1 1234:1 1370:1 1391:1 1442:1 1459:1 1516:1 1535:1 1544:1 1572:1 1573:1 1610:1 1629:1 1640:1 1667:1 1687:1 1688:1 1721:1 1757:1 1860:1 1927:1 1970:1 1990:1 #
-0.016699676795743766122281925845527 15:1 62:1 64:1 130:1 134:1 143:1 236:1 239:1 298:1 313:1 318:1 336:1 351:1 396:1 404:1 429:1 437:1 486:1 503:1 509:1 513:1 520:1 557:1 563:1 567:1 605:1 606:1 638:1 654:1 656:1 663:1 693:1 761:1 783:1 796:1 838:1 858:1 866:1 900:1 906:1 1011:1 1055:1 1096:1 1226:1 1239:1 1261:1 1272:1 1276:1 1284:1 1294:1 1328:1 1431:1 1500:1 1535:1 1544:1 1559:1 1567:1 1573:1 1587:1 1623:1 1651:1 1655:1 1658:1 1697:1 1701:1 1706:1 1716:1 1771:1 1789:1 1799:1 1856:1 1860:1 1912:1 1955:1 2016:1 2020:1 #
-0.02401085401230589055909803164468 30:1 164:1 392:1 408:1 451:1 652:1 732:1 736:1 838:1 874:1 1041:1 1074:1 1170:1 1272:1 1284:1 1287:1 1290:1 1474:1 1496:1 1516:1 1544:1 1629:1 1754:1 1822:1 1856:1 1860:1 1906:1 1944:1 #
0.02401085401230589055909803164468 15:1 31:1 270:1 340:1 429:1 606:1 644:1 707:1 832:1 863:1 908:1 1046:1 1098:1 1201:1 1284:1 1623:1 1827:1 1944:1 #
0.02401085401230589055909803164468 25:1 31:1 46:1 64:1 100:1 216:1 252:1 256:1 259:1 429:1 451:1 491:1 515:1 605:1 652:1 681:1 750:1 770:1 816:1 819:1 936:1 963:1 997:1 1046:1 1068:1 1074:1 1084:1 1157:1 1206:1 1209:1 1233:1 1241:1 1309:1 1320:1 1323:1 1377:1 1435:1 1603:1 1610:1 1613:1 1623:1 1692:1 1782:1 1785:1 1855:1 1856:1 1926:1 2041:1 #
0.02401085401230589055909803164468 31:1 93:1 292:1 350:1 399:1 411:1 581:1 606:1 735:1 750:1 761:1 770:1 783:1 797:1 1046:1 1121:1 1133:1 1149:1 1157:1 1175:1 1220:1 1287:1 1460:1 1511:1 1516:1 1629:1 1670:1 1706:1 1726:1 1823:1 1856:1 1857:1 1950:1 #
0.020212867130490520112262586849283 15:1 24:1 31:1 32:1 76:1 77:1 87:1 165:1 216:1 252:1 256:1 259:1 436:1 451:1 484:1 502:1 520:1 528:1 563:1 606:1 618:1 638:1 652:1 666:1 670:1 693:1 731:1 761:1 769:1 840:1 874:1 885:1 916:1 961:1 992:1 1046:1 1086:1 1149:1 1212:1 1220:1 1233:1 1256:1 1272:1 1289:1 1375:1 1378:1 1379:1 1440:1 1460:1 1496:1 1559:1 1584:1 1623:1 1674:1 1706:1 1723:1 1782:1 1850:1 1966:1 2008:1 #
0.02401085401230589055909803164468 31:1 83:1 87:1 216:1 256:1 259:1 282:1 337:1 557:1 652:1 689:1 698:1 752:1 761:1 776:1 1025:1 1157:1 1371:1 1423:1 1610:1 1620:1 1629:1 1706:1 1769:1 1857:1 1901:1 #
-0.02401085401230589055909803164468 24:1 31:1 87:1 164:1 337:1 451:1 521:1 605:1 652:1 682:1 986:1 992:1 1046:1 1061:1 1098:1 1149:1 1157:1 1212:1 1239:1 1241:1 1610:1 1706:1 1771:1 1833:1 1946:1 #
-0.02401085401230589055909803164468 15:1 31:1 131:1 134:1 168:1 206:1 234:1 285:1 289:1 337:1 355:1 406:1 411:1 417:1 440:1 485:1 497:1 530:1 580:1 598:1 599:1 602:1 690:1 698:1 707:1 750:1 752:1 761:1 847:1 874:1 944:1 966:1 1041:1 1121:1 1142:1 1157:1 1179:1 1194:1 1220:1 1280:1 1323:1 1403:1 1460:1 1496:1 1511:1 1518:1 1623:1 1692:1 1693:1 1702:1 1706:1 1712:1 1744:1 1796:1 1797:1 1818:1 1857:1 1860:1 1869:1 1925:1 1975:1 #
-0.02401085401230589055909803164468 87:1 155:1 285:1 326:1 338:1 350:1 391:1 436:1 451:1 652:1 728:1 761:1 792:1 808:1 809:1 840:1 893:1 952:1 1086:1 1157:1 1299:1 1433:1 1493:1 1544:1 1554:1 1605:1 1610:1 1629:1 1706:1 1771:1 1780:1 1826:1 1912:1 1990:1 2006:1 #
-0.02401085401230589055909803164468 31:1 33:1 163:1 187:1 259:1 347:1 497:1 521:1 606:1 698:1 707:1 728:1 778:1 796:1 826:1 859:1 899:1 1071:1 1157:1 1287:1 1460:1 1497:1 1564:1 1629:1 1685:1 1707:1 1769:1 1796:1 #
-0.02401085401230589055909803164468 31:1 52:1 117:1 119:1 193:1 250:1 252:1 259:1 291:1 313:1 354:1 396:1 412:1 416:1 509:1 606:1 615:1 698:1 1015:1 1046:1 1067:1 1086:1 1156:1 1175:1 1250:1 1382:1 1480:1 1558:1 1584:1 1618:1 1629:1 1724:1 1735:1 1947:1 #
0.02401085401230589055909803164468 24:1 31:1 107:1 147:1 170:1 219:1 236:1 243:1 252:1 270:1 375:1 411:1 415:1 496:1 509:1 569:1 605:1 606:1 608:1 616:1 652:1 654:1 655:1 708:1 732:1 750:1 761:1 776:1 783:1 838:1 899:1 917:1 1098:1 1156:1 1157:1 1175:1 1203:1 1287:1 1289:1 1294:1 1491:1 1573:1 1607:1 1629:1 1674:1 1706:1 1763:1 1799:1 1816:1 1823:1 1860:1 1912:1 1915:1 1933:1 1938:1 1944:1 1990:1 2008:1 2026:1 #
0.02401085401230589055909803164468 15:1 24:1 313:1 422:1 423:1 509:1 542:1 605:1 606:1 655:1 691:1 698:1 704:1 707:1 783:1 832:1 836:1 900:1 944:1 1157:1 1287:1 1496:1 1535:1 1565:1 1610:1 1659:1 1744:1 1818:1 1835:1 1860:1 1925:1 1990:1 #
0.0058855822668143938092288891539283 6:1 15:1 25:1 76:1 94:1 117:1 164:1 224:1 313:1 337:1 355:1 357:1 396:1 403:1 411:1 429:1 437:1 451:1 473:1 509:1 528:1 534:1 536:1 598:1 605:1 629:1 631:1 644:1 655:1 665:1 691:1 698:1 705:1 715:1 732:1 736:1 796:1 806:1 833:1 838:1 843:1 853:1 899:1 974:1 1011:1 1026:1 1033:1 1041:1 1048:1 1132:1 1143:1 1148:1 1149:1 1150:1 1157:1 1234:1 1246:1 1287:1 1302:1 1347:1 1355:1 1360:1 1423:1 1461:1 1496:1 1516:1 1528:1 1573:1 1584:1 1597:1 1607:1 1629:1 1677:1 1754:1 1763:1 1827:1 1835:1 1856:1 1915:1 1925:1 1936:1 1990:1 #
0.02401085401230589055909803164468 51:1 110:1 134:1 199:1 206:1 243:1 313:1 429:1 449:1 451:1 484:1 489:1 612:1 633:1 666:1 691:1 732:1 736:1 756:1 760:1 874:1 937:1 1157:1 1175:1 1176:1 1234:1 1287:1 1301:1 1378:1 1414:1 1496:1 1516:1 1535:1 1744:1 1843:1 1944:1 #
0.02401085401230589055909803164468 15:1 76:1 99:1 119:1 223:1 243:1 355:1 384:1 489:1 496:1 521:1 528:1 606:1 750:1 824:1 832:1 861:1 986:1 1017:1 1045:1 1055:1 1157:1 1201:1 1294:1 1332:1 1423:1 1528:1 1571:1 1573:1 1629:1 1710:1 1765:1 1777:1 1856:1 #
-0.02401085401230589055909803164468 88:1 147:1 164:1 170:1 206:1 210:1 252:1 308:1 330:1 340:1 346:1 355:1 363:1 390:1 415:1 422:1 429:1 447:1 451:1 509:1 521:1 558:1 606:1 661:1 693:1 695:1 732:1 832:1 864:1 900:1 974:1 982:1 1003:1 1051:1 1149:1 1157:1 1188:1 1194:1 1260:1 1284:1 1287:1 1328:1 1338:1 1342:1 1426:1 1444:1 1475:1 1496:1 1518:1 1519:1 1526:1 1532:1 1573:1 1584:1 1637:1 1642:1 1682:1 1692:1 1754:1 1817:1 1826:1 1912:1 1925:1 1933:1 1954:1 1955:1 2005:1 2019:1 #
-0.02401085401230589055909803164468 15:1 51:1 216:1 313:1 422:1 528:1 598:1 599:1 606:1 618:1 655:1 702:1 722:1 750:1 792:1 812:1 914:1 993:1 1046:1 1106:1 1149:1 1157:1 1220:1 1242:1 1295:1 1315:1 1413:1 1423:1 1496:1 1573:1 1606:1 1674:1 1769:1 1780:1 1813:1 1850:1 1915:1 1933:1 1948:1 #
-0.014294158110318958346263151781841 15:1 35:1 252:1 256:1 268:1 270:1 280:1 313:1 340:1 375:1 388:1 432:1 449:1 451:1 506:1 509:1 530:1 605:1 606:1 637:1 707:1 708:1 750:1 752:1 796:1 801:1 816:1 880:1 978:1 985:1 1026:1 1070:1 1132:1 1175:1 1239:1 1246:1 1287:1 1299:1 1368:1 1394:1 1460:1 1486:1 1496:1 1502:1 1559:1 1573:1 1574:1 1599:1 1696:1 1741:1 1842:1 1856:1 1912:1 1924:1 1944:1 1985:1 #
-0.020655417158716000980422933253067 31:1 44:1 87:1 93:1 164:1 192:1 252:1 308:1 369:1 411:1 496:1 563:1 605:1 606:1 610:1 665:1 697:1 701:1 731:1 761:1 856:1 993:1 997:1 1070:1 1157:1 1169:1 1187:1 1189:1 1256:1 1275:1 1283:1 1328:1 1372:1 1482:1 1532:1 1573:1 1674:1 1706:1 1784:1 1804:1 1808:1 1843:1 1856:1 1923:1 1925:1 1990:1 1993:1 #
-0.02401085401230589055909803164468 1:1 20:1 63:1 206:1 224:1 226:1 256:1 432:1 437:1 449:1 451:1 489:1 509:1 573:1 605:1 606:1 637:1 644:1 652:1 663:1 666:1 732:1 752:1 761:1 903:1 918:1 975:1 988:1 989:1 1142:1 1157:1 1169:1 1204:1 1231:1 1258:1 1287:1 1308:1 1315:1 1328:1 1372:1 1403:1 1433:1 1484:1 1499:1 1535:1 1629:1 1706:1 1780:1 1816:1 1821:1 1835:1 1856:1 1875:1 1893:1 1925:1 1930:1 1944:1 #
0.02401085401230589055909803164468 24:1 95:1 243:1 259:1 301:1 347:1 421:1 432:1 600:1 634:1 682:1 698:1 812:1 838:1 851:1 1032:1 1072:1 1121:1 1257:1 1404:1 1447:1 1480:1 1501:1 1610:1 1623:1 1629:1 1665:1 1818:1 1919:1 #
0.02401085401230589055909803164468 15:1 31:1 168:1 256:1 301:1 313:1 350:1 367:1 401:1 485:1 497:1 509:1 606:1 645:1 761:1 778:1 964:1 1073:1 1086:1 1121:1 1130:1 1149:1 1157:1 1165:1 1199:1 1213:1 1217:1 1272:1 1328:1 1433:1 1573:1 1605:1 1753:1 1790:1 1826:1 1901:1 1957:1 2020:1 #
0.021314660056402152943366701265404 47:1 151:1 250:1 256:1 265:1 365:1 396:1 423:1 432:1 451:1 489:1 515:1 637:1 709:1 784:1 796:1 874:1 892:1 933:1 1015:1 1046:1 1132:1 1142:1 1219:1 1228:1 1276:1 1418:1 1434:1 1511:1 1599:1 1610:1 1613:1 1706:1 1744:1 1797:1 1834:1 1906:1 1934:1 1945:1 1978:1 #
0.02401085401230589055909803164468 22:1 24:1 62:1 250:1 285:1 339:1 399:1 563:1 604:1 606:1 614:1 652:1 708:1 732:1 1002:1 1077:1 1157:1 1178:1 1629:1 1767:1 1813:1 1835:1 1841:1 1972:1 #
0.02401085401230589055909803164468 31:1 52:1 355:1 456:1 471:1 598:1 602:1 606:1 652:1 722:1 761:1 791:1 796:1 878:1 1046:1 1245:1 1357:1 1516:1 1531:1 1535:1 1573:1 1578:1 1586:1 1629:1 1990:1 #
-0.02401085401230589055909803164468 15:1 31:1 51:1 243:1 272:1 355:1 396:1 399:1 411:1 432:1 465:1 483:1 494:1 532:1 560:1 974:1 1068:1 1119:1 1128:1 1233:1 1363:1 1433:1 1435:1 1517:1 1607:1 1629:1 1706:1 1764:1 1791:1 1990:1 2007:1 #
-0.02401085401230589055909803164468 24:1 117:1 136:1 142:1 259:1 292:1 337:1 471:1 545:1 605:1 620:1 644:1 655:1 698:1 700:1 756:1 789:1 796:1 843:1 933:1 986:1 1005:1 1043:1 1046:1 1117:1 1122:1 1130:1 1149:1 1175:1 1265:1 1287:1 1375:1 1409:1 1496:1 1559:1 1603:1 1610:1 1629:1 1679:1 1769:1 1814:1 1896:1 1966:1 1982:1 #
-0.02401085401230589055909803164468 24:1 117:1 205:1 256:1 319:1 334:1 381:1 505:1 606:1 673:1 736:1 796:1 1202:1 1287:1 1433:1 1475:1 1496:1 1568:1 1610:1 1708:1 1829:1 #
-0.02401085401230589055909803164468 15:1 49:1 59:1 146:1 165:1 252:1 396:1 459:1 564:1 653:1 770:1 796:1 805:1 835:1 838:1 931:1 933:1 1017:1 1033:1 1157:1 1272:1 1433:1 1568:1 1629:1 1999:1 #
-0.02401085401230589055909803164468 92:1 94:1 113:1 243:1 256:1 277:1 310:1 313:1 397:1 399:1 496:1 503:1 505:1 528:1 606:1 682:1 708:1 824:1 931:1 1145:1 1149:1 1157:1 1175:1 1243:1 1545:1 1610:1 1799:1 1860:1 1891:1 1901:1 1924:1 1938:1 1990:1 #
0.02401085401230589055909803164468 15:1 31:1 51:1 87:1 164:1 187:1 194:1 246:1 250:1 252:1 266:1 313:1 339:1 436:1 509:1 521:1 542:1 606:1 655:1 670:1 682:1 695:1 698:1 747:1 812:1 823:1 832:1 900:1 910:1 997:1 1078:1 1113:1 1135:1 1157:1 1169:1 1234:1 1256:1 1276:1 1287:1 1303:1 1357:1 1460:1 1496:1 1544:1 1578:1 1629:1 1672:1 1685:1 1706:1 1789:1 1915:1 1920:1 1925:1 1944:1 2026:1 #
0.02401085401230589055909803164468 31:1 52:1 64:1 100:1 164:1 170:1 252:1 308:1 313:1 356:1 360:1 422:1 450:1 471:1 478:1 548:1 585:1 606:1 652:1 698:1 704:1 732:1 736:1 738:1 761:1 776:1 851:1 907:1 910:1 936:1 942:1 972:1 986:1 992:1 1107:1 1115:1 1157:1 1193:1 1233:1 1247:1 1276:1 1324:1 1328:1 1336:1 1395:1 1464:1 1475:1 1511:1 1526:1 1532:1 1573:1 1610:1 1613:1 1629:1 1639:1 1659:1 1706:1 1780:1 1803:1 1860:1 1886:1 1965:1 1976:1 1990:1 2008:1 2023:1 #
0.019104612376074560364802579215393 10:1 31:1 44:1 118:1 136:1 275:1 313:1 339:1 360:1 375:1 398:1 496:1 509:1 606:1 626:1 644:1 750:1 828:1 832:1 838:1 942:1 974:1 1024:1 1157:1 1159:1 1160:1 1171:1 1204:1 1232:1 1242:1 1287:1 1295:1 1328:1 1371:1 1377:1 1378:1 1444:1 1500:1 1502:1 1573:1 1613:1 1665:1 1780:1 1826:1 1860:1 1925:1 #
0.02401085401230589055909803164468 31:1 37:1 85:1 87:1 204:1 236:1 326:1 337:1 350:1 380:1 398:1 411:1 458:1 486:1 509:1 513:1 545:1 569:1 606:1 652:1 700:1 732:1 749:1 838:1 993:1 1028:1 1046:1 1070:1 1108:1 1120:1 1157:1 1186:1 1189:1 1194:1 1205:1 1239:1 1256:1 1261:1 1264:1 1272:1 1287:1 1318:1 1328:1 1391:1 1544:1 1554:1 1600:1 1610:1 1629:1 1639:1 1706:1 1716:1 1744:1 1782:1 1783:1 1856:1 1915:1 1920:1 1990:1 2012:1 #
-0.012159480887099921586624873270921 118:1 131:1 144:1 212:1 256:1 375:1 528:1 599:1 606:1 628:1 700:1 732:1 772:1 1041:1 1256:1 1272:1 1294:1 1423:1 1475:1 1496:1 1557:1 1573:1 1600:1 1629:1 1901:1 1938:1 1951:1 1990:1 #
-0.0097478443833223221010042536249784 31:1 76:1 87:1 100:1 252:1 256:1 292:1 301:1 313:1 350:1 383:1 399:1 411:1 429:1 483:1 509:1 569:1 599:1 606:1 609:1 644:1 650:1 652:1 667:1 698:1 730:1 732:1 750:1 761:1 792:1 840:1 890:1 1070:1 1086:1 1121:1 1157:1 1261:1 1277:1 1287:1 1299:1 1366:1 1368:1 1423:1 1433:1 1460:1 1485:1 1496:1 1535:1 1544:1 1571:1 1607:1 1629:1 1665:1 1685:1 1703:1 1706:1 1799:1 1835:1 1901:1 1997:1 2013:1 #
-0.023733952590738401772219035024136 76:1 149:1 306:1 398:1 407:1 451:1 528:1 595:1 618:1 634:1 644:1 652:1 796:1 970:1 977:1 993:1 994:1 1285:1 1516:1 1545:1 1629:1 1633:1 1640:1 1717:1 1743:1 1782:1 1833:1 1896:1 #
-0.02401085401230589055909803164468 85:1 213:1 252:1 267:1 301:1 375:1 433:1 435:1 458:1 477:1 496:1 509:1 521:1 559:1 585:1 606:1 684:1 698:1 732:1 761:1 792:1 832:1 916:1 959:1 1018:1 1025:1 1070:1 1098:1 1124:1 1157:1 1303:1 1452:1 1535:1 1573:1 1607:1 1610:1 1613:1 1629:1 1676:1 1681:1 1706:1 1860:1 1872:1 #
-0.011072864216094135611512250250144 15:1 24:1 31:1 72:1 85:1 120:1 146:1 201:1 292:1 313:1 341:1 356:1 457:1 474:1 486:1 504:1 509:1 511:1 523:1 566:1 599:1 605:1 606:1 652:1 732:1 761:1 779:1 783:1 796:1 832:1 839:1 843:1 904:1 920:1 944:1 953:1 997:1 1057:1 1077:1 1121:1 1157:1 1178:1 1210:1 1229:1 1233:1 1234:1 1544:1 1610:1 1613:1 1629:1 1631:1 1640:1 1653:1 1698:1 1706:1 1744:1 1782:1 1843:1 1854:1 1856:1 1860:1 1869:1 1872:1 1925:1 2035:1 #
-0.02401085401230589055909803164468 9:1 15:1 25:1 51:1 52:1 58:1 87:1 106:1 121:1 164:1 170:1 192:1 230:1 236:1 250:1 252:1 256:1 259:1 268:1 270:1 289:1 293:1 347:1 355:1 356:1 362:1 371:1 375:1 379:1 386:1 399:1 426:1 436:1 451:1 464:1 496:1 503:1 509:1 519:1 542:1 580:1 606:1 637:1 644:1 661:1 665:1 674:1 682:1 684:1 693:1 732:1 752:1 761:1 763:1 783:1 784:1 835:1 838:1 874:1 914:1 936:1 942:1 944:1 992:1 1000:1 1024:1 1044:1 1046:1 1085:1 1087:1 1113:1 1123:1 1157:1 1158:1 1164:1 1175:1 1191:1 1201:1 1217:1 1221:1 1228:1 1243:1 1246:1 1286:1 1301:1 1328:1 1353:1 1384:1 1389:1 1390:1 1500:1 1502:1 1514:1 1535:1 1536:1 1560:1 1573:1 1577:1 1587:1 1610:1 1629:1 1632:1 1659:1 1682:1 1702:1 1718:1 1735:1 1806:1 1819:1 1827:1 1835:1 1837:1 1840:1 1850:1 1887:1 1896:1 1898:1 1912:1 1916:1 1957:1 1966:1 2026:1 2028:1 #
0.02401085401230589055909803164468 24:1 358:1 451:1 653:1 661:1 796:1 899:1 935:1 1149:1 1175:1 1190:1 1239:1 1287:1 1488:1 1494:1 1496:1 1532:1 1558:1 1573:1 1617:1 1629:1 1737:1 1838:1 1856:1 1862:1 1904:1 #
0.02401085401230589055909803164468 259:1 340:1 411:1 428:1 496:1 497:1 563:1 605:1 698:1 711:1 761:1 1077:1 1122:1 1186:1 1243:1 1287:1 1433:1 1444:1 1496:1 1568:1 1578:1 1730:1 1773:1 1856:1 1857:1 1862:1 1871:1 #
0.02401085401230589055909803164468 375:1 451:1 605:1 606:1 637:1 756:1 870:1 1133:1 1142:1 1261:1 1272:1 1287:1 1433:1 1514:1 1559:1 1737:1 1856:1 1898:1 1907:1 1944:1 #
0.02401085401230589055909803164468 15:1 25:1 31:1 49:1 51:1 71:1 77:1 200:1 256:1 292:1 330:1 396:1 451:1 486:1 496:1 523:1 537:1 546:1 567:1 618:1 644:1 677:1 750:1 764:1 766:1 819:1 824:1 858:1 886:1 913:1 931:1 935:1 949:1 973:1 997:1 1003:1 1061:1 1068:1 1081:1 1149:1 1175:1 1178:1 1194:1 1201:1 1287:1 1457:1 1496:1 1606:1 1610:1 1613:1 1629:1 1691:1 1816:1 1840:1 1864:1 1903:1 1912:1 1944:1 1945:1 1978:1 1988:1 2007:1 2008:1 #
0.02401085401230589055909803164468 1:1 156:1 226:1 340:1 375:1 451:1 519:1 599:1 661:1 925:1 1019:1 1027:1 1030:1 1031:1 1073:1 1287:1 1433:1 1559:1 1585:1 1651:1 1706:1 1782:1 1925:1 #
-0.02401085401230589055909803164468 15:1 21:1 30:1 124:1 194:1 216:1 360:1 423:1 542:1 605:1 677:1 698:1 834:1 913:1 933:1 1045:1 1046:1 1086:1 1256:1 1287:1 1384:1 1417:1 1421:1 1433:1 1442:1 1472:1 1511:1 1610:1 1629:1 1775:1 1790:1 1818:1 1856:1 1930:1 1933:1 2039:1 #
-0.02401085401230589055909803164468 451:1 853:1 974:1 1121:1 1142:1 1261:1 1287:1 1339:1 1496:1 1578:1 1610:1 1706:1 1849:1 1990:1 #
-0.02401085401230589055909803164468 8:1 25:1 76:1 210:1 313:1 423:1 478:1 547:1 600:1 606:1 725:1 747:1 749:1 832:1 877:1 1041:1 1046:1 1201:1 1222:1 1234:1 1252:1 1318:1 1388:1 1418:1 1442:1 1490:1 1560:1 1595:1 1674:1 1706:1 1771:1 1786:1 1806:1 1818:1 #
-0.02401085401230589055909803164468 24:1 77:1 136:1 168:1 348:1 360:1 398:1 422:1 528:1 606:1 750:1 796:1 910:1 1041:1 1136:1 1142:1 1157:1 1280:1 1287:1 1434:1 1610:1 1629:1 1706:1 1730:1 1762:1 2008:1 #
-0.02401085401230589055909803164468 15:1 87:1 170:1 188:1 219:1 243:1 256:1 259:1 301:1 313:1 509:1 598:1 606:1 750:1 838:1 856:1 872:1 1073:1 1074:1 1103:1 1142:1 1256:1 1261:1 1426:1 1442:1 1475:1 1480:1 1558:1 1610:1 1629:1 1815:1 1856:1 2008:1 #
0.02401085401230589055909803164468 15:1 31:1 77:1 114:1 129:1 164:1 176:1 194:1 221:1 252:1 256:1 399:1 451:1 496:1 528:1 542:1 545:1 605:1 606:1 706:1 736:1 792:1 822:1 867:1 916:1 942:1 1077:1 1081:1 1121:1 1137:1 1140:1 1155:1 1160:1 1166:1 1272:1 1294:1 1297:1 1324:1 1433:1 1442:1 1476:1 1520:1 1535:1 1584:1 1604:1 1610:1 1613:1 1623:1 1653:1 1698:1 1706:1 1720:1 1726:1 1783:1 1796:1 1822:1 1835:1 1839:1 1860:1 1944:1 1964:1 2035:1 #
0.02401085401230589055909803164468 160:1 252:1 270:1 305:1 313:1 367:1 396:1 429:1 475:1 497:1 509:1 542:1 605:1 606:1 644:1 645:1 733:1 737:1 796:1 855:1 856:1 904:1 954:1 1026:1 1041:1 1074:1 1113:1 1150:1 1157:1 1220:1 1244:1 1306:1 1433:1 1500:1 1568:1 1597:1 1610:1 1623:1 1629:1 1657:1 1658:1 1706:1 1714:1 1810:1 1823:1 1835:1 1976:1 #
0.02401085401230589055909803164468 168:1 214:1 271:1 399:1 415:1 435:1 452:1 477:1 496:1 503:1 558:1 700:1 732:1 824:1 838:1 931:1 966:1 993:1 1018:1 1098:1 1120:1 1149:1 1157:1 1272:1 1281:1 1328:1 1460:1 1496:1 1521:1 1535:1 1610:1 1706:1 1730:1 1850:1 1912:1 1933:1 1982:1 #
0.013212744276031487822287147082534 15:1 24:1 31:1 53:1 87:1 164:1 176:1 207:1 256:1 259:1 270:1 294:1 301:1 356:1 371:1 375:1 384:1 422:1 451:1 452:1 467:1 509:1 513:1 606:1 618:1 619:1 652:1 674:1 682:1 693:1 698:1 716:1 723:1 732:1 761:1 796:1 840:1 885:1 944:1 982:1 986:1 1037:1 1093:1 1121:1 1142:1 1157:1 1253:1 1313:1 1423:1 1460:1 1490:1 1496:1 1558:1 1568:1 1573:1 1607:1 1610:1 1623:1 1629:1 1703:1 1721:1 1744:1 1748:1 1766:1 1773:1 1797:1 1821:1 1835:1 1891:1 1916:1 1927:1 1966:1 1972:1 #
0.02401085401230589055909803164468 1:1 2:1 31:1 64:1 77:1 87:1 168:1 173:1 186:1 250:1 252:1 292:1 301:1 348:1 351:1 353:1 355:1 356:1 360:1 399:1 420:1 429:1 509:1 605:1 606:1 627:1 634:1 637:1 652:1 674:1 706:1 751:1 796:1 835:1 838:1 933:1 986:1 1070:1 1123:1 1128:1 1143:1 1149:1 1195:1 1294:1 1316:1 1342:1 1403:1 1415:1 1418:1 1520:1 1524:1 1528:1 1535:1 1553:1 1606:1 1610:1 1706:1 1746:1 1780:1 1799:1 1822:1 1852:1 1898:1 1912:1 1930:1 1976:1 1990:1 #
-0.02401085401230589055909803164468 50:1 168:1 355:1 363:1 415:1 451:1 496:1 578:1 606:1 610:1 635:1 645:1 652:1 653:1 664:1 704:1 723:1 732:1 835:1 885:1 986:1 992:1 1074:1 1114:1 1157:1 1272:1 1289:1 1294:1 1378:1 1464:1 1480:1 1534:1 1535:1 1607:1 1610:1 1613:1 1666:1 1673:1 1706:1 1744:1 1850:1 1856:1 2009:1 #
-0.015329321893285088179714747980142 27:1 31:1 51:1 97:1 164:1 252:1 313:1 340:1 411:1 429:1 432:1 464:1 542:1 543:1 554:1 604:1 606:1 624:1 719:1 838:1 845:1 874:1 875:1 993:1 1077:1 1117:1 1122:1 1157:1 1272:1 1287:1 1368:1 1385:1 1423:1 1433:1 1457:1 1460:1 1511:1 1610:1 1692:1 1714:1 1730:1 1816:1 2031:1 #
-0.015869325878429908771583001225736 52:1 113:1 160:1 192:1 310:1 313:1 429:1 451:1 573:1 576:1 606:1 623:1 719:1 728:1 732:1 761:1 824:1 870:1 871:1 920:1 990:1 994:1 1038:1 1186:1 1214:1 1234:1 1272:1 1294:1 1302:1 1352:1 1368:1 1418:1 1433:1 1443:1 1544:1 1558:1 1570:1 1573:1 1623:1 1631:1 1633:1 1706:1 1782:1 1825:1 1856:1 1992:1 #
-0.010878803099070110879664774472531 1:1 15:1 76:1 84:1 164:1 176:1 221:1 335:1 350:1 355:1 370:1 381:1 383:1 398:1 399:1 443:1 451:1 496:1 521:1 523:1 543:1 563:1 585:1 598:1 617:1 618:1 677:1 707:1 752:1 804:1 874:1 933:1 963:1 981:1 999:1 1046:1 1074:1 1086:1 1095:1 1129:1 1131:1 1137:1 1149:1 1157:1 1160:1 1174:1 1234:1 1276:1 1294:1 1308:1 1352:1 1378:1 1391:1 1423:1 1425:1 1446:1 1496:1 1535:1 1550:1 1573:1 1597:1 1617:1 1623:1 1629:1 1633:1 1674:1 1687:1 1698:1 1706:1 1744:1 1783:1 1799:1 1822:1 1860:1 1881:1 1886:1 1949:1 1961:1 1990:1 2038:1 #
-0.02401085401230589055909803164468 15:1 31:1 57:1 153:1 175:1 181:1 243:1 252:1 253:1 259:1 270:1 350:1 412:1 451:1 467:1 496:1 501:1 509:1 511:1 567:1 606:1 616:1 652:1 768:1 796:1 832:1 838:1 899:1 943:1 1015:1 1046:1 1081:1 1157:1 1278:1 1287:1 1438:1 1600:1 1610:1 1613:1 1629:1 1633:1 1706:1 1776:1 1799:1 1816:1 1825:1 1860:1 1904:1 1944:1 1962:1 1987:1 2019:1 2036:1 #
0.021886584060713393240504842651717 20:1 35:1 87:1 195:1 206:1 268:1 292:1 301:1 313:1 315:1 417:1 423:1 489:1 533:1 554:1 605:1 618:1 669:1 684:1 704:1 707:1 731:1 738:1 750:1 761:1 810:1 851:1 853:1 856:1 874:1 933:1 997:1 1074:1 1092:1 1145:1 1191:1 1195:1 1233:1 1284:1 1338:1 1358:1 1417:1 1433:1 1480:1 1578:1 1629:1 1687:1 1701:1 1816:1 1818:1 1826:1 1827:1 1856:1 1906:1 1925:1 1945:1 1988:1 2008:1 #
0.02401085401230589055909803164468 15:1 330:1 477:1 606:1 732:1 769:1 1046:1 1088:1 1287:1 1475:1 1587:1 1629:1 1823:1 2011:1 #
0.02401085401230589055909803164468 25:1 39:1 87:1 109:1 249:1 313:1 384:1 416:1 429:1 478:1 484:1 516:1 606:1 875:1 1098:1 1121:1 1145:1 1247:1 1287:1 1369:1 1376:1 1442:1 1629:1 1639:1 1685:1 1709:1 1946:1 1989:1 1990:1 #
0.02401085401230589055909803164468 15:1 43:1 58:1 113:1 117:1 143:1 169:1 247:1 300:1 349:1 396:1 509:1 526:1 553:1 678:1 715:1 730:1 750:1 761:1 783:1 815:1 891:1 993:1 997:1 1023:1 1046:1 1073:1 1157:1 1292:1 1301:1 1319:1 1337:1 1408:1 1418:1 1488:1 1504:1 1514:1 1535:1 1546:1 1600:1 1818:1 1835:1 1990:1 #
0.02401085401230589055909803164468 15:1 37:1 87:1 146:1 247:1 301:1 313:1 422:1 423:1 521:1 605:1 606:1 652:1 656:1 662:1 707:1 761:1 812:1 1024:1 1041:1 1150:1 1287:1 1302:1 1433:1 1516:1 1590:1 1615:1 1697:1 1704:1 1835:1 1840:1 1850:1 1925:1 #
-0.02401085401230589055909803164468 31:1 87:1 95:1 134:1 270:1 301:1 392:1 451:1 460:1 477:1 509:1 521:1 528:1 605:1 733:1 750:1 751:1 753:1 873:1 894:1 920:1 924:1 1130:1 1276:1 1287:1 1310:1 1433:1 1521:1 1568:1 1744:1 1789:1 1813:1 1818:1 1835:1 1856:1 1910:1 1993:1 2028:1 #
-0.02401085401230589055909803164468 31:1 247:1 363:1 384:1 548:1 605:1 698:1 732:1 802:1 938:1 1037:1 1080:1 1149:1 1268:1 1287:1 1625:1 1708:1 1905:1 1915:1 1972:1 1986:1 #
-0.02401085401230589055909803164468 15:1 87:1 216:1 261:1 286:1 292:1 399:1 423:1 496:1 542:1 605:1 614:1 736:1 761:1 763:1 796:1 843:1 920:1 931:1 943:1 986:1 1077:1 1264:1 1433:1 1508:1 1594:1 1789:1 1813:1 1840:1 1886:1 1912:1 #
-0.02401085401230589055909803164468 15:1 49:1 124:1 204:1 216:1 243:1 246:1 367:1 375:1 380:1 399:1 473:1 477:1 514:1 542:1 707:1 732:1 820:1 838:1 939:1 1000:1 1149:1 1157:1 1206:1 1444:1 1499:1 1835:1 1925:1 1966:1 #
-0.02401085401230589055909803164468 34:1 146:1 189:1 239:1 243:1 252:1 318:1 357:1 398:1 453:1 475:1 509:1 605:1 606:1 614:1 644:1 652:1 655:1 710:1 731:1 732:1 783:1 871:1 885:1 911:1 1004:1 1027:1 1070:1 1123:1 1203:1 1207:1 1232:1 1239:1 1287:1 1362:1 1391:1 1395:1 1418:1 1516:1 1521:1 1538:1 1573:1 1613:1 1629:1 1665:1 1669:1 1774:1 1780:1 1826:1 1835:1 1856:1 1944:1 1949:1 1957:1 1990:1 #
0.013317284167137673905889627690158 10:1 28:1 31:1 92:1 125:1 164:1 168:1 216:1 243:1 252:1 259:1 268:1 271:1 301:1 360:1 422:1 436:1 451:1 458:1 471:1 496:1 521:1 619:1 634:1 705:1 725:1 789:1 826:1 832:1 839:1 843:1 885:1 924:1 958:1 1045:1 1071:1 1081:1 1105:1 1132:1 1157:1 1215:1 1234:1 1251:1 1281:1 1283:1 1294:1 1303:1 1475:1 1483:1 1524:1 1535:1 1573:1 1607:1 1610:1 1613:1 1629:1 1698:1 1706:1 1754:1 1855:1 1869:1 1896:1 1912:1 1944:1 1990:1 #
0.02401085401230589055909803164468 24:1 31:1 39:1 252:1 294:1 301:1 313:1 606:1 608:1 796:1 943:1 1046:1 1070:1 1086:1 1150:1 1194:1 1231:1 1239:1 1246:1 1272:1 1287:1 1347:1 1351:1 1405:1 1459:1 1535:1 1537:1 1573:1 1610:1 1624:1 1629:1 1706:1 1708:1 1771:1 1814:1 1856:1 #
0.02401085401230589055909803164468 31:1 237:1 243:1 252:1 270:1 285:1 360:1 377:1 555:1 605:1 607:1 644:1 652:1 731:1 750:1 916:1 1031:1 1068:1 1070:1 1071:1 1142:1 1157:1 1261:1 1272:1 1289:1 1301:1 1357:1 1433:1 1468:1 1475:1 1544:1 1610:1 1629:1 1701:1 1706:1 1790:1 1856:1 1982:1 #
0.02401085401230589055909803164468 21:1 31:1 87:1 228:1 252:1 350:1 429:1 477:1 568:1 605:1 644:1 652:1 676:1 693:1 750:1 761:1 838:1 871:1 944:1 987:1 998:1 1086:1 1157:1 1234:1 1261:1 1272:1 1287:1 1433:1 1480:1 1496:1 1544:1 1551:1 1610:1 1706:1 1737:1 1790:1 1836:1 1860:1 1985:1 #
0.02401085401230589055909803164468 15:1 85:1 150:1 170:1 171:1 243:1 301:1 305:1 313:1 348:1 363:1 383:1 399:1 422:1 436:1 451:1 494:1 509:1 585:1 599:1 606:1 607:1 611:1 619:1 655:1 697:1 698:1 736:1 770:1 796:1 833:1 917:1 927:1 992:1 1024:1 1046:1 1070:1 1071:1 1098:1 1131:1 1149:1 1201:1 1234:1 1243:1 1287:1 1347:1 1431:1 1437:1 1516:1 1519:1 1573:1 1586:1 1623:1 1629:1 1643:1 1706:1 1716:1 1754:1 1787:1 1840:1 1901:1 1913:1 1930:1 1951:1 1990:1 #
-0.02401085401230589055909803164468 31:1 52:1 87:1 136:1 226:1 285:1 313:1 315:1 356:1 375:1 509:1 585:1 641:1 644:1 647:1 682:1 684:1 877:1 970:1 1115:1 1121:1 1142:1 1150:1 1157:1 1194:1 1210:1 1234:1 1239:1 1287:1 1332:1 1385:1 1475:1 1496:1 1535:1 1558:1 1584:1 1597:1 1629:1 1633:1 1672:1 1706:1 1735:1 1803:1 1836:1 1846:1 1856:1 1857:1 2019:1 #
-0.02401085401230589055909803164468 15:1 31:1 86:1 156:1 252:1 360:1 365:1 366:1 429:1 496:1 542:1 605:1 637:1 672:1 732:1 750:1 764:1 838:1 853:1 891:1 1045:1 1046:1 1115:1 1347:1 1431:1 1433:1 1470:1 1481:1 1516:1 1551:1 1573:1 1610:1 1629:1 1655:1 1706:1 1930:1 1944:1 1990:1 #
-0.007898062213522695149126029434683 22:1 24:1 31:1 52:1 71:1 88:1 108:1 211:1 243:1 249:1 263:1 417:1 483:1 509:1 542:1 555:1 599:1 605:1 608:1 634:1 688:1 732:1 736:1 756:1 832:1 936:1 949:1 954:1 1002:1 1007:1 1068:1 1078:1 1121:1 1127:1 1128:1 1157:1 1163:1 1175:1 1206:1 1208:1 1214:1 1246:1 1272:1 1302:1 1393:1 1424:1 1480:1 1496:1 1507:1 1529:1 1553:1 1560:1 1573:1 1584:1 1629:1 1650:1 1662:1 1706:1 1802:1 1866:1 1913:1 1920:1 1927:1 1955:1 1992:1 2002:1 #
-0.02401085401230589055909803164468 1:1 15:1 31:1 39:1 85:1 109:1 124:1 143:1 164:1 171:1 204:1 252:1 256:1 282:1 301:1 313:1 326:1 398:1 399:1 411:1 422:1 436:1 451:1 479:1 497:1 605:1 606:1 644:1 645:1 655:1 698:1 761:1 792:1 856:1 957:1 1015:1 1132:1 1136:1 1142:1 1149:1 1157:1 1158:1 1194:1 1201:1 1202:1 1272:1 1287:1 1289:1 1418:1 1423:1 1460:1 1480:1 1521:1 1528:1 1535:1 1544:1 1573:1 1601:1 1615:1 1629:1 1633:1 1731:1 1780:1 1791:1 1820:1 1846:1 1867:1 1885:1 1938:1 1990:1 #
-0.02401085401230589055909803164468 15:1 24:1 31:1 51:1 168:1 173:1 256:1 259:1 275:1 292:1 301:1 328:1 411:1 496:1 521:1 542:1 606:1 626:1 693:1 706:1 736:1 1005:1 1045:1 1046:1 1068:1 1149:1 1157:1 1234:1 1239:1 1347:1 1393:1 1442:1 1573:1 1610:1 1629:1 1706:1 1743:1 1864:1 1911:1 1915:1 1925:1 1927:1 1964:1 1990:1 2017:1 #
0.02401085401230589055909803164468 15:1 31:1 46:1 51:1 180:1 270:1 399:1 451:1 843:1 1284:1 1323:1 1452:1 1509:1 1769:1 1799:1 1820:1 1829:1 1860:1 1879:1 1993:1 #
0.02401085401230589055909803164468 5:1 25:1 31:1 166:1 175:1 214:1 243:1 252:1 256:1 338:1 345:1 380:1 399:1 450:1 451:1 483:1 534:1 542:1 572:1 577:1 606:1 677:1 692:1 698:1 707:1 732:1 827:1 836:1 891:1 898:1 904:1 977:1 1042:1 1104:1 1157:1 1256:1 1284:1 1403:1 1418:1 1442:1 1444:1 1480:1 1489:1 1593:1 1643:1 1672:1 1780:1 1782:1 1793:1 1822:1 1856:1 1885:1 1940:1 2004:1 #
0.02401085401230589055909803164468 344:1 391:1 399:1 606:1 652:1 682:1 732:1 801:1 1022:1 1117:1 1133:1 1157:1 1201:1 1202:1 1234:1 1242:1 1326:1 1429:1 1478:1 1511:1 1552:1 1610:1 1668:1 1714:1 1778:1 1872:1 1900:1 1927:1 #
0.02401085401230589055909803164468 31:1 90:1 166:1 170:1 179:1 189:1 256:1 281:1 301:1 340:1 396:1 398:1 477:1 481:1 490:1 502:1 509:1 572:1 606:1 661:1 698:1 732:1 770:1 782:1 789:1 909:1 928:1 932:1 953:1 1108:1 1137:1 1154:1 1157:1 1169:1 1201:1 1247:1 1280:1 1287:1 1368:1 1418:1 1460:1 1540:1 1545:1 1558:1 1568:1 1578:1 1599:1 1612:1 1629:1 1633:1 1640:1 1789:1 1820:1 1821:1 1882:1 1887:1 1935:1 1957:1 1961:1 #
0.023547818746195502831453083558699 135:1 235:1 252:1 318:1 337:1 357:1 411:1 441:1 451:1 471:1 489:1 496:1 506:1 511:1 536:1 567:1 595:1 604:1 606:1 637:1 650:1 732:1 774:1 789:1 810:1 881:1 898:1 933:1 1027:1 1093:1 1098:1 1107:1 1122:1 1157:1 1158:1 1215:1 1287:1 1328:1 1352:1 1438:1 1460:1 1490:1 1535:1 1552:1 1558:1 1573:1 1607:1 1646:1 1682:1 1741:1 1796:1 1797:1 1809:1 1818:1 1886:1 1902:1 1906:1 1976:1 1984:1 1986:1 #
-0.02401085401230589055909803164468 10:1 31:1 87:1 116:1 164:1 168:1 252:1 259:1 289:1 307:1 331:1 335:1 402:1 423:1 471:1 496:1 540:1 549:1 606:1 627:1 698:1 732:1 789:1 796:1 931:1 1086:1 1234:1 1246:1 1249:1 1272:1 1342:1 1403:1 1418:1 1431:1 1433:1 1481:1 1509:1 1559:1 1578:1 1582:1 1607:1 1629:1 1698:1 1702:1 1730:1 1806:1 1915:1 1927:1 1990:1 2039:1 #
-0.02401085401230589055909803164468 31:1 43:1 164:1 216:1 252:1 273:1 313:1 394:1 423:1 575:1 602:1 619:1 628:1 644:1 679:1 682:1 698:1 732:1 736:1 856:1 862:1 891:1 913:1 925:1 968:1 993:1 1104:1 1261:1 1400:1 1420:1 1431:1 1493:1 1501:1 1524:1 1629:1 1672:1 1714:1 1735:1 1801:1 1818:1 1990:1 2011:1 #
-0.02401085401230589055909803164468 70:1 134:1 210:1 352:1 451:1 519:1 605:1 606:1 1027:1 1157:1 1201:1 1272:1 1287:1 1368:1 1455:1 1596:1 1623:1 1716:1 1826:1 1851:1 #
-0.02401085401230589055909803164468 12:1 31:1 43:1 66:1 196:1 256:1 259:1 274:1 285:1 429:1 450:1 606:1 644:1 707:1 730:1 736:1 750:1 756:1 838:1 1105:1 1107:1 1110:1 1121:1 1201:1 1597:1 1798:1 1808:1 #
-0.02401085401230589055909803164468 87:1 176:1 207:1 269:1 286:1 347:1 360:1 510:1 606:1 621:1 735:1 750:1 1026:1 1046:1 1083:1 1183:1 1287:1 1294:1 1299:1 1332:1 1407:1 1458:1 1482:1 1522:1 1573:1 1607:1 1610:1 1620:1 1743:1 1786:1 1900:1 #
0.02401085401230589055909803164468 15:1 236:1 256:1 259:1 275:1 313:1 326:1 451:1 458:1 521:1 554:1 605:1 644:1 652:1 698:1 700:1 732:1 736:1 761:1 792:1 832:1 838:1 900:1 970:1 1046:1 1098:1 1149:1 1175:1 1194:1 1239:1 1460:1 1629:1 1751:1 1823:1 1959:1 1965:1 1990:1 #
0.02401085401230589055909803164468 15:1 24:1 25:1 31:1 52:1 87:1 113:1 117:1 224:1 263:1 270:1 352:1 356:1 360:1 394:1 411:1 528:1 586:1 606:1 682:1 698:1 700:1 732:1 750:1 796:1 832:1 834:1 838:1 874:1 885:1 968:1 1046:1 1068:1 1077:1 1121:1 1122:1 1157:1 1294:1 1423:1 1426:1 1483:1 1511:1 1521:1 1558:1 1640:1 1706:1 1744:1 1750:1 1824:1 1826:1 1843:1 1856:1 1925:1 1951:1 1972:1 1993:1 #
0.02401085401230589055909803164468 1:1 15:1 27:1 85:1 235:1 250:1 252:1 292:1 350:1 399:1 411:1 450:1 528:1 606:1 617:1 626:1 628:1 693:1 708:1 715:1 732:1 792:1 838:1 858:1 862:1 888:1 894:1 908:1 1041:1 1046:1 1068:1 1149:1 1287:1 1378:1 1426:1 1475:1 1573:1 1610:1 1613:1 1620:1 1629:1 1669:1 1674:1 1685:1 #
0.017962694607771067384360819119138 15:1 31:1 33:1 43:1 65:1 85:1 87:1 110:1 164:1 175:1 186:1 227:1 231:1 243:1 252:1 292:1 313:1 319:1 360:1 363:1 411:1 423:1 460:1 468:1 477:1 528:1 542:1 606:1 634:1 644:1 664:1 669:1 674:1 698:1 700:1 706:1 732:1 736:1 737:1 748:1 750:1 756:1 767:1 771:1 822:1 832:1 835:1 972:1 1004:1 1031:1 1046:1 1103:1 1108:1 1112:1 1133:1 1157:1 1160:1 1201:1 1204:1 1208:1 1221:1 1234:1 1273:1 1287:1 1313:1 1335:1 1354:1 1362:1 1460:1 1502:1 1521:1 1528:1 1573:1 1601:1 1604:1 1610:1 1623:1 1629:1 1674:1 1694:1 1706:1 1717:1 1789:1 1813:1 1821:1 1881:1 1925:1 1949:1 1964:1 1984:1 1999:1 #
0.014055562399581424115613259573365 15:1 24:1 31:1 38:1 210:1 252:1 256:1 264:1 313:1 399:1 451:1 461:1 489:1 542:1 586:1 598:1 605:1 694:1 780:1 838:1 911:1 944:1 1045:1 1047:1 1121:1 1157:1 1225:1 1250:1 1272:1 1287:1 1423:1 1442:1 1555:1 1573:1 1577:1 1610:1 1702:1 1704:1 1706:1 1736:1 1769:1 1790:1 1796:1 1944:1 1975:1 1990:1 #
-0.004614482105075133101801387880414 31:1 142:1 236:1 252:1 256:1 259:1 313:1 318:1 399:1 432:1 510:1 521:1 528:1 580:1 605:1 606:1 652:1 663:1 682:1 698:1 796:1 835:1 848:1 870:1 939:1 1074:1 1133:1 1157:1 1272:1 1521:1 1573:1 1602:1 1629:1 1706:1 1782:1 1856:1 1901:1 1944:1 1954:1 1984:1 1990:1 1992:1 2020:1 #
-0.02401085401230589055909803164468 27:1 50:1 85:1 168:1 225:1 252:1 396:1 399:1 450:1 509:1 540:1 564:1 698:1 700:1 709:1 750:1 824:1 832:1 836:1 843:1 910:1 974:1 1025:1 1068:1 1150:1 1157:1 1172:1 1229:1 1304:1 1312:1 1333:1 1423:1 1446:1 1473:1 1475:1 1544:1 1568:1 1623:1 1706:1 1712:1 1726:1 1737:1 1783:1 1856:1 1925:1 1990:1 #
-0.02401085401230589055909803164468 31:1 87:1 171:1 202:1 292:1 313:1 399:1 450:1 477:1 484:1 509:1 540:1 563:1 606:1 652:1 698:1 710:1 732:1 761:1 874:1 885:1 998:1 1071:1 1117:1 1157:1 1160:1 1234:1 1242:1 1272:1 1328:1 1378:1 1387:1 1414:1 1480:1 1507:1 1535:1 1568:1 1629:1 1633:1 1706:1 1769:1 1783:1 1797:1 1879:1 1915:1 1925:1 1944:1 2019:1 #
-0.021071835911778965394480778172692 8:1 31:1 52:1 63:1 126:1 174:1 200:1 251:1 313:1 350:1 360:1 367:1 399:1 437:1 451:1 502:1 562:1 615:1 652:1 668:1 698:1 700:1 708:1 732:1 792:1 997:1 1025:1 1045:1 1055:1 1122:1 1189:1 1247:1 1280:1 1446:1 1483:1 1490:1 1510:1 1573:1 1584:1 1607:1 1610:1 1611:1 1643:1 1706:1 1780:1 1797:1 1906:1 1925:1 1961:1 #
-0.019214682056268340970550667634598 24:1 57:1 92:1 252:1 375:1 399:1 411:1 415:1 432:1 451:1 477:1 509:1 605:1 606:1 608:1 619:1 627:1 634:1 652:1 698:1 708:1 732:1 761:1 764:1 812:1 838:1 910:1 944:1 1046:1 1220:1 1225:1 1284:1 1429:1 1511:1 1535:1 1539:1 1573:1 1660:1 1706:1 1856:1 1907:1 #
0.017041204258031759921632186660645 87:1 243:1 259:1 313:1 339:1 379:1 398:1 436:1 496:1 509:1 535:1 605:1 619:1 664:1 761:1 848:1 864:1 974:1 975:1 1081:1 1086:1 1088:1 1197:1 1232:1 1246:1 1348:1 1423:1 1460:1 1496:1 1548:1 1603:1 1610:1 1629:1 1698:1 1707:1 1744:1 1820:1 1840:1 1925:1 #
0.02401085401230589055909803164468 243:1 285:1 471:1 473:1 494:1 605:1 691:1 719:1 752:1 801:1 832:1 856:1 872:1 981:1 982:1 1012:1 1121:1 1130:1 1157:1 1241:1 1293:1 1460:1 1496:1 1586:1 1789:1 1834:1 1972:1 #
0.017560062362313343803377208018901 15:1 43:1 94:1 143:1 243:1 292:1 301:1 380:1 398:1 432:1 540:1 643:1 644:1 698:1 751:1 783:1 803:1 856:1 864:1 869:1 925:1 990:1 1046:1 1077:1 1149:1 1287:1 1295:1 1307:1 1318:1 1323:1 1341:1 1418:1 1435:1 1496:1 1573:1 1584:1 1629:1 1706:1 1714:1 1860:1 1944:1 1945:1 1954:1 1986:1 1987:1 #
0.02401085401230589055909803164468 15:1 21:1 31:1 168:1 252:1 285:1 422:1 464:1 477:1 509:1 605:1 608:1 682:1 713:1 829:1 964:1 1046:1 1148:1 1496:1 1584:1 1597:1 1611:1 1629:1 1665:1 1799:1 1852:1 1860:1 1992:1 #
0.02401085401230589055909803164468 31:1 43:1 57:1 87:1 93:1 256:1 343:1 360:1 375:1 585:1 606:1 729:1 751:1 893:1 931:1 1077:1 1157:1 1246:1 1417:1 1509:1 1607:1 1610:1 1711:1 1716:1 1784:1 1785:1 1954:1 #
-0.02401085401230589055909803164468 15:1 31:1 78:1 360:1 416:1 485:1 528:1 595:1 618:1 736:1 792:1 926:1 945:1 1024:1 1070:1 1157:1 1244:1 1287:1 1502:1 1600:1 1629:1 1780:1 1818:1 1886:1 1915:1 #
0.02401085401230589055909803164468 31:1 52:1 99:1 111:1 178:1 228:1 234:1 252:1 259:1 350:1 360:1 399:1 451:1 554:1 569:1 598:1 606:1 652:1 664:1 743:1 750:1 761:1 778:1 783:1 840:1 899:1 920:1 1045:1 1061:1 1149:1 1175:1 1203:1 1234:1 1287:1 1347:1 1429:1 1433:1 1496:1 1516:1 1544:1 1562:1 1568:1 1573:1 1629:1 1637:1 1653:1 1744:1 1773:1 1791:1 1869:1 1950:1 1990:1 1992:1 #
-0.02401085401230589055909803164468 52:1 469:1 528:1 607:1 674:1 794:1 827:1 1121:1 1149:1 1276:1 1297:1 1431:1 1496:1 1516:1 1610:1 1629:1 1706:1 #
-0.02401085401230589055909803164468 24:1 135:1 313:1 355:1 400:1 407:1 451:1 528:1 534:1 682:1 696:1 715:1 783:1 796:1 828:1 877:1 880:1 883:1 908:1 1011:1 1055:1 1095:1 1096:1 1121:1 1145:1 1287:1 1347:1 1414:1 1598:1 1766:1 1771:1 1773:1 1799:1 1860:1 1984:1 1990:1 #
-0.02401085401230589055909803164468 31:1 202:1 228:1 249:1 256:1 267:1 451:1 454:1 590:1 605:1 631:1 652:1 670:1 691:1 838:1 859:1 941:1 997:1 1077:1 1098:1 1194:1 1235:1 1287:1 1289:1 1349:1 1442:1 1444:1 1456:1 1535:1 1613:1 1765:1 1766:1 1816:1 1891:1 1930:1 1990:1 1992:1 #
-0.02401085401230589055909803164468 15:1 31:1 196:1 208:1 228:1 249:1 256:1 296:1 313:1 318:1 330:1 381:1 400:1 415:1 422:1 429:1 451:1 456:1 528:1 577:1 590:1 606:1 652:1 679:1 681:1 696:1 761:1 783:1 796:1 800:1 838:1 871:1 874:1 904:1 943:1 1017:1 1045:1 1070:1 1077:1 1080:1 1081:1 1098:1 1110:1 1115:1 1121:1 1145:1 1157:1 1175:1 1179:1 1272:1 1287:1 1326:1 1410:1 1559:1 1607:1 1610:1 1820:1 1825:1 1829:1 1847:1 1927:1 1993:1 2024:1 #
-0.02401085401230589055909803164468 25:1 43:1 49:1 76:1 164:1 170:1 350:1 396:1 411:1 545:1 605:1 666:1 750:1 780:1 936:1 994:1 997:1 1068:1 1086:1 1133:1 1157:1 1287:1 1292:1 1610:1 1793:1 1925:1 1976:1 1993:1 #
-0.0055493181696648985826159083956099 270:1 298:1 303:1 313:1 399:1 432:1 528:1 579:1 652:1 706:1 783:1 838:1 843:1 874:1 923:1 1086:1 1108:1 1157:1 1246:1 1261:1 1263:1 1287:1 1342:1 1383:1 1433:1 1482:1 1539:1 1544:1 1568:1 1706:1 1838:1 1840:1 1860:1 1907:1 1959:1 1990:1 1993:1 #
0.02401085401230589055909803164468 24:1 39:1 118:1 204:1 270:1 292:1 301:1 309:1 321:1 363:1 380:1 399:1 411:1 422:1 478:1 496:1 509:1 606:1 652:1 698:1 707:1 732:1 862:1 916:1 920:1 1025:1 1038:1 1086:1 1139:1 1142:1 1241:1 1287:1 1312:1 1334:1 1424:1 1559:1 1573:1 1578:1 1603:1 1610:1 1706:1 1780:1 1840:1 #
0.0094174892870683493684147435942577 20:1 89:1 96:1 117:1 118:1 120:1 162:1 164:1 168:1 247:1 249:1 263:1 292:1 337:1 360:1 363:1 370:1 384:1 399:1 447:1 451:1 484:1 485:1 496:1 510:1 519:1 530:1 544:1 584:1 606:1 612:1 617:1 624:1 625:1 652:1 698:1 707:1 732:1 734:1 750:1 862:1 911:1 914:1 925:1 960:1 974:1 1073:1 1086:1 1121:1 1142:1 1249:1 1276:1 1280:1 1294:1 1303:1 1328:1 1431:1 1442:1 1501:1 1511:1 1514:1 1516:1 1520:1 1573:1 1592:1 1612:1 1629:1 1672:1 1706:1 1707:1 1744:1 1761:1 1780:1 1783:1 1797:1 1805:1 1835:1 1844:1 1850:1 1856:1 1896:1 1912:1 1925:1 1927:1 1932:1 1943:1 1965:1 2008:1 #
