SVM-light Version V6.02
0 # kernel type
3 # kernel parameter -d 
1 # kernel parameter -g 
1 # kernel parameter -s 
1 # kernel parameter -r 
empty# kernel parameter -u 
11106 # highest feature index 
1600 # number of training documents 
1373 # number of support vectors plus 1 
0.20413675 # threshold b, each following line is a SV (starting with alpha*y)
-0.00075452026327028681642467011769781 1:1 2:1 3:1 4:1 5:1 6:1 7:1 8:1 9:1 10:1 11:1 12:1 18:1 19:1 20:1 21:1 23:1 26:1 27:1 28:1 29:1 31:1 33:1 34:1 35:1 37:1 41:1 43:1 44:1 45:1 48:1 52:1 54:1 55:1 56:1 58:1 59:1 63:1 77:1 79:1 81:1 83:1 87:1 88:1 89:1 90:1 91:1 93:1 95:1 104:1 109:1 110:1 112:1 114:1 120:1 126:1 130:1 132:1 135:1 140:1 141:1 146:1 147:1 148:1 151:1 152:1 155:1 156:1 157:1 159:1 161:1 162:1 164:1 172:1 173:1 175:1 182:1 184:1 188:1 195:1 203:1 204:1 208:1 211:1 227:1 243:1 253:1 261:1 281:1 282:1 296:1 300:1 307:1 315:1 321:1 327:1 329:1 339:1 343:1 344:1 345:1 349:1 353:1 355:1 390:1 401:1 413:1 414:1 437:1 444:1 448:1 452:1 454:1 465:1 469:1 470:1 486:1 488:1 494:1 507:1 510:1 529:1 558:1 570:1 582:1 619:1 620:1 634:1 664:1 668:1 682:1 692:1 702:1 714:1 731:1 735:1 771:1 774:1 778:1 786:1 792:1 808:1 811:1 813:1 833:1 850:1 872:1 878:1 892:1 895:1 913:1 924:1 936:1 939:1 940:1 944:1 962:1 978:1 998:1 1017:1 1040:1 1042:1 1044:1 1062:1 1081:1 1095:1 1124:1 1126:1 1144:1 1181:1 1201:1 1210:1 1228:1 1232:1 1242:1 1260:1 1288:1 1312:1 1320:1 1350:1 1367:1 1398:1 1427:1 1495:1 1498:1 1502:1 1503:1 1562:1 1564:1 1575:1 1584:1 1611:1 1618:1 1650:1 1651:1 1667:1 1675:1 1695:1 1696:1 1699:1 1726:1 1727:1 1744:1 1751:1 1757:1 1785:1 1795:1 1809:1 1849:1 1858:1 1873:1 1892:1 1913:1 1920:1 1925:1 1963:1 2007:1 2008:1 2038:1 2055:1 2063:1 2068:1 2100:1 2102:1 2113:1 2175:1 2180:1 2216:1 2229:1 2232:1 2235:1 2249:1 2258:1 2263:1 2278:1 2311:1 2392:1 2399:1 2411:1 2425:1 2443:1 2446:1 2473:1 2493:1 2509:1 2529:1 2535:1 2593:1 2597:1 2611:1 2627:1 2664:1 2670:1 2708:1 2715:1 2741:1 2744:1 2763:1 2791:1 2810:1 2816:1 2848:1 2877:1 2886:1 2897:1 2939:1 3010:1 3064:1 3077:1 3095:1 3112:1 3120:1 3121:1 3124:1 3165:1 3186:1 3188:1 3192:1 3227:1 3243:1 3267:1 3279:1 3298:1 3301:1 3348:1 3390:1 3475:1 3508:1 3527:1 3676:1 3727:1 3762:1 3829:1 3836:1 3897:1 3915:1 3972:1 4006:1 4007:1 4048:1 4051:1 4075:1 4084:1 4094:1 4263:1 4282:1 4288:1 4306:1 4315:1 4392:1 4399:1 4401:1 4403:1 4469:1 4530:1 4688:1 4754:1 4765:1 4782:1 4785:1 4917:1 4933:1 5007:1 5011:1 5014:1 5018:1 5071:1 5072:1 5085:1 5179:1 5277:1 5436:1 5589:1 5661:1 5674:1 5701:1 5751:1 5782:1 5789:1 5832:1 5899:1 5911:1 5931:1 6003:1 6087:1 6102:1 6133:1 6211:1 6283:1 6303:1 6432:1 6493:1 6512:1 6555:1 6956:1 6971:1 6997:1 7005:1 7062:1 7095:1 7150:1 7267:1 7400:1 7432:1 7435:1 7595:1 7678:1 7694:1 7757:1 7793:1 7955:1 7987:1 8005:1 8180:1 8395:1 8629:1 8889:1 8952:1 9017:1 9082:1 9311:1 9322:1 9357:1 9394:1 9417:1 9465:1 9466:1 9500:1 9546:1 9547:1 9680:1 9826:1 9963:1 9991:1 10133:1 10349:1 10350:1 10360:1 10382:1 10385:1 10553:1 10570:1 10591:1 10629:1 10644:1 10730:1 #
-0.0036197527426470861404428358554242 1:1 3:1 4:1 8:1 9:1 10:1 12:1 15:1 19:1 23:1 25:1 27:1 41:1 44:1 47:1 49:1 51:1 64:1 66:1 75:1 90:1 101:1 103:1 106:1 113:1 133:1 144:1 152:1 162:1 180:1 188:1 193:1 200:1 207:1 218:1 219:1 222:1 278:1 299:1 320:1 341:1 357:1 365:1 390:1 402:1 428:1 436:1 448:1 470:1 503:1 513:1 515:1 552:1 555:1 559:1 569:1 647:1 688:1 714:1 741:1 751:1 758:1 762:1 777:1 815:1 824:1 905:1 948:1 1030:1 1057:1 1084:1 1117:1 1143:1 1147:1 1254:1 1266:1 1292:1 1361:1 1377:1 1420:1 1593:1 1660:1 1762:1 1847:1 1982:1 2131:1 2171:1 2303:1 2380:1 2545:1 2807:1 2816:1 2911:1 2973:1 3261:1 3389:1 3398:1 3424:1 3623:1 3790:1 3953:1 4163:1 4414:1 4465:1 4529:1 4585:1 4687:1 4905:1 4977:1 5173:1 5194:1 5480:1 5511:1 5570:1 5631:1 5692:1 5921:1 6008:1 6180:1 6243:1 6392:1 6413:1 6852:1 6925:1 7257:1 8596:1 9041:1 9358:1 9760:1 10446:1 10877:1 11095:1 #
-0.0033737154579773051717161980178616 1:1 2:1 3:1 5:1 6:1 7:1 10:1 12:1 13:1 14:1 15:1 17:1 21:1 23:1 27:1 28:1 29:1 30:1 33:1 34:1 35:1 37:1 41:1 43:1 44:1 49:1 52:1 54:1 56:1 58:1 61:1 68:1 69:1 71:1 73:1 74:1 78:1 88:1 90:1 92:1 95:1 97:1 102:1 105:1 107:1 109:1 117:1 120:1 123:1 128:1 132:1 133:1 138:1 144:1 151:1 157:1 167:1 174:1 203:1 210:1 219:1 221:1 235:1 238:1 259:1 263:1 267:1 270:1 271:1 275:1 280:1 284:1 285:1 292:1 293:1 297:1 299:1 303:1 308:1 318:1 327:1 334:1 381:1 384:1 385:1 386:1 404:1 405:1 446:1 462:1 467:1 471:1 480:1 526:1 539:1 565:1 570:1 585:1 595:1 601:1 636:1 721:1 723:1 748:1 770:1 787:1 797:1 805:1 823:1 880:1 882:1 914:1 921:1 933:1 943:1 985:1 988:1 990:1 992:1 1039:1 1046:1 1052:1 1072:1 1117:1 1153:1 1159:1 1169:1 1186:1 1222:1 1243:1 1251:1 1283:1 1288:1 1294:1 1303:1 1326:1 1372:1 1373:1 1386:1 1389:1 1395:1 1417:1 1491:1 1508:1 1571:1 1595:1 1626:1 1651:1 1664:1 1697:1 1796:1 1826:1 1887:1 1966:1 1998:1 2061:1 2112:1 2118:1 2202:1 2242:1 2269:1 2275:1 2365:1 2391:1 2442:1 2502:1 2669:1 2722:1 2731:1 2732:1 2799:1 2806:1 2842:1 2872:1 2929:1 2944:1 3026:1 3119:1 3127:1 3158:1 3243:1 3351:1 3411:1 3680:1 3723:1 3787:1 3846:1 3861:1 3889:1 4045:1 4185:1 4188:1 4266:1 4401:1 4478:1 4543:1 4574:1 4595:1 4691:1 4706:1 4741:1 4764:1 4874:1 4880:1 4922:1 5183:1 5316:1 5411:1 5500:1 5591:1 5665:1 5700:1 5780:1 5863:1 6003:1 6156:1 6220:1 6229:1 6249:1 6273:1 6324:1 6354:1 6412:1 6548:1 6564:1 6623:1 6883:1 6904:1 6963:1 7020:1 7202:1 7229:1 7426:1 7456:1 7514:1 7575:1 7696:1 8182:1 8329:1 8345:1 8401:1 8430:1 8577:1 8715:1 8762:1 8766:1 8906:1 8992:1 9039:1 9214:1 9300:1 9365:1 9503:1 9706:1 9707:1 9920:1 10159:1 10170:1 10330:1 10532:1 10607:1 10821:1 10831:1 11039:1 11085:1 #
0.0016526923757240175299337847647507 1:1 2:1 3:1 4:1 5:1 6:1 7:1 8:1 10:1 11:1 13:1 15:1 19:1 22:1 23:1 25:1 26:1 27:1 28:1 30:1 32:1 33:1 35:1 37:1 38:1 40:1 41:1 42:1 45:1 46:1 53:1 54:1 61:1 62:1 64:1 67:1 68:1 73:1 76:1 86:1 91:1 101:1 103:1 114:1 115:1 135:1 152:1 153:1 159:1 174:1 178:1 181:1 189:1 197:1 201:1 202:1 224:1 233:1 234:1 258:1 263:1 267:1 271:1 279:1 282:1 287:1 291:1 292:1 328:1 340:1 363:1 373:1 395:1 400:1 428:1 433:1 459:1 460:1 466:1 478:1 516:1 573:1 585:1 591:1 612:1 661:1 677:1 680:1 683:1 725:1 787:1 793:1 810:1 817:1 820:1 835:1 839:1 843:1 870:1 873:1 874:1 887:1 916:1 921:1 937:1 973:1 988:1 994:1 1074:1 1089:1 1113:1 1150:1 1152:1 1243:1 1322:1 1342:1 1357:1 1368:1 1385:1 1395:1 1468:1 1476:1 1478:1 1505:1 1507:1 1540:1 1568:1 1583:1 1654:1 1667:1 1669:1 1731:1 1752:1 1795:1 1837:1 2037:1 2073:1 2082:1 2206:1 2219:1 2238:1 2264:1 2313:1 2409:1 2545:1 2575:1 2596:1 2687:1 2858:1 2894:1 2916:1 2925:1 2958:1 2979:1 2999:1 3003:1 3179:1 3238:1 3246:1 3272:1 3286:1 3302:1 3316:1 3338:1 3370:1 3385:1 3414:1 3443:1 3479:1 3539:1 3541:1 3831:1 3905:1 3937:1 4084:1 4099:1 4199:1 4270:1 4271:1 4342:1 4382:1 4409:1 4433:1 4435:1 4490:1 4497:1 4571:1 4588:1 4768:1 4773:1 4894:1 4969:1 5050:1 5271:1 5297:1 5307:1 5442:1 5477:1 5501:1 5645:1 5783:1 6178:1 6183:1 6190:1 6482:1 6666:1 6735:1 6745:1 6802:1 6913:1 7202:1 7323:1 7466:1 7476:1 7499:1 7547:1 7640:1 7769:1 8074:1 8175:1 8598:1 8986:1 9114:1 9191:1 9238:1 9456:1 9646:1 9856:1 9861:1 10146:1 10378:1 10448:1 10877:1 10894:1 #
-0.0032119589747917204336502550177102 1:1 2:1 3:1 4:1 5:1 8:1 10:1 11:1 14:1 17:1 19:1 20:1 21:1 22:1 23:1 25:1 27:1 28:1 29:1 32:1 36:1 41:1 42:1 45:1 46:1 47:1 49:1 53:1 54:1 55:1 56:1 60:1 62:1 64:1 65:1 67:1 68:1 78:1 80:1 81:1 84:1 88:1 91:1 92:1 94:1 97:1 98:1 109:1 110:1 114:1 118:1 119:1 120:1 121:1 122:1 124:1 129:1 133:1 136:1 139:1 142:1 150:1 159:1 165:1 169:1 178:1 181:1 183:1 188:1 194:1 202:1 204:1 209:1 212:1 218:1 219:1 220:1 230:1 231:1 239:1 240:1 246:1 248:1 269:1 270:1 271:1 272:1 274:1 275:1 276:1 284:1 295:1 299:1 302:1 303:1 310:1 320:1 321:1 326:1 329:1 338:1 341:1 352:1 361:1 363:1 373:1 377:1 383:1 405:1 421:1 434:1 454:1 457:1 462:1 468:1 471:1 478:1 493:1 503:1 507:1 518:1 528:1 535:1 566:1 568:1 586:1 596:1 602:1 614:1 623:1 634:1 640:1 655:1 668:1 679:1 681:1 686:1 690:1 693:1 713:1 743:1 747:1 767:1 776:1 790:1 803:1 804:1 823:1 826:1 833:1 838:1 843:1 846:1 862:1 869:1 882:1 889:1 946:1 950:1 963:1 980:1 988:1 1001:1 1055:1 1099:1 1122:1 1126:1 1138:1 1259:1 1277:1 1301:1 1307:1 1324:1 1329:1 1343:1 1411:1 1430:1 1463:1 1468:1 1511:1 1524:1 1562:1 1569:1 1574:1 1609:1 1613:1 1634:1 1638:1 1639:1 1647:1 1662:1 1672:1 1683:1 1761:1 1796:1 1798:1 1835:1 1860:1 1942:1 1963:1 1996:1 2009:1 2015:1 2026:1 2051:1 2060:1 2112:1 2129:1 2158:1 2175:1 2245:1 2251:1 2263:1 2288:1 2292:1 2321:1 2333:1 2347:1 2377:1 2382:1 2449:1 2539:1 2581:1 2626:1 2641:1 2658:1 2667:1 2679:1 2680:1 2780:1 2804:1 2841:1 2907:1 2933:1 2979:1 3017:1 3032:1 3046:1 3048:1 3073:1 3091:1 3145:1 3147:1 3201:1 3225:1 3329:1 3353:1 3470:1 3527:1 3539:1 3543:1 3564:1 3647:1 3658:1 3674:1 3720:1 3726:1 3781:1 3793:1 3835:1 3853:1 3855:1 3889:1 3895:1 3963:1 4038:1 4087:1 4091:1 4146:1 4358:1 4387:1 4650:1 4695:1 4767:1 4818:1 4827:1 4904:1 4921:1 4936:1 5010:1 5051:1 5134:1 5258:1 5310:1 5312:1 5372:1 5471:1 5481:1 5519:1 5554:1 5742:1 5907:1 5969:1 6042:1 6154:1 6240:1 6271:1 6272:1 6323:1 6332:1 6336:1 6383:1 6456:1 6592:1 6628:1 6640:1 6650:1 6711:1 6747:1 6754:1 6801:1 6813:1 6889:1 6975:1 7021:1 7157:1 7287:1 7306:1 7350:1 7397:1 7432:1 7513:1 7574:1 7611:1 7620:1 7694:1 7726:1 7751:1 7760:1 7874:1 7883:1 7951:1 7991:1 8175:1 8201:1 8293:1 8376:1 8428:1 8685:1 8707:1 8748:1 8889:1 9070:1 9076:1 9559:1 9573:1 9611:1 9830:1 9888:1 9987:1 9989:1 10595:1 10902:1 10984:1 #
0.0036197527426470861404428358554242 1:1 2:1 3:1 4:1 5:1 6:1 7:1 8:1 10:1 11:1 12:1 15:1 16:1 17:1 18:1 19:1 22:1 23:1 28:1 29:1 33:1 34:1 35:1 38:1 39:1 41:1 44:1 47:1 50:1 53:1 55:1 60:1 63:1 67:1 69:1 71:1 74:1 78:1 80:1 81:1 82:1 85:1 88:1 89:1 93:1 94:1 100:1 102:1 108:1 113:1 115:1 117:1 119:1 121:1 123:1 130:1 133:1 136:1 144:1 147:1 148:1 149:1 154:1 159:1 162:1 165:1 170:1 172:1 181:1 194:1 197:1 205:1 213:1 216:1 219:1 231:1 250:1 251:1 254:1 256:1 258:1 273:1 281:1 289:1 290:1 291:1 299:1 310:1 315:1 319:1 337:1 341:1 347:1 350:1 361:1 376:1 379:1 388:1 403:1 405:1 416:1 419:1 436:1 452:1 455:1 486:1 493:1 525:1 528:1 545:1 555:1 559:1 582:1 589:1 595:1 625:1 640:1 650:1 656:1 657:1 673:1 692:1 702:1 720:1 747:1 783:1 792:1 805:1 818:1 853:1 893:1 907:1 927:1 930:1 938:1 944:1 945:1 953:1 1001:1 1025:1 1045:1 1119:1 1121:1 1143:1 1158:1 1168:1 1169:1 1202:1 1216:1 1265:1 1269:1 1311:1 1366:1 1391:1 1407:1 1457:1 1462:1 1475:1 1479:1 1512:1 1570:1 1579:1 1648:1 1664:1 1735:1 1738:1 1959:1 1971:1 1972:1 1978:1 2043:1 2044:1 2073:1 2158:1 2185:1 2208:1 2222:1 2264:1 2270:1 2292:1 2310:1 2361:1 2450:1 2518:1 2541:1 2558:1 2621:1 2641:1 2668:1 2709:1 2723:1 2782:1 2805:1 2808:1 2828:1 2887:1 2941:1 2999:1 3006:1 3015:1 3124:1 3184:1 3190:1 3193:1 3215:1 3235:1 3357:1 3380:1 3384:1 3506:1 3513:1 3639:1 3663:1 3682:1 3702:1 3711:1 3794:1 3797:1 3798:1 3898:1 3955:1 3959:1 4027:1 4053:1 4055:1 4146:1 4184:1 4305:1 4501:1 4502:1 4519:1 4604:1 4682:1 4684:1 4901:1 4924:1 4934:1 5036:1 5062:1 5095:1 5230:1 5454:1 5619:1 5640:1 5648:1 5743:1 5785:1 6232:1 6266:1 6275:1 6281:1 6338:1 6405:1 6408:1 6680:1 6718:1 6875:1 6915:1 7080:1 7168:1 7485:1 7692:1 7812:1 7814:1 7874:1 7890:1 7897:1 7994:1 8011:1 8106:1 8114:1 8171:1 8321:1 8356:1 8386:1 8468:1 8525:1 8605:1 8728:1 9236:1 9279:1 9320:1 9517:1 9652:1 9805:1 9960:1 9974:1 10176:1 10214:1 10340:1 10346:1 10374:1 10605:1 10656:1 10669:1 10683:1 10686:1 10807:1 10962:1 10968:1 #
0.0036197527426470861404428358554242 1:1 2:1 3:1 4:1 5:1 6:1 7:1 8:1 9:1 10:1 11:1 12:1 13:1 14:1 15:1 18:1 22:1 23:1 24:1 26:1 28:1 29:1 30:1 31:1 32:1 33:1 34:1 36:1 41:1 42:1 43:1 48:1 49:1 50:1 52:1 53:1 55:1 56:1 57:1 58:1 60:1 61:1 63:1 64:1 65:1 67:1 70:1 74:1 77:1 85:1 86:1 97:1 103:1 104:1 106:1 108:1 109:1 115:1 121:1 122:1 123:1 125:1 126:1 127:1 144:1 162:1 164:1 173:1 178:1 180:1 182:1 184:1 186:1 202:1 204:1 208:1 209:1 212:1 214:1 218:1 226:1 230:1 237:1 238:1 239:1 245:1 247:1 252:1 259:1 271:1 272:1 274:1 275:1 279:1 284:1 286:1 297:1 304:1 318:1 322:1 333:1 357:1 360:1 365:1 372:1 377:1 387:1 413:1 416:1 419:1 426:1 444:1 448:1 494:1 561:1 565:1 568:1 571:1 581:1 633:1 659:1 677:1 685:1 696:1 744:1 776:1 793:1 807:1 823:1 906:1 954:1 955:1 1000:1 1006:1 1045:1 1059:1 1068:1 1111:1 1137:1 1142:1 1159:1 1174:1 1215:1 1223:1 1338:1 1344:1 1380:1 1383:1 1394:1 1399:1 1407:1 1423:1 1431:1 1474:1 1563:1 1564:1 1587:1 1615:1 1630:1 1662:1 1696:1 1716:1 1771:1 1861:1 1869:1 1902:1 1920:1 1925:1 1954:1 1977:1 2058:1 2070:1 2099:1 2160:1 2246:1 2293:1 2368:1 2376:1 2399:1 2406:1 2408:1 2468:1 2545:1 2578:1 2608:1 2627:1 2748:1 2754:1 2792:1 2822:1 2862:1 3020:1 3031:1 3066:1 3107:1 3144:1 3283:1 3292:1 3320:1 3388:1 3442:1 3475:1 3524:1 3560:1 3688:1 3692:1 3700:1 3703:1 3757:1 3775:1 3864:1 3911:1 3985:1 4010:1 4106:1 4170:1 4283:1 4383:1 4412:1 4442:1 4444:1 4456:1 4500:1 4504:1 4688:1 4799:1 4971:1 4991:1 5021:1 5071:1 5093:1 5216:1 5330:1 5392:1 5436:1 5466:1 5481:1 5487:1 5584:1 5600:1 5872:1 5910:1 5967:1 5993:1 6063:1 6082:1 6128:1 6163:1 6421:1 6429:1 6445:1 6564:1 6585:1 6646:1 6936:1 7141:1 7161:1 7201:1 7457:1 7470:1 7528:1 7540:1 7707:1 7798:1 7823:1 7833:1 7949:1 7962:1 8107:1 8209:1 8631:1 8638:1 8816:1 8836:1 8993:1 9113:1 9118:1 9136:1 9321:1 9463:1 9475:1 9543:1 9595:1 9604:1 9851:1 10043:1 10588:1 10872:1 #
0.0036197527426470861404428358554242 2:1 3:1 4:1 5:1 6:1 7:1 8:1 12:1 14:1 17:1 18:1 19:1 20:1 23:1 25:1 26:1 27:1 30:1 31:1 38:1 41:1 42:1 53:1 54:1 65:1 68:1 69:1 70:1 71:1 79:1 80:1 87:1 88:1 91:1 95:1 98:1 99:1 100:1 103:1 104:1 119:1 126:1 132:1 133:1 137:1 153:1 167:1 175:1 189:1 201:1 202:1 203:1 204:1 205:1 214:1 215:1 219:1 234:1 238:1 252:1 272:1 278:1 288:1 306:1 320:1 322:1 334:1 339:1 341:1 354:1 355:1 388:1 391:1 398:1 412:1 424:1 431:1 433:1 457:1 459:1 461:1 497:1 515:1 516:1 519:1 524:1 528:1 558:1 560:1 582:1 594:1 638:1 640:1 643:1 655:1 658:1 702:1 706:1 711:1 719:1 729:1 747:1 761:1 764:1 793:1 813:1 814:1 831:1 846:1 861:1 862:1 876:1 909:1 915:1 952:1 1007:1 1018:1 1070:1 1135:1 1141:1 1142:1 1181:1 1206:1 1245:1 1261:1 1276:1 1293:1 1323:1 1327:1 1384:1 1409:1 1427:1 1489:1 1541:1 1560:1 1570:1 1584:1 1670:1 1672:1 1684:1 1693:1 1718:1 1962:1 1995:1 2039:1 2072:1 2099:1 2236:1 2281:1 2392:1 2445:1 2533:1 2571:1 2593:1 2600:1 2693:1 2703:1 2753:1 2816:1 2823:1 2890:1 2905:1 2924:1 2954:1 2982:1 2997:1 3110:1 3165:1 3199:1 3253:1 3271:1 3379:1 3406:1 3568:1 3604:1 3804:1 3898:1 4514:1 4807:1 4877:1 5095:1 5105:1 5114:1 5289:1 5310:1 5328:1 5358:1 5480:1 5689:1 5955:1 5963:1 6008:1 6038:1 6115:1 6147:1 6198:1 6224:1 6237:1 6292:1 6350:1 6448:1 6468:1 6566:1 6581:1 6767:1 6943:1 7109:1 7231:1 7302:1 7707:1 7741:1 7835:1 8011:1 8399:1 8463:1 8912:1 8949:1 9047:1 9058:1 9272:1 9543:1 9778:1 9828:1 10121:1 10413:1 10475:1 10665:1 10722:1 10910:1 11053:1 #
0.00061883260178255709502148640410724 1:1 2:1 3:1 4:1 5:1 6:1 7:1 8:1 10:1 11:1 12:1 13:1 14:1 15:1 16:1 17:1 20:1 21:1 22:1 23:1 24:1 25:1 26:1 27:1 28:1 29:1 30:1 32:1 33:1 35:1 36:1 37:1 39:1 41:1 42:1 43:1 46:1 47:1 49:1 54:1 55:1 56:1 57:1 59:1 60:1 61:1 63:1 65:1 66:1 67:1 70:1 71:1 72:1 73:1 75:1 76:1 78:1 82:1 84:1 90:1 96:1 100:1 101:1 102:1 105:1 106:1 108:1 114:1 115:1 117:1 119:1 120:1 124:1 126:1 132:1 133:1 139:1 144:1 148:1 149:1 152:1 159:1 173:1 174:1 176:1 177:1 179:1 191:1 210:1 211:1 219:1 221:1 224:1 229:1 237:1 242:1 244:1 254:1 258:1 260:1 262:1 268:1 282:1 286:1 290:1 291:1 292:1 298:1 307:1 317:1 331:1 333:1 336:1 339:1 346:1 349:1 356:1 369:1 379:1 395:1 396:1 399:1 401:1 404:1 418:1 420:1 429:1 436:1 438:1 454:1 462:1 463:1 482:1 486:1 507:1 508:1 511:1 518:1 522:1 529:1 534:1 539:1 542:1 547:1 548:1 551:1 552:1 561:1 563:1 564:1 573:1 595:1 602:1 604:1 612:1 634:1 636:1 643:1 674:1 678:1 686:1 688:1 696:1 705:1 721:1 729:1 736:1 737:1 755:1 761:1 762:1 765:1 766:1 831:1 846:1 861:1 885:1 894:1 897:1 898:1 916:1 917:1 918:1 941:1 956:1 961:1 979:1 1007:1 1018:1 1038:1 1063:1 1069:1 1085:1 1101:1 1123:1 1150:1 1155:1 1159:1 1167:1 1169:1 1196:1 1205:1 1240:1 1269:1 1294:1 1295:1 1302:1 1335:1 1351:1 1356:1 1376:1 1379:1 1414:1 1423:1 1449:1 1460:1 1477:1 1493:1 1521:1 1544:1 1548:1 1564:1 1642:1 1643:1 1654:1 1666:1 1743:1 1814:1 1871:1 1888:1 1960:1 1975:1 1977:1 2012:1 2021:1 2041:1 2044:1 2052:1 2108:1 2145:1 2171:1 2194:1 2265:1 2284:1 2295:1 2306:1 2349:1 2378:1 2391:1 2481:1 2501:1 2504:1 2514:1 2563:1 2582:1 2619:1 2635:1 2649:1 2663:1 2671:1 2679:1 2687:1 2784:1 2793:1 2817:1 2839:1 2855:1 2863:1 2912:1 2935:1 2990:1 3034:1 3070:1 3076:1 3083:1 3111:1 3114:1 3173:1 3195:1 3214:1 3278:1 3292:1 3327:1 3362:1 3484:1 3509:1 3514:1 3549:1 3565:1 3584:1 3616:1 3653:1 3667:1 3702:1 3714:1 3759:1 3837:1 3877:1 3915:1 4043:1 4051:1 4056:1 4113:1 4129:1 4330:1 4377:1 4430:1 4456:1 4561:1 4565:1 4597:1 4604:1 4720:1 4767:1 4777:1 4784:1 4791:1 4800:1 4824:1 4875:1 4913:1 4929:1 4980:1 5068:1 5134:1 5187:1 5262:1 5305:1 5338:1 5388:1 5501:1 5563:1 5632:1 5670:1 5714:1 5758:1 5761:1 5868:1 5871:1 5874:1 5909:1 5975:1 5998:1 6072:1 6078:1 6220:1 6314:1 6358:1 6406:1 6408:1 6469:1 6548:1 6557:1 6577:1 6639:1 6744:1 6748:1 6753:1 6773:1 6809:1 6853:1 6888:1 7126:1 7248:1 7497:1 7535:1 7549:1 7659:1 7697:1 7709:1 7725:1 7867:1 7951:1 8053:1 8140:1 8264:1 8391:1 8482:1 8624:1 8669:1 8737:1 8820:1 8998:1 9063:1 9126:1 9136:1 9160:1 9285:1 9481:1 9523:1 9632:1 9666:1 10298:1 10345:1 10443:1 10484:1 10520:1 10649:1 10738:1 10938:1 #
0.0036197527426470861404428358554242 1:1 2:1 3:1 4:1 5:1 6:1 7:1 10:1 11:1 13:1 16:1 17:1 19:1 20:1 22:1 26:1 28:1 32:1 35:1 36:1 37:1 38:1 39:1 40:1 41:1 43:1 44:1 45:1 46:1 49:1 53:1 54:1 62:1 64:1 70:1 74:1 75:1 78:1 84:1 90:1 95:1 97:1 98:1 110:1 112:1 114:1 115:1 117:1 124:1 126:1 127:1 134:1 135:1 136:1 152:1 160:1 171:1 176:1 178:1 186:1 199:1 200:1 201:1 210:1 224:1 225:1 227:1 233:1 234:1 245:1 262:1 273:1 279:1 288:1 293:1 303:1 306:1 316:1 318:1 330:1 367:1 376:1 382:1 384:1 386:1 388:1 399:1 412:1 430:1 438:1 457:1 474:1 476:1 497:1 505:1 506:1 514:1 615:1 630:1 635:1 638:1 639:1 645:1 649:1 679:1 684:1 698:1 707:1 709:1 723:1 734:1 750:1 767:1 783:1 792:1 798:1 836:1 840:1 864:1 925:1 952:1 971:1 993:1 1023:1 1056:1 1088:1 1094:1 1098:1 1130:1 1165:1 1270:1 1271:1 1289:1 1305:1 1309:1 1327:1 1377:1 1432:1 1436:1 1448:1 1450:1 1463:1 1479:1 1480:1 1482:1 1493:1 1585:1 1607:1 1619:1 1664:1 1666:1 1701:1 1709:1 1778:1 1789:1 1802:1 1826:1 1830:1 1962:1 1985:1 2006:1 2094:1 2108:1 2152:1 2231:1 2257:1 2351:1 2364:1 2424:1 2429:1 2560:1 2584:1 2591:1 2599:1 2639:1 2654:1 2705:1 2735:1 2871:1 2914:1 2920:1 2921:1 3194:1 3250:1 3278:1 3288:1 3611:1 3636:1 3646:1 3719:1 3789:1 3838:1 3857:1 3925:1 4260:1 4545:1 4630:1 4758:1 4803:1 4939:1 4994:1 5016:1 5161:1 5180:1 5203:1 5302:1 5323:1 5345:1 5401:1 5460:1 5580:1 5676:1 5696:1 5733:1 5848:1 5870:1 5876:1 6075:1 6174:1 6317:1 6327:1 6500:1 6638:1 6691:1 6736:1 6797:1 6956:1 6981:1 7046:1 7051:1 7052:1 7092:1 7100:1 7101:1 7171:1 7345:1 7436:1 7516:1 7601:1 7679:1 7750:1 7849:1 7935:1 8075:1 8363:1 8382:1 8555:1 8796:1 8868:1 8871:1 9126:1 9307:1 9366:1 9413:1 9465:1 9488:1 9613:1 9669:1 10158:1 10182:1 10345:1 10466:1 10467:1 10480:1 10570:1 10736:1 11009:1 11048:1 11094:1 #
-0.0014486696229497142505288076463899 1:1 2:1 3:1 4:1 5:1 6:1 7:1 8:1 10:1 11:1 12:1 13:1 14:1 15:1 16:1 18:1 19:1 20:1 21:1 24:1 25:1 27:1 29:1 30:1 32:1 35:1 36:1 38:1 39:1 40:1 41:1 43:1 45:1 46:1 47:1 48:1 49:1 53:1 55:1 58:1 60:1 61:1 63:1 64:1 67:1 68:1 69:1 70:1 74:1 78:1 79:1 81:1 84:1 85:1 90:1 93:1 95:1 96:1 97:1 101:1 102:1 105:1 107:1 110:1 113:1 114:1 115:1 125:1 129:1 131:1 133:1 140:1 143:1 145:1 151:1 152:1 166:1 167:1 172:1 176:1 177:1 178:1 184:1 186:1 190:1 191:1 192:1 200:1 201:1 204:1 210:1 217:1 219:1 223:1 224:1 233:1 234:1 236:1 237:1 239:1 241:1 245:1 249:1 251:1 254:1 260:1 262:1 265:1 271:1 275:1 276:1 279:1 286:1 288:1 293:1 298:1 301:1 307:1 312:1 313:1 319:1 328:1 330:1 333:1 340:1 342:1 349:1 356:1 362:1 370:1 386:1 400:1 401:1 417:1 422:1 423:1 426:1 441:1 443:1 444:1 447:1 450:1 461:1 462:1 472:1 481:1 492:1 499:1 511:1 519:1 542:1 546:1 548:1 579:1 582:1 586:1 591:1 593:1 595:1 616:1 617:1 621:1 643:1 647:1 650:1 669:1 679:1 684:1 698:1 700:1 701:1 716:1 721:1 740:1 755:1 774:1 775:1 802:1 821:1 825:1 850:1 874:1 879:1 883:1 886:1 893:1 907:1 958:1 961:1 980:1 982:1 985:1 998:1 1030:1 1031:1 1037:1 1045:1 1055:1 1056:1 1077:1 1085:1 1088:1 1096:1 1105:1 1130:1 1137:1 1169:1 1182:1 1194:1 1200:1 1251:1 1265:1 1299:1 1302:1 1303:1 1308:1 1318:1 1348:1 1367:1 1386:1 1402:1 1408:1 1415:1 1440:1 1459:1 1498:1 1523:1 1550:1 1562:1 1586:1 1601:1 1606:1 1607:1 1612:1 1666:1 1694:1 1706:1 1733:1 1739:1 1751:1 1771:1 1779:1 1792:1 1802:1 1830:1 1839:1 1845:1 1870:1 1880:1 1889:1 1906:1 1919:1 1950:1 2012:1 2014:1 2041:1 2064:1 2078:1 2126:1 2141:1 2151:1 2225:1 2268:1 2273:1 2286:1 2309:1 2322:1 2327:1 2349:1 2404:1 2449:1 2451:1 2457:1 2478:1 2525:1 2551:1 2572:1 2634:1 2641:1 2648:1 2667:1 2682:1 2692:1 2723:1 2736:1 2752:1 2804:1 2852:1 2860:1 2864:1 2896:1 2910:1 2931:1 2962:1 2972:1 2997:1 2998:1 3012:1 3046:1 3059:1 3091:1 3131:1 3178:1 3190:1 3231:1 3236:1 3237:1 3295:1 3307:1 3308:1 3311:1 3356:1 3365:1 3390:1 3405:1 3450:1 3495:1 3601:1 3607:1 3684:1 3693:1 3844:1 3850:1 3869:1 4004:1 4044:1 4058:1 4093:1 4100:1 4196:1 4227:1 4270:1 4335:1 4379:1 4406:1 4458:1 4561:1 4565:1 4596:1 4597:1 4629:1 4679:1 4698:1 4708:1 4740:1 4772:1 4801:1 4857:1 4864:1 4886:1 4890:1 4910:1 4948:1 4955:1 4963:1 4994:1 5104:1 5128:1 5135:1 5226:1 5300:1 5320:1 5366:1 5392:1 5408:1 5434:1 5470:1 5561:1 5622:1 5631:1 5714:1 5716:1 5730:1 5738:1 5786:1 5788:1 5877:1 5984:1 6001:1 6022:1 6096:1 6108:1 6172:1 6208:1 6236:1 6268:1 6322:1 6360:1 6446:1 6458:1 6474:1 6500:1 6513:1 6577:1 6589:1 6642:1 6658:1 6661:1 6684:1 6685:1 6704:1 6726:1 6847:1 6855:1 6859:1 6866:1 6911:1 6976:1 7016:1 7171:1 7172:1 7238:1 7313:1 7321:1 7444:1 7446:1 7503:1 7711:1 7746:1 7777:1 7859:1 7865:1 7904:1 8017:1 8151:1 8161:1 8286:1 8317:1 8383:1 8448:1 8625:1 8637:1 8782:1 8783:1 8924:1 8938:1 8991:1 9047:1 9096:1 9105:1 9200:1 9262:1 9280:1 9468:1 9519:1 9530:1 9550:1 9553:1 9599:1 9697:1 9733:1 9856:1 9898:1 9960:1 10051:1 10059:1 10085:1 10389:1 10534:1 10921:1 11009:1 #
-0.00074327862884935691316357075919541 1:1 2:1 3:1 4:1 5:1 6:1 7:1 8:1 9:1 10:1 11:1 12:1 13:1 14:1 15:1 16:1 17:1 18:1 19:1 20:1 21:1 22:1 23:1 24:1 25:1 26:1 27:1 28:1 29:1 31:1 32:1 33:1 34:1 36:1 37:1 38:1 39:1 40:1 41:1 42:1 43:1 44:1 45:1 47:1 48:1 52:1 53:1 54:1 56:1 57:1 62:1 63:1 64:1 66:1 67:1 69:1 70:1 73:1 76:1 77:1 79:1 80:1 84:1 91:1 92:1 94:1 96:1 99:1 101:1 102:1 103:1 104:1 108:1 112:1 114:1 115:1 117:1 119:1 121:1 123:1 124:1 128:1 130:1 134:1 135:1 138:1 154:1 158:1 159:1 160:1 162:1 167:1 168:1 170:1 171:1 172:1 179:1 180:1 181:1 184:1 186:1 187:1 192:1 193:1 197:1 200:1 205:1 206:1 207:1 208:1 209:1 212:1 213:1 223:1 226:1 230:1 233:1 242:1 245:1 247:1 249:1 250:1 260:1 265:1 267:1 269:1 270:1 271:1 272:1 273:1 274:1 275:1 276:1 281:1 284:1 289:1 291:1 293:1 296:1 311:1 315:1 316:1 319:1 327:1 329:1 332:1 333:1 334:1 335:1 340:1 344:1 350:1 359:1 363:1 365:1 368:1 373:1 393:1 395:1 398:1 402:1 410:1 411:1 418:1 431:1 435:1 438:1 439:1 443:1 444:1 445:1 452:1 464:1 472:1 476:1 478:1 480:1 482:1 489:1 493:1 497:1 509:1 516:1 522:1 542:1 543:1 550:1 551:1 552:1 554:1 570:1 572:1 575:1 583:1 589:1 593:1 599:1 604:1 605:1 606:1 623:1 626:1 632:1 633:1 637:1 648:1 654:1 657:1 658:1 665:1 669:1 680:1 681:1 686:1 697:1 699:1 702:1 704:1 717:1 735:1 736:1 737:1 748:1 751:1 752:1 762:1 770:1 774:1 777:1 792:1 801:1 809:1 810:1 824:1 826:1 829:1 836:1 839:1 842:1 852:1 859:1 873:1 880:1 881:1 884:1 888:1 890:1 891:1 898:1 906:1 917:1 919:1 926:1 947:1 954:1 955:1 956:1 967:1 979:1 1003:1 1006:1 1008:1 1012:1 1015:1 1031:1 1045:1 1052:1 1072:1 1076:1 1093:1 1094:1 1096:1 1097:1 1109:1 1113:1 1115:1 1119:1 1128:1 1147:1 1149:1 1150:1 1198:1 1203:1 1204:1 1235:1 1249:1 1275:1 1285:1 1286:1 1290:1 1378:1 1384:1 1388:1 1403:1 1408:1 1410:1 1421:1 1427:1 1442:1 1455:1 1457:1 1466:1 1472:1 1482:1 1501:1 1513:1 1516:1 1527:1 1533:1 1551:1 1571:1 1573:1 1584:1 1602:1 1650:1 1676:1 1677:1 1690:1 1691:1 1711:1 1714:1 1718:1 1721:1 1724:1 1729:1 1735:1 1741:1 1745:1 1768:1 1770:1 1832:1 1841:1 1854:1 1874:1 1886:1 1908:1 1916:1 1937:1 1960:1 1975:1 1980:1 2003:1 2011:1 2022:1 2051:1 2064:1 2110:1 2132:1 2156:1 2169:1 2171:1 2203:1 2242:1 2255:1 2257:1 2276:1 2278:1 2317:1 2338:1 2369:1 2382:1 2390:1 2427:1 2451:1 2511:1 2538:1 2550:1 2587:1 2588:1 2596:1 2606:1 2609:1 2617:1 2701:1 2745:1 2752:1 2753:1 2757:1 2773:1 2812:1 2817:1 2823:1 2842:1 2849:1 2860:1 2913:1 3001:1 3015:1 3038:1 3058:1 3084:1 3102:1 3107:1 3146:1 3148:1 3157:1 3199:1 3245:1 3249:1 3260:1 3261:1 3273:1 3289:1 3319:1 3334:1 3349:1 3359:1 3394:1 3429:1 3439:1 3483:1 3526:1 3567:1 3571:1 3594:1 3609:1 3631:1 3667:1 3754:1 3768:1 3777:1 3815:1 3851:1 3852:1 3863:1 3898:1 3941:1 3981:1 4000:1 4014:1 4077:1 4078:1 4106:1 4114:1 4158:1 4166:1 4176:1 4177:1 4182:1 4261:1 4295:1 4330:1 4341:1 4354:1 4377:1 4404:1 4477:1 4480:1 4560:1 4604:1 4617:1 4675:1 4679:1 4686:1 4707:1 4723:1 4781:1 4795:1 4799:1 4802:1 4851:1 4872:1 4900:1 4916:1 4986:1 5019:1 5021:1 5024:1 5030:1 5045:1 5055:1 5098:1 5169:1 5172:1 5266:1 5277:1 5303:1 5378:1 5655:1 5764:1 5793:1 5828:1 5836:1 5844:1 5847:1 5918:1 5945:1 5946:1 6033:1 6040:1 6047:1 6082:1 6091:1 6162:1 6196:1 6204:1 6243:1 6247:1 6288:1 6387:1 6419:1 6441:1 6449:1 6453:1 6487:1 6658:1 6691:1 6712:1 6716:1 6750:1 6758:1 6885:1 6903:1 6938:1 6943:1 7021:1 7022:1 7028:1 7075:1 7121:1 7175:1 7197:1 7281:1 7283:1 7387:1 7393:1 7475:1 7506:1 7588:1 7629:1 7671:1 7703:1 7713:1 7735:1 7750:1 7776:1 7779:1 7881:1 7930:1 8086:1 8109:1 8125:1 8139:1 8166:1 8172:1 8204:1 8290:1 8331:1 8349:1 8442:1 8600:1 8731:1 8735:1 8937:1 9021:1 9032:1 9086:1 9100:1 9163:1 9230:1 9481:1 9500:1 9505:1 9663:1 9834:1 9877:1 9907:1 10017:1 10081:1 10343:1 10409:1 10464:1 10477:1 10485:1 10496:1 10588:1 10623:1 10676:1 10702:1 10735:1 10750:1 10751:1 10852:1 10993:1 11071:1 11075:1 #
-0.0030002591330983005221688664221347 1:1 2:1 3:1 4:1 5:1 6:1 8:1 10:1 11:1 12:1 13:1 14:1 15:1 16:1 17:1 18:1 19:1 22:1 24:1 25:1 26:1 29:1 36:1 37:1 38:1 40:1 43:1 49:1 54:1 57:1 58:1 60:1 62:1 63:1 66:1 67:1 71:1 72:1 74:1 77:1 78:1 85:1 86:1 87:1 88:1 96:1 108:1 110:1 118:1 123:1 126:1 127:1 128:1 136:1 149:1 166:1 173:1 179:1 191:1 192:1 196:1 199:1 202:1 210:1 217:1 242:1 252:1 256:1 270:1 286:1 305:1 312:1 314:1 322:1 324:1 331:1 335:1 350:1 352:1 359:1 374:1 379:1 381:1 382:1 401:1 417:1 423:1 424:1 427:1 432:1 441:1 480:1 516:1 534:1 542:1 546:1 553:1 583:1 606:1 635:1 638:1 676:1 700:1 704:1 708:1 777:1 798:1 810:1 816:1 836:1 855:1 914:1 932:1 938:1 939:1 947:1 960:1 968:1 972:1 981:1 982:1 1002:1 1041:1 1142:1 1172:1 1176:1 1191:1 1336:1 1354:1 1377:1 1394:1 1449:1 1458:1 1506:1 1519:1 1563:1 1636:1 1689:1 1720:1 1732:1 1765:1 1813:1 1860:1 1875:1 1887:1 1891:1 1926:1 1933:1 1936:1 2000:1 2006:1 2046:1 2085:1 2193:1 2241:1 2246:1 2258:1 2385:1 2414:1 2418:1 2473:1 2482:1 2488:1 2523:1 2552:1 2596:1 2600:1 2693:1 2775:1 2860:1 2912:1 2924:1 2945:1 2988:1 3281:1 3364:1 3414:1 3548:1 3554:1 3599:1 3634:1 3719:1 3826:1 3878:1 3917:1 3945:1 3988:1 4022:1 4077:1 4083:1 4139:1 4183:1 4240:1 4259:1 4336:1 4370:1 4371:1 4481:1 4500:1 4524:1 4643:1 4806:1 4820:1 4851:1 4928:1 4997:1 5026:1 5040:1 5097:1 5099:1 5193:1 5207:1 5342:1 5400:1 5689:1 5748:1 5799:1 5816:1 5910:1 5943:1 5981:1 6139:1 6158:1 6190:1 6286:1 6335:1 6391:1 6488:1 6527:1 6613:1 6632:1 6961:1 6988:1 7101:1 7338:1 7456:1 7582:1 7748:1 7758:1 7905:1 8097:1 8103:1 8218:1 8225:1 8474:1 8781:1 9002:1 9067:1 9080:1 9379:1 9609:1 9765:1 10377:1 10458:1 10513:1 10590:1 10603:1 10619:1 10717:1 10926:1 #
-0.0036197527426470861404428358554242 1:1 2:1 3:1 4:1 5:1 7:1 8:1 10:1 12:1 13:1 14:1 15:1 17:1 18:1 19:1 21:1 25:1 27:1 29:1 30:1 34:1 35:1 36:1 39:1 40:1 41:1 46:1 47:1 48:1 49:1 50:1 53:1 58:1 61:1 62:1 67:1 68:1 70:1 72:1 76:1 78:1 83:1 84:1 87:1 89:1 100:1 110:1 117:1 119:1 130:1 136:1 140:1 142:1 145:1 146:1 150:1 153:1 165:1 176:1 184:1 185:1 190:1 194:1 197:1 204:1 216:1 220:1 230:1 233:1 235:1 237:1 239:1 240:1 254:1 273:1 276:1 283:1 291:1 302:1 306:1 318:1 330:1 348:1 353:1 360:1 361:1 370:1 383:1 385:1 400:1 426:1 469:1 474:1 489:1 495:1 496:1 498:1 505:1 518:1 527:1 541:1 548:1 556:1 582:1 584:1 595:1 613:1 620:1 629:1 648:1 657:1 665:1 694:1 719:1 727:1 729:1 731:1 774:1 780:1 781:1 783:1 849:1 860:1 873:1 883:1 890:1 893:1 902:1 936:1 964:1 970:1 1038:1 1198:1 1299:1 1311:1 1332:1 1380:1 1399:1 1400:1 1410:1 1429:1 1476:1 1479:1 1493:1 1505:1 1507:1 1560:1 1561:1 1563:1 1590:1 1625:1 1648:1 1768:1 1774:1 1783:1 1804:1 1827:1 1839:1 1876:1 1908:1 1959:1 1968:1 2035:1 2044:1 2121:1 2210:1 2231:1 2318:1 2331:1 2340:1 2498:1 2504:1 2530:1 2555:1 2562:1 2580:1 2620:1 2848:1 2859:1 2881:1 2901:1 2958:1 2994:1 3036:1 3099:1 3247:1 3483:1 3566:1 3626:1 3634:1 3646:1 3718:1 3747:1 3757:1 3771:1 3782:1 3818:1 3832:1 3871:1 3885:1 3948:1 3955:1 3956:1 4117:1 4213:1 4363:1 4409:1 4444:1 4600:1 4684:1 4709:1 4894:1 4989:1 5016:1 5023:1 5051:1 5083:1 5364:1 5406:1 5452:1 5466:1 5474:1 5553:1 5705:1 5779:1 5847:1 5908:1 5973:1 6035:1 6067:1 6086:1 6223:1 6585:1 6605:1 6718:1 6737:1 6828:1 7087:1 7126:1 7171:1 7259:1 7279:1 7486:1 7649:1 7842:1 7941:1 8090:1 8106:1 8152:1 8420:1 8422:1 8471:1 8612:1 8682:1 8759:1 8802:1 8841:1 8843:1 8908:1 9025:1 9410:1 9750:1 9798:1 9847:1 9922:1 10001:1 10025:1 10042:1 10061:1 10076:1 10109:1 10898:1 11075:1 11090:1 #
-0.0035678497560893743766052832455671 1:1 2:1 3:1 4:1 5:1 6:1 7:1 10:1 11:1 12:1 13:1 14:1 15:1 16:1 18:1 19:1 21:1 22:1 26:1 27:1 28:1 29:1 30:1 32:1 33:1 34:1 35:1 36:1 37:1 38:1 40:1 41:1 42:1 45:1 46:1 47:1 52:1 54:1 55:1 56:1 57:1 61:1 62:1 64:1 68:1 70:1 71:1 73:1 76:1 77:1 78:1 79:1 82:1 83:1 84:1 85:1 86:1 87:1 88:1 90:1 93:1 99:1 101:1 103:1 104:1 105:1 112:1 115:1 116:1 118:1 119:1 121:1 122:1 124:1 126:1 127:1 130:1 131:1 132:1 133:1 134:1 135:1 137:1 140:1 144:1 147:1 154:1 157:1 158:1 160:1 166:1 168:1 169:1 170:1 173:1 176:1 178:1 179:1 181:1 182:1 185:1 186:1 187:1 190:1 193:1 194:1 196:1 203:1 206:1 208:1 211:1 216:1 217:1 219:1 222:1 224:1 231:1 233:1 235:1 240:1 242:1 243:1 246:1 251:1 254:1 255:1 257:1 261:1 270:1 271:1 277:1 281:1 284:1 286:1 287:1 288:1 304:1 314:1 323:1 324:1 325:1 329:1 330:1 334:1 338:1 339:1 341:1 346:1 353:1 359:1 367:1 372:1 377:1 378:1 382:1 391:1 392:1 393:1 397:1 404:1 410:1 428:1 430:1 443:1 446:1 450:1 452:1 457:1 474:1 480:1 485:1 486:1 489:1 490:1 495:1 506:1 509:1 513:1 539:1 545:1 546:1 572:1 577:1 578:1 583:1 587:1 588:1 592:1 593:1 600:1 608:1 612:1 624:1 629:1 636:1 637:1 654:1 661:1 666:1 676:1 678:1 685:1 687:1 690:1 693:1 696:1 699:1 708:1 712:1 721:1 732:1 734:1 735:1 738:1 755:1 758:1 760:1 764:1 769:1 773:1 789:1 790:1 794:1 798:1 799:1 804:1 807:1 815:1 819:1 823:1 827:1 831:1 843:1 846:1 852:1 860:1 863:1 874:1 878:1 885:1 888:1 889:1 897:1 901:1 903:1 926:1 937:1 959:1 962:1 975:1 990:1 1001:1 1011:1 1013:1 1018:1 1026:1 1028:1 1042:1 1058:1 1073:1 1077:1 1085:1 1095:1 1102:1 1116:1 1123:1 1133:1 1135:1 1136:1 1138:1 1144:1 1172:1 1201:1 1209:1 1217:1 1219:1 1227:1 1263:1 1265:1 1268:1 1290:1 1291:1 1302:1 1303:1 1315:1 1319:1 1321:1 1334:1 1346:1 1348:1 1355:1 1377:1 1382:1 1403:1 1415:1 1422:1 1427:1 1430:1 1436:1 1446:1 1462:1 1470:1 1474:1 1488:1 1512:1 1523:1 1542:1 1545:1 1555:1 1557:1 1568:1 1578:1 1608:1 1634:1 1636:1 1638:1 1658:1 1682:1 1687:1 1731:1 1739:1 1749:1 1779:1 1797:1 1804:1 1805:1 1837:1 1861:1 1872:1 1873:1 1888:1 1903:1 1967:1 1972:1 2044:1 2064:1 2066:1 2080:1 2081:1 2118:1 2144:1 2145:1 2159:1 2200:1 2216:1 2248:1 2268:1 2276:1 2330:1 2332:1 2358:1 2366:1 2379:1 2406:1 2413:1 2418:1 2463:1 2476:1 2494:1 2505:1 2508:1 2531:1 2553:1 2557:1 2578:1 2588:1 2599:1 2600:1 2616:1 2631:1 2640:1 2650:1 2675:1 2682:1 2724:1 2766:1 2771:1 2887:1 2890:1 2892:1 2940:1 2948:1 2975:1 2977:1 3039:1 3044:1 3050:1 3109:1 3136:1 3138:1 3197:1 3203:1 3241:1 3256:1 3302:1 3324:1 3325:1 3386:1 3400:1 3488:1 3521:1 3545:1 3636:1 3674:1 3688:1 3690:1 3692:1 3778:1 3800:1 3808:1 3884:1 3965:1 3992:1 4027:1 4032:1 4034:1 4042:1 4068:1 4073:1 4100:1 4126:1 4144:1 4174:1 4202:1 4242:1 4257:1 4267:1 4311:1 4335:1 4429:1 4437:1 4488:1 4507:1 4554:1 4558:1 4587:1 4590:1 4605:1 4612:1 4627:1 4628:1 4630:1 4671:1 4682:1 4684:1 4728:1 4738:1 4769:1 4786:1 4822:1 4871:1 4891:1 4914:1 4919:1 4940:1 4961:1 4972:1 5049:1 5050:1 5096:1 5158:1 5185:1 5226:1 5298:1 5380:1 5395:1 5403:1 5421:1 5449:1 5460:1 5464:1 5520:1 5559:1 5560:1 5577:1 5619:1 5733:1 5742:1 5814:1 5886:1 5888:1 5911:1 5934:1 5942:1 6030:1 6047:1 6048:1 6216:1 6261:1 6338:1 6351:1 6427:1 6520:1 6596:1 6685:1 6691:1 6780:1 6781:1 6856:1 6930:1 6935:1 6967:1 7056:1 7085:1 7156:1 7189:1 7295:1 7308:1 7317:1 7342:1 7472:1 7547:1 7593:1 7688:1 7748:1 7764:1 7809:1 7914:1 7917:1 8066:1 8268:1 8277:1 8290:1 8408:1 8456:1 8458:1 8649:1 8664:1 8693:1 8699:1 8817:1 8850:1 8869:1 8909:1 8917:1 9035:1 9064:1 9131:1 9149:1 9175:1 9256:1 9284:1 9295:1 9349:1 9488:1 9528:1 9536:1 9628:1 9675:1 9698:1 9724:1 9789:1 9796:1 9851:1 10016:1 10030:1 10101:1 10165:1 10261:1 10308:1 10319:1 10492:1 10552:1 10576:1 10683:1 10685:1 10696:1 10705:1 10812:1 10873:1 10945:1 11079:1 #
0.0036197527426470861404428358554242 1:1 2:1 3:1 4:1 5:1 6:1 7:1 9:1 10:1 11:1 13:1 15:1 17:1 18:1 20:1 21:1 26:1 27:1 30:1 31:1 33:1 35:1 36:1 37:1 40:1 45:1 46:1 49:1 51:1 52:1 54:1 55:1 57:1 58:1 61:1 63:1 64:1 67:1 72:1 77:1 84:1 85:1 99:1 102:1 110:1 111:1 112:1 113:1 116:1 118:1 124:1 135:1 137:1 138:1 144:1 147:1 150:1 151:1 155:1 157:1 161:1 168:1 173:1 174:1 175:1 180:1 183:1 186:1 188:1 192:1 195:1 213:1 214:1 216:1 225:1 230:1 231:1 243:1 251:1 254:1 265:1 269:1 271:1 274:1 275:1 281:1 282:1 288:1 295:1 325:1 326:1 328:1 331:1 339:1 343:1 345:1 358:1 364:1 366:1 373:1 379:1 382:1 384:1 400:1 405:1 406:1 411:1 416:1 436:1 450:1 455:1 456:1 457:1 465:1 485:1 500:1 507:1 510:1 516:1 549:1 572:1 576:1 595:1 608:1 616:1 648:1 650:1 664:1 668:1 679:1 703:1 748:1 758:1 767:1 790:1 795:1 827:1 852:1 896:1 936:1 941:1 944:1 954:1 963:1 965:1 968:1 987:1 991:1 994:1 1008:1 1017:1 1039:1 1043:1 1044:1 1059:1 1060:1 1082:1 1088:1 1107:1 1110:1 1120:1 1122:1 1125:1 1184:1 1194:1 1204:1 1209:1 1239:1 1253:1 1260:1 1284:1 1285:1 1298:1 1302:1 1303:1 1320:1 1337:1 1343:1 1362:1 1405:1 1410:1 1435:1 1448:1 1459:1 1463:1 1488:1 1512:1 1532:1 1588:1 1594:1 1597:1 1599:1 1605:1 1606:1 1609:1 1618:1 1634:1 1676:1 1699:1 1704:1 1707:1 1710:1 1716:1 1720:1 1727:1 1755:1 1786:1 1798:1 1824:1 1851:1 1888:1 1892:1 1972:1 1986:1 2007:1 2028:1 2035:1 2056:1 2059:1 2061:1 2063:1 2068:1 2075:1 2076:1 2100:1 2115:1 2130:1 2211:1 2216:1 2229:1 2235:1 2236:1 2237:1 2304:1 2307:1 2365:1 2378:1 2503:1 2578:1 2627:1 2653:1 2672:1 2697:1 2724:1 2776:1 2808:1 2813:1 2815:1 2827:1 2855:1 2878:1 2887:1 2919:1 3039:1 3175:1 3192:1 3202:1 3216:1 3219:1 3221:1 3288:1 3355:1 3384:1 3435:1 3463:1 3470:1 3514:1 3520:1 3552:1 3558:1 3570:1 3666:1 3822:1 3895:1 3950:1 3952:1 3977:1 4012:1 4016:1 4096:1 4151:1 4172:1 4218:1 4288:1 4306:1 4308:1 4329:1 4541:1 4559:1 4625:1 4631:1 4641:1 4809:1 4817:1 4897:1 5014:1 5139:1 5195:1 5278:1 5349:1 5361:1 5411:1 5431:1 5489:1 5520:1 5586:1 5610:1 5751:1 5782:1 5789:1 5832:1 6013:1 6023:1 6059:1 6116:1 6133:1 6228:1 6264:1 6324:1 6360:1 6417:1 6418:1 6471:1 6775:1 6934:1 7003:1 7018:1 7028:1 7104:1 7115:1 7154:1 7261:1 7279:1 7310:1 7314:1 7342:1 7389:1 7449:1 7517:1 7645:1 7786:1 7827:1 7989:1 8208:1 8260:1 8285:1 8395:1 8460:1 8525:1 8546:1 8577:1 8650:1 8815:1 8942:1 8952:1 8961:1 9113:1 9175:1 9286:1 9320:1 9426:1 9579:1 9883:1 10133:1 10199:1 10262:1 10617:1 10811:1 10940:1 10983:1 #
0.0013581232301200913108879531066009 1:1 2:1 3:1 4:1 5:1 6:1 7:1 12:1 13:1 14:1 15:1 17:1 18:1 20:1 22:1 23:1 25:1 27:1 28:1 29:1 30:1 34:1 36:1 37:1 38:1 39:1 41:1 42:1 43:1 46:1 47:1 51:1 52:1 55:1 58:1 64:1 65:1 70:1 72:1 73:1 76:1 77:1 78:1 80:1 82:1 86:1 87:1 88:1 100:1 106:1 107:1 110:1 115:1 116:1 118:1 120:1 125:1 133:1 139:1 142:1 153:1 159:1 163:1 174:1 177:1 179:1 188:1 194:1 197:1 202:1 204:1 212:1 219:1 222:1 230:1 245:1 249:1 264:1 273:1 286:1 292:1 299:1 300:1 303:1 315:1 318:1 323:1 324:1 331:1 334:1 335:1 341:1 344:1 368:1 375:1 378:1 387:1 395:1 399:1 410:1 487:1 492:1 515:1 518:1 536:1 555:1 559:1 590:1 610:1 625:1 632:1 649:1 650:1 697:1 718:1 730:1 736:1 739:1 743:1 764:1 770:1 799:1 816:1 819:1 852:1 869:1 900:1 902:1 908:1 914:1 948:1 957:1 962:1 987:1 992:1 994:1 1047:1 1074:1 1078:1 1112:1 1151:1 1161:1 1253:1 1289:1 1315:1 1317:1 1417:1 1436:1 1456:1 1465:1 1490:1 1496:1 1508:1 1511:1 1516:1 1530:1 1563:1 1594:1 1636:1 1669:1 1677:1 1696:1 1703:1 1759:1 1769:1 1850:1 1857:1 1858:1 1897:1 1909:1 1947:1 1998:1 2032:1 2062:1 2065:1 2069:1 2079:1 2227:1 2238:1 2362:1 2391:1 2406:1 2410:1 2495:1 2531:1 2560:1 2608:1 2734:1 2775:1 2837:1 2909:1 2921:1 3044:1 3098:1 3208:1 3242:1 3297:1 3342:1 3460:1 3600:1 3626:1 3690:1 3719:1 3857:1 3910:1 3918:1 3919:1 3983:1 4002:1 4017:1 4020:1 4068:1 4119:1 4256:1 4328:1 4515:1 4567:1 4593:1 4754:1 4863:1 4868:1 4938:1 5146:1 5181:1 5228:1 5357:1 5599:1 5730:1 5820:1 6104:1 6121:1 6179:1 6189:1 6216:1 6340:1 6396:1 6558:1 6614:1 6635:1 6691:1 6922:1 7171:1 7177:1 7198:1 7222:1 7317:1 7383:1 7514:1 7640:1 7735:1 7768:1 7839:1 7956:1 7981:1 8179:1 8266:1 8365:1 8393:1 8990:1 9011:1 9169:1 9216:1 9232:1 9287:1 9291:1 9399:1 9450:1 9485:1 9646:1 9802:1 9928:1 10037:1 10194:1 10207:1 10288:1 10371:1 10866:1 #
0.0036197527426470861404428358554242 1:1 6:1 8:1 11:1 12:1 14:1 18:1 19:1 20:1 24:1 31:1 33:1 44:1 57:1 60:1 62:1 81:1 83:1 112:1 124:1 127:1 129:1 131:1 132:1 155:1 162:1 167:1 174:1 188:1 211:1 226:1 248:1 250:1 267:1 294:1 301:1 325:1 329:1 335:1 339:1 344:1 368:1 371:1 433:1 452:1 464:1 474:1 482:1 501:1 512:1 545:1 553:1 566:1 585:1 586:1 593:1 595:1 601:1 609:1 610:1 626:1 678:1 691:1 697:1 715:1 749:1 770:1 789:1 830:1 847:1 904:1 932:1 943:1 999:1 1009:1 1040:1 1043:1 1091:1 1136:1 1175:1 1213:1 1285:1 1288:1 1342:1 1402:1 1464:1 1466:1 1469:1 1542:1 1558:1 1707:1 1814:1 1840:1 1841:1 1873:1 2122:1 2132:1 2203:1 2208:1 2216:1 2282:1 2420:1 2653:1 2742:1 2824:1 2907:1 3100:1 3140:1 3201:1 3243:1 3254:1 3501:1 3667:1 3894:1 4003:1 4089:1 4317:1 4747:1 4856:1 4943:1 5469:1 5605:1 5669:1 5711:1 6087:1 6171:1 6613:1 6786:1 7078:1 7502:1 7549:1 7951:1 8134:1 8251:1 8568:1 8717:1 8890:1 8963:1 9027:1 9217:1 9330:1 9567:1 9784:1 9982:1 10092:1 10164:1 10455:1 11028:1 #
0.0036197527426470861404428358554242 1:1 2:1 3:1 6:1 8:1 12:1 13:1 14:1 15:1 17:1 20:1 23:1 27:1 30:1 39:1 49:1 56:1 58:1 65:1 69:1 74:1 78:1 82:1 95:1 96:1 101:1 106:1 107:1 113:1 140:1 147:1 152:1 162:1 190:1 209:1 210:1 222:1 241:1 254:1 270:1 272:1 276:1 278:1 282:1 288:1 293:1 318:1 357:1 373:1 390:1 410:1 420:1 422:1 423:1 430:1 447:1 474:1 475:1 498:1 518:1 527:1 566:1 605:1 675:1 687:1 701:1 716:1 817:1 829:1 931:1 943:1 986:1 1055:1 1076:1 1100:1 1143:1 1195:1 1238:1 1258:1 1282:1 1317:1 1339:1 1344:1 1401:1 1446:1 1522:1 1536:1 1554:1 1610:1 1634:1 1700:1 1817:1 1845:1 1931:1 1958:1 1982:1 2015:1 2073:1 2128:1 2138:1 2154:1 2251:1 2275:1 2354:1 2439:1 2615:1 2793:1 2814:1 2897:1 2975:1 3006:1 3078:1 3194:1 3201:1 3274:1 3360:1 3529:1 3547:1 3609:1 3628:1 3773:1 4129:1 4189:1 4209:1 4248:1 4371:1 4382:1 4426:1 4464:1 4520:1 4744:1 4855:1 5044:1 5242:1 5458:1 5496:1 5498:1 5675:1 6134:1 6272:1 6438:1 7107:1 7250:1 7400:1 7515:1 7749:1 7826:1 7877:1 7989:1 8045:1 8169:1 8502:1 8753:1 9094:1 9140:1 9693:1 9760:1 9819:1 10472:1 10513:1 #
0.003068454608016544203630271425709 3:1 6:1 8:1 9:1 11:1 12:1 13:1 14:1 15:1 18:1 21:1 22:1 23:1 26:1 27:1 28:1 31:1 32:1 37:1 44:1 46:1 47:1 48:1 49:1 50:1 52:1 58:1 60:1 61:1 62:1 66:1 67:1 70:1 71:1 74:1 75:1 76:1 79:1 80:1 81:1 84:1 89:1 95:1 103:1 105:1 106:1 111:1 113:1 121:1 129:1 131:1 133:1 134:1 139:1 151:1 152:1 160:1 161:1 162:1 166:1 181:1 183:1 184:1 188:1 192:1 193:1 197:1 203:1 209:1 213:1 219:1 223:1 224:1 230:1 253:1 262:1 274:1 284:1 289:1 293:1 302:1 304:1 316:1 338:1 342:1 347:1 348:1 350:1 354:1 359:1 363:1 396:1 397:1 402:1 420:1 422:1 435:1 446:1 454:1 462:1 468:1 470:1 482:1 483:1 488:1 506:1 509:1 511:1 517:1 540:1 544:1 555:1 579:1 615:1 619:1 627:1 632:1 650:1 652:1 666:1 668:1 674:1 688:1 690:1 699:1 721:1 722:1 726:1 732:1 735:1 744:1 747:1 749:1 763:1 765:1 771:1 797:1 816:1 824:1 840:1 845:1 846:1 879:1 913:1 916:1 922:1 940:1 945:1 951:1 968:1 978:1 980:1 986:1 989:1 998:1 1022:1 1043:1 1070:1 1098:1 1117:1 1123:1 1143:1 1168:1 1187:1 1190:1 1320:1 1334:1 1337:1 1338:1 1350:1 1390:1 1397:1 1433:1 1461:1 1502:1 1515:1 1516:1 1528:1 1552:1 1576:1 1622:1 1660:1 1697:1 1737:1 1793:1 1794:1 1832:1 1881:1 1897:1 1921:1 1944:1 2012:1 2057:1 2098:1 2107:1 2129:1 2130:1 2156:1 2186:1 2207:1 2270:1 2297:1 2298:1 2300:1 2328:1 2351:1 2416:1 2419:1 2458:1 2496:1 2524:1 2553:1 2634:1 2722:1 2725:1 2735:1 2762:1 2770:1 2792:1 2859:1 2893:1 2901:1 2917:1 2947:1 3145:1 3154:1 3242:1 3257:1 3306:1 3409:1 3421:1 3448:1 3619:1 3739:1 3800:1 3824:1 3921:1 3948:1 3992:1 4144:1 4274:1 4557:1 4571:1 4751:1 4760:1 4786:1 4797:1 4805:1 4884:1 4903:1 4993:1 5012:1 5116:1 5157:1 5182:1 5183:1 5201:1 5281:1 5316:1 5338:1 5363:1 5393:1 5453:1 5488:1 5583:1 5593:1 5612:1 5718:1 5897:1 5990:1 6175:1 6201:1 6247:1 6357:1 6513:1 6637:1 6760:1 6785:1 6873:1 6995:1 7234:1 7432:1 7479:1 7488:1 7648:1 7660:1 7712:1 7783:1 7872:1 7916:1 8055:1 8132:1 8207:1 8440:1 8507:1 8584:1 8683:1 8688:1 8771:1 8947:1 9169:1 9291:1 9475:1 9526:1 9751:1 9766:1 9813:1 9964:1 10045:1 10121:1 10385:1 10636:1 10648:1 10769:1 10796:1 10842:1 11043:1 11075:1 #
-0.00080328885885367490304886928242922 1:1 2:1 3:1 4:1 5:1 6:1 7:1 8:1 9:1 10:1 11:1 12:1 13:1 14:1 15:1 18:1 19:1 20:1 23:1 25:1 27:1 30:1 33:1 34:1 36:1 41:1 42:1 43:1 44:1 45:1 46:1 51:1 52:1 53:1 54:1 56:1 57:1 60:1 61:1 64:1 65:1 69:1 71:1 73:1 75:1 76:1 82:1 92:1 95:1 97:1 99:1 103:1 104:1 107:1 111:1 112:1 115:1 116:1 117:1 126:1 128:1 129:1 135:1 137:1 150:1 153:1 154:1 156:1 162:1 167:1 170:1 171:1 174:1 180:1 181:1 189:1 193:1 195:1 201:1 209:1 213:1 215:1 225:1 226:1 231:1 232:1 234:1 241:1 245:1 259:1 266:1 273:1 276:1 281:1 290:1 309:1 314:1 329:1 336:1 340:1 345:1 347:1 349:1 351:1 356:1 366:1 382:1 391:1 397:1 404:1 414:1 416:1 445:1 451:1 479:1 482:1 494:1 505:1 507:1 510:1 516:1 524:1 532:1 536:1 538:1 540:1 545:1 548:1 549:1 551:1 555:1 558:1 563:1 585:1 592:1 605:1 611:1 613:1 616:1 618:1 620:1 622:1 623:1 626:1 628:1 630:1 637:1 638:1 649:1 650:1 659:1 662:1 688:1 706:1 720:1 747:1 750:1 771:1 824:1 837:1 863:1 879:1 899:1 934:1 948:1 949:1 954:1 955:1 967:1 970:1 991:1 994:1 1014:1 1020:1 1044:1 1058:1 1059:1 1064:1 1076:1 1079:1 1097:1 1106:1 1132:1 1143:1 1151:1 1152:1 1158:1 1176:1 1210:1 1239:1 1250:1 1259:1 1268:1 1273:1 1296:1 1300:1 1328:1 1337:1 1353:1 1361:1 1367:1 1374:1 1376:1 1390:1 1396:1 1425:1 1428:1 1436:1 1501:1 1502:1 1516:1 1547:1 1551:1 1557:1 1559:1 1560:1 1581:1 1588:1 1597:1 1599:1 1605:1 1653:1 1661:1 1666:1 1688:1 1695:1 1699:1 1727:1 1776:1 1818:1 1859:1 1892:1 1894:1 1903:1 1914:1 1955:1 1968:1 1981:1 1986:1 2007:1 2011:1 2022:1 2033:1 2040:1 2043:1 2068:1 2072:1 2091:1 2100:1 2148:1 2163:1 2169:1 2194:1 2210:1 2226:1 2229:1 2235:1 2237:1 2254:1 2265:1 2321:1 2329:1 2389:1 2390:1 2425:1 2437:1 2447:1 2480:1 2596:1 2622:1 2627:1 2709:1 2716:1 2752:1 2765:1 2782:1 2805:1 2873:1 2883:1 2895:1 2897:1 2922:1 2960:1 3114:1 3126:1 3215:1 3231:1 3261:1 3284:1 3322:1 3329:1 3337:1 3431:1 3455:1 3497:1 3514:1 3520:1 3523:1 3537:1 3553:1 3575:1 3583:1 3613:1 3619:1 3685:1 3722:1 3724:1 3761:1 3762:1 3855:1 4037:1 4066:1 4093:1 4132:1 4137:1 4186:1 4194:1 4288:1 4306:1 4329:1 4341:1 4395:1 4424:1 4541:1 4567:1 4662:1 4723:1 4759:1 4764:1 4857:1 4881:1 4919:1 4965:1 4979:1 5142:1 5245:1 5383:1 5453:1 5479:1 5550:1 5610:1 5618:1 5701:1 5756:1 5782:1 5789:1 5811:1 5827:1 5832:1 5841:1 5913:1 6010:1 6144:1 6149:1 6274:1 6418:1 6489:1 6575:1 6690:1 6697:1 6702:1 6807:1 6818:1 6927:1 6951:1 6969:1 7083:1 7115:1 7154:1 7159:1 7164:1 7258:1 7261:1 7267:1 7283:1 7288:1 7319:1 7405:1 7688:1 7756:1 7819:1 7835:1 7841:1 7873:1 7879:1 7916:1 7919:1 7924:1 7925:1 7931:1 8208:1 8369:1 8372:1 8558:1 8590:1 8708:1 8753:1 8794:1 8888:1 8894:1 8909:1 8995:1 9088:1 9108:1 9270:1 9382:1 9407:1 9409:1 9434:1 9438:1 9509:1 9815:1 9883:1 9972:1 10045:1 10138:1 10175:1 10242:1 10340:1 10452:1 10497:1 10534:1 10552:1 10617:1 10685:1 10870:1 11059:1 11066:1 #
-0.00060153180085681357512628064654336 1:1 2:1 3:1 4:1 5:1 6:1 7:1 8:1 9:1 10:1 11:1 15:1 17:1 18:1 20:1 21:1 22:1 23:1 27:1 31:1 33:1 34:1 35:1 44:1 48:1 51:1 52:1 57:1 58:1 62:1 64:1 66:1 67:1 71:1 74:1 75:1 76:1 82:1 87:1 90:1 93:1 95:1 100:1 102:1 103:1 105:1 106:1 107:1 109:1 111:1 112:1 114:1 117:1 118:1 127:1 133:1 137:1 138:1 146:1 148:1 150:1 155:1 157:1 158:1 159:1 162:1 165:1 167:1 169:1 170:1 171:1 175:1 186:1 192:1 196:1 201:1 202:1 211:1 213:1 219:1 223:1 226:1 231:1 232:1 234:1 235:1 242:1 243:1 250:1 256:1 260:1 279:1 285:1 289:1 291:1 293:1 296:1 297:1 315:1 317:1 320:1 325:1 333:1 342:1 347:1 354:1 366:1 371:1 373:1 384:1 405:1 407:1 425:1 440:1 447:1 454:1 457:1 460:1 468:1 470:1 471:1 474:1 485:1 493:1 500:1 510:1 516:1 523:1 526:1 530:1 549:1 556:1 572:1 585:1 593:1 596:1 625:1 626:1 627:1 632:1 633:1 651:1 668:1 676:1 677:1 679:1 695:1 705:1 712:1 717:1 748:1 758:1 761:1 778:1 807:1 811:1 817:1 824:1 832:1 834:1 836:1 838:1 850:1 854:1 858:1 877:1 891:1 896:1 923:1 936:1 944:1 960:1 989:1 1025:1 1027:1 1032:1 1075:1 1076:1 1078:1 1087:1 1143:1 1172:1 1178:1 1199:1 1201:1 1210:1 1214:1 1220:1 1246:1 1248:1 1255:1 1298:1 1332:1 1345:1 1443:1 1477:1 1487:1 1548:1 1570:1 1588:1 1622:1 1690:1 1727:1 1749:1 1763:1 1778:1 1788:1 1789:1 1793:1 1811:1 1824:1 1884:1 1892:1 1937:1 1970:1 2007:1 2016:1 2020:1 2068:1 2079:1 2081:1 2083:1 2085:1 2100:1 2114:1 2119:1 2124:1 2130:1 2152:1 2164:1 2223:1 2229:1 2235:1 2250:1 2270:1 2299:1 2311:1 2377:1 2398:1 2401:1 2451:1 2509:1 2583:1 2600:1 2623:1 2626:1 2627:1 2631:1 2643:1 2645:1 2682:1 2725:1 2767:1 2797:1 2808:1 2813:1 2832:1 2865:1 2879:1 2959:1 3030:1 3036:1 3042:1 3119:1 3154:1 3194:1 3228:1 3230:1 3239:1 3254:1 3288:1 3335:1 3409:1 3412:1 3461:1 3725:1 3737:1 3804:1 3819:1 3861:1 3876:1 3908:1 3946:1 3950:1 3973:1 4005:1 4021:1 4067:1 4079:1 4155:1 4194:1 4288:1 4306:1 4316:1 4455:1 4483:1 4488:1 4511:1 4527:1 4553:1 4572:1 4608:1 4611:1 4659:1 4725:1 4845:1 4963:1 5011:1 5015:1 5031:1 5051:1 5172:1 5278:1 5336:1 5342:1 5410:1 5426:1 5461:1 5522:1 5562:1 5577:1 5583:1 5610:1 5616:1 5643:1 5710:1 5711:1 5721:1 5789:1 5826:1 5832:1 5863:1 5939:1 5958:1 5984:1 6234:1 6259:1 6260:1 6357:1 6460:1 6487:1 6515:1 6688:1 6815:1 6894:1 7097:1 7154:1 7192:1 7216:1 7261:1 7550:1 7587:1 7876:1 7927:1 7950:1 8044:1 8052:1 8260:1 8380:1 8382:1 8534:1 8650:1 8714:1 8796:1 8802:1 8828:1 8944:1 8948:1 8952:1 8959:1 8999:1 9007:1 9061:1 9064:1 9173:1 9232:1 9239:1 9257:1 9306:1 9310:1 9413:1 9568:1 9661:1 9785:1 9843:1 9883:1 10158:1 10214:1 10476:1 10553:1 10572:1 10617:1 10729:1 10730:1 10794:1 #
-0.00042023453873957824621782064511422 1:1 2:1 3:1 4:1 5:1 6:1 7:1 8:1 9:1 11:1 13:1 17:1 19:1 21:1 22:1 26:1 27:1 28:1 29:1 30:1 31:1 32:1 37:1 38:1 39:1 40:1 43:1 44:1 45:1 46:1 50:1 51:1 56:1 60:1 61:1 64:1 65:1 69:1 75:1 77:1 80:1 89:1 90:1 93:1 102:1 106:1 108:1 109:1 112:1 113:1 114:1 115:1 117:1 118:1 120:1 122:1 124:1 127:1 130:1 131:1 133:1 135:1 144:1 147:1 150:1 152:1 154:1 162:1 167:1 171:1 179:1 182:1 187:1 188:1 196:1 200:1 205:1 207:1 214:1 219:1 223:1 244:1 250:1 252:1 255:1 268:1 272:1 281:1 282:1 291:1 293:1 294:1 300:1 301:1 315:1 324:1 332:1 334:1 335:1 339:1 347:1 351:1 364:1 366:1 371:1 378:1 387:1 389:1 390:1 391:1 392:1 407:1 414:1 419:1 422:1 442:1 447:1 459:1 461:1 462:1 464:1 467:1 470:1 474:1 475:1 485:1 490:1 495:1 507:1 519:1 562:1 595:1 600:1 625:1 626:1 627:1 632:1 638:1 640:1 656:1 674:1 677:1 681:1 682:1 686:1 748:1 754:1 761:1 765:1 778:1 782:1 811:1 813:1 844:1 864:1 876:1 904:1 919:1 922:1 960:1 978:1 981:1 994:1 996:1 1009:1 1013:1 1017:1 1031:1 1039:1 1072:1 1097:1 1109:1 1120:1 1130:1 1145:1 1158:1 1171:1 1186:1 1198:1 1233:1 1241:1 1289:1 1312:1 1316:1 1320:1 1345:1 1380:1 1405:1 1438:1 1519:1 1535:1 1549:1 1559:1 1565:1 1591:1 1609:1 1615:1 1622:1 1637:1 1648:1 1657:1 1666:1 1667:1 1682:1 1688:1 1695:1 1697:1 1727:1 1757:1 1759:1 1761:1 1787:1 1788:1 1798:1 1846:1 1865:1 1908:1 1935:1 1939:1 1951:1 1973:1 1985:1 2007:1 2036:1 2113:1 2123:1 2135:1 2171:1 2196:1 2222:1 2257:1 2283:1 2399:1 2412:1 2484:1 2509:1 2546:1 2593:1 2630:1 2650:1 2715:1 2722:1 2745:1 2763:1 2826:1 2855:1 2868:1 2874:1 2895:1 2898:1 2966:1 2982:1 3125:1 3134:1 3136:1 3169:1 3194:1 3214:1 3237:1 3238:1 3288:1 3314:1 3317:1 3432:1 3451:1 3463:1 3505:1 3534:1 3562:1 3605:1 3619:1 3627:1 3628:1 3728:1 3737:1 3740:1 3780:1 3891:1 3913:1 3917:1 3932:1 3937:1 3944:1 3967:1 4078:1 4092:1 4096:1 4135:1 4187:1 4253:1 4339:1 4522:1 4558:1 4563:1 4578:1 4730:1 4901:1 4939:1 5010:1 5062:1 5111:1 5235:1 5295:1 5309:1 5316:1 5405:1 5531:1 5583:1 5627:1 5695:1 5918:1 5934:1 5955:1 5966:1 5970:1 6116:1 6146:1 6226:1 6243:1 6368:1 6445:1 6622:1 6732:1 6807:1 6819:1 7100:1 7143:1 7193:1 7348:1 7405:1 7579:1 7597:1 7687:1 7776:1 7783:1 7894:1 7916:1 7965:1 7988:1 8132:1 8160:1 8173:1 8291:1 8312:1 8342:1 8523:1 8534:1 8730:1 8767:1 8784:1 8906:1 9022:1 9089:1 9144:1 9157:1 9168:1 9198:1 9219:1 9251:1 9385:1 9626:1 9748:1 9751:1 9801:1 9896:1 10136:1 10280:1 10355:1 10422:1 10674:1 10790:1 10823:1 10944:1 10962:1 10995:1 11064:1 #
-0.00017685036591034094285816713476578 1:1 2:1 3:1 4:1 5:1 6:1 7:1 8:1 9:1 10:1 11:1 15:1 17:1 18:1 20:1 21:1 22:1 23:1 26:1 27:1 29:1 31:1 33:1 35:1 37:1 41:1 43:1 44:1 51:1 52:1 55:1 60:1 64:1 67:1 69:1 71:1 74:1 75:1 76:1 79:1 81:1 82:1 88:1 92:1 95:1 97:1 99:1 104:1 108:1 109:1 114:1 115:1 117:1 118:1 120:1 121:1 124:1 132:1 133:1 137:1 144:1 150:1 152:1 156:1 159:1 162:1 166:1 167:1 172:1 175:1 182:1 188:1 198:1 218:1 219:1 221:1 223:1 226:1 231:1 233:1 256:1 260:1 261:1 263:1 265:1 274:1 287:1 294:1 300:1 302:1 342:1 343:1 345:1 347:1 349:1 356:1 362:1 366:1 370:1 371:1 373:1 389:1 394:1 396:1 408:1 414:1 420:1 431:1 433:1 440:1 445:1 456:1 468:1 472:1 490:1 497:1 507:1 510:1 511:1 513:1 521:1 527:1 528:1 536:1 545:1 561:1 597:1 600:1 610:1 615:1 633:1 651:1 652:1 654:1 673:1 679:1 680:1 686:1 688:1 692:1 714:1 721:1 726:1 750:1 755:1 758:1 812:1 813:1 826:1 845:1 900:1 908:1 914:1 932:1 942:1 952:1 954:1 978:1 985:1 987:1 997:1 998:1 1000:1 1014:1 1027:1 1040:1 1044:1 1052:1 1094:1 1097:1 1120:1 1143:1 1171:1 1190:1 1194:1 1224:1 1266:1 1269:1 1295:1 1298:1 1299:1 1311:1 1345:1 1438:1 1465:1 1468:1 1476:1 1493:1 1496:1 1529:1 1543:1 1546:1 1549:1 1581:1 1670:1 1672:1 1695:1 1699:1 1727:1 1737:1 1740:1 1776:1 1802:1 1808:1 1846:1 1892:1 1905:1 1935:1 1949:1 1962:1 1999:1 2007:1 2040:1 2068:1 2100:1 2114:1 2120:1 2130:1 2146:1 2168:1 2196:1 2214:1 2229:1 2233:1 2234:1 2235:1 2236:1 2255:1 2266:1 2279:1 2344:1 2363:1 2375:1 2427:1 2450:1 2459:1 2491:1 2507:1 2509:1 2516:1 2584:1 2593:1 2595:1 2622:1 2624:1 2627:1 2662:1 2706:1 2725:1 2747:1 2797:1 2807:1 2825:1 2874:1 2905:1 2922:1 2975:1 2986:1 3029:1 3094:1 3148:1 3178:1 3218:1 3263:1 3278:1 3296:1 3316:1 3322:1 3372:1 3392:1 3397:1 3426:1 3438:1 3439:1 3455:1 3492:1 3520:1 3539:1 3540:1 3562:1 3568:1 3654:1 3666:1 3745:1 3805:1 3806:1 3839:1 3843:1 3847:1 3873:1 3972:1 4071:1 4094:1 4161:1 4175:1 4201:1 4210:1 4215:1 4220:1 4288:1 4291:1 4295:1 4306:1 4308:1 4352:1 4367:1 4458:1 4467:1 4635:1 4641:1 4654:1 4793:1 4830:1 4831:1 4908:1 4913:1 4918:1 5007:1 5029:1 5110:1 5188:1 5229:1 5342:1 5345:1 5438:1 5459:1 5544:1 5580:1 5631:1 5645:1 5751:1 5789:1 5832:1 5836:1 5855:1 5918:1 5993:1 6032:1 6100:1 6133:1 6149:1 6211:1 6271:1 6292:1 6328:1 6366:1 6370:1 6460:1 6580:1 6594:1 6640:1 6766:1 6914:1 6933:1 6975:1 7018:1 7154:1 7261:1 7288:1 7336:1 7474:1 7514:1 7536:1 7617:1 7678:1 7778:1 8016:1 8068:1 8150:1 8605:1 8714:1 8861:1 8887:1 8952:1 9040:1 9103:1 9198:1 9367:1 9440:1 9529:1 9586:1 9690:1 9778:1 9784:1 9989:1 10019:1 10121:1 10245:1 10268:1 10349:1 10495:1 10615:1 10646:1 10717:1 10838:1 11052:1 11059:1 #
-0.0036197527426470861404428358554242 1:1 2:1 3:1 4:1 5:1 6:1 7:1 13:1 14:1 15:1 18:1 20:1 24:1 26:1 31:1 36:1 38:1 40:1 41:1 42:1 45:1 46:1 51:1 53:1 56:1 59:1 61:1 62:1 64:1 66:1 72:1 75:1 78:1 81:1 82:1 91:1 97:1 98:1 100:1 102:1 107:1 111:1 114:1 116:1 120:1 132:1 133:1 135:1 136:1 139:1 147:1 148:1 158:1 160:1 162:1 167:1 178:1 183:1 194:1 205:1 211:1 219:1 222:1 225:1 228:1 229:1 246:1 282:1 299:1 309:1 341:1 347:1 348:1 350:1 354:1 366:1 379:1 382:1 384:1 388:1 389:1 391:1 396:1 397:1 400:1 420:1 428:1 441:1 476:1 493:1 494:1 495:1 535:1 543:1 554:1 573:1 577:1 592:1 615:1 653:1 658:1 659:1 664:1 666:1 686:1 692:1 697:1 700:1 723:1 747:1 767:1 784:1 794:1 811:1 830:1 846:1 864:1 897:1 909:1 928:1 930:1 968:1 972:1 994:1 999:1 1137:1 1168:1 1196:1 1212:1 1239:1 1293:1 1297:1 1301:1 1333:1 1334:1 1433:1 1494:1 1514:1 1630:1 1639:1 1658:1 1675:1 1683:1 1735:1 1741:1 1747:1 1773:1 1782:1 1802:1 1815:1 1898:1 1925:1 1964:1 1983:1 2029:1 2060:1 2063:1 2065:1 2144:1 2299:1 2361:1 2395:1 2613:1 2910:1 2939:1 2977:1 2989:1 3152:1 3168:1 3563:1 3870:1 3874:1 3968:1 3987:1 4016:1 4058:1 4119:1 4121:1 4172:1 4314:1 4359:1 4387:1 4475:1 4650:1 4688:1 4937:1 4981:1 5069:1 5281:1 5302:1 5438:1 5496:1 5497:1 5526:1 5593:1 5595:1 5671:1 5697:1 5734:1 5820:1 5837:1 5895:1 5944:1 5996:1 6088:1 6113:1 6386:1 6428:1 6448:1 6971:1 7062:1 7329:1 7460:1 7558:1 7742:1 7806:1 7811:1 8031:1 8441:1 8867:1 8959:1 9217:1 9449:1 9474:1 9522:1 9596:1 9785:1 10058:1 10342:1 10403:1 10726:1 10748:1 10901:1 10930:1 10962:1 11063:1 #
0.001481852603560859793496717884409 1:1 2:1 3:1 4:1 5:1 6:1 7:1 8:1 10:1 11:1 12:1 13:1 14:1 15:1 16:1 17:1 19:1 20:1 21:1 22:1 23:1 25:1 26:1 27:1 28:1 29:1 30:1 32:1 33:1 34:1 35:1 37:1 38:1 39:1 40:1 41:1 42:1 43:1 45:1 46:1 47:1 48:1 49:1 50:1 51:1 52:1 53:1 54:1 55:1 56:1 57:1 58:1 59:1 61:1 64:1 65:1 67:1 68:1 71:1 72:1 73:1 74:1 77:1 78:1 81:1 82:1 83:1 85:1 86:1 88:1 89:1 90:1 93:1 95:1 96:1 99:1 100:1 101:1 102:1 104:1 105:1 107:1 108:1 110:1 112:1 114:1 116:1 118:1 120:1 122:1 124:1 125:1 127:1 128:1 129:1 130:1 135:1 139:1 140:1 142:1 146:1 148:1 149:1 151:1 153:1 157:1 158:1 163:1 173:1 174:1 178:1 179:1 183:1 184:1 187:1 189:1 196:1 197:1 199:1 202:1 203:1 204:1 209:1 210:1 212:1 214:1 216:1 221:1 227:1 228:1 230:1 232:1 236:1 237:1 239:1 240:1 243:1 246:1 258:1 262:1 265:1 266:1 267:1 272:1 274:1 276:1 277:1 282:1 288:1 291:1 293:1 294:1 296:1 313:1 318:1 324:1 328:1 331:1 332:1 334:1 335:1 337:1 339:1 343:1 353:1 356:1 357:1 358:1 363:1 367:1 368:1 373:1 375:1 381:1 382:1 383:1 391:1 393:1 395:1 396:1 400:1 404:1 407:1 408:1 409:1 412:1 419:1 426:1 427:1 437:1 452:1 456:1 463:1 467:1 471:1 478:1 479:1 481:1 484:1 488:1 492:1 497:1 499:1 502:1 505:1 518:1 521:1 524:1 533:1 535:1 538:1 544:1 546:1 547:1 552:1 556:1 561:1 570:1 576:1 587:1 594:1 597:1 598:1 602:1 607:1 608:1 616:1 620:1 621:1 625:1 628:1 629:1 637:1 640:1 642:1 645:1 648:1 668:1 672:1 674:1 675:1 686:1 689:1 691:1 693:1 708:1 713:1 729:1 736:1 745:1 748:1 751:1 752:1 753:1 764:1 765:1 766:1 768:1 773:1 777:1 798:1 800:1 802:1 808:1 809:1 810:1 819:1 821:1 822:1 828:1 837:1 840:1 860:1 863:1 897:1 905:1 910:1 911:1 922:1 924:1 931:1 934:1 937:1 945:1 949:1 970:1 974:1 975:1 982:1 987:1 992:1 994:1 995:1 996:1 1026:1 1032:1 1053:1 1067:1 1077:1 1099:1 1118:1 1132:1 1137:1 1138:1 1141:1 1156:1 1164:1 1171:1 1189:1 1199:1 1210:1 1220:1 1225:1 1242:1 1254:1 1264:1 1281:1 1294:1 1296:1 1317:1 1321:1 1329:1 1331:1 1344:1 1347:1 1366:1 1370:1 1372:1 1373:1 1377:1 1392:1 1398:1 1408:1 1411:1 1412:1 1421:1 1422:1 1427:1 1444:1 1453:1 1454:1 1461:1 1463:1 1472:1 1473:1 1475:1 1477:1 1497:1 1505:1 1509:1 1518:1 1524:1 1539:1 1541:1 1555:1 1580:1 1584:1 1585:1 1595:1 1599:1 1608:1 1615:1 1629:1 1630:1 1634:1 1647:1 1655:1 1667:1 1681:1 1701:1 1711:1 1713:1 1714:1 1730:1 1736:1 1759:1 1784:1 1790:1 1798:1 1805:1 1811:1 1836:1 1842:1 1873:1 1875:1 1884:1 1915:1 1930:1 1937:1 1947:1 1962:1 1971:1 1983:1 1984:1 1993:1 1998:1 2001:1 2014:1 2050:1 2078:1 2092:1 2118:1 2131:1 2138:1 2158:1 2168:1 2169:1 2175:1 2176:1 2189:1 2197:1 2198:1 2202:1 2212:1 2224:1 2244:1 2278:1 2288:1 2337:1 2372:1 2391:1 2426:1 2445:1 2447:1 2453:1 2467:1 2489:1 2504:1 2517:1 2526:1 2558:1 2568:1 2578:1 2626:1 2633:1 2654:1 2657:1 2663:1 2669:1 2705:1 2724:1 2737:1 2739:1 2751:1 2772:1 2804:1 2827:1 2851:1 2858:1 2884:1 2908:1 2940:1 2993:1 2998:1 3047:1 3051:1 3069:1 3075:1 3096:1 3111:1 3158:1 3196:1 3232:1 3251:1 3372:1 3409:1 3411:1 3413:1 3453:1 3489:1 3499:1 3531:1 3551:1 3608:1 3612:1 3659:1 3672:1 3712:1 3733:1 3740:1 3753:1 3782:1 3806:1 3814:1 3818:1 3822:1 3844:1 3849:1 3869:1 3875:1 3935:1 3977:1 3997:1 4004:1 4033:1 4109:1 4126:1 4128:1 4145:1 4175:1 4191:1 4217:1 4223:1 4241:1 4249:1 4252:1 4270:1 4292:1 4301:1 4336:1 4348:1 4381:1 4396:1 4410:1 4439:1 4465:1 4538:1 4587:1 4595:1 4621:1 4655:1 4693:1 4699:1 4776:1 4782:1 4809:1 4852:1 4869:1 4880:1 4908:1 4909:1 4916:1 4977:1 4992:1 5041:1 5043:1 5117:1 5132:1 5136:1 5229:1 5244:1 5258:1 5262:1 5306:1 5397:1 5429:1 5472:1 5478:1 5496:1 5526:1 5560:1 5631:1 5695:1 5713:1 5720:1 5740:1 5780:1 5825:1 5905:1 5955:1 5989:1 5993:1 6013:1 6067:1 6079:1 6102:1 6132:1 6162:1 6198:1 6241:1 6288:1 6290:1 6314:1 6346:1 6354:1 6389:1 6436:1 6468:1 6469:1 6485:1 6542:1 6619:1 6759:1 6771:1 6885:1 6905:1 6937:1 6988:1 7020:1 7082:1 7110:1 7112:1 7145:1 7165:1 7206:1 7229:1 7231:1 7271:1 7353:1 7394:1 7423:1 7426:1 7526:1 7564:1 7604:1 7605:1 7618:1 7650:1 7704:1 7850:1 7944:1 8026:1 8052:1 8056:1 8094:1 8118:1 8233:1 8278:1 8297:1 8322:1 8346:1 8445:1 8450:1 8516:1 8517:1 8577:1 8582:1 8614:1 8640:1 8665:1 8737:1 8793:1 8794:1 8917:1 8922:1 8937:1 8977:1 9005:1 9287:1 9289:1 9370:1 9402:1 9423:1 9440:1 9443:1 9483:1 9549:1 9657:1 9684:1 9810:1 9839:1 10046:1 10076:1 10180:1 10191:1 10354:1 10378:1 10546:1 10623:1 10733:1 10805:1 10963:1 11063:1 11084:1 #
0.0011599598885061140722541050962491 1:1 2:1 3:1 4:1 5:1 6:1 7:1 8:1 9:1 10:1 11:1 12:1 13:1 14:1 16:1 19:1 21:1 22:1 23:1 24:1 25:1 27:1 28:1 29:1 32:1 33:1 35:1 36:1 37:1 38:1 39:1 40:1 41:1 42:1 43:1 44:1 45:1 46:1 47:1 48:1 49:1 50:1 52:1 54:1 55:1 57:1 58:1 60:1 61:1 62:1 64:1 66:1 67:1 68:1 69:1 70:1 71:1 72:1 74:1 78:1 84:1 86:1 87:1 89:1 92:1 93:1 95:1 98:1 101:1 102:1 110:1 111:1 112:1 113:1 114:1 115:1 116:1 120:1 122:1 124:1 126:1 127:1 128:1 130:1 131:1 132:1 133:1 134:1 136:1 139:1 140:1 141:1 142:1 145:1 147:1 151:1 152:1 153:1 154:1 157:1 160:1 161:1 172:1 176:1 181:1 184:1 193:1 194:1 196:1 198:1 204:1 205:1 210:1 214:1 219:1 228:1 236:1 243:1 245:1 252:1 255:1 258:1 262:1 267:1 270:1 277:1 278:1 279:1 280:1 287:1 289:1 295:1 296:1 299:1 301:1 307:1 308:1 309:1 310:1 312:1 313:1 316:1 320:1 328:1 331:1 341:1 347:1 349:1 350:1 359:1 361:1 365:1 367:1 371:1 377:1 390:1 394:1 399:1 404:1 408:1 423:1 434:1 441:1 448:1 449:1 451:1 454:1 457:1 462:1 470:1 472:1 474:1 480:1 481:1 482:1 485:1 488:1 490:1 493:1 494:1 503:1 508:1 509:1 514:1 533:1 541:1 546:1 564:1 568:1 572:1 576:1 578:1 585:1 587:1 589:1 593:1 594:1 596:1 611:1 621:1 629:1 632:1 644:1 646:1 648:1 654:1 656:1 661:1 669:1 682:1 684:1 687:1 696:1 698:1 719:1 723:1 727:1 731:1 732:1 737:1 779:1 792:1 796:1 803:1 815:1 816:1 822:1 823:1 825:1 828:1 839:1 841:1 852:1 856:1 863:1 867:1 868:1 870:1 872:1 888:1 889:1 894:1 895:1 898:1 901:1 904:1 914:1 915:1 916:1 920:1 926:1 930:1 938:1 940:1 951:1 956:1 958:1 966:1 998:1 1009:1 1011:1 1044:1 1061:1 1098:1 1114:1 1135:1 1169:1 1209:1 1235:1 1266:1 1280:1 1286:1 1294:1 1296:1 1305:1 1308:1 1322:1 1331:1 1365:1 1368:1 1410:1 1430:1 1490:1 1507:1 1515:1 1526:1 1554:1 1560:1 1568:1 1613:1 1635:1 1637:1 1671:1 1683:1 1693:1 1708:1 1733:1 1737:1 1747:1 1786:1 1812:1 1823:1 1834:1 1842:1 1864:1 1873:1 1888:1 1902:1 1913:1 1975:1 1993:1 2001:1 2045:1 2050:1 2059:1 2067:1 2078:1 2111:1 2140:1 2147:1 2148:1 2151:1 2157:1 2162:1 2169:1 2192:1 2194:1 2205:1 2212:1 2218:1 2292:1 2325:1 2329:1 2466:1 2478:1 2492:1 2510:1 2521:1 2550:1 2580:1 2594:1 2599:1 2635:1 2676:1 2686:1 2687:1 2688:1 2715:1 2718:1 2751:1 2776:1 2846:1 2847:1 2876:1 2899:1 2911:1 2967:1 2970:1 3079:1 3136:1 3173:1 3191:1 3194:1 3197:1 3205:1 3210:1 3214:1 3219:1 3285:1 3290:1 3326:1 3342:1 3357:1 3418:1 3440:1 3492:1 3519:1 3546:1 3578:1 3589:1 3594:1 3595:1 3626:1 3643:1 3645:1 3653:1 3709:1 3777:1 3787:1 3824:1 3833:1 3836:1 3850:1 3895:1 3953:1 3981:1 4027:1 4032:1 4037:1 4075:1 4118:1 4180:1 4182:1 4190:1 4204:1 4232:1 4276:1 4319:1 4330:1 4368:1 4446:1 4560:1 4566:1 4610:1 4613:1 4628:1 4651:1 4661:1 4719:1 4753:1 4767:1 4804:1 4830:1 5014:1 5158:1 5160:1 5177:1 5202:1 5281:1 5286:1 5341:1 5363:1 5384:1 5415:1 5440:1 5492:1 5582:1 5620:1 5729:1 5745:1 5776:1 5804:1 5840:1 5854:1 5914:1 5917:1 5918:1 6056:1 6075:1 6124:1 6165:1 6172:1 6174:1 6176:1 6184:1 6247:1 6312:1 6328:1 6347:1 6362:1 6431:1 6475:1 6476:1 6597:1 6671:1 6716:1 6756:1 6759:1 6825:1 6946:1 6978:1 7072:1 7229:1 7292:1 7301:1 7343:1 7348:1 7425:1 7483:1 7563:1 7777:1 7795:1 7800:1 7840:1 7896:1 7917:1 7952:1 8058:1 8082:1 8096:1 8104:1 8135:1 8195:1 8204:1 8213:1 8310:1 8321:1 8450:1 8544:1 8580:1 8581:1 8610:1 8665:1 8702:1 8723:1 8827:1 8855:1 8927:1 9014:1 9103:1 9218:1 9228:1 9264:1 9269:1 9361:1 9434:1 9451:1 9452:1 9489:1 9493:1 9602:1 9630:1 9734:1 9753:1 9780:1 9811:1 9834:1 9840:1 9861:1 9863:1 9892:1 10009:1 10011:1 10074:1 10086:1 10370:1 10420:1 10445:1 10565:1 10676:1 10766:1 10770:1 10841:1 #
0.002302446102071770400038230874884 1:1 2:1 3:1 4:1 5:1 6:1 7:1 10:1 11:1 12:1 13:1 14:1 15:1 16:1 17:1 19:1 21:1 22:1 23:1 25:1 27:1 28:1 29:1 30:1 32:1 34:1 35:1 36:1 37:1 38:1 41:1 42:1 44:1 45:1 47:1 48:1 52:1 53:1 54:1 55:1 56:1 58:1 62:1 64:1 66:1 68:1 70:1 72:1 77:1 79:1 81:1 82:1 84:1 88:1 89:1 92:1 95:1 98:1 99:1 100:1 102:1 104:1 105:1 108:1 110:1 113:1 116:1 124:1 125:1 127:1 129:1 130:1 131:1 138:1 141:1 142:1 145:1 151:1 159:1 163:1 164:1 166:1 167:1 170:1 172:1 173:1 176:1 177:1 182:1 183:1 184:1 196:1 197:1 205:1 206:1 211:1 216:1 222:1 227:1 230:1 232:1 239:1 242:1 246:1 250:1 252:1 255:1 257:1 259:1 262:1 266:1 272:1 277:1 280:1 282:1 289:1 293:1 303:1 309:1 311:1 314:1 315:1 317:1 320:1 322:1 323:1 334:1 337:1 341:1 343:1 350:1 356:1 357:1 358:1 370:1 377:1 381:1 391:1 393:1 399:1 402:1 408:1 410:1 412:1 413:1 416:1 421:1 430:1 431:1 444:1 445:1 448:1 451:1 453:1 455:1 459:1 461:1 463:1 465:1 466:1 467:1 473:1 490:1 498:1 499:1 500:1 515:1 519:1 521:1 523:1 525:1 538:1 539:1 541:1 546:1 548:1 552:1 553:1 556:1 559:1 560:1 564:1 566:1 568:1 574:1 586:1 591:1 593:1 596:1 598:1 603:1 612:1 614:1 620:1 621:1 627:1 632:1 635:1 636:1 644:1 646:1 647:1 656:1 660:1 666:1 667:1 698:1 702:1 711:1 713:1 728:1 731:1 746:1 751:1 762:1 773:1 775:1 803:1 836:1 840:1 841:1 850:1 871:1 874:1 877:1 884:1 889:1 890:1 899:1 905:1 909:1 935:1 946:1 965:1 989:1 999:1 1001:1 1005:1 1008:1 1029:1 1035:1 1052:1 1060:1 1061:1 1063:1 1073:1 1084:1 1106:1 1126:1 1130:1 1131:1 1133:1 1151:1 1155:1 1174:1 1177:1 1191:1 1199:1 1201:1 1203:1 1205:1 1219:1 1220:1 1247:1 1281:1 1290:1 1296:1 1297:1 1300:1 1355:1 1368:1 1376:1 1380:1 1385:1 1394:1 1408:1 1420:1 1429:1 1445:1 1447:1 1458:1 1465:1 1474:1 1494:1 1529:1 1544:1 1561:1 1593:1 1620:1 1622:1 1637:1 1640:1 1661:1 1674:1 1680:1 1682:1 1692:1 1731:1 1736:1 1746:1 1748:1 1775:1 1787:1 1799:1 1804:1 1813:1 1814:1 1830:1 1837:1 1870:1 1880:1 1910:1 1947:1 1963:1 1974:1 1977:1 1985:1 1987:1 2003:1 2004:1 2015:1 2018:1 2023:1 2031:1 2076:1 2087:1 2088:1 2122:1 2134:1 2148:1 2182:1 2201:1 2210:1 2225:1 2232:1 2247:1 2317:1 2320:1 2325:1 2335:1 2342:1 2345:1 2355:1 2448:1 2462:1 2473:1 2489:1 2508:1 2527:1 2542:1 2552:1 2559:1 2567:1 2576:1 2701:1 2719:1 2737:1 2769:1 2801:1 2899:1 2920:1 2934:1 2942:1 3004:1 3013:1 3033:1 3054:1 3077:1 3079:1 3110:1 3119:1 3131:1 3139:1 3185:1 3198:1 3210:1 3228:1 3265:1 3275:1 3321:1 3361:1 3406:1 3410:1 3436:1 3459:1 3469:1 3492:1 3508:1 3525:1 3537:1 3580:1 3602:1 3615:1 3618:1 3672:1 3687:1 3726:1 3821:1 3829:1 3912:1 3923:1 3950:1 3978:1 4011:1 4036:1 4047:1 4099:1 4142:1 4151:1 4212:1 4214:1 4239:1 4266:1 4271:1 4332:1 4354:1 4489:1 4496:1 4551:1 4627:1 4758:1 4794:1 4831:1 4863:1 4871:1 4906:1 4926:1 4933:1 4957:1 4959:1 4971:1 4991:1 5017:1 5076:1 5136:1 5226:1 5243:1 5375:1 5381:1 5400:1 5481:1 5490:1 5494:1 5554:1 5558:1 5561:1 5599:1 5755:1 5813:1 5831:1 5902:1 5941:1 6020:1 6072:1 6102:1 6113:1 6142:1 6162:1 6210:1 6228:1 6327:1 6387:1 6419:1 6455:1 6470:1 6478:1 6535:1 6604:1 6712:1 6719:1 6756:1 6781:1 6795:1 6809:1 6811:1 7034:1 7228:1 7250:1 7300:1 7327:1 7390:1 7465:1 7499:1 7517:1 7519:1 7666:1 7749:1 7774:1 7798:1 7919:1 7922:1 7929:1 7934:1 7938:1 8088:1 8166:1 8343:1 8390:1 8402:1 8451:1 8517:1 8525:1 8697:1 8780:1 9018:1 9270:1 9272:1 9298:1 9350:1 9370:1 9437:1 9475:1 9568:1 9588:1 9592:1 9648:1 9732:1 9749:1 9840:1 9849:1 9965:1 10065:1 10230:1 10234:1 10261:1 10285:1 10361:1 10642:1 10643:1 10663:1 10741:1 10758:1 10846:1 10959:1 10964:1 11034:1 11090:1 #
0.0019230128743852417140536292805564 1:1 2:1 3:1 4:1 5:1 6:1 8:1 10:1 12:1 13:1 14:1 15:1 17:1 19:1 21:1 22:1 23:1 25:1 26:1 27:1 29:1 31:1 34:1 35:1 36:1 37:1 38:1 39:1 40:1 41:1 42:1 44:1 45:1 48:1 50:1 52:1 53:1 56:1 57:1 58:1 62:1 66:1 67:1 68:1 69:1 72:1 80:1 81:1 82:1 83:1 84:1 85:1 86:1 87:1 90:1 91:1 92:1 94:1 95:1 97:1 102:1 103:1 108:1 109:1 110:1 114:1 115:1 117:1 120:1 121:1 125:1 126:1 133:1 136:1 144:1 145:1 146:1 158:1 159:1 166:1 172:1 174:1 176:1 177:1 182:1 188:1 193:1 201:1 204:1 206:1 212:1 216:1 218:1 219:1 226:1 230:1 232:1 236:1 237:1 240:1 242:1 249:1 250:1 254:1 256:1 261:1 265:1 268:1 269:1 270:1 274:1 278:1 299:1 309:1 313:1 330:1 341:1 343:1 360:1 363:1 367:1 369:1 370:1 373:1 375:1 377:1 388:1 395:1 405:1 422:1 445:1 446:1 450:1 451:1 457:1 460:1 465:1 471:1 472:1 485:1 486:1 490:1 511:1 517:1 518:1 522:1 532:1 536:1 541:1 544:1 548:1 560:1 561:1 568:1 575:1 579:1 581:1 582:1 592:1 617:1 622:1 631:1 635:1 649:1 675:1 680:1 687:1 697:1 717:1 718:1 803:1 820:1 831:1 835:1 846:1 860:1 873:1 879:1 883:1 894:1 909:1 911:1 938:1 944:1 945:1 980:1 981:1 986:1 1003:1 1021:1 1025:1 1036:1 1038:1 1126:1 1128:1 1153:1 1155:1 1156:1 1172:1 1192:1 1210:1 1212:1 1231:1 1234:1 1241:1 1245:1 1265:1 1278:1 1279:1 1290:1 1295:1 1299:1 1302:1 1306:1 1317:1 1322:1 1327:1 1346:1 1354:1 1399:1 1403:1 1414:1 1427:1 1428:1 1448:1 1451:1 1483:1 1484:1 1492:1 1509:1 1511:1 1542:1 1548:1 1596:1 1605:1 1611:1 1623:1 1625:1 1658:1 1667:1 1683:1 1694:1 1705:1 1731:1 1747:1 1769:1 1774:1 1803:1 1804:1 1829:1 1842:1 1851:1 1852:1 1857:1 1877:1 1894:1 1895:1 1898:1 1941:1 1969:1 2009:1 2015:1 2027:1 2066:1 2069:1 2080:1 2159:1 2175:1 2176:1 2179:1 2245:1 2258:1 2261:1 2264:1 2297:1 2327:1 2354:1 2388:1 2448:1 2455:1 2458:1 2491:1 2565:1 2573:1 2608:1 2618:1 2633:1 2676:1 2679:1 2681:1 2737:1 2747:1 2751:1 2799:1 2848:1 2886:1 2899:1 2943:1 2955:1 2977:1 2988:1 3007:1 3052:1 3069:1 3129:1 3156:1 3173:1 3223:1 3260:1 3331:1 3339:1 3377:1 3389:1 3414:1 3441:1 3460:1 3462:1 3483:1 3515:1 3535:1 3554:1 3555:1 3616:1 3669:1 3734:1 3740:1 3781:1 3816:1 3825:1 3865:1 3884:1 3891:1 3950:1 3953:1 3958:1 3982:1 4033:1 4036:1 4045:1 4061:1 4105:1 4110:1 4174:1 4220:1 4275:1 4283:1 4303:1 4328:1 4360:1 4408:1 4413:1 4474:1 4475:1 4521:1 4600:1 4614:1 4642:1 4656:1 4839:1 4871:1 5035:1 5098:1 5106:1 5112:1 5127:1 5180:1 5205:1 5216:1 5238:1 5252:1 5255:1 5263:1 5319:1 5352:1 5511:1 5558:1 5597:1 5616:1 5646:1 5694:1 5768:1 5782:1 5816:1 5850:1 5910:1 5936:1 5954:1 5987:1 6012:1 6055:1 6073:1 6144:1 6224:1 6293:1 6323:1 6424:1 6673:1 6678:1 6729:1 6848:1 6890:1 6926:1 6949:1 6954:1 6975:1 7011:1 7090:1 7108:1 7242:1 7293:1 7408:1 7480:1 7559:1 7697:1 7845:1 7929:1 7932:1 8044:1 8058:1 8063:1 8080:1 8093:1 8198:1 8219:1 8294:1 8345:1 8356:1 8384:1 8433:1 8702:1 8711:1 8789:1 8843:1 8956:1 8990:1 9044:1 9149:1 9190:1 9468:1 9478:1 9487:1 9503:1 9561:1 9565:1 9576:1 9585:1 9600:1 9610:1 9695:1 9823:1 9829:1 9874:1 9885:1 9929:1 9965:1 10034:1 10035:1 10229:1 10317:1 10526:1 10565:1 10590:1 10603:1 11106:1 #
0.00056935490905054685767394673234776 1:1 2:1 3:1 4:1 5:1 6:1 7:1 8:1 9:1 10:1 11:1 12:1 13:1 14:1 15:1 16:1 17:1 18:1 19:1 21:1 22:1 23:1 24:1 25:1 26:1 27:1 28:1 29:1 30:1 31:1 33:1 34:1 35:1 36:1 37:1 38:1 39:1 41:1 42:1 43:1 44:1 45:1 48:1 50:1 51:1 52:1 53:1 54:1 55:1 56:1 57:1 58:1 59:1 60:1 63:1 65:1 66:1 69:1 73:1 74:1 75:1 76:1 77:1 78:1 81:1 82:1 83:1 84:1 90:1 91:1 93:1 94:1 96:1 100:1 108:1 109:1 111:1 113:1 114:1 115:1 116:1 118:1 119:1 120:1 127:1 128:1 130:1 132:1 133:1 138:1 143:1 144:1 146:1 147:1 148:1 151:1 152:1 154:1 155:1 157:1 165:1 166:1 167:1 169:1 170:1 172:1 176:1 179:1 183:1 184:1 186:1 190:1 191:1 196:1 198:1 199:1 201:1 203:1 204:1 210:1 213:1 215:1 217:1 219:1 221:1 223:1 225:1 226:1 227:1 232:1 233:1 234:1 236:1 237:1 245:1 246:1 250:1 254:1 257:1 259:1 263:1 266:1 268:1 269:1 271:1 275:1 276:1 279:1 280:1 287:1 288:1 289:1 294:1 299:1 302:1 305:1 308:1 312:1 313:1 318:1 319:1 320:1 321:1 324:1 328:1 330:1 331:1 334:1 336:1 342:1 344:1 351:1 356:1 357:1 358:1 359:1 360:1 362:1 368:1 378:1 383:1 385:1 387:1 390:1 393:1 398:1 400:1 403:1 404:1 409:1 412:1 422:1 436:1 445:1 450:1 453:1 455:1 462:1 472:1 473:1 485:1 488:1 494:1 513:1 518:1 523:1 525:1 531:1 535:1 536:1 537:1 545:1 548:1 555:1 566:1 568:1 576:1 585:1 588:1 593:1 598:1 602:1 603:1 607:1 609:1 610:1 632:1 633:1 654:1 657:1 660:1 661:1 670:1 681:1 687:1 705:1 708:1 711:1 712:1 726:1 742:1 744:1 753:1 764:1 766:1 769:1 770:1 773:1 774:1 802:1 804:1 805:1 808:1 814:1 815:1 819:1 820:1 825:1 832:1 836:1 838:1 842:1 854:1 859:1 866:1 868:1 874:1 889:1 899:1 931:1 935:1 939:1 961:1 974:1 995:1 1001:1 1020:1 1025:1 1029:1 1061:1 1062:1 1065:1 1094:1 1095:1 1096:1 1101:1 1103:1 1106:1 1111:1 1112:1 1116:1 1118:1 1125:1 1126:1 1137:1 1142:1 1146:1 1155:1 1156:1 1160:1 1193:1 1195:1 1201:1 1217:1 1222:1 1227:1 1229:1 1255:1 1264:1 1279:1 1302:1 1324:1 1344:1 1348:1 1353:1 1355:1 1362:1 1387:1 1389:1 1398:1 1401:1 1407:1 1411:1 1425:1 1437:1 1475:1 1484:1 1485:1 1510:1 1529:1 1534:1 1536:1 1541:1 1554:1 1555:1 1560:1 1582:1 1591:1 1595:1 1607:1 1620:1 1625:1 1626:1 1635:1 1642:1 1656:1 1659:1 1661:1 1669:1 1677:1 1703:1 1713:1 1725:1 1731:1 1732:1 1733:1 1739:1 1743:1 1794:1 1799:1 1804:1 1812:1 1821:1 1826:1 1833:1 1834:1 1835:1 1850:1 1852:1 1864:1 1869:1 1880:1 1888:1 1895:1 1917:1 1920:1 1929:1 1930:1 1953:1 1963:1 1983:1 2014:1 2025:1 2041:1 2045:1 2053:1 2066:1 2071:1 2074:1 2081:1 2090:1 2107:1 2112:1 2134:1 2140:1 2155:1 2187:1 2197:1 2238:1 2258:1 2267:1 2278:1 2374:1 2388:1 2431:1 2476:1 2492:1 2494:1 2500:1 2511:1 2566:1 2575:1 2578:1 2580:1 2606:1 2625:1 2657:1 2697:1 2714:1 2724:1 2745:1 2792:1 2800:1 2845:1 2852:1 2903:1 2940:1 2962:1 2967:1 2970:1 3012:1 3032:1 3036:1 3050:1 3091:1 3155:1 3171:1 3207:1 3247:1 3253:1 3273:1 3304:1 3306:1 3314:1 3319:1 3328:1 3356:1 3459:1 3468:1 3472:1 3517:1 3522:1 3603:1 3683:1 3684:1 3707:1 3719:1 3745:1 3772:1 3775:1 3822:1 3887:1 3901:1 3945:1 3972:1 3981:1 4004:1 4039:1 4042:1 4058:1 4077:1 4217:1 4308:1 4313:1 4323:1 4332:1 4357:1 4474:1 4547:1 4599:1 4645:1 4655:1 4717:1 4719:1 4737:1 4745:1 4835:1 4877:1 4905:1 4942:1 4964:1 5013:1 5057:1 5070:1 5126:1 5230:1 5276:1 5302:1 5323:1 5384:1 5419:1 5432:1 5447:1 5448:1 5450:1 5519:1 5572:1 5582:1 5611:1 5613:1 5665:1 5741:1 5762:1 5911:1 5917:1 5935:1 5939:1 5954:1 5985:1 6016:1 6020:1 6021:1 6044:1 6089:1 6118:1 6224:1 6248:1 6366:1 6436:1 6478:1 6521:1 6573:1 6583:1 6597:1 6610:1 6668:1 6716:1 6743:1 6846:1 6852:1 6894:1 6921:1 6946:1 6963:1 7353:1 7415:1 7458:1 7474:1 7500:1 7544:1 7553:1 7598:1 7705:1 7761:1 7915:1 7927:1 7984:1 7989:1 8096:1 8130:1 8137:1 8146:1 8182:1 8298:1 8312:1 8319:1 8368:1 8548:1 8620:1 8767:1 8808:1 8859:1 8894:1 8971:1 9037:1 9086:1 9218:1 9264:1 9327:1 9343:1 9344:1 9417:1 9424:1 9433:1 9541:1 9581:1 9595:1 9778:1 9789:1 9847:1 9999:1 10107:1 10164:1 10270:1 10277:1 10325:1 10344:1 10399:1 10594:1 10650:1 10660:1 10697:1 10731:1 10778:1 10850:1 10879:1 10906:1 10932:1 10939:1 10973:1 10978:1 11025:1 11032:1 11082:1 11099:1 #
-0.0025580228280097528498204795255333 1:1 2:1 3:1 4:1 5:1 6:1 7:1 9:1 10:1 11:1 12:1 13:1 14:1 16:1 18:1 19:1 21:1 26:1 27:1 28:1 30:1 32:1 33:1 35:1 36:1 38:1 39:1 40:1 42:1 43:1 44:1 48:1 49:1 52:1 53:1 54:1 55:1 56:1 60:1 63:1 64:1 65:1 67:1 68:1 70:1 82:1 83:1 86:1 89:1 94:1 95:1 100:1 102:1 104:1 105:1 108:1 109:1 111:1 119:1 120:1 121:1 124:1 126:1 128:1 129:1 130:1 131:1 134:1 142:1 143:1 144:1 145:1 159:1 161:1 163:1 167:1 168:1 169:1 179:1 180:1 183:1 188:1 193:1 198:1 203:1 208:1 211:1 214:1 226:1 229:1 237:1 238:1 244:1 245:1 249:1 256:1 262:1 272:1 273:1 276:1 279:1 287:1 291:1 293:1 299:1 301:1 303:1 310:1 315:1 320:1 322:1 328:1 330:1 336:1 338:1 360:1 361:1 362:1 363:1 364:1 377:1 381:1 387:1 395:1 401:1 404:1 412:1 422:1 424:1 444:1 463:1 473:1 493:1 511:1 520:1 524:1 528:1 534:1 539:1 541:1 549:1 557:1 564:1 567:1 568:1 571:1 593:1 600:1 606:1 609:1 621:1 631:1 633:1 644:1 670:1 690:1 693:1 695:1 698:1 703:1 713:1 714:1 728:1 734:1 749:1 763:1 764:1 776:1 785:1 803:1 820:1 837:1 840:1 842:1 862:1 874:1 877:1 892:1 905:1 926:1 934:1 935:1 938:1 945:1 981:1 995:1 1029:1 1047:1 1055:1 1087:1 1095:1 1122:1 1146:1 1162:1 1177:1 1183:1 1184:1 1202:1 1215:1 1229:1 1251:1 1255:1 1257:1 1264:1 1280:1 1290:1 1338:1 1360:1 1362:1 1372:1 1374:1 1379:1 1382:1 1391:1 1410:1 1431:1 1452:1 1509:1 1569:1 1584:1 1595:1 1619:1 1646:1 1670:1 1685:1 1687:1 1712:1 1731:1 1787:1 1811:1 1817:1 1840:1 1907:1 1912:1 1942:1 1955:1 1970:1 2029:1 2087:1 2088:1 2149:1 2158:1 2214:1 2326:1 2419:1 2420:1 2425:1 2491:1 2498:1 2507:1 2515:1 2535:1 2540:1 2554:1 2572:1 2575:1 2581:1 2583:1 2641:1 2665:1 2682:1 2686:1 2747:1 2749:1 2778:1 2870:1 2932:1 2936:1 2941:1 2946:1 2951:1 2988:1 3030:1 3078:1 3159:1 3168:1 3183:1 3306:1 3450:1 3469:1 3492:1 3504:1 3520:1 3565:1 3573:1 3575:1 3610:1 3684:1 3707:1 3720:1 3735:1 3742:1 3807:1 3835:1 3851:1 3877:1 3895:1 3902:1 3930:1 3960:1 3972:1 3986:1 4146:1 4167:1 4180:1 4186:1 4274:1 4278:1 4362:1 4408:1 4609:1 4636:1 4651:1 4675:1 4686:1 4726:1 4805:1 4815:1 4883:1 4896:1 4923:1 4944:1 4972:1 5031:1 5076:1 5109:1 5117:1 5145:1 5270:1 5327:1 5382:1 5513:1 5519:1 5550:1 5742:1 5747:1 5896:1 5987:1 6094:1 6097:1 6331:1 6342:1 6583:1 6593:1 6601:1 6644:1 6792:1 6859:1 6892:1 7373:1 7526:1 7544:1 7584:1 7589:1 7599:1 7726:1 7761:1 7808:1 7896:1 7934:1 7958:1 8067:1 8127:1 8240:1 8281:1 8288:1 8341:1 8360:1 8383:1 8456:1 8848:1 8914:1 9043:1 9227:1 9729:1 9810:1 10006:1 10065:1 10112:1 10149:1 10241:1 10714:1 10780:1 10885:1 11082:1 #
-0.0011053233325359278996918854787168 1:1 2:1 4:1 5:1 6:1 7:1 10:1 12:1 13:1 15:1 16:1 19:1 20:1 21:1 22:1 23:1 24:1 27:1 28:1 29:1 31:1 34:1 35:1 37:1 38:1 39:1 41:1 42:1 45:1 47:1 53:1 54:1 59:1 62:1 66:1 68:1 70:1 72:1 73:1 75:1 76:1 82:1 84:1 88:1 90:1 95:1 96:1 97:1 98:1 99:1 101:1 102:1 103:1 106:1 109:1 110:1 115:1 116:1 117:1 119:1 123:1 124:1 127:1 130:1 131:1 136:1 138:1 139:1 145:1 148:1 149:1 151:1 157:1 159:1 163:1 164:1 173:1 175:1 178:1 189:1 191:1 196:1 202:1 212:1 214:1 222:1 229:1 231:1 240:1 242:1 244:1 254:1 260:1 263:1 266:1 268:1 274:1 280:1 281:1 289:1 296:1 297:1 298:1 307:1 308:1 309:1 311:1 316:1 317:1 323:1 330:1 336:1 339:1 356:1 358:1 370:1 394:1 403:1 409:1 412:1 418:1 429:1 435:1 441:1 444:1 446:1 447:1 455:1 456:1 458:1 463:1 465:1 477:1 488:1 494:1 496:1 500:1 501:1 502:1 505:1 528:1 530:1 531:1 536:1 540:1 544:1 551:1 560:1 571:1 574:1 594:1 595:1 598:1 603:1 604:1 609:1 615:1 618:1 627:1 628:1 634:1 636:1 637:1 642:1 644:1 646:1 668:1 675:1 688:1 689:1 693:1 695:1 704:1 709:1 710:1 722:1 723:1 726:1 736:1 739:1 745:1 749:1 753:1 767:1 802:1 845:1 854:1 862:1 866:1 870:1 885:1 887:1 891:1 900:1 901:1 911:1 933:1 935:1 946:1 973:1 1005:1 1011:1 1020:1 1021:1 1035:1 1037:1 1043:1 1046:1 1047:1 1068:1 1072:1 1099:1 1103:1 1105:1 1115:1 1118:1 1130:1 1133:1 1139:1 1146:1 1151:1 1161:1 1165:1 1174:1 1186:1 1230:1 1243:1 1256:1 1260:1 1261:1 1275:1 1277:1 1280:1 1284:1 1293:1 1310:1 1313:1 1319:1 1370:1 1412:1 1417:1 1423:1 1466:1 1469:1 1471:1 1485:1 1508:1 1522:1 1525:1 1534:1 1568:1 1648:1 1675:1 1677:1 1687:1 1696:1 1698:1 1714:1 1716:1 1722:1 1723:1 1735:1 1744:1 1804:1 1815:1 1824:1 1835:1 1874:1 1879:1 1915:1 1930:1 1942:1 1946:1 1980:1 2008:1 2027:1 2032:1 2072:1 2082:1 2104:1 2113:1 2126:1 2180:1 2213:1 2226:1 2354:1 2355:1 2356:1 2484:1 2498:1 2507:1 2520:1 2582:1 2639:1 2657:1 2662:1 2671:1 2686:1 2689:1 2723:1 2737:1 2747:1 2751:1 2912:1 3040:1 3130:1 3169:1 3214:1 3229:1 3282:1 3294:1 3300:1 3317:1 3350:1 3367:1 3408:1 3490:1 3504:1 3591:1 3694:1 3740:1 3765:1 3775:1 3781:1 3806:1 3831:1 3905:1 3993:1 4014:1 4022:1 4034:1 4064:1 4068:1 4106:1 4134:1 4167:1 4195:1 4241:1 4259:1 4277:1 4297:1 4303:1 4362:1 4376:1 4429:1 4487:1 4567:1 4610:1 4615:1 4657:1 4703:1 4735:1 4739:1 4743:1 4767:1 4792:1 4854:1 4947:1 4948:1 4986:1 5037:1 5066:1 5079:1 5204:1 5253:1 5292:1 5331:1 5397:1 5466:1 5471:1 5612:1 5624:1 5635:1 5672:1 5829:1 5867:1 5887:1 5960:1 5984:1 5991:1 6058:1 6061:1 6062:1 6100:1 6145:1 6152:1 6192:1 6212:1 6345:1 6357:1 6442:1 6492:1 6666:1 6688:1 6707:1 6813:1 6923:1 6954:1 6988:1 7000:1 7035:1 7184:1 7270:1 7360:1 7417:1 7453:1 7469:1 7524:1 7580:1 7618:1 7814:1 7863:1 7915:1 7965:1 7972:1 7987:1 7996:1 8060:1 8126:1 8271:1 8352:1 8475:1 8513:1 8535:1 8571:1 8608:1 8674:1 8743:1 8843:1 8853:1 8954:1 8985:1 9024:1 9091:1 9125:1 9155:1 9187:1 9214:1 9595:1 9699:1 9725:1 9731:1 9737:1 9845:1 10044:1 10293:1 10436:1 10530:1 10541:1 10597:1 10664:1 10768:1 10828:1 10829:1 10929:1 10969:1 11096:1 #
-0.0023808018426028578103104127450251 1:1 2:1 3:1 4:1 8:1 9:1 10:1 11:1 12:1 13:1 14:1 15:1 16:1 18:1 20:1 21:1 22:1 24:1 25:1 26:1 28:1 31:1 34:1 35:1 36:1 37:1 39:1 40:1 43:1 44:1 45:1 46:1 47:1 48:1 49:1 50:1 53:1 55:1 56:1 57:1 60:1 61:1 62:1 63:1 65:1 66:1 71:1 74:1 75:1 76:1 77:1 79:1 80:1 81:1 85:1 88:1 89:1 94:1 95:1 99:1 101:1 103:1 105:1 106:1 107:1 108:1 111:1 115:1 116:1 117:1 121:1 122:1 124:1 128:1 130:1 134:1 136:1 139:1 140:1 142:1 144:1 146:1 147:1 155:1 156:1 159:1 162:1 164:1 166:1 167:1 179:1 180:1 187:1 188:1 193:1 197:1 199:1 200:1 202:1 204:1 205:1 211:1 218:1 222:1 226:1 230:1 231:1 241:1 250:1 252:1 255:1 257:1 261:1 263:1 265:1 268:1 270:1 273:1 274:1 276:1 282:1 289:1 292:1 294:1 296:1 300:1 301:1 302:1 305:1 316:1 319:1 326:1 337:1 349:1 351:1 356:1 357:1 376:1 378:1 380:1 391:1 402:1 403:1 411:1 425:1 427:1 432:1 439:1 442:1 445:1 448:1 450:1 453:1 455:1 457:1 459:1 468:1 471:1 483:1 485:1 497:1 501:1 504:1 506:1 508:1 521:1 524:1 527:1 529:1 532:1 534:1 536:1 537:1 558:1 559:1 560:1 568:1 571:1 572:1 573:1 577:1 579:1 580:1 581:1 590:1 598:1 608:1 610:1 615:1 626:1 630:1 631:1 632:1 633:1 646:1 647:1 665:1 671:1 675:1 682:1 688:1 702:1 712:1 716:1 717:1 720:1 721:1 726:1 730:1 731:1 736:1 757:1 792:1 805:1 813:1 815:1 837:1 841:1 859:1 879:1 881:1 882:1 891:1 892:1 900:1 903:1 906:1 918:1 925:1 928:1 933:1 940:1 942:1 951:1 952:1 988:1 996:1 997:1 998:1 1003:1 1005:1 1009:1 1022:1 1044:1 1055:1 1057:1 1059:1 1060:1 1090:1 1093:1 1100:1 1107:1 1118:1 1125:1 1129:1 1132:1 1135:1 1136:1 1143:1 1168:1 1171:1 1202:1 1205:1 1206:1 1214:1 1256:1 1288:1 1289:1 1371:1 1382:1 1397:1 1402:1 1407:1 1434:1 1435:1 1449:1 1451:1 1452:1 1469:1 1485:1 1495:1 1501:1 1531:1 1536:1 1539:1 1553:1 1589:1 1594:1 1609:1 1628:1 1634:1 1642:1 1644:1 1661:1 1668:1 1684:1 1695:1 1699:1 1705:1 1708:1 1715:1 1717:1 1718:1 1720:1 1762:1 1773:1 1801:1 1803:1 1839:1 1842:1 1846:1 1847:1 1921:1 1926:1 1978:1 1988:1 2013:1 2015:1 2020:1 2074:1 2086:1 2108:1 2144:1 2196:1 2202:1 2208:1 2230:1 2234:1 2241:1 2289:1 2323:1 2330:1 2379:1 2415:1 2437:1 2464:1 2532:1 2537:1 2594:1 2609:1 2610:1 2638:1 2762:1 2783:1 2789:1 2794:1 2796:1 2811:1 2851:1 2920:1 2969:1 2977:1 3005:1 3045:1 3113:1 3153:1 3162:1 3210:1 3243:1 3254:1 3274:1 3280:1 3303:1 3314:1 3320:1 3329:1 3388:1 3389:1 3409:1 3423:1 3475:1 3530:1 3540:1 3541:1 3550:1 3559:1 3603:1 3626:1 3648:1 3652:1 3751:1 3756:1 3786:1 3798:1 3864:1 3989:1 3998:1 4213:1 4222:1 4341:1 4345:1 4450:1 4460:1 4564:1 4601:1 4602:1 4696:1 4698:1 4762:1 4767:1 4797:1 4810:1 4828:1 4831:1 4840:1 4871:1 4884:1 4912:1 4938:1 4956:1 5035:1 5085:1 5129:1 5165:1 5171:1 5234:1 5251:1 5272:1 5274:1 5305:1 5381:1 5406:1 5456:1 5473:1 5496:1 5520:1 5522:1 5543:1 5546:1 5588:1 5600:1 5642:1 5730:1 5753:1 5797:1 5798:1 5840:1 5846:1 5892:1 5936:1 5942:1 5989:1 6072:1 6087:1 6114:1 6124:1 6146:1 6163:1 6192:1 6196:1 6238:1 6353:1 6400:1 6434:1 6465:1 6497:1 6502:1 6507:1 6558:1 6581:1 6631:1 6719:1 6798:1 6891:1 6955:1 6978:1 7002:1 7017:1 7097:1 7162:1 7278:1 7284:1 7290:1 7294:1 7376:1 7638:1 7701:1 7757:1 7780:1 7966:1 7998:1 8005:1 8062:1 8113:1 8115:1 8129:1 8186:1 8197:1 8215:1 8253:1 8271:1 8301:1 8327:1 8391:1 8458:1 8513:1 8530:1 8536:1 8680:1 8703:1 8853:1 9043:1 9071:1 9225:1 9421:1 9426:1 9507:1 9729:1 9827:1 9869:1 9870:1 9877:1 10091:1 10103:1 10368:1 10500:1 10548:1 10597:1 10638:1 10669:1 10715:1 10845:1 10857:1 10930:1 10933:1 11019:1 11051:1 #
-0.0036197527426470861404428358554242 1:1 2:1 3:1 4:1 5:1 7:1 8:1 10:1 11:1 12:1 13:1 15:1 17:1 18:1 19:1 21:1 23:1 26:1 27:1 29:1 31:1 32:1 33:1 34:1 36:1 37:1 38:1 39:1 40:1 41:1 42:1 43:1 45:1 46:1 47:1 52:1 53:1 57:1 59:1 64:1 67:1 72:1 73:1 74:1 76:1 77:1 78:1 83:1 85:1 88:1 90:1 91:1 97:1 98:1 102:1 103:1 109:1 110:1 113:1 115:1 124:1 127:1 128:1 129:1 138:1 149:1 155:1 157:1 163:1 166:1 174:1 176:1 182:1 196:1 197:1 201:1 208:1 210:1 216:1 220:1 232:1 234:1 238:1 249:1 250:1 258:1 261:1 266:1 269:1 276:1 282:1 288:1 295:1 300:1 310:1 317:1 326:1 328:1 330:1 332:1 339:1 351:1 355:1 358:1 372:1 381:1 395:1 407:1 416:1 419:1 422:1 427:1 432:1 440:1 448:1 451:1 452:1 455:1 458:1 461:1 465:1 474:1 478:1 488:1 502:1 504:1 516:1 519:1 538:1 546:1 547:1 552:1 557:1 581:1 599:1 604:1 645:1 650:1 660:1 678:1 687:1 690:1 691:1 704:1 716:1 737:1 756:1 759:1 777:1 790:1 833:1 834:1 867:1 880:1 892:1 898:1 909:1 956:1 961:1 972:1 1003:1 1019:1 1026:1 1033:1 1046:1 1063:1 1071:1 1086:1 1088:1 1111:1 1120:1 1138:1 1176:1 1195:1 1200:1 1204:1 1225:1 1230:1 1241:1 1285:1 1295:1 1297:1 1300:1 1310:1 1312:1 1317:1 1330:1 1375:1 1381:1 1431:1 1445:1 1478:1 1536:1 1582:1 1610:1 1624:1 1634:1 1663:1 1671:1 1686:1 1700:1 1829:1 1849:1 1854:1 1857:1 1860:1 1870:1 1871:1 1888:1 1926:1 1931:1 1951:1 1953:1 1958:1 1975:1 1990:1 2013:1 2016:1 2086:1 2128:1 2132:1 2211:1 2225:1 2257:1 2277:1 2302:1 2320:1 2330:1 2339:1 2379:1 2396:1 2403:1 2405:1 2416:1 2474:1 2477:1 2494:1 2499:1 2550:1 2571:1 2743:1 2744:1 2781:1 2818:1 2843:1 2849:1 2925:1 2940:1 2950:1 2963:1 2983:1 3009:1 3015:1 3045:1 3047:1 3054:1 3260:1 3274:1 3280:1 3287:1 3320:1 3395:1 3425:1 3431:1 3440:1 3470:1 3496:1 3543:1 3611:1 3612:1 3695:1 3698:1 3840:1 3856:1 3888:1 4015:1 4049:1 4057:1 4102:1 4124:1 4125:1 4152:1 4197:1 4204:1 4236:1 4259:1 4317:1 4350:1 4476:1 4551:1 4610:1 4618:1 4745:1 4780:1 4810:1 4842:1 4881:1 4887:1 4918:1 4939:1 4943:1 4988:1 5035:1 5039:1 5047:1 5129:1 5165:1 5249:1 5303:1 5329:1 5343:1 5393:1 5472:1 5491:1 5518:1 5604:1 5690:1 5867:1 5926:1 5929:1 6118:1 6134:1 6137:1 6139:1 6227:1 6284:1 6336:1 6353:1 6384:1 6399:1 6445:1 6450:1 6587:1 6602:1 6619:1 6714:1 6728:1 7040:1 7187:1 7248:1 7337:1 7338:1 7373:1 7423:1 7425:1 7592:1 7729:1 7850:1 8030:1 8033:1 8061:1 8287:1 8289:1 8325:1 8329:1 8400:1 8412:1 8590:1 8693:1 8719:1 8851:1 8873:1 8925:1 8949:1 8969:1 9219:1 9603:1 9680:1 9811:1 9840:1 9852:1 9892:1 9984:1 10102:1 10148:1 10260:1 10290:1 10291:1 10359:1 10442:1 10499:1 10500:1 10586:1 10676:1 10766:1 10937:1 10999:1 11009:1 #
-0.0029727095226907036817909357750978 1:1 2:1 4:1 5:1 6:1 8:1 9:1 10:1 11:1 12:1 14:1 16:1 17:1 19:1 21:1 22:1 24:1 25:1 28:1 30:1 32:1 33:1 34:1 35:1 36:1 38:1 39:1 40:1 43:1 46:1 47:1 49:1 50:1 52:1 53:1 56:1 57:1 59:1 60:1 62:1 64:1 65:1 66:1 69:1 70:1 71:1 72:1 73:1 86:1 89:1 93:1 95:1 96:1 99:1 100:1 113:1 115:1 122:1 125:1 126:1 127:1 128:1 136:1 139:1 140:1 142:1 143:1 146:1 147:1 174:1 176:1 181:1 182:1 198:1 203:1 228:1 236:1 241:1 262:1 277:1 279:1 290:1 305:1 307:1 311:1 313:1 333:1 346:1 349:1 350:1 352:1 358:1 359:1 362:1 369:1 374:1 421:1 422:1 427:1 432:1 439:1 444:1 449:1 451:1 490:1 504:1 507:1 509:1 515:1 522:1 539:1 568:1 576:1 604:1 619:1 640:1 698:1 744:1 766:1 781:1 794:1 800:1 817:1 859:1 903:1 933:1 942:1 961:1 992:1 994:1 1000:1 1012:1 1034:1 1043:1 1061:1 1109:1 1131:1 1136:1 1216:1 1227:1 1287:1 1322:1 1349:1 1431:1 1436:1 1444:1 1461:1 1540:1 1548:1 1551:1 1554:1 1671:1 1718:1 1799:1 1828:1 1869:1 1951:1 1966:1 2087:1 2110:1 2145:1 2148:1 2180:1 2184:1 2200:1 2215:1 2312:1 2376:1 2422:1 2453:1 2454:1 2514:1 2545:1 2548:1 2572:1 2633:1 2634:1 2717:1 2772:1 2885:1 2896:1 2938:1 2941:1 2946:1 3013:1 3062:1 3158:1 3162:1 3177:1 3219:1 3267:1 3270:1 3280:1 3339:1 3399:1 3405:1 3430:1 3555:1 3696:1 3781:1 3866:1 3882:1 3995:1 4060:1 4269:1 4409:1 4440:1 4465:1 4469:1 4503:1 4542:1 4558:1 4646:1 4772:1 4977:1 5027:1 5107:1 5205:1 5306:1 5432:1 5477:1 5642:1 5780:1 5936:1 5961:1 5964:1 6005:1 6076:1 6397:1 6429:1 6451:1 6783:1 6797:1 6827:1 6944:1 7203:1 7330:1 7344:1 7373:1 7475:1 7489:1 7704:1 7705:1 7863:1 8007:1 8080:1 8213:1 8301:1 8614:1 8727:1 8961:1 9133:1 9157:1 9183:1 9189:1 9856:1 10280:1 10404:1 10443:1 10581:1 10637:1 10834:1 10846:1 10854:1 10966:1 11002:1 #
0.0036197527426470861404428358554242 1:1 2:1 3:1 4:1 5:1 6:1 8:1 9:1 10:1 14:1 15:1 16:1 17:1 19:1 22:1 24:1 25:1 29:1 32:1 37:1 39:1 41:1 53:1 54:1 60:1 61:1 62:1 66:1 69:1 78:1 79:1 90:1 96:1 103:1 109:1 116:1 119:1 130:1 147:1 169:1 197:1 198:1 199:1 202:1 210:1 217:1 218:1 222:1 224:1 243:1 252:1 263:1 302:1 320:1 327:1 333:1 357:1 359:1 379:1 428:1 467:1 469:1 490:1 509:1 601:1 610:1 630:1 645:1 656:1 657:1 700:1 743:1 796:1 801:1 806:1 811:1 835:1 856:1 857:1 871:1 932:1 940:1 994:1 1011:1 1072:1 1103:1 1133:1 1145:1 1146:1 1165:1 1195:1 1204:1 1225:1 1243:1 1255:1 1354:1 1396:1 1417:1 1418:1 1469:1 1486:1 1655:1 1806:1 1860:1 1878:1 1880:1 1884:1 1905:1 1979:1 1989:1 2000:1 2102:1 2124:1 2239:1 2283:1 2369:1 2502:1 2522:1 2530:1 2609:1 2615:1 2633:1 2648:1 2727:1 2830:1 2851:1 2943:1 3008:1 3101:1 3258:1 3446:1 3727:1 3729:1 3758:1 3819:1 3833:1 3922:1 3952:1 3994:1 4013:1 4070:1 4125:1 4127:1 4299:1 4321:1 4375:1 4415:1 4479:1 4501:1 4637:1 4663:1 4925:1 4970:1 5071:1 5079:1 5167:1 5232:1 5374:1 5406:1 5647:1 5660:1 5907:1 5935:1 6023:1 6056:1 6291:1 6377:1 6636:1 6656:1 6678:1 6756:1 6758:1 7208:1 7533:1 7822:1 7850:1 8016:1 8174:1 8267:1 8501:1 8543:1 8600:1 8699:1 8842:1 9025:1 9369:1 9551:1 9619:1 9713:1 9992:1 10039:1 10075:1 10124:1 10745:1 10858:1 11080:1 #
0.0036197527426470861404428358554242 1:1 2:1 3:1 4:1 7:1 10:1 15:1 19:1 21:1 22:1 25:1 26:1 28:1 39:1 40:1 61:1 76:1 89:1 93:1 97:1 116:1 135:1 139:1 143:1 150:1 178:1 189:1 221:1 240:1 290:1 320:1 402:1 436:1 451:1 485:1 503:1 531:1 547:1 557:1 695:1 724:1 777:1 853:1 889:1 1049:1 1072:1 1073:1 1162:1 1168:1 1173:1 1267:1 1995:1 2050:1 2142:1 2260:1 2277:1 2486:1 2750:1 2998:1 3560:1 3751:1 3994:1 4047:1 4390:1 4524:1 4814:1 5101:1 5188:1 5440:1 6193:1 6515:1 6981:1 7843:1 7865:1 8017:1 8656:1 8872:1 9199:1 9262:1 10209:1 10304:1 10377:1 10815:1 10851:1 #
0.0036197527426470861404428358554242 1:1 2:1 3:1 4:1 5:1 7:1 8:1 10:1 12:1 13:1 14:1 15:1 17:1 24:1 25:1 27:1 29:1 32:1 33:1 37:1 43:1 46:1 54:1 64:1 65:1 71:1 73:1 75:1 81:1 87:1 92:1 93:1 94:1 95:1 96:1 97:1 102:1 109:1 115:1 118:1 127:1 128:1 133:1 148:1 150:1 152:1 187:1 193:1 195:1 196:1 203:1 204:1 212:1 224:1 228:1 238:1 248:1 249:1 251:1 256:1 271:1 275:1 295:1 303:1 324:1 351:1 353:1 376:1 385:1 386:1 401:1 404:1 405:1 445:1 452:1 460:1 463:1 503:1 508:1 511:1 526:1 531:1 533:1 602:1 618:1 622:1 677:1 682:1 691:1 696:1 725:1 752:1 789:1 794:1 797:1 800:1 816:1 838:1 841:1 926:1 931:1 987:1 1011:1 1016:1 1028:1 1040:1 1052:1 1085:1 1087:1 1132:1 1152:1 1155:1 1194:1 1244:1 1259:1 1277:1 1294:1 1352:1 1436:1 1450:1 1473:1 1475:1 1497:1 1583:1 1624:1 1768:1 1810:1 1844:1 1927:1 1985:1 2111:1 2191:1 2209:1 2219:1 2358:1 2397:1 2457:1 2559:1 2727:1 2786:1 2808:1 2898:1 2941:1 2948:1 2955:1 3081:1 3091:1 3118:1 3139:1 3269:1 3303:1 3364:1 3544:1 3582:1 3661:1 3821:1 3832:1 3861:1 4005:1 4158:1 4189:1 4248:1 4279:1 4280:1 4377:1 4526:1 4617:1 4669:1 4754:1 4788:1 5137:1 5162:1 5268:1 5297:1 5359:1 5386:1 5612:1 5788:1 5965:1 6161:1 6162:1 6190:1 6281:1 6326:1 6660:1 6989:1 7679:1 8004:1 8301:1 8330:1 8344:1 8613:1 8632:1 8699:1 8913:1 9611:1 9640:1 9719:1 10570:1 10695:1 #
0.0036197527426470861404428358554242 1:1 2:1 4:1 5:1 6:1 7:1 8:1 9:1 11:1 13:1 15:1 17:1 18:1 20:1 22:1 23:1 26:1 27:1 29:1 33:1 34:1 35:1 36:1 37:1 42:1 43:1 44:1 46:1 47:1 48:1 50:1 51:1 55:1 60:1 66:1 67:1 69:1 70:1 76:1 77:1 80:1 81:1 82:1 84:1 90:1 94:1 99:1 103:1 104:1 107:1 112:1 113:1 117:1 125:1 126:1 130:1 131:1 133:1 137:1 142:1 149:1 150:1 155:1 156:1 158:1 162:1 171:1 178:1 181:1 185:1 200:1 204:1 207:1 214:1 216:1 217:1 218:1 219:1 225:1 242:1 256:1 259:1 263:1 276:1 285:1 286:1 288:1 300:1 307:1 309:1 312:1 314:1 335:1 345:1 359:1 366:1 373:1 379:1 384:1 389:1 397:1 404:1 427:1 462:1 464:1 470:1 485:1 488:1 494:1 509:1 510:1 537:1 551:1 554:1 558:1 618:1 623:1 662:1 667:1 668:1 689:1 720:1 742:1 769:1 779:1 780:1 814:1 830:1 864:1 900:1 905:1 920:1 924:1 941:1 1020:1 1056:1 1093:1 1113:1 1121:1 1122:1 1124:1 1135:1 1143:1 1152:1 1217:1 1242:1 1258:1 1284:1 1316:1 1320:1 1334:1 1345:1 1346:1 1371:1 1376:1 1398:1 1403:1 1404:1 1470:1 1491:1 1573:1 1727:1 1754:1 1796:1 1820:1 1825:1 1829:1 1836:1 1876:1 1891:1 1903:1 1914:1 1931:1 1936:1 2007:1 2026:1 2044:1 2068:1 2100:1 2105:1 2130:1 2138:1 2153:1 2169:1 2215:1 2229:1 2235:1 2278:1 2289:1 2304:1 2322:1 2506:1 2509:1 2576:1 2602:1 2610:1 2627:1 2633:1 2709:1 2764:1 2774:1 2776:1 2788:1 2812:1 2903:1 2907:1 2909:1 3005:1 3055:1 3105:1 3182:1 3183:1 3214:1 3226:1 3280:1 3318:1 3347:1 3357:1 3370:1 3391:1 3416:1 3442:1 3460:1 3475:1 3477:1 3478:1 3497:1 3514:1 3553:1 3596:1 3632:1 3662:1 3666:1 3739:1 3805:1 3809:1 3835:1 3866:1 3951:1 4012:1 4025:1 4087:1 4101:1 4184:1 4193:1 4211:1 4224:1 4276:1 4288:1 4306:1 4326:1 4368:1 4454:1 4525:1 4530:1 4556:1 4609:1 4616:1 4685:1 4730:1 4851:1 4918:1 4976:1 5049:1 5066:1 5110:1 5121:1 5127:1 5154:1 5334:1 5348:1 5361:1 5394:1 5395:1 5436:1 5512:1 5545:1 5644:1 5669:1 5681:1 5721:1 5748:1 5789:1 5811:1 5832:1 5876:1 6010:1 6024:1 6040:1 6089:1 6103:1 6123:1 6178:1 6242:1 6264:1 6293:1 6298:1 6299:1 6481:1 6610:1 6611:1 6661:1 6725:1 6882:1 6889:1 6907:1 6917:1 6920:1 6922:1 6969:1 7091:1 7164:1 7203:1 7215:1 7486:1 7508:1 7521:1 7530:1 7678:1 8159:1 8178:1 8236:1 8273:1 8378:1 8629:1 8769:1 8831:1 8905:1 8943:1 8952:1 9016:1 9676:1 9836:1 9883:1 10048:1 10186:1 10226:1 10475:1 10573:1 10617:1 10698:1 10794:1 10895:1 10996:1 11027:1 #
0.0036197527426470861404428358554242 1:1 2:1 4:1 6:1 7:1 11:1 16:1 17:1 20:1 21:1 24:1 25:1 26:1 27:1 28:1 30:1 32:1 46:1 58:1 62:1 72:1 95:1 96:1 102:1 103:1 105:1 109:1 111:1 123:1 135:1 139:1 141:1 142:1 158:1 168:1 178:1 179:1 181:1 184:1 225:1 229:1 230:1 246:1 321:1 335:1 354:1 356:1 391:1 394:1 396:1 421:1 535:1 634:1 656:1 670:1 684:1 710:1 752:1 759:1 801:1 868:1 957:1 1056:1 1069:1 1075:1 1093:1 1094:1 1102:1 1182:1 1277:1 1438:1 1551:1 1601:1 1641:1 1692:1 1698:1 1706:1 1782:1 1827:1 1869:1 1878:1 1936:1 1996:1 2060:1 2078:1 2333:1 2522:1 2568:1 2864:1 2932:1 2952:1 3072:1 3400:1 3530:1 3547:1 3701:1 4065:1 4171:1 4486:1 4627:1 4652:1 4709:1 4904:1 5133:1 5174:1 5226:1 5360:1 5389:1 5587:1 5782:1 6330:1 6736:1 6803:1 7344:1 7500:1 7931:1 8397:1 8507:1 8842:1 8883:1 9145:1 9306:1 9650:1 9718:1 9862:1 9885:1 10102:1 10369:1 10684:1 10694:1 10712:1 10804:1 10826:1 #
-0.0036197527426470861404428358554242 1:1 2:1 4:1 6:1 20:1 29:1 31:1 46:1 49:1 54:1 64:1 79:1 81:1 99:1 107:1 118:1 128:1 134:1 137:1 148:1 160:1 197:1 207:1 237:1 296:1 317:1 323:1 324:1 377:1 391:1 446:1 463:1 498:1 507:1 578:1 628:1 639:1 678:1 785:1 856:1 1135:1 1305:1 1411:1 1448:1 1466:1 1654:1 1667:1 1754:1 1864:1 2001:1 2116:1 2260:1 2751:1 2886:1 2919:1 2999:1 3077:1 3278:1 3346:1 3413:1 3547:1 3583:1 3595:1 4169:1 4436:1 4856:1 5367:1 5503:1 5641:1 6052:1 6112:1 6370:1 8385:1 8515:1 8552:1 8923:1 9274:1 10349:1 10487:1 #
-0.0036197527426470861404428358554242 1:1 3:1 4:1 7:1 13:1 16:1 29:1 39:1 48:1 51:1 54:1 55:1 59:1 64:1 68:1 70:1 71:1 72:1 96:1 116:1 123:1 148:1 171:1 191:1 207:1 224:1 228:1 233:1 242:1 251:1 298:1 400:1 407:1 415:1 419:1 476:1 511:1 515:1 560:1 638:1 642:1 674:1 683:1 727:1 752:1 765:1 800:1 813:1 816:1 968:1 1016:1 1058:1 1069:1 1156:1 1227:1 1262:1 1320:1 1789:1 1855:1 1927:1 1941:1 1987:1 2019:1 2060:1 2088:1 2248:1 2540:1 2836:1 3037:1 3375:1 3385:1 3412:1 3491:1 3547:1 3716:1 3753:1 3788:1 3901:1 3947:1 4298:1 4567:1 4578:1 4609:1 4663:1 4971:1 5047:1 5141:1 5233:1 5239:1 5255:1 5558:1 5639:1 6627:1 6743:1 6803:1 7071:1 7171:1 7464:1 7622:1 7723:1 7748:1 7930:1 8040:1 8054:1 8246:1 8347:1 8750:1 9120:1 9329:1 9395:1 9464:1 9569:1 9821:1 9900:1 10014:1 10263:1 10613:1 10759:1 10917:1 #
-0.0036197527426470861404428358554242 1:1 2:1 3:1 4:1 5:1 7:1 11:1 13:1 14:1 19:1 20:1 22:1 23:1 24:1 29:1 31:1 32:1 33:1 41:1 46:1 48:1 51:1 55:1 57:1 63:1 67:1 70:1 73:1 75:1 78:1 85:1 90:1 92:1 99:1 100:1 104:1 105:1 124:1 132:1 135:1 141:1 144:1 185:1 201:1 206:1 210:1 234:1 245:1 266:1 269:1 322:1 331:1 335:1 343:1 344:1 354:1 388:1 397:1 412:1 421:1 467:1 492:1 518:1 547:1 593:1 603:1 613:1 620:1 640:1 642:1 690:1 693:1 695:1 709:1 744:1 791:1 863:1 897:1 953:1 985:1 1018:1 1039:1 1066:1 1098:1 1121:1 1155:1 1208:1 1252:1 1281:1 1311:1 1359:1 1445:1 1456:1 1509:1 1518:1 1554:1 1558:1 1761:1 1821:1 1831:1 1886:1 2014:1 2041:1 2152:1 2184:1 2197:1 2296:1 2529:1 2543:1 2611:1 2648:1 2707:1 2723:1 2757:1 2766:1 2924:1 3074:1 3133:1 3350:1 3487:1 3567:1 3650:1 3686:1 3764:1 4261:1 4349:1 4645:1 4765:1 4785:1 4964:1 4967:1 5167:1 5178:1 5356:1 5377:1 5549:1 5594:1 5670:1 5829:1 5920:1 5950:1 6065:1 6164:1 6588:1 6590:1 6820:1 7220:1 7536:1 7901:1 7944:1 8170:1 8194:1 8285:1 8318:1 8433:1 8958:1 9014:1 9235:1 9332:1 9375:1 9549:1 9554:1 9759:1 10792:1 #
-0.0029480075217970655096499932312781 1:1 2:1 3:1 4:1 6:1 7:1 8:1 11:1 16:1 19:1 20:1 24:1 26:1 28:1 31:1 32:1 35:1 41:1 53:1 58:1 61:1 62:1 71:1 75:1 81:1 93:1 97:1 98:1 102:1 103:1 107:1 108:1 116:1 135:1 136:1 137:1 138:1 144:1 150:1 156:1 172:1 184:1 193:1 201:1 234:1 254:1 256:1 280:1 283:1 288:1 304:1 308:1 357:1 388:1 391:1 412:1 414:1 420:1 479:1 488:1 523:1 552:1 558:1 565:1 617:1 675:1 679:1 707:1 725:1 737:1 749:1 757:1 762:1 781:1 801:1 820:1 830:1 839:1 898:1 901:1 939:1 943:1 956:1 1010:1 1053:1 1089:1 1130:1 1136:1 1186:1 1247:1 1293:1 1321:1 1385:1 1413:1 1419:1 1464:1 1504:1 1513:1 1647:1 1676:1 1688:1 1731:1 1746:1 1764:1 1806:1 1872:1 1936:1 1962:1 1975:1 1984:1 2027:1 2076:1 2125:1 2213:1 2230:1 2240:1 2243:1 2270:1 2346:1 2556:1 2578:1 2635:1 2652:1 2724:1 2857:1 3116:1 3310:1 3373:1 3375:1 3584:1 3790:1 3868:1 3925:1 3996:1 4121:1 4178:1 4272:1 4522:1 4669:1 5096:1 5140:1 5164:1 5257:1 5371:1 5485:1 5578:1 5653:1 5685:1 5714:1 5975:1 6226:1 6267:1 6331:1 6489:1 6561:1 6567:1 6911:1 6938:1 7031:1 7168:1 7262:1 7298:1 7569:1 7661:1 7904:1 8003:1 8473:1 8569:1 8678:1 8681:1 8908:1 9067:1 9631:1 9923:1 10135:1 10180:1 10279:1 10554:1 10682:1 #
-0.0036197527426470861404428358554242 1:1 2:1 3:1 4:1 7:1 8:1 10:1 12:1 13:1 15:1 17:1 19:1 22:1 23:1 24:1 25:1 28:1 30:1 34:1 35:1 45:1 47:1 54:1 55:1 62:1 63:1 64:1 68:1 69:1 72:1 98:1 103:1 108:1 115:1 125:1 128:1 130:1 136:1 140:1 155:1 177:1 184:1 185:1 199:1 205:1 213:1 223:1 227:1 229:1 258:1 262:1 287:1 294:1 295:1 297:1 302:1 309:1 312:1 314:1 317:1 318:1 321:1 333:1 352:1 353:1 367:1 379:1 380:1 382:1 388:1 409:1 473:1 486:1 567:1 622:1 641:1 687:1 704:1 752:1 776:1 807:1 840:1 868:1 874:1 894:1 928:1 1031:1 1083:1 1155:1 1156:1 1185:1 1205:1 1302:1 1310:1 1317:1 1357:1 1391:1 1406:1 1440:1 1465:1 1609:1 1617:1 1635:1 1657:1 1667:1 1804:1 1822:1 1836:1 1850:1 1857:1 1890:1 2008:1 2031:1 2355:1 2391:1 2395:1 2521:1 2632:1 2812:1 2884:1 2971:1 3089:1 3290:1 3361:1 3454:1 3460:1 3589:1 3723:1 4008:1 4009:1 4323:1 4357:1 4382:1 4565:1 4801:1 4825:1 4904:1 5099:1 5174:1 5296:1 5340:1 5407:1 5504:1 5810:1 5932:1 5973:1 6202:1 6553:1 6869:1 6950:1 7279:1 7533:1 8076:1 8232:1 8328:1 8382:1 8699:1 9046:1 9252:1 10151:1 10164:1 10193:1 10513:1 10915:1 10924:1 #
-0.0036197527426470861404428358554242 1:1 2:1 3:1 6:1 7:1 11:1 13:1 33:1 41:1 45:1 46:1 48:1 53:1 55:1 57:1 62:1 70:1 72:1 78:1 79:1 80:1 86:1 88:1 92:1 94:1 99:1 104:1 114:1 124:1 138:1 140:1 158:1 210:1 215:1 266:1 274:1 280:1 308:1 327:1 342:1 375:1 391:1 435:1 456:1 638:1 640:1 648:1 652:1 658:1 732:1 958:1 1189:1 1267:1 1329:1 1506:1 1673:1 1679:1 1692:1 1708:1 1761:1 1798:1 1984:1 2020:1 2168:1 2174:1 2223:1 2571:1 2678:1 3027:1 3436:1 3561:1 3624:1 3676:1 4449:1 4463:1 4497:1 4591:1 4627:1 4866:1 5226:1 5642:1 6255:1 6342:1 6545:1 6639:1 6673:1 6733:1 6801:1 6842:1 7110:1 7287:1 7491:1 8054:1 8383:1 8648:1 8973:1 9070:1 10038:1 #
