SVM-light Version V6.02
0 # kernel type
3 # kernel parameter -d 
1 # kernel parameter -g 
1 # kernel parameter -s 
1 # kernel parameter -r 
empty# kernel parameter -u 
6223 # highest feature index 
1600 # number of training documents 
1198 # number of support vectors plus 1 
-0.086125794 # threshold b, each following line is a SV (starting with alpha*y)
-0.0038265468324352089855844294419285 1:1 2:1 3:1 4:1 5:1 6:1 7:1 8:1 9:1 10:1 11:1 12:1 13:1 14:1 15:1 16:1 17:1 18:1 19:1 20:1 21:1 22:1 23:1 24:1 25:1 26:1 27:1 28:1 29:1 30:1 31:1 32:1 33:1 34:1 35:1 36:1 37:1 38:1 39:1 40:1 58:1 66:1 128:1 370:1 390:1 440:1 575:1 796:1 799:1 1186:1 1243:1 1311:1 1357:1 1409:1 1586:1 2038:1 2040:1 2059:1 2062:1 2156:1 2242:1 2818:1 2819:1 3113:1 3114:1 3115:1 3116:1 3117:1 3118:1 3119:1 3120:1 3121:1 3122:1 3123:1 3124:1 3125:1 3126:1 3127:1 3128:1 3129:1 3130:1 3131:1 3132:1 3133:1 3134:1 3136:1 3137:1 3138:1 3139:1 3140:1 3141:1 3142:1 3143:1 3144:1 3145:1 3146:1 3147:1 3149:1 3151:1 3152:1 3153:1 3154:1 3155:1 3156:1 3157:1 3158:1 3160:1 3161:1 3163:1 3164:1 3165:1 3167:1 3168:1 3169:1 3171:1 3173:1 3174:1 3176:1 3177:1 3178:1 3182:1 3187:1 3188:1 3192:1 3194:1 3195:1 3197:1 3201:1 3203:1 3204:1 3206:1 3207:1 3208:1 3209:1 3210:1 3213:1 3215:1 3216:1 3217:1 3218:1 3220:1 3221:1 3222:1 3223:1 3224:1 3225:1 3226:1 3228:1 3230:1 3232:1 3237:1 3238:1 3241:1 3244:1 3246:1 3247:1 3249:1 3254:1 3255:1 3258:1 3259:1 3264:1 3266:1 3267:1 3268:1 3271:1 3272:1 3277:1 3278:1 3286:1 3293:1 3294:1 3295:1 3296:1 3297:1 3298:1 3310:1 3311:1 3314:1 3320:1 3326:1 3328:1 3329:1 3337:1 3338:1 3342:1 3349:1 3361:1 3363:1 3367:1 3370:1 3374:1 3375:1 3376:1 3378:1 3380:1 3399:1 3406:1 3414:1 3424:1 3426:1 3430:1 3432:1 3443:1 3448:1 3449:1 3456:1 3458:1 3465:1 3466:1 3485:1 3505:1 3511:1 3517:1 3537:1 3543:1 3546:1 3551:1 3564:1 3579:1 3580:1 3581:1 3589:1 3600:1 3605:1 3635:1 3636:1 3645:1 3657:1 3707:1 3716:1 3726:1 3728:1 3729:1 3745:1 3753:1 3764:1 3780:1 3799:1 3811:1 3814:1 3816:1 3823:1 3850:1 3873:1 3928:1 3968:1 3981:1 3989:1 3991:1 4091:1 4114:1 4126:1 4167:1 4190:1 4210:1 4231:1 4302:1 4386:1 4406:1 4408:1 4420:1 4423:1 4442:1 4480:1 4552:1 4563:1 4591:1 4646:1 4679:1 4703:1 4727:1 4741:1 4770:1 4818:1 4992:1 5023:1 5025:1 5104:1 5139:1 5280:1 5362:1 5377:1 5404:1 5431:1 5485:1 5492:1 5549:1 5582:1 5716:1 5796:1 5833:1 5967:1 6056:1 6088:1 6138:1 6161:1 #
-0.0038265468324352089855844294419285 5:1 17:1 22:1 30:1 41:1 42:1 43:1 44:1 45:1 46:1 47:1 48:1 49:1 50:1 51:1 52:1 58:1 110:1 370:1 475:1 505:1 656:1 910:1 1109:1 1186:1 1233:1 1409:1 1563:1 2062:1 2534:1 2651:1 2819:1 3113:1 3114:1 3115:1 3116:1 3117:1 3118:1 3119:1 3120:1 3121:1 3122:1 3123:1 3124:1 3125:1 3126:1 3127:1 3129:1 3130:1 3132:1 3134:1 3137:1 3138:1 3140:1 3145:1 3147:1 3148:1 3151:1 3152:1 3153:1 3154:1 3155:1 3157:1 3158:1 3161:1 3163:1 3164:1 3169:1 3172:1 3173:1 3175:1 3176:1 3178:1 3182:1 3186:1 3190:1 3197:1 3210:1 3215:1 3224:1 3237:1 3238:1 3244:1 3246:1 3250:1 3252:1 3258:1 3262:1 3265:1 3282:1 3284:1 3286:1 3293:1 3305:1 3322:1 3346:1 3406:1 3441:1 3458:1 3517:1 3518:1 3564:1 3580:1 3581:1 3586:1 3611:1 3620:1 3627:1 3650:1 3655:1 3729:1 3744:1 3748:1 3755:1 3772:1 3786:1 3899:1 3968:1 4032:1 4451:1 4465:1 4499:1 4651:1 4693:1 4743:1 4858:1 4899:1 4983:1 5084:1 5110:1 5143:1 5529:1 5701:1 5882:1 5928:1 5929:1 6132:1 6180:1 6217:1 #
-0.0034812120086051899330026326850884 2:1 14:1 15:1 30:1 32:1 42:1 50:1 53:1 54:1 55:1 56:1 57:1 58:1 59:1 60:1 61:1 62:1 63:1 64:1 65:1 66:1 67:1 68:1 69:1 70:1 71:1 72:1 73:1 74:1 75:1 76:1 77:1 78:1 79:1 80:1 81:1 90:1 110:1 128:1 284:1 440:1 580:1 693:1 694:1 814:1 850:1 1109:1 1497:1 1867:1 2176:1 2640:1 2819:1 3113:1 3114:1 3115:1 3116:1 3117:1 3118:1 3119:1 3120:1 3121:1 3122:1 3124:1 3125:1 3126:1 3127:1 3128:1 3129:1 3130:1 3132:1 3133:1 3134:1 3136:1 3137:1 3138:1 3139:1 3140:1 3141:1 3142:1 3143:1 3144:1 3145:1 3146:1 3147:1 3149:1 3150:1 3151:1 3153:1 3155:1 3156:1 3158:1 3161:1 3163:1 3165:1 3166:1 3167:1 3168:1 3169:1 3174:1 3175:1 3176:1 3178:1 3181:1 3183:1 3186:1 3188:1 3192:1 3199:1 3201:1 3202:1 3203:1 3204:1 3208:1 3209:1 3213:1 3214:1 3215:1 3216:1 3220:1 3223:1 3228:1 3233:1 3235:1 3237:1 3244:1 3247:1 3254:1 3255:1 3269:1 3271:1 3274:1 3277:1 3278:1 3280:1 3289:1 3294:1 3298:1 3304:1 3305:1 3307:1 3317:1 3318:1 3321:1 3322:1 3346:1 3347:1 3349:1 3361:1 3363:1 3364:1 3366:1 3368:1 3386:1 3396:1 3401:1 3407:1 3414:1 3416:1 3426:1 3444:1 3449:1 3479:1 3483:1 3484:1 3488:1 3509:1 3510:1 3511:1 3515:1 3528:1 3550:1 3553:1 3560:1 3573:1 3574:1 3584:1 3605:1 3612:1 3628:1 3634:1 3637:1 3645:1 3647:1 3658:1 3671:1 3677:1 3695:1 3710:1 3740:1 3771:1 3773:1 3876:1 3878:1 3972:1 3977:1 3991:1 3995:1 3996:1 4112:1 4187:1 4189:1 4255:1 4283:1 4286:1 4391:1 4481:1 4509:1 4511:1 4573:1 4619:1 4662:1 4690:1 4709:1 4715:1 4850:1 4927:1 5059:1 5067:1 5077:1 5181:1 5254:1 5301:1 5337:1 5514:1 5561:1 5609:1 5714:1 5801:1 5844:1 5945:1 6019:1 #
-0.0038265468324352089855844294419285 5:1 11:1 14:1 15:1 17:1 45:1 58:1 59:1 63:1 66:1 69:1 70:1 82:1 83:1 84:1 85:1 86:1 87:1 88:1 89:1 90:1 91:1 92:1 93:1 94:1 95:1 96:1 97:1 98:1 99:1 100:1 101:1 102:1 103:1 104:1 105:1 106:1 107:1 108:1 109:1 110:1 111:1 112:1 113:1 114:1 115:1 116:1 202:1 222:1 370:1 376:1 440:1 1186:1 1188:1 1497:1 1605:1 1674:1 1960:1 2388:1 2792:1 2819:1 3113:1 3114:1 3115:1 3116:1 3117:1 3118:1 3119:1 3120:1 3121:1 3122:1 3123:1 3124:1 3125:1 3126:1 3127:1 3128:1 3129:1 3130:1 3132:1 3133:1 3136:1 3137:1 3138:1 3139:1 3140:1 3141:1 3142:1 3143:1 3146:1 3147:1 3148:1 3150:1 3151:1 3152:1 3153:1 3154:1 3155:1 3156:1 3157:1 3158:1 3163:1 3165:1 3166:1 3167:1 3169:1 3170:1 3173:1 3175:1 3176:1 3182:1 3183:1 3186:1 3187:1 3189:1 3190:1 3191:1 3199:1 3201:1 3202:1 3206:1 3208:1 3212:1 3214:1 3216:1 3228:1 3241:1 3245:1 3246:1 3256:1 3257:1 3260:1 3275:1 3282:1 3289:1 3300:1 3304:1 3305:1 3307:1 3314:1 3318:1 3320:1 3325:1 3328:1 3339:1 3342:1 3348:1 3353:1 3370:1 3386:1 3393:1 3394:1 3399:1 3407:1 3410:1 3418:1 3429:1 3433:1 3434:1 3449:1 3455:1 3460:1 3514:1 3542:1 3544:1 3559:1 3579:1 3605:1 3615:1 3645:1 3682:1 3689:1 3691:1 3703:1 3718:1 3723:1 3727:1 3731:1 3740:1 3743:1 3790:1 3823:1 3924:1 3989:1 3991:1 3992:1 4008:1 4009:1 4110:1 4216:1 4226:1 4311:1 4335:1 4341:1 4369:1 4396:1 4426:1 4466:1 4488:1 4685:1 4686:1 4687:1 4690:1 4754:1 4789:1 4805:1 4838:1 5019:1 5022:1 5092:1 5172:1 5309:1 5314:1 5315:1 5425:1 5482:1 5484:1 5521:1 5546:1 5555:1 5658:1 5665:1 5743:1 5863:1 5879:1 6063:1 6079:1 6102:1 #
-0.0038265468324352089855844294419285 3:1 5:1 11:1 17:1 30:1 38:1 58:1 66:1 70:1 83:1 110:1 117:1 118:1 119:1 120:1 121:1 122:1 123:1 124:1 125:1 126:1 127:1 128:1 129:1 130:1 131:1 132:1 133:1 134:1 135:1 136:1 137:1 138:1 139:1 140:1 141:1 142:1 143:1 144:1 145:1 146:1 147:1 478:1 505:1 571:1 637:1 724:1 850:1 931:1 953:1 959:1 1179:1 1285:1 1311:1 1418:1 1455:1 1586:1 2329:1 2819:1 2910:1 3113:1 3114:1 3115:1 3116:1 3117:1 3118:1 3119:1 3120:1 3121:1 3122:1 3123:1 3124:1 3125:1 3126:1 3127:1 3128:1 3129:1 3130:1 3131:1 3132:1 3133:1 3134:1 3136:1 3137:1 3138:1 3139:1 3140:1 3141:1 3142:1 3143:1 3144:1 3145:1 3146:1 3147:1 3148:1 3149:1 3150:1 3151:1 3152:1 3153:1 3154:1 3155:1 3156:1 3158:1 3160:1 3161:1 3163:1 3164:1 3165:1 3166:1 3168:1 3169:1 3170:1 3171:1 3172:1 3173:1 3174:1 3175:1 3176:1 3181:1 3182:1 3183:1 3186:1 3190:1 3191:1 3192:1 3194:1 3195:1 3199:1 3200:1 3203:1 3204:1 3206:1 3208:1 3209:1 3212:1 3215:1 3216:1 3217:1 3220:1 3222:1 3223:1 3224:1 3230:1 3233:1 3234:1 3235:1 3237:1 3238:1 3241:1 3244:1 3246:1 3247:1 3250:1 3256:1 3257:1 3258:1 3259:1 3262:1 3266:1 3269:1 3272:1 3274:1 3275:1 3277:1 3278:1 3282:1 3291:1 3295:1 3304:1 3306:1 3318:1 3326:1 3333:1 3341:1 3346:1 3350:1 3351:1 3354:1 3356:1 3359:1 3360:1 3364:1 3368:1 3370:1 3373:1 3378:1 3382:1 3385:1 3387:1 3392:1 3395:1 3429:1 3451:1 3467:1 3468:1 3469:1 3470:1 3474:1 3479:1 3480:1 3492:1 3494:1 3495:1 3501:1 3535:1 3546:1 3553:1 3570:1 3575:1 3578:1 3581:1 3634:1 3637:1 3644:1 3658:1 3671:1 3678:1 3684:1 3686:1 3693:1 3694:1 3710:1 3726:1 3735:1 3737:1 3740:1 3758:1 3765:1 3795:1 3818:1 3826:1 3829:1 3833:1 3840:1 3841:1 3854:1 3898:1 3916:1 3938:1 3939:1 3977:1 3988:1 4005:1 4036:1 4148:1 4154:1 4227:1 4246:1 4249:1 4262:1 4297:1 4302:1 4309:1 4319:1 4321:1 4336:1 4337:1 4345:1 4394:1 4406:1 4431:1 4438:1 4473:1 4492:1 4518:1 4536:1 4569:1 4576:1 4577:1 4625:1 4645:1 4701:1 4728:1 4774:1 4855:1 4915:1 4929:1 4947:1 5078:1 5091:1 5187:1 5238:1 5316:1 5356:1 5371:1 5390:1 5418:1 5427:1 5453:1 5501:1 5529:1 5606:1 5635:1 5686:1 5718:1 5794:1 5869:1 5909:1 5948:1 5951:1 5977:1 6013:1 6015:1 6122:1 6167:1 #
0.0038265468324352089855844294419285 3:1 4:1 5:1 17:1 22:1 25:1 30:1 33:1 48:1 58:1 59:1 68:1 70:1 83:1 109:1 110:1 116:1 134:1 136:1 140:1 153:1 154:1 176:1 181:1 205:1 214:1 227:1 257:1 275:1 284:1 290:1 294:1 309:1 350:1 406:1 440:1 469:1 480:1 494:1 505:1 521:1 534:1 580:1 657:1 663:1 680:1 709:1 717:1 739:1 741:1 762:1 801:1 803:1 920:1 943:1 1015:1 1021:1 1035:1 1049:1 1067:1 1068:1 1109:1 1186:1 1196:1 1208:1 1223:1 1285:1 1346:1 1409:1 1485:1 1551:1 1578:1 1603:1 1644:1 1669:1 1814:1 1943:1 2074:1 2078:1 2178:1 2282:1 2413:1 2614:1 2819:1 2869:1 2932:1 3113:1 3114:1 3115:1 3116:1 3117:1 3118:1 3119:1 3120:1 3121:1 3122:1 3123:1 3124:1 3125:1 3126:1 3127:1 3128:1 3129:1 3130:1 3132:1 3133:1 3134:1 3136:1 3137:1 3138:1 3139:1 3140:1 3141:1 3142:1 3143:1 3144:1 3146:1 3147:1 3148:1 3149:1 3150:1 3151:1 3152:1 3153:1 3154:1 3155:1 3156:1 3157:1 3158:1 3160:1 3163:1 3166:1 3167:1 3168:1 3169:1 3170:1 3171:1 3175:1 3177:1 3178:1 3181:1 3182:1 3183:1 3186:1 3187:1 3188:1 3189:1 3192:1 3197:1 3202:1 3204:1 3206:1 3209:1 3210:1 3211:1 3212:1 3213:1 3215:1 3218:1 3220:1 3222:1 3225:1 3226:1 3232:1 3234:1 3238:1 3241:1 3245:1 3246:1 3250:1 3255:1 3257:1 3259:1 3262:1 3263:1 3264:1 3266:1 3267:1 3269:1 3275:1 3277:1 3283:1 3290:1 3295:1 3297:1 3303:1 3305:1 3307:1 3308:1 3314:1 3338:1 3342:1 3345:1 3346:1 3350:1 3354:1 3361:1 3364:1 3367:1 3368:1 3381:1 3383:1 3391:1 3414:1 3424:1 3425:1 3430:1 3433:1 3435:1 3448:1 3452:1 3465:1 3468:1 3484:1 3492:1 3501:1 3502:1 3508:1 3523:1 3531:1 3532:1 3537:1 3559:1 3563:1 3571:1 3596:1 3605:1 3606:1 3607:1 3631:1 3637:1 3641:1 3645:1 3669:1 3674:1 3677:1 3711:1 3735:1 3746:1 3747:1 3760:1 3765:1 3769:1 3802:1 3804:1 3819:1 3820:1 3925:1 3947:1 3960:1 3988:1 4002:1 4049:1 4065:1 4080:1 4100:1 4118:1 4123:1 4126:1 4167:1 4180:1 4191:1 4212:1 4221:1 4286:1 4306:1 4356:1 4390:1 4392:1 4427:1 4450:1 4461:1 4473:1 4490:1 4562:1 4599:1 4629:1 4646:1 4652:1 4653:1 4672:1 4687:1 4693:1 4746:1 4770:1 4823:1 4875:1 4876:1 4887:1 4917:1 4944:1 4960:1 5012:1 5041:1 5044:1 5178:1 5196:1 5232:1 5277:1 5303:1 5413:1 5527:1 5542:1 5556:1 5622:1 5718:1 5762:1 5917:1 5978:1 5981:1 5990:1 6030:1 #
0.0038265468324352089855844294419285 3:1 4:1 5:1 14:1 22:1 27:1 30:1 45:1 50:1 58:1 64:1 70:1 83:1 105:1 114:1 140:1 144:1 147:1 154:1 159:1 187:1 233:1 247:1 257:1 269:1 272:1 377:1 440:1 451:1 471:1 540:1 662:1 682:1 724:1 730:1 737:1 766:1 809:1 911:1 1052:1 1084:1 1287:1 1336:1 1586:1 1604:1 1626:1 1663:1 1727:1 2197:1 2219:1 2365:1 2549:1 2573:1 2585:1 2725:1 2818:1 2819:1 3113:1 3114:1 3115:1 3116:1 3117:1 3118:1 3119:1 3120:1 3121:1 3122:1 3123:1 3124:1 3125:1 3126:1 3127:1 3128:1 3129:1 3130:1 3131:1 3132:1 3133:1 3134:1 3136:1 3137:1 3138:1 3140:1 3141:1 3143:1 3144:1 3145:1 3146:1 3147:1 3148:1 3149:1 3150:1 3151:1 3152:1 3153:1 3154:1 3155:1 3156:1 3157:1 3158:1 3163:1 3164:1 3165:1 3167:1 3171:1 3174:1 3181:1 3182:1 3187:1 3189:1 3190:1 3192:1 3194:1 3202:1 3203:1 3208:1 3209:1 3210:1 3212:1 3214:1 3218:1 3220:1 3221:1 3223:1 3226:1 3228:1 3230:1 3232:1 3238:1 3239:1 3244:1 3246:1 3259:1 3262:1 3263:1 3266:1 3267:1 3268:1 3271:1 3272:1 3274:1 3277:1 3280:1 3284:1 3285:1 3286:1 3289:1 3298:1 3300:1 3304:1 3305:1 3311:1 3322:1 3325:1 3327:1 3330:1 3333:1 3345:1 3360:1 3362:1 3373:1 3377:1 3386:1 3389:1 3393:1 3394:1 3397:1 3412:1 3415:1 3429:1 3431:1 3476:1 3491:1 3505:1 3515:1 3544:1 3546:1 3559:1 3563:1 3570:1 3602:1 3606:1 3636:1 3675:1 3695:1 3710:1 3712:1 3724:1 3747:1 3766:1 3769:1 3771:1 3803:1 3804:1 3851:1 3854:1 3873:1 3899:1 3909:1 3911:1 3946:1 3963:1 3978:1 3981:1 4004:1 4108:1 4111:1 4128:1 4212:1 4216:1 4260:1 4272:1 4279:1 4300:1 4347:1 4361:1 4366:1 4369:1 4374:1 4461:1 4531:1 4535:1 4542:1 4563:1 4614:1 4616:1 4630:1 4635:1 4645:1 4696:1 4702:1 4768:1 4790:1 4814:1 4857:1 4974:1 5085:1 5122:1 5160:1 5259:1 5471:1 5523:1 5596:1 5646:1 5652:1 5747:1 5850:1 6033:1 6062:1 #
0.0038265468324352089855844294419285 4:1 5:1 7:1 15:1 22:1 24:1 30:1 33:1 35:1 45:1 51:1 57:1 58:1 59:1 63:1 66:1 77:1 83:1 103:1 109:1 110:1 148:1 181:1 238:1 249:1 290:1 296:1 298:1 308:1 353:1 365:1 440:1 566:1 571:1 579:1 656:1 694:1 724:1 805:1 850:1 994:1 1109:1 1122:1 1186:1 1217:1 1285:1 1363:1 1428:1 1608:1 1614:1 1649:1 1960:1 2026:1 2038:1 2256:1 2819:1 2865:1 2933:1 3113:1 3114:1 3115:1 3116:1 3117:1 3118:1 3119:1 3120:1 3121:1 3122:1 3124:1 3125:1 3126:1 3127:1 3128:1 3129:1 3130:1 3132:1 3133:1 3136:1 3138:1 3139:1 3140:1 3141:1 3143:1 3144:1 3145:1 3147:1 3148:1 3149:1 3150:1 3151:1 3153:1 3154:1 3155:1 3156:1 3157:1 3158:1 3160:1 3161:1 3163:1 3164:1 3167:1 3168:1 3169:1 3172:1 3174:1 3175:1 3181:1 3182:1 3186:1 3190:1 3192:1 3199:1 3203:1 3209:1 3210:1 3211:1 3212:1 3213:1 3214:1 3215:1 3218:1 3220:1 3230:1 3231:1 3238:1 3239:1 3244:1 3256:1 3265:1 3268:1 3277:1 3282:1 3284:1 3295:1 3298:1 3312:1 3317:1 3318:1 3325:1 3326:1 3327:1 3329:1 3339:1 3341:1 3346:1 3348:1 3360:1 3364:1 3382:1 3395:1 3406:1 3434:1 3448:1 3478:1 3480:1 3487:1 3491:1 3493:1 3501:1 3514:1 3519:1 3523:1 3531:1 3575:1 3584:1 3594:1 3606:1 3608:1 3620:1 3647:1 3675:1 3690:1 3703:1 3711:1 3720:1 3722:1 3748:1 3768:1 3769:1 3852:1 3865:1 3912:1 3928:1 4001:1 4027:1 4038:1 4201:1 4250:1 4300:1 4306:1 4318:1 4320:1 4328:1 4329:1 4347:1 4370:1 4378:1 4497:1 4567:1 4633:1 4746:1 4774:1 4887:1 5012:1 5075:1 5102:1 5123:1 5190:1 5363:1 5373:1 5448:1 5457:1 5570:1 5582:1 5696:1 6009:1 6030:1 6152:1 #
-0.0019015868428414520446140256737522 4:1 5:1 14:1 33:1 34:1 42:1 45:1 56:1 64:1 66:1 81:1 111:1 129:1 143:1 147:1 154:1 176:1 182:1 257:1 289:1 292:1 294:1 296:1 373:1 376:1 379:1 380:1 399:1 402:1 418:1 440:1 629:1 745:1 749:1 755:1 873:1 892:1 915:1 1026:1 1128:1 1146:1 1179:1 1186:1 1189:1 1231:1 1243:1 1285:1 1296:1 1394:1 1454:1 1608:1 1623:1 1721:1 1762:1 1823:1 1964:1 1990:1 2038:1 2240:1 2273:1 2274:1 2275:1 2725:1 2819:1 3113:1 3114:1 3115:1 3116:1 3117:1 3118:1 3119:1 3120:1 3121:1 3122:1 3123:1 3124:1 3125:1 3126:1 3127:1 3128:1 3129:1 3130:1 3131:1 3132:1 3133:1 3134:1 3136:1 3137:1 3138:1 3139:1 3140:1 3141:1 3142:1 3143:1 3145:1 3146:1 3147:1 3148:1 3149:1 3150:1 3151:1 3152:1 3153:1 3155:1 3156:1 3160:1 3163:1 3164:1 3165:1 3166:1 3169:1 3171:1 3172:1 3173:1 3176:1 3178:1 3181:1 3182:1 3183:1 3186:1 3190:1 3192:1 3194:1 3197:1 3199:1 3200:1 3202:1 3204:1 3211:1 3216:1 3220:1 3225:1 3235:1 3238:1 3241:1 3244:1 3246:1 3247:1 3249:1 3252:1 3254:1 3257:1 3263:1 3267:1 3271:1 3275:1 3289:1 3291:1 3295:1 3297:1 3306:1 3307:1 3322:1 3324:1 3335:1 3339:1 3345:1 3347:1 3351:1 3354:1 3356:1 3363:1 3366:1 3367:1 3376:1 3377:1 3392:1 3396:1 3399:1 3400:1 3410:1 3412:1 3415:1 3428:1 3429:1 3444:1 3455:1 3469:1 3479:1 3485:1 3487:1 3493:1 3509:1 3513:1 3520:1 3531:1 3532:1 3535:1 3544:1 3552:1 3556:1 3582:1 3586:1 3587:1 3605:1 3631:1 3693:1 3699:1 3700:1 3703:1 3727:1 3728:1 3738:1 3758:1 3840:1 3875:1 3882:1 3897:1 3925:1 3959:1 4067:1 4101:1 4122:1 4134:1 4217:1 4264:1 4328:1 4347:1 4512:1 4516:1 4625:1 4666:1 4878:1 4915:1 4926:1 4973:1 5022:1 5074:1 5077:1 5192:1 5224:1 5247:1 5443:1 5454:1 5503:1 5522:1 5540:1 5691:1 5937:1 6172:1 6209:1 #
0.0038265468324352089855844294419285 15:1 22:1 25:1 30:1 33:1 34:1 40:1 58:1 59:1 66:1 70:1 94:1 110:1 116:1 124:1 159:1 169:1 181:1 213:1 222:1 230:1 247:1 276:1 294:1 301:1 348:1 349:1 403:1 408:1 418:1 440:1 505:1 508:1 522:1 717:1 845:1 850:1 920:1 924:1 925:1 947:1 1009:1 1023:1 1041:1 1055:1 1123:1 1175:1 1243:1 1309:1 1325:1 1409:1 1543:1 1547:1 1555:1 1664:1 1709:1 1890:1 2048:1 2059:1 2062:1 2165:1 2178:1 2353:1 2534:1 2819:1 2866:1 3053:1 3113:1 3114:1 3115:1 3116:1 3117:1 3118:1 3119:1 3120:1 3121:1 3122:1 3123:1 3125:1 3126:1 3127:1 3128:1 3129:1 3130:1 3131:1 3132:1 3133:1 3134:1 3136:1 3137:1 3138:1 3139:1 3140:1 3141:1 3142:1 3143:1 3144:1 3145:1 3146:1 3147:1 3148:1 3149:1 3150:1 3151:1 3152:1 3156:1 3157:1 3158:1 3160:1 3164:1 3167:1 3168:1 3169:1 3171:1 3173:1 3174:1 3175:1 3176:1 3177:1 3181:1 3182:1 3183:1 3191:1 3194:1 3195:1 3201:1 3203:1 3206:1 3207:1 3211:1 3214:1 3218:1 3220:1 3222:1 3223:1 3231:1 3232:1 3235:1 3239:1 3241:1 3244:1 3245:1 3247:1 3254:1 3255:1 3256:1 3257:1 3269:1 3271:1 3272:1 3277:1 3281:1 3284:1 3293:1 3294:1 3298:1 3303:1 3306:1 3317:1 3328:1 3330:1 3335:1 3339:1 3342:1 3347:1 3362:1 3370:1 3384:1 3391:1 3397:1 3406:1 3407:1 3425:1 3428:1 3434:1 3440:1 3466:1 3495:1 3502:1 3522:1 3569:1 3572:1 3578:1 3582:1 3586:1 3602:1 3605:1 3616:1 3626:1 3627:1 3628:1 3635:1 3638:1 3657:1 3722:1 3724:1 3748:1 3777:1 3785:1 3790:1 3797:1 3923:1 3948:1 3959:1 3972:1 3990:1 4000:1 4007:1 4050:1 4080:1 4102:1 4134:1 4173:1 4208:1 4222:1 4244:1 4252:1 4318:1 4328:1 4356:1 4438:1 4463:1 4718:1 4780:1 4884:1 4889:1 4994:1 5042:1 5066:1 5201:1 5272:1 5299:1 5369:1 5396:1 5416:1 5499:1 5561:1 5630:1 5632:1 5675:1 5721:1 5727:1 5735:1 5777:1 5905:1 5912:1 5924:1 5999:1 6025:1 6030:1 6053:1 6062:1 6092:1 #
-0.0038265468324352089855844294419285 5:1 7:1 14:1 18:1 22:1 28:1 30:1 33:1 34:1 35:1 45:1 51:1 57:1 58:1 59:1 65:1 66:1 70:1 83:1 85:1 90:1 105:1 109:1 110:1 111:1 116:1 140:1 141:1 144:1 147:1 148:1 151:1 154:1 159:1 166:1 171:1 175:1 181:1 182:1 208:1 221:1 224:1 230:1 237:1 249:1 256:1 257:1 290:1 293:1 294:1 298:1 308:1 309:1 348:1 358:1 402:1 403:1 410:1 416:1 440:1 443:1 454:1 474:1 478:1 479:1 538:1 566:1 587:1 613:1 638:1 665:1 668:1 714:1 814:1 843:1 850:1 852:1 925:1 1040:1 1041:1 1070:1 1074:1 1091:1 1186:1 1217:1 1243:1 1284:1 1369:1 1444:1 1459:1 1570:1 1589:1 1642:1 1715:1 1743:1 1783:1 1797:1 1819:1 1917:1 1922:1 1926:1 1927:1 1928:1 1929:1 1930:1 1931:1 1932:1 1933:1 1959:1 2059:1 2062:1 2146:1 2156:1 2240:1 2534:1 2729:1 2819:1 3113:1 3114:1 3115:1 3116:1 3117:1 3118:1 3119:1 3120:1 3121:1 3122:1 3123:1 3124:1 3125:1 3126:1 3127:1 3128:1 3129:1 3130:1 3131:1 3132:1 3133:1 3134:1 3136:1 3137:1 3138:1 3139:1 3140:1 3141:1 3142:1 3143:1 3144:1 3146:1 3148:1 3149:1 3150:1 3151:1 3152:1 3153:1 3154:1 3155:1 3157:1 3158:1 3160:1 3163:1 3164:1 3165:1 3166:1 3167:1 3168:1 3170:1 3171:1 3172:1 3173:1 3174:1 3175:1 3176:1 3177:1 3178:1 3182:1 3183:1 3186:1 3187:1 3188:1 3189:1 3190:1 3192:1 3194:1 3195:1 3199:1 3200:1 3201:1 3204:1 3206:1 3209:1 3210:1 3211:1 3212:1 3213:1 3214:1 3215:1 3216:1 3217:1 3218:1 3220:1 3223:1 3224:1 3226:1 3230:1 3232:1 3234:1 3237:1 3238:1 3239:1 3241:1 3244:1 3245:1 3249:1 3250:1 3252:1 3254:1 3255:1 3257:1 3259:1 3260:1 3263:1 3264:1 3265:1 3266:1 3267:1 3268:1 3269:1 3271:1 3272:1 3275:1 3277:1 3281:1 3283:1 3284:1 3285:1 3286:1 3291:1 3294:1 3297:1 3303:1 3304:1 3305:1 3306:1 3311:1 3320:1 3321:1 3322:1 3324:1 3327:1 3328:1 3329:1 3330:1 3333:1 3335:1 3338:1 3346:1 3350:1 3360:1 3366:1 3370:1 3374:1 3377:1 3380:1 3383:1 3386:1 3387:1 3394:1 3395:1 3412:1 3413:1 3421:1 3425:1 3428:1 3429:1 3432:1 3433:1 3435:1 3444:1 3448:1 3449:1 3453:1 3456:1 3460:1 3474:1 3489:1 3492:1 3493:1 3499:1 3501:1 3515:1 3518:1 3522:1 3526:1 3531:1 3532:1 3545:1 3550:1 3552:1 3564:1 3569:1 3571:1 3578:1 3582:1 3589:1 3606:1 3607:1 3622:1 3623:1 3624:1 3631:1 3647:1 3652:1 3658:1 3669:1 3685:1 3687:1 3691:1 3697:1 3710:1 3712:1 3727:1 3735:1 3739:1 3743:1 3753:1 3754:1 3764:1 3768:1 3769:1 3772:1 3777:1 3778:1 3780:1 3790:1 3803:1 3804:1 3826:1 3828:1 3834:1 3840:1 3862:1 3863:1 3882:1 3893:1 3906:1 3921:1 3925:1 3934:1 3935:1 3946:1 3957:1 3962:1 3963:1 3983:1 4029:1 4035:1 4037:1 4047:1 4065:1 4093:1 4095:1 4097:1 4106:1 4113:1 4119:1 4132:1 4142:1 4191:1 4198:1 4216:1 4217:1 4219:1 4252:1 4273:1 4284:1 4296:1 4297:1 4321:1 4349:1 4352:1 4369:1 4396:1 4427:1 4442:1 4483:1 4488:1 4502:1 4522:1 4544:1 4593:1 4603:1 4623:1 4643:1 4653:1 4670:1 4682:1 4696:1 4716:1 4732:1 4745:1 4773:1 4828:1 4845:1 4871:1 4884:1 4891:1 4912:1 4916:1 4946:1 4984:1 5015:1 5029:1 5032:1 5055:1 5096:1 5103:1 5122:1 5139:1 5165:1 5188:1 5198:1 5212:1 5232:1 5288:1 5290:1 5296:1 5309:1 5327:1 5338:1 5355:1 5362:1 5403:1 5405:1 5435:1 5443:1 5490:1 5495:1 5545:1 5564:1 5606:1 5636:1 5661:1 5683:1 5709:1 5754:1 5844:1 5865:1 5940:1 5943:1 5972:1 5990:1 6037:1 6107:1 6121:1 6142:1 6190:1 6193:1 6207:1 6215:1 6219:1 #
-0.0015484085362887751394916913127986 3:1 4:1 6:1 9:1 14:1 22:1 30:1 32:1 33:1 51:1 58:1 66:1 83:1 85:1 94:1 112:1 116:1 124:1 166:1 181:1 186:1 225:1 241:1 284:1 291:1 294:1 303:1 306:1 374:1 399:1 404:1 407:1 435:1 436:1 440:1 458:1 465:1 480:1 483:1 514:1 519:1 524:1 534:1 556:1 571:1 613:1 643:1 682:1 765:1 768:1 841:1 892:1 916:1 921:1 940:1 956:1 961:1 980:1 990:1 1034:1 1038:1 1041:1 1045:1 1094:1 1186:1 1232:1 1234:1 1243:1 1251:1 1254:1 1257:1 1285:1 1290:1 1301:1 1418:1 1437:1 1541:1 1560:1 1576:1 1667:1 1674:1 1677:1 1689:1 1785:1 1826:1 1903:1 1965:1 2074:1 2078:1 2134:1 2162:1 2178:1 2179:1 2180:1 2181:1 2182:1 2183:1 2184:1 2185:1 2186:1 2187:1 2188:1 2189:1 2190:1 2191:1 2219:1 2240:1 2313:1 2360:1 2387:1 2538:1 2597:1 2819:1 3113:1 3114:1 3115:1 3116:1 3117:1 3118:1 3119:1 3120:1 3121:1 3122:1 3123:1 3124:1 3125:1 3126:1 3127:1 3128:1 3129:1 3130:1 3131:1 3132:1 3133:1 3134:1 3136:1 3137:1 3138:1 3139:1 3141:1 3142:1 3143:1 3144:1 3145:1 3146:1 3147:1 3148:1 3149:1 3150:1 3151:1 3152:1 3153:1 3155:1 3157:1 3158:1 3160:1 3161:1 3163:1 3164:1 3165:1 3166:1 3167:1 3168:1 3171:1 3172:1 3173:1 3174:1 3175:1 3176:1 3177:1 3181:1 3182:1 3186:1 3187:1 3189:1 3190:1 3191:1 3192:1 3194:1 3202:1 3203:1 3204:1 3206:1 3208:1 3209:1 3212:1 3213:1 3217:1 3218:1 3220:1 3221:1 3222:1 3225:1 3230:1 3231:1 3232:1 3233:1 3234:1 3235:1 3238:1 3239:1 3241:1 3245:1 3247:1 3249:1 3250:1 3252:1 3254:1 3255:1 3259:1 3263:1 3264:1 3267:1 3268:1 3271:1 3274:1 3280:1 3281:1 3283:1 3284:1 3289:1 3290:1 3294:1 3296:1 3297:1 3298:1 3314:1 3317:1 3321:1 3324:1 3325:1 3326:1 3329:1 3333:1 3335:1 3336:1 3337:1 3338:1 3348:1 3350:1 3354:1 3356:1 3359:1 3360:1 3362:1 3363:1 3368:1 3371:1 3381:1 3383:1 3386:1 3391:1 3396:1 3401:1 3407:1 3409:1 3412:1 3420:1 3426:1 3428:1 3443:1 3455:1 3467:1 3468:1 3476:1 3489:1 3491:1 3510:1 3514:1 3531:1 3535:1 3537:1 3542:1 3548:1 3549:1 3552:1 3570:1 3577:1 3586:1 3587:1 3589:1 3609:1 3614:1 3635:1 3645:1 3656:1 3692:1 3694:1 3695:1 3718:1 3722:1 3736:1 3751:1 3768:1 3778:1 3796:1 3798:1 3802:1 3825:1 3827:1 3834:1 3851:1 3882:1 3941:1 3947:1 3955:1 3963:1 3970:1 4002:1 4008:1 4009:1 4041:1 4050:1 4069:1 4101:1 4126:1 4147:1 4170:1 4208:1 4211:1 4242:1 4246:1 4262:1 4268:1 4291:1 4307:1 4309:1 4310:1 4313:1 4323:1 4327:1 4337:1 4346:1 4353:1 4361:1 4379:1 4394:1 4408:1 4423:1 4427:1 4445:1 4474:1 4483:1 4490:1 4508:1 4517:1 4520:1 4529:1 4568:1 4607:1 4620:1 4679:1 4682:1 4691:1 4694:1 4746:1 4750:1 4838:1 4955:1 4983:1 5014:1 5015:1 5026:1 5081:1 5094:1 5131:1 5161:1 5190:1 5271:1 5277:1 5311:1 5315:1 5408:1 5439:1 5482:1 5484:1 5596:1 5608:1 5653:1 5869:1 5874:1 5994:1 6020:1 6032:1 6047:1 6080:1 6088:1 6098:1 6187:1 #
-0.0032758095835147007200693902717603 3:1 4:1 5:1 15:1 19:1 22:1 24:1 27:1 30:1 34:1 45:1 56:1 58:1 66:1 72:1 83:1 85:1 90:1 110:1 124:1 137:1 147:1 152:1 159:1 175:1 176:1 181:1 211:1 227:1 238:1 257:1 269:1 275:1 292:1 371:1 399:1 414:1 440:1 456:1 461:1 474:1 505:1 587:1 589:1 720:1 734:1 969:1 1041:1 1053:1 1096:1 1109:1 1127:1 1128:1 1149:1 1179:1 1214:1 1306:1 1347:1 1409:1 1454:1 1509:1 1511:1 1532:1 1585:1 1612:1 1645:1 1662:1 1927:1 1947:1 2038:1 2059:1 2156:1 2293:1 2362:1 2651:1 2792:1 2818:1 2941:1 3113:1 3114:1 3115:1 3116:1 3117:1 3118:1 3119:1 3120:1 3121:1 3122:1 3123:1 3124:1 3125:1 3126:1 3127:1 3128:1 3129:1 3130:1 3131:1 3132:1 3133:1 3134:1 3136:1 3137:1 3138:1 3139:1 3140:1 3141:1 3142:1 3143:1 3144:1 3145:1 3146:1 3147:1 3148:1 3149:1 3150:1 3151:1 3152:1 3153:1 3154:1 3155:1 3156:1 3157:1 3158:1 3160:1 3163:1 3164:1 3165:1 3167:1 3168:1 3170:1 3171:1 3172:1 3174:1 3175:1 3181:1 3182:1 3183:1 3188:1 3189:1 3191:1 3192:1 3197:1 3202:1 3203:1 3204:1 3206:1 3207:1 3211:1 3212:1 3213:1 3214:1 3220:1 3221:1 3222:1 3223:1 3228:1 3230:1 3231:1 3235:1 3237:1 3238:1 3241:1 3244:1 3245:1 3246:1 3249:1 3254:1 3255:1 3256:1 3257:1 3262:1 3263:1 3268:1 3269:1 3271:1 3272:1 3280:1 3284:1 3290:1 3291:1 3293:1 3294:1 3296:1 3298:1 3303:1 3306:1 3314:1 3318:1 3321:1 3326:1 3327:1 3329:1 3333:1 3336:1 3337:1 3338:1 3340:1 3345:1 3356:1 3362:1 3364:1 3367:1 3370:1 3373:1 3381:1 3384:1 3407:1 3409:1 3410:1 3416:1 3420:1 3421:1 3434:1 3443:1 3451:1 3458:1 3465:1 3467:1 3476:1 3480:1 3490:1 3499:1 3509:1 3520:1 3526:1 3538:1 3542:1 3548:1 3551:1 3556:1 3559:1 3564:1 3577:1 3586:1 3606:1 3614:1 3632:1 3636:1 3649:1 3659:1 3670:1 3674:1 3675:1 3687:1 3692:1 3718:1 3733:1 3740:1 3796:1 3803:1 3808:1 3825:1 3877:1 3894:1 3913:1 3920:1 3925:1 3927:1 3939:1 3997:1 4029:1 4091:1 4095:1 4107:1 4148:1 4158:1 4168:1 4198:1 4264:1 4275:1 4295:1 4303:1 4350:1 4395:1 4423:1 4474:1 4487:1 4562:1 4563:1 4597:1 4686:1 4737:1 4755:1 4763:1 4773:1 4776:1 4808:1 4867:1 4873:1 4880:1 4889:1 4954:1 5041:1 5104:1 5161:1 5178:1 5240:1 5244:1 5293:1 5305:1 5387:1 5465:1 5477:1 5490:1 5491:1 5507:1 5521:1 5540:1 5565:1 5602:1 5650:1 5721:1 5883:1 6030:1 #
-0.0027105322236491862820939591216529 3:1 5:1 14:1 20:1 22:1 30:1 33:1 56:1 58:1 61:1 66:1 72:1 76:1 83:1 84:1 94:1 109:1 110:1 112:1 116:1 121:1 124:1 132:1 134:1 146:1 147:1 176:1 181:1 206:1 220:1 226:1 234:1 265:1 275:1 290:1 330:1 395:1 399:1 403:1 435:1 440:1 443:1 451:1 456:1 469:1 476:1 480:1 504:1 519:1 521:1 525:1 534:1 571:1 572:1 591:1 605:1 613:1 654:1 660:1 662:1 722:1 729:1 750:1 755:1 795:1 809:1 850:1 884:1 942:1 1033:1 1037:1 1041:1 1045:1 1052:1 1072:1 1074:1 1081:1 1186:1 1234:1 1285:1 1298:1 1307:1 1418:1 1493:1 1496:1 1544:1 1625:1 1649:1 1678:1 1877:1 1901:1 1927:1 1995:1 1997:1 2046:1 2074:1 2078:1 2136:1 2156:1 2164:1 2175:1 2178:1 2189:1 2197:1 2290:1 2314:1 2327:1 2340:1 2341:1 2342:1 2343:1 2344:1 2345:1 2346:1 2347:1 2348:1 2633:1 2760:1 2819:1 2890:1 3113:1 3114:1 3115:1 3116:1 3117:1 3118:1 3119:1 3120:1 3121:1 3122:1 3123:1 3124:1 3125:1 3126:1 3127:1 3128:1 3129:1 3130:1 3131:1 3132:1 3133:1 3134:1 3136:1 3137:1 3138:1 3139:1 3140:1 3141:1 3142:1 3143:1 3144:1 3145:1 3146:1 3147:1 3148:1 3149:1 3150:1 3151:1 3153:1 3155:1 3156:1 3157:1 3158:1 3160:1 3161:1 3163:1 3164:1 3165:1 3167:1 3168:1 3169:1 3171:1 3172:1 3174:1 3175:1 3176:1 3177:1 3181:1 3186:1 3187:1 3188:1 3194:1 3195:1 3197:1 3199:1 3200:1 3201:1 3203:1 3204:1 3206:1 3209:1 3211:1 3212:1 3213:1 3215:1 3216:1 3217:1 3218:1 3220:1 3222:1 3223:1 3226:1 3231:1 3232:1 3233:1 3237:1 3238:1 3241:1 3247:1 3250:1 3259:1 3263:1 3264:1 3266:1 3267:1 3269:1 3272:1 3275:1 3278:1 3280:1 3283:1 3284:1 3285:1 3290:1 3291:1 3296:1 3306:1 3307:1 3314:1 3318:1 3321:1 3322:1 3324:1 3326:1 3330:1 3335:1 3338:1 3339:1 3345:1 3350:1 3351:1 3356:1 3363:1 3366:1 3371:1 3374:1 3377:1 3381:1 3383:1 3384:1 3387:1 3393:1 3394:1 3396:1 3401:1 3413:1 3414:1 3416:1 3449:1 3466:1 3479:1 3480:1 3483:1 3488:1 3495:1 3501:1 3503:1 3511:1 3513:1 3531:1 3548:1 3550:1 3559:1 3563:1 3570:1 3571:1 3582:1 3596:1 3598:1 3612:1 3614:1 3620:1 3634:1 3645:1 3656:1 3658:1 3671:1 3674:1 3680:1 3691:1 3692:1 3695:1 3700:1 3722:1 3725:1 3736:1 3737:1 3748:1 3764:1 3769:1 3780:1 3793:1 3802:1 3803:1 3804:1 3829:1 3833:1 3844:1 3863:1 3864:1 3882:1 3903:1 3905:1 3923:1 3946:1 3959:1 3960:1 3963:1 3977:1 3991:1 3996:1 4001:1 4004:1 4007:1 4034:1 4041:1 4044:1 4098:1 4100:1 4102:1 4150:1 4181:1 4197:1 4206:1 4220:1 4224:1 4227:1 4228:1 4242:1 4245:1 4270:1 4274:1 4275:1 4316:1 4330:1 4335:1 4345:1 4370:1 4378:1 4415:1 4423:1 4430:1 4459:1 4473:1 4486:1 4499:1 4516:1 4529:1 4536:1 4574:1 4584:1 4618:1 4620:1 4652:1 4658:1 4706:1 4717:1 4722:1 4732:1 4782:1 4786:1 4842:1 4932:1 4940:1 4952:1 4954:1 4998:1 5035:1 5091:1 5140:1 5194:1 5288:1 5293:1 5366:1 5400:1 5413:1 5430:1 5531:1 5602:1 5620:1 5718:1 5803:1 5924:1 5965:1 6015:1 6086:1 6102:1 6109:1 6115:1 #
0.00021152641233176331780202472643282 15:1 17:1 18:1 22:1 27:1 30:1 32:1 33:1 34:1 41:1 51:1 55:1 58:1 59:1 66:1 72:1 75:1 115:1 116:1 145:1 209:1 219:1 245:1 289:1 291:1 430:1 440:1 443:1 465:1 476:1 505:1 587:1 626:1 733:1 768:1 846:1 850:1 867:1 872:1 960:1 1074:1 1187:1 1188:1 1350:1 1353:1 1586:1 1588:1 1590:1 1667:1 1674:1 1793:1 1994:1 2023:1 2218:1 2400:1 2702:1 2768:1 2818:1 2973:1 3113:1 3114:1 3115:1 3116:1 3117:1 3118:1 3119:1 3120:1 3121:1 3122:1 3123:1 3124:1 3125:1 3126:1 3127:1 3128:1 3129:1 3130:1 3131:1 3132:1 3133:1 3134:1 3136:1 3137:1 3138:1 3139:1 3142:1 3143:1 3144:1 3145:1 3147:1 3148:1 3150:1 3151:1 3152:1 3153:1 3154:1 3160:1 3161:1 3163:1 3166:1 3167:1 3170:1 3173:1 3174:1 3176:1 3177:1 3178:1 3181:1 3188:1 3189:1 3190:1 3194:1 3201:1 3204:1 3208:1 3212:1 3215:1 3216:1 3217:1 3221:1 3222:1 3228:1 3233:1 3234:1 3245:1 3263:1 3266:1 3268:1 3283:1 3286:1 3290:1 3294:1 3300:1 3314:1 3318:1 3324:1 3327:1 3329:1 3335:1 3336:1 3337:1 3339:1 3347:1 3348:1 3362:1 3370:1 3374:1 3375:1 3378:1 3381:1 3383:1 3386:1 3389:1 3392:1 3400:1 3408:1 3410:1 3416:1 3434:1 3451:1 3457:1 3467:1 3468:1 3469:1 3478:1 3493:1 3495:1 3500:1 3503:1 3529:1 3537:1 3539:1 3553:1 3559:1 3578:1 3613:1 3646:1 3655:1 3677:1 3678:1 3693:1 3694:1 3696:1 3710:1 3727:1 3729:1 3748:1 3767:1 3773:1 3779:1 3804:1 3806:1 3818:1 3827:1 3848:1 3854:1 3866:1 3920:1 3945:1 3974:1 3992:1 4020:1 4093:1 4100:1 4108:1 4117:1 4148:1 4171:1 4172:1 4189:1 4197:1 4220:1 4231:1 4326:1 4350:1 4354:1 4361:1 4440:1 4464:1 4473:1 4477:1 4483:1 4504:1 4508:1 4564:1 4573:1 4574:1 4632:1 4666:1 4781:1 4860:1 4888:1 4912:1 4919:1 4936:1 4938:1 4945:1 4955:1 5009:1 5019:1 5020:1 5041:1 5101:1 5143:1 5189:1 5203:1 5208:1 5281:1 5355:1 5409:1 5444:1 5555:1 5645:1 5808:1 5840:1 5936:1 5953:1 6028:1 6153:1 6216:1 #
0.003000642038660589032417203014802 1:1 5:1 14:1 16:1 17:1 33:1 34:1 51:1 58:1 59:1 70:1 72:1 76:1 83:1 99:1 110:1 140:1 171:1 181:1 188:1 249:1 264:1 275:1 281:1 290:1 306:1 370:1 440:1 479:1 490:1 498:1 587:1 609:1 618:1 627:1 737:1 768:1 885:1 886:1 957:1 974:1 1013:1 1035:1 1100:1 1179:1 1186:1 1270:1 1285:1 1345:1 1452:1 1586:1 1812:1 1894:1 2038:1 2135:1 2140:1 2249:1 2393:1 2725:1 2813:1 2818:1 2819:1 2834:1 3113:1 3114:1 3115:1 3116:1 3117:1 3118:1 3119:1 3120:1 3121:1 3122:1 3123:1 3124:1 3125:1 3126:1 3127:1 3128:1 3129:1 3130:1 3131:1 3132:1 3133:1 3134:1 3136:1 3137:1 3139:1 3140:1 3142:1 3144:1 3145:1 3146:1 3147:1 3148:1 3149:1 3151:1 3152:1 3153:1 3155:1 3156:1 3161:1 3163:1 3165:1 3166:1 3168:1 3169:1 3170:1 3171:1 3172:1 3173:1 3175:1 3177:1 3178:1 3183:1 3186:1 3187:1 3188:1 3189:1 3192:1 3194:1 3195:1 3197:1 3199:1 3206:1 3207:1 3208:1 3209:1 3212:1 3215:1 3222:1 3223:1 3225:1 3226:1 3228:1 3230:1 3231:1 3232:1 3233:1 3235:1 3237:1 3241:1 3245:1 3246:1 3247:1 3250:1 3258:1 3260:1 3263:1 3265:1 3267:1 3271:1 3274:1 3275:1 3281:1 3282:1 3283:1 3289:1 3293:1 3303:1 3305:1 3306:1 3308:1 3310:1 3311:1 3312:1 3326:1 3329:1 3340:1 3341:1 3350:1 3353:1 3354:1 3359:1 3361:1 3370:1 3386:1 3387:1 3395:1 3399:1 3407:1 3414:1 3415:1 3416:1 3420:1 3431:1 3433:1 3434:1 3483:1 3484:1 3489:1 3493:1 3499:1 3515:1 3526:1 3535:1 3544:1 3551:1 3578:1 3584:1 3594:1 3636:1 3637:1 3647:1 3681:1 3695:1 3699:1 3700:1 3728:1 3770:1 3771:1 3773:1 3804:1 3805:1 3809:1 3816:1 3823:1 3844:1 3905:1 3913:1 3932:1 3947:1 3963:1 3977:1 3995:1 4026:1 4044:1 4054:1 4075:1 4091:1 4108:1 4139:1 4167:1 4253:1 4254:1 4274:1 4338:1 4372:1 4442:1 4456:1 4537:1 4609:1 4632:1 4636:1 4753:1 4878:1 4886:1 4979:1 5026:1 5095:1 5140:1 5245:1 5280:1 5309:1 5414:1 5485:1 5498:1 5516:1 5527:1 5533:1 5590:1 5796:1 5909:1 6024:1 6142:1 #
0.0038265468324352089855844294419285 4:1 7:1 15:1 30:1 45:1 79:1 90:1 94:1 96:1 110:1 147:1 152:1 176:1 440:1 456:1 475:1 492:1 534:1 548:1 683:1 800:1 867:1 952:1 1023:1 1041:1 1057:1 1409:1 1436:1 1568:1 1590:1 1669:1 1715:1 1927:1 2775:1 2792:1 2819:1 3113:1 3114:1 3115:1 3116:1 3117:1 3118:1 3119:1 3120:1 3121:1 3122:1 3123:1 3124:1 3125:1 3126:1 3127:1 3128:1 3129:1 3130:1 3131:1 3133:1 3134:1 3136:1 3137:1 3139:1 3141:1 3143:1 3145:1 3146:1 3148:1 3150:1 3151:1 3155:1 3161:1 3165:1 3169:1 3171:1 3172:1 3174:1 3178:1 3183:1 3187:1 3191:1 3194:1 3195:1 3200:1 3201:1 3204:1 3207:1 3216:1 3217:1 3230:1 3233:1 3246:1 3250:1 3255:1 3267:1 3275:1 3281:1 3285:1 3289:1 3294:1 3296:1 3333:1 3340:1 3353:1 3360:1 3361:1 3370:1 3373:1 3376:1 3418:1 3424:1 3428:1 3452:1 3468:1 3469:1 3511:1 3513:1 3550:1 3580:1 3615:1 3652:1 3686:1 3694:1 3715:1 3736:1 3773:1 3785:1 3798:1 3809:1 3826:1 3863:1 3893:1 3896:1 4089:1 4094:1 4095:1 4107:1 4110:1 4448:1 4543:1 4603:1 4623:1 4624:1 4786:1 4796:1 4852:1 4914:1 4929:1 5022:1 5030:1 5054:1 5091:1 5163:1 5302:1 5315:1 5403:1 5786:1 5822:1 6043:1 6120:1 #
0.0013107320276660066379198488206725 3:1 5:1 11:1 15:1 16:1 17:1 21:1 27:1 33:1 34:1 35:1 45:1 57:1 58:1 59:1 66:1 70:1 72:1 83:1 90:1 91:1 99:1 112:1 128:1 136:1 144:1 147:1 166:1 176:1 180:1 199:1 203:1 208:1 249:1 264:1 308:1 311:1 318:1 339:1 379:1 400:1 417:1 430:1 440:1 457:1 475:1 476:1 492:1 530:1 560:1 575:1 604:1 624:1 630:1 632:1 681:1 743:1 745:1 767:1 790:1 868:1 975:1 1010:1 1034:1 1035:1 1041:1 1057:1 1069:1 1072:1 1090:1 1101:1 1123:1 1136:1 1145:1 1153:1 1186:1 1409:1 1429:1 1436:1 1454:1 1568:1 1570:1 1614:1 1669:1 1674:1 1736:1 1796:1 1974:1 1989:1 2029:1 2034:1 2078:1 2087:1 2129:1 2142:1 2190:1 2290:1 2293:1 2327:1 2351:1 2483:1 2541:1 2550:1 2656:1 2725:1 2818:1 2819:1 2837:1 2883:1 2970:1 2973:1 3113:1 3114:1 3115:1 3116:1 3117:1 3118:1 3119:1 3120:1 3121:1 3122:1 3123:1 3124:1 3125:1 3126:1 3127:1 3128:1 3129:1 3130:1 3131:1 3133:1 3134:1 3136:1 3137:1 3138:1 3139:1 3140:1 3141:1 3143:1 3144:1 3145:1 3146:1 3147:1 3149:1 3150:1 3151:1 3152:1 3153:1 3154:1 3155:1 3156:1 3157:1 3158:1 3161:1 3163:1 3165:1 3166:1 3167:1 3169:1 3170:1 3171:1 3175:1 3176:1 3177:1 3178:1 3186:1 3187:1 3189:1 3190:1 3194:1 3197:1 3199:1 3201:1 3203:1 3207:1 3208:1 3209:1 3210:1 3213:1 3215:1 3220:1 3221:1 3224:1 3226:1 3230:1 3238:1 3246:1 3252:1 3255:1 3258:1 3263:1 3264:1 3265:1 3267:1 3272:1 3274:1 3275:1 3277:1 3281:1 3291:1 3293:1 3295:1 3296:1 3297:1 3300:1 3305:1 3310:1 3312:1 3314:1 3327:1 3330:1 3335:1 3336:1 3337:1 3338:1 3340:1 3345:1 3347:1 3358:1 3368:1 3371:1 3373:1 3378:1 3385:1 3395:1 3408:1 3415:1 3424:1 3426:1 3445:1 3470:1 3479:1 3483:1 3485:1 3503:1 3508:1 3513:1 3514:1 3518:1 3524:1 3525:1 3526:1 3532:1 3537:1 3539:1 3550:1 3551:1 3574:1 3578:1 3579:1 3615:1 3620:1 3624:1 3633:1 3639:1 3667:1 3670:1 3684:1 3686:1 3689:1 3694:1 3709:1 3710:1 3731:1 3734:1 3736:1 3744:1 3753:1 3773:1 3780:1 3783:1 3812:1 3818:1 3823:1 3857:1 3886:1 3896:1 3920:1 3924:1 3927:1 3935:1 3939:1 3978:1 3979:1 4043:1 4110:1 4137:1 4142:1 4154:1 4187:1 4190:1 4204:1 4211:1 4223:1 4242:1 4295:1 4329:1 4380:1 4403:1 4416:1 4419:1 4452:1 4456:1 4477:1 4479:1 4500:1 4521:1 4528:1 4543:1 4562:1 4632:1 4709:1 4730:1 4741:1 4754:1 4779:1 4796:1 4871:1 4882:1 4895:1 5022:1 5030:1 5077:1 5126:1 5131:1 5162:1 5163:1 5256:1 5309:1 5339:1 5381:1 5384:1 5426:1 5458:1 5498:1 5506:1 5560:1 5722:1 5763:1 5831:1 5863:1 5879:1 5963:1 6043:1 #
0.00020622917102665252325754963180771 1:1 5:1 14:1 17:1 29:1 32:1 58:1 66:1 73:1 101:1 175:1 238:1 241:1 306:1 314:1 335:1 338:1 400:1 417:1 440:1 454:1 475:1 735:1 993:1 1068:1 1083:1 1178:1 1269:1 1287:1 1418:1 1440:1 1677:1 1775:1 1784:1 1848:1 1930:1 2106:1 2435:1 2596:1 2694:1 2965:1 2967:1 3113:1 3114:1 3115:1 3116:1 3117:1 3118:1 3119:1 3120:1 3121:1 3122:1 3124:1 3125:1 3126:1 3127:1 3128:1 3129:1 3130:1 3131:1 3132:1 3134:1 3137:1 3138:1 3139:1 3142:1 3145:1 3147:1 3149:1 3151:1 3152:1 3153:1 3154:1 3155:1 3156:1 3157:1 3160:1 3161:1 3163:1 3164:1 3167:1 3168:1 3171:1 3173:1 3175:1 3177:1 3182:1 3183:1 3186:1 3189:1 3200:1 3209:1 3214:1 3216:1 3218:1 3221:1 3224:1 3225:1 3231:1 3233:1 3234:1 3237:1 3238:1 3245:1 3259:1 3264:1 3274:1 3282:1 3286:1 3293:1 3304:1 3305:1 3308:1 3318:1 3329:1 3330:1 3333:1 3336:1 3360:1 3371:1 3381:1 3395:1 3409:1 3410:1 3413:1 3414:1 3416:1 3424:1 3426:1 3431:1 3440:1 3494:1 3519:1 3542:1 3589:1 3612:1 3682:1 3694:1 3748:1 3751:1 3769:1 3825:1 3871:1 3873:1 3884:1 3920:1 4043:1 4086:1 4116:1 4126:1 4181:1 4190:1 4249:1 4422:1 4425:1 4518:1 4591:1 4687:1 4789:1 4889:1 4931:1 4942:1 5075:1 5091:1 5193:1 5314:1 5393:1 5430:1 5547:1 5560:1 5577:1 5589:1 5747:1 6056:1 #
0.002900272796195204998148664543578 3:1 5:1 19:1 22:1 29:1 30:1 33:1 45:1 51:1 57:1 58:1 70:1 72:1 83:1 94:1 110:1 171:1 176:1 181:1 188:1 199:1 218:1 222:1 226:1 227:1 370:1 440:1 502:1 551:1 639:1 648:1 649:1 796:1 805:1 850:1 870:1 933:1 964:1 1001:1 1041:1 1053:1 1072:1 1186:1 1258:1 1277:1 1376:1 1378:1 1409:1 1462:1 1471:1 1596:1 1679:1 1927:1 1931:1 1957:1 2059:1 2091:1 2109:1 2142:1 2156:1 2264:1 2364:1 2683:1 2725:1 2818:1 2819:1 2853:1 2954:1 2973:1 3113:1 3114:1 3115:1 3116:1 3117:1 3118:1 3119:1 3120:1 3121:1 3122:1 3124:1 3125:1 3126:1 3127:1 3128:1 3129:1 3130:1 3132:1 3133:1 3134:1 3136:1 3137:1 3138:1 3142:1 3143:1 3144:1 3145:1 3146:1 3147:1 3149:1 3151:1 3152:1 3153:1 3154:1 3157:1 3160:1 3163:1 3164:1 3165:1 3167:1 3168:1 3170:1 3171:1 3172:1 3173:1 3177:1 3178:1 3181:1 3182:1 3186:1 3190:1 3194:1 3195:1 3197:1 3201:1 3202:1 3203:1 3208:1 3209:1 3211:1 3213:1 3215:1 3216:1 3221:1 3223:1 3224:1 3234:1 3235:1 3237:1 3241:1 3246:1 3247:1 3249:1 3250:1 3255:1 3258:1 3259:1 3268:1 3269:1 3271:1 3278:1 3282:1 3283:1 3286:1 3294:1 3300:1 3304:1 3310:1 3318:1 3321:1 3347:1 3348:1 3349:1 3351:1 3353:1 3363:1 3366:1 3367:1 3386:1 3393:1 3395:1 3396:1 3400:1 3401:1 3414:1 3425:1 3427:1 3440:1 3444:1 3452:1 3470:1 3476:1 3489:1 3510:1 3511:1 3545:1 3546:1 3559:1 3571:1 3581:1 3611:1 3624:1 3639:1 3644:1 3651:1 3670:1 3675:1 3676:1 3680:1 3701:1 3704:1 3707:1 3715:1 3726:1 3745:1 3773:1 3786:1 3834:1 3892:1 3912:1 3957:1 3974:1 3992:1 3995:1 4016:1 4035:1 4036:1 4049:1 4107:1 4145:1 4205:1 4247:1 4252:1 4312:1 4337:1 4379:1 4486:1 4497:1 4521:1 4532:1 4591:1 4594:1 4802:1 4869:1 4894:1 4985:1 5074:1 5132:1 5181:1 5220:1 5315:1 5390:1 5483:1 5533:1 6006:1 #
-0.0038265468324352089855844294419285 30:1 440:1 1902:1 3115:1 3117:1 3119:1 3120:1 3124:1 3132:1 3133:1 3137:1 3144:1 3214:1 3286:1 3353:1 3765:1 4073:1 #
-0.0038265468324352089855844294419285 3:1 58:1 90:1 105:1 110:1 116:1 154:1 176:1 182:1 226:1 330:1 346:1 382:1 440:1 648:1 657:1 716:1 731:1 798:1 975:1 1041:1 1186:1 1200:1 1469:1 1544:1 1567:1 1790:1 2287:1 2364:1 2678:1 2695:1 2819:1 3113:1 3114:1 3115:1 3116:1 3117:1 3118:1 3119:1 3120:1 3122:1 3124:1 3126:1 3127:1 3128:1 3129:1 3130:1 3131:1 3132:1 3133:1 3134:1 3137:1 3139:1 3141:1 3143:1 3148:1 3149:1 3155:1 3163:1 3178:1 3189:1 3190:1 3194:1 3202:1 3209:1 3210:1 3211:1 3212:1 3231:1 3260:1 3263:1 3264:1 3265:1 3283:1 3291:1 3330:1 3366:1 3375:1 3412:1 3416:1 3423:1 3431:1 3476:1 3488:1 3504:1 3582:1 3594:1 3609:1 3692:1 3744:1 3753:1 3760:1 3944:1 4118:1 4148:1 4458:1 4459:1 4547:1 4878:1 4977:1 5044:1 5119:1 5235:1 5289:1 5307:1 5625:1 5634:1 5722:1 5797:1 #
-0.0038265468324352089855844294419285 1:1 70:1 105:1 182:1 227:1 276:1 399:1 414:1 910:1 1109:1 1376:1 3114:1 3115:1 3116:1 3118:1 3120:1 3121:1 3122:1 3123:1 3125:1 3137:1 3138:1 3144:1 3150:1 3155:1 3170:1 3171:1 3173:1 3181:1 3187:1 3207:1 3250:1 3300:1 3414:1 3465:1 3476:1 3537:1 3645:1 3723:1 3733:1 3811:1 4450:1 4643:1 4658:1 4678:1 5036:1 5632:1 5711:1 #
-0.0038265468324352089855844294419285 30:1 33:1 58:1 167:1 370:1 386:1 435:1 440:1 584:1 707:1 737:1 1041:1 1057:1 1173:1 1530:1 1818:1 2349:1 2651:1 3113:1 3114:1 3115:1 3116:1 3117:1 3118:1 3119:1 3120:1 3121:1 3122:1 3123:1 3124:1 3126:1 3127:1 3129:1 3130:1 3132:1 3137:1 3140:1 3148:1 3149:1 3150:1 3151:1 3155:1 3156:1 3166:1 3167:1 3169:1 3175:1 3187:1 3188:1 3192:1 3197:1 3210:1 3213:1 3222:1 3224:1 3238:1 3247:1 3249:1 3264:1 3265:1 3281:1 3293:1 3297:1 3373:1 3391:1 3425:1 3432:1 3479:1 3578:1 3605:1 3626:1 3669:1 3873:1 3884:1 3972:1 4012:1 4065:1 4069:1 4187:1 4255:1 4474:1 4608:1 4620:1 4717:1 4967:1 5021:1 5249:1 5534:1 5884:1 6072:1 #
-0.0038265468324352089855844294419285 14:1 57:1 59:1 76:1 81:1 140:1 215:1 275:1 384:1 440:1 443:1 553:1 584:1 681:1 745:1 765:1 846:1 1030:1 1126:1 1208:1 1296:1 1311:1 1345:1 1369:1 1397:1 1550:1 1576:1 2038:1 2282:1 2725:1 3113:1 3114:1 3115:1 3116:1 3117:1 3118:1 3119:1 3120:1 3121:1 3122:1 3124:1 3125:1 3126:1 3127:1 3129:1 3130:1 3131:1 3132:1 3137:1 3140:1 3143:1 3146:1 3147:1 3150:1 3151:1 3153:1 3156:1 3157:1 3160:1 3161:1 3163:1 3165:1 3172:1 3173:1 3174:1 3191:1 3201:1 3204:1 3210:1 3211:1 3215:1 3231:1 3232:1 3245:1 3249:1 3257:1 3262:1 3265:1 3281:1 3289:1 3305:1 3337:1 3339:1 3353:1 3468:1 3484:1 3505:1 3513:1 3544:1 3546:1 3573:1 3574:1 3627:1 3637:1 3662:1 3670:1 3678:1 3683:1 3702:1 3726:1 3771:1 3773:1 3822:1 3853:1 3892:1 3933:1 3988:1 3992:1 4251:1 4343:1 4440:1 4473:1 4622:1 4831:1 5174:1 5213:1 5585:1 5800:1 5802:1 5858:1 6058:1 6216:1 #
0.0015822686533082078348677601553618 4:1 14:1 21:1 22:1 24:1 30:1 37:1 40:1 51:1 52:1 58:1 66:1 72:1 83:1 85:1 90:1 94:1 109:1 110:1 111:1 112:1 116:1 136:1 154:1 167:1 170:1 176:1 181:1 182:1 202:1 226:1 230:1 233:1 237:1 241:1 246:1 249:1 255:1 306:1 328:1 366:1 400:1 407:1 424:1 429:1 440:1 458:1 477:1 514:1 522:1 564:1 571:1 613:1 639:1 643:1 720:1 724:1 735:1 737:1 769:1 908:1 1035:1 1074:1 1096:1 1109:1 1121:1 1122:1 1124:1 1144:1 1185:1 1211:1 1243:1 1296:1 1307:1 1365:1 1369:1 1409:1 1410:1 1462:1 1464:1 1570:1 1620:1 1677:1 1797:1 1825:1 1948:1 2059:1 2077:1 2086:1 2101:1 2156:1 2185:1 2341:1 2348:1 2386:1 2405:1 2499:1 2585:1 2818:1 2819:1 2914:1 2930:1 3113:1 3114:1 3115:1 3116:1 3117:1 3118:1 3119:1 3120:1 3121:1 3122:1 3123:1 3124:1 3125:1 3126:1 3127:1 3128:1 3129:1 3130:1 3131:1 3132:1 3133:1 3134:1 3136:1 3137:1 3138:1 3139:1 3140:1 3141:1 3142:1 3143:1 3144:1 3145:1 3146:1 3148:1 3149:1 3150:1 3151:1 3152:1 3153:1 3154:1 3155:1 3157:1 3158:1 3160:1 3161:1 3163:1 3164:1 3165:1 3166:1 3167:1 3168:1 3169:1 3170:1 3171:1 3172:1 3173:1 3174:1 3175:1 3176:1 3178:1 3183:1 3186:1 3187:1 3188:1 3189:1 3190:1 3192:1 3194:1 3197:1 3199:1 3200:1 3201:1 3203:1 3204:1 3206:1 3207:1 3208:1 3209:1 3210:1 3212:1 3214:1 3215:1 3216:1 3217:1 3218:1 3220:1 3221:1 3222:1 3224:1 3226:1 3228:1 3230:1 3232:1 3233:1 3234:1 3235:1 3237:1 3238:1 3239:1 3241:1 3245:1 3246:1 3247:1 3249:1 3250:1 3254:1 3257:1 3258:1 3259:1 3260:1 3262:1 3266:1 3268:1 3269:1 3272:1 3275:1 3278:1 3280:1 3281:1 3282:1 3283:1 3285:1 3286:1 3290:1 3291:1 3293:1 3294:1 3295:1 3296:1 3298:1 3303:1 3304:1 3305:1 3306:1 3308:1 3310:1 3311:1 3312:1 3320:1 3321:1 3322:1 3324:1 3325:1 3326:1 3330:1 3333:1 3336:1 3337:1 3338:1 3345:1 3346:1 3348:1 3351:1 3353:1 3354:1 3358:1 3359:1 3361:1 3364:1 3366:1 3368:1 3371:1 3374:1 3381:1 3382:1 3386:1 3389:1 3392:1 3395:1 3396:1 3407:1 3408:1 3409:1 3412:1 3421:1 3424:1 3430:1 3432:1 3434:1 3441:1 3448:1 3449:1 3451:1 3455:1 3465:1 3467:1 3468:1 3479:1 3483:1 3488:1 3494:1 3502:1 3510:1 3511:1 3514:1 3518:1 3519:1 3528:1 3539:1 3542:1 3549:1 3563:1 3564:1 3573:1 3577:1 3587:1 3592:1 3609:1 3633:1 3634:1 3640:1 3647:1 3659:1 3663:1 3669:1 3678:1 3681:1 3697:1 3712:1 3729:1 3735:1 3737:1 3738:1 3739:1 3747:1 3753:1 3759:1 3793:1 3796:1 3805:1 3806:1 3808:1 3814:1 3818:1 3823:1 3826:1 3829:1 3849:1 3863:1 3869:1 3876:1 3894:1 3903:1 3914:1 3917:1 3920:1 3923:1 3925:1 3935:1 3938:1 3946:1 3968:1 3974:1 3975:1 3989:1 4001:1 4029:1 4041:1 4047:1 4067:1 4070:1 4093:1 4107:1 4135:1 4149:1 4168:1 4171:1 4194:1 4215:1 4228:1 4231:1 4244:1 4267:1 4273:1 4286:1 4292:1 4313:1 4323:1 4349:1 4369:1 4370:1 4379:1 4381:1 4390:1 4404:1 4416:1 4431:1 4432:1 4442:1 4458:1 4509:1 4518:1 4519:1 4525:1 4527:1 4531:1 4535:1 4592:1 4599:1 4629:1 4635:1 4679:1 4691:1 4717:1 4728:1 4756:1 4771:1 4773:1 4801:1 4848:1 4899:1 4917:1 4934:1 4944:1 4978:1 5007:1 5020:1 5023:1 5044:1 5054:1 5070:1 5109:1 5124:1 5139:1 5164:1 5193:1 5194:1 5204:1 5229:1 5240:1 5244:1 5259:1 5288:1 5333:1 5340:1 5418:1 5422:1 5484:1 5529:1 5563:1 5629:1 5662:1 5819:1 5926:1 5951:1 5989:1 6024:1 6052:1 6098:1 6122:1 6157:1 #
0.0038265468324352089855844294419285 5:1 19:1 29:1 45:1 94:1 124:1 144:1 147:1 166:1 290:1 355:1 365:1 440:1 476:1 515:1 540:1 571:1 572:1 592:1 739:1 812:1 952:1 975:1 1041:1 1067:1 1183:1 1186:1 1243:1 1464:1 1544:1 1683:1 1754:1 1789:1 2252:1 2401:1 2725:1 2818:1 2819:1 2909:1 3113:1 3114:1 3115:1 3116:1 3117:1 3118:1 3119:1 3120:1 3121:1 3122:1 3123:1 3124:1 3125:1 3126:1 3127:1 3128:1 3129:1 3130:1 3131:1 3133:1 3134:1 3136:1 3137:1 3138:1 3140:1 3142:1 3143:1 3144:1 3145:1 3147:1 3148:1 3150:1 3151:1 3152:1 3153:1 3155:1 3157:1 3158:1 3161:1 3163:1 3165:1 3166:1 3167:1 3172:1 3174:1 3178:1 3183:1 3189:1 3190:1 3192:1 3199:1 3210:1 3211:1 3213:1 3216:1 3224:1 3232:1 3234:1 3235:1 3247:1 3263:1 3265:1 3267:1 3283:1 3285:1 3295:1 3336:1 3356:1 3361:1 3362:1 3364:1 3373:1 3381:1 3383:1 3389:1 3416:1 3418:1 3421:1 3483:1 3494:1 3509:1 3514:1 3519:1 3524:1 3531:1 3537:1 3559:1 3603:1 3628:1 3680:1 3686:1 3694:1 3718:1 3720:1 3734:1 3740:1 3785:1 3786:1 3842:1 3844:1 3886:1 3923:1 3959:1 3963:1 4037:1 4139:1 4206:1 4279:1 4287:1 4326:1 4331:1 4349:1 4456:1 4464:1 4486:1 4514:1 4569:1 4591:1 4643:1 4724:1 4735:1 4771:1 4800:1 4960:1 5070:1 5178:1 5250:1 5455:1 5625:1 5641:1 5794:1 5833:1 5888:1 5929:1 #
-0.0025433568047159888121655502146723 1:1 3:1 7:1 14:1 30:1 33:1 34:1 35:1 39:1 58:1 66:1 70:1 72:1 76:1 83:1 84:1 85:1 90:1 105:1 109:1 110:1 111:1 128:1 143:1 144:1 145:1 147:1 167:1 181:1 202:1 213:1 219:1 226:1 227:1 290:1 359:1 402:1 404:1 415:1 440:1 454:1 466:1 469:1 471:1 476:1 483:1 498:1 505:1 534:1 541:1 544:1 571:1 629:1 632:1 639:1 745:1 750:1 768:1 809:1 813:1 825:1 835:1 878:1 939:1 960:1 981:1 988:1 1018:1 1038:1 1041:1 1062:1 1084:1 1096:1 1101:1 1109:1 1129:1 1142:1 1161:1 1186:1 1192:1 1217:1 1279:1 1283:1 1285:1 1291:1 1418:1 1464:1 1471:1 1570:1 1586:1 1819:1 1948:1 1960:1 1995:1 2038:1 2156:1 2240:1 2282:1 2293:1 2343:1 2371:1 2381:1 2414:1 2445:1 2509:1 2585:1 2725:1 3113:1 3114:1 3115:1 3116:1 3117:1 3118:1 3119:1 3120:1 3121:1 3122:1 3123:1 3124:1 3125:1 3126:1 3127:1 3128:1 3129:1 3130:1 3131:1 3132:1 3133:1 3136:1 3137:1 3138:1 3139:1 3140:1 3141:1 3142:1 3143:1 3144:1 3145:1 3146:1 3147:1 3148:1 3149:1 3150:1 3151:1 3152:1 3153:1 3154:1 3155:1 3156:1 3158:1 3160:1 3161:1 3163:1 3164:1 3165:1 3167:1 3168:1 3169:1 3170:1 3171:1 3172:1 3173:1 3174:1 3175:1 3176:1 3177:1 3178:1 3186:1 3187:1 3188:1 3189:1 3191:1 3194:1 3197:1 3199:1 3200:1 3201:1 3202:1 3203:1 3204:1 3206:1 3207:1 3208:1 3209:1 3210:1 3212:1 3215:1 3216:1 3217:1 3218:1 3220:1 3224:1 3226:1 3228:1 3231:1 3232:1 3234:1 3237:1 3239:1 3241:1 3244:1 3245:1 3246:1 3247:1 3250:1 3255:1 3256:1 3257:1 3258:1 3259:1 3262:1 3263:1 3266:1 3267:1 3268:1 3269:1 3275:1 3277:1 3278:1 3280:1 3282:1 3286:1 3291:1 3295:1 3298:1 3304:1 3305:1 3307:1 3308:1 3311:1 3312:1 3320:1 3321:1 3322:1 3324:1 3325:1 3326:1 3335:1 3341:1 3345:1 3349:1 3360:1 3361:1 3363:1 3364:1 3365:1 3370:1 3376:1 3383:1 3389:1 3391:1 3393:1 3406:1 3407:1 3411:1 3415:1 3416:1 3423:1 3425:1 3427:1 3429:1 3432:1 3434:1 3443:1 3444:1 3448:1 3455:1 3456:1 3460:1 3465:1 3466:1 3474:1 3478:1 3480:1 3484:1 3488:1 3492:1 3493:1 3500:1 3503:1 3509:1 3515:1 3525:1 3528:1 3532:1 3537:1 3548:1 3564:1 3571:1 3581:1 3584:1 3587:1 3608:1 3609:1 3615:1 3638:1 3639:1 3640:1 3641:1 3651:1 3655:1 3657:1 3680:1 3689:1 3691:1 3707:1 3720:1 3735:1 3739:1 3741:1 3752:1 3753:1 3757:1 3769:1 3780:1 3792:1 3803:1 3822:1 3827:1 3837:1 3849:1 3852:1 3862:1 3875:1 3887:1 3909:1 3928:1 3947:1 3957:1 3967:1 3977:1 3988:1 4007:1 4027:1 4032:1 4035:1 4091:1 4097:1 4102:1 4112:1 4139:1 4150:1 4172:1 4180:1 4202:1 4210:1 4220:1 4227:1 4242:1 4262:1 4264:1 4270:1 4300:1 4313:1 4315:1 4321:1 4340:1 4359:1 4360:1 4394:1 4422:1 4451:1 4461:1 4485:1 4516:1 4519:1 4525:1 4577:1 4579:1 4611:1 4620:1 4634:1 4658:1 4679:1 4698:1 4709:1 4768:1 4774:1 4776:1 4787:1 4800:1 4845:1 4929:1 5014:1 5021:1 5035:1 5038:1 5067:1 5091:1 5113:1 5165:1 5222:1 5271:1 5294:1 5303:1 5305:1 5347:1 5429:1 5560:1 5561:1 5685:1 5718:1 5727:1 5800:1 5905:1 5924:1 5926:1 5946:1 6032:1 6036:1 6111:1 6167:1 6184:1 #
0.00099282054543207466645871051014183 3:1 4:1 5:1 14:1 15:1 17:1 19:1 22:1 24:1 30:1 32:1 33:1 34:1 35:1 45:1 58:1 59:1 63:1 66:1 72:1 75:1 83:1 90:1 102:1 109:1 112:1 116:1 156:1 159:1 169:1 205:1 218:1 230:1 247:1 282:1 284:1 291:1 298:1 304:1 314:1 348:1 358:1 377:1 469:1 471:1 537:1 538:1 570:1 618:1 627:1 638:1 643:1 648:1 686:1 718:1 786:1 809:1 850:1 908:1 917:1 921:1 964:1 1041:1 1086:1 1090:1 1109:1 1127:1 1287:1 1386:1 1409:1 1436:1 1474:1 1514:1 1537:1 1570:1 1596:1 1677:1 1927:1 1995:1 2027:1 2038:1 2059:1 2134:1 2156:1 2253:1 2316:1 2505:1 2520:1 2534:1 2585:1 2621:1 2746:1 2809:1 2818:1 2819:1 2878:1 2890:1 2918:1 3043:1 3086:1 3105:1 3113:1 3114:1 3115:1 3116:1 3117:1 3118:1 3119:1 3120:1 3121:1 3122:1 3123:1 3124:1 3125:1 3126:1 3127:1 3128:1 3129:1 3130:1 3131:1 3132:1 3133:1 3134:1 3136:1 3137:1 3138:1 3139:1 3140:1 3141:1 3142:1 3143:1 3144:1 3145:1 3146:1 3148:1 3149:1 3150:1 3151:1 3152:1 3153:1 3154:1 3155:1 3156:1 3157:1 3158:1 3160:1 3161:1 3163:1 3164:1 3165:1 3166:1 3167:1 3168:1 3169:1 3170:1 3171:1 3172:1 3174:1 3175:1 3177:1 3181:1 3182:1 3183:1 3186:1 3187:1 3188:1 3190:1 3192:1 3194:1 3195:1 3199:1 3200:1 3202:1 3203:1 3204:1 3206:1 3207:1 3208:1 3209:1 3210:1 3211:1 3212:1 3213:1 3214:1 3215:1 3217:1 3218:1 3220:1 3221:1 3222:1 3223:1 3225:1 3230:1 3231:1 3232:1 3233:1 3234:1 3235:1 3237:1 3239:1 3245:1 3247:1 3255:1 3256:1 3257:1 3258:1 3260:1 3262:1 3263:1 3265:1 3266:1 3267:1 3268:1 3269:1 3271:1 3274:1 3278:1 3280:1 3285:1 3289:1 3296:1 3297:1 3303:1 3304:1 3307:1 3308:1 3310:1 3311:1 3312:1 3320:1 3324:1 3326:1 3328:1 3333:1 3335:1 3337:1 3338:1 3339:1 3340:1 3342:1 3346:1 3348:1 3350:1 3351:1 3358:1 3361:1 3362:1 3363:1 3364:1 3365:1 3370:1 3374:1 3377:1 3382:1 3384:1 3393:1 3397:1 3407:1 3411:1 3414:1 3415:1 3424:1 3425:1 3426:1 3427:1 3433:1 3434:1 3441:1 3443:1 3445:1 3453:1 3456:1 3469:1 3470:1 3480:1 3484:1 3487:1 3489:1 3499:1 3502:1 3522:1 3538:1 3544:1 3545:1 3549:1 3550:1 3552:1 3571:1 3574:1 3575:1 3578:1 3579:1 3581:1 3586:1 3589:1 3596:1 3603:1 3607:1 3613:1 3627:1 3634:1 3636:1 3641:1 3670:1 3677:1 3678:1 3683:1 3696:1 3701:1 3718:1 3720:1 3727:1 3731:1 3746:1 3754:1 3759:1 3763:1 3765:1 3773:1 3779:1 3797:1 3803:1 3808:1 3820:1 3822:1 3827:1 3832:1 3834:1 3841:1 3857:1 3864:1 3877:1 3882:1 3899:1 3911:1 3914:1 3939:1 3947:1 3972:1 3978:1 3979:1 3981:1 4002:1 4043:1 4047:1 4058:1 4068:1 4069:1 4076:1 4089:1 4094:1 4100:1 4128:1 4168:1 4216:1 4227:1 4249:1 4252:1 4260:1 4266:1 4270:1 4273:1 4305:1 4315:1 4321:1 4332:1 4333:1 4378:1 4411:1 4415:1 4473:1 4483:1 4492:1 4520:1 4532:1 4544:1 4558:1 4579:1 4581:1 4594:1 4599:1 4606:1 4608:1 4616:1 4629:1 4728:1 4734:1 4776:1 4777:1 4779:1 4786:1 4815:1 4852:1 4858:1 4929:1 4934:1 4942:1 4965:1 4970:1 5008:1 5034:1 5042:1 5050:1 5077:1 5155:1 5161:1 5163:1 5172:1 5183:1 5239:1 5240:1 5246:1 5299:1 5468:1 5596:1 5604:1 5619:1 5696:1 5714:1 5762:1 5764:1 5847:1 5883:1 5925:1 5939:1 5970:1 5975:1 5985:1 6001:1 6013:1 6048:1 6083:1 6122:1 6153:1 6189:1 #
0.0038265468324352089855844294419285 2:1 3:1 4:1 5:1 14:1 17:1 21:1 28:1 29:1 30:1 35:1 37:1 41:1 51:1 57:1 58:1 64:1 66:1 72:1 76:1 77:1 80:1 83:1 86:1 90:1 92:1 94:1 101:1 108:1 109:1 110:1 111:1 124:1 126:1 143:1 147:1 159:1 164:1 169:1 180:1 205:1 225:1 242:1 262:1 268:1 302:1 347:1 348:1 370:1 392:1 396:1 416:1 418:1 429:1 430:1 440:1 443:1 505:1 507:1 537:1 571:1 580:1 587:1 597:1 602:1 639:1 646:1 770:1 814:1 920:1 942:1 1031:1 1035:1 1041:1 1069:1 1084:1 1109:1 1186:1 1243:1 1285:1 1325:1 1418:1 1439:1 1460:1 1608:1 1715:1 1801:1 1927:1 1941:1 2107:1 2354:1 2394:1 2534:1 2562:1 2633:1 2646:1 2681:1 2818:1 2819:1 2910:1 2941:1 3083:1 3113:1 3114:1 3115:1 3116:1 3117:1 3118:1 3119:1 3120:1 3121:1 3122:1 3123:1 3124:1 3125:1 3126:1 3127:1 3128:1 3129:1 3130:1 3131:1 3132:1 3133:1 3134:1 3136:1 3137:1 3138:1 3139:1 3140:1 3141:1 3142:1 3143:1 3144:1 3145:1 3146:1 3148:1 3149:1 3150:1 3151:1 3152:1 3153:1 3155:1 3156:1 3157:1 3158:1 3160:1 3161:1 3163:1 3164:1 3165:1 3166:1 3167:1 3168:1 3169:1 3171:1 3172:1 3173:1 3174:1 3175:1 3176:1 3177:1 3178:1 3181:1 3182:1 3183:1 3186:1 3188:1 3189:1 3191:1 3192:1 3194:1 3197:1 3200:1 3201:1 3202:1 3204:1 3206:1 3208:1 3209:1 3210:1 3211:1 3212:1 3213:1 3214:1 3215:1 3216:1 3217:1 3218:1 3221:1 3224:1 3226:1 3231:1 3233:1 3234:1 3237:1 3241:1 3245:1 3246:1 3249:1 3250:1 3252:1 3254:1 3256:1 3259:1 3263:1 3265:1 3268:1 3269:1 3271:1 3275:1 3278:1 3281:1 3283:1 3284:1 3289:1 3290:1 3296:1 3297:1 3304:1 3305:1 3306:1 3307:1 3308:1 3317:1 3318:1 3322:1 3327:1 3329:1 3333:1 3335:1 3340:1 3342:1 3346:1 3347:1 3348:1 3350:1 3351:1 3364:1 3365:1 3366:1 3370:1 3371:1 3374:1 3375:1 3377:1 3381:1 3386:1 3387:1 3389:1 3392:1 3393:1 3394:1 3396:1 3400:1 3401:1 3406:1 3407:1 3409:1 3412:1 3413:1 3415:1 3416:1 3424:1 3426:1 3429:1 3433:1 3443:1 3444:1 3445:1 3449:1 3462:1 3474:1 3479:1 3487:1 3489:1 3493:1 3501:1 3503:1 3511:1 3513:1 3518:1 3519:1 3522:1 3524:1 3531:1 3532:1 3535:1 3546:1 3549:1 3559:1 3566:1 3570:1 3574:1 3594:1 3598:1 3602:1 3612:1 3633:1 3636:1 3639:1 3658:1 3674:1 3677:1 3692:1 3694:1 3697:1 3727:1 3729:1 3741:1 3751:1 3769:1 3829:1 3876:1 3878:1 3888:1 3910:1 3921:1 3924:1 3938:1 3942:1 3946:1 3947:1 3955:1 3958:1 3966:1 3983:1 3989:1 4007:1 4010:1 4020:1 4029:1 4036:1 4037:1 4069:1 4076:1 4091:1 4093:1 4109:1 4117:1 4145:1 4158:1 4172:1 4187:1 4201:1 4208:1 4215:1 4246:1 4249:1 4262:1 4273:1 4279:1 4292:1 4311:1 4323:1 4347:1 4415:1 4426:1 4430:1 4445:1 4460:1 4483:1 4488:1 4514:1 4538:1 4547:1 4606:1 4630:1 4691:1 4712:1 4719:1 4776:1 4790:1 4823:1 4828:1 4838:1 4845:1 4931:1 4933:1 4962:1 4992:1 5023:1 5043:1 5044:1 5049:1 5059:1 5071:1 5077:1 5078:1 5093:1 5119:1 5129:1 5134:1 5139:1 5205:1 5206:1 5251:1 5281:1 5323:1 5353:1 5388:1 5394:1 5460:1 5494:1 5497:1 5529:1 5540:1 5582:1 5618:1 5803:1 5817:1 5871:1 5880:1 5883:1 6016:1 6044:1 6092:1 6184:1 6202:1 #
-0.0024779153996936139486839678625074 3:1 5:1 10:1 11:1 14:1 15:1 19:1 22:1 23:1 25:1 27:1 30:1 32:1 33:1 34:1 45:1 56:1 58:1 59:1 63:1 66:1 70:1 76:1 80:1 81:1 90:1 92:1 94:1 101:1 110:1 113:1 116:1 121:1 124:1 129:1 131:1 140:1 141:1 147:1 152:1 176:1 179:1 181:1 182:1 193:1 199:1 202:1 219:1 222:1 226:1 234:1 278:1 281:1 290:1 308:1 393:1 404:1 415:1 416:1 429:1 432:1 440:1 465:1 474:1 480:1 498:1 501:1 525:1 549:1 575:1 598:1 632:1 660:1 703:1 710:1 724:1 726:1 731:1 736:1 750:1 766:1 769:1 784:1 809:1 827:1 850:1 867:1 868:1 885:1 914:1 931:1 936:1 969:1 981:1 1040:1 1041:1 1120:1 1173:1 1186:1 1191:1 1240:1 1243:1 1269:1 1285:1 1323:1 1333:1 1347:1 1357:1 1381:1 1394:1 1406:1 1409:1 1418:1 1448:1 1462:1 1463:1 1464:1 1465:1 1466:1 1467:1 1468:1 1469:1 1470:1 1471:1 1472:1 1473:1 1474:1 1534:1 1595:1 1596:1 1678:1 1776:1 1783:1 1927:1 1995:1 2059:1 2062:1 2078:1 2101:1 2156:1 2245:1 2283:1 2361:1 2364:1 2534:1 2538:1 2572:1 2725:1 2818:1 2819:1 3113:1 3114:1 3115:1 3116:1 3117:1 3118:1 3119:1 3120:1 3121:1 3122:1 3123:1 3124:1 3125:1 3126:1 3127:1 3128:1 3129:1 3130:1 3131:1 3132:1 3133:1 3134:1 3136:1 3137:1 3138:1 3139:1 3140:1 3141:1 3142:1 3143:1 3144:1 3145:1 3146:1 3147:1 3148:1 3149:1 3150:1 3151:1 3152:1 3153:1 3154:1 3155:1 3156:1 3157:1 3158:1 3160:1 3161:1 3163:1 3164:1 3165:1 3166:1 3167:1 3168:1 3169:1 3170:1 3171:1 3172:1 3173:1 3174:1 3175:1 3176:1 3178:1 3181:1 3182:1 3183:1 3186:1 3187:1 3188:1 3189:1 3191:1 3192:1 3194:1 3195:1 3197:1 3199:1 3202:1 3203:1 3204:1 3206:1 3207:1 3208:1 3209:1 3210:1 3211:1 3212:1 3213:1 3214:1 3215:1 3216:1 3218:1 3220:1 3222:1 3224:1 3225:1 3226:1 3228:1 3230:1 3231:1 3233:1 3234:1 3235:1 3237:1 3238:1 3239:1 3241:1 3244:1 3245:1 3246:1 3247:1 3249:1 3255:1 3256:1 3257:1 3258:1 3259:1 3262:1 3263:1 3264:1 3265:1 3266:1 3267:1 3269:1 3272:1 3275:1 3280:1 3281:1 3284:1 3285:1 3290:1 3294:1 3295:1 3296:1 3297:1 3303:1 3305:1 3306:1 3307:1 3310:1 3311:1 3312:1 3314:1 3318:1 3321:1 3322:1 3326:1 3329:1 3330:1 3337:1 3338:1 3340:1 3345:1 3346:1 3347:1 3349:1 3350:1 3351:1 3353:1 3356:1 3358:1 3360:1 3361:1 3362:1 3364:1 3365:1 3366:1 3368:1 3374:1 3375:1 3377:1 3383:1 3385:1 3389:1 3391:1 3393:1 3396:1 3399:1 3400:1 3401:1 3407:1 3408:1 3409:1 3411:1 3418:1 3420:1 3421:1 3429:1 3430:1 3434:1 3440:1 3441:1 3444:1 3445:1 3452:1 3455:1 3457:1 3465:1 3466:1 3467:1 3469:1 3476:1 3479:1 3485:1 3488:1 3493:1 3495:1 3500:1 3501:1 3502:1 3509:1 3510:1 3511:1 3512:1 3513:1 3525:1 3532:1 3539:1 3543:1 3546:1 3549:1 3556:1 3560:1 3570:1 3573:1 3575:1 3577:1 3580:1 3582:1 3586:1 3605:1 3606:1 3608:1 3611:1 3612:1 3614:1 3616:1 3622:1 3627:1 3628:1 3631:1 3636:1 3637:1 3639:1 3651:1 3663:1 3667:1 3669:1 3676:1 3680:1 3682:1 3686:1 3691:1 3694:1 3700:1 3704:1 3709:1 3711:1 3724:1 3733:1 3735:1 3737:1 3751:1 3753:1 3757:1 3758:1 3760:1 3766:1 3768:1 3772:1 3777:1 3778:1 3783:1 3785:1 3790:1 3791:1 3797:1 3803:1 3805:1 3806:1 3811:1 3822:1 3827:1 3834:1 3851:1 3854:1 3868:1 3871:1 3877:1 3887:1 3900:1 3906:1 3909:1 3910:1 3914:1 3924:1 3932:1 3939:1 3943:1 3955:1 3968:1 3978:1 3996:1 4035:1 4037:1 4038:1 4053:1 4076:1 4089:1 4095:1 4106:1 4107:1 4108:1 4113:1 4114:1 4118:1 4128:1 4132:1 4149:1 4168:1 4171:1 4180:1 4181:1 4187:1 4226:1 4282:1 4295:1 4300:1 4303:1 4317:1 4328:1 4333:1 4337:1 4354:1 4368:1 4382:1 4436:1 4438:1 4460:1 4480:1 4482:1 4486:1 4506:1 4511:1 4520:1 4527:1 4528:1 4530:1 4534:1 4538:1 4569:1 4584:1 4608:1 4611:1 4615:1 4623:1 4658:1 4714:1 4731:1 4733:1 4746:1 4755:1 4762:1 4780:1 4781:1 4797:1 4798:1 4799:1 4807:1 4818:1 4857:1 4860:1 4894:1 4971:1 5020:1 5031:1 5038:1 5049:1 5062:1 5106:1 5139:1 5153:1 5205:1 5232:1 5257:1 5272:1 5291:1 5305:1 5325:1 5366:1 5403:1 5405:1 5410:1 5513:1 5517:1 5540:1 5560:1 5602:1 5611:1 5624:1 5722:1 5726:1 5733:1 5760:1 5767:1 5780:1 5786:1 5794:1 5809:1 5841:1 5844:1 5849:1 5890:1 5924:1 5938:1 5960:1 5963:1 6082:1 6170:1 6193:1 6201:1 #
-0.0014002914642976685768993583280917 2:1 3:1 5:1 13:1 14:1 15:1 17:1 18:1 22:1 24:1 26:1 30:1 33:1 34:1 40:1 51:1 57:1 58:1 59:1 66:1 83:1 85:1 90:1 92:1 109:1 110:1 116:1 136:1 140:1 150:1 169:1 176:1 181:1 202:1 203:1 213:1 221:1 223:1 230:1 269:1 290:1 291:1 294:1 370:1 399:1 407:1 418:1 440:1 443:1 450:1 454:1 455:1 457:1 461:1 479:1 485:1 501:1 505:1 515:1 533:1 544:1 571:1 575:1 613:1 656:1 716:1 724:1 768:1 770:1 809:1 827:1 846:1 959:1 997:1 1035:1 1041:1 1050:1 1055:1 1094:1 1122:1 1143:1 1153:1 1186:1 1223:1 1243:1 1245:1 1285:1 1292:1 1312:1 1409:1 1421:1 1440:1 1477:1 1570:1 1629:1 1650:1 1651:1 1652:1 1653:1 1654:1 1655:1 1656:1 1657:1 1658:1 1659:1 1660:1 1661:1 1662:1 1663:1 1664:1 1677:1 1878:1 1927:1 2078:1 2261:1 2293:1 2430:1 2573:1 2600:1 2725:1 2782:1 2819:1 2941:1 3113:1 3114:1 3115:1 3116:1 3117:1 3118:1 3119:1 3120:1 3121:1 3122:1 3123:1 3124:1 3125:1 3126:1 3127:1 3128:1 3129:1 3130:1 3131:1 3132:1 3133:1 3134:1 3136:1 3137:1 3138:1 3139:1 3140:1 3141:1 3142:1 3143:1 3144:1 3145:1 3146:1 3147:1 3148:1 3149:1 3150:1 3151:1 3152:1 3153:1 3154:1 3155:1 3156:1 3157:1 3158:1 3160:1 3161:1 3163:1 3164:1 3165:1 3166:1 3167:1 3168:1 3169:1 3170:1 3171:1 3172:1 3173:1 3174:1 3175:1 3176:1 3177:1 3178:1 3181:1 3182:1 3183:1 3186:1 3187:1 3188:1 3189:1 3190:1 3192:1 3194:1 3195:1 3197:1 3199:1 3201:1 3203:1 3204:1 3206:1 3207:1 3208:1 3209:1 3210:1 3212:1 3213:1 3214:1 3215:1 3216:1 3217:1 3218:1 3220:1 3221:1 3223:1 3224:1 3225:1 3226:1 3228:1 3230:1 3231:1 3232:1 3233:1 3234:1 3235:1 3237:1 3238:1 3241:1 3244:1 3247:1 3249:1 3250:1 3252:1 3254:1 3255:1 3256:1 3257:1 3258:1 3259:1 3260:1 3262:1 3263:1 3264:1 3265:1 3267:1 3268:1 3269:1 3271:1 3272:1 3274:1 3275:1 3277:1 3281:1 3282:1 3284:1 3286:1 3289:1 3290:1 3295:1 3297:1 3303:1 3306:1 3307:1 3308:1 3310:1 3311:1 3314:1 3320:1 3321:1 3322:1 3324:1 3325:1 3326:1 3330:1 3333:1 3336:1 3337:1 3338:1 3340:1 3342:1 3345:1 3347:1 3348:1 3349:1 3353:1 3361:1 3368:1 3370:1 3371:1 3378:1 3380:1 3381:1 3382:1 3383:1 3385:1 3386:1 3392:1 3394:1 3395:1 3401:1 3406:1 3408:1 3409:1 3410:1 3413:1 3425:1 3433:1 3440:1 3445:1 3449:1 3452:1 3465:1 3466:1 3478:1 3485:1 3488:1 3495:1 3499:1 3508:1 3512:1 3519:1 3520:1 3526:1 3532:1 3546:1 3550:1 3551:1 3562:1 3569:1 3572:1 3573:1 3586:1 3587:1 3603:1 3620:1 3627:1 3633:1 3639:1 3641:1 3663:1 3676:1 3681:1 3683:1 3690:1 3693:1 3700:1 3701:1 3710:1 3711:1 3713:1 3724:1 3738:1 3768:1 3771:1 3774:1 3779:1 3786:1 3792:1 3796:1 3798:1 3802:1 3811:1 3822:1 3826:1 3842:1 3849:1 3873:1 3877:1 3914:1 3944:1 3947:1 3959:1 3963:1 3966:1 3977:1 3978:1 4020:1 4050:1 4052:1 4075:1 4080:1 4084:1 4092:1 4160:1 4164:1 4171:1 4194:1 4232:1 4247:1 4266:1 4283:1 4311:1 4312:1 4316:1 4330:1 4340:1 4345:1 4347:1 4351:1 4359:1 4378:1 4426:1 4427:1 4455:1 4464:1 4488:1 4489:1 4525:1 4530:1 4538:1 4562:1 4577:1 4599:1 4669:1 4701:1 4702:1 4752:1 4756:1 4774:1 4838:1 4848:1 4855:1 4980:1 4982:1 4992:1 4994:1 5017:1 5046:1 5048:1 5101:1 5134:1 5172:1 5323:1 5362:1 5384:1 5397:1 5418:1 5470:1 5481:1 5490:1 5499:1 5545:1 5602:1 5625:1 5626:1 5670:1 5671:1 5719:1 5720:1 5774:1 5784:1 5989:1 6003:1 6115:1 6189:1 #
-0.00065502870315612413739531083578527 3:1 5:1 7:1 14:1 17:1 18:1 19:1 22:1 23:1 25:1 30:1 35:1 45:1 56:1 57:1 58:1 59:1 60:1 65:1 66:1 69:1 70:1 76:1 85:1 90:1 101:1 106:1 109:1 110:1 111:1 124:1 129:1 136:1 138:1 143:1 145:1 147:1 150:1 152:1 166:1 175:1 181:1 193:1 213:1 218:1 222:1 223:1 225:1 257:1 258:1 262:1 264:1 276:1 291:1 302:1 306:1 314:1 370:1 374:1 390:1 403:1 407:1 414:1 440:1 442:1 447:1 458:1 474:1 477:1 482:1 492:1 501:1 505:1 525:1 538:1 560:1 567:1 580:1 587:1 592:1 609:1 613:1 638:1 659:1 707:1 724:1 726:1 745:1 763:1 800:1 801:1 850:1 852:1 869:1 875:1 928:1 935:1 949:1 991:1 1037:1 1054:1 1096:1 1164:1 1172:1 1186:1 1188:1 1230:1 1269:1 1307:1 1349:1 1352:1 1378:1 1409:1 1410:1 1411:1 1412:1 1413:1 1414:1 1415:1 1416:1 1417:1 1418:1 1419:1 1420:1 1421:1 1422:1 1423:1 1464:1 1512:1 1563:1 1586:1 1596:1 1639:1 1674:1 1862:1 2024:1 2078:1 2175:1 2214:1 2264:1 2315:1 2435:1 2509:1 2538:1 2633:1 2725:1 2760:1 2771:1 2774:1 2810:1 2818:1 2819:1 2883:1 2889:1 2941:1 3113:1 3114:1 3115:1 3116:1 3117:1 3118:1 3119:1 3120:1 3121:1 3122:1 3123:1 3124:1 3125:1 3126:1 3127:1 3128:1 3129:1 3130:1 3131:1 3132:1 3133:1 3134:1 3136:1 3137:1 3138:1 3139:1 3140:1 3141:1 3142:1 3143:1 3144:1 3145:1 3146:1 3147:1 3148:1 3149:1 3150:1 3151:1 3152:1 3153:1 3154:1 3155:1 3156:1 3157:1 3158:1 3160:1 3161:1 3163:1 3164:1 3165:1 3166:1 3167:1 3168:1 3169:1 3170:1 3171:1 3172:1 3173:1 3174:1 3175:1 3176:1 3177:1 3178:1 3181:1 3182:1 3183:1 3186:1 3187:1 3188:1 3189:1 3190:1 3191:1 3192:1 3194:1 3195:1 3197:1 3200:1 3201:1 3202:1 3203:1 3204:1 3206:1 3207:1 3209:1 3210:1 3211:1 3212:1 3213:1 3214:1 3215:1 3216:1 3217:1 3218:1 3220:1 3221:1 3223:1 3224:1 3226:1 3228:1 3230:1 3232:1 3237:1 3238:1 3239:1 3241:1 3244:1 3245:1 3249:1 3250:1 3252:1 3254:1 3255:1 3258:1 3259:1 3260:1 3263:1 3265:1 3266:1 3267:1 3268:1 3272:1 3278:1 3280:1 3281:1 3283:1 3285:1 3286:1 3289:1 3290:1 3291:1 3293:1 3294:1 3295:1 3296:1 3297:1 3303:1 3304:1 3305:1 3307:1 3312:1 3318:1 3320:1 3321:1 3322:1 3325:1 3328:1 3329:1 3337:1 3339:1 3340:1 3341:1 3342:1 3345:1 3346:1 3349:1 3350:1 3351:1 3356:1 3358:1 3361:1 3362:1 3366:1 3374:1 3375:1 3376:1 3377:1 3380:1 3381:1 3382:1 3389:1 3393:1 3399:1 3400:1 3407:1 3408:1 3410:1 3418:1 3421:1 3423:1 3425:1 3426:1 3427:1 3430:1 3431:1 3434:1 3435:1 3440:1 3443:1 3444:1 3445:1 3449:1 3453:1 3465:1 3466:1 3467:1 3468:1 3469:1 3476:1 3478:1 3488:1 3491:1 3492:1 3499:1 3500:1 3501:1 3502:1 3510:1 3512:1 3517:1 3518:1 3519:1 3522:1 3528:1 3532:1 3544:1 3546:1 3548:1 3549:1 3553:1 3559:1 3560:1 3562:1 3564:1 3572:1 3577:1 3578:1 3580:1 3581:1 3592:1 3603:1 3606:1 3607:1 3608:1 3611:1 3613:1 3622:1 3636:1 3637:1 3645:1 3650:1 3670:1 3673:1 3683:1 3684:1 3686:1 3690:1 3695:1 3696:1 3699:1 3700:1 3709:1 3720:1 3727:1 3729:1 3734:1 3736:1 3738:1 3740:1 3745:1 3763:1 3771:1 3780:1 3790:1 3803:1 3818:1 3822:1 3823:1 3828:1 3832:1 3833:1 3837:1 3849:1 3850:1 3853:1 3854:1 3873:1 3876:1 3888:1 3893:1 3914:1 3917:1 3918:1 3925:1 3930:1 3935:1 3958:1 3970:1 3974:1 3975:1 3989:1 3991:1 4010:1 4036:1 4050:1 4081:1 4087:1 4091:1 4101:1 4106:1 4111:1 4148:1 4154:1 4158:1 4176:1 4191:1 4194:1 4196:1 4197:1 4216:1 4218:1 4223:1 4227:1 4272:1 4299:1 4300:1 4321:1 4327:1 4330:1 4333:1 4334:1 4335:1 4352:1 4359:1 4366:1 4370:1 4374:1 4375:1 4380:1 4386:1 4406:1 4422:1 4440:1 4458:1 4464:1 4465:1 4474:1 4484:1 4489:1 4500:1 4509:1 4511:1 4538:1 4552:1 4569:1 4609:1 4623:1 4632:1 4645:1 4652:1 4763:1 4777:1 4786:1 4797:1 4816:1 4822:1 4846:1 4850:1 4854:1 4857:1 4864:1 4872:1 4928:1 4933:1 4936:1 4940:1 4948:1 4992:1 5014:1 5017:1 5031:1 5063:1 5064:1 5065:1 5073:1 5076:1 5089:1 5096:1 5104:1 5131:1 5135:1 5149:1 5153:1 5173:1 5176:1 5177:1 5178:1 5214:1 5217:1 5263:1 5271:1 5288:1 5307:1 5354:1 5364:1 5373:1 5496:1 5504:1 5513:1 5542:1 5563:1 5572:1 5625:1 5653:1 5682:1 5705:1 5743:1 5839:1 5842:1 5851:1 5883:1 5887:1 5923:1 5929:1 5932:1 5943:1 5947:1 5967:1 6082:1 6098:1 6175:1 #
-0.00016568036756440580490809533209529 4:1 5:1 7:1 12:1 26:1 30:1 33:1 40:1 45:1 58:1 70:1 85:1 97:1 109:1 110:1 138:1 147:1 169:1 176:1 193:1 226:1 231:1 232:1 237:1 247:1 291:1 368:1 369:1 407:1 416:1 418:1 440:1 468:1 470:1 490:1 513:1 571:1 575:1 581:1 643:1 665:1 735:1 756:1 864:1 902:1 920:1 986:1 1041:1 1049:1 1109:1 1136:1 1203:1 1236:1 1311:1 1454:1 1463:1 1509:1 1560:1 1718:1 1816:1 1954:1 2048:1 2203:1 2204:1 2205:1 2206:1 2207:1 2242:1 2382:1 2818:1 2819:1 2862:1 3053:1 3113:1 3114:1 3115:1 3116:1 3117:1 3118:1 3119:1 3120:1 3121:1 3122:1 3123:1 3124:1 3125:1 3126:1 3127:1 3128:1 3129:1 3130:1 3131:1 3133:1 3137:1 3138:1 3139:1 3140:1 3142:1 3145:1 3146:1 3147:1 3148:1 3150:1 3151:1 3153:1 3155:1 3156:1 3157:1 3158:1 3160:1 3161:1 3163:1 3164:1 3165:1 3167:1 3168:1 3169:1 3171:1 3173:1 3176:1 3178:1 3182:1 3183:1 3186:1 3188:1 3190:1 3191:1 3197:1 3199:1 3201:1 3202:1 3209:1 3214:1 3216:1 3217:1 3223:1 3230:1 3232:1 3235:1 3241:1 3244:1 3245:1 3247:1 3249:1 3252:1 3255:1 3280:1 3282:1 3285:1 3289:1 3293:1 3294:1 3297:1 3298:1 3307:1 3321:1 3325:1 3327:1 3329:1 3338:1 3346:1 3347:1 3349:1 3363:1 3377:1 3384:1 3385:1 3395:1 3408:1 3429:1 3431:1 3434:1 3441:1 3444:1 3449:1 3453:1 3462:1 3465:1 3489:1 3500:1 3502:1 3524:1 3546:1 3586:1 3611:1 3646:1 3655:1 3669:1 3675:1 3685:1 3700:1 3702:1 3704:1 3715:1 3716:1 3729:1 3736:1 3737:1 3766:1 3777:1 3778:1 3780:1 3796:1 3820:1 3838:1 3866:1 3911:1 3927:1 3928:1 3944:1 3972:1 3990:1 4063:1 4067:1 4073:1 4095:1 4118:1 4125:1 4310:1 4313:1 4357:1 4391:1 4394:1 4410:1 4458:1 4469:1 4483:1 4512:1 4547:1 4563:1 4592:1 4600:1 4616:1 4618:1 4623:1 4731:1 4791:1 4857:1 4901:1 5019:1 5055:1 5059:1 5092:1 5122:1 5164:1 5176:1 5178:1 5224:1 5253:1 5272:1 5425:1 5523:1 5584:1 5602:1 5616:1 5665:1 5991:1 6043:1 6103:1 #
-0.002289968867660006207609413309001 3:1 5:1 7:1 14:1 15:1 17:1 18:1 22:1 24:1 28:1 30:1 32:1 33:1 34:1 58:1 59:1 63:1 66:1 70:1 81:1 108:1 111:1 112:1 116:1 121:1 148:1 152:1 159:1 161:1 169:1 179:1 181:1 222:1 225:1 230:1 233:1 243:1 258:1 264:1 276:1 305:1 321:1 327:1 330:1 400:1 403:1 407:1 434:1 440:1 492:1 493:1 514:1 525:1 587:1 605:1 618:1 660:1 665:1 672:1 687:1 717:1 724:1 770:1 783:1 813:1 836:1 913:1 949:1 951:1 964:1 968:1 993:1 1057:1 1109:1 1123:1 1178:1 1186:1 1190:1 1199:1 1202:1 1203:1 1260:1 1285:1 1352:1 1374:1 1378:1 1391:1 1421:1 1442:1 1454:1 1541:1 1576:1 1586:1 1606:1 1672:1 1678:1 1701:1 1715:1 1718:1 1765:1 1815:1 1836:1 1865:1 1929:1 1930:1 2005:1 2038:1 2048:1 2125:1 2175:1 2242:1 2276:1 2329:1 2340:1 2513:1 2654:1 2660:1 2661:1 2662:1 2663:1 2664:1 2665:1 2666:1 2818:1 2819:1 2822:1 2941:1 3113:1 3114:1 3115:1 3116:1 3117:1 3118:1 3119:1 3120:1 3121:1 3122:1 3123:1 3124:1 3125:1 3126:1 3127:1 3128:1 3129:1 3130:1 3131:1 3132:1 3133:1 3134:1 3136:1 3137:1 3138:1 3139:1 3140:1 3141:1 3142:1 3143:1 3144:1 3145:1 3146:1 3147:1 3148:1 3149:1 3150:1 3151:1 3152:1 3153:1 3154:1 3155:1 3156:1 3158:1 3160:1 3161:1 3163:1 3165:1 3166:1 3167:1 3168:1 3169:1 3170:1 3171:1 3173:1 3175:1 3176:1 3178:1 3181:1 3182:1 3183:1 3186:1 3187:1 3188:1 3189:1 3190:1 3192:1 3194:1 3195:1 3197:1 3199:1 3200:1 3203:1 3204:1 3206:1 3207:1 3208:1 3209:1 3211:1 3213:1 3214:1 3215:1 3217:1 3218:1 3220:1 3221:1 3222:1 3224:1 3226:1 3228:1 3230:1 3231:1 3232:1 3233:1 3234:1 3235:1 3237:1 3238:1 3239:1 3241:1 3245:1 3246:1 3249:1 3250:1 3254:1 3258:1 3259:1 3260:1 3262:1 3263:1 3264:1 3266:1 3269:1 3272:1 3274:1 3275:1 3278:1 3281:1 3282:1 3283:1 3284:1 3289:1 3290:1 3291:1 3294:1 3295:1 3297:1 3300:1 3303:1 3305:1 3307:1 3314:1 3322:1 3325:1 3328:1 3333:1 3339:1 3341:1 3342:1 3345:1 3346:1 3347:1 3350:1 3351:1 3353:1 3359:1 3365:1 3366:1 3367:1 3368:1 3374:1 3381:1 3382:1 3384:1 3387:1 3392:1 3394:1 3395:1 3399:1 3400:1 3411:1 3413:1 3415:1 3416:1 3425:1 3430:1 3443:1 3448:1 3451:1 3460:1 3467:1 3468:1 3499:1 3500:1 3503:1 3504:1 3507:1 3508:1 3514:1 3515:1 3519:1 3520:1 3522:1 3532:1 3535:1 3538:1 3549:1 3556:1 3559:1 3560:1 3562:1 3579:1 3580:1 3587:1 3592:1 3612:1 3632:1 3636:1 3652:1 3663:1 3669:1 3676:1 3694:1 3695:1 3701:1 3707:1 3723:1 3724:1 3729:1 3737:1 3741:1 3744:1 3747:1 3752:1 3754:1 3758:1 3770:1 3780:1 3790:1 3791:1 3805:1 3825:1 3826:1 3834:1 3837:1 3873:1 3875:1 3880:1 3912:1 3947:1 3962:1 3974:1 3978:1 3979:1 3991:1 3996:1 3997:1 4000:1 4036:1 4043:1 4052:1 4060:1 4105:1 4116:1 4122:1 4134:1 4135:1 4136:1 4155:1 4160:1 4189:1 4190:1 4196:1 4205:1 4210:1 4234:1 4242:1 4246:1 4247:1 4264:1 4281:1 4283:1 4286:1 4298:1 4299:1 4303:1 4312:1 4336:1 4337:1 4345:1 4368:1 4374:1 4391:1 4394:1 4411:1 4436:1 4482:1 4490:1 4492:1 4528:1 4530:1 4535:1 4584:1 4597:1 4599:1 4600:1 4615:1 4622:1 4652:1 4676:1 4703:1 4711:1 4754:1 4804:1 4807:1 4833:1 4843:1 4854:1 4868:1 4876:1 4897:1 4919:1 4932:1 4980:1 5017:1 5023:1 5038:1 5077:1 5131:1 5134:1 5152:1 5164:1 5214:1 5230:1 5235:1 5239:1 5267:1 5454:1 5505:1 5515:1 5547:1 5559:1 5577:1 5639:1 5653:1 5748:1 5869:1 5887:1 5917:1 5943:1 5963:1 6020:1 6034:1 6046:1 6067:1 6078:1 6083:1 6101:1 6205:1 #
0.0038265468324352089855844294419285 30:1 32:1 44:1 50:1 90:1 105:1 221:1 230:1 288:1 293:1 383:1 440:1 1075:1 1109:1 1535:1 1570:1 1927:1 2419:1 3113:1 3114:1 3115:1 3116:1 3117:1 3118:1 3119:1 3120:1 3121:1 3122:1 3124:1 3125:1 3126:1 3127:1 3128:1 3129:1 3130:1 3131:1 3132:1 3133:1 3134:1 3138:1 3139:1 3142:1 3143:1 3144:1 3146:1 3158:1 3172:1 3175:1 3181:1 3186:1 3191:1 3195:1 3201:1 3204:1 3217:1 3220:1 3221:1 3237:1 3275:1 3280:1 3298:1 3317:1 3337:1 3351:1 3353:1 3526:1 3529:1 3532:1 3535:1 3538:1 3560:1 3605:1 3641:1 3646:1 3670:1 3747:1 3864:1 4007:1 4076:1 4191:1 4273:1 4974:1 5192:1 5416:1 5767:1 5957:1 #
0.0038265468324352089855844294419285 19:1 33:1 58:1 83:1 440:1 570:1 630:1 735:1 1186:1 2387:1 2548:1 2651:1 2654:1 2819:1 3113:1 3114:1 3115:1 3116:1 3117:1 3118:1 3120:1 3121:1 3122:1 3123:1 3124:1 3125:1 3129:1 3131:1 3132:1 3139:1 3140:1 3145:1 3150:1 3151:1 3155:1 3167:1 3168:1 3174:1 3214:1 3283:1 3295:1 3297:1 3298:1 3306:1 3320:1 3347:1 3420:1 3425:1 3434:1 3449:1 3573:1 3626:1 3684:1 3689:1 3857:1 3938:1 3958:1 4026:1 4050:1 4068:1 4110:1 4242:1 4254:1 4426:1 5277:1 #
0.0038265468324352089855844294419285 5:1 30:1 33:1 79:1 116:1 143:1 144:1 169:1 176:1 387:1 400:1 421:1 512:1 607:1 745:1 801:1 881:1 1034:1 1041:1 1121:1 1186:1 1204:1 1276:1 1369:1 1436:1 1883:1 2364:1 2972:1 3113:1 3114:1 3115:1 3116:1 3117:1 3118:1 3119:1 3120:1 3121:1 3122:1 3123:1 3124:1 3126:1 3127:1 3128:1 3129:1 3131:1 3136:1 3138:1 3139:1 3140:1 3142:1 3144:1 3147:1 3150:1 3156:1 3158:1 3172:1 3176:1 3190:1 3191:1 3195:1 3197:1 3207:1 3210:1 3216:1 3217:1 3238:1 3252:1 3258:1 3264:1 3341:1 3345:1 3377:1 3378:1 3385:1 3423:1 3441:1 3525:1 3538:1 3548:1 3551:1 3579:1 3587:1 3605:1 3615:1 3637:1 3656:1 3689:1 3703:1 3712:1 3718:1 3766:1 3770:1 3827:1 3841:1 3844:1 3891:1 3959:1 3974:1 3995:1 4107:1 4337:1 4516:1 4519:1 4534:1 4644:1 4690:1 4902:1 4912:1 5220:1 5339:1 5546:1 5680:1 5692:1 5817:1 5851:1 5929:1 6012:1 6209:1 #
0.0038265468324352089855844294419285 5:1 30:1 45:1 51:1 70:1 90:1 109:1 124:1 159:1 176:1 308:1 440:1 458:1 731:1 735:1 1307:1 1445:1 1656:1 3114:1 3115:1 3116:1 3117:1 3118:1 3119:1 3120:1 3121:1 3124:1 3125:1 3128:1 3129:1 3131:1 3132:1 3134:1 3136:1 3144:1 3145:1 3146:1 3148:1 3150:1 3157:1 3158:1 3160:1 3161:1 3181:1 3182:1 3187:1 3188:1 3192:1 3195:1 3207:1 3212:1 3223:1 3230:1 3238:1 3239:1 3250:1 3258:1 3263:1 3333:1 3356:1 3373:1 3542:1 3544:1 3546:1 3564:1 3627:1 3682:1 3690:1 3718:1 3737:1 3892:1 3918:1 3944:1 3978:1 4038:1 4068:1 4128:1 4244:1 4623:1 4867:1 4913:1 5066:1 6034:1 6104:1 #
0.0019490386558685696832826650393145 30:1 72:1 83:1 85:1 90:1 147:1 211:1 240:1 404:1 478:1 622:1 703:1 799:1 824:1 1199:1 1336:1 1375:1 2654:1 3113:1 3114:1 3115:1 3116:1 3117:1 3118:1 3119:1 3120:1 3121:1 3122:1 3125:1 3128:1 3129:1 3130:1 3131:1 3132:1 3137:1 3139:1 3142:1 3146:1 3152:1 3154:1 3160:1 3164:1 3170:1 3173:1 3176:1 3181:1 3190:1 3204:1 3218:1 3221:1 3237:1 3239:1 3258:1 3266:1 3277:1 3325:1 3336:1 3340:1 3361:1 3364:1 3382:1 3410:1 3411:1 3428:1 3462:1 3470:1 3532:1 3539:1 3572:1 3687:1 3709:1 3754:1 3875:1 3924:1 3946:1 4026:1 4128:1 4231:1 4266:1 4336:1 4426:1 4463:1 4823:1 4897:1 5105:1 5212:1 5276:1 5364:1 5681:1 5771:1 #
-0.0038265468324352089855844294419285 4:1 20:1 22:1 30:1 34:1 45:1 50:1 51:1 72:1 111:1 147:1 159:1 197:1 224:1 249:1 255:1 276:1 294:1 298:1 328:1 377:1 412:1 492:1 570:1 605:1 613:1 648:1 745:1 776:1 782:1 926:1 948:1 981:1 1042:1 1065:1 1067:1 1137:1 1243:1 1363:1 1462:1 1767:1 1768:1 1769:1 1770:1 1771:1 1772:1 1773:1 1774:1 2078:1 2156:1 2230:1 2818:1 3113:1 3114:1 3115:1 3116:1 3117:1 3118:1 3119:1 3120:1 3121:1 3122:1 3124:1 3125:1 3126:1 3127:1 3128:1 3129:1 3130:1 3131:1 3132:1 3133:1 3136:1 3137:1 3138:1 3141:1 3142:1 3143:1 3144:1 3145:1 3146:1 3148:1 3149:1 3150:1 3153:1 3155:1 3156:1 3157:1 3158:1 3160:1 3163:1 3164:1 3166:1 3168:1 3174:1 3181:1 3183:1 3187:1 3197:1 3199:1 3201:1 3202:1 3203:1 3217:1 3218:1 3223:1 3233:1 3234:1 3235:1 3237:1 3265:1 3269:1 3281:1 3284:1 3295:1 3297:1 3307:1 3312:1 3351:1 3363:1 3364:1 3367:1 3371:1 3377:1 3401:1 3406:1 3428:1 3468:1 3470:1 3487:1 3539:1 3551:1 3570:1 3574:1 3578:1 3600:1 3602:1 3634:1 3667:1 3678:1 3710:1 3713:1 3758:1 3765:1 3773:1 3820:1 3848:1 3978:1 3997:1 4058:1 4097:1 4189:1 4320:1 4368:1 4417:1 4501:1 4606:1 4763:1 4806:1 4814:1 4907:1 4929:1 4968:1 5034:1 5044:1 5075:1 5088:1 5126:1 5316:1 5331:1 5481:1 5493:1 5621:1 5797:1 5871:1 5872:1 6172:1 #
-0.0038265468324352089855844294419285 5:1 32:1 51:1 58:1 66:1 83:1 138:1 147:1 211:1 230:1 284:1 318:1 348:1 399:1 522:1 577:1 580:1 586:1 693:1 714:1 745:1 765:1 850:1 926:1 946:1 974:1 1030:1 1169:1 1333:1 1409:1 1459:1 1460:1 1461:1 1464:1 1927:1 2025:1 2078:1 2819:1 3113:1 3114:1 3115:1 3116:1 3117:1 3118:1 3119:1 3120:1 3121:1 3124:1 3125:1 3126:1 3127:1 3128:1 3129:1 3130:1 3131:1 3132:1 3133:1 3134:1 3137:1 3139:1 3140:1 3141:1 3142:1 3146:1 3151:1 3152:1 3158:1 3161:1 3163:1 3172:1 3174:1 3177:1 3178:1 3181:1 3186:1 3188:1 3199:1 3204:1 3221:1 3222:1 3231:1 3235:1 3247:1 3250:1 3258:1 3269:1 3272:1 3306:1 3311:1 3312:1 3325:1 3328:1 3341:1 3351:1 3363:1 3381:1 3383:1 3384:1 3420:1 3424:1 3433:1 3466:1 3468:1 3488:1 3500:1 3515:1 3538:1 3539:1 3556:1 3573:1 3592:1 3594:1 3612:1 3662:1 3680:1 3684:1 3703:1 3737:1 3740:1 3753:1 3803:1 3818:1 3868:1 3942:1 4000:1 4002:1 4007:1 4072:1 4073:1 4101:1 4102:1 4329:1 4415:1 4432:1 4537:1 4757:1 4776:1 5071:1 5132:1 5226:1 5281:1 5414:1 5646:1 5777:1 6100:1 #
-0.0038265468324352089855844294419285 14:1 30:1 34:1 43:1 58:1 59:1 72:1 134:1 174:1 228:1 247:1 257:1 290:1 311:1 360:1 392:1 402:1 415:1 440:1 546:1 599:1 665:1 709:1 789:1 883:1 945:1 1204:1 1208:1 1416:1 1532:1 1612:1 1750:1 1822:1 1927:1 2002:1 2100:1 2230:1 2240:1 2284:1 2389:1 2585:1 2782:1 2805:1 3113:1 3114:1 3115:1 3116:1 3117:1 3118:1 3119:1 3120:1 3121:1 3122:1 3123:1 3125:1 3126:1 3127:1 3128:1 3129:1 3130:1 3131:1 3132:1 3133:1 3136:1 3137:1 3139:1 3140:1 3141:1 3142:1 3145:1 3146:1 3147:1 3150:1 3151:1 3153:1 3158:1 3163:1 3165:1 3166:1 3169:1 3172:1 3173:1 3181:1 3183:1 3186:1 3187:1 3190:1 3195:1 3197:1 3220:1 3222:1 3225:1 3226:1 3239:1 3259:1 3262:1 3293:1 3306:1 3311:1 3320:1 3327:1 3363:1 3382:1 3387:1 3457:1 3479:1 3501:1 3578:1 3580:1 3609:1 3612:1 3631:1 3639:1 3675:1 3683:1 3707:1 3712:1 3733:1 3744:1 3755:1 3796:1 3918:1 4035:1 4231:1 4262:1 4387:1 4505:1 4507:1 4564:1 4643:1 4702:1 4780:1 4856:1 4863:1 4889:1 4944:1 5074:1 5099:1 5204:1 5480:1 5629:1 5677:1 5719:1 6117:1 6130:1 #
0.0038265468324352089855844294419285 2:1 5:1 13:1 14:1 15:1 17:1 24:1 30:1 33:1 58:1 59:1 66:1 70:1 80:1 83:1 84:1 85:1 86:1 90:1 101:1 109:1 110:1 116:1 123:1 124:1 129:1 133:1 144:1 147:1 152:1 166:1 174:1 176:1 202:1 223:1 230:1 246:1 264:1 293:1 298:1 302:1 306:1 321:1 360:1 370:1 396:1 440:1 479:1 480:1 505:1 506:1 577:1 580:1 587:1 633:1 693:1 724:1 757:1 768:1 814:1 850:1 991:1 996:1 997:1 1054:1 1089:1 1123:1 1126:1 1152:1 1226:1 1243:1 1307:1 1418:1 1422:1 1442:1 1445:1 1478:1 1519:1 1570:1 1595:1 1606:1 1927:1 1960:1 2075:1 2105:1 2242:1 2526:1 2538:1 2623:1 2633:1 2819:1 2894:1 2917:1 3113:1 3114:1 3115:1 3116:1 3117:1 3118:1 3119:1 3120:1 3121:1 3122:1 3123:1 3124:1 3125:1 3126:1 3127:1 3128:1 3129:1 3130:1 3131:1 3132:1 3133:1 3134:1 3136:1 3137:1 3138:1 3139:1 3140:1 3141:1 3142:1 3143:1 3144:1 3145:1 3146:1 3147:1 3148:1 3149:1 3150:1 3151:1 3152:1 3153:1 3155:1 3156:1 3157:1 3158:1 3160:1 3161:1 3163:1 3164:1 3168:1 3169:1 3170:1 3171:1 3172:1 3173:1 3174:1 3175:1 3176:1 3177:1 3181:1 3182:1 3183:1 3186:1 3188:1 3189:1 3192:1 3195:1 3197:1 3199:1 3201:1 3204:1 3206:1 3207:1 3208:1 3209:1 3210:1 3211:1 3212:1 3213:1 3214:1 3215:1 3216:1 3217:1 3218:1 3222:1 3224:1 3226:1 3228:1 3230:1 3231:1 3232:1 3233:1 3234:1 3237:1 3238:1 3241:1 3244:1 3245:1 3247:1 3249:1 3250:1 3252:1 3255:1 3256:1 3257:1 3260:1 3263:1 3266:1 3267:1 3268:1 3269:1 3271:1 3272:1 3274:1 3278:1 3280:1 3281:1 3286:1 3289:1 3290:1 3291:1 3293:1 3303:1 3304:1 3305:1 3307:1 3308:1 3311:1 3312:1 3314:1 3321:1 3325:1 3329:1 3338:1 3340:1 3341:1 3342:1 3346:1 3347:1 3348:1 3349:1 3356:1 3358:1 3359:1 3360:1 3361:1 3366:1 3367:1 3370:1 3373:1 3374:1 3375:1 3376:1 3377:1 3378:1 3383:1 3392:1 3395:1 3396:1 3401:1 3413:1 3418:1 3425:1 3431:1 3433:1 3441:1 3444:1 3445:1 3448:1 3455:1 3462:1 3469:1 3480:1 3493:1 3508:1 3509:1 3512:1 3519:1 3520:1 3544:1 3545:1 3548:1 3551:1 3559:1 3564:1 3572:1 3573:1 3575:1 3579:1 3587:1 3623:1 3636:1 3640:1 3641:1 3651:1 3657:1 3673:1 3680:1 3691:1 3696:1 3701:1 3715:1 3721:1 3723:1 3726:1 3727:1 3735:1 3736:1 3739:1 3770:1 3790:1 3795:1 3837:1 3840:1 3853:1 3873:1 3875:1 3898:1 3916:1 3917:1 3923:1 3957:1 3958:1 3968:1 3992:1 4000:1 4010:1 4021:1 4046:1 4054:1 4070:1 4075:1 4095:1 4105:1 4112:1 4125:1 4127:1 4139:1 4145:1 4148:1 4180:1 4198:1 4228:1 4239:1 4255:1 4308:1 4319:1 4328:1 4344:1 4346:1 4370:1 4387:1 4422:1 4429:1 4440:1 4474:1 4481:1 4506:1 4511:1 4517:1 4537:1 4577:1 4624:1 4635:1 4640:1 4711:1 4733:1 4750:1 4753:1 4767:1 4799:1 4815:1 4901:1 4906:1 4907:1 4915:1 4932:1 5031:1 5035:1 5065:1 5102:1 5106:1 5122:1 5127:1 5139:1 5153:1 5164:1 5188:1 5203:1 5217:1 5270:1 5283:1 5305:1 5316:1 5354:1 5373:1 5495:1 5522:1 5532:1 5539:1 5606:1 5607:1 5733:1 5808:1 5809:1 5872:1 5873:1 5919:1 5943:1 5971:1 5986:1 6036:1 6062:1 6072:1 6078:1 6079:1 6082:1 6097:1 #
0.0015581177683148099161886124264242 3:1 4:1 5:1 10:1 14:1 15:1 17:1 27:1 28:1 30:1 34:1 54:1 58:1 59:1 66:1 69:1 72:1 79:1 83:1 84:1 94:1 105:1 109:1 110:1 111:1 112:1 114:1 116:1 124:1 129:1 138:1 145:1 147:1 157:1 169:1 182:1 199:1 201:1 205:1 211:1 219:1 225:1 229:1 233:1 258:1 265:1 289:1 308:1 345:1 360:1 394:1 399:1 417:1 440:1 447:1 454:1 466:1 477:1 501:1 521:1 547:1 592:1 596:1 601:1 611:1 639:1 807:1 820:1 840:1 855:1 881:1 908:1 948:1 949:1 1018:1 1042:1 1052:1 1084:1 1096:1 1097:1 1161:1 1186:1 1192:1 1203:1 1222:1 1266:1 1285:1 1308:1 1311:1 1329:1 1341:1 1378:1 1395:1 1423:1 1428:1 1444:1 1449:1 1453:1 1560:1 1570:1 1573:1 1581:1 1591:1 1614:1 1620:1 1654:1 1689:1 1706:1 1763:1 1766:1 1878:1 1927:1 1929:1 1959:1 2026:1 2036:1 2124:1 2156:1 2175:1 2227:1 2242:1 2293:1 2325:1 2364:1 2379:1 2423:1 2424:1 2524:1 2585:1 2634:1 2652:1 2680:1 2736:1 2822:1 3015:1 3067:1 3113:1 3114:1 3115:1 3116:1 3117:1 3118:1 3119:1 3120:1 3121:1 3122:1 3123:1 3124:1 3125:1 3126:1 3127:1 3128:1 3129:1 3130:1 3131:1 3132:1 3133:1 3134:1 3136:1 3137:1 3138:1 3139:1 3140:1 3141:1 3142:1 3143:1 3144:1 3145:1 3146:1 3147:1 3148:1 3149:1 3150:1 3151:1 3152:1 3153:1 3154:1 3155:1 3157:1 3158:1 3160:1 3161:1 3163:1 3164:1 3165:1 3166:1 3167:1 3169:1 3171:1 3172:1 3173:1 3174:1 3175:1 3176:1 3177:1 3178:1 3181:1 3183:1 3186:1 3187:1 3188:1 3189:1 3190:1 3192:1 3194:1 3195:1 3199:1 3200:1 3202:1 3203:1 3204:1 3207:1 3208:1 3210:1 3211:1 3212:1 3213:1 3215:1 3216:1 3217:1 3218:1 3222:1 3224:1 3228:1 3230:1 3231:1 3232:1 3233:1 3234:1 3235:1 3237:1 3238:1 3239:1 3241:1 3244:1 3245:1 3246:1 3247:1 3249:1 3252:1 3254:1 3255:1 3256:1 3257:1 3259:1 3260:1 3262:1 3264:1 3265:1 3271:1 3274:1 3275:1 3277:1 3280:1 3283:1 3284:1 3285:1 3286:1 3289:1 3290:1 3294:1 3300:1 3306:1 3308:1 3317:1 3318:1 3321:1 3322:1 3326:1 3338:1 3339:1 3340:1 3341:1 3342:1 3345:1 3351:1 3353:1 3354:1 3358:1 3359:1 3360:1 3361:1 3380:1 3381:1 3383:1 3385:1 3386:1 3387:1 3389:1 3391:1 3395:1 3396:1 3397:1 3400:1 3401:1 3407:1 3408:1 3410:1 3414:1 3416:1 3418:1 3424:1 3425:1 3426:1 3430:1 3431:1 3443:1 3466:1 3467:1 3468:1 3469:1 3470:1 3476:1 3485:1 3488:1 3489:1 3491:1 3493:1 3500:1 3507:1 3511:1 3520:1 3522:1 3524:1 3525:1 3535:1 3545:1 3550:1 3552:1 3556:1 3559:1 3562:1 3574:1 3579:1 3586:1 3609:1 3616:1 3623:1 3633:1 3634:1 3635:1 3641:1 3645:1 3647:1 3663:1 3667:1 3707:1 3710:1 3713:1 3723:1 3728:1 3745:1 3751:1 3759:1 3767:1 3772:1 3773:1 3774:1 3786:1 3796:1 3797:1 3799:1 3803:1 3825:1 3827:1 3837:1 3842:1 3852:1 3864:1 3866:1 3869:1 3876:1 3877:1 3884:1 3886:1 3894:1 3924:1 3934:1 3943:1 3962:1 3966:1 3979:1 3995:1 4027:1 4030:1 4043:1 4065:1 4081:1 4094:1 4111:1 4119:1 4126:1 4127:1 4147:1 4155:1 4219:1 4245:1 4253:1 4262:1 4284:1 4291:1 4297:1 4299:1 4336:1 4346:1 4375:1 4381:1 4382:1 4386:1 4391:1 4394:1 4430:1 4463:1 4467:1 4474:1 4485:1 4492:1 4500:1 4525:1 4591:1 4594:1 4600:1 4619:1 4630:1 4660:1 4678:1 4702:1 4743:1 4773:1 4806:1 4858:1 4895:1 4898:1 4904:1 4907:1 4934:1 4947:1 4985:1 5003:1 5004:1 5010:1 5012:1 5081:1 5088:1 5135:1 5165:1 5215:1 5233:1 5283:1 5328:1 5361:1 5366:1 5457:1 5482:1 5514:1 5532:1 5560:1 5604:1 5608:1 5652:1 5664:1 5695:1 5750:1 5805:1 5836:1 5851:1 5919:1 5947:1 5988:1 5991:1 6092:1 6122:1 6134:1 6166:1 6176:1 #
-0.00072358376178008332324509410682367 3:1 7:1 17:1 23:1 28:1 40:1 51:1 58:1 59:1 90:1 110:1 150:1 154:1 166:1 171:1 176:1 182:1 193:1 260:1 276:1 290:1 294:1 314:1 403:1 435:1 440:1 501:1 521:1 525:1 575:1 624:1 630:1 656:1 735:1 805:1 844:1 1041:1 1049:1 1109:1 1265:1 1333:1 1387:1 1421:1 1459:1 1483:1 1497:1 1532:1 1700:1 1927:1 1941:1 1960:1 2021:1 2078:1 2081:1 2146:1 2156:1 2192:1 2214:1 2242:1 2272:1 2382:1 2510:1 2534:1 2648:1 2671:1 2729:1 2818:1 2819:1 2884:1 2885:1 3113:1 3114:1 3115:1 3116:1 3117:1 3118:1 3119:1 3120:1 3121:1 3122:1 3123:1 3124:1 3125:1 3126:1 3127:1 3128:1 3129:1 3130:1 3131:1 3132:1 3133:1 3134:1 3136:1 3137:1 3138:1 3139:1 3140:1 3142:1 3143:1 3144:1 3145:1 3146:1 3147:1 3148:1 3149:1 3150:1 3151:1 3152:1 3155:1 3156:1 3160:1 3161:1 3163:1 3164:1 3165:1 3167:1 3168:1 3172:1 3173:1 3174:1 3178:1 3182:1 3186:1 3187:1 3190:1 3192:1 3207:1 3208:1 3211:1 3214:1 3217:1 3218:1 3228:1 3230:1 3231:1 3232:1 3245:1 3246:1 3247:1 3249:1 3250:1 3252:1 3257:1 3259:1 3260:1 3265:1 3267:1 3271:1 3272:1 3274:1 3275:1 3280:1 3282:1 3285:1 3289:1 3297:1 3306:1 3314:1 3317:1 3326:1 3347:1 3349:1 3350:1 3361:1 3389:1 3394:1 3399:1 3401:1 3428:1 3430:1 3448:1 3452:1 3479:1 3489:1 3499:1 3502:1 3505:1 3518:1 3538:1 3556:1 3582:1 3586:1 3607:1 3646:1 3650:1 3669:1 3685:1 3692:1 3712:1 3716:1 3729:1 3743:1 3744:1 3748:1 3755:1 3766:1 3779:1 3804:1 3816:1 3833:1 3892:1 3893:1 3898:1 3905:1 3910:1 3913:1 3921:1 3963:1 3972:1 3981:1 3983:1 4009:1 4021:1 4095:1 4106:1 4196:1 4215:1 4254:1 4297:1 4310:1 4331:1 4368:1 4372:1 4396:1 4427:1 4445:1 4514:1 4522:1 4529:1 4535:1 4568:1 4632:1 4653:1 4670:1 4678:1 4733:1 4748:1 4868:1 4888:1 4902:1 4927:1 4979:1 4992:1 5017:1 5023:1 5072:1 5089:1 5204:1 5212:1 5263:1 5286:1 5296:1 5397:1 5443:1 5472:1 5503:1 5659:1 5841:1 5857:1 5940:1 5950:1 6050:1 6112:1 6142:1 6172:1 #
-0.0026836220524021109530565798451107 2:1 3:1 5:1 17:1 22:1 24:1 30:1 58:1 59:1 66:1 72:1 80:1 83:1 90:1 94:1 109:1 110:1 116:1 123:1 131:1 140:1 155:1 169:1 173:1 181:1 199:1 221:1 227:1 237:1 264:1 306:1 319:1 326:1 361:1 370:1 399:1 414:1 417:1 440:1 443:1 469:1 521:1 584:1 660:1 670:1 717:1 724:1 733:1 737:1 745:1 765:1 782:1 789:1 834:1 955:1 994:1 1013:1 1053:1 1073:1 1096:1 1097:1 1109:1 1155:1 1186:1 1217:1 1283:1 1320:1 1416:1 1421:1 1514:1 1572:1 1635:1 1640:1 1646:1 1672:1 1733:1 1751:1 1804:1 1817:1 1861:1 1989:1 2006:1 2046:1 2073:1 2169:1 2226:1 2240:1 2242:1 2306:1 2340:1 2347:1 2420:1 2484:1 2500:1 2501:1 2502:1 2509:1 2538:1 2572:1 2573:1 2597:1 2670:1 2819:1 3113:1 3114:1 3115:1 3116:1 3117:1 3118:1 3119:1 3120:1 3121:1 3122:1 3123:1 3124:1 3125:1 3126:1 3127:1 3128:1 3129:1 3130:1 3131:1 3132:1 3134:1 3136:1 3137:1 3138:1 3139:1 3140:1 3141:1 3142:1 3143:1 3144:1 3145:1 3146:1 3147:1 3148:1 3149:1 3150:1 3151:1 3152:1 3153:1 3154:1 3155:1 3157:1 3158:1 3160:1 3163:1 3164:1 3165:1 3166:1 3168:1 3169:1 3170:1 3171:1 3172:1 3173:1 3174:1 3175:1 3176:1 3177:1 3178:1 3182:1 3183:1 3186:1 3187:1 3188:1 3189:1 3191:1 3192:1 3194:1 3195:1 3197:1 3199:1 3201:1 3203:1 3204:1 3206:1 3208:1 3209:1 3210:1 3212:1 3214:1 3215:1 3218:1 3221:1 3222:1 3224:1 3228:1 3231:1 3233:1 3234:1 3235:1 3237:1 3238:1 3239:1 3244:1 3245:1 3247:1 3255:1 3263:1 3264:1 3265:1 3267:1 3268:1 3269:1 3271:1 3272:1 3274:1 3278:1 3281:1 3282:1 3283:1 3284:1 3285:1 3286:1 3289:1 3290:1 3293:1 3294:1 3297:1 3298:1 3300:1 3306:1 3307:1 3311:1 3317:1 3320:1 3324:1 3325:1 3326:1 3333:1 3336:1 3338:1 3339:1 3341:1 3342:1 3345:1 3346:1 3347:1 3353:1 3354:1 3359:1 3361:1 3365:1 3367:1 3380:1 3382:1 3384:1 3387:1 3393:1 3395:1 3396:1 3399:1 3408:1 3409:1 3411:1 3412:1 3416:1 3420:1 3425:1 3429:1 3431:1 3433:1 3443:1 3444:1 3458:1 3479:1 3485:1 3488:1 3495:1 3499:1 3505:1 3510:1 3512:1 3514:1 3522:1 3523:1 3529:1 3531:1 3542:1 3551:1 3564:1 3566:1 3572:1 3579:1 3580:1 3581:1 3587:1 3589:1 3608:1 3620:1 3628:1 3663:1 3687:1 3690:1 3691:1 3696:1 3709:1 3716:1 3724:1 3746:1 3751:1 3759:1 3766:1 3777:1 3853:1 3857:1 3863:1 3887:1 3888:1 3891:1 3900:1 3920:1 3928:1 3929:1 3933:1 3945:1 3946:1 3967:1 3991:1 3996:1 4007:1 4038:1 4044:1 4065:1 4067:1 4072:1 4092:1 4114:1 4127:1 4149:1 4197:1 4212:1 4238:1 4263:1 4269:1 4280:1 4287:1 4330:1 4465:1 4488:1 4532:1 4636:1 4645:1 4727:1 4729:1 4735:1 4757:1 4791:1 4854:1 4891:1 4954:1 4961:1 4971:1 5039:1 5049:1 5061:1 5085:1 5155:1 5169:1 5181:1 5229:1 5231:1 5267:1 5286:1 5336:1 5347:1 5363:1 5377:1 5389:1 5425:1 5429:1 5448:1 5456:1 5477:1 5509:1 5540:1 5662:1 5675:1 5700:1 5743:1 5819:1 5834:1 5900:1 5919:1 5963:1 6041:1 6044:1 6217:1 #
0.0027313879745286722203201357217495 1:1 3:1 4:1 5:1 14:1 15:1 17:1 18:1 22:1 24:1 30:1 33:1 39:1 58:1 70:1 83:1 96:1 101:1 105:1 110:1 111:1 116:1 147:1 159:1 181:1 197:1 209:1 212:1 218:1 227:1 230:1 249:1 280:1 290:1 302:1 312:1 338:1 364:1 370:1 381:1 440:1 462:1 474:1 485:1 505:1 508:1 567:1 575:1 589:1 631:1 636:1 648:1 707:1 735:1 739:1 741:1 788:1 800:1 804:1 805:1 811:1 850:1 925:1 936:1 1033:1 1139:1 1186:1 1187:1 1311:1 1375:1 1393:1 1401:1 1409:1 1416:1 1440:1 1715:1 2038:1 2074:1 2242:1 2246:1 2264:1 2362:1 2364:1 2458:1 2463:1 2485:1 2633:1 2725:1 2818:1 2819:1 3067:1 3093:1 3113:1 3114:1 3115:1 3116:1 3117:1 3118:1 3119:1 3120:1 3121:1 3122:1 3123:1 3124:1 3125:1 3126:1 3127:1 3128:1 3129:1 3130:1 3131:1 3132:1 3133:1 3134:1 3136:1 3137:1 3138:1 3139:1 3140:1 3141:1 3142:1 3143:1 3144:1 3146:1 3147:1 3148:1 3149:1 3150:1 3151:1 3152:1 3153:1 3154:1 3155:1 3156:1 3157:1 3158:1 3160:1 3161:1 3163:1 3164:1 3165:1 3166:1 3167:1 3168:1 3169:1 3170:1 3171:1 3172:1 3173:1 3174:1 3175:1 3176:1 3177:1 3181:1 3182:1 3183:1 3186:1 3187:1 3188:1 3189:1 3192:1 3195:1 3197:1 3199:1 3201:1 3202:1 3203:1 3204:1 3208:1 3209:1 3210:1 3213:1 3214:1 3215:1 3216:1 3217:1 3218:1 3224:1 3225:1 3226:1 3228:1 3230:1 3231:1 3232:1 3234:1 3237:1 3238:1 3239:1 3244:1 3246:1 3247:1 3250:1 3254:1 3255:1 3257:1 3258:1 3262:1 3263:1 3264:1 3266:1 3268:1 3272:1 3274:1 3275:1 3277:1 3280:1 3283:1 3290:1 3294:1 3295:1 3296:1 3297:1 3298:1 3303:1 3304:1 3307:1 3310:1 3311:1 3312:1 3314:1 3320:1 3324:1 3328:1 3329:1 3330:1 3337:1 3346:1 3358:1 3363:1 3366:1 3367:1 3368:1 3374:1 3377:1 3380:1 3384:1 3387:1 3392:1 3393:1 3394:1 3395:1 3408:1 3409:1 3410:1 3421:1 3425:1 3427:1 3429:1 3431:1 3434:1 3443:1 3445:1 3455:1 3458:1 3462:1 3465:1 3474:1 3476:1 3485:1 3488:1 3489:1 3500:1 3502:1 3507:1 3520:1 3522:1 3539:1 3551:1 3560:1 3575:1 3577:1 3581:1 3587:1 3589:1 3612:1 3614:1 3624:1 3631:1 3663:1 3670:1 3687:1 3700:1 3701:1 3715:1 3733:1 3735:1 3746:1 3754:1 3760:1 3774:1 3791:1 3799:1 3811:1 3850:1 3853:1 3854:1 3864:1 3887:1 3893:1 3897:1 3903:1 3928:1 3939:1 3963:1 3967:1 3968:1 3992:1 4001:1 4002:1 4035:1 4036:1 4058:1 4072:1 4076:1 4097:1 4100:1 4111:1 4128:1 4135:1 4232:1 4249:1 4255:1 4263:1 4266:1 4283:1 4316:1 4318:1 4328:1 4341:1 4373:1 4417:1 4419:1 4423:1 4432:1 4450:1 4531:1 4574:1 4632:1 4643:1 4658:1 4668:1 4669:1 4678:1 4682:1 4684:1 4688:1 4706:1 4762:1 4781:1 4782:1 4887:1 4917:1 4934:1 5036:1 5065:1 5089:1 5122:1 5162:1 5240:1 5243:1 5403:1 5557:1 5591:1 5632:1 5708:1 5711:1 5738:1 5771:1 5788:1 5834:1 5842:1 5859:1 5876:1 5896:1 5912:1 6004:1 6071:1 #
-0.0038265468324352089855844294419285 4:1 5:1 14:1 15:1 22:1 24:1 29:1 30:1 33:1 34:1 35:1 45:1 58:1 61:1 70:1 76:1 83:1 101:1 105:1 115:1 123:1 124:1 129:1 141:1 146:1 147:1 209:1 219:1 246:1 302:1 308:1 318:1 353:1 370:1 400:1 404:1 429:1 437:1 440:1 514:1 537:1 540:1 560:1 575:1 605:1 627:1 639:1 651:1 666:1 668:1 710:1 731:1 763:1 782:1 842:1 900:1 954:1 1033:1 1035:1 1065:1 1095:1 1124:1 1192:1 1212:1 1278:1 1285:1 1307:1 1409:1 1461:1 1497:1 1517:1 1704:1 1739:1 1790:1 1869:1 1884:1 1947:1 2038:1 2059:1 2078:1 2156:1 2236:1 2240:1 2244:1 2330:1 2364:1 2378:1 2455:1 2559:1 2567:1 2573:1 2633:1 2700:1 2701:1 2702:1 2703:1 2910:1 3087:1 3113:1 3114:1 3115:1 3116:1 3117:1 3118:1 3119:1 3120:1 3121:1 3122:1 3123:1 3124:1 3125:1 3126:1 3127:1 3128:1 3129:1 3130:1 3131:1 3132:1 3133:1 3134:1 3136:1 3137:1 3138:1 3139:1 3140:1 3141:1 3142:1 3143:1 3144:1 3145:1 3146:1 3147:1 3148:1 3149:1 3150:1 3151:1 3152:1 3153:1 3154:1 3155:1 3156:1 3157:1 3158:1 3160:1 3161:1 3163:1 3164:1 3165:1 3166:1 3167:1 3168:1 3169:1 3170:1 3171:1 3172:1 3173:1 3174:1 3175:1 3178:1 3181:1 3182:1 3183:1 3186:1 3187:1 3189:1 3190:1 3191:1 3192:1 3194:1 3195:1 3197:1 3199:1 3200:1 3203:1 3208:1 3209:1 3210:1 3211:1 3212:1 3213:1 3216:1 3217:1 3218:1 3220:1 3221:1 3222:1 3224:1 3225:1 3226:1 3228:1 3230:1 3232:1 3234:1 3235:1 3239:1 3244:1 3245:1 3249:1 3252:1 3255:1 3257:1 3260:1 3263:1 3265:1 3266:1 3268:1 3272:1 3278:1 3280:1 3281:1 3283:1 3284:1 3286:1 3289:1 3290:1 3293:1 3295:1 3300:1 3304:1 3318:1 3320:1 3321:1 3324:1 3329:1 3338:1 3340:1 3342:1 3345:1 3349:1 3350:1 3353:1 3358:1 3361:1 3362:1 3366:1 3373:1 3375:1 3376:1 3381:1 3385:1 3389:1 3392:1 3393:1 3399:1 3407:1 3413:1 3424:1 3428:1 3429:1 3432:1 3434:1 3435:1 3443:1 3445:1 3456:1 3457:1 3462:1 3467:1 3468:1 3474:1 3476:1 3483:1 3490:1 3508:1 3510:1 3511:1 3513:1 3515:1 3520:1 3538:1 3542:1 3545:1 3551:1 3578:1 3579:1 3580:1 3584:1 3628:1 3632:1 3639:1 3644:1 3646:1 3656:1 3687:1 3689:1 3693:1 3695:1 3700:1 3702:1 3710:1 3715:1 3733:1 3734:1 3745:1 3766:1 3770:1 3777:1 3783:1 3797:1 3806:1 3829:1 3841:1 3854:1 3880:1 3897:1 3905:1 3914:1 3923:1 3938:1 3952:1 3955:1 3978:1 3979:1 3983:1 4029:1 4030:1 4044:1 4046:1 4052:1 4061:1 4065:1 4083:1 4093:1 4100:1 4112:1 4114:1 4123:1 4145:1 4181:1 4191:1 4194:1 4221:1 4232:1 4241:1 4272:1 4300:1 4323:1 4341:1 4346:1 4348:1 4382:1 4456:1 4486:1 4521:1 4528:1 4534:1 4581:1 4594:1 4599:1 4609:1 4621:1 4668:1 4684:1 4706:1 4722:1 4727:1 4728:1 4766:1 4769:1 4790:1 4822:1 4849:1 4863:1 4869:1 4871:1 4872:1 4874:1 4901:1 4928:1 4936:1 4994:1 5004:1 5049:1 5140:1 5185:1 5205:1 5230:1 5231:1 5244:1 5258:1 5340:1 5347:1 5391:1 5403:1 5442:1 5460:1 5481:1 5708:1 5845:1 5869:1 #
-0.0037943470965359476360090340563147 14:1 22:1 35:1 59:1 66:1 83:1 84:1 110:1 152:1 157:1 227:1 230:1 249:1 259:1 290:1 306:1 365:1 400:1 440:1 479:1 571:1 577:1 589:1 707:1 952:1 974:1 1021:1 1041:1 1055:1 1149:1 1180:1 1235:1 1375:1 1409:1 1560:1 1570:1 1680:1 2040:1 2228:1 2543:1 2544:1 2597:1 2633:1 2794:1 2819:1 3113:1 3114:1 3115:1 3116:1 3117:1 3118:1 3119:1 3120:1 3121:1 3122:1 3123:1 3124:1 3125:1 3126:1 3127:1 3128:1 3129:1 3130:1 3131:1 3132:1 3134:1 3136:1 3137:1 3138:1 3139:1 3140:1 3141:1 3142:1 3143:1 3144:1 3145:1 3146:1 3147:1 3148:1 3151:1 3152:1 3156:1 3157:1 3161:1 3163:1 3165:1 3167:1 3171:1 3173:1 3177:1 3182:1 3183:1 3186:1 3187:1 3188:1 3202:1 3208:1 3213:1 3214:1 3218:1 3220:1 3232:1 3235:1 3246:1 3269:1 3272:1 3275:1 3277:1 3282:1 3284:1 3318:1 3346:1 3361:1 3363:1 3373:1 3384:1 3389:1 3392:1 3407:1 3415:1 3428:1 3429:1 3460:1 3474:1 3480:1 3484:1 3489:1 3502:1 3526:1 3551:1 3569:1 3578:1 3589:1 3594:1 3600:1 3631:1 3633:1 3718:1 3726:1 3734:1 3766:1 3792:1 3804:1 3829:1 3884:1 3891:1 3903:1 3924:1 3943:1 4016:1 4118:1 4231:1 4291:1 4302:1 4316:1 4359:1 4369:1 4373:1 4408:1 4538:1 4565:1 4567:1 4588:1 4622:1 4657:1 4708:1 4735:1 4762:1 4841:1 4884:1 4920:1 5048:1 5121:1 5513:1 5545:1 5581:1 5608:1 5610:1 5682:1 5686:1 5732:1 5759:1 5886:1 5909:1 5999:1 6036:1 #
-0.0038265468324352089855844294419285 2:1 3:1 5:1 14:1 15:1 17:1 22:1 30:1 33:1 56:1 58:1 59:1 66:1 70:1 90:1 105:1 109:1 110:1 111:1 116:1 144:1 147:1 157:1 166:1 176:1 180:1 182:1 211:1 213:1 214:1 223:1 227:1 228:1 230:1 231:1 233:1 244:1 287:1 291:1 294:1 306:1 314:1 321:1 360:1 377:1 424:1 440:1 443:1 455:1 468:1 470:1 475:1 485:1 521:1 540:1 575:1 604:1 663:1 683:1 691:1 716:1 766:1 790:1 852:1 871:1 910:1 936:1 993:1 1023:1 1071:1 1074:1 1087:1 1096:1 1186:1 1237:1 1285:1 1311:1 1329:1 1369:1 1409:1 1494:1 1497:1 1539:1 1569:1 1570:1 1571:1 1572:1 1573:1 1574:1 1575:1 1715:1 1949:1 2038:1 2074:1 2156:1 2330:1 2430:1 2534:1 2543:1 2633:1 2710:1 2783:1 2810:1 2818:1 2819:1 2910:1 2941:1 3053:1 3113:1 3114:1 3115:1 3116:1 3117:1 3118:1 3119:1 3120:1 3121:1 3122:1 3123:1 3124:1 3125:1 3126:1 3127:1 3128:1 3129:1 3130:1 3131:1 3132:1 3133:1 3134:1 3136:1 3137:1 3138:1 3139:1 3140:1 3141:1 3142:1 3143:1 3144:1 3145:1 3146:1 3147:1 3148:1 3149:1 3150:1 3151:1 3152:1 3153:1 3154:1 3155:1 3156:1 3157:1 3158:1 3160:1 3161:1 3163:1 3164:1 3165:1 3166:1 3167:1 3168:1 3169:1 3170:1 3171:1 3172:1 3173:1 3174:1 3175:1 3176:1 3177:1 3178:1 3181:1 3182:1 3183:1 3186:1 3188:1 3189:1 3192:1 3195:1 3197:1 3199:1 3200:1 3201:1 3203:1 3204:1 3206:1 3207:1 3208:1 3209:1 3210:1 3211:1 3212:1 3213:1 3214:1 3215:1 3216:1 3217:1 3220:1 3222:1 3223:1 3224:1 3225:1 3228:1 3230:1 3232:1 3233:1 3234:1 3235:1 3237:1 3238:1 3239:1 3246:1 3249:1 3250:1 3255:1 3256:1 3257:1 3258:1 3262:1 3263:1 3265:1 3266:1 3267:1 3268:1 3272:1 3275:1 3280:1 3286:1 3289:1 3294:1 3295:1 3297:1 3298:1 3300:1 3304:1 3305:1 3317:1 3318:1 3324:1 3325:1 3326:1 3327:1 3328:1 3329:1 3330:1 3338:1 3339:1 3345:1 3348:1 3360:1 3361:1 3362:1 3363:1 3364:1 3367:1 3371:1 3373:1 3375:1 3378:1 3381:1 3384:1 3386:1 3387:1 3394:1 3396:1 3397:1 3401:1 3409:1 3416:1 3418:1 3421:1 3427:1 3429:1 3441:1 3448:1 3453:1 3455:1 3470:1 3478:1 3479:1 3480:1 3492:1 3500:1 3505:1 3507:1 3518:1 3524:1 3528:1 3537:1 3546:1 3551:1 3572:1 3594:1 3600:1 3602:1 3611:1 3626:1 3631:1 3633:1 3636:1 3640:1 3641:1 3645:1 3675:1 3676:1 3681:1 3694:1 3701:1 3712:1 3718:1 3723:1 3726:1 3747:1 3764:1 3790:1 3796:1 3811:1 3829:1 3844:1 3875:1 3876:1 3882:1 3888:1 3892:1 3899:1 3923:1 3928:1 3946:1 3958:1 3966:1 3967:1 3968:1 3972:1 3990:1 4000:1 4029:1 4050:1 4054:1 4080:1 4093:1 4112:1 4158:1 4202:1 4242:1 4243:1 4246:1 4262:1 4263:1 4284:1 4312:1 4318:1 4356:1 4360:1 4382:1 4399:1 4460:1 4464:1 4480:1 4488:1 4490:1 4492:1 4535:1 4577:1 4581:1 4589:1 4593:1 4613:1 4619:1 4632:1 4658:1 4678:1 4681:1 4684:1 4728:1 4753:1 4826:1 4915:1 4920:1 4942:1 4984:1 4996:1 5029:1 5071:1 5076:1 5095:1 5121:1 5125:1 5174:1 5234:1 5396:1 5480:1 5560:1 5591:1 5595:1 5625:1 5654:1 5705:1 5850:1 5901:1 5917:1 5957:1 5989:1 6078:1 6096:1 6106:1 6120:1 6157:1 6172:1 #
