SVM-light Version V6.02
0 # kernel type
3 # kernel parameter -d 
1 # kernel parameter -g 
1 # kernel parameter -s 
1 # kernel parameter -r 
empty# kernel parameter -u 
1565 # highest feature index 
100 # number of training documents 
101 # number of support vectors plus 1 
0.2450509 # threshold b, each following line is a SV (starting with alpha*y)
-0.0049798877172708803928724563547803 3:1 31:1 33:1 37:1 46:1 52:1 59:1 64:1 66:1 67:1 75:1 86:1 87:1 91:1 95:1 96:1 100:1 108:1 113:1 115:1 124:1 134:1 139:1 141:1 142:1 148:1 152:1 153:1 158:1 163:1 165:1 168:1 192:1 196:1 201:1 213:1 217:1 220:1 230:1 233:1 234:1 237:1 252:1 256:1 284:1 291:1 301:1 302:1 310:1 313:1 315:1 318:1 322:1 324:1 328:1 330:1 333:1 335:1 339:1 342:1 345:1 346:1 354:1 367:1 368:1 372:1 375:1 387:1 389:1 391:1 394:1 395:1 403:1 407:1 408:1 418:1 421:1 427:1 452:1 469:1 470:1 475:1 476:1 478:1 482:1 487:1 488:1 497:1 504:1 512:1 515:1 518:1 521:1 528:1 529:1 531:1 538:1 543:1 558:1 560:1 562:1 565:1 566:1 567:1 572:1 574:1 585:1 593:1 595:1 610:1 613:1 616:1 620:1 630:1 633:1 635:1 636:1 639:1 642:1 645:1 651:1 652:1 657:1 667:1 669:1 678:1 700:1 706:1 724:1 725:1 739:1 744:1 752:1 755:1 784:1 793:1 795:1 812:1 819:1 820:1 821:1 835:1 846:1 850:1 877:1 878:1 888:1 900:1 908:1 917:1 933:1 936:1 944:1 946:1 947:1 948:1 955:1 956:1 959:1 966:1 968:1 969:1 988:1 996:1 1002:1 1007:1 1017:1 1023:1 1028:1 1047:1 1051:1 1053:1 1055:1 1056:1 1058:1 1079:1 1095:1 1096:1 1097:1 1113:1 1114:1 1118:1 1120:1 1122:1 1133:1 1144:1 1156:1 1157:1 1165:1 1169:1 1172:1 1175:1 1178:1 1195:1 1206:1 1209:1 1218:1 1222:1 1225:1 1227:1 1234:1 1248:1 1249:1 1252:1 1255:1 1260:1 1263:1 1270:1 1271:1 1276:1 1281:1 1282:1 1284:1 1291:1 1301:1 1315:1 1317:1 1318:1 1323:1 1330:1 1331:1 1333:1 1336:1 1342:1 1344:1 1349:1 1356:1 1376:1 1377:1 1378:1 1384:1 1392:1 1398:1 1409:1 1411:1 1433:1 1453:1 1456:1 1457:1 1461:1 1462:1 1474:1 1481:1 1490:1 1502:1 1508:1 1509:1 1510:1 1511:1 1512:1 1517:1 1531:1 1534:1 1536:1 1548:1 1553:1 1557:1 1558:1 #
-0.0049798877172708803928724563547803 3:1 22:1 33:1 36:1 73:1 76:1 91:1 94:1 96:1 124:1 152:1 165:1 168:1 201:1 206:1 226:1 243:1 256:1 274:1 281:1 284:1 313:1 339:1 342:1 354:1 403:1 407:1 414:1 421:1 469:1 480:1 487:1 522:1 538:1 566:1 584:1 589:1 593:1 603:1 610:1 620:1 636:1 639:1 645:1 651:1 652:1 656:1 667:1 678:1 691:1 709:1 724:1 748:1 752:1 755:1 779:1 784:1 819:1 841:1 842:1 884:1 897:1 923:1 939:1 946:1 948:1 957:1 996:1 1002:1 1006:1 1036:1 1042:1 1062:1 1068:1 1079:1 1093:1 1095:1 1107:1 1113:1 1195:1 1197:1 1218:1 1225:1 1249:1 1263:1 1264:1 1276:1 1284:1 1305:1 1315:1 1338:1 1356:1 1361:1 1409:1 1444:1 1453:1 1456:1 1457:1 1462:1 1480:1 1486:1 1490:1 1504:1 1507:1 1511:1 1531:1 1534:1 1540:1 1548:1 1552:1 1558:1 #
-0.0049798877172708803928724563547803 3:1 6:1 31:1 33:1 37:1 38:1 52:1 55:1 73:1 75:1 108:1 113:1 114:1 119:1 133:1 148:1 165:1 168:1 188:1 201:1 208:1 242:1 256:1 274:1 284:1 288:1 293:1 300:1 302:1 313:1 315:1 316:1 317:1 344:1 345:1 354:1 359:1 361:1 362:1 364:1 367:1 368:1 372:1 375:1 386:1 389:1 394:1 408:1 410:1 435:1 437:1 447:1 460:1 469:1 474:1 477:1 487:1 504:1 505:1 516:1 518:1 538:1 558:1 560:1 565:1 566:1 574:1 592:1 594:1 595:1 604:1 608:1 610:1 620:1 643:1 645:1 651:1 659:1 660:1 664:1 667:1 671:1 674:1 678:1 695:1 708:1 710:1 720:1 724:1 736:1 738:1 752:1 755:1 765:1 778:1 786:1 793:1 795:1 812:1 833:1 836:1 842:1 845:1 847:1 870:1 875:1 894:1 908:1 917:1 920:1 923:1 929:1 930:1 955:1 957:1 961:1 967:1 968:1 969:1 981:1 985:1 988:1 996:1 997:1 1002:1 1005:1 1012:1 1050:1 1053:1 1055:1 1066:1 1070:1 1073:1 1079:1 1081:1 1083:1 1092:1 1100:1 1107:1 1116:1 1127:1 1130:1 1144:1 1162:1 1163:1 1165:1 1175:1 1178:1 1184:1 1190:1 1191:1 1206:1 1218:1 1221:1 1225:1 1227:1 1237:1 1248:1 1263:1 1266:1 1268:1 1269:1 1271:1 1276:1 1278:1 1284:1 1291:1 1304:1 1315:1 1321:1 1338:1 1341:1 1361:1 1364:1 1376:1 1379:1 1385:1 1409:1 1422:1 1425:1 1428:1 1453:1 1459:1 1460:1 1462:1 1470:1 1478:1 1490:1 1500:1 1502:1 1505:1 1508:1 1509:1 1519:1 1526:1 1530:1 1531:1 1534:1 1537:1 1556:1 1558:1 #
-0.0049798877172708803928724563547803 3:1 4:1 33:1 39:1 42:1 44:1 55:1 59:1 63:1 65:1 69:1 75:1 102:1 114:1 127:1 136:1 138:1 149:1 152:1 164:1 165:1 167:1 168:1 173:1 191:1 208:1 225:1 228:1 241:1 256:1 274:1 284:1 285:1 297:1 313:1 318:1 345:1 354:1 358:1 360:1 362:1 367:1 377:1 383:1 389:1 394:1 403:1 420:1 422:1 437:1 453:1 469:1 487:1 512:1 523:1 540:1 545:1 549:1 563:1 566:1 571:1 572:1 584:1 587:1 593:1 595:1 596:1 603:1 616:1 620:1 645:1 649:1 651:1 652:1 678:1 688:1 694:1 724:1 736:1 744:1 752:1 755:1 778:1 790:1 802:1 803:1 806:1 808:1 815:1 819:1 825:1 833:1 877:1 878:1 893:1 917:1 925:1 946:1 955:1 957:1 964:1 968:1 981:1 985:1 988:1 996:1 1002:1 1018:1 1032:1 1057:1 1059:1 1066:1 1067:1 1083:1 1093:1 1095:1 1096:1 1105:1 1130:1 1144:1 1152:1 1175:1 1179:1 1191:1 1200:1 1206:1 1211:1 1218:1 1221:1 1225:1 1248:1 1249:1 1260:1 1263:1 1265:1 1271:1 1276:1 1284:1 1291:1 1312:1 1315:1 1330:1 1336:1 1338:1 1344:1 1356:1 1361:1 1395:1 1401:1 1409:1 1422:1 1423:1 1424:1 1439:1 1446:1 1453:1 1462:1 1468:1 1474:1 1490:1 1502:1 1506:1 1509:1 1511:1 1517:1 1519:1 1531:1 1534:1 1537:1 1538:1 1564:1 #
-0.0049798877172708803928724563547803 1:1 3:1 19:1 21:1 22:1 33:1 37:1 46:1 50:1 52:1 55:1 62:1 71:1 83:1 84:1 86:1 96:1 99:1 113:1 115:1 124:1 125:1 138:1 142:1 148:1 152:1 165:1 168:1 176:1 177:1 201:1 207:1 208:1 221:1 223:1 224:1 228:1 231:1 234:1 242:1 249:1 250:1 255:1 256:1 265:1 274:1 280:1 284:1 302:1 306:1 313:1 317:1 321:1 326:1 330:1 332:1 334:1 342:1 345:1 346:1 353:1 354:1 367:1 368:1 375:1 383:1 394:1 395:1 406:1 412:1 418:1 447:1 456:1 457:1 460:1 465:1 469:1 473:1 474:1 480:1 482:1 484:1 487:1 508:1 529:1 538:1 547:1 550:1 562:1 563:1 566:1 576:1 578:1 584:1 593:1 595:1 600:1 603:1 613:1 616:1 619:1 620:1 625:1 631:1 642:1 643:1 645:1 649:1 651:1 652:1 654:1 667:1 673:1 675:1 678:1 683:1 691:1 693:1 715:1 716:1 724:1 728:1 729:1 734:1 741:1 748:1 751:1 752:1 754:1 755:1 767:1 778:1 781:1 793:1 795:1 815:1 819:1 878:1 895:1 900:1 908:1 924:1 928:1 933:1 946:1 948:1 955:1 959:1 962:1 968:1 977:1 981:1 985:1 988:1 990:1 996:1 1002:1 1007:1 1012:1 1031:1 1055:1 1056:1 1064:1 1066:1 1067:1 1073:1 1074:1 1079:1 1083:1 1090:1 1095:1 1104:1 1107:1 1111:1 1113:1 1114:1 1120:1 1127:1 1139:1 1145:1 1159:1 1162:1 1175:1 1178:1 1184:1 1191:1 1200:1 1203:1 1213:1 1218:1 1220:1 1221:1 1225:1 1227:1 1232:1 1248:1 1249:1 1260:1 1263:1 1268:1 1269:1 1271:1 1278:1 1284:1 1312:1 1323:1 1334:1 1337:1 1338:1 1344:1 1351:1 1354:1 1361:1 1365:1 1368:1 1371:1 1376:1 1385:1 1409:1 1412:1 1414:1 1418:1 1420:1 1424:1 1431:1 1432:1 1440:1 1443:1 1452:1 1453:1 1456:1 1462:1 1473:1 1481:1 1484:1 1486:1 1488:1 1489:1 1490:1 1508:1 1509:1 1511:1 1526:1 1531:1 1534:1 1535:1 1543:1 1547:1 1553:1 1562:1 #
0.0049798877172708803928724563547803 3:1 17:1 27:1 31:1 32:1 33:1 34:1 39:1 40:1 46:1 52:1 59:1 61:1 66:1 71:1 75:1 85:1 95:1 96:1 100:1 115:1 145:1 148:1 152:1 153:1 165:1 168:1 175:1 179:1 180:1 197:1 200:1 220:1 221:1 231:1 235:1 256:1 263:1 274:1 284:1 301:1 302:1 313:1 316:1 318:1 322:1 330:1 335:1 337:1 354:1 367:1 368:1 375:1 382:1 394:1 407:1 418:1 423:1 427:1 432:1 447:1 452:1 455:1 460:1 462:1 469:1 473:1 478:1 480:1 483:1 487:1 522:1 529:1 538:1 540:1 547:1 548:1 563:1 566:1 567:1 571:1 572:1 574:1 576:1 584:1 595:1 606:1 613:1 616:1 620:1 625:1 637:1 643:1 645:1 649:1 651:1 652:1 662:1 672:1 673:1 678:1 691:1 697:1 709:1 716:1 731:1 733:1 750:1 752:1 755:1 769:1 778:1 795:1 796:1 808:1 809:1 812:1 815:1 819:1 820:1 825:1 846:1 850:1 862:1 878:1 908:1 909:1 921:1 933:1 946:1 947:1 955:1 957:1 962:1 968:1 978:1 985:1 988:1 996:1 1002:1 1012:1 1037:1 1040:1 1044:1 1066:1 1079:1 1095:1 1096:1 1107:1 1115:1 1118:1 1120:1 1122:1 1127:1 1133:1 1139:1 1153:1 1156:1 1165:1 1169:1 1197:1 1209:1 1218:1 1221:1 1225:1 1231:1 1236:1 1241:1 1248:1 1249:1 1258:1 1263:1 1276:1 1282:1 1284:1 1291:1 1312:1 1315:1 1322:1 1330:1 1332:1 1338:1 1342:1 1345:1 1348:1 1355:1 1361:1 1366:1 1376:1 1383:1 1409:1 1422:1 1424:1 1428:1 1452:1 1453:1 1456:1 1459:1 1462:1 1469:1 1478:1 1486:1 1489:1 1490:1 1500:1 1505:1 1509:1 1511:1 1515:1 1519:1 1530:1 1531:1 1534:1 1537:1 1545:1 1553:1 1558:1 1561:1 #
0.0049798877172708803928724563547803 3:1 26:1 28:1 33:1 37:1 46:1 55:1 61:1 65:1 81:1 86:1 95:1 96:1 99:1 100:1 102:1 148:1 152:1 165:1 168:1 171:1 192:1 217:1 225:1 228:1 235:1 243:1 256:1 284:1 297:1 302:1 313:1 314:1 318:1 322:1 327:1 330:1 345:1 354:1 367:1 375:1 395:1 437:1 458:1 469:1 474:1 477:1 480:1 482:1 483:1 487:1 497:1 501:1 505:1 515:1 531:1 539:1 546:1 562:1 566:1 570:1 572:1 574:1 576:1 584:1 586:1 595:1 603:1 608:1 610:1 620:1 622:1 630:1 643:1 645:1 651:1 652:1 667:1 678:1 716:1 726:1 752:1 755:1 767:1 769:1 773:1 774:1 781:1 786:1 788:1 793:1 795:1 808:1 819:1 825:1 833:1 834:1 842:1 854:1 860:1 864:1 905:1 908:1 917:1 945:1 946:1 947:1 948:1 949:1 955:1 957:1 963:1 968:1 969:1 985:1 996:1 1002:1 1007:1 1008:1 1013:1 1033:1 1056:1 1057:1 1062:1 1066:1 1068:1 1074:1 1075:1 1079:1 1087:1 1090:1 1093:1 1096:1 1097:1 1114:1 1115:1 1118:1 1120:1 1130:1 1131:1 1133:1 1144:1 1175:1 1178:1 1218:1 1225:1 1248:1 1249:1 1251:1 1263:1 1265:1 1268:1 1284:1 1291:1 1297:1 1304:1 1312:1 1314:1 1315:1 1342:1 1376:1 1398:1 1408:1 1409:1 1410:1 1411:1 1423:1 1424:1 1428:1 1453:1 1454:1 1456:1 1457:1 1462:1 1481:1 1483:1 1484:1 1490:1 1509:1 1511:1 1513:1 1529:1 1531:1 1534:1 #
0.0049798877172708803928724563547803 3:1 19:1 22:1 33:1 37:1 66:1 86:1 96:1 113:1 138:1 142:1 148:1 159:1 165:1 168:1 192:1 198:1 203:1 234:1 237:1 241:1 242:1 245:1 256:1 274:1 281:1 284:1 294:1 301:1 313:1 318:1 320:1 322:1 324:1 327:1 346:1 353:1 354:1 362:1 367:1 368:1 375:1 383:1 394:1 403:1 418:1 427:1 459:1 469:1 476:1 487:1 517:1 522:1 538:1 540:1 546:1 552:1 562:1 566:1 572:1 574:1 576:1 584:1 594:1 595:1 598:1 603:1 620:1 625:1 643:1 645:1 652:1 659:1 667:1 673:1 678:1 695:1 704:1 709:1 745:1 747:1 748:1 752:1 755:1 771:1 776:1 784:1 795:1 823:1 830:1 843:1 851:1 862:1 908:1 925:1 926:1 933:1 946:1 947:1 948:1 955:1 960:1 968:1 971:1 996:1 1002:1 1057:1 1066:1 1068:1 1082:1 1083:1 1090:1 1093:1 1103:1 1107:1 1116:1 1118:1 1124:1 1127:1 1130:1 1158:1 1166:1 1169:1 1178:1 1185:1 1200:1 1201:1 1213:1 1218:1 1225:1 1234:1 1236:1 1248:1 1249:1 1263:1 1272:1 1276:1 1284:1 1291:1 1304:1 1312:1 1315:1 1319:1 1321:1 1332:1 1338:1 1341:1 1361:1 1376:1 1409:1 1418:1 1422:1 1424:1 1435:1 1443:1 1453:1 1454:1 1456:1 1462:1 1490:1 1502:1 1507:1 1509:1 1531:1 1552:1 1553:1 1559:1 #
0.0049798877172708803928724563547803 3:1 22:1 25:1 26:1 28:1 31:1 33:1 37:1 46:1 57:1 65:1 75:1 76:1 81:1 82:1 86:1 90:1 96:1 111:1 112:1 130:1 142:1 145:1 151:1 152:1 165:1 166:1 168:1 170:1 174:1 177:1 188:1 190:1 192:1 200:1 213:1 220:1 221:1 224:1 226:1 231:1 233:1 242:1 256:1 264:1 270:1 274:1 277:1 280:1 284:1 296:1 301:1 302:1 309:1 310:1 313:1 318:1 327:1 335:1 339:1 340:1 346:1 351:1 352:1 354:1 360:1 364:1 367:1 368:1 369:1 375:1 382:1 394:1 395:1 418:1 421:1 429:1 433:1 451:1 453:1 460:1 466:1 469:1 476:1 477:1 482:1 487:1 497:1 501:1 502:1 503:1 505:1 517:1 518:1 523:1 529:1 546:1 555:1 557:1 558:1 560:1 562:1 565:1 567:1 572:1 574:1 576:1 584:1 589:1 592:1 593:1 603:1 606:1 610:1 616:1 620:1 622:1 628:1 633:1 635:1 642:1 643:1 645:1 651:1 652:1 657:1 664:1 667:1 678:1 707:1 709:1 724:1 734:1 736:1 745:1 752:1 755:1 767:1 769:1 778:1 781:1 786:1 812:1 819:1 829:1 831:1 832:1 840:1 841:1 842:1 845:1 846:1 871:1 884:1 887:1 891:1 927:1 932:1 933:1 946:1 947:1 948:1 949:1 955:1 968:1 969:1 977:1 978:1 988:1 993:1 996:1 997:1 1002:1 1008:1 1015:1 1024:1 1043:1 1047:1 1055:1 1066:1 1067:1 1074:1 1079:1 1082:1 1083:1 1087:1 1092:1 1096:1 1105:1 1107:1 1111:1 1118:1 1120:1 1156:1 1157:1 1160:1 1165:1 1190:1 1197:1 1207:1 1213:1 1218:1 1225:1 1227:1 1233:1 1236:1 1248:1 1252:1 1263:1 1267:1 1276:1 1282:1 1284:1 1290:1 1296:1 1301:1 1312:1 1315:1 1332:1 1336:1 1338:1 1342:1 1348:1 1364:1 1376:1 1383:1 1390:1 1395:1 1405:1 1409:1 1412:1 1422:1 1424:1 1425:1 1428:1 1431:1 1446:1 1452:1 1453:1 1457:1 1462:1 1474:1 1477:1 1478:1 1489:1 1490:1 1508:1 1509:1 1511:1 1516:1 1517:1 1531:1 1534:1 1552:1 1553:1 1556:1 1558:1 1563:1 #
0.0049798877172708803928724563547803 3:1 17:1 28:1 33:1 34:1 37:1 39:1 40:1 46:1 57:1 59:1 64:1 75:1 79:1 95:1 96:1 113:1 119:1 145:1 148:1 152:1 165:1 167:1 168:1 169:1 213:1 242:1 256:1 283:1 294:1 301:1 302:1 316:1 318:1 319:1 334:1 339:1 346:1 354:1 367:1 368:1 372:1 394:1 395:1 407:1 418:1 445:1 459:1 460:1 469:1 470:1 471:1 487:1 498:1 529:1 543:1 546:1 550:1 552:1 557:1 560:1 562:1 566:1 572:1 574:1 584:1 585:1 589:1 592:1 593:1 594:1 595:1 610:1 613:1 616:1 620:1 643:1 645:1 651:1 652:1 667:1 678:1 691:1 707:1 710:1 724:1 727:1 752:1 753:1 755:1 778:1 784:1 788:1 790:1 793:1 795:1 796:1 819:1 832:1 846:1 860:1 891:1 908:1 925:1 945:1 946:1 947:1 948:1 949:1 955:1 968:1 969:1 976:1 988:1 996:1 1002:1 1007:1 1047:1 1050:1 1066:1 1067:1 1068:1 1079:1 1082:1 1114:1 1129:1 1130:1 1133:1 1160:1 1178:1 1200:1 1206:1 1207:1 1218:1 1222:1 1225:1 1228:1 1248:1 1260:1 1273:1 1276:1 1283:1 1284:1 1290:1 1294:1 1304:1 1314:1 1315:1 1323:1 1332:1 1337:1 1338:1 1361:1 1378:1 1409:1 1422:1 1453:1 1468:1 1477:1 1490:1 1494:1 1499:1 1502:1 1508:1 1509:1 1517:1 1522:1 1524:1 1526:1 1534:1 1548:1 1556:1 #
-0.0049798877172708803928724563547803 3:1 5:1 15:1 16:1 33:1 34:1 37:1 45:1 46:1 52:1 54:1 61:1 65:1 66:1 82:1 84:1 85:1 86:1 95:1 96:1 98:1 99:1 100:1 107:1 108:1 113:1 142:1 145:1 147:1 152:1 165:1 166:1 168:1 177:1 180:1 189:1 190:1 192:1 200:1 222:1 234:1 242:1 249:1 250:1 252:1 256:1 267:1 278:1 284:1 291:1 302:1 306:1 313:1 318:1 322:1 335:1 339:1 342:1 345:1 346:1 354:1 367:1 368:1 371:1 382:1 394:1 395:1 396:1 402:1 403:1 407:1 413:1 417:1 418:1 427:1 437:1 439:1 449:1 452:1 460:1 469:1 477:1 484:1 487:1 515:1 521:1 529:1 531:1 534:1 538:1 546:1 562:1 565:1 566:1 572:1 574:1 576:1 583:1 584:1 586:1 588:1 594:1 595:1 603:1 608:1 618:1 620:1 625:1 626:1 638:1 639:1 643:1 650:1 651:1 652:1 667:1 675:1 678:1 697:1 707:1 724:1 729:1 735:1 742:1 748:1 752:1 755:1 762:1 778:1 781:1 793:1 802:1 809:1 812:1 819:1 825:1 829:1 831:1 833:1 835:1 843:1 844:1 845:1 846:1 848:1 856:1 859:1 874:1 875:1 908:1 922:1 946:1 947:1 948:1 955:1 957:1 961:1 968:1 973:1 978:1 988:1 996:1 1002:1 1007:1 1037:1 1044:1 1055:1 1056:1 1066:1 1077:1 1079:1 1082:1 1086:1 1088:1 1092:1 1093:1 1096:1 1107:1 1112:1 1114:1 1116:1 1130:1 1131:1 1140:1 1145:1 1148:1 1156:1 1160:1 1162:1 1165:1 1178:1 1190:1 1197:1 1200:1 1206:1 1210:1 1213:1 1218:1 1225:1 1248:1 1252:1 1255:1 1257:1 1271:1 1283:1 1284:1 1290:1 1291:1 1301:1 1315:1 1323:1 1332:1 1338:1 1342:1 1349:1 1370:1 1376:1 1391:1 1392:1 1400:1 1404:1 1409:1 1422:1 1424:1 1431:1 1441:1 1453:1 1456:1 1462:1 1474:1 1479:1 1482:1 1486:1 1490:1 1500:1 1508:1 1509:1 1511:1 1517:1 1526:1 1527:1 1534:1 1545:1 1552:1 1553:1 #
-0.0031392726726752395380315441286712 3:1 5:1 16:1 22:1 33:1 34:1 37:1 39:1 46:1 52:1 59:1 61:1 64:1 65:1 66:1 81:1 83:1 84:1 86:1 95:1 96:1 103:1 111:1 113:1 115:1 133:1 138:1 142:1 145:1 147:1 152:1 158:1 163:1 165:1 167:1 168:1 171:1 173:1 175:1 177:1 179:1 184:1 191:1 198:1 200:1 201:1 202:1 203:1 206:1 209:1 210:1 211:1 214:1 215:1 217:1 221:1 222:1 228:1 231:1 234:1 239:1 241:1 242:1 256:1 257:1 258:1 266:1 269:1 274:1 280:1 284:1 290:1 294:1 299:1 302:1 307:1 313:1 314:1 316:1 318:1 320:1 322:1 323:1 326:1 327:1 330:1 336:1 345:1 346:1 349:1 354:1 359:1 360:1 367:1 368:1 371:1 375:1 383:1 384:1 386:1 394:1 395:1 403:1 407:1 412:1 437:1 449:1 463:1 467:1 469:1 475:1 477:1 487:1 496:1 497:1 506:1 508:1 512:1 519:1 529:1 531:1 541:1 544:1 546:1 548:1 549:1 550:1 552:1 553:1 555:1 560:1 562:1 563:1 565:1 566:1 572:1 575:1 576:1 583:1 584:1 585:1 587:1 589:1 592:1 593:1 594:1 595:1 596:1 599:1 603:1 610:1 613:1 616:1 620:1 623:1 629:1 630:1 635:1 636:1 638:1 643:1 645:1 649:1 651:1 652:1 657:1 665:1 667:1 668:1 671:1 678:1 680:1 681:1 682:1 684:1 697:1 701:1 716:1 724:1 727:1 728:1 729:1 736:1 742:1 745:1 748:1 750:1 751:1 752:1 755:1 759:1 767:1 768:1 769:1 777:1 778:1 781:1 786:1 788:1 793:1 795:1 802:1 808:1 811:1 812:1 815:1 819:1 820:1 829:1 840:1 841:1 846:1 849:1 870:1 871:1 872:1 875:1 877:1 878:1 879:1 880:1 883:1 889:1 892:1 894:1 899:1 900:1 908:1 911:1 912:1 917:1 923:1 925:1 929:1 933:1 936:1 943:1 944:1 946:1 947:1 948:1 949:1 952:1 955:1 957:1 959:1 968:1 974:1 975:1 981:1 986:1 988:1 992:1 995:1 996:1 999:1 1002:1 1007:1 1032:1 1040:1 1046:1 1050:1 1055:1 1060:1 1061:1 1063:1 1064:1 1066:1 1068:1 1070:1 1073:1 1074:1 1079:1 1080:1 1082:1 1083:1 1090:1 1091:1 1096:1 1098:1 1099:1 1103:1 1110:1 1113:1 1114:1 1115:1 1116:1 1118:1 1127:1 1129:1 1130:1 1132:1 1133:1 1134:1 1137:1 1138:1 1140:1 1151:1 1153:1 1158:1 1159:1 1160:1 1165:1 1169:1 1173:1 1175:1 1178:1 1180:1 1200:1 1206:1 1212:1 1218:1 1221:1 1222:1 1225:1 1227:1 1234:1 1235:1 1236:1 1240:1 1245:1 1248:1 1249:1 1251:1 1263:1 1266:1 1268:1 1282:1 1283:1 1284:1 1290:1 1291:1 1301:1 1304:1 1306:1 1312:1 1314:1 1315:1 1316:1 1320:1 1324:1 1332:1 1342:1 1349:1 1358:1 1361:1 1363:1 1370:1 1373:1 1385:1 1391:1 1398:1 1405:1 1406:1 1409:1 1411:1 1416:1 1424:1 1426:1 1428:1 1429:1 1431:1 1434:1 1453:1 1455:1 1456:1 1457:1 1461:1 1462:1 1468:1 1469:1 1478:1 1479:1 1480:1 1486:1 1489:1 1490:1 1492:1 1494:1 1502:1 1503:1 1508:1 1509:1 1511:1 1512:1 1527:1 1529:1 1531:1 1534:1 1546:1 1558:1 #
-0.0049798877172708803928724563547803 3:1 7:1 21:1 28:1 31:1 33:1 37:1 39:1 46:1 52:1 59:1 65:1 89:1 95:1 96:1 103:1 136:1 143:1 152:1 165:1 168:1 170:1 171:1 192:1 201:1 219:1 231:1 233:1 256:1 269:1 274:1 280:1 284:1 301:1 302:1 306:1 313:1 314:1 319:1 320:1 335:1 342:1 346:1 352:1 354:1 367:1 368:1 372:1 383:1 386:1 394:1 395:1 400:1 414:1 418:1 426:1 430:1 453:1 460:1 469:1 473:1 480:1 484:1 487:1 492:1 497:1 512:1 518:1 523:1 528:1 535:1 538:1 542:1 544:1 548:1 549:1 560:1 562:1 566:1 572:1 584:1 587:1 592:1 593:1 595:1 604:1 620:1 625:1 640:1 643:1 645:1 651:1 652:1 664:1 678:1 684:1 697:1 701:1 704:1 708:1 716:1 727:1 736:1 748:1 750:1 752:1 755:1 766:1 778:1 794:1 812:1 825:1 828:1 841:1 846:1 855:1 869:1 871:1 881:1 908:1 916:1 925:1 933:1 940:1 946:1 947:1 948:1 955:1 961:1 968:1 981:1 985:1 989:1 996:1 1001:1 1002:1 1008:1 1012:1 1013:1 1029:1 1037:1 1057:1 1066:1 1071:1 1079:1 1082:1 1083:1 1092:1 1093:1 1099:1 1114:1 1118:1 1127:1 1130:1 1131:1 1134:1 1138:1 1165:1 1175:1 1189:1 1200:1 1207:1 1218:1 1225:1 1227:1 1234:1 1248:1 1263:1 1276:1 1284:1 1291:1 1306:1 1312:1 1315:1 1323:1 1332:1 1361:1 1364:1 1366:1 1406:1 1409:1 1410:1 1411:1 1422:1 1452:1 1453:1 1459:1 1462:1 1468:1 1476:1 1490:1 1493:1 1500:1 1506:1 1508:1 1509:1 1512:1 1513:1 1528:1 1531:1 1534:1 1542:1 1545:1 1558:1 1565:1 #
-0.0049798877172708803928724563547803 3:1 5:1 17:1 22:1 28:1 31:1 33:1 37:1 46:1 61:1 70:1 73:1 79:1 83:1 91:1 93:1 94:1 95:1 100:1 102:1 107:1 108:1 113:1 115:1 116:1 125:1 134:1 138:1 139:1 140:1 142:1 152:1 154:1 165:1 168:1 179:1 225:1 226:1 228:1 231:1 233:1 237:1 241:1 247:1 248:1 251:1 256:1 257:1 264:1 274:1 276:1 280:1 284:1 299:1 302:1 306:1 311:1 313:1 318:1 330:1 333:1 334:1 339:1 341:1 345:1 354:1 355:1 360:1 364:1 365:1 367:1 368:1 369:1 378:1 383:1 390:1 394:1 395:1 402:1 407:1 408:1 418:1 448:1 450:1 458:1 459:1 469:1 477:1 482:1 487:1 503:1 504:1 508:1 514:1 515:1 522:1 527:1 529:1 531:1 534:1 546:1 548:1 552:1 558:1 565:1 566:1 574:1 576:1 577:1 584:1 585:1 589:1 593:1 595:1 603:1 606:1 620:1 625:1 638:1 643:1 650:1 651:1 655:1 664:1 667:1 669:1 672:1 673:1 678:1 681:1 695:1 700:1 709:1 716:1 724:1 748:1 752:1 755:1 757:1 760:1 767:1 772:1 776:1 778:1 785:1 790:1 793:1 795:1 802:1 812:1 817:1 823:1 825:1 829:1 831:1 835:1 837:1 842:1 846:1 870:1 883:1 884:1 908:1 921:1 925:1 946:1 947:1 948:1 954:1 955:1 957:1 960:1 961:1 968:1 981:1 988:1 996:1 1002:1 1007:1 1025:1 1028:1 1033:1 1037:1 1040:1 1048:1 1066:1 1068:1 1069:1 1079:1 1081:1 1082:1 1092:1 1093:1 1096:1 1097:1 1122:1 1127:1 1129:1 1130:1 1133:1 1138:1 1150:1 1159:1 1160:1 1162:1 1163:1 1165:1 1175:1 1178:1 1186:1 1195:1 1200:1 1204:1 1209:1 1213:1 1217:1 1218:1 1221:1 1222:1 1225:1 1234:1 1236:1 1242:1 1246:1 1248:1 1249:1 1252:1 1263:1 1268:1 1276:1 1278:1 1284:1 1287:1 1291:1 1294:1 1295:1 1296:1 1301:1 1304:1 1314:1 1315:1 1321:1 1323:1 1338:1 1342:1 1345:1 1349:1 1356:1 1360:1 1361:1 1362:1 1398:1 1399:1 1402:1 1409:1 1411:1 1415:1 1422:1 1424:1 1426:1 1430:1 1450:1 1453:1 1486:1 1490:1 1491:1 1494:1 1502:1 1508:1 1509:1 1526:1 1528:1 1531:1 1545:1 1552:1 1553:1 #
-0.0049798877172708803928724563547803 3:1 10:1 33:1 39:1 46:1 48:1 54:1 59:1 65:1 66:1 86:1 102:1 152:1 165:1 167:1 168:1 173:1 231:1 237:1 253:1 256:1 259:1 284:1 302:1 313:1 318:1 322:1 324:1 354:1 367:1 375:1 391:1 416:1 418:1 427:1 432:1 445:1 451:1 458:1 469:1 477:1 482:1 487:1 500:1 538:1 562:1 566:1 584:1 585:1 595:1 613:1 635:1 642:1 645:1 650:1 651:1 652:1 667:1 674:1 678:1 691:1 693:1 752:1 755:1 778:1 781:1 788:1 793:1 802:1 812:1 815:1 819:1 836:1 850:1 892:1 908:1 945:1 946:1 947:1 948:1 955:1 968:1 995:1 996:1 998:1 1002:1 1013:1 1066:1 1071:1 1092:1 1095:1 1102:1 1114:1 1118:1 1133:1 1143:1 1218:1 1225:1 1248:1 1263:1 1284:1 1291:1 1301:1 1304:1 1312:1 1313:1 1315:1 1316:1 1332:1 1338:1 1352:1 1361:1 1376:1 1398:1 1408:1 1409:1 1439:1 1444:1 1452:1 1453:1 1456:1 1462:1 1466:1 1479:1 1490:1 1509:1 1534:1 1537:1 1553:1 1561:1 #
0.0049798877172708803928724563547803 3:1 15:1 32:1 33:1 37:1 39:1 46:1 48:1 50:1 54:1 55:1 59:1 65:1 67:1 83:1 86:1 95:1 96:1 99:1 100:1 113:1 114:1 118:1 124:1 129:1 136:1 142:1 152:1 163:1 165:1 168:1 176:1 177:1 190:1 192:1 201:1 217:1 220:1 224:1 227:1 231:1 237:1 238:1 241:1 243:1 255:1 256:1 259:1 268:1 274:1 291:1 297:1 302:1 307:1 313:1 317:1 318:1 322:1 325:1 328:1 339:1 344:1 345:1 354:1 359:1 361:1 366:1 367:1 368:1 375:1 383:1 386:1 394:1 395:1 403:1 407:1 432:1 437:1 442:1 455:1 458:1 460:1 469:1 476:1 477:1 479:1 487:1 518:1 521:1 529:1 538:1 543:1 544:1 554:1 562:1 563:1 565:1 566:1 567:1 572:1 576:1 578:1 583:1 584:1 585:1 593:1 595:1 596:1 603:1 608:1 616:1 620:1 623:1 635:1 637:1 638:1 642:1 643:1 645:1 649:1 651:1 652:1 660:1 667:1 669:1 672:1 674:1 678:1 691:1 701:1 704:1 724:1 725:1 732:1 748:1 750:1 751:1 752:1 755:1 769:1 776:1 778:1 781:1 790:1 793:1 795:1 808:1 812:1 815:1 819:1 823:1 825:1 833:1 842:1 846:1 847:1 849:1 855:1 870:1 875:1 877:1 883:1 907:1 908:1 913:1 917:1 924:1 927:1 944:1 945:1 946:1 948:1 949:1 955:1 957:1 964:1 965:1 968:1 972:1 981:1 988:1 993:1 996:1 1002:1 1012:1 1026:1 1032:1 1055:1 1058:1 1064:1 1066:1 1075:1 1079:1 1083:1 1092:1 1102:1 1105:1 1107:1 1109:1 1114:1 1120:1 1122:1 1127:1 1129:1 1130:1 1133:1 1134:1 1138:1 1144:1 1165:1 1170:1 1175:1 1176:1 1178:1 1200:1 1206:1 1209:1 1218:1 1221:1 1222:1 1225:1 1227:1 1233:1 1237:1 1245:1 1247:1 1248:1 1249:1 1251:1 1255:1 1260:1 1263:1 1266:1 1270:1 1271:1 1276:1 1279:1 1284:1 1291:1 1304:1 1312:1 1315:1 1323:1 1338:1 1340:1 1349:1 1361:1 1376:1 1383:1 1404:1 1408:1 1409:1 1411:1 1412:1 1419:1 1422:1 1423:1 1443:1 1444:1 1453:1 1456:1 1462:1 1473:1 1483:1 1484:1 1486:1 1490:1 1494:1 1501:1 1502:1 1509:1 1510:1 1511:1 1517:1 1525:1 1526:1 1530:1 1531:1 1534:1 1537:1 1541:1 1542:1 1544:1 1545:1 1546:1 1553:1 1556:1 1558:1 #
0.0049798877172708803928724563547803 3:1 10:1 11:1 24:1 31:1 33:1 42:1 46:1 52:1 65:1 86:1 93:1 113:1 124:1 125:1 138:1 139:1 152:1 155:1 165:1 168:1 201:1 219:1 242:1 256:1 274:1 280:1 284:1 290:1 300:1 313:1 318:1 322:1 339:1 342:1 345:1 346:1 354:1 363:1 367:1 372:1 383:1 391:1 394:1 409:1 428:1 437:1 445:1 446:1 458:1 460:1 469:1 476:1 487:1 508:1 540:1 544:1 549:1 563:1 566:1 574:1 583:1 584:1 585:1 587:1 593:1 598:1 608:1 614:1 618:1 619:1 620:1 630:1 636:1 645:1 649:1 651:1 652:1 673:1 678:1 745:1 750:1 752:1 755:1 766:1 796:1 808:1 812:1 819:1 831:1 883:1 894:1 896:1 908:1 917:1 925:1 946:1 955:1 957:1 962:1 968:1 969:1 981:1 985:1 988:1 996:1 1002:1 1007:1 1029:1 1057:1 1066:1 1067:1 1070:1 1073:1 1090:1 1092:1 1099:1 1105:1 1107:1 1115:1 1129:1 1133:1 1135:1 1139:1 1164:1 1175:1 1180:1 1191:1 1194:1 1204:1 1218:1 1225:1 1227:1 1248:1 1263:1 1276:1 1283:1 1284:1 1291:1 1301:1 1312:1 1315:1 1321:1 1323:1 1337:1 1361:1 1381:1 1395:1 1409:1 1424:1 1426:1 1428:1 1429:1 1431:1 1443:1 1453:1 1462:1 1490:1 1507:1 1509:1 1517:1 1526:1 1531:1 1534:1 1540:1 1558:1 1560:1 #
0.0049798877172708803928724563547803 3:1 10:1 31:1 33:1 39:1 46:1 61:1 83:1 86:1 95:1 100:1 113:1 116:1 138:1 142:1 145:1 152:1 165:1 168:1 190:1 195:1 200:1 201:1 216:1 221:1 234:1 256:1 257:1 274:1 276:1 284:1 291:1 297:1 301:1 302:1 313:1 339:1 342:1 345:1 354:1 355:1 357:1 364:1 367:1 368:1 375:1 394:1 395:1 403:1 420:1 424:1 427:1 437:1 442:1 447:1 452:1 458:1 459:1 469:1 487:1 493:1 505:1 508:1 512:1 515:1 529:1 538:1 562:1 563:1 566:1 570:1 571:1 584:1 585:1 593:1 595:1 596:1 604:1 606:1 608:1 620:1 625:1 633:1 635:1 638:1 645:1 651:1 659:1 660:1 667:1 675:1 678:1 706:1 715:1 716:1 745:1 748:1 755:1 778:1 793:1 812:1 815:1 819:1 825:1 830:1 831:1 833:1 846:1 850:1 855:1 863:1 878:1 883:1 899:1 908:1 917:1 946:1 957:1 963:1 968:1 969:1 985:1 988:1 996:1 1002:1 1060:1 1069:1 1070:1 1079:1 1082:1 1083:1 1092:1 1095:1 1096:1 1100:1 1114:1 1115:1 1116:1 1132:1 1144:1 1153:1 1175:1 1184:1 1197:1 1209:1 1214:1 1218:1 1221:1 1222:1 1225:1 1234:1 1236:1 1248:1 1253:1 1260:1 1263:1 1268:1 1276:1 1278:1 1284:1 1291:1 1300:1 1312:1 1315:1 1318:1 1323:1 1337:1 1338:1 1342:1 1356:1 1361:1 1376:1 1398:1 1409:1 1411:1 1422:1 1424:1 1443:1 1448:1 1452:1 1453:1 1456:1 1481:1 1486:1 1490:1 1494:1 1500:1 1507:1 1508:1 1511:1 1512:1 1526:1 1531:1 1534:1 1545:1 1552:1 1558:1 1559:1 #
0.0049798877172708803928724563547803 3:1 52:1 75:1 85:1 152:1 165:1 168:1 192:1 200:1 208:1 217:1 261:1 284:1 313:1 322:1 325:1 354:1 364:1 367:1 394:1 395:1 469:1 484:1 487:1 508:1 512:1 541:1 558:1 584:1 603:1 608:1 620:1 630:1 635:1 645:1 651:1 678:1 734:1 752:1 755:1 768:1 781:1 819:1 836:1 845:1 878:1 899:1 921:1 955:1 961:1 964:1 968:1 988:1 1002:1 1058:1 1066:1 1079:1 1091:1 1096:1 1113:1 1114:1 1123:1 1134:1 1175:1 1218:1 1221:1 1222:1 1225:1 1248:1 1251:1 1271:1 1272:1 1274:1 1276:1 1284:1 1288:1 1308:1 1315:1 1337:1 1383:1 1404:1 1409:1 1420:1 1428:1 1453:1 1454:1 1490:1 1509:1 1531:1 1534:1 1563:1 #
0.0049798877172708803928724563547803 3:1 10:1 16:1 28:1 31:1 33:1 37:1 52:1 66:1 75:1 77:1 86:1 89:1 93:1 113:1 115:1 139:1 142:1 163:1 165:1 168:1 174:1 201:1 206:1 217:1 237:1 241:1 252:1 255:1 256:1 262:1 264:1 270:1 274:1 280:1 283:1 284:1 289:1 302:1 309:1 313:1 315:1 316:1 322:1 339:1 345:1 346:1 357:1 367:1 368:1 372:1 375:1 394:1 395:1 407:1 413:1 420:1 469:1 487:1 512:1 515:1 521:1 529:1 558:1 560:1 561:1 563:1 566:1 567:1 572:1 574:1 576:1 584:1 593:1 594:1 603:1 608:1 613:1 615:1 616:1 620:1 622:1 635:1 639:1 649:1 651:1 667:1 678:1 707:1 724:1 726:1 733:1 748:1 752:1 755:1 761:1 769:1 776:1 778:1 780:1 781:1 787:1 793:1 795:1 802:1 819:1 821:1 825:1 833:1 846:1 848:1 865:1 870:1 877:1 878:1 891:1 908:1 933:1 946:1 947:1 948:1 950:1 955:1 957:1 961:1 963:1 964:1 968:1 977:1 985:1 988:1 996:1 997:1 1002:1 1005:1 1018:1 1066:1 1070:1 1072:1 1073:1 1079:1 1087:1 1105:1 1113:1 1114:1 1118:1 1120:1 1127:1 1133:1 1144:1 1150:1 1159:1 1172:1 1175:1 1191:1 1213:1 1214:1 1218:1 1221:1 1222:1 1225:1 1228:1 1234:1 1238:1 1248:1 1251:1 1255:1 1262:1 1263:1 1268:1 1274:1 1276:1 1284:1 1288:1 1290:1 1291:1 1296:1 1299:1 1300:1 1301:1 1305:1 1315:1 1323:1 1329:1 1331:1 1332:1 1338:1 1348:1 1356:1 1361:1 1371:1 1376:1 1383:1 1393:1 1409:1 1411:1 1412:1 1422:1 1424:1 1428:1 1453:1 1456:1 1459:1 1461:1 1462:1 1484:1 1486:1 1490:1 1494:1 1503:1 1507:1 1510:1 1511:1 1512:1 1521:1 1529:1 1531:1 1534:1 1545:1 1558:1 #
-0.0049798877172708803928724563547803 5:1 17:1 22:1 33:1 65:1 75:1 77:1 81:1 113:1 119:1 120:1 122:1 138:1 154:1 163:1 165:1 168:1 171:1 181:1 202:1 206:1 212:1 213:1 225:1 238:1 252:1 256:1 258:1 260:1 274:1 283:1 289:1 301:1 302:1 313:1 318:1 327:1 329:1 330:1 345:1 346:1 354:1 360:1 367:1 368:1 371:1 375:1 394:1 395:1 397:1 417:1 442:1 448:1 469:1 479:1 486:1 487:1 527:1 532:1 558:1 561:1 562:1 564:1 566:1 572:1 574:1 585:1 589:1 592:1 602:1 603:1 613:1 620:1 625:1 633:1 649:1 664:1 675:1 677:1 678:1 695:1 699:1 705:1 709:1 750:1 752:1 755:1 757:1 788:1 791:1 795:1 797:1 819:1 837:1 841:1 878:1 886:1 892:1 908:1 917:1 925:1 926:1 931:1 933:1 940:1 944:1 946:1 968:1 978:1 981:1 988:1 996:1 1002:1 1009:1 1013:1 1016:1 1049:1 1053:1 1066:1 1067:1 1079:1 1096:1 1102:1 1106:1 1133:1 1142:1 1144:1 1146:1 1218:1 1219:1 1221:1 1235:1 1248:1 1263:1 1267:1 1278:1 1282:1 1284:1 1287:1 1294:1 1296:1 1300:1 1301:1 1305:1 1315:1 1330:1 1332:1 1342:1 1352:1 1359:1 1360:1 1376:1 1387:1 1390:1 1409:1 1424:1 1428:1 1435:1 1453:1 1462:1 1477:1 1490:1 1509:1 1511:1 1515:1 1519:1 1521:1 1526:1 1531:1 1536:1 1558:1 #
-0.0049658508938602349130908564234232 3:1 10:1 32:1 33:1 34:1 37:1 39:1 46:1 52:1 64:1 65:1 75:1 86:1 89:1 96:1 125:1 132:1 145:1 146:1 148:1 152:1 165:1 166:1 168:1 172:1 192:1 206:1 209:1 219:1 221:1 230:1 233:1 238:1 242:1 245:1 256:1 262:1 265:1 268:1 274:1 277:1 290:1 299:1 302:1 308:1 313:1 318:1 334:1 335:1 345:1 346:1 348:1 354:1 359:1 364:1 367:1 372:1 394:1 395:1 403:1 418:1 460:1 465:1 467:1 469:1 474:1 475:1 478:1 487:1 505:1 508:1 511:1 523:1 529:1 532:1 534:1 557:1 560:1 562:1 566:1 571:1 574:1 578:1 580:1 583:1 593:1 598:1 603:1 606:1 608:1 614:1 620:1 625:1 649:1 651:1 652:1 667:1 672:1 674:1 678:1 684:1 709:1 717:1 724:1 742:1 745:1 748:1 750:1 752:1 755:1 761:1 765:1 767:1 778:1 793:1 795:1 796:1 808:1 810:1 812:1 819:1 824:1 827:1 830:1 833:1 841:1 851:1 863:1 875:1 882:1 892:1 904:1 908:1 925:1 933:1 936:1 939:1 942:1 945:1 946:1 949:1 955:1 961:1 963:1 968:1 969:1 971:1 984:1 988:1 996:1 1002:1 1028:1 1036:1 1047:1 1053:1 1057:1 1067:1 1070:1 1079:1 1082:1 1087:1 1090:1 1093:1 1096:1 1105:1 1108:1 1109:1 1111:1 1116:1 1130:1 1134:1 1154:1 1160:1 1162:1 1164:1 1178:1 1184:1 1197:1 1198:1 1203:1 1205:1 1206:1 1218:1 1228:1 1234:1 1241:1 1245:1 1248:1 1263:1 1266:1 1267:1 1284:1 1291:1 1315:1 1322:1 1332:1 1337:1 1346:1 1352:1 1371:1 1376:1 1380:1 1385:1 1394:1 1396:1 1409:1 1424:1 1431:1 1434:1 1448:1 1453:1 1456:1 1458:1 1462:1 1466:1 1468:1 1477:1 1486:1 1490:1 1502:1 1509:1 1511:1 1519:1 1526:1 1531:1 1533:1 1543:1 1548:1 1552:1 1558:1 1563:1 #
-0.0049798877172708803928724563547803 3:1 11:1 33:1 46:1 65:1 66:1 71:1 89:1 106:1 138:1 142:1 152:1 162:1 163:1 165:1 168:1 171:1 179:1 195:1 208:1 217:1 219:1 256:1 264:1 281:1 283:1 284:1 296:1 305:1 313:1 316:1 325:1 354:1 355:1 366:1 367:1 372:1 375:1 394:1 395:1 403:1 423:1 428:1 487:1 503:1 504:1 511:1 512:1 518:1 529:1 559:1 562:1 566:1 568:1 572:1 575:1 584:1 585:1 591:1 603:1 604:1 605:1 620:1 625:1 633:1 649:1 651:1 675:1 707:1 711:1 721:1 724:1 742:1 748:1 752:1 755:1 787:1 795:1 798:1 807:1 812:1 819:1 825:1 830:1 836:1 842:1 846:1 847:1 850:1 855:1 880:1 895:1 896:1 905:1 920:1 935:1 944:1 946:1 955:1 968:1 988:1 997:1 1002:1 1003:1 1012:1 1058:1 1085:1 1101:1 1105:1 1111:1 1122:1 1125:1 1126:1 1129:1 1130:1 1134:1 1140:1 1153:1 1159:1 1160:1 1172:1 1178:1 1191:1 1195:1 1200:1 1202:1 1206:1 1207:1 1209:1 1211:1 1218:1 1219:1 1221:1 1225:1 1245:1 1248:1 1255:1 1259:1 1266:1 1267:1 1272:1 1276:1 1284:1 1291:1 1294:1 1301:1 1323:1 1332:1 1343:1 1356:1 1398:1 1409:1 1418:1 1428:1 1446:1 1453:1 1456:1 1469:1 1484:1 1490:1 1493:1 1508:1 1509:1 1514:1 1517:1 1534:1 1544:1 1556:1 #
-0.0049798877172708803928724563547803 3:1 26:1 33:1 42:1 48:1 49:1 52:1 65:1 95:1 96:1 99:1 118:1 123:1 128:1 138:1 143:1 145:1 148:1 152:1 160:1 162:1 165:1 168:1 192:1 200:1 216:1 242:1 254:1 256:1 259:1 267:1 274:1 284:1 302:1 307:1 313:1 318:1 330:1 346:1 354:1 363:1 367:1 368:1 377:1 394:1 407:1 415:1 460:1 462:1 469:1 487:1 496:1 510:1 521:1 523:1 541:1 566:1 571:1 572:1 574:1 576:1 584:1 593:1 594:1 595:1 596:1 620:1 632:1 643:1 645:1 651:1 664:1 674:1 678:1 709:1 724:1 728:1 730:1 737:1 752:1 755:1 766:1 767:1 769:1 775:1 791:1 796:1 819:1 842:1 902:1 908:1 925:1 927:1 944:1 946:1 948:1 952:1 955:1 965:1 968:1 988:1 996:1 1002:1 1007:1 1015:1 1041:1 1042:1 1052:1 1058:1 1066:1 1067:1 1069:1 1073:1 1079:1 1083:1 1095:1 1096:1 1107:1 1111:1 1118:1 1120:1 1129:1 1131:1 1133:1 1134:1 1136:1 1141:1 1144:1 1160:1 1165:1 1178:1 1207:1 1218:1 1221:1 1233:1 1234:1 1236:1 1248:1 1249:1 1252:1 1257:1 1258:1 1260:1 1263:1 1266:1 1284:1 1306:1 1312:1 1314:1 1325:1 1331:1 1336:1 1338:1 1348:1 1356:1 1382:1 1394:1 1398:1 1399:1 1409:1 1416:1 1422:1 1431:1 1435:1 1444:1 1452:1 1453:1 1457:1 1474:1 1490:1 1500:1 1509:1 1511:1 1517:1 1528:1 1531:1 1534:1 1558:1 #
-0.0049798877172708803928724563547803 3:1 19:1 33:1 34:1 59:1 61:1 73:1 95:1 102:1 130:1 144:1 145:1 165:1 168:1 206:1 210:1 216:1 217:1 228:1 256:1 262:1 282:1 285:1 302:1 313:1 346:1 360:1 367:1 375:1 394:1 395:1 403:1 413:1 418:1 423:1 434:1 460:1 469:1 487:1 506:1 540:1 547:1 566:1 571:1 581:1 584:1 596:1 608:1 613:1 614:1 619:1 625:1 634:1 643:1 645:1 649:1 651:1 660:1 667:1 678:1 691:1 724:1 727:1 734:1 736:1 748:1 752:1 755:1 771:1 778:1 781:1 795:1 812:1 815:1 819:1 823:1 827:1 833:1 840:1 863:1 874:1 895:1 908:1 940:1 946:1 948:1 955:1 961:1 968:1 988:1 995:1 996:1 1002:1 1008:1 1030:1 1046:1 1060:1 1071:1 1083:1 1087:1 1114:1 1116:1 1125:1 1130:1 1133:1 1165:1 1166:1 1206:1 1214:1 1218:1 1248:1 1249:1 1262:1 1263:1 1270:1 1276:1 1278:1 1284:1 1299:1 1301:1 1312:1 1315:1 1330:1 1336:1 1376:1 1409:1 1424:1 1453:1 1454:1 1456:1 1462:1 1477:1 1481:1 1490:1 1493:1 1503:1 1508:1 1517:1 1526:1 1534:1 1556:1 1560:1 #
0.0049798877172708803928724563547803 3:1 31:1 33:1 35:1 37:1 39:1 44:1 48:1 52:1 57:1 59:1 66:1 73:1 79:1 96:1 99:1 102:1 113:1 114:1 115:1 142:1 145:1 152:1 165:1 168:1 183:1 190:1 193:1 195:1 213:1 217:1 220:1 226:1 231:1 252:1 256:1 261:1 263:1 280:1 284:1 302:1 308:1 313:1 317:1 318:1 322:1 336:1 339:1 342:1 345:1 352:1 353:1 354:1 367:1 369:1 375:1 382:1 383:1 395:1 403:1 407:1 412:1 418:1 420:1 428:1 458:1 459:1 469:1 470:1 480:1 482:1 487:1 500:1 508:1 529:1 540:1 549:1 553:1 562:1 566:1 583:1 584:1 585:1 593:1 596:1 600:1 611:1 613:1 616:1 618:1 620:1 636:1 643:1 646:1 651:1 664:1 667:1 678:1 722:1 724:1 734:1 737:1 742:1 744:1 748:1 752:1 755:1 757:1 766:1 771:1 777:1 778:1 817:1 819:1 820:1 831:1 842:1 846:1 877:1 880:1 908:1 921:1 925:1 927:1 932:1 933:1 944:1 945:1 946:1 947:1 949:1 955:1 967:1 969:1 974:1 988:1 996:1 1002:1 1012:1 1018:1 1053:1 1056:1 1057:1 1066:1 1079:1 1082:1 1083:1 1091:1 1093:1 1095:1 1096:1 1114:1 1116:1 1125:1 1127:1 1129:1 1130:1 1133:1 1138:1 1159:1 1160:1 1165:1 1175:1 1176:1 1178:1 1190:1 1193:1 1197:1 1209:1 1218:1 1221:1 1225:1 1227:1 1234:1 1237:1 1248:1 1263:1 1269:1 1276:1 1278:1 1284:1 1286:1 1290:1 1291:1 1312:1 1321:1 1323:1 1338:1 1354:1 1355:1 1368:1 1376:1 1385:1 1390:1 1391:1 1409:1 1411:1 1422:1 1423:1 1428:1 1441:1 1447:1 1448:1 1453:1 1456:1 1457:1 1458:1 1462:1 1463:1 1480:1 1484:1 1489:1 1490:1 1502:1 1508:1 1509:1 1512:1 1526:1 1531:1 1552:1 1553:1 1558:1 1559:1 #
0.0049798877172708803928724563547803 3:1 22:1 31:1 32:1 33:1 37:1 39:1 40:1 42:1 46:1 47:1 52:1 55:1 57:1 61:1 65:1 71:1 73:1 83:1 91:1 95:1 96:1 99:1 100:1 107:1 112:1 113:1 133:1 134:1 138:1 142:1 144:1 152:1 158:1 165:1 168:1 191:1 192:1 193:1 201:1 206:1 221:1 233:1 234:1 242:1 243:1 256:1 274:1 284:1 297:1 302:1 309:1 313:1 316:1 330:1 342:1 345:1 346:1 352:1 354:1 359:1 360:1 363:1 367:1 368:1 372:1 375:1 383:1 394:1 395:1 398:1 400:1 402:1 403:1 418:1 422:1 428:1 446:1 466:1 469:1 473:1 475:1 480:1 482:1 487:1 503:1 508:1 520:1 529:1 531:1 538:1 546:1 548:1 560:1 561:1 562:1 563:1 565:1 566:1 572:1 574:1 584:1 593:1 595:1 603:1 606:1 610:1 616:1 620:1 633:1 635:1 636:1 637:1 642:1 643:1 644:1 645:1 650:1 651:1 667:1 673:1 678:1 691:1 701:1 724:1 727:1 745:1 748:1 750:1 752:1 755:1 771:1 778:1 781:1 793:1 808:1 817:1 819:1 823:1 825:1 842:1 846:1 853:1 860:1 864:1 898:1 908:1 927:1 929:1 946:1 948:1 955:1 968:1 969:1 988:1 996:1 1002:1 1007:1 1012:1 1028:1 1037:1 1042:1 1048:1 1064:1 1066:1 1075:1 1079:1 1083:1 1092:1 1109:1 1113:1 1114:1 1116:1 1130:1 1158:1 1165:1 1170:1 1174:1 1175:1 1178:1 1179:1 1197:1 1206:1 1214:1 1218:1 1220:1 1225:1 1248:1 1252:1 1255:1 1257:1 1269:1 1271:1 1276:1 1278:1 1284:1 1290:1 1291:1 1301:1 1310:1 1315:1 1323:1 1331:1 1332:1 1335:1 1342:1 1348:1 1361:1 1394:1 1395:1 1408:1 1409:1 1412:1 1418:1 1419:1 1423:1 1424:1 1431:1 1448:1 1453:1 1456:1 1462:1 1474:1 1477:1 1486:1 1490:1 1494:1 1507:1 1509:1 1511:1 1531:1 1534:1 1537:1 1541:1 1545:1 1552:1 1553:1 #
0.0049798877172708803928724563547803 3:1 9:1 21:1 27:1 32:1 33:1 34:1 35:1 37:1 39:1 46:1 52:1 55:1 62:1 65:1 69:1 73:1 81:1 95:1 98:1 100:1 106:1 107:1 113:1 123:1 124:1 136:1 142:1 145:1 148:1 152:1 162:1 165:1 166:1 168:1 172:1 173:1 177:1 201:1 206:1 210:1 233:1 241:1 243:1 252:1 256:1 262:1 264:1 271:1 274:1 280:1 283:1 284:1 285:1 290:1 292:1 302:1 304:1 313:1 317:1 320:1 322:1 323:1 327:1 346:1 352:1 354:1 357:1 367:1 368:1 375:1 394:1 395:1 407:1 414:1 418:1 423:1 433:1 435:1 437:1 459:1 460:1 465:1 468:1 469:1 480:1 482:1 484:1 487:1 500:1 506:1 508:1 509:1 512:1 521:1 529:1 534:1 538:1 540:1 542:1 549:1 556:1 560:1 562:1 566:1 570:1 572:1 574:1 576:1 584:1 593:1 594:1 595:1 596:1 616:1 619:1 620:1 622:1 630:1 635:1 638:1 642:1 643:1 645:1 649:1 651:1 652:1 664:1 667:1 672:1 675:1 677:1 678:1 680:1 696:1 701:1 704:1 707:1 715:1 724:1 729:1 734:1 742:1 748:1 752:1 755:1 767:1 769:1 771:1 778:1 786:1 799:1 809:1 812:1 815:1 819:1 825:1 833:1 836:1 841:1 846:1 847:1 849:1 866:1 868:1 877:1 878:1 880:1 881:1 882:1 908:1 917:1 936:1 939:1 944:1 946:1 947:1 948:1 955:1 961:1 962:1 963:1 966:1 968:1 969:1 974:1 981:1 988:1 996:1 997:1 1002:1 1004:1 1006:1 1007:1 1018:1 1024:1 1037:1 1055:1 1057:1 1066:1 1073:1 1079:1 1082:1 1083:1 1093:1 1096:1 1105:1 1107:1 1111:1 1112:1 1114:1 1116:1 1118:1 1129:1 1133:1 1134:1 1143:1 1144:1 1150:1 1159:1 1164:1 1165:1 1175:1 1178:1 1191:1 1197:1 1200:1 1218:1 1221:1 1222:1 1225:1 1227:1 1229:1 1232:1 1240:1 1248:1 1251:1 1255:1 1262:1 1263:1 1266:1 1268:1 1273:1 1276:1 1278:1 1284:1 1290:1 1291:1 1300:1 1312:1 1315:1 1321:1 1323:1 1325:1 1356:1 1359:1 1361:1 1363:1 1383:1 1409:1 1411:1 1422:1 1424:1 1427:1 1429:1 1431:1 1435:1 1439:1 1443:1 1447:1 1452:1 1453:1 1456:1 1457:1 1461:1 1462:1 1476:1 1478:1 1484:1 1489:1 1490:1 1494:1 1500:1 1506:1 1507:1 1508:1 1509:1 1512:1 1517:1 1526:1 1527:1 1543:1 1553:1 1558:1 #
0.0049798877172708803928724563547803 3:1 10:1 24:1 33:1 37:1 46:1 54:1 55:1 66:1 71:1 86:1 95:1 96:1 98:1 100:1 113:1 142:1 145:1 148:1 152:1 165:1 168:1 177:1 190:1 191:1 195:1 200:1 201:1 208:1 217:1 230:1 234:1 256:1 267:1 280:1 284:1 300:1 302:1 303:1 313:1 318:1 322:1 324:1 330:1 334:1 345:1 354:1 359:1 367:1 368:1 375:1 383:1 394:1 395:1 402:1 403:1 407:1 408:1 418:1 426:1 437:1 458:1 469:1 476:1 480:1 487:1 508:1 511:1 520:1 534:1 541:1 556:1 558:1 563:1 565:1 566:1 574:1 584:1 587:1 593:1 594:1 595:1 603:1 606:1 615:1 616:1 620:1 622:1 635:1 642:1 643:1 649:1 650:1 651:1 659:1 669:1 678:1 683:1 709:1 716:1 718:1 724:1 742:1 748:1 750:1 752:1 755:1 778:1 791:1 795:1 810:1 819:1 825:1 846:1 850:1 870:1 875:1 878:1 880:1 882:1 892:1 894:1 908:1 925:1 933:1 939:1 945:1 946:1 947:1 948:1 955:1 957:1 966:1 968:1 977:1 988:1 996:1 1002:1 1007:1 1055:1 1056:1 1060:1 1064:1 1066:1 1067:1 1069:1 1074:1 1079:1 1081:1 1091:1 1093:1 1096:1 1099:1 1107:1 1113:1 1114:1 1118:1 1124:1 1129:1 1130:1 1134:1 1137:1 1150:1 1156:1 1165:1 1169:1 1175:1 1191:1 1197:1 1207:1 1218:1 1222:1 1225:1 1234:1 1236:1 1246:1 1248:1 1249:1 1251:1 1260:1 1268:1 1276:1 1278:1 1284:1 1291:1 1308:1 1315:1 1323:1 1338:1 1345:1 1379:1 1391:1 1394:1 1406:1 1409:1 1425:1 1431:1 1444:1 1453:1 1456:1 1462:1 1473:1 1481:1 1490:1 1494:1 1507:1 1509:1 1511:1 1523:1 1526:1 1541:1 1553:1 1561:1 #
0.0049798877172708803928724563547803 3:1 25:1 33:1 35:1 37:1 46:1 52:1 54:1 59:1 66:1 86:1 95:1 96:1 100:1 134:1 142:1 145:1 148:1 152:1 162:1 165:1 168:1 221:1 228:1 231:1 234:1 256:1 259:1 264:1 274:1 280:1 301:1 302:1 305:1 313:1 316:1 318:1 322:1 323:1 333:1 334:1 339:1 354:1 355:1 359:1 362:1 367:1 368:1 372:1 380:1 394:1 395:1 403:1 407:1 418:1 435:1 450:1 469:1 470:1 480:1 487:1 515:1 529:1 532:1 538:1 540:1 546:1 562:1 565:1 566:1 567:1 568:1 572:1 574:1 576:1 583:1 584:1 585:1 589:1 593:1 595:1 596:1 604:1 610:1 616:1 619:1 620:1 636:1 640:1 645:1 646:1 651:1 660:1 664:1 667:1 675:1 678:1 704:1 705:1 748:1 752:1 755:1 757:1 776:1 781:1 786:1 793:1 795:1 812:1 815:1 820:1 823:1 825:1 834:1 841:1 843:1 862:1 877:1 878:1 892:1 904:1 908:1 911:1 917:1 919:1 942:1 946:1 947:1 955:1 959:1 968:1 969:1 988:1 996:1 998:1 1002:1 1004:1 1046:1 1064:1 1066:1 1068:1 1069:1 1074:1 1079:1 1083:1 1093:1 1107:1 1113:1 1114:1 1118:1 1122:1 1130:1 1131:1 1144:1 1156:1 1164:1 1165:1 1175:1 1191:1 1197:1 1200:1 1209:1 1218:1 1225:1 1227:1 1234:1 1248:1 1263:1 1271:1 1276:1 1284:1 1291:1 1296:1 1314:1 1315:1 1316:1 1321:1 1323:1 1330:1 1332:1 1342:1 1345:1 1358:1 1361:1 1376:1 1385:1 1398:1 1409:1 1448:1 1453:1 1462:1 1467:1 1468:1 1474:1 1490:1 1494:1 1507:1 1509:1 1511:1 1531:1 1534:1 1537:1 1545:1 1552:1 1561:1 #
-0.0048681073359531082042628291617348 3:1 17:1 22:1 25:1 31:1 33:1 34:1 37:1 43:1 46:1 49:1 54:1 58:1 66:1 79:1 86:1 95:1 96:1 99:1 108:1 115:1 129:1 142:1 145:1 147:1 148:1 150:1 152:1 163:1 165:1 168:1 177:1 201:1 214:1 225:1 227:1 231:1 234:1 241:1 243:1 245:1 256:1 264:1 265:1 276:1 280:1 284:1 290:1 298:1 302:1 307:1 313:1 316:1 318:1 320:1 327:1 330:1 346:1 354:1 356:1 360:1 363:1 367:1 368:1 372:1 375:1 383:1 392:1 394:1 395:1 402:1 403:1 418:1 429:1 436:1 445:1 460:1 469:1 474:1 476:1 477:1 480:1 483:1 487:1 503:1 508:1 517:1 529:1 538:1 546:1 547:1 549:1 550:1 560:1 562:1 563:1 565:1 566:1 570:1 571:1 572:1 573:1 575:1 576:1 582:1 584:1 593:1 595:1 596:1 603:1 610:1 619:1 621:1 628:1 630:1 637:1 643:1 645:1 650:1 651:1 652:1 660:1 667:1 675:1 677:1 678:1 693:1 701:1 706:1 709:1 715:1 716:1 718:1 724:1 745:1 748:1 752:1 755:1 761:1 772:1 778:1 781:1 785:1 793:1 802:1 808:1 812:1 815:1 817:1 819:1 820:1 826:1 828:1 833:1 839:1 843:1 846:1 847:1 853:1 861:1 863:1 865:1 877:1 878:1 884:1 892:1 898:1 900:1 908:1 913:1 915:1 917:1 920:1 945:1 946:1 948:1 949:1 951:1 955:1 957:1 960:1 961:1 965:1 966:1 968:1 988:1 996:1 1002:1 1005:1 1007:1 1012:1 1018:1 1028:1 1045:1 1046:1 1050:1 1053:1 1058:1 1060:1 1066:1 1076:1 1079:1 1082:1 1083:1 1095:1 1114:1 1118:1 1124:1 1136:1 1142:1 1144:1 1156:1 1165:1 1168:1 1174:1 1175:1 1178:1 1179:1 1182:1 1184:1 1191:1 1197:1 1201:1 1205:1 1206:1 1216:1 1218:1 1221:1 1225:1 1230:1 1234:1 1246:1 1247:1 1248:1 1260:1 1263:1 1268:1 1271:1 1274:1 1276:1 1284:1 1291:1 1304:1 1309:1 1311:1 1312:1 1315:1 1316:1 1317:1 1319:1 1323:1 1332:1 1335:1 1338:1 1340:1 1342:1 1361:1 1376:1 1377:1 1394:1 1409:1 1411:1 1412:1 1422:1 1423:1 1453:1 1457:1 1462:1 1465:1 1474:1 1483:1 1489:1 1490:1 1494:1 1509:1 1511:1 1517:1 1522:1 1526:1 1528:1 1531:1 1534:1 1536:1 1545:1 1546:1 1552:1 1553:1 1558:1 #
-0.0037994399503571457850370496345249 2:1 3:1 5:1 10:1 21:1 28:1 32:1 33:1 37:1 39:1 40:1 44:1 52:1 62:1 65:1 69:1 70:1 77:1 79:1 81:1 82:1 84:1 86:1 93:1 95:1 96:1 99:1 104:1 112:1 115:1 120:1 122:1 134:1 142:1 148:1 152:1 163:1 165:1 168:1 174:1 176:1 177:1 183:1 195:1 200:1 201:1 206:1 214:1 217:1 223:1 224:1 226:1 231:1 233:1 234:1 236:1 239:1 241:1 242:1 255:1 256:1 258:1 269:1 274:1 280:1 283:1 302:1 304:1 308:1 310:1 313:1 315:1 317:1 318:1 320:1 322:1 329:1 330:1 331:1 342:1 343:1 345:1 346:1 354:1 355:1 366:1 367:1 368:1 369:1 371:1 372:1 375:1 392:1 393:1 394:1 395:1 398:1 403:1 407:1 409:1 418:1 422:1 428:1 429:1 437:1 440:1 445:1 446:1 449:1 458:1 469:1 487:1 491:1 493:1 508:1 511:1 512:1 514:1 515:1 522:1 524:1 529:1 546:1 549:1 557:1 558:1 560:1 562:1 563:1 566:1 567:1 572:1 574:1 578:1 581:1 592:1 593:1 596:1 608:1 610:1 616:1 618:1 620:1 621:1 628:1 632:1 643:1 645:1 651:1 652:1 669:1 677:1 678:1 692:1 693:1 698:1 704:1 708:1 712:1 714:1 720:1 721:1 724:1 729:1 734:1 752:1 755:1 765:1 773:1 778:1 781:1 793:1 795:1 798:1 812:1 815:1 819:1 825:1 828:1 830:1 832:1 841:1 844:1 850:1 853:1 878:1 880:1 889:1 894:1 908:1 910:1 911:1 926:1 936:1 942:1 944:1 945:1 946:1 947:1 948:1 951:1 952:1 955:1 956:1 961:1 963:1 964:1 968:1 969:1 976:1 977:1 978:1 988:1 991:1 993:1 994:1 996:1 1000:1 1002:1 1003:1 1007:1 1008:1 1012:1 1043:1 1049:1 1050:1 1055:1 1058:1 1064:1 1066:1 1076:1 1079:1 1081:1 1082:1 1083:1 1087:1 1091:1 1093:1 1095:1 1096:1 1102:1 1105:1 1107:1 1114:1 1118:1 1122:1 1127:1 1129:1 1130:1 1134:1 1141:1 1146:1 1154:1 1165:1 1178:1 1183:1 1194:1 1195:1 1206:1 1218:1 1221:1 1225:1 1227:1 1229:1 1236:1 1238:1 1244:1 1248:1 1249:1 1260:1 1263:1 1266:1 1268:1 1273:1 1276:1 1278:1 1281:1 1282:1 1284:1 1288:1 1290:1 1296:1 1301:1 1306:1 1311:1 1315:1 1323:1 1330:1 1338:1 1342:1 1344:1 1351:1 1359:1 1361:1 1364:1 1371:1 1374:1 1383:1 1387:1 1391:1 1404:1 1408:1 1409:1 1411:1 1412:1 1413:1 1419:1 1422:1 1424:1 1428:1 1446:1 1447:1 1448:1 1453:1 1454:1 1456:1 1457:1 1462:1 1472:1 1474:1 1480:1 1486:1 1489:1 1490:1 1491:1 1499:1 1502:1 1507:1 1509:1 1511:1 1521:1 1526:1 1530:1 1531:1 1534:1 1557:1 1558:1 #
-0.0049798877172708803928724563547803 3:1 27:1 33:1 37:1 39:1 41:1 46:1 52:1 83:1 84:1 85:1 91:1 96:1 101:1 106:1 110:1 113:1 124:1 142:1 148:1 158:1 161:1 165:1 168:1 173:1 177:1 192:1 197:1 200:1 201:1 206:1 210:1 217:1 220:1 222:1 231:1 235:1 250:1 256:1 269:1 274:1 284:1 288:1 290:1 294:1 301:1 302:1 313:1 318:1 322:1 323:1 325:1 345:1 346:1 353:1 354:1 367:1 372:1 383:1 391:1 394:1 395:1 407:1 418:1 428:1 446:1 469:1 477:1 480:1 485:1 487:1 494:1 506:1 508:1 509:1 512:1 520:1 531:1 546:1 550:1 553:1 562:1 566:1 567:1 572:1 576:1 584:1 585:1 594:1 595:1 596:1 616:1 620:1 622:1 625:1 630:1 632:1 642:1 643:1 646:1 651:1 657:1 667:1 677:1 678:1 693:1 701:1 709:1 724:1 733:1 745:1 748:1 751:1 752:1 755:1 757:1 780:1 788:1 793:1 795:1 812:1 822:1 831:1 840:1 844:1 846:1 848:1 851:1 866:1 908:1 932:1 933:1 937:1 939:1 946:1 947:1 948:1 955:1 968:1 969:1 984:1 988:1 996:1 1002:1 1008:1 1012:1 1019:1 1024:1 1028:1 1038:1 1042:1 1047:1 1055:1 1064:1 1066:1 1067:1 1079:1 1082:1 1083:1 1095:1 1096:1 1097:1 1105:1 1114:1 1120:1 1130:1 1141:1 1160:1 1162:1 1175:1 1198:1 1200:1 1210:1 1218:1 1221:1 1222:1 1225:1 1244:1 1248:1 1251:1 1260:1 1263:1 1268:1 1271:1 1276:1 1278:1 1284:1 1289:1 1290:1 1291:1 1293:1 1297:1 1301:1 1305:1 1308:1 1310:1 1315:1 1323:1 1338:1 1349:1 1351:1 1356:1 1361:1 1381:1 1385:1 1395:1 1405:1 1408:1 1409:1 1422:1 1424:1 1428:1 1453:1 1454:1 1462:1 1477:1 1478:1 1486:1 1490:1 1507:1 1508:1 1509:1 1517:1 1534:1 1550:1 1552:1 1553:1 1558:1 1561:1 1565:1 #
-0.0049798877172708803928724563547803 3:1 33:1 37:1 39:1 46:1 52:1 59:1 65:1 76:1 82:1 95:1 96:1 100:1 104:1 112:1 138:1 139:1 141:1 142:1 152:1 153:1 158:1 165:1 166:1 168:1 173:1 194:1 205:1 234:1 237:1 244:1 255:1 256:1 259:1 263:1 266:1 274:1 284:1 294:1 296:1 297:1 302:1 313:1 316:1 318:1 322:1 330:1 343:1 344:1 345:1 346:1 354:1 357:1 360:1 367:1 375:1 382:1 383:1 389:1 395:1 403:1 407:1 418:1 427:1 450:1 469:1 476:1 480:1 481:1 482:1 487:1 492:1 493:1 498:1 500:1 505:1 522:1 538:1 540:1 547:1 549:1 557:1 560:1 566:1 572:1 573:1 574:1 576:1 585:1 589:1 593:1 595:1 601:1 603:1 606:1 610:1 615:1 616:1 620:1 637:1 642:1 643:1 645:1 649:1 650:1 651:1 659:1 667:1 675:1 678:1 680:1 696:1 706:1 708:1 724:1 742:1 746:1 748:1 752:1 755:1 767:1 769:1 778:1 780:1 793:1 794:1 795:1 801:1 812:1 821:1 824:1 849:1 870:1 874:1 875:1 880:1 901:1 917:1 918:1 936:1 941:1 945:1 946:1 947:1 948:1 949:1 952:1 955:1 959:1 968:1 971:1 973:1 980:1 991:1 996:1 1002:1 1008:1 1018:1 1037:1 1044:1 1053:1 1055:1 1056:1 1057:1 1064:1 1066:1 1070:1 1072:1 1082:1 1083:1 1086:1 1095:1 1096:1 1103:1 1105:1 1107:1 1118:1 1126:1 1127:1 1133:1 1134:1 1153:1 1156:1 1159:1 1165:1 1166:1 1169:1 1172:1 1175:1 1184:1 1195:1 1197:1 1206:1 1218:1 1221:1 1225:1 1231:1 1233:1 1234:1 1236:1 1248:1 1255:1 1263:1 1271:1 1276:1 1284:1 1286:1 1291:1 1296:1 1301:1 1312:1 1313:1 1315:1 1325:1 1332:1 1338:1 1342:1 1361:1 1381:1 1383:1 1392:1 1395:1 1407:1 1409:1 1410:1 1411:1 1412:1 1419:1 1422:1 1424:1 1428:1 1429:1 1439:1 1448:1 1452:1 1453:1 1457:1 1459:1 1462:1 1479:1 1486:1 1490:1 1498:1 1507:1 1508:1 1509:1 1511:1 1519:1 1531:1 1534:1 1537:1 1545:1 1553:1 1558:1 1562:1 1563:1 #
-0.0049798877172708803928724563547803 3:1 10:1 20:1 26:1 27:1 30:1 33:1 36:1 37:1 39:1 44:1 50:1 52:1 61:1 62:1 66:1 69:1 81:1 86:1 95:1 96:1 100:1 113:1 114:1 119:1 125:1 142:1 143:1 145:1 148:1 152:1 163:1 165:1 168:1 169:1 175:1 177:1 181:1 192:1 200:1 201:1 206:1 217:1 226:1 228:1 234:1 241:1 242:1 244:1 252:1 256:1 259:1 270:1 274:1 283:1 288:1 290:1 291:1 302:1 304:1 313:1 316:1 317:1 319:1 325:1 328:1 330:1 332:1 335:1 344:1 345:1 346:1 348:1 354:1 359:1 366:1 367:1 368:1 372:1 377:1 383:1 394:1 399:1 403:1 407:1 418:1 422:1 424:1 449:1 458:1 459:1 469:1 474:1 479:1 480:1 487:1 501:1 502:1 504:1 520:1 529:1 531:1 538:1 546:1 549:1 559:1 562:1 566:1 572:1 581:1 584:1 585:1 593:1 594:1 595:1 600:1 603:1 604:1 616:1 620:1 621:1 645:1 649:1 651:1 652:1 660:1 664:1 667:1 674:1 675:1 676:1 678:1 691:1 693:1 706:1 723:1 748:1 752:1 755:1 769:1 773:1 778:1 790:1 795:1 814:1 815:1 819:1 831:1 833:1 842:1 843:1 846:1 856:1 865:1 866:1 878:1 883:1 894:1 897:1 908:1 917:1 945:1 946:1 947:1 948:1 952:1 955:1 959:1 961:1 968:1 969:1 975:1 981:1 983:1 985:1 988:1 996:1 1002:1 1004:1 1007:1 1008:1 1015:1 1028:1 1032:1 1053:1 1055:1 1066:1 1067:1 1068:1 1077:1 1079:1 1082:1 1083:1 1093:1 1095:1 1097:1 1100:1 1105:1 1113:1 1114:1 1133:1 1144:1 1153:1 1160:1 1165:1 1178:1 1197:1 1200:1 1213:1 1214:1 1218:1 1221:1 1222:1 1225:1 1226:1 1230:1 1248:1 1249:1 1251:1 1252:1 1263:1 1268:1 1276:1 1281:1 1284:1 1291:1 1303:1 1308:1 1312:1 1315:1 1316:1 1330:1 1332:1 1333:1 1356:1 1361:1 1362:1 1366:1 1372:1 1380:1 1395:1 1408:1 1409:1 1421:1 1422:1 1423:1 1424:1 1428:1 1438:1 1448:1 1453:1 1459:1 1462:1 1465:1 1469:1 1486:1 1489:1 1490:1 1502:1 1503:1 1507:1 1508:1 1509:1 1511:1 1531:1 1534:1 1539:1 1545:1 1552:1 1555:1 1559:1 1561:1 #
0.0049798877172708803928724563547803 31:1 33:1 46:1 52:1 64:1 84:1 113:1 165:1 168:1 191:1 217:1 241:1 244:1 256:1 274:1 285:1 302:1 316:1 330:1 364:1 365:1 367:1 368:1 371:1 394:1 395:1 402:1 418:1 422:1 428:1 460:1 465:1 469:1 482:1 487:1 513:1 529:1 546:1 560:1 572:1 574:1 584:1 592:1 603:1 620:1 643:1 651:1 667:1 678:1 697:1 752:1 755:1 767:1 786:1 831:1 841:1 854:1 867:1 877:1 908:1 933:1 940:1 946:1 948:1 955:1 963:1 966:1 988:1 996:1 1002:1 1019:1 1037:1 1042:1 1058:1 1066:1 1072:1 1083:1 1092:1 1093:1 1095:1 1096:1 1111:1 1113:1 1197:1 1206:1 1207:1 1209:1 1218:1 1220:1 1244:1 1248:1 1264:1 1276:1 1278:1 1284:1 1312:1 1332:1 1382:1 1395:1 1398:1 1409:1 1431:1 1453:1 1456:1 1490:1 1506:1 1509:1 1531:1 1534:1 1537:1 1552:1 1558:1 1563:1 #
0.0049798877172708803928724563547803 3:1 28:1 33:1 37:1 39:1 52:1 65:1 73:1 83:1 97:1 100:1 138:1 165:1 168:1 177:1 179:1 190:1 200:1 201:1 210:1 231:1 234:1 252:1 256:1 261:1 270:1 297:1 302:1 313:1 329:1 332:1 363:1 367:1 368:1 394:1 395:1 403:1 418:1 432:1 469:1 487:1 498:1 504:1 529:1 540:1 543:1 566:1 567:1 594:1 595:1 600:1 625:1 645:1 651:1 678:1 680:1 748:1 750:1 751:1 755:1 767:1 776:1 795:1 815:1 827:1 833:1 847:1 863:1 880:1 883:1 908:1 916:1 917:1 938:1 946:1 947:1 948:1 949:1 955:1 968:1 971:1 988:1 1001:1 1002:1 1032:1 1065:1 1066:1 1079:1 1081:1 1090:1 1092:1 1126:1 1133:1 1139:1 1160:1 1176:1 1197:1 1218:1 1221:1 1222:1 1248:1 1249:1 1268:1 1271:1 1284:1 1291:1 1315:1 1330:1 1332:1 1348:1 1349:1 1361:1 1400:1 1409:1 1453:1 1462:1 1473:1 1486:1 1490:1 1509:1 1526:1 1534:1 1542:1 1559:1 #
0.0049798877172708803928724563547803 3:1 21:1 42:1 50:1 65:1 79:1 84:1 165:1 166:1 168:1 206:1 258:1 280:1 284:1 298:1 302:1 313:1 318:1 345:1 354:1 366:1 367:1 375:1 386:1 393:1 394:1 395:1 397:1 398:1 407:1 413:1 429:1 460:1 469:1 477:1 487:1 517:1 557:1 558:1 560:1 566:1 574:1 596:1 603:1 620:1 628:1 643:1 645:1 652:1 660:1 675:1 677:1 678:1 680:1 681:1 701:1 752:1 755:1 772:1 778:1 795:1 797:1 819:1 820:1 827:1 833:1 877:1 878:1 908:1 947:1 955:1 968:1 1002:1 1005:1 1016:1 1029:1 1055:1 1065:1 1066:1 1072:1 1076:1 1096:1 1105:1 1109:1 1118:1 1127:1 1129:1 1130:1 1142:1 1165:1 1175:1 1197:1 1206:1 1213:1 1218:1 1222:1 1245:1 1248:1 1255:1 1257:1 1262:1 1268:1 1271:1 1273:1 1276:1 1284:1 1300:1 1301:1 1315:1 1323:1 1336:1 1338:1 1387:1 1398:1 1409:1 1411:1 1414:1 1424:1 1443:1 1453:1 1466:1 1490:1 1499:1 1506:1 1507:1 1509:1 1531:1 1534:1 1552:1 1553:1 1558:1 #
0.0049798877172708803928724563547803 3:1 16:1 33:1 46:1 52:1 55:1 81:1 95:1 100:1 115:1 139:1 152:1 165:1 168:1 177:1 179:1 213:1 217:1 227:1 231:1 248:1 256:1 261:1 270:1 283:1 284:1 302:1 313:1 322:1 332:1 334:1 339:1 354:1 359:1 367:1 368:1 375:1 382:1 386:1 413:1 418:1 459:1 477:1 479:1 487:1 493:1 538:1 544:1 548:1 560:1 562:1 565:1 566:1 574:1 583:1 584:1 585:1 592:1 593:1 595:1 603:1 610:1 620:1 642:1 645:1 650:1 667:1 697:1 724:1 745:1 748:1 752:1 755:1 769:1 778:1 812:1 819:1 842:1 846:1 855:1 875:1 895:1 908:1 917:1 945:1 946:1 948:1 955:1 957:1 968:1 996:1 1002:1 1055:1 1066:1 1069:1 1070:1 1079:1 1081:1 1100:1 1113:1 1114:1 1115:1 1125:1 1165:1 1218:1 1221:1 1225:1 1248:1 1249:1 1276:1 1284:1 1291:1 1296:1 1312:1 1315:1 1322:1 1330:1 1361:1 1409:1 1423:1 1453:1 1457:1 1462:1 1490:1 1502:1 1508:1 1536:1 1540:1 1558:1 #
0.0049798877172708803928724563547803 3:1 16:1 25:1 32:1 33:1 34:1 37:1 46:1 55:1 65:1 66:1 73:1 81:1 96:1 102:1 138:1 148:1 152:1 165:1 168:1 200:1 217:1 224:1 242:1 258:1 270:1 271:1 274:1 280:1 281:1 284:1 301:1 302:1 313:1 322:1 323:1 354:1 361:1 367:1 368:1 375:1 394:1 395:1 412:1 413:1 427:1 428:1 437:1 452:1 460:1 469:1 475:1 476:1 487:1 533:1 537:1 540:1 547:1 549:1 562:1 565:1 566:1 584:1 593:1 594:1 600:1 603:1 608:1 610:1 611:1 616:1 620:1 642:1 643:1 651:1 667:1 678:1 684:1 691:1 697:1 709:1 751:1 752:1 755:1 766:1 775:1 780:1 786:1 802:1 811:1 815:1 819:1 824:1 829:1 843:1 848:1 862:1 894:1 908:1 917:1 946:1 948:1 949:1 955:1 968:1 988:1 996:1 1002:1 1007:1 1015:1 1033:1 1058:1 1067:1 1074:1 1079:1 1093:1 1095:1 1114:1 1120:1 1127:1 1133:1 1159:1 1175:1 1178:1 1188:1 1206:1 1218:1 1225:1 1227:1 1248:1 1249:1 1250:1 1251:1 1252:1 1264:1 1276:1 1284:1 1291:1 1300:1 1323:1 1331:1 1344:1 1394:1 1397:1 1398:1 1406:1 1409:1 1424:1 1431:1 1447:1 1453:1 1456:1 1477:1 1490:1 1503:1 1506:1 1508:1 1509:1 1531:1 1534:1 1536:1 1545:1 1553:1 1558:1 #
-0.0049798877172708803928724563547803 13:1 31:1 33:1 52:1 61:1 63:1 81:1 96:1 138:1 165:1 168:1 177:1 182:1 200:1 201:1 231:1 256:1 281:1 308:1 313:1 367:1 375:1 382:1 383:1 394:1 395:1 418:1 442:1 450:1 457:1 469:1 473:1 479:1 487:1 525:1 528:1 538:1 546:1 549:1 562:1 567:1 584:1 602:1 603:1 620:1 625:1 633:1 643:1 645:1 649:1 651:1 678:1 694:1 696:1 708:1 709:1 747:1 749:1 750:1 752:1 765:1 781:1 786:1 815:1 820:1 827:1 846:1 854:1 871:1 878:1 891:1 948:1 952:1 955:1 956:1 957:1 968:1 981:1 996:1 1002:1 1005:1 1053:1 1058:1 1072:1 1079:1 1090:1 1112:1 1117:1 1135:1 1150:1 1178:1 1197:1 1206:1 1218:1 1246:1 1248:1 1249:1 1257:1 1270:1 1271:1 1276:1 1281:1 1282:1 1284:1 1313:1 1314:1 1321:1 1330:1 1333:1 1344:1 1352:1 1361:1 1392:1 1409:1 1424:1 1427:1 1452:1 1453:1 1456:1 1462:1 1473:1 1486:1 1490:1 1509:1 1558:1 1563:1 #
-0.0049798877172708803928724563547803 3:1 24:1 37:1 39:1 52:1 58:1 65:1 74:1 84:1 86:1 96:1 100:1 112:1 113:1 114:1 129:1 134:1 143:1 145:1 152:1 163:1 165:1 168:1 192:1 217:1 221:1 230:1 231:1 243:1 247:1 256:1 264:1 271:1 274:1 284:1 299:1 305:1 310:1 313:1 318:1 325:1 338:1 339:1 346:1 354:1 356:1 360:1 367:1 368:1 375:1 394:1 395:1 396:1 418:1 420:1 431:1 437:1 439:1 441:1 447:1 451:1 453:1 454:1 455:1 469:1 487:1 511:1 520:1 535:1 538:1 540:1 557:1 559:1 566:1 567:1 587:1 593:1 594:1 595:1 596:1 598:1 606:1 613:1 616:1 620:1 622:1 623:1 636:1 643:1 645:1 650:1 651:1 669:1 678:1 697:1 702:1 716:1 724:1 727:1 729:1 734:1 737:1 747:1 752:1 755:1 758:1 777:1 778:1 795:1 809:1 810:1 813:1 816:1 819:1 827:1 829:1 832:1 836:1 846:1 853:1 860:1 908:1 925:1 945:1 946:1 947:1 948:1 957:1 964:1 968:1 971:1 974:1 976:1 988:1 990:1 996:1 1002:1 1020:1 1067:1 1079:1 1090:1 1092:1 1095:1 1096:1 1107:1 1113:1 1114:1 1122:1 1130:1 1133:1 1135:1 1157:1 1165:1 1178:1 1180:1 1197:1 1198:1 1200:1 1211:1 1218:1 1221:1 1225:1 1227:1 1234:1 1236:1 1248:1 1249:1 1255:1 1256:1 1263:1 1274:1 1276:1 1278:1 1281:1 1284:1 1288:1 1291:1 1301:1 1313:1 1315:1 1329:1 1358:1 1361:1 1364:1 1390:1 1394:1 1409:1 1410:1 1422:1 1423:1 1428:1 1443:1 1453:1 1456:1 1462:1 1484:1 1490:1 1500:1 1508:1 1509:1 1516:1 1526:1 1527:1 1531:1 1534:1 1558:1 #
-0.004056438449443340935052226825519 3:1 22:1 26:1 33:1 52:1 57:1 65:1 88:1 98:1 100:1 108:1 110:1 138:1 152:1 165:1 168:1 177:1 182:1 198:1 201:1 205:1 206:1 217:1 220:1 256:1 272:1 274:1 284:1 290:1 292:1 302:1 303:1 330:1 345:1 346:1 360:1 367:1 368:1 370:1 372:1 389:1 394:1 395:1 404:1 407:1 418:1 439:1 443:1 444:1 458:1 466:1 469:1 478:1 480:1 487:1 498:1 502:1 537:1 546:1 556:1 560:1 566:1 572:1 574:1 576:1 578:1 584:1 589:1 595:1 597:1 603:1 608:1 620:1 625:1 633:1 638:1 641:1 642:1 643:1 645:1 649:1 651:1 655:1 664:1 666:1 667:1 675:1 678:1 684:1 710:1 719:1 724:1 732:1 733:1 752:1 755:1 760:1 769:1 791:1 792:1 796:1 815:1 819:1 825:1 833:1 839:1 841:1 868:1 870:1 904:1 914:1 916:1 917:1 936:1 948:1 955:1 957:1 968:1 969:1 974:1 981:1 996:1 997:1 1002:1 1007:1 1027:1 1066:1 1068:1 1072:1 1081:1 1083:1 1090:1 1093:1 1096:1 1110:1 1114:1 1138:1 1144:1 1164:1 1175:1 1180:1 1197:1 1206:1 1218:1 1224:1 1225:1 1236:1 1246:1 1248:1 1249:1 1263:1 1276:1 1278:1 1284:1 1290:1 1315:1 1345:1 1361:1 1363:1 1394:1 1406:1 1409:1 1411:1 1418:1 1420:1 1424:1 1428:1 1452:1 1453:1 1456:1 1462:1 1464:1 1478:1 1480:1 1484:1 1486:1 1488:1 1490:1 1498:1 1500:1 1506:1 1509:1 1510:1 1531:1 1537:1 1545:1 1549:1 1553:1 #
-0.0049798877172708803928724563547803 3:1 33:1 37:1 46:1 52:1 55:1 57:1 73:1 86:1 95:1 96:1 98:1 100:1 102:1 129:1 142:1 152:1 158:1 162:1 165:1 168:1 177:1 184:1 216:1 225:1 233:1 239:1 256:1 271:1 273:1 274:1 280:1 284:1 302:1 306:1 313:1 318:1 319:1 330:1 339:1 345:1 354:1 362:1 367:1 368:1 378:1 380:1 383:1 389:1 394:1 395:1 401:1 411:1 413:1 421:1 427:1 445:1 447:1 456:1 469:1 472:1 475:1 480:1 484:1 487:1 490:1 525:1 529:1 538:1 540:1 546:1 548:1 562:1 566:1 572:1 583:1 593:1 594:1 595:1 598:1 608:1 610:1 613:1 620:1 636:1 640:1 645:1 646:1 651:1 652:1 655:1 660:1 663:1 667:1 678:1 690:1 695:1 716:1 724:1 727:1 755:1 781:1 793:1 802:1 814:1 815:1 819:1 825:1 828:1 839:1 864:1 875:1 882:1 885:1 887:1 908:1 917:1 921:1 925:1 933:1 946:1 947:1 949:1 957:1 969:1 975:1 981:1 988:1 996:1 998:1 1002:1 1007:1 1009:1 1015:1 1029:1 1046:1 1053:1 1055:1 1057:1 1065:1 1066:1 1067:1 1068:1 1079:1 1082:1 1089:1 1095:1 1107:1 1109:1 1113:1 1114:1 1118:1 1123:1 1126:1 1129:1 1142:1 1144:1 1160:1 1165:1 1170:1 1175:1 1176:1 1187:1 1213:1 1218:1 1221:1 1222:1 1225:1 1233:1 1241:1 1243:1 1246:1 1248:1 1249:1 1269:1 1271:1 1276:1 1278:1 1284:1 1299:1 1300:1 1313:1 1315:1 1318:1 1323:1 1332:1 1342:1 1378:1 1392:1 1395:1 1398:1 1403:1 1409:1 1424:1 1428:1 1446:1 1453:1 1462:1 1465:1 1486:1 1490:1 1494:1 1500:1 1509:1 1518:1 1531:1 1534:1 1543:1 1558:1 1561:1 #
-0.004175861744394232348553952505199 19:1 22:1 33:1 37:1 42:1 46:1 59:1 66:1 96:1 100:1 115:1 124:1 140:1 142:1 152:1 165:1 168:1 170:1 187:1 192:1 193:1 201:1 217:1 228:1 235:1 238:1 256:1 258:1 261:1 274:1 299:1 300:1 305:1 307:1 313:1 314:1 318:1 319:1 327:1 330:1 336:1 339:1 344:1 354:1 367:1 368:1 375:1 383:1 394:1 418:1 427:1 447:1 452:1 458:1 466:1 469:1 475:1 479:1 480:1 487:1 509:1 534:1 537:1 538:1 540:1 562:1 566:1 572:1 574:1 576:1 584:1 585:1 593:1 595:1 612:1 613:1 620:1 626:1 643:1 645:1 649:1 652:1 667:1 678:1 689:1 723:1 724:1 752:1 755:1 769:1 778:1 815:1 817:1 819:1 829:1 833:1 840:1 847:1 849:1 850:1 865:1 868:1 870:1 873:1 876:1 878:1 879:1 906:1 908:1 942:1 945:1 946:1 948:1 953:1 955:1 968:1 969:1 978:1 984:1 988:1 996:1 1002:1 1007:1 1012:1 1024:1 1031:1 1032:1 1042:1 1046:1 1053:1 1066:1 1079:1 1081:1 1096:1 1107:1 1110:1 1114:1 1118:1 1120:1 1129:1 1132:1 1143:1 1159:1 1174:1 1178:1 1200:1 1206:1 1207:1 1218:1 1221:1 1225:1 1230:1 1234:1 1248:1 1249:1 1255:1 1264:1 1276:1 1284:1 1291:1 1298:1 1311:1 1313:1 1321:1 1332:1 1336:1 1337:1 1342:1 1361:1 1379:1 1388:1 1398:1 1399:1 1409:1 1424:1 1425:1 1453:1 1458:1 1490:1 1516:1 1525:1 1527:1 1529:1 1534:1 1537:1 1545:1 #
0.0049798877172708803928724563547803 1:1 3:1 10:1 26:1 33:1 37:1 39:1 46:1 50:1 52:1 55:1 59:1 61:1 65:1 75:1 76:1 96:1 100:1 113:1 118:1 120:1 132:1 139:1 143:1 145:1 152:1 162:1 163:1 165:1 166:1 167:1 168:1 181:1 192:1 201:1 202:1 213:1 216:1 231:1 242:1 252:1 255:1 256:1 261:1 269:1 270:1 274:1 281:1 284:1 302:1 313:1 316:1 318:1 330:1 335:1 345:1 346:1 353:1 354:1 367:1 368:1 369:1 372:1 375:1 382:1 393:1 394:1 395:1 403:1 407:1 418:1 421:1 427:1 443:1 452:1 465:1 469:1 477:1 487:1 497:1 502:1 511:1 529:1 543:1 548:1 549:1 550:1 557:1 562:1 563:1 565:1 566:1 570:1 572:1 574:1 583:1 584:1 585:1 588:1 595:1 596:1 600:1 602:1 603:1 604:1 616:1 620:1 643:1 645:1 649:1 651:1 652:1 664:1 667:1 673:1 674:1 675:1 678:1 709:1 715:1 724:1 728:1 748:1 752:1 755:1 761:1 769:1 771:1 776:1 778:1 783:1 795:1 819:1 820:1 823:1 825:1 831:1 833:1 841:1 844:1 862:1 871:1 874:1 878:1 908:1 925:1 933:1 936:1 942:1 948:1 949:1 955:1 957:1 960:1 968:1 969:1 981:1 988:1 991:1 996:1 1002:1 1007:1 1013:1 1024:1 1055:1 1056:1 1058:1 1067:1 1079:1 1083:1 1092:1 1093:1 1094:1 1096:1 1107:1 1113:1 1116:1 1122:1 1125:1 1127:1 1133:1 1153:1 1156:1 1157:1 1165:1 1175:1 1178:1 1179:1 1197:1 1200:1 1203:1 1205:1 1207:1 1214:1 1218:1 1221:1 1222:1 1225:1 1228:1 1248:1 1255:1 1260:1 1262:1 1263:1 1266:1 1268:1 1270:1 1276:1 1284:1 1289:1 1290:1 1291:1 1301:1 1312:1 1315:1 1318:1 1332:1 1337:1 1338:1 1361:1 1368:1 1376:1 1409:1 1412:1 1418:1 1422:1 1427:1 1453:1 1461:1 1462:1 1490:1 1500:1 1509:1 1511:1 1526:1 1531:1 1534:1 1537:1 1551:1 1557:1 1558:1 #
0.004692355014393120860027863727737 3:1 21:1 22:1 27:1 33:1 37:1 39:1 46:1 52:1 55:1 59:1 61:1 65:1 66:1 75:1 81:1 82:1 85:1 86:1 95:1 99:1 107:1 113:1 115:1 119:1 124:1 144:1 145:1 158:1 162:1 165:1 168:1 172:1 177:1 192:1 195:1 198:1 217:1 221:1 222:1 231:1 234:1 237:1 245:1 247:1 253:1 256:1 258:1 265:1 267:1 268:1 270:1 271:1 274:1 281:1 284:1 301:1 302:1 310:1 313:1 315:1 316:1 317:1 318:1 322:1 325:1 327:1 330:1 335:1 339:1 342:1 345:1 346:1 353:1 354:1 367:1 368:1 372:1 375:1 394:1 395:1 398:1 403:1 414:1 415:1 418:1 460:1 469:1 476:1 477:1 483:1 487:1 492:1 497:1 506:1 512:1 528:1 529:1 538:1 540:1 544:1 557:1 560:1 562:1 566:1 567:1 570:1 571:1 572:1 574:1 576:1 583:1 584:1 593:1 595:1 600:1 603:1 610:1 613:1 616:1 618:1 620:1 625:1 626:1 630:1 643:1 651:1 652:1 659:1 667:1 673:1 678:1 694:1 696:1 704:1 716:1 724:1 734:1 743:1 748:1 752:1 755:1 760:1 765:1 767:1 769:1 776:1 778:1 781:1 793:1 795:1 802:1 808:1 810:1 815:1 819:1 825:1 831:1 841:1 842:1 845:1 846:1 849:1 855:1 875:1 878:1 882:1 884:1 899:1 908:1 925:1 927:1 929:1 933:1 934:1 936:1 939:1 945:1 946:1 947:1 948:1 955:1 960:1 963:1 964:1 968:1 969:1 978:1 988:1 996:1 1002:1 1024:1 1031:1 1036:1 1066:1 1072:1 1077:1 1079:1 1082:1 1083:1 1086:1 1087:1 1090:1 1091:1 1094:1 1096:1 1105:1 1107:1 1111:1 1114:1 1118:1 1120:1 1122:1 1125:1 1130:1 1156:1 1160:1 1162:1 1165:1 1169:1 1175:1 1178:1 1200:1 1204:1 1206:1 1209:1 1213:1 1218:1 1221:1 1222:1 1225:1 1227:1 1248:1 1251:1 1252:1 1255:1 1257:1 1263:1 1265:1 1270:1 1276:1 1278:1 1282:1 1284:1 1290:1 1298:1 1301:1 1304:1 1310:1 1311:1 1312:1 1315:1 1323:1 1326:1 1330:1 1331:1 1332:1 1333:1 1338:1 1342:1 1344:1 1356:1 1358:1 1363:1 1376:1 1395:1 1398:1 1399:1 1409:1 1411:1 1419:1 1422:1 1423:1 1424:1 1426:1 1428:1 1431:1 1439:1 1443:1 1444:1 1453:1 1456:1 1457:1 1461:1 1462:1 1473:1 1478:1 1481:1 1484:1 1488:1 1490:1 1493:1 1500:1 1502:1 1507:1 1508:1 1509:1 1511:1 1526:1 1531:1 1534:1 1537:1 1541:1 1552:1 1553:1 1554:1 1558:1 #
0.0049798877172708803928724563547803 3:1 5:1 9:1 17:1 26:1 31:1 32:1 33:1 34:1 37:1 39:1 46:1 47:1 50:1 52:1 59:1 61:1 65:1 66:1 84:1 92:1 110:1 112:1 120:1 127:1 141:1 142:1 152:1 158:1 165:1 167:1 168:1 171:1 177:1 197:1 201:1 208:1 217:1 221:1 226:1 231:1 234:1 235:1 237:1 241:1 242:1 256:1 259:1 263:1 274:1 280:1 284:1 288:1 301:1 302:1 310:1 313:1 314:1 316:1 318:1 324:1 326:1 334:1 345:1 354:1 367:1 368:1 372:1 375:1 382:1 383:1 390:1 394:1 395:1 418:1 421:1 433:1 437:1 447:1 448:1 449:1 451:1 460:1 469:1 476:1 477:1 482:1 484:1 487:1 500:1 503:1 508:1 517:1 518:1 523:1 526:1 528:1 529:1 540:1 546:1 562:1 563:1 566:1 567:1 571:1 572:1 574:1 576:1 593:1 594:1 595:1 596:1 610:1 616:1 620:1 622:1 630:1 643:1 645:1 651:1 652:1 668:1 678:1 695:1 718:1 724:1 733:1 734:1 748:1 752:1 755:1 760:1 769:1 771:1 778:1 780:1 791:1 793:1 795:1 802:1 819:1 825:1 827:1 829:1 833:1 841:1 842:1 846:1 850:1 855:1 880:1 894:1 908:1 920:1 922:1 946:1 947:1 948:1 955:1 968:1 975:1 985:1 988:1 996:1 1002:1 1007:1 1018:1 1019:1 1031:1 1032:1 1057:1 1058:1 1066:1 1070:1 1077:1 1079:1 1082:1 1083:1 1111:1 1114:1 1120:1 1130:1 1132:1 1153:1 1155:1 1158:1 1160:1 1165:1 1175:1 1178:1 1197:1 1200:1 1206:1 1218:1 1220:1 1221:1 1222:1 1225:1 1234:1 1248:1 1256:1 1263:1 1271:1 1276:1 1278:1 1281:1 1284:1 1296:1 1300:1 1305:1 1312:1 1323:1 1329:1 1332:1 1336:1 1338:1 1339:1 1342:1 1361:1 1366:1 1371:1 1376:1 1378:1 1393:1 1406:1 1409:1 1411:1 1424:1 1428:1 1431:1 1446:1 1448:1 1453:1 1457:1 1468:1 1478:1 1486:1 1490:1 1506:1 1508:1 1509:1 1512:1 1517:1 1531:1 1534:1 1541:1 1545:1 1552:1 1553:1 1558:1 1560:1 #
0.0049798877172708803928724563547803 3:1 5:1 6:1 26:1 33:1 37:1 65:1 66:1 83:1 84:1 89:1 95:1 100:1 106:1 128:1 138:1 142:1 152:1 165:1 168:1 169:1 170:1 177:1 181:1 182:1 200:1 201:1 206:1 213:1 231:1 237:1 244:1 256:1 258:1 274:1 302:1 306:1 308:1 313:1 318:1 319:1 328:1 342:1 344:1 367:1 368:1 371:1 375:1 382:1 394:1 395:1 403:1 418:1 421:1 459:1 460:1 469:1 476:1 477:1 487:1 497:1 502:1 506:1 508:1 512:1 517:1 523:1 529:1 538:1 546:1 549:1 558:1 559:1 562:1 563:1 565:1 566:1 567:1 571:1 572:1 574:1 576:1 584:1 592:1 596:1 603:1 606:1 616:1 620:1 635:1 645:1 649:1 651:1 652:1 660:1 664:1 674:1 678:1 715:1 716:1 718:1 724:1 732:1 734:1 748:1 752:1 755:1 760:1 765:1 781:1 795:1 807:1 808:1 810:1 812:1 819:1 823:1 841:1 846:1 849:1 855:1 874:1 877:1 878:1 882:1 883:1 892:1 908:1 909:1 915:1 927:1 933:1 939:1 946:1 947:1 948:1 955:1 960:1 968:1 981:1 988:1 1001:1 1002:1 1019:1 1028:1 1032:1 1053:1 1056:1 1064:1 1066:1 1072:1 1079:1 1105:1 1109:1 1111:1 1114:1 1125:1 1135:1 1138:1 1144:1 1145:1 1156:1 1169:1 1175:1 1178:1 1191:1 1200:1 1204:1 1206:1 1207:1 1218:1 1222:1 1230:1 1241:1 1245:1 1248:1 1251:1 1260:1 1262:1 1263:1 1268:1 1271:1 1278:1 1284:1 1291:1 1312:1 1323:1 1332:1 1336:1 1361:1 1364:1 1376:1 1383:1 1398:1 1402:1 1409:1 1411:1 1422:1 1424:1 1428:1 1444:1 1448:1 1453:1 1457:1 1464:1 1473:1 1478:1 1487:1 1490:1 1501:1 1508:1 1509:1 1511:1 1526:1 1527:1 1531:1 1534:1 1554:1 1563:1 #
0.0049798877172708803928724563547803 3:1 10:1 13:1 21:1 26:1 33:1 34:1 37:1 39:1 66:1 79:1 85:1 100:1 120:1 123:1 125:1 142:1 162:1 165:1 168:1 177:1 192:1 200:1 201:1 225:1 229:1 234:1 237:1 256:1 263:1 270:1 274:1 284:1 294:1 299:1 301:1 302:1 313:1 318:1 319:1 330:1 345:1 346:1 354:1 367:1 371:1 372:1 375:1 383:1 394:1 395:1 403:1 418:1 422:1 426:1 437:1 460:1 469:1 475:1 477:1 483:1 484:1 487:1 508:1 511:1 512:1 523:1 540:1 547:1 549:1 558:1 559:1 566:1 572:1 584:1 592:1 593:1 594:1 596:1 603:1 606:1 610:1 615:1 620:1 624:1 635:1 636:1 645:1 651:1 659:1 667:1 675:1 678:1 691:1 694:1 716:1 718:1 724:1 729:1 748:1 751:1 752:1 755:1 781:1 795:1 802:1 804:1 808:1 809:1 819:1 829:1 842:1 845:1 846:1 847:1 849:1 874:1 880:1 883:1 892:1 908:1 911:1 933:1 944:1 945:1 946:1 947:1 948:1 955:1 957:1 963:1 966:1 968:1 977:1 981:1 984:1 988:1 996:1 1002:1 1008:1 1031:1 1033:1 1037:1 1046:1 1053:1 1057:1 1058:1 1066:1 1067:1 1068:1 1070:1 1077:1 1079:1 1082:1 1083:1 1092:1 1093:1 1097:1 1105:1 1107:1 1111:1 1113:1 1114:1 1118:1 1120:1 1123:1 1129:1 1130:1 1132:1 1144:1 1162:1 1175:1 1178:1 1197:1 1207:1 1213:1 1218:1 1221:1 1222:1 1248:1 1251:1 1252:1 1255:1 1262:1 1263:1 1270:1 1276:1 1278:1 1282:1 1284:1 1291:1 1294:1 1300:1 1301:1 1304:1 1312:1 1315:1 1323:1 1338:1 1342:1 1348:1 1355:1 1376:1 1378:1 1379:1 1381:1 1382:1 1385:1 1398:1 1404:1 1409:1 1414:1 1424:1 1431:1 1453:1 1456:1 1462:1 1480:1 1490:1 1507:1 1508:1 1509:1 1510:1 1511:1 1514:1 1526:1 1531:1 1534:1 1540:1 #
-0.0049798877172708803928724563547803 3:1 8:1 9:1 33:1 39:1 46:1 54:1 65:1 81:1 83:1 95:1 99:1 100:1 102:1 110:1 130:1 138:1 140:1 141:1 145:1 147:1 148:1 152:1 155:1 165:1 168:1 185:1 201:1 209:1 210:1 214:1 217:1 219:1 220:1 225:1 230:1 231:1 242:1 255:1 256:1 267:1 270:1 274:1 280:1 284:1 293:1 301:1 302:1 304:1 310:1 313:1 315:1 322:1 324:1 327:1 330:1 342:1 343:1 345:1 354:1 365:1 367:1 368:1 394:1 413:1 418:1 420:1 432:1 435:1 447:1 457:1 469:1 471:1 473:1 477:1 479:1 480:1 483:1 487:1 501:1 508:1 512:1 526:1 538:1 539:1 540:1 546:1 549:1 557:1 558:1 561:1 565:1 566:1 568:1 572:1 574:1 576:1 584:1 592:1 595:1 596:1 613:1 620:1 635:1 639:1 650:1 651:1 652:1 667:1 678:1 683:1 686:1 695:1 696:1 716:1 718:1 721:1 724:1 729:1 738:1 755:1 771:1 774:1 776:1 778:1 781:1 795:1 804:1 815:1 824:1 825:1 842:1 846:1 851:1 857:1 870:1 880:1 908:1 911:1 913:1 917:1 925:1 942:1 946:1 948:1 949:1 955:1 958:1 959:1 966:1 968:1 973:1 981:1 987:1 988:1 990:1 995:1 996:1 1002:1 1007:1 1008:1 1012:1 1019:1 1025:1 1033:1 1034:1 1047:1 1068:1 1069:1 1072:1 1074:1 1085:1 1105:1 1113:1 1114:1 1115:1 1118:1 1127:1 1130:1 1134:1 1138:1 1139:1 1155:1 1164:1 1175:1 1178:1 1191:1 1197:1 1200:1 1206:1 1208:1 1209:1 1218:1 1220:1 1221:1 1222:1 1225:1 1227:1 1234:1 1248:1 1249:1 1252:1 1253:1 1255:1 1262:1 1271:1 1284:1 1291:1 1292:1 1301:1 1312:1 1315:1 1323:1 1327:1 1332:1 1342:1 1348:1 1353:1 1376:1 1380:1 1394:1 1398:1 1409:1 1416:1 1423:1 1424:1 1426:1 1431:1 1435:1 1452:1 1453:1 1454:1 1456:1 1462:1 1468:1 1474:1 1490:1 1492:1 1493:1 1502:1 1505:1 1508:1 1509:1 1519:1 1531:1 1534:1 1537:1 1541:1 1547:1 1558:1 1559:1 1564:1 #
-0.0049798877172708803928724563547803 3:1 13:1 18:1 28:1 31:1 33:1 37:1 40:1 46:1 47:1 57:1 59:1 81:1 88:1 95:1 111:1 123:1 142:1 148:1 152:1 165:1 168:1 174:1 181:1 192:1 205:1 206:1 231:1 256:1 263:1 296:1 298:1 301:1 302:1 306:1 313:1 318:1 322:1 338:1 339:1 352:1 354:1 361:1 363:1 367:1 368:1 372:1 375:1 394:1 395:1 397:1 403:1 407:1 413:1 421:1 425:1 426:1 427:1 442:1 460:1 468:1 469:1 472:1 474:1 487:1 513:1 537:1 546:1 549:1 550:1 555:1 557:1 558:1 562:1 563:1 566:1 570:1 571:1 574:1 576:1 584:1 590:1 592:1 593:1 595:1 596:1 603:1 615:1 620:1 636:1 637:1 638:1 641:1 643:1 651:1 652:1 670:1 678:1 687:1 701:1 708:1 712:1 713:1 718:1 719:1 724:1 742:1 748:1 752:1 754:1 755:1 773:1 780:1 793:1 795:1 815:1 818:1 819:1 820:1 825:1 841:1 847:1 866:1 870:1 879:1 880:1 886:1 892:1 899:1 904:1 907:1 908:1 911:1 916:1 920:1 934:1 942:1 944:1 945:1 946:1 948:1 955:1 957:1 965:1 966:1 968:1 976:1 981:1 988:1 996:1 1002:1 1010:1 1018:1 1027:1 1037:1 1040:1 1043:1 1057:1 1063:1 1066:1 1067:1 1079:1 1083:1 1090:1 1096:1 1107:1 1117:1 1120:1 1127:1 1130:1 1157:1 1178:1 1179:1 1203:1 1214:1 1218:1 1225:1 1227:1 1234:1 1248:1 1249:1 1256:1 1260:1 1263:1 1268:1 1271:1 1276:1 1284:1 1288:1 1290:1 1291:1 1307:1 1310:1 1316:1 1320:1 1323:1 1359:1 1382:1 1406:1 1409:1 1412:1 1427:1 1431:1 1452:1 1453:1 1457:1 1462:1 1478:1 1490:1 1502:1 1507:1 1509:1 1511:1 1517:1 1531:1 1534:1 1546:1 1549:1 1551:1 1552:1 1558:1 #
-0.0049798877172708803928724563547803 3:1 19:1 22:1 37:1 46:1 47:1 55:1 59:1 66:1 71:1 73:1 86:1 95:1 106:1 113:1 115:1 123:1 124:1 130:1 142:1 147:1 152:1 159:1 162:1 165:1 167:1 168:1 179:1 200:1 201:1 203:1 228:1 256:1 258:1 281:1 284:1 293:1 301:1 302:1 313:1 316:1 318:1 328:1 335:1 338:1 345:1 354:1 355:1 367:1 368:1 372:1 394:1 395:1 414:1 418:1 432:1 433:1 452:1 460:1 469:1 476:1 487:1 502:1 511:1 512:1 529:1 534:1 538:1 565:1 566:1 572:1 576:1 584:1 586:1 594:1 595:1 602:1 603:1 618:1 620:1 645:1 647:1 651:1 652:1 667:1 675:1 678:1 692:1 724:1 748:1 752:1 755:1 771:1 776:1 778:1 790:1 793:1 802:1 807:1 810:1 812:1 815:1 819:1 825:1 840:1 842:1 849:1 851:1 855:1 870:1 878:1 883:1 890:1 908:1 917:1 921:1 948:1 949:1 955:1 968:1 971:1 978:1 985:1 988:1 996:1 1002:1 1007:1 1066:1 1068:1 1079:1 1085:1 1092:1 1094:1 1095:1 1096:1 1102:1 1125:1 1131:1 1133:1 1145:1 1162:1 1175:1 1200:1 1204:1 1206:1 1209:1 1218:1 1221:1 1222:1 1225:1 1236:1 1248:1 1249:1 1251:1 1267:1 1276:1 1278:1 1284:1 1291:1 1311:1 1315:1 1338:1 1361:1 1376:1 1385:1 1390:1 1395:1 1409:1 1416:1 1419:1 1424:1 1448:1 1452:1 1453:1 1456:1 1462:1 1474:1 1481:1 1486:1 1489:1 1490:1 1494:1 1507:1 1509:1 1511:1 1513:1 1516:1 1525:1 1526:1 1534:1 1543:1 1558:1 1563:1 #
-0.0049798877172708803928724563547803 3:1 19:1 21:1 22:1 33:1 34:1 46:1 51:1 52:1 65:1 78:1 81:1 86:1 97:1 102:1 105:1 113:1 120:1 125:1 138:1 141:1 142:1 145:1 148:1 152:1 155:1 165:1 168:1 169:1 176:1 201:1 234:1 254:1 256:1 259:1 274:1 277:1 284:1 297:1 302:1 313:1 316:1 327:1 342:1 345:1 346:1 354:1 367:1 368:1 372:1 376:1 386:1 395:1 403:1 413:1 418:1 438:1 459:1 469:1 473:1 482:1 487:1 493:1 500:1 502:1 528:1 530:1 533:1 541:1 562:1 566:1 572:1 574:1 584:1 592:1 593:1 594:1 595:1 607:1 611:1 616:1 620:1 623:1 643:1 645:1 649:1 651:1 652:1 663:1 667:1 670:1 678:1 690:1 704:1 706:1 732:1 745:1 748:1 749:1 755:1 769:1 771:1 778:1 786:1 815:1 819:1 823:1 825:1 842:1 846:1 868:1 878:1 884:1 895:1 896:1 905:1 912:1 933:1 942:1 946:1 947:1 948:1 962:1 969:1 975:1 981:1 988:1 996:1 1002:1 1004:1 1005:1 1007:1 1012:1 1018:1 1025:1 1047:1 1066:1 1067:1 1068:1 1071:1 1079:1 1083:1 1090:1 1093:1 1102:1 1107:1 1129:1 1132:1 1134:1 1144:1 1151:1 1159:1 1160:1 1175:1 1178:1 1197:1 1198:1 1218:1 1249:1 1252:1 1263:1 1267:1 1271:1 1278:1 1284:1 1291:1 1300:1 1315:1 1323:1 1334:1 1341:1 1384:1 1399:1 1409:1 1410:1 1422:1 1424:1 1435:1 1447:1 1448:1 1453:1 1454:1 1456:1 1462:1 1467:1 1483:1 1490:1 1494:1 1502:1 1508:1 1509:1 1511:1 1526:1 1531:1 1534:1 1536:1 1540:1 1553:1 1554:1 1558:1 #
-0.00474996380290834772225361248843 3:1 5:1 10:1 17:1 28:1 31:1 32:1 33:1 37:1 42:1 46:1 52:1 57:1 59:1 65:1 66:1 81:1 96:1 100:1 114:1 122:1 135:1 138:1 141:1 142:1 152:1 165:1 168:1 198:1 217:1 231:1 233:1 256:1 264:1 268:1 270:1 280:1 284:1 290:1 294:1 302:1 313:1 316:1 318:1 320:1 322:1 354:1 360:1 366:1 367:1 368:1 372:1 383:1 394:1 395:1 418:1 446:1 448:1 457:1 469:1 480:1 487:1 500:1 503:1 505:1 517:1 518:1 522:1 534:1 536:1 560:1 562:1 566:1 567:1 572:1 576:1 581:1 584:1 585:1 593:1 594:1 595:1 603:1 610:1 614:1 620:1 630:1 633:1 638:1 642:1 645:1 651:1 652:1 657:1 659:1 667:1 678:1 681:1 707:1 724:1 748:1 752:1 755:1 767:1 769:1 778:1 781:1 802:1 812:1 819:1 824:1 825:1 833:1 842:1 846:1 847:1 850:1 863:1 871:1 880:1 884:1 908:1 919:1 925:1 929:1 946:1 947:1 948:1 955:1 957:1 967:1 988:1 996:1 1002:1 1007:1 1019:1 1043:1 1056:1 1057:1 1066:1 1067:1 1073:1 1079:1 1083:1 1092:1 1095:1 1096:1 1113:1 1114:1 1118:1 1129:1 1132:1 1138:1 1139:1 1144:1 1155:1 1162:1 1165:1 1197:1 1218:1 1225:1 1248:1 1252:1 1255:1 1263:1 1271:1 1276:1 1278:1 1281:1 1283:1 1284:1 1291:1 1296:1 1315:1 1344:1 1348:1 1376:1 1409:1 1411:1 1431:1 1448:1 1452:1 1453:1 1457:1 1462:1 1474:1 1477:1 1486:1 1490:1 1509:1 1510:1 1511:1 1531:1 1534:1 1540:1 1546:1 1547:1 #
0.0049798877172708803928724563547803 3:1 5:1 33:1 37:1 59:1 65:1 71:1 73:1 75:1 95:1 96:1 99:1 102:1 110:1 120:1 148:1 152:1 165:1 168:1 169:1 175:1 177:1 190:1 192:1 197:1 216:1 217:1 222:1 242:1 254:1 256:1 261:1 280:1 284:1 285:1 306:1 307:1 313:1 314:1 316:1 317:1 318:1 322:1 327:1 339:1 342:1 345:1 354:1 367:1 380:1 384:1 394:1 395:1 398:1 403:1 412:1 415:1 418:1 422:1 459:1 469:1 478:1 479:1 480:1 481:1 487:1 493:1 500:1 510:1 513:1 525:1 529:1 538:1 540:1 547:1 560:1 563:1 566:1 571:1 572:1 576:1 585:1 589:1 593:1 594:1 595:1 596:1 601:1 603:1 604:1 613:1 614:1 620:1 623:1 636:1 643:1 651:1 652:1 678:1 691:1 708:1 748:1 752:1 755:1 769:1 778:1 781:1 827:1 833:1 850:1 870:1 875:1 878:1 887:1 908:1 911:1 925:1 933:1 946:1 947:1 948:1 955:1 968:1 976:1 988:1 996:1 1002:1 1006:1 1007:1 1025:1 1033:1 1066:1 1073:1 1079:1 1082:1 1091:1 1103:1 1105:1 1106:1 1110:1 1127:1 1130:1 1134:1 1144:1 1165:1 1175:1 1177:1 1178:1 1179:1 1191:1 1197:1 1200:1 1206:1 1218:1 1221:1 1225:1 1247:1 1248:1 1263:1 1268:1 1271:1 1276:1 1284:1 1290:1 1291:1 1295:1 1301:1 1311:1 1315:1 1323:1 1332:1 1355:1 1383:1 1394:1 1395:1 1406:1 1409:1 1410:1 1411:1 1418:1 1422:1 1424:1 1446:1 1452:1 1453:1 1456:1 1459:1 1462:1 1489:1 1490:1 1500:1 1509:1 1511:1 1528:1 1531:1 1537:1 1546:1 1547:1 1553:1 1558:1 #
0.0049798877172708803928724563547803 3:1 31:1 33:1 37:1 81:1 86:1 91:1 96:1 113:1 124:1 142:1 145:1 152:1 162:1 165:1 168:1 177:1 180:1 190:1 201:1 233:1 235:1 241:1 242:1 256:1 274:1 280:1 284:1 302:1 304:1 307:1 313:1 318:1 322:1 339:1 342:1 346:1 354:1 367:1 394:1 395:1 407:1 410:1 418:1 437:1 451:1 459:1 469:1 476:1 478:1 480:1 482:1 487:1 511:1 546:1 547:1 549:1 560:1 562:1 566:1 572:1 574:1 576:1 584:1 585:1 593:1 596:1 606:1 620:1 625:1 630:1 645:1 651:1 652:1 660:1 664:1 675:1 678:1 722:1 724:1 748:1 752:1 755:1 757:1 760:1 776:1 778:1 796:1 804:1 815:1 825:1 829:1 830:1 832:1 833:1 842:1 891:1 908:1 933:1 946:1 955:1 957:1 961:1 963:1 968:1 969:1 975:1 981:1 987:1 988:1 995:1 996:1 1002:1 1007:1 1008:1 1037:1 1053:1 1055:1 1056:1 1066:1 1068:1 1073:1 1090:1 1092:1 1093:1 1095:1 1103:1 1130:1 1144:1 1166:1 1169:1 1172:1 1174:1 1175:1 1197:1 1218:1 1221:1 1225:1 1227:1 1230:1 1248:1 1249:1 1263:1 1268:1 1271:1 1276:1 1284:1 1290:1 1291:1 1315:1 1334:1 1338:1 1361:1 1364:1 1390:1 1409:1 1422:1 1424:1 1428:1 1435:1 1453:1 1462:1 1468:1 1473:1 1474:1 1490:1 1506:1 1507:1 1509:1 1526:1 1527:1 1544:1 #
0.0049798877172708803928724563547803 3:1 16:1 25:1 33:1 37:1 42:1 46:1 66:1 81:1 85:1 86:1 96:1 115:1 130:1 145:1 152:1 162:1 165:1 168:1 170:1 195:1 256:1 258:1 259:1 261:1 269:1 274:1 280:1 284:1 297:1 300:1 306:1 309:1 313:1 318:1 346:1 354:1 367:1 369:1 375:1 382:1 394:1 395:1 408:1 410:1 418:1 434:1 445:1 446:1 460:1 469:1 474:1 487:1 497:1 511:1 528:1 535:1 540:1 546:1 548:1 561:1 562:1 566:1 567:1 583:1 584:1 589:1 593:1 620:1 625:1 630:1 643:1 651:1 660:1 667:1 678:1 701:1 748:1 755:1 781:1 792:1 808:1 812:1 819:1 825:1 846:1 871:1 875:1 878:1 879:1 880:1 892:1 908:1 946:1 947:1 955:1 966:1 968:1 969:1 975:1 988:1 991:1 996:1 1002:1 1013:1 1055:1 1066:1 1067:1 1079:1 1081:1 1087:1 1096:1 1122:1 1133:1 1140:1 1160:1 1164:1 1165:1 1175:1 1211:1 1218:1 1248:1 1255:1 1267:1 1268:1 1273:1 1278:1 1284:1 1297:1 1301:1 1315:1 1323:1 1332:1 1361:1 1364:1 1378:1 1394:1 1409:1 1411:1 1448:1 1452:1 1453:1 1477:1 1489:1 1490:1 1500:1 1508:1 1509:1 1513:1 1522:1 1531:1 1534:1 1556:1 1558:1 1561:1 1563:1 #
0.0049798877172708803928724563547803 3:1 39:1 46:1 50:1 64:1 65:1 83:1 85:1 86:1 95:1 109:1 134:1 152:1 165:1 168:1 173:1 190:1 192:1 200:1 206:1 246:1 247:1 256:1 259:1 266:1 271:1 283:1 313:1 322:1 329:1 339:1 367:1 368:1 382:1 394:1 395:1 403:1 407:1 418:1 424:1 469:1 475:1 477:1 482:1 487:1 515:1 546:1 549:1 566:1 576:1 584:1 593:1 594:1 598:1 620:1 635:1 636:1 643:1 651:1 664:1 667:1 678:1 695:1 715:1 727:1 746:1 752:1 755:1 793:1 817:1 820:1 825:1 846:1 868:1 878:1 908:1 925:1 933:1 946:1 948:1 949:1 957:1 963:1 968:1 969:1 975:1 981:1 1002:1 1053:1 1066:1 1079:1 1092:1 1099:1 1107:1 1109:1 1111:1 1116:1 1144:1 1153:1 1154:1 1164:1 1165:1 1189:1 1197:1 1218:1 1221:1 1225:1 1248:1 1282:1 1284:1 1291:1 1304:1 1311:1 1315:1 1325:1 1331:1 1344:1 1368:1 1409:1 1424:1 1443:1 1453:1 1456:1 1459:1 1474:1 1477:1 1478:1 1486:1 1490:1 1508:1 1509:1 1526:1 1531:1 1534:1 1537:1 1539:1 1558:1 #
0.0049798877172708803928724563547803 3:1 22:1 25:1 28:1 33:1 34:1 37:1 39:1 42:1 46:1 49:1 52:1 64:1 66:1 81:1 86:1 87:1 93:1 96:1 100:1 107:1 113:1 114:1 127:1 128:1 133:1 139:1 152:1 165:1 167:1 168:1 175:1 182:1 192:1 208:1 222:1 242:1 250:1 256:1 261:1 270:1 274:1 291:1 292:1 298:1 302:1 313:1 317:1 318:1 319:1 322:1 323:1 339:1 345:1 346:1 348:1 354:1 367:1 368:1 394:1 395:1 403:1 407:1 410:1 418:1 432:1 469:1 477:1 478:1 480:1 487:1 500:1 508:1 509:1 516:1 529:1 538:1 540:1 549:1 558:1 562:1 566:1 572:1 574:1 576:1 584:1 585:1 593:1 594:1 595:1 598:1 619:1 620:1 622:1 637:1 649:1 651:1 652:1 662:1 667:1 678:1 691:1 709:1 714:1 715:1 727:1 742:1 752:1 755:1 766:1 778:1 783:1 790:1 793:1 812:1 815:1 819:1 825:1 827:1 841:1 846:1 867:1 870:1 884:1 899:1 908:1 913:1 917:1 944:1 945:1 946:1 947:1 948:1 965:1 968:1 972:1 977:1 981:1 988:1 996:1 1002:1 1008:1 1013:1 1042:1 1058:1 1066:1 1079:1 1081:1 1082:1 1083:1 1092:1 1113:1 1130:1 1134:1 1141:1 1165:1 1175:1 1176:1 1178:1 1179:1 1200:1 1218:1 1221:1 1225:1 1248:1 1249:1 1251:1 1255:1 1260:1 1263:1 1268:1 1276:1 1284:1 1291:1 1299:1 1304:1 1312:1 1315:1 1316:1 1321:1 1323:1 1336:1 1361:1 1376:1 1404:1 1409:1 1422:1 1424:1 1453:1 1456:1 1462:1 1469:1 1490:1 1494:1 1507:1 1509:1 1512:1 1531:1 1534:1 1537:1 1542:1 1545:1 1558:1 #
-0.0049798877172708803928724563547803 3:1 15:1 22:1 26:1 33:1 37:1 46:1 49:1 52:1 65:1 66:1 75:1 81:1 82:1 84:1 90:1 96:1 128:1 134:1 136:1 138:1 142:1 150:1 152:1 157:1 165:1 166:1 168:1 169:1 192:1 206:1 214:1 222:1 256:1 269:1 274:1 276:1 282:1 284:1 301:1 302:1 306:1 307:1 313:1 318:1 319:1 336:1 339:1 342:1 351:1 354:1 357:1 366:1 367:1 368:1 373:1 375:1 383:1 384:1 394:1 395:1 403:1 407:1 413:1 414:1 418:1 436:1 437:1 446:1 469:1 476:1 479:1 482:1 487:1 498:1 520:1 538:1 540:1 543:1 548:1 550:1 554:1 557:1 562:1 566:1 572:1 574:1 584:1 585:1 586:1 589:1 593:1 596:1 603:1 604:1 616:1 620:1 630:1 637:1 642:1 643:1 645:1 651:1 652:1 660:1 666:1 677:1 678:1 689:1 692:1 748:1 749:1 752:1 755:1 771:1 778:1 781:1 788:1 792:1 796:1 799:1 809:1 812:1 815:1 819:1 820:1 841:1 846:1 849:1 852:1 908:1 947:1 948:1 955:1 957:1 960:1 961:1 965:1 968:1 969:1 988:1 1002:1 1055:1 1066:1 1068:1 1079:1 1090:1 1093:1 1096:1 1107:1 1111:1 1113:1 1114:1 1127:1 1128:1 1129:1 1133:1 1134:1 1140:1 1144:1 1145:1 1154:1 1165:1 1175:1 1178:1 1191:1 1200:1 1204:1 1206:1 1218:1 1221:1 1236:1 1239:1 1248:1 1250:1 1263:1 1265:1 1266:1 1271:1 1278:1 1284:1 1291:1 1294:1 1299:1 1307:1 1309:1 1312:1 1323:1 1332:1 1337:1 1338:1 1356:1 1361:1 1362:1 1378:1 1379:1 1389:1 1392:1 1395:1 1402:1 1405:1 1409:1 1412:1 1424:1 1428:1 1439:1 1452:1 1453:1 1456:1 1462:1 1473:1 1484:1 1486:1 1490:1 1508:1 1509:1 1514:1 1531:1 1534:1 1537:1 1541:1 1545:1 1554:1 1558:1 #
-0.0049798877172708803928724563547803 3:1 5:1 10:1 25:1 33:1 37:1 40:1 65:1 86:1 95:1 96:1 111:1 115:1 123:1 131:1 138:1 142:1 148:1 151:1 164:1 165:1 168:1 171:1 174:1 190:1 192:1 200:1 233:1 238:1 242:1 246:1 256:1 261:1 264:1 271:1 276:1 284:1 295:1 300:1 302:1 308:1 312:1 313:1 316:1 318:1 322:1 330:1 337:1 346:1 351:1 353:1 361:1 364:1 367:1 383:1 394:1 395:1 402:1 407:1 413:1 417:1 418:1 437:1 439:1 469:1 475:1 487:1 512:1 515:1 517:1 523:1 529:1 543:1 544:1 559:1 566:1 572:1 576:1 584:1 594:1 595:1 596:1 615:1 620:1 622:1 625:1 635:1 636:1 642:1 643:1 645:1 649:1 651:1 660:1 675:1 678:1 724:1 738:1 752:1 755:1 764:1 788:1 794:1 805:1 807:1 815:1 825:1 828:1 833:1 838:1 842:1 850:1 874:1 908:1 924:1 952:1 955:1 961:1 968:1 981:1 985:1 1002:1 1007:1 1055:1 1066:1 1073:1 1079:1 1082:1 1085:1 1091:1 1092:1 1099:1 1111:1 1114:1 1116:1 1123:1 1147:1 1162:1 1165:1 1178:1 1203:1 1206:1 1209:1 1214:1 1218:1 1221:1 1227:1 1228:1 1233:1 1234:1 1245:1 1248:1 1249:1 1253:1 1266:1 1268:1 1271:1 1276:1 1284:1 1286:1 1290:1 1291:1 1301:1 1315:1 1325:1 1338:1 1361:1 1367:1 1376:1 1379:1 1394:1 1403:1 1409:1 1423:1 1427:1 1428:1 1431:1 1444:1 1448:1 1453:1 1466:1 1490:1 1506:1 1509:1 1511:1 1520:1 1522:1 1525:1 1526:1 1531:1 1534:1 1538:1 1541:1 1544:1 1554:1 1558:1 #
-0.0049798877172708803928724563547803 3:1 11:1 24:1 28:1 33:1 37:1 39:1 52:1 86:1 97:1 102:1 107:1 112:1 114:1 127:1 138:1 142:1 145:1 148:1 152:1 158:1 165:1 168:1 179:1 192:1 193:1 197:1 201:1 222:1 231:1 242:1 252:1 256:1 284:1 302:1 313:1 318:1 319:1 335:1 342:1 345:1 346:1 354:1 362:1 367:1 368:1 372:1 381:1 394:1 395:1 403:1 407:1 418:1 447:1 458:1 469:1 487:1 503:1 523:1 529:1 547:1 549:1 551:1 566:1 569:1 584:1 585:1 592:1 593:1 595:1 603:1 618:1 620:1 630:1 638:1 643:1 647:1 648:1 649:1 651:1 652:1 655:1 658:1 664:1 677:1 678:1 681:1 708:1 721:1 734:1 747:1 755:1 767:1 793:1 803:1 812:1 819:1 821:1 823:1 832:1 833:1 846:1 857:1 860:1 884:1 892:1 907:1 908:1 917:1 933:1 947:1 948:1 962:1 968:1 985:1 988:1 991:1 996:1 997:1 1002:1 1055:1 1057:1 1066:1 1067:1 1079:1 1092:1 1114:1 1115:1 1128:1 1135:1 1139:1 1142:1 1144:1 1151:1 1163:1 1175:1 1178:1 1194:1 1197:1 1206:1 1207:1 1210:1 1218:1 1221:1 1225:1 1244:1 1248:1 1251:1 1252:1 1269:1 1278:1 1284:1 1291:1 1296:1 1301:1 1312:1 1315:1 1323:1 1345:1 1355:1 1368:1 1409:1 1411:1 1418:1 1446:1 1453:1 1462:1 1463:1 1468:1 1483:1 1490:1 1507:1 1509:1 1511:1 1515:1 1534:1 1541:1 1542:1 1545:1 1547:1 1555:1 1558:1 #
-0.0049798877172708803928724563547803 3:1 5:1 19:1 22:1 24:1 26:1 29:1 33:1 34:1 39:1 42:1 46:1 52:1 55:1 58:1 59:1 62:1 65:1 66:1 79:1 86:1 95:1 96:1 107:1 128:1 141:1 142:1 149:1 152:1 163:1 165:1 168:1 172:1 173:1 177:1 179:1 182:1 186:1 192:1 195:1 198:1 200:1 202:1 214:1 217:1 228:1 229:1 231:1 234:1 250:1 252:1 256:1 259:1 261:1 266:1 268:1 271:1 274:1 284:1 294:1 296:1 302:1 313:1 316:1 318:1 322:1 334:1 345:1 346:1 348:1 350:1 352:1 353:1 354:1 355:1 357:1 367:1 368:1 375:1 382:1 383:1 388:1 394:1 395:1 402:1 403:1 407:1 417:1 418:1 421:1 426:1 431:1 437:1 451:1 465:1 469:1 475:1 477:1 482:1 484:1 487:1 497:1 500:1 505:1 506:1 508:1 511:1 512:1 529:1 538:1 540:1 546:1 547:1 560:1 562:1 563:1 566:1 572:1 573:1 574:1 576:1 579:1 581:1 584:1 593:1 595:1 603:1 607:1 613:1 616:1 620:1 626:1 627:1 643:1 644:1 645:1 649:1 651:1 652:1 659:1 667:1 674:1 677:1 678:1 683:1 686:1 694:1 703:1 704:1 708:1 724:1 733:1 737:1 742:1 748:1 752:1 755:1 761:1 765:1 766:1 767:1 769:1 778:1 780:1 781:1 795:1 802:1 812:1 813:1 819:1 824:1 825:1 829:1 830:1 833:1 835:1 839:1 841:1 846:1 849:1 850:1 854:1 855:1 863:1 868:1 875:1 883:1 891:1 899:1 900:1 908:1 912:1 925:1 933:1 939:1 941:1 946:1 947:1 948:1 952:1 955:1 961:1 964:1 968:1 977:1 988:1 996:1 1002:1 1004:1 1005:1 1007:1 1018:1 1024:1 1037:1 1040:1 1046:1 1048:1 1050:1 1058:1 1066:1 1071:1 1079:1 1082:1 1091:1 1095:1 1096:1 1113:1 1114:1 1116:1 1118:1 1120:1 1162:1 1165:1 1169:1 1171:1 1175:1 1178:1 1185:1 1197:1 1203:1 1205:1 1213:1 1218:1 1220:1 1221:1 1225:1 1227:1 1248:1 1255:1 1260:1 1263:1 1266:1 1268:1 1271:1 1279:1 1284:1 1291:1 1294:1 1296:1 1301:1 1304:1 1305:1 1308:1 1313:1 1315:1 1323:1 1325:1 1330:1 1332:1 1336:1 1338:1 1342:1 1356:1 1361:1 1370:1 1376:1 1385:1 1391:1 1395:1 1398:1 1404:1 1408:1 1409:1 1411:1 1422:1 1424:1 1431:1 1439:1 1452:1 1453:1 1456:1 1457:1 1462:1 1468:1 1470:1 1473:1 1478:1 1489:1 1490:1 1495:1 1509:1 1512:1 1514:1 1526:1 1529:1 1531:1 1532:1 1534:1 1548:1 1553:1 1558:1 1563:1 1564:1 #
-0.0049798877172708803928724563547803 3:1 15:1 33:1 35:1 52:1 64:1 70:1 79:1 93:1 103:1 110:1 117:1 123:1 130:1 138:1 142:1 152:1 165:1 168:1 182:1 191:1 201:1 213:1 230:1 231:1 234:1 241:1 243:1 244:1 256:1 274:1 278:1 282:1 284:1 287:1 290:1 297:1 302:1 313:1 318:1 327:1 345:1 346:1 347:1 357:1 359:1 367:1 368:1 375:1 382:1 384:1 394:1 395:1 403:1 437:1 438:1 460:1 469:1 474:1 475:1 483:1 487:1 497:1 512:1 517:1 523:1 533:1 536:1 540:1 562:1 566:1 574:1 584:1 588:1 595:1 603:1 606:1 608:1 620:1 645:1 651:1 652:1 667:1 669:1 678:1 695:1 703:1 716:1 723:1 724:1 752:1 755:1 760:1 761:1 769:1 781:1 793:1 795:1 796:1 798:1 808:1 815:1 819:1 832:1 834:1 842:1 851:1 857:1 867:1 874:1 882:1 892:1 908:1 909:1 919:1 925:1 947:1 955:1 956:1 961:1 968:1 969:1 980:1 988:1 996:1 1002:1 1007:1 1019:1 1031:1 1035:1 1053:1 1054:1 1056:1 1058:1 1059:1 1066:1 1079:1 1082:1 1083:1 1096:1 1111:1 1114:1 1132:1 1144:1 1159:1 1178:1 1200:1 1206:1 1209:1 1218:1 1221:1 1248:1 1249:1 1255:1 1268:1 1271:1 1276:1 1277:1 1284:1 1311:1 1332:1 1364:1 1369:1 1376:1 1398:1 1409:1 1411:1 1424:1 1442:1 1453:1 1454:1 1456:1 1457:1 1462:1 1487:1 1488:1 1490:1 1508:1 1509:1 1512:1 1531:1 1534:1 1553:1 1554:1 #
0.0049798877172708803928724563547803 3:1 19:1 24:1 28:1 31:1 33:1 39:1 42:1 52:1 55:1 65:1 69:1 75:1 83:1 95:1 96:1 115:1 134:1 138:1 139:1 142:1 145:1 148:1 152:1 165:1 168:1 177:1 191:1 192:1 193:1 200:1 201:1 213:1 217:1 231:1 241:1 242:1 250:1 256:1 258:1 270:1 271:1 274:1 283:1 284:1 288:1 290:1 301:1 302:1 313:1 316:1 322:1 326:1 327:1 329:1 346:1 348:1 351:1 354:1 355:1 357:1 358:1 362:1 367:1 368:1 394:1 395:1 412:1 413:1 414:1 418:1 420:1 429:1 432:1 437:1 449:1 469:1 473:1 480:1 487:1 512:1 517:1 527:1 542:1 543:1 547:1 548:1 549:1 553:1 558:1 562:1 565:1 566:1 572:1 574:1 581:1 584:1 585:1 593:1 595:1 596:1 616:1 620:1 643:1 645:1 646:1 650:1 652:1 678:1 680:1 724:1 734:1 737:1 745:1 748:1 752:1 755:1 757:1 765:1 767:1 778:1 781:1 793:1 810:1 812:1 815:1 819:1 821:1 825:1 831:1 832:1 846:1 850:1 866:1 870:1 878:1 887:1 889:1 894:1 908:1 917:1 927:1 928:1 931:1 946:1 948:1 952:1 955:1 963:1 968:1 969:1 971:1 988:1 996:1 1001:1 1002:1 1007:1 1008:1 1013:1 1029:1 1037:1 1043:1 1055:1 1056:1 1057:1 1066:1 1079:1 1083:1 1090:1 1092:1 1105:1 1114:1 1118:1 1120:1 1130:1 1136:1 1138:1 1160:1 1165:1 1191:1 1200:1 1206:1 1211:1 1214:1 1218:1 1222:1 1225:1 1248:1 1249:1 1251:1 1252:1 1260:1 1263:1 1266:1 1271:1 1278:1 1284:1 1291:1 1298:1 1299:1 1301:1 1314:1 1315:1 1318:1 1319:1 1322:1 1323:1 1328:1 1330:1 1358:1 1368:1 1371:1 1376:1 1381:1 1383:1 1384:1 1390:1 1409:1 1424:1 1447:1 1453:1 1457:1 1462:1 1477:1 1484:1 1486:1 1489:1 1490:1 1501:1 1502:1 1503:1 1507:1 1509:1 1511:1 1515:1 1531:1 1533:1 1537:1 1540:1 1552:1 1553:1 1558:1 #
0.0049798877172708803928724563547803 3:1 22:1 31:1 35:1 37:1 46:1 47:1 95:1 113:1 136:1 142:1 145:1 165:1 168:1 177:1 192:1 230:1 256:1 274:1 284:1 302:1 313:1 316:1 318:1 322:1 330:1 352:1 359:1 367:1 368:1 394:1 395:1 407:1 418:1 420:1 427:1 450:1 476:1 481:1 487:1 529:1 538:1 546:1 549:1 550:1 560:1 562:1 566:1 567:1 570:1 584:1 594:1 603:1 638:1 650:1 659:1 667:1 670:1 675:1 708:1 709:1 716:1 722:1 724:1 727:1 747:1 748:1 755:1 760:1 772:1 778:1 796:1 802:1 809:1 812:1 819:1 820:1 825:1 846:1 862:1 884:1 908:1 946:1 948:1 955:1 985:1 988:1 996:1 1002:1 1012:1 1037:1 1053:1 1054:1 1058:1 1066:1 1079:1 1095:1 1101:1 1113:1 1114:1 1139:1 1144:1 1153:1 1200:1 1218:1 1222:1 1225:1 1227:1 1236:1 1248:1 1263:1 1271:1 1276:1 1278:1 1284:1 1291:1 1300:1 1330:1 1342:1 1343:1 1409:1 1412:1 1419:1 1422:1 1428:1 1452:1 1453:1 1459:1 1461:1 1462:1 1490:1 1493:1 1494:1 1506:1 1534:1 1545:1 1547:1 1552:1 1553:1 1558:1 #
0.0049798877172708803928724563547803 3:1 24:1 25:1 33:1 37:1 39:1 46:1 52:1 55:1 66:1 100:1 102:1 110:1 112:1 113:1 114:1 127:1 148:1 152:1 158:1 165:1 168:1 188:1 191:1 192:1 197:1 231:1 233:1 235:1 241:1 242:1 256:1 258:1 267:1 270:1 274:1 276:1 284:1 290:1 298:1 301:1 302:1 308:1 313:1 318:1 322:1 327:1 336:1 342:1 345:1 354:1 355:1 367:1 375:1 382:1 383:1 394:1 395:1 400:1 403:1 418:1 420:1 427:1 469:1 473:1 475:1 480:1 487:1 500:1 512:1 517:1 520:1 543:1 544:1 546:1 548:1 549:1 560:1 562:1 563:1 566:1 572:1 574:1 576:1 578:1 584:1 585:1 593:1 595:1 610:1 613:1 616:1 620:1 633:1 635:1 651:1 652:1 667:1 670:1 674:1 675:1 678:1 693:1 704:1 707:1 724:1 727:1 737:1 748:1 752:1 755:1 795:1 802:1 810:1 812:1 815:1 819:1 825:1 841:1 842:1 844:1 848:1 857:1 860:1 867:1 874:1 878:1 880:1 892:1 908:1 917:1 920:1 925:1 926:1 927:1 933:1 945:1 946:1 947:1 948:1 952:1 955:1 968:1 969:1 981:1 985:1 986:1 988:1 996:1 997:1 998:1 1002:1 1008:1 1042:1 1066:1 1070:1 1072:1 1074:1 1079:1 1082:1 1083:1 1093:1 1095:1 1096:1 1103:1 1105:1 1120:1 1123:1 1125:1 1126:1 1130:1 1133:1 1159:1 1175:1 1178:1 1184:1 1203:1 1206:1 1207:1 1218:1 1221:1 1222:1 1225:1 1234:1 1248:1 1249:1 1252:1 1253:1 1257:1 1263:1 1268:1 1271:1 1274:1 1276:1 1284:1 1291:1 1298:1 1301:1 1304:1 1311:1 1312:1 1315:1 1319:1 1323:1 1332:1 1338:1 1342:1 1357:1 1361:1 1376:1 1391:1 1392:1 1394:1 1395:1 1398:1 1409:1 1411:1 1423:1 1428:1 1453:1 1456:1 1462:1 1474:1 1486:1 1490:1 1494:1 1508:1 1509:1 1517:1 1525:1 1526:1 1530:1 1531:1 1534:1 1537:1 1541:1 1553:1 1556:1 1558:1 #
0.0049798877172708803928724563547803 3:1 15:1 28:1 32:1 33:1 39:1 46:1 52:1 105:1 134:1 138:1 142:1 148:1 152:1 165:1 167:1 168:1 175:1 192:1 200:1 201:1 208:1 217:1 228:1 231:1 256:1 270:1 274:1 280:1 284:1 301:1 302:1 313:1 317:1 318:1 325:1 339:1 342:1 348:1 354:1 360:1 367:1 394:1 395:1 418:1 429:1 444:1 467:1 469:1 473:1 477:1 487:1 508:1 518:1 544:1 549:1 552:1 557:1 566:1 572:1 574:1 584:1 592:1 594:1 595:1 604:1 613:1 616:1 620:1 630:1 633:1 645:1 646:1 651:1 664:1 669:1 673:1 678:1 682:1 707:1 710:1 748:1 750:1 751:1 755:1 778:1 819:1 821:1 827:1 829:1 846:1 847:1 868:1 897:1 916:1 933:1 946:1 947:1 948:1 955:1 957:1 968:1 988:1 996:1 1002:1 1004:1 1008:1 1013:1 1018:1 1019:1 1040:1 1042:1 1050:1 1067:1 1068:1 1079:1 1082:1 1129:1 1162:1 1175:1 1197:1 1198:1 1200:1 1214:1 1218:1 1222:1 1225:1 1227:1 1233:1 1234:1 1247:1 1248:1 1249:1 1263:1 1268:1 1275:1 1276:1 1284:1 1291:1 1301:1 1304:1 1312:1 1315:1 1323:1 1336:1 1342:1 1361:1 1364:1 1380:1 1381:1 1382:1 1383:1 1393:1 1409:1 1411:1 1418:1 1422:1 1424:1 1431:1 1435:1 1453:1 1462:1 1479:1 1486:1 1490:1 1507:1 1531:1 1534:1 1558:1 1559:1 #
0.0049798877172708803928724563547803 3:1 19:1 33:1 40:1 46:1 52:1 65:1 69:1 72:1 75:1 86:1 95:1 100:1 102:1 106:1 112:1 113:1 125:1 138:1 142:1 147:1 148:1 152:1 165:1 166:1 168:1 186:1 191:1 217:1 220:1 225:1 226:1 234:1 241:1 242:1 252:1 253:1 256:1 270:1 271:1 274:1 276:1 283:1 284:1 291:1 300:1 301:1 302:1 310:1 313:1 318:1 327:1 334:1 352:1 361:1 367:1 375:1 382:1 383:1 394:1 395:1 403:1 437:1 469:1 487:1 497:1 501:1 502:1 521:1 529:1 538:1 543:1 546:1 549:1 550:1 561:1 562:1 566:1 572:1 574:1 576:1 595:1 596:1 608:1 613:1 616:1 620:1 623:1 642:1 643:1 646:1 649:1 651:1 652:1 659:1 664:1 667:1 678:1 691:1 704:1 724:1 728:1 752:1 755:1 778:1 812:1 815:1 817:1 819:1 820:1 825:1 831:1 833:1 841:1 842:1 846:1 855:1 880:1 895:1 908:1 909:1 910:1 912:1 917:1 919:1 933:1 946:1 949:1 955:1 963:1 968:1 969:1 977:1 981:1 987:1 988:1 996:1 998:1 1002:1 1005:1 1013:1 1032:1 1046:1 1053:1 1066:1 1079:1 1090:1 1092:1 1093:1 1095:1 1102:1 1125:1 1127:1 1130:1 1132:1 1133:1 1138:1 1142:1 1159:1 1165:1 1178:1 1191:1 1203:1 1204:1 1218:1 1221:1 1225:1 1227:1 1234:1 1235:1 1248:1 1249:1 1263:1 1265:1 1278:1 1281:1 1284:1 1290:1 1291:1 1300:1 1301:1 1311:1 1312:1 1315:1 1323:1 1361:1 1376:1 1379:1 1383:1 1390:1 1398:1 1409:1 1411:1 1422:1 1447:1 1453:1 1468:1 1473:1 1479:1 1483:1 1484:1 1486:1 1490:1 1491:1 1502:1 1509:1 1522:1 1531:1 1534:1 1537:1 1541:1 1556:1 1558:1 1561:1 #
-0.0049798877172708803928724563547803 3:1 22:1 33:1 35:1 46:1 52:1 60:1 65:1 66:1 86:1 96:1 100:1 102:1 113:1 115:1 121:1 125:1 135:1 142:1 152:1 165:1 168:1 188:1 190:1 192:1 199:1 220:1 225:1 228:1 231:1 234:1 241:1 256:1 263:1 279:1 283:1 284:1 301:1 313:1 316:1 318:1 346:1 348:1 352:1 354:1 367:1 368:1 372:1 375:1 387:1 391:1 394:1 395:1 407:1 418:1 419:1 421:1 422:1 450:1 467:1 469:1 477:1 479:1 480:1 481:1 487:1 521:1 538:1 539:1 563:1 566:1 571:1 572:1 584:1 593:1 595:1 596:1 610:1 613:1 620:1 643:1 649:1 651:1 667:1 674:1 678:1 748:1 752:1 755:1 756:1 769:1 795:1 815:1 819:1 825:1 846:1 853:1 858:1 892:1 900:1 908:1 921:1 923:1 946:1 947:1 948:1 966:1 968:1 985:1 988:1 993:1 996:1 1001:1 1002:1 1006:1 1019:1 1025:1 1033:1 1052:1 1053:1 1057:1 1064:1 1069:1 1079:1 1083:1 1095:1 1105:1 1127:1 1128:1 1131:1 1142:1 1159:1 1175:1 1178:1 1179:1 1197:1 1200:1 1218:1 1221:1 1225:1 1227:1 1243:1 1249:1 1263:1 1276:1 1284:1 1291:1 1304:1 1318:1 1331:1 1336:1 1342:1 1361:1 1376:1 1377:1 1381:1 1383:1 1390:1 1393:1 1403:1 1409:1 1414:1 1428:1 1429:1 1452:1 1453:1 1456:1 1457:1 1466:1 1469:1 1490:1 1494:1 1505:1 1507:1 1508:1 1510:1 1511:1 1512:1 1534:1 1537:1 1558:1 1563:1 1565:1 #
-0.0049798877172708803928724563547803 3:1 14:1 33:1 46:1 59:1 86:1 96:1 99:1 100:1 152:1 162:1 165:1 168:1 177:1 184:1 198:1 231:1 244:1 256:1 284:1 298:1 313:1 315:1 317:1 318:1 322:1 342:1 354:1 367:1 372:1 382:1 394:1 418:1 422:1 450:1 453:1 457:1 469:1 480:1 487:1 528:1 538:1 544:1 546:1 555:1 560:1 566:1 571:1 572:1 576:1 584:1 585:1 587:1 595:1 613:1 635:1 637:1 649:1 651:1 678:1 702:1 724:1 743:1 748:1 752:1 755:1 763:1 781:1 824:1 836:1 879:1 882:1 887:1 918:1 948:1 952:1 955:1 968:1 988:1 1002:1 1026:1 1028:1 1053:1 1057:1 1066:1 1079:1 1083:1 1113:1 1130:1 1148:1 1175:1 1218:1 1220:1 1228:1 1230:1 1246:1 1248:1 1257:1 1263:1 1265:1 1268:1 1276:1 1284:1 1288:1 1291:1 1315:1 1323:1 1361:1 1409:1 1414:1 1422:1 1442:1 1452:1 1453:1 1456:1 1457:1 1462:1 1484:1 1486:1 1490:1 1493:1 1497:1 1500:1 1506:1 1509:1 1511:1 1531:1 1534:1 1537:1 1541:1 1553:1 #
-0.0049798877172708803928724563547803 3:1 21:1 33:1 37:1 39:1 46:1 47:1 52:1 53:1 61:1 69:1 74:1 84:1 96:1 106:1 113:1 132:1 142:1 145:1 163:1 165:1 168:1 177:1 190:1 193:1 206:1 215:1 221:1 224:1 228:1 238:1 240:1 256:1 259:1 274:1 284:1 301:1 302:1 313:1 318:1 319:1 322:1 324:1 345:1 346:1 354:1 367:1 369:1 371:1 383:1 389:1 394:1 395:1 403:1 407:1 418:1 451:1 469:1 487:1 496:1 504:1 506:1 508:1 513:1 521:1 525:1 540:1 559:1 560:1 562:1 563:1 566:1 572:1 574:1 576:1 584:1 589:1 592:1 593:1 595:1 603:1 610:1 620:1 623:1 636:1 643:1 645:1 647:1 651:1 652:1 667:1 671:1 675:1 677:1 678:1 720:1 724:1 726:1 727:1 740:1 745:1 748:1 752:1 755:1 760:1 778:1 793:1 795:1 802:1 808:1 812:1 819:1 840:1 841:1 878:1 880:1 883:1 908:1 911:1 915:1 932:1 940:1 944:1 946:1 948:1 955:1 968:1 969:1 985:1 988:1 996:1 1002:1 1008:1 1014:1 1042:1 1057:1 1066:1 1067:1 1068:1 1072:1 1079:1 1090:1 1095:1 1120:1 1123:1 1129:1 1130:1 1132:1 1140:1 1162:1 1175:1 1177:1 1178:1 1181:1 1193:1 1197:1 1209:1 1218:1 1225:1 1236:1 1244:1 1248:1 1249:1 1251:1 1260:1 1262:1 1263:1 1269:1 1273:1 1274:1 1276:1 1281:1 1284:1 1291:1 1300:1 1301:1 1306:1 1308:1 1315:1 1332:1 1338:1 1347:1 1364:1 1390:1 1397:1 1398:1 1409:1 1411:1 1422:1 1424:1 1449:1 1453:1 1456:1 1469:1 1489:1 1490:1 1494:1 1500:1 1508:1 1509:1 1511:1 1515:1 1531:1 1534:1 1546:1 #
-0.0049798877172708803928724563547803 3:1 5:1 33:1 37:1 42:1 46:1 52:1 65:1 74:1 86:1 95:1 96:1 99:1 109:1 152:1 162:1 165:1 168:1 174:1 179:1 181:1 192:1 201:1 217:1 220:1 225:1 235:1 256:1 274:1 294:1 301:1 302:1 313:1 318:1 319:1 327:1 334:1 345:1 346:1 354:1 367:1 383:1 394:1 395:1 396:1 418:1 437:1 460:1 465:1 469:1 480:1 487:1 504:1 511:1 520:1 528:1 529:1 562:1 565:1 566:1 572:1 575:1 576:1 585:1 595:1 603:1 604:1 620:1 630:1 631:1 636:1 643:1 651:1 652:1 653:1 654:1 667:1 677:1 678:1 707:1 727:1 733:1 735:1 736:1 747:1 752:1 755:1 807:1 819:1 824:1 842:1 846:1 848:1 850:1 908:1 927:1 933:1 945:1 948:1 955:1 968:1 984:1 988:1 995:1 996:1 1002:1 1008:1 1019:1 1033:1 1044:1 1053:1 1066:1 1067:1 1079:1 1081:1 1083:1 1092:1 1096:1 1105:1 1110:1 1113:1 1121:1 1125:1 1126:1 1127:1 1138:1 1149:1 1165:1 1175:1 1178:1 1185:1 1190:1 1200:1 1218:1 1221:1 1222:1 1225:1 1235:1 1248:1 1252:1 1263:1 1278:1 1284:1 1299:1 1301:1 1313:1 1314:1 1315:1 1318:1 1323:1 1328:1 1332:1 1361:1 1376:1 1409:1 1411:1 1431:1 1441:1 1453:1 1462:1 1468:1 1490:1 1500:1 1507:1 1509:1 1517:1 1523:1 1527:1 1531:1 1534:1 1537:1 1545:1 1558:1 #
