SVM-light Version V6.02
0 # kernel type
3 # kernel parameter -d 
1 # kernel parameter -g 
1 # kernel parameter -s 
1 # kernel parameter -r 
empty# kernel parameter -u 
2041 # highest feature index 
1600 # number of training documents 
1168 # number of support vectors plus 1 
-0.057504131 # threshold b, each following line is a SV (starting with alpha*y)
-0.0044250118221682895741642127518389 1:1 2:1 3:1 4:1 5:1 6:1 7:1 8:1 9:1 10:1 11:1 12:1 13:1 14:1 15:1 16:1 17:1 18:1 19:1 20:1 21:1 22:1 23:1 24:1 25:1 26:1 27:1 28:1 29:1 30:1 31:1 32:1 33:1 34:1 35:1 37:1 39:1 40:1 41:1 42:1 43:1 44:1 45:1 46:1 47:1 48:1 49:1 50:1 51:1 52:1 53:1 54:1 55:1 56:1 57:1 59:1 63:1 64:1 65:1 66:1 67:1 68:1 69:1 71:1 73:1 76:1 77:1 78:1 79:1 81:1 84:1 86:1 87:1 89:1 91:1 93:1 95:1 97:1 99:1 101:1 102:1 103:1 104:1 105:1 106:1 107:1 108:1 109:1 110:1 111:1 112:1 113:1 114:1 115:1 116:1 117:1 118:1 119:1 123:1 124:1 125:1 127:1 129:1 133:1 134:1 135:1 140:1 142:1 143:1 144:1 149:1 150:1 152:1 153:1 155:1 157:1 158:1 161:1 165:1 166:1 167:1 171:1 178:1 179:1 180:1 181:1 182:1 189:1 192:1 193:1 202:1 204:1 205:1 206:1 215:1 216:1 218:1 221:1 223:1 226:1 228:1 236:1 240:1 246:1 248:1 250:1 253:1 257:1 258:1 266:1 268:1 269:1 285:1 286:1 287:1 291:1 293:1 305:1 308:1 309:1 313:1 316:1 318:1 329:1 330:1 332:1 345:1 347:1 349:1 357:1 359:1 364:1 368:1 377:1 384:1 389:1 398:1 399:1 406:1 412:1 413:1 423:1 424:1 427:1 450:1 459:1 460:1 462:1 463:1 477:1 479:1 480:1 507:1 508:1 512:1 522:1 524:1 530:1 546:1 547:1 572:1 575:1 577:1 579:1 589:1 597:1 602:1 619:1 621:1 643:1 651:1 679:1 688:1 699:1 726:1 730:1 738:1 740:1 751:1 760:1 763:1 790:1 795:1 821:1 850:1 875:1 879:1 917:1 920:1 948:1 961:1 969:1 988:1 1039:1 1072:1 1084:1 1131:1 1163:1 1212:1 1238:1 1269:1 1272:1 1286:1 1308:1 1326:1 1370:1 1392:1 1393:1 1409:1 1425:1 1439:1 1440:1 1445:1 1459:1 1476:1 1545:1 1548:1 1574:1 1580:1 1603:1 1612:1 1635:1 1671:1 1674:1 1688:1 1699:1 1717:1 1743:1 1901:1 1928:1 1934:1 1956:1 1974:1 2017:1 #
-0.0044250118221682895741642127518389 1:1 2:1 3:1 4:1 5:1 6:1 7:1 8:1 9:1 10:1 11:1 12:1 13:1 14:1 15:1 17:1 18:1 19:1 24:1 25:1 26:1 27:1 29:1 32:1 36:1 39:1 40:1 41:1 42:1 43:1 45:1 46:1 47:1 49:1 50:1 51:1 52:1 53:1 57:1 58:1 60:1 64:1 65:1 66:1 68:1 73:1 75:1 78:1 80:1 82:1 99:1 106:1 108:1 112:1 117:1 118:1 119:1 123:1 125:1 131:1 136:1 139:1 147:1 148:1 150:1 153:1 155:1 159:1 161:1 164:1 171:1 173:1 177:1 210:1 214:1 227:1 239:1 250:1 257:1 329:1 343:1 399:1 406:1 411:1 423:1 435:1 445:1 482:1 518:1 529:1 597:1 600:1 608:1 613:1 643:1 645:1 656:1 662:1 681:1 686:1 781:1 789:1 790:1 832:1 835:1 840:1 917:1 974:1 1012:1 1020:1 1134:1 1235:1 1351:1 1515:1 1536:1 1626:1 1632:1 1636:1 1662:1 1664:1 1738:1 1769:1 1783:1 1937:1 2035:1 #
-0.0031341323253272108939615492317898 1:1 2:1 3:1 4:1 5:1 6:1 7:1 8:1 9:1 11:1 12:1 13:1 14:1 15:1 16:1 17:1 18:1 19:1 20:1 21:1 23:1 24:1 25:1 26:1 27:1 28:1 29:1 30:1 31:1 32:1 33:1 34:1 35:1 37:1 38:1 39:1 40:1 42:1 44:1 46:1 47:1 49:1 50:1 52:1 53:1 54:1 56:1 58:1 59:1 62:1 63:1 64:1 66:1 67:1 68:1 70:1 71:1 72:1 75:1 76:1 80:1 81:1 86:1 88:1 89:1 91:1 94:1 95:1 96:1 98:1 101:1 102:1 103:1 104:1 106:1 113:1 115:1 118:1 125:1 126:1 130:1 140:1 141:1 143:1 144:1 156:1 157:1 162:1 165:1 168:1 170:1 175:1 177:1 179:1 182:1 189:1 191:1 197:1 198:1 200:1 202:1 206:1 207:1 210:1 214:1 217:1 227:1 233:1 241:1 244:1 245:1 260:1 266:1 267:1 269:1 273:1 276:1 277:1 291:1 297:1 302:1 306:1 308:1 309:1 331:1 346:1 355:1 356:1 370:1 374:1 378:1 383:1 387:1 394:1 396:1 398:1 404:1 409:1 424:1 425:1 428:1 440:1 447:1 453:1 460:1 462:1 465:1 479:1 485:1 492:1 502:1 542:1 545:1 570:1 575:1 591:1 595:1 619:1 623:1 628:1 633:1 636:1 639:1 683:1 709:1 743:1 755:1 756:1 789:1 800:1 845:1 862:1 889:1 896:1 942:1 949:1 964:1 1012:1 1055:1 1066:1 1083:1 1091:1 1130:1 1155:1 1186:1 1222:1 1257:1 1260:1 1261:1 1274:1 1288:1 1296:1 1319:1 1322:1 1388:1 1390:1 1413:1 1432:1 1436:1 1451:1 1492:1 1511:1 1549:1 1584:1 1789:1 1875:1 1979:1 #
-0.0024874130074231263001771630172243 1:1 2:1 3:1 4:1 5:1 6:1 7:1 8:1 9:1 10:1 11:1 12:1 13:1 14:1 15:1 16:1 17:1 18:1 19:1 20:1 21:1 23:1 25:1 26:1 27:1 28:1 30:1 31:1 32:1 34:1 36:1 37:1 38:1 39:1 40:1 41:1 42:1 43:1 44:1 45:1 46:1 47:1 50:1 53:1 56:1 57:1 58:1 59:1 61:1 62:1 64:1 65:1 66:1 67:1 72:1 73:1 74:1 75:1 77:1 80:1 81:1 82:1 83:1 85:1 86:1 88:1 94:1 96:1 97:1 98:1 99:1 100:1 103:1 104:1 115:1 119:1 124:1 132:1 137:1 141:1 146:1 153:1 154:1 156:1 159:1 164:1 168:1 170:1 176:1 177:1 183:1 185:1 187:1 189:1 198:1 199:1 200:1 205:1 212:1 213:1 218:1 221:1 224:1 225:1 228:1 229:1 250:1 253:1 260:1 267:1 271:1 282:1 283:1 292:1 296:1 312:1 316:1 323:1 324:1 337:1 361:1 367:1 368:1 381:1 398:1 439:1 453:1 455:1 460:1 470:1 479:1 488:1 494:1 521:1 538:1 566:1 579:1 582:1 583:1 591:1 596:1 617:1 619:1 627:1 639:1 652:1 661:1 665:1 667:1 676:1 688:1 719:1 722:1 783:1 817:1 920:1 939:1 985:1 1000:1 1061:1 1066:1 1075:1 1107:1 1213:1 1251:1 1267:1 1296:1 1386:1 1415:1 1420:1 1446:1 1450:1 1457:1 1468:1 1471:1 1494:1 1495:1 1500:1 1544:1 1577:1 1585:1 1610:1 1629:1 1657:1 1677:1 1689:1 1723:1 1784:1 1813:1 1830:1 1870:1 1876:1 1878:1 1879:1 #
-0.0044250118221682895741642127518389 1:1 2:1 3:1 4:1 5:1 6:1 7:1 8:1 9:1 10:1 11:1 12:1 13:1 14:1 15:1 16:1 17:1 18:1 19:1 21:1 22:1 23:1 24:1 25:1 26:1 27:1 28:1 29:1 30:1 31:1 32:1 33:1 34:1 35:1 36:1 37:1 38:1 39:1 40:1 41:1 42:1 43:1 44:1 46:1 47:1 48:1 49:1 50:1 51:1 52:1 53:1 54:1 55:1 57:1 58:1 59:1 60:1 61:1 62:1 63:1 64:1 65:1 66:1 67:1 70:1 72:1 73:1 74:1 75:1 76:1 80:1 82:1 84:1 85:1 87:1 88:1 89:1 91:1 92:1 93:1 95:1 97:1 100:1 101:1 103:1 104:1 106:1 107:1 113:1 114:1 116:1 117:1 118:1 119:1 123:1 124:1 125:1 126:1 128:1 130:1 136:1 137:1 138:1 139:1 140:1 142:1 146:1 149:1 153:1 155:1 156:1 158:1 160:1 162:1 164:1 165:1 166:1 175:1 176:1 190:1 195:1 198:1 200:1 202:1 208:1 215:1 227:1 231:1 233:1 238:1 239:1 242:1 245:1 251:1 254:1 256:1 259:1 263:1 265:1 270:1 274:1 275:1 276:1 278:1 281:1 283:1 286:1 289:1 295:1 316:1 319:1 321:1 331:1 334:1 340:1 341:1 342:1 351:1 352:1 353:1 363:1 368:1 371:1 372:1 387:1 392:1 400:1 408:1 416:1 424:1 432:1 441:1 449:1 450:1 466:1 485:1 492:1 512:1 517:1 542:1 549:1 551:1 565:1 569:1 570:1 586:1 590:1 591:1 597:1 598:1 602:1 612:1 622:1 625:1 628:1 641:1 650:1 655:1 673:1 689:1 702:1 720:1 732:1 742:1 777:1 800:1 825:1 831:1 844:1 878:1 904:1 912:1 969:1 971:1 999:1 1032:1 1036:1 1039:1 1045:1 1047:1 1052:1 1054:1 1060:1 1063:1 1071:1 1085:1 1099:1 1174:1 1187:1 1190:1 1223:1 1246:1 1273:1 1321:1 1323:1 1333:1 1367:1 1389:1 1397:1 1400:1 1431:1 1438:1 1441:1 1470:1 1484:1 1514:1 1534:1 1541:1 1563:1 1566:1 1613:1 1635:1 1638:1 1686:1 1700:1 1719:1 1733:1 1736:1 1857:1 1898:1 1929:1 1958:1 1980:1 2002:1 2013:1 2023:1 2036:1 #
0.0044250118221682895741642127518389 1:1 2:1 3:1 4:1 5:1 6:1 7:1 8:1 9:1 10:1 11:1 12:1 13:1 14:1 15:1 16:1 17:1 18:1 19:1 20:1 21:1 23:1 24:1 25:1 26:1 27:1 28:1 30:1 31:1 32:1 33:1 34:1 35:1 36:1 37:1 38:1 39:1 40:1 41:1 42:1 43:1 44:1 45:1 46:1 47:1 48:1 50:1 52:1 53:1 54:1 55:1 56:1 58:1 61:1 62:1 64:1 65:1 68:1 69:1 70:1 71:1 72:1 73:1 75:1 76:1 77:1 78:1 80:1 83:1 85:1 87:1 90:1 91:1 94:1 97:1 98:1 99:1 100:1 101:1 102:1 105:1 106:1 108:1 109:1 110:1 112:1 113:1 114:1 119:1 123:1 124:1 127:1 128:1 129:1 132:1 135:1 136:1 139:1 143:1 145:1 146:1 149:1 150:1 151:1 152:1 153:1 156:1 158:1 160:1 162:1 166:1 168:1 169:1 172:1 176:1 177:1 178:1 180:1 184:1 188:1 194:1 196:1 199:1 202:1 204:1 205:1 213:1 214:1 219:1 220:1 227:1 228:1 231:1 239:1 245:1 247:1 254:1 256:1 269:1 276:1 280:1 285:1 288:1 290:1 294:1 309:1 313:1 323:1 332:1 336:1 340:1 342:1 344:1 345:1 346:1 352:1 356:1 377:1 391:1 403:1 415:1 419:1 430:1 444:1 454:1 460:1 467:1 472:1 476:1 479:1 480:1 481:1 491:1 494:1 497:1 500:1 502:1 504:1 527:1 533:1 534:1 541:1 542:1 544:1 571:1 580:1 585:1 586:1 624:1 635:1 638:1 648:1 655:1 668:1 720:1 752:1 767:1 769:1 782:1 795:1 796:1 808:1 848:1 901:1 902:1 904:1 905:1 916:1 960:1 984:1 992:1 1002:1 1003:1 1007:1 1009:1 1023:1 1031:1 1055:1 1072:1 1074:1 1076:1 1080:1 1109:1 1111:1 1131:1 1148:1 1154:1 1168:1 1171:1 1180:1 1191:1 1199:1 1207:1 1240:1 1255:1 1264:1 1266:1 1336:1 1350:1 1400:1 1417:1 1429:1 1438:1 1448:1 1458:1 1480:1 1491:1 1495:1 1498:1 1507:1 1511:1 1584:1 1601:1 1644:1 1688:1 1718:1 1755:1 1770:1 1771:1 1802:1 1847:1 1881:1 1910:1 1937:1 1941:1 1956:1 1977:1 1987:1 1990:1 2005:1 2011:1 2040:1 #
0.0044250118221682895741642127518389 1:1 2:1 3:1 4:1 5:1 6:1 7:1 8:1 9:1 10:1 11:1 12:1 13:1 14:1 15:1 16:1 17:1 18:1 19:1 20:1 21:1 22:1 23:1 24:1 25:1 26:1 27:1 28:1 29:1 31:1 32:1 33:1 35:1 36:1 37:1 38:1 39:1 40:1 41:1 42:1 43:1 44:1 45:1 46:1 47:1 51:1 52:1 53:1 55:1 56:1 59:1 63:1 64:1 65:1 70:1 73:1 76:1 77:1 81:1 82:1 83:1 84:1 85:1 87:1 89:1 94:1 95:1 96:1 100:1 101:1 104:1 105:1 107:1 108:1 109:1 110:1 111:1 112:1 113:1 115:1 118:1 119:1 122:1 123:1 129:1 134:1 136:1 138:1 142:1 145:1 147:1 149:1 152:1 156:1 157:1 158:1 159:1 161:1 167:1 170:1 175:1 177:1 179:1 183:1 186:1 192:1 197:1 198:1 202:1 208:1 210:1 220:1 222:1 224:1 237:1 242:1 249:1 252:1 256:1 260:1 261:1 264:1 271:1 274:1 278:1 279:1 282:1 283:1 296:1 299:1 315:1 322:1 353:1 364:1 366:1 375:1 385:1 389:1 404:1 417:1 441:1 450:1 456:1 457:1 464:1 470:1 475:1 476:1 481:1 494:1 522:1 526:1 585:1 587:1 595:1 599:1 602:1 623:1 628:1 632:1 633:1 635:1 638:1 640:1 668:1 686:1 698:1 723:1 732:1 740:1 751:1 753:1 771:1 788:1 789:1 806:1 818:1 824:1 860:1 973:1 982:1 983:1 998:1 1003:1 1035:1 1061:1 1067:1 1076:1 1078:1 1093:1 1119:1 1123:1 1145:1 1217:1 1230:1 1231:1 1265:1 1272:1 1299:1 1303:1 1331:1 1334:1 1336:1 1339:1 1360:1 1366:1 1411:1 1446:1 1460:1 1497:1 1503:1 1508:1 1537:1 1563:1 1567:1 1591:1 1690:1 1701:1 1731:1 1760:1 1823:1 1918:1 1932:1 1943:1 1976:1 2024:1 2029:1 #
0.0044250118221682895741642127518389 1:1 2:1 3:1 4:1 5:1 6:1 7:1 8:1 9:1 11:1 12:1 13:1 14:1 15:1 16:1 17:1 18:1 19:1 20:1 21:1 23:1 26:1 27:1 28:1 29:1 30:1 31:1 32:1 33:1 35:1 36:1 38:1 39:1 40:1 42:1 43:1 44:1 45:1 46:1 47:1 48:1 49:1 50:1 51:1 52:1 53:1 54:1 56:1 58:1 60:1 63:1 64:1 65:1 67:1 70:1 73:1 75:1 76:1 80:1 82:1 85:1 88:1 89:1 90:1 96:1 98:1 99:1 100:1 101:1 102:1 105:1 106:1 107:1 108:1 112:1 113:1 118:1 121:1 122:1 123:1 129:1 135:1 137:1 147:1 148:1 151:1 159:1 160:1 164:1 166:1 167:1 173:1 179:1 189:1 191:1 200:1 202:1 203:1 208:1 212:1 213:1 214:1 215:1 219:1 224:1 226:1 227:1 229:1 233:1 237:1 257:1 259:1 270:1 274:1 276:1 287:1 289:1 312:1 340:1 341:1 347:1 349:1 351:1 369:1 377:1 382:1 391:1 396:1 410:1 425:1 442:1 443:1 449:1 451:1 454:1 455:1 475:1 476:1 495:1 498:1 518:1 553:1 573:1 580:1 583:1 589:1 632:1 635:1 636:1 639:1 645:1 646:1 666:1 677:1 682:1 692:1 709:1 745:1 793:1 805:1 815:1 834:1 853:1 859:1 918:1 941:1 948:1 989:1 1014:1 1098:1 1123:1 1151:1 1153:1 1155:1 1168:1 1205:1 1258:1 1267:1 1285:1 1295:1 1448:1 1461:1 1464:1 1496:1 1515:1 1537:1 1564:1 1585:1 1638:1 1673:1 1772:1 1916:1 1934:1 2011:1 2014:1 2018:1 2033:1 #
0.001870103787722942993709818182424 1:1 2:1 3:1 4:1 5:1 6:1 7:1 8:1 9:1 10:1 11:1 12:1 13:1 14:1 15:1 16:1 17:1 18:1 19:1 21:1 22:1 23:1 24:1 25:1 26:1 28:1 30:1 31:1 32:1 33:1 34:1 35:1 37:1 38:1 39:1 40:1 41:1 42:1 43:1 45:1 46:1 47:1 48:1 50:1 51:1 52:1 53:1 54:1 56:1 57:1 58:1 59:1 61:1 62:1 64:1 65:1 66:1 68:1 69:1 70:1 71:1 72:1 73:1 76:1 77:1 78:1 79:1 82:1 83:1 88:1 91:1 92:1 93:1 94:1 95:1 98:1 99:1 101:1 102:1 103:1 104:1 105:1 106:1 107:1 108:1 109:1 111:1 114:1 116:1 117:1 121:1 123:1 124:1 126:1 128:1 130:1 132:1 134:1 137:1 138:1 139:1 143:1 145:1 150:1 155:1 157:1 162:1 165:1 167:1 170:1 171:1 174:1 185:1 186:1 189:1 203:1 204:1 205:1 206:1 209:1 210:1 213:1 215:1 217:1 221:1 223:1 226:1 227:1 232:1 236:1 237:1 240:1 242:1 243:1 244:1 250:1 251:1 255:1 256:1 258:1 259:1 262:1 267:1 268:1 269:1 278:1 280:1 281:1 282:1 285:1 291:1 293:1 294:1 296:1 299:1 300:1 303:1 315:1 323:1 325:1 330:1 337:1 342:1 347:1 350:1 365:1 368:1 369:1 371:1 373:1 379:1 382:1 398:1 407:1 410:1 416:1 427:1 428:1 431:1 433:1 438:1 439:1 441:1 446:1 452:1 455:1 462:1 465:1 470:1 477:1 489:1 495:1 519:1 524:1 530:1 532:1 540:1 545:1 549:1 553:1 559:1 564:1 584:1 597:1 604:1 611:1 616:1 628:1 629:1 636:1 656:1 666:1 674:1 678:1 680:1 690:1 703:1 708:1 710:1 716:1 737:1 743:1 745:1 750:1 767:1 784:1 808:1 819:1 822:1 825:1 838:1 841:1 853:1 859:1 872:1 893:1 907:1 912:1 966:1 970:1 989:1 990:1 1000:1 1012:1 1041:1 1045:1 1072:1 1085:1 1097:1 1098:1 1132:1 1157:1 1169:1 1174:1 1258:1 1295:1 1355:1 1359:1 1374:1 1406:1 1419:1 1486:1 1562:1 1638:1 1645:1 1649:1 1685:1 1749:1 1761:1 1871:1 1948:1 2008:1 2032:1 #
0.0044250118221682895741642127518389 1:1 2:1 3:1 4:1 5:1 6:1 7:1 8:1 9:1 10:1 11:1 13:1 14:1 15:1 16:1 17:1 18:1 19:1 20:1 21:1 22:1 23:1 24:1 25:1 26:1 27:1 28:1 29:1 30:1 31:1 32:1 33:1 34:1 35:1 36:1 37:1 38:1 40:1 41:1 44:1 45:1 46:1 47:1 48:1 50:1 51:1 52:1 54:1 55:1 56:1 57:1 58:1 63:1 64:1 65:1 66:1 67:1 69:1 70:1 72:1 74:1 79:1 80:1 84:1 86:1 89:1 90:1 93:1 95:1 96:1 97:1 98:1 105:1 108:1 110:1 113:1 114:1 118:1 121:1 122:1 124:1 130:1 132:1 135:1 137:1 140:1 142:1 143:1 144:1 146:1 147:1 150:1 151:1 156:1 157:1 162:1 171:1 174:1 179:1 182:1 189:1 191:1 194:1 195:1 199:1 201:1 202:1 209:1 212:1 218:1 222:1 223:1 228:1 230:1 233:1 239:1 241:1 257:1 261:1 267:1 272:1 275:1 279:1 280:1 294:1 299:1 301:1 305:1 310:1 312:1 316:1 318:1 354:1 361:1 365:1 372:1 384:1 395:1 403:1 421:1 435:1 445:1 447:1 457:1 463:1 466:1 474:1 477:1 479:1 486:1 521:1 531:1 534:1 543:1 560:1 568:1 576:1 600:1 614:1 645:1 652:1 666:1 695:1 715:1 733:1 749:1 753:1 761:1 769:1 779:1 790:1 795:1 855:1 861:1 862:1 890:1 895:1 900:1 901:1 910:1 966:1 976:1 982:1 1023:1 1034:1 1037:1 1040:1 1064:1 1084:1 1122:1 1151:1 1152:1 1154:1 1285:1 1363:1 1394:1 1458:1 1538:1 1546:1 1566:1 1586:1 1593:1 1655:1 1679:1 1752:1 1845:1 1850:1 1852:1 1875:1 1913:1 1939:1 #
-0.0044250118221682895741642127518389 1:1 2:1 3:1 4:1 5:1 6:1 7:1 8:1 9:1 10:1 11:1 12:1 13:1 14:1 15:1 16:1 17:1 18:1 19:1 20:1 21:1 22:1 23:1 24:1 25:1 26:1 27:1 28:1 30:1 31:1 33:1 34:1 35:1 36:1 37:1 38:1 39:1 40:1 41:1 42:1 43:1 45:1 46:1 47:1 48:1 51:1 52:1 53:1 54:1 55:1 56:1 57:1 58:1 59:1 60:1 61:1 62:1 63:1 64:1 65:1 66:1 67:1 68:1 69:1 71:1 72:1 73:1 75:1 76:1 77:1 80:1 81:1 82:1 83:1 84:1 85:1 86:1 88:1 90:1 91:1 92:1 93:1 95:1 96:1 97:1 98:1 99:1 100:1 101:1 102:1 103:1 105:1 106:1 107:1 108:1 109:1 110:1 112:1 113:1 116:1 117:1 118:1 122:1 123:1 124:1 125:1 128:1 131:1 132:1 133:1 135:1 138:1 139:1 141:1 142:1 143:1 144:1 145:1 146:1 147:1 148:1 149:1 151:1 152:1 154:1 156:1 157:1 158:1 159:1 161:1 162:1 163:1 167:1 173:1 174:1 176:1 177:1 178:1 180:1 181:1 182:1 185:1 186:1 187:1 190:1 192:1 194:1 195:1 196:1 198:1 199:1 201:1 202:1 204:1 207:1 209:1 210:1 213:1 218:1 219:1 221:1 222:1 223:1 226:1 227:1 230:1 233:1 235:1 237:1 242:1 244:1 247:1 249:1 254:1 256:1 258:1 260:1 265:1 268:1 271:1 274:1 280:1 283:1 288:1 289:1 293:1 296:1 299:1 305:1 306:1 307:1 311:1 315:1 316:1 317:1 319:1 323:1 333:1 340:1 342:1 347:1 349:1 350:1 353:1 354:1 362:1 367:1 376:1 377:1 382:1 384:1 386:1 388:1 394:1 395:1 396:1 398:1 404:1 406:1 411:1 413:1 415:1 418:1 421:1 426:1 427:1 434:1 437:1 442:1 445:1 451:1 452:1 454:1 459:1 466:1 472:1 473:1 476:1 483:1 492:1 493:1 504:1 507:1 526:1 527:1 531:1 539:1 544:1 551:1 554:1 558:1 568:1 572:1 585:1 586:1 596:1 603:1 610:1 615:1 616:1 617:1 618:1 622:1 628:1 635:1 638:1 642:1 646:1 652:1 667:1 668:1 669:1 671:1 679:1 709:1 712:1 715:1 723:1 724:1 727:1 736:1 737:1 743:1 746:1 765:1 769:1 770:1 772:1 774:1 790:1 796:1 797:1 806:1 815:1 818:1 831:1 834:1 840:1 842:1 843:1 846:1 870:1 887:1 888:1 897:1 899:1 911:1 913:1 929:1 930:1 932:1 937:1 945:1 961:1 963:1 986:1 997:1 1010:1 1011:1 1026:1 1034:1 1036:1 1061:1 1073:1 1080:1 1094:1 1109:1 1138:1 1139:1 1146:1 1149:1 1162:1 1183:1 1189:1 1196:1 1199:1 1210:1 1232:1 1282:1 1294:1 1311:1 1318:1 1330:1 1344:1 1349:1 1363:1 1365:1 1394:1 1424:1 1429:1 1446:1 1459:1 1470:1 1478:1 1494:1 1505:1 1518:1 1554:1 1559:1 1560:1 1573:1 1586:1 1597:1 1598:1 1605:1 1612:1 1623:1 1628:1 1640:1 1641:1 1666:1 1673:1 1675:1 1689:1 1690:1 1691:1 1696:1 1714:1 1736:1 1737:1 1746:1 1760:1 1774:1 1799:1 1801:1 1809:1 1812:1 1837:1 1886:1 1887:1 1941:1 1951:1 1964:1 1966:1 1973:1 2030:1 #
-0.0040108029293871184234321347616969 1:1 2:1 3:1 4:1 5:1 6:1 7:1 8:1 9:1 10:1 11:1 12:1 13:1 14:1 15:1 16:1 17:1 18:1 19:1 20:1 21:1 22:1 23:1 24:1 25:1 26:1 28:1 29:1 30:1 31:1 32:1 33:1 34:1 35:1 36:1 37:1 38:1 39:1 40:1 41:1 42:1 45:1 46:1 47:1 48:1 49:1 51:1 52:1 53:1 54:1 55:1 56:1 57:1 58:1 59:1 60:1 62:1 63:1 64:1 65:1 66:1 67:1 69:1 70:1 74:1 75:1 76:1 77:1 81:1 82:1 83:1 84:1 85:1 87:1 89:1 91:1 94:1 97:1 99:1 100:1 101:1 102:1 104:1 105:1 107:1 108:1 110:1 113:1 114:1 116:1 120:1 121:1 122:1 123:1 124:1 126:1 127:1 128:1 129:1 130:1 131:1 132:1 133:1 134:1 135:1 139:1 140:1 143:1 144:1 145:1 147:1 149:1 151:1 152:1 157:1 160:1 167:1 170:1 172:1 173:1 174:1 175:1 178:1 179:1 180:1 182:1 185:1 191:1 193:1 196:1 197:1 199:1 201:1 204:1 205:1 207:1 211:1 215:1 224:1 226:1 229:1 230:1 231:1 235:1 236:1 238:1 242:1 245:1 247:1 254:1 255:1 260:1 261:1 262:1 263:1 266:1 267:1 273:1 274:1 275:1 290:1 291:1 292:1 294:1 297:1 300:1 303:1 305:1 308:1 311:1 315:1 320:1 321:1 336:1 338:1 341:1 352:1 354:1 359:1 361:1 375:1 376:1 381:1 386:1 408:1 409:1 419:1 420:1 426:1 432:1 433:1 435:1 441:1 454:1 455:1 459:1 460:1 461:1 475:1 477:1 478:1 480:1 484:1 487:1 488:1 490:1 491:1 501:1 511:1 515:1 519:1 532:1 535:1 538:1 539:1 541:1 554:1 556:1 567:1 569:1 601:1 633:1 646:1 666:1 717:1 731:1 748:1 769:1 780:1 788:1 797:1 801:1 808:1 817:1 818:1 819:1 838:1 856:1 857:1 863:1 869:1 891:1 901:1 923:1 924:1 939:1 951:1 962:1 976:1 1007:1 1013:1 1027:1 1031:1 1038:1 1042:1 1047:1 1049:1 1052:1 1064:1 1067:1 1070:1 1071:1 1072:1 1088:1 1099:1 1114:1 1120:1 1125:1 1148:1 1163:1 1165:1 1172:1 1178:1 1185:1 1194:1 1210:1 1234:1 1239:1 1268:1 1281:1 1307:1 1326:1 1348:1 1405:1 1420:1 1429:1 1439:1 1448:1 1466:1 1484:1 1486:1 1511:1 1551:1 1569:1 1598:1 1605:1 1624:1 1629:1 1671:1 1730:1 1732:1 1783:1 1787:1 1808:1 1828:1 1837:1 1838:1 1855:1 1885:1 1932:1 1948:1 1981:1 2024:1 2032:1 #
-0.0039453992890272808827245576424048 1:1 2:1 3:1 4:1 5:1 6:1 7:1 8:1 9:1 11:1 12:1 13:1 14:1 15:1 16:1 17:1 18:1 19:1 20:1 22:1 23:1 24:1 25:1 26:1 27:1 28:1 29:1 30:1 31:1 33:1 34:1 35:1 36:1 37:1 38:1 39:1 40:1 41:1 42:1 43:1 44:1 45:1 46:1 47:1 48:1 49:1 50:1 51:1 52:1 53:1 54:1 55:1 56:1 57:1 58:1 59:1 60:1 62:1 63:1 64:1 65:1 66:1 68:1 69:1 70:1 71:1 73:1 74:1 75:1 76:1 77:1 78:1 80:1 81:1 82:1 84:1 85:1 86:1 88:1 89:1 91:1 92:1 93:1 95:1 96:1 97:1 98:1 100:1 101:1 102:1 104:1 105:1 106:1 107:1 108:1 110:1 111:1 112:1 115:1 116:1 117:1 118:1 120:1 121:1 125:1 128:1 132:1 136:1 137:1 139:1 140:1 141:1 142:1 147:1 150:1 159:1 162:1 164:1 167:1 168:1 172:1 173:1 179:1 181:1 182:1 186:1 188:1 194:1 197:1 199:1 200:1 203:1 208:1 209:1 213:1 214:1 215:1 217:1 218:1 220:1 225:1 231:1 235:1 236:1 242:1 243:1 246:1 249:1 253:1 256:1 266:1 268:1 270:1 271:1 277:1 280:1 286:1 293:1 299:1 301:1 307:1 308:1 310:1 312:1 316:1 319:1 322:1 323:1 326:1 335:1 337:1 346:1 352:1 364:1 367:1 368:1 377:1 380:1 381:1 390:1 439:1 442:1 462:1 465:1 471:1 478:1 483:1 487:1 497:1 500:1 513:1 514:1 538:1 545:1 553:1 567:1 568:1 583:1 595:1 616:1 626:1 634:1 636:1 640:1 650:1 673:1 678:1 679:1 690:1 696:1 698:1 707:1 720:1 727:1 742:1 763:1 798:1 800:1 820:1 834:1 844:1 879:1 885:1 889:1 906:1 916:1 938:1 943:1 954:1 956:1 962:1 983:1 998:1 1010:1 1017:1 1025:1 1064:1 1076:1 1103:1 1119:1 1138:1 1150:1 1175:1 1207:1 1227:1 1290:1 1293:1 1310:1 1316:1 1333:1 1354:1 1390:1 1417:1 1421:1 1432:1 1510:1 1550:1 1628:1 1662:1 1675:1 1691:1 1695:1 1718:1 1736:1 1770:1 1775:1 1789:1 1834:1 1859:1 1891:1 1934:1 1974:1 #
-0.00072473258038219972362176113378496 1:1 2:1 3:1 4:1 5:1 6:1 7:1 8:1 9:1 10:1 11:1 12:1 13:1 14:1 15:1 16:1 17:1 18:1 19:1 20:1 21:1 22:1 23:1 24:1 25:1 26:1 27:1 28:1 29:1 30:1 31:1 32:1 33:1 34:1 35:1 36:1 37:1 38:1 39:1 40:1 41:1 42:1 44:1 45:1 46:1 47:1 48:1 49:1 50:1 51:1 52:1 53:1 54:1 55:1 56:1 57:1 58:1 59:1 60:1 61:1 62:1 63:1 64:1 65:1 66:1 67:1 68:1 69:1 70:1 71:1 72:1 73:1 74:1 76:1 77:1 78:1 80:1 81:1 82:1 83:1 84:1 85:1 86:1 87:1 88:1 90:1 91:1 92:1 93:1 94:1 95:1 96:1 100:1 101:1 102:1 103:1 104:1 105:1 106:1 107:1 108:1 109:1 111:1 116:1 117:1 119:1 121:1 122:1 123:1 126:1 128:1 129:1 130:1 132:1 135:1 136:1 137:1 139:1 143:1 144:1 145:1 146:1 148:1 149:1 150:1 151:1 155:1 156:1 157:1 158:1 160:1 161:1 163:1 167:1 168:1 169:1 172:1 173:1 174:1 176:1 177:1 181:1 182:1 183:1 184:1 185:1 189:1 190:1 191:1 194:1 198:1 199:1 202:1 203:1 204:1 205:1 210:1 211:1 215:1 218:1 221:1 227:1 228:1 229:1 230:1 231:1 234:1 240:1 241:1 244:1 245:1 246:1 248:1 249:1 251:1 252:1 262:1 268:1 274:1 276:1 280:1 288:1 290:1 292:1 293:1 294:1 295:1 301:1 305:1 310:1 315:1 319:1 321:1 323:1 328:1 332:1 335:1 340:1 341:1 344:1 348:1 353:1 355:1 357:1 358:1 360:1 362:1 364:1 367:1 369:1 377:1 383:1 387:1 388:1 389:1 395:1 403:1 406:1 410:1 416:1 417:1 419:1 423:1 425:1 426:1 431:1 441:1 443:1 449:1 462:1 465:1 473:1 477:1 478:1 486:1 487:1 488:1 493:1 494:1 495:1 499:1 500:1 505:1 510:1 532:1 534:1 546:1 547:1 550:1 552:1 554:1 557:1 558:1 560:1 566:1 568:1 571:1 572:1 579:1 581:1 583:1 590:1 595:1 599:1 610:1 616:1 619:1 624:1 626:1 634:1 636:1 649:1 669:1 672:1 678:1 684:1 692:1 698:1 700:1 713:1 720:1 732:1 741:1 757:1 761:1 762:1 763:1 767:1 781:1 793:1 796:1 801:1 803:1 811:1 816:1 817:1 819:1 826:1 836:1 842:1 843:1 845:1 848:1 849:1 864:1 867:1 869:1 871:1 880:1 889:1 897:1 902:1 930:1 944:1 946:1 954:1 978:1 999:1 1001:1 1002:1 1007:1 1010:1 1014:1 1019:1 1025:1 1028:1 1035:1 1046:1 1049:1 1055:1 1058:1 1061:1 1066:1 1072:1 1090:1 1108:1 1137:1 1138:1 1139:1 1170:1 1175:1 1194:1 1199:1 1251:1 1262:1 1269:1 1271:1 1272:1 1285:1 1313:1 1320:1 1337:1 1345:1 1355:1 1375:1 1379:1 1393:1 1422:1 1437:1 1440:1 1456:1 1503:1 1525:1 1552:1 1556:1 1558:1 1560:1 1579:1 1601:1 1613:1 1661:1 1666:1 1672:1 1677:1 1703:1 1721:1 1722:1 1729:1 1744:1 1748:1 1820:1 1851:1 1907:1 1919:1 1923:1 1934:1 2032:1 2041:1 #
-0.0043676609326963817050981653267172 1:1 2:1 3:1 4:1 5:1 6:1 7:1 8:1 9:1 10:1 11:1 12:1 13:1 14:1 15:1 16:1 17:1 18:1 19:1 20:1 21:1 22:1 23:1 24:1 25:1 26:1 27:1 28:1 29:1 30:1 31:1 32:1 33:1 34:1 35:1 36:1 37:1 38:1 39:1 40:1 41:1 42:1 43:1 44:1 45:1 46:1 47:1 48:1 51:1 52:1 53:1 54:1 55:1 56:1 58:1 59:1 60:1 61:1 63:1 65:1 67:1 70:1 71:1 72:1 73:1 74:1 76:1 78:1 79:1 80:1 83:1 85:1 87:1 89:1 90:1 91:1 94:1 95:1 96:1 97:1 100:1 102:1 107:1 108:1 111:1 113:1 114:1 115:1 118:1 119:1 121:1 123:1 124:1 125:1 129:1 130:1 132:1 133:1 134:1 136:1 137:1 138:1 141:1 142:1 143:1 144:1 145:1 146:1 147:1 150:1 151:1 157:1 159:1 162:1 163:1 167:1 169:1 171:1 172:1 179:1 181:1 182:1 184:1 185:1 189:1 190:1 193:1 194:1 195:1 197:1 200:1 201:1 204:1 205:1 207:1 214:1 215:1 217:1 220:1 223:1 226:1 234:1 236:1 237:1 238:1 239:1 242:1 255:1 261:1 267:1 272:1 275:1 276:1 278:1 285:1 287:1 290:1 299:1 303:1 312:1 316:1 326:1 329:1 333:1 335:1 337:1 338:1 345:1 351:1 355:1 359:1 360:1 362:1 371:1 374:1 375:1 378:1 381:1 384:1 389:1 393:1 406:1 408:1 412:1 414:1 420:1 435:1 448:1 452:1 458:1 469:1 476:1 478:1 483:1 487:1 488:1 494:1 508:1 511:1 513:1 516:1 519:1 522:1 523:1 525:1 555:1 557:1 571:1 589:1 590:1 591:1 604:1 607:1 611:1 632:1 638:1 671:1 697:1 703:1 717:1 723:1 747:1 785:1 796:1 798:1 809:1 820:1 828:1 856:1 870:1 881:1 963:1 971:1 988:1 992:1 1004:1 1010:1 1035:1 1063:1 1081:1 1125:1 1139:1 1162:1 1173:1 1192:1 1207:1 1236:1 1272:1 1298:1 1345:1 1352:1 1355:1 1369:1 1439:1 1490:1 1538:1 1573:1 1595:1 1618:1 1650:1 1654:1 1677:1 1707:1 1748:1 1773:1 1776:1 1800:1 1802:1 1807:1 1835:1 1870:1 1883:1 1900:1 1905:1 1908:1 1960:1 1973:1 1978:1 1995:1 2038:1 #
0.0003995076398296714586047539974345 1:1 2:1 3:1 4:1 5:1 6:1 7:1 8:1 9:1 11:1 12:1 13:1 14:1 15:1 16:1 17:1 18:1 19:1 20:1 22:1 24:1 25:1 26:1 29:1 30:1 32:1 34:1 35:1 39:1 40:1 41:1 42:1 43:1 44:1 45:1 47:1 48:1 49:1 51:1 53:1 54:1 55:1 56:1 57:1 58:1 65:1 67:1 69:1 72:1 73:1 75:1 81:1 83:1 92:1 96:1 101:1 103:1 105:1 117:1 121:1 123:1 125:1 126:1 127:1 128:1 132:1 134:1 149:1 153:1 161:1 164:1 171:1 175:1 177:1 180:1 188:1 198:1 200:1 222:1 226:1 242:1 255:1 262:1 274:1 289:1 290:1 291:1 301:1 303:1 307:1 308:1 309:1 321:1 332:1 337:1 378:1 381:1 385:1 390:1 400:1 439:1 443:1 459:1 461:1 535:1 566:1 569:1 613:1 635:1 645:1 664:1 740:1 744:1 747:1 755:1 760:1 811:1 829:1 838:1 850:1 856:1 866:1 897:1 947:1 996:1 1072:1 1090:1 1102:1 1150:1 1162:1 1208:1 1247:1 1273:1 1292:1 1322:1 1403:1 1445:1 1455:1 1495:1 1534:1 1538:1 1562:1 1564:1 1644:1 1876:1 1980:1 2017:1 #
0.0044250118221682895741642127518389 1:1 2:1 3:1 4:1 5:1 6:1 7:1 8:1 9:1 10:1 11:1 12:1 13:1 14:1 15:1 16:1 17:1 18:1 19:1 20:1 21:1 23:1 25:1 26:1 27:1 28:1 29:1 30:1 31:1 32:1 36:1 37:1 38:1 39:1 40:1 41:1 42:1 46:1 47:1 49:1 50:1 51:1 53:1 54:1 55:1 56:1 57:1 58:1 59:1 60:1 62:1 66:1 67:1 68:1 71:1 75:1 77:1 78:1 80:1 81:1 83:1 85:1 86:1 87:1 88:1 89:1 95:1 97:1 98:1 99:1 104:1 106:1 107:1 109:1 111:1 113:1 114:1 117:1 118:1 121:1 123:1 125:1 131:1 132:1 134:1 135:1 137:1 145:1 150:1 151:1 152:1 154:1 155:1 157:1 158:1 159:1 164:1 167:1 173:1 174:1 182:1 194:1 198:1 205:1 207:1 209:1 214:1 218:1 221:1 222:1 233:1 245:1 266:1 271:1 294:1 303:1 306:1 349:1 368:1 379:1 385:1 398:1 400:1 411:1 413:1 415:1 424:1 432:1 437:1 450:1 472:1 498:1 505:1 507:1 510:1 516:1 518:1 538:1 548:1 561:1 598:1 599:1 601:1 623:1 645:1 684:1 705:1 723:1 735:1 736:1 785:1 813:1 831:1 909:1 920:1 922:1 980:1 983:1 987:1 1000:1 1030:1 1037:1 1046:1 1053:1 1068:1 1071:1 1138:1 1157:1 1203:1 1216:1 1218:1 1233:1 1288:1 1299:1 1323:1 1355:1 1388:1 1440:1 1467:1 1488:1 1495:1 1533:1 1663:1 1671:1 1750:1 1758:1 1781:1 1840:1 1912:1 1933:1 1944:1 1958:1 #
0.00074251449624379074233859743259245 1:1 2:1 3:1 4:1 5:1 6:1 7:1 8:1 9:1 10:1 11:1 12:1 13:1 14:1 15:1 16:1 17:1 18:1 19:1 20:1 21:1 22:1 23:1 24:1 25:1 27:1 29:1 30:1 32:1 33:1 34:1 35:1 36:1 37:1 39:1 40:1 41:1 42:1 44:1 47:1 49:1 50:1 53:1 54:1 55:1 57:1 58:1 59:1 60:1 61:1 62:1 64:1 68:1 69:1 71:1 72:1 73:1 75:1 76:1 77:1 78:1 79:1 80:1 81:1 83:1 84:1 85:1 88:1 93:1 95:1 97:1 98:1 99:1 100:1 101:1 104:1 106:1 107:1 109:1 110:1 111:1 114:1 115:1 119:1 121:1 124:1 125:1 126:1 127:1 130:1 132:1 135:1 139:1 140:1 145:1 148:1 151:1 152:1 153:1 154:1 155:1 156:1 157:1 160:1 164:1 170:1 171:1 173:1 174:1 175:1 176:1 177:1 188:1 192:1 194:1 195:1 196:1 203:1 211:1 215:1 216:1 217:1 219:1 223:1 225:1 226:1 231:1 234:1 250:1 252:1 253:1 254:1 256:1 260:1 263:1 265:1 267:1 269:1 270:1 277:1 289:1 309:1 312:1 316:1 322:1 323:1 338:1 356:1 362:1 370:1 378:1 385:1 386:1 404:1 412:1 425:1 432:1 442:1 451:1 452:1 461:1 464:1 466:1 467:1 470:1 498:1 522:1 542:1 588:1 589:1 590:1 594:1 595:1 602:1 621:1 626:1 633:1 651:1 657:1 668:1 671:1 684:1 688:1 705:1 708:1 709:1 711:1 750:1 774:1 800:1 802:1 808:1 818:1 823:1 828:1 850:1 879:1 892:1 898:1 936:1 942:1 943:1 949:1 968:1 988:1 992:1 1008:1 1028:1 1046:1 1069:1 1131:1 1177:1 1183:1 1214:1 1219:1 1279:1 1280:1 1297:1 1320:1 1339:1 1395:1 1401:1 1456:1 1459:1 1633:1 1692:1 1779:1 1805:1 1825:1 1849:1 1901:1 1957:1 2025:1 #
0.0044250118221682895741642127518389 1:1 2:1 3:1 4:1 5:1 6:1 7:1 8:1 9:1 10:1 11:1 12:1 13:1 14:1 15:1 16:1 17:1 18:1 19:1 20:1 21:1 23:1 24:1 25:1 26:1 27:1 28:1 30:1 31:1 32:1 33:1 34:1 35:1 37:1 38:1 39:1 40:1 41:1 42:1 43:1 45:1 46:1 47:1 49:1 50:1 51:1 56:1 57:1 59:1 60:1 61:1 63:1 67:1 68:1 70:1 71:1 72:1 76:1 78:1 81:1 83:1 85:1 86:1 88:1 89:1 91:1 93:1 95:1 101:1 102:1 104:1 105:1 108:1 111:1 113:1 116:1 121:1 125:1 137:1 140:1 142:1 143:1 144:1 145:1 147:1 148:1 154:1 155:1 156:1 158:1 161:1 164:1 167:1 168:1 171:1 172:1 173:1 177:1 180:1 182:1 189:1 211:1 215:1 221:1 223:1 225:1 232:1 240:1 242:1 247:1 251:1 253:1 254:1 276:1 286:1 287:1 294:1 296:1 302:1 306:1 308:1 313:1 322:1 329:1 330:1 331:1 335:1 340:1 352:1 362:1 364:1 367:1 422:1 424:1 425:1 429:1 439:1 446:1 447:1 451:1 456:1 460:1 461:1 464:1 485:1 486:1 487:1 495:1 505:1 524:1 533:1 541:1 556:1 579:1 589:1 627:1 654:1 673:1 710:1 727:1 731:1 738:1 739:1 742:1 754:1 763:1 766:1 783:1 794:1 796:1 798:1 860:1 868:1 887:1 899:1 910:1 994:1 1054:1 1068:1 1093:1 1098:1 1104:1 1117:1 1120:1 1149:1 1153:1 1157:1 1172:1 1198:1 1201:1 1284:1 1302:1 1320:1 1356:1 1377:1 1400:1 1408:1 1421:1 1462:1 1472:1 1509:1 1529:1 1540:1 1548:1 1559:1 1584:1 1587:1 1632:1 1639:1 1655:1 1671:1 1708:1 1761:1 1799:1 1831:1 1922:1 1982:1 2038:1 #
0.0044250118221682895741642127518389 1:1 2:1 3:1 4:1 5:1 6:1 7:1 8:1 9:1 10:1 11:1 12:1 13:1 14:1 15:1 16:1 17:1 18:1 19:1 22:1 23:1 24:1 25:1 26:1 28:1 30:1 35:1 38:1 39:1 40:1 42:1 43:1 44:1 45:1 46:1 47:1 50:1 51:1 53:1 54:1 55:1 56:1 57:1 58:1 59:1 60:1 66:1 67:1 68:1 72:1 73:1 74:1 77:1 80:1 83:1 84:1 91:1 92:1 95:1 97:1 98:1 103:1 104:1 107:1 119:1 126:1 128:1 139:1 149:1 153:1 160:1 176:1 177:1 178:1 199:1 200:1 203:1 205:1 217:1 229:1 231:1 236:1 237:1 242:1 260:1 301:1 306:1 310:1 312:1 315:1 323:1 333:1 352:1 359:1 381:1 382:1 385:1 387:1 399:1 400:1 411:1 427:1 430:1 440:1 451:1 478:1 485:1 503:1 534:1 535:1 566:1 590:1 602:1 632:1 693:1 714:1 727:1 734:1 770:1 782:1 826:1 856:1 869:1 874:1 1014:1 1050:1 1105:1 1126:1 1162:1 1534:1 1559:1 1630:1 1686:1 1798:1 1947:1 2013:1 #
-0.0044250118221682895741642127518389 3:1 5:1 7:1 8:1 12:1 18:1 20:1 21:1 25:1 33:1 52:1 96:1 161:1 225:1 655:1 675:1 #
-0.0044250118221682895741642127518389 1:1 2:1 3:1 4:1 5:1 6:1 7:1 8:1 11:1 12:1 14:1 15:1 16:1 17:1 18:1 19:1 20:1 21:1 22:1 24:1 25:1 28:1 30:1 31:1 35:1 36:1 42:1 47:1 53:1 64:1 68:1 80:1 82:1 83:1 84:1 87:1 90:1 94:1 99:1 100:1 101:1 112:1 121:1 141:1 145:1 148:1 154:1 169:1 180:1 190:1 196:1 199:1 201:1 222:1 244:1 248:1 296:1 302:1 315:1 339:1 375:1 378:1 385:1 498:1 511:1 520:1 531:1 556:1 585:1 615:1 648:1 653:1 679:1 681:1 713:1 775:1 830:1 883:1 991:1 1009:1 1063:1 1065:1 1140:1 1167:1 1176:1 1315:1 1475:1 1749:1 1779:1 1847:1 2022:1 2040:1 #
-0.0044250118221682895741642127518389 2:1 3:1 4:1 6:1 8:1 9:1 10:1 11:1 13:1 25:1 26:1 33:1 38:1 42:1 55:1 57:1 61:1 70:1 77:1 79:1 139:1 156:1 183:1 184:1 214:1 296:1 309:1 345:1 375:1 414:1 460:1 480:1 519:1 555:1 577:1 615:1 627:1 850:1 1122:1 1127:1 1196:1 1235:1 1481:1 1872:1 #
-0.0044250118221682895741642127518389 1:1 2:1 3:1 4:1 5:1 6:1 7:1 8:1 9:1 10:1 11:1 12:1 14:1 15:1 17:1 18:1 19:1 20:1 25:1 27:1 35:1 36:1 38:1 40:1 42:1 44:1 47:1 50:1 52:1 56:1 58:1 62:1 71:1 76:1 77:1 78:1 102:1 112:1 114:1 117:1 123:1 133:1 135:1 140:1 148:1 171:1 174:1 178:1 180:1 201:1 250:1 278:1 280:1 294:1 331:1 413:1 464:1 466:1 472:1 479:1 560:1 620:1 685:1 687:1 731:1 740:1 744:1 768:1 862:1 869:1 896:1 1109:1 1125:1 1274:1 1385:1 1486:1 1522:1 1758:1 1945:1 #
-0.0044250118221682895741642127518389 1:1 2:1 3:1 4:1 5:1 6:1 7:1 8:1 9:1 10:1 11:1 13:1 14:1 15:1 16:1 17:1 18:1 19:1 20:1 21:1 22:1 23:1 25:1 27:1 28:1 29:1 30:1 32:1 34:1 37:1 38:1 39:1 40:1 46:1 47:1 50:1 52:1 53:1 57:1 59:1 60:1 62:1 70:1 72:1 75:1 77:1 78:1 81:1 82:1 93:1 98:1 109:1 113:1 114:1 122:1 127:1 136:1 149:1 163:1 171:1 192:1 195:1 217:1 219:1 221:1 223:1 237:1 259:1 265:1 266:1 311:1 331:1 340:1 379:1 399:1 429:1 456:1 466:1 504:1 524:1 526:1 555:1 556:1 581:1 584:1 632:1 638:1 662:1 681:1 717:1 727:1 734:1 755:1 772:1 786:1 945:1 982:1 1050:1 1099:1 1193:1 1196:1 1212:1 1309:1 1400:1 1452:1 1508:1 1538:1 1553:1 1661:1 1742:1 1748:1 1778:1 1947:1 2005:1 #
0.0044250118221682895741642127518389 1:1 2:1 3:1 4:1 5:1 6:1 7:1 8:1 9:1 11:1 12:1 13:1 14:1 15:1 16:1 17:1 18:1 19:1 21:1 22:1 24:1 25:1 26:1 28:1 29:1 30:1 31:1 33:1 34:1 35:1 36:1 37:1 38:1 39:1 40:1 41:1 42:1 43:1 44:1 45:1 46:1 51:1 52:1 53:1 55:1 56:1 57:1 59:1 60:1 62:1 65:1 66:1 67:1 68:1 69:1 70:1 72:1 75:1 76:1 78:1 80:1 81:1 83:1 84:1 85:1 88:1 92:1 93:1 94:1 96:1 99:1 101:1 103:1 104:1 107:1 109:1 112:1 113:1 114:1 116:1 117:1 119:1 122:1 128:1 129:1 130:1 133:1 135:1 137:1 138:1 148:1 156:1 159:1 161:1 162:1 164:1 165:1 166:1 171:1 173:1 183:1 189:1 199:1 205:1 212:1 214:1 218:1 222:1 223:1 230:1 231:1 235:1 240:1 254:1 261:1 262:1 269:1 272:1 277:1 278:1 279:1 281:1 287:1 289:1 290:1 295:1 296:1 306:1 312:1 325:1 328:1 340:1 346:1 367:1 377:1 378:1 382:1 393:1 425:1 438:1 439:1 451:1 459:1 462:1 474:1 487:1 494:1 497:1 504:1 509:1 513:1 519:1 532:1 565:1 569:1 571:1 583:1 587:1 597:1 632:1 635:1 640:1 655:1 698:1 703:1 710:1 779:1 794:1 798:1 843:1 860:1 864:1 872:1 874:1 878:1 881:1 898:1 947:1 956:1 958:1 960:1 962:1 988:1 998:1 1052:1 1065:1 1091:1 1093:1 1134:1 1150:1 1170:1 1212:1 1326:1 1329:1 1340:1 1367:1 1404:1 1537:1 1540:1 1558:1 1567:1 1602:1 1633:1 1660:1 1720:1 1799:1 1814:1 1818:1 1841:1 1893:1 #
0.0029329064785735096954066847274589 1:1 2:1 3:1 4:1 5:1 6:1 7:1 8:1 9:1 10:1 11:1 12:1 13:1 14:1 15:1 16:1 17:1 18:1 19:1 20:1 21:1 22:1 23:1 24:1 25:1 26:1 27:1 28:1 29:1 30:1 31:1 32:1 33:1 34:1 35:1 36:1 37:1 38:1 39:1 40:1 41:1 42:1 43:1 45:1 46:1 47:1 48:1 49:1 50:1 51:1 52:1 53:1 55:1 56:1 57:1 58:1 59:1 60:1 62:1 63:1 66:1 67:1 68:1 69:1 70:1 71:1 72:1 73:1 75:1 76:1 77:1 79:1 80:1 81:1 82:1 83:1 84:1 85:1 87:1 88:1 89:1 90:1 91:1 92:1 93:1 94:1 98:1 99:1 100:1 102:1 103:1 104:1 105:1 106:1 107:1 110:1 112:1 114:1 115:1 116:1 117:1 118:1 119:1 121:1 122:1 123:1 124:1 125:1 126:1 128:1 129:1 130:1 131:1 132:1 133:1 136:1 137:1 138:1 140:1 143:1 144:1 146:1 147:1 148:1 149:1 153:1 154:1 157:1 160:1 161:1 163:1 170:1 172:1 175:1 176:1 180:1 181:1 182:1 183:1 186:1 187:1 188:1 189:1 191:1 195:1 196:1 197:1 199:1 200:1 202:1 204:1 207:1 210:1 212:1 213:1 215:1 217:1 220:1 223:1 225:1 228:1 231:1 234:1 243:1 246:1 247:1 251:1 258:1 260:1 263:1 264:1 265:1 267:1 269:1 270:1 273:1 274:1 275:1 279:1 280:1 289:1 290:1 294:1 295:1 296:1 297:1 298:1 302:1 308:1 309:1 310:1 313:1 317:1 318:1 324:1 326:1 327:1 328:1 330:1 332:1 335:1 337:1 352:1 358:1 359:1 361:1 363:1 375:1 378:1 382:1 385:1 386:1 389:1 392:1 393:1 394:1 395:1 408:1 416:1 422:1 426:1 429:1 431:1 432:1 434:1 435:1 442:1 446:1 448:1 453:1 456:1 460:1 462:1 465:1 474:1 475:1 477:1 493:1 494:1 497:1 500:1 519:1 524:1 535:1 538:1 540:1 556:1 559:1 567:1 570:1 579:1 615:1 627:1 628:1 634:1 644:1 651:1 656:1 659:1 663:1 674:1 676:1 682:1 690:1 691:1 696:1 697:1 699:1 700:1 703:1 704:1 709:1 717:1 723:1 729:1 730:1 744:1 754:1 757:1 761:1 765:1 775:1 780:1 783:1 793:1 803:1 804:1 811:1 820:1 836:1 837:1 840:1 856:1 857:1 858:1 889:1 897:1 902:1 907:1 912:1 930:1 942:1 947:1 949:1 954:1 961:1 973:1 983:1 987:1 1001:1 1019:1 1022:1 1026:1 1036:1 1038:1 1039:1 1046:1 1049:1 1060:1 1072:1 1077:1 1095:1 1097:1 1099:1 1109:1 1110:1 1118:1 1124:1 1125:1 1127:1 1194:1 1215:1 1225:1 1226:1 1257:1 1261:1 1263:1 1271:1 1276:1 1282:1 1321:1 1362:1 1372:1 1383:1 1387:1 1390:1 1393:1 1397:1 1410:1 1418:1 1424:1 1440:1 1484:1 1487:1 1508:1 1514:1 1540:1 1560:1 1568:1 1573:1 1621:1 1627:1 1631:1 1642:1 1679:1 1712:1 1713:1 1738:1 1769:1 1799:1 1831:1 1868:1 1882:1 1890:1 1920:1 1943:1 1966:1 1976:1 2011:1 2017:1 2032:1 #
0.0044250118221682895741642127518389 1:1 2:1 3:1 4:1 5:1 6:1 7:1 8:1 9:1 10:1 11:1 12:1 13:1 14:1 15:1 16:1 17:1 18:1 19:1 20:1 21:1 23:1 25:1 26:1 27:1 28:1 29:1 30:1 31:1 32:1 33:1 34:1 35:1 36:1 37:1 38:1 39:1 40:1 41:1 42:1 43:1 44:1 45:1 46:1 47:1 48:1 49:1 50:1 51:1 52:1 53:1 54:1 55:1 56:1 57:1 58:1 59:1 61:1 62:1 63:1 64:1 65:1 67:1 68:1 69:1 70:1 71:1 74:1 75:1 77:1 78:1 79:1 80:1 83:1 85:1 88:1 89:1 91:1 92:1 93:1 95:1 96:1 97:1 98:1 100:1 101:1 102:1 108:1 109:1 110:1 111:1 112:1 115:1 118:1 123:1 128:1 129:1 132:1 134:1 135:1 136:1 137:1 141:1 145:1 150:1 154:1 155:1 157:1 158:1 159:1 160:1 161:1 167:1 176:1 180:1 188:1 189:1 192:1 193:1 199:1 209:1 210:1 217:1 220:1 227:1 235:1 241:1 243:1 245:1 248:1 250:1 251:1 254:1 257:1 260:1 271:1 276:1 278:1 279:1 282:1 292:1 298:1 301:1 306:1 310:1 317:1 320:1 321:1 329:1 337:1 341:1 342:1 343:1 344:1 348:1 356:1 359:1 360:1 361:1 370:1 374:1 376:1 378:1 382:1 392:1 398:1 407:1 415:1 453:1 455:1 463:1 493:1 500:1 522:1 566:1 574:1 607:1 608:1 627:1 633:1 639:1 658:1 661:1 665:1 672:1 679:1 684:1 707:1 712:1 714:1 719:1 723:1 724:1 726:1 733:1 749:1 751:1 761:1 762:1 763:1 799:1 804:1 846:1 873:1 887:1 903:1 917:1 925:1 942:1 947:1 949:1 998:1 1013:1 1044:1 1088:1 1107:1 1159:1 1163:1 1178:1 1179:1 1189:1 1191:1 1213:1 1264:1 1267:1 1286:1 1293:1 1298:1 1359:1 1390:1 1402:1 1449:1 1481:1 1500:1 1508:1 1515:1 1566:1 1586:1 1623:1 1627:1 1661:1 1689:1 1729:1 1737:1 1758:1 1765:1 1803:1 1813:1 1823:1 1829:1 1848:1 1882:1 1936:1 2001:1 #
0.0044250118221682895741642127518389 1:1 2:1 3:1 4:1 5:1 6:1 7:1 8:1 9:1 10:1 11:1 12:1 13:1 14:1 15:1 16:1 17:1 18:1 19:1 20:1 21:1 22:1 23:1 24:1 25:1 26:1 27:1 28:1 29:1 30:1 31:1 33:1 34:1 35:1 36:1 37:1 38:1 39:1 40:1 41:1 42:1 44:1 45:1 46:1 47:1 48:1 49:1 50:1 51:1 52:1 53:1 54:1 55:1 56:1 57:1 58:1 59:1 60:1 62:1 63:1 64:1 65:1 66:1 67:1 68:1 69:1 70:1 71:1 72:1 73:1 74:1 75:1 76:1 78:1 80:1 81:1 83:1 84:1 85:1 86:1 87:1 90:1 91:1 92:1 94:1 96:1 97:1 99:1 100:1 101:1 102:1 103:1 104:1 105:1 106:1 109:1 111:1 112:1 116:1 117:1 119:1 121:1 124:1 125:1 126:1 128:1 129:1 131:1 132:1 133:1 134:1 137:1 138:1 139:1 141:1 144:1 145:1 147:1 148:1 149:1 153:1 157:1 160:1 162:1 163:1 165:1 167:1 168:1 170:1 172:1 173:1 174:1 176:1 177:1 178:1 187:1 188:1 191:1 193:1 195:1 196:1 198:1 200:1 201:1 210:1 213:1 214:1 217:1 226:1 227:1 228:1 229:1 230:1 232:1 234:1 237:1 239:1 241:1 242:1 244:1 248:1 249:1 250:1 251:1 254:1 257:1 260:1 262:1 264:1 265:1 267:1 268:1 271:1 273:1 275:1 276:1 277:1 281:1 282:1 283:1 284:1 290:1 297:1 299:1 303:1 305:1 306:1 307:1 308:1 310:1 315:1 316:1 319:1 321:1 322:1 323:1 325:1 328:1 331:1 332:1 334:1 340:1 341:1 346:1 349:1 359:1 361:1 365:1 373:1 378:1 386:1 388:1 395:1 396:1 398:1 405:1 407:1 410:1 411:1 415:1 422:1 432:1 433:1 436:1 439:1 441:1 442:1 443:1 445:1 450:1 454:1 457:1 462:1 465:1 467:1 468:1 492:1 494:1 498:1 502:1 509:1 511:1 516:1 522:1 528:1 534:1 535:1 559:1 567:1 569:1 571:1 575:1 584:1 610:1 617:1 623:1 635:1 636:1 641:1 643:1 649:1 671:1 683:1 690:1 701:1 743:1 755:1 760:1 783:1 791:1 806:1 808:1 816:1 819:1 835:1 845:1 855:1 869:1 873:1 878:1 888:1 889:1 896:1 902:1 913:1 920:1 927:1 929:1 934:1 938:1 956:1 961:1 963:1 988:1 999:1 1004:1 1011:1 1014:1 1019:1 1029:1 1044:1 1052:1 1056:1 1064:1 1070:1 1094:1 1099:1 1114:1 1143:1 1146:1 1169:1 1176:1 1190:1 1210:1 1228:1 1251:1 1252:1 1273:1 1277:1 1289:1 1303:1 1327:1 1330:1 1352:1 1363:1 1406:1 1409:1 1413:1 1415:1 1416:1 1425:1 1455:1 1476:1 1494:1 1499:1 1537:1 1544:1 1545:1 1575:1 1612:1 1629:1 1645:1 1665:1 1693:1 1712:1 1723:1 1728:1 1749:1 1771:1 1780:1 1789:1 1809:1 1812:1 1834:1 1844:1 1847:1 1848:1 1899:1 1929:1 1934:1 1938:1 1960:1 1965:1 1971:1 1976:1 1988:1 2020:1 #
0.0044250118221682895741642127518389 1:1 2:1 3:1 4:1 5:1 6:1 7:1 8:1 9:1 11:1 12:1 13:1 16:1 17:1 18:1 19:1 21:1 22:1 23:1 24:1 25:1 26:1 27:1 28:1 29:1 30:1 31:1 33:1 34:1 35:1 36:1 37:1 38:1 40:1 41:1 42:1 43:1 45:1 47:1 48:1 49:1 52:1 57:1 58:1 59:1 60:1 61:1 62:1 63:1 66:1 67:1 68:1 69:1 70:1 71:1 72:1 73:1 78:1 80:1 81:1 82:1 83:1 84:1 85:1 86:1 91:1 92:1 95:1 96:1 97:1 98:1 99:1 100:1 103:1 105:1 107:1 108:1 111:1 112:1 117:1 119:1 121:1 122:1 126:1 128:1 130:1 138:1 141:1 143:1 146:1 155:1 157:1 158:1 160:1 162:1 167:1 168:1 171:1 175:1 176:1 178:1 182:1 183:1 191:1 196:1 200:1 211:1 213:1 216:1 218:1 223:1 232:1 234:1 237:1 246:1 248:1 252:1 254:1 259:1 266:1 268:1 269:1 280:1 281:1 286:1 296:1 304:1 305:1 306:1 319:1 328:1 331:1 332:1 334:1 345:1 349:1 351:1 364:1 371:1 375:1 379:1 385:1 389:1 390:1 397:1 403:1 404:1 406:1 410:1 416:1 423:1 428:1 450:1 453:1 475:1 488:1 495:1 498:1 502:1 506:1 514:1 517:1 524:1 534:1 536:1 548:1 552:1 556:1 558:1 576:1 597:1 616:1 636:1 637:1 638:1 658:1 670:1 679:1 683:1 686:1 728:1 745:1 748:1 800:1 805:1 810:1 838:1 853:1 876:1 878:1 903:1 956:1 970:1 998:1 1050:1 1052:1 1062:1 1068:1 1078:1 1084:1 1118:1 1124:1 1144:1 1153:1 1179:1 1180:1 1185:1 1257:1 1264:1 1307:1 1316:1 1336:1 1348:1 1377:1 1442:1 1464:1 1479:1 1521:1 1598:1 1710:1 1744:1 1747:1 1780:1 1790:1 1796:1 1884:1 1919:1 1941:1 #
-0.002950537923347265004819783840162 1:1 2:1 3:1 4:1 5:1 6:1 7:1 8:1 9:1 10:1 11:1 12:1 13:1 14:1 15:1 16:1 17:1 18:1 19:1 20:1 21:1 22:1 23:1 24:1 25:1 26:1 27:1 28:1 29:1 30:1 31:1 32:1 33:1 34:1 35:1 36:1 37:1 38:1 39:1 40:1 41:1 42:1 43:1 44:1 45:1 46:1 47:1 48:1 49:1 50:1 51:1 52:1 53:1 54:1 55:1 56:1 57:1 58:1 59:1 60:1 61:1 62:1 63:1 64:1 65:1 66:1 67:1 68:1 70:1 71:1 72:1 73:1 74:1 75:1 76:1 77:1 78:1 79:1 80:1 81:1 83:1 84:1 87:1 88:1 89:1 90:1 91:1 93:1 94:1 96:1 97:1 98:1 99:1 100:1 101:1 102:1 103:1 104:1 105:1 106:1 107:1 108:1 109:1 111:1 112:1 113:1 114:1 115:1 117:1 118:1 119:1 120:1 121:1 122:1 123:1 124:1 125:1 126:1 127:1 128:1 130:1 132:1 133:1 135:1 136:1 137:1 138:1 140:1 141:1 142:1 143:1 145:1 146:1 147:1 148:1 149:1 150:1 151:1 152:1 155:1 156:1 158:1 159:1 160:1 162:1 163:1 166:1 168:1 169:1 172:1 174:1 176:1 177:1 178:1 180:1 181:1 182:1 186:1 189:1 192:1 193:1 194:1 195:1 197:1 199:1 200:1 201:1 203:1 204:1 205:1 206:1 207:1 208:1 210:1 215:1 216:1 219:1 220:1 222:1 223:1 225:1 226:1 227:1 233:1 234:1 236:1 238:1 241:1 243:1 244:1 245:1 247:1 248:1 249:1 251:1 252:1 253:1 254:1 256:1 261:1 264:1 267:1 268:1 269:1 273:1 274:1 275:1 276:1 277:1 282:1 283:1 284:1 291:1 292:1 294:1 295:1 297:1 298:1 301:1 302:1 303:1 305:1 306:1 312:1 313:1 314:1 318:1 321:1 324:1 325:1 327:1 328:1 330:1 331:1 333:1 336:1 338:1 340:1 343:1 344:1 345:1 355:1 357:1 361:1 368:1 372:1 374:1 375:1 379:1 382:1 383:1 384:1 389:1 392:1 399:1 401:1 402:1 403:1 405:1 408:1 409:1 415:1 416:1 417:1 433:1 435:1 437:1 439:1 440:1 441:1 442:1 445:1 446:1 447:1 448:1 449:1 450:1 462:1 472:1 474:1 476:1 478:1 479:1 482:1 487:1 489:1 495:1 501:1 504:1 508:1 510:1 513:1 521:1 522:1 530:1 531:1 535:1 539:1 540:1 541:1 542:1 543:1 554:1 555:1 566:1 568:1 569:1 577:1 578:1 580:1 582:1 584:1 586:1 596:1 599:1 600:1 615:1 626:1 637:1 639:1 646:1 648:1 649:1 650:1 652:1 653:1 658:1 659:1 664:1 672:1 673:1 679:1 684:1 693:1 696:1 698:1 702:1 703:1 707:1 714:1 718:1 723:1 725:1 732:1 741:1 753:1 754:1 755:1 756:1 761:1 770:1 771:1 775:1 776:1 778:1 780:1 783:1 788:1 790:1 795:1 810:1 814:1 819:1 821:1 836:1 837:1 840:1 845:1 846:1 860:1 870:1 881:1 893:1 896:1 898:1 899:1 906:1 909:1 917:1 918:1 919:1 922:1 929:1 945:1 950:1 960:1 964:1 971:1 986:1 998:1 1009:1 1010:1 1015:1 1044:1 1047:1 1050:1 1056:1 1065:1 1075:1 1081:1 1082:1 1090:1 1096:1 1100:1 1113:1 1123:1 1146:1 1150:1 1151:1 1156:1 1160:1 1185:1 1197:1 1204:1 1249:1 1250:1 1254:1 1262:1 1269:1 1277:1 1278:1 1283:1 1286:1 1293:1 1299:1 1310:1 1311:1 1327:1 1333:1 1339:1 1340:1 1347:1 1355:1 1369:1 1378:1 1404:1 1408:1 1432:1 1440:1 1441:1 1447:1 1448:1 1462:1 1472:1 1481:1 1519:1 1527:1 1535:1 1540:1 1544:1 1557:1 1566:1 1574:1 1588:1 1606:1 1612:1 1633:1 1643:1 1646:1 1649:1 1655:1 1660:1 1663:1 1672:1 1676:1 1698:1 1707:1 1709:1 1736:1 1758:1 1761:1 1829:1 1854:1 1883:1 1884:1 1960:1 1963:1 1965:1 1997:1 2002:1 2008:1 2015:1 2016:1 2022:1 2023:1 2028:1 2030:1 #
-0.0037854741727994592470629697800177 1:1 2:1 3:1 4:1 5:1 6:1 7:1 8:1 9:1 10:1 11:1 12:1 13:1 14:1 15:1 16:1 17:1 18:1 19:1 20:1 21:1 22:1 23:1 24:1 25:1 26:1 27:1 28:1 29:1 30:1 31:1 32:1 33:1 34:1 35:1 36:1 37:1 38:1 39:1 40:1 41:1 42:1 43:1 44:1 46:1 47:1 48:1 49:1 50:1 52:1 53:1 54:1 55:1 56:1 57:1 58:1 59:1 61:1 62:1 64:1 65:1 66:1 67:1 68:1 70:1 71:1 72:1 73:1 75:1 76:1 77:1 78:1 79:1 81:1 82:1 83:1 84:1 87:1 88:1 89:1 90:1 91:1 92:1 93:1 96:1 97:1 98:1 99:1 101:1 102:1 104:1 105:1 106:1 107:1 108:1 109:1 110:1 111:1 113:1 114:1 115:1 116:1 117:1 119:1 121:1 122:1 123:1 124:1 125:1 126:1 128:1 130:1 132:1 133:1 134:1 135:1 136:1 139:1 142:1 144:1 145:1 147:1 149:1 151:1 153:1 154:1 155:1 156:1 158:1 160:1 162:1 164:1 165:1 166:1 168:1 170:1 172:1 174:1 175:1 176:1 177:1 178:1 180:1 182:1 183:1 187:1 189:1 190:1 194:1 196:1 199:1 205:1 208:1 209:1 210:1 212:1 214:1 218:1 220:1 223:1 224:1 225:1 227:1 228:1 241:1 242:1 244:1 245:1 246:1 251:1 253:1 254:1 259:1 263:1 265:1 268:1 270:1 271:1 272:1 280:1 281:1 284:1 285:1 287:1 289:1 290:1 291:1 299:1 307:1 310:1 313:1 314:1 320:1 322:1 327:1 328:1 335:1 347:1 352:1 358:1 359:1 362:1 367:1 371:1 377:1 378:1 383:1 390:1 395:1 399:1 401:1 404:1 408:1 415:1 427:1 431:1 432:1 433:1 436:1 443:1 444:1 448:1 455:1 458:1 472:1 484:1 494:1 499:1 503:1 507:1 513:1 516:1 520:1 521:1 522:1 523:1 524:1 538:1 540:1 550:1 554:1 564:1 567:1 569:1 579:1 589:1 602:1 607:1 619:1 627:1 633:1 639:1 642:1 643:1 644:1 650:1 652:1 671:1 673:1 681:1 684:1 687:1 701:1 705:1 707:1 708:1 712:1 715:1 727:1 739:1 740:1 753:1 755:1 756:1 758:1 762:1 771:1 779:1 784:1 808:1 809:1 815:1 831:1 854:1 856:1 858:1 865:1 875:1 884:1 914:1 921:1 922:1 925:1 930:1 941:1 947:1 957:1 961:1 962:1 964:1 973:1 1003:1 1022:1 1040:1 1047:1 1052:1 1055:1 1081:1 1083:1 1087:1 1091:1 1101:1 1103:1 1122:1 1128:1 1142:1 1148:1 1152:1 1154:1 1157:1 1160:1 1161:1 1165:1 1175:1 1190:1 1201:1 1204:1 1217:1 1223:1 1230:1 1243:1 1244:1 1261:1 1263:1 1266:1 1279:1 1283:1 1292:1 1293:1 1312:1 1321:1 1330:1 1338:1 1350:1 1362:1 1377:1 1399:1 1403:1 1413:1 1425:1 1428:1 1445:1 1462:1 1472:1 1474:1 1484:1 1490:1 1506:1 1514:1 1519:1 1524:1 1527:1 1550:1 1552:1 1568:1 1576:1 1620:1 1625:1 1646:1 1649:1 1669:1 1723:1 1725:1 1743:1 1755:1 1761:1 1800:1 1813:1 1827:1 1845:1 1871:1 1899:1 1912:1 1955:1 2012:1 2023:1 2026:1 #
0.0032728276321496519232767674623119 1:1 2:1 3:1 4:1 5:1 6:1 7:1 8:1 9:1 10:1 11:1 12:1 13:1 14:1 15:1 16:1 17:1 18:1 19:1 20:1 21:1 22:1 23:1 24:1 25:1 26:1 27:1 28:1 29:1 30:1 31:1 32:1 33:1 34:1 35:1 36:1 37:1 38:1 39:1 40:1 41:1 42:1 43:1 44:1 46:1 47:1 50:1 51:1 52:1 53:1 54:1 57:1 58:1 59:1 64:1 65:1 66:1 67:1 69:1 70:1 71:1 72:1 74:1 75:1 76:1 77:1 80:1 81:1 83:1 84:1 86:1 89:1 91:1 92:1 97:1 98:1 99:1 100:1 101:1 102:1 104:1 107:1 108:1 110:1 111:1 115:1 119:1 120:1 123:1 128:1 130:1 134:1 135:1 137:1 141:1 142:1 143:1 147:1 150:1 151:1 152:1 156:1 157:1 159:1 165:1 166:1 167:1 168:1 171:1 176:1 179:1 183:1 184:1 186:1 191:1 193:1 196:1 197:1 199:1 203:1 206:1 217:1 221:1 224:1 225:1 229:1 230:1 235:1 236:1 243:1 245:1 246:1 250:1 251:1 253:1 255:1 256:1 260:1 262:1 263:1 268:1 272:1 274:1 283:1 287:1 290:1 291:1 301:1 304:1 307:1 323:1 325:1 337:1 356:1 369:1 371:1 377:1 381:1 385:1 387:1 389:1 390:1 393:1 399:1 400:1 423:1 442:1 443:1 444:1 464:1 466:1 468:1 470:1 475:1 479:1 489:1 494:1 503:1 514:1 538:1 552:1 553:1 569:1 586:1 588:1 597:1 606:1 617:1 638:1 643:1 691:1 710:1 713:1 714:1 723:1 726:1 730:1 741:1 794:1 841:1 843:1 850:1 866:1 876:1 908:1 923:1 959:1 961:1 1051:1 1053:1 1063:1 1091:1 1125:1 1128:1 1131:1 1141:1 1157:1 1173:1 1187:1 1189:1 1216:1 1232:1 1249:1 1290:1 1294:1 1296:1 1304:1 1366:1 1374:1 1379:1 1384:1 1418:1 1420:1 1445:1 1484:1 1502:1 1514:1 1531:1 1593:1 1617:1 1623:1 1671:1 1705:1 1731:1 1800:1 1829:1 1835:1 1845:1 1928:1 1966:1 2003:1 2016:1 #
-0.00060682880878949220504470218884308 1:1 2:1 3:1 4:1 5:1 6:1 7:1 8:1 9:1 10:1 11:1 12:1 13:1 14:1 15:1 16:1 17:1 18:1 19:1 20:1 21:1 22:1 23:1 24:1 25:1 26:1 27:1 28:1 29:1 30:1 31:1 32:1 33:1 34:1 35:1 36:1 37:1 38:1 39:1 40:1 41:1 42:1 43:1 44:1 45:1 46:1 47:1 48:1 49:1 50:1 51:1 52:1 53:1 54:1 55:1 56:1 57:1 58:1 59:1 60:1 61:1 62:1 63:1 64:1 65:1 66:1 67:1 68:1 69:1 70:1 71:1 72:1 73:1 75:1 76:1 77:1 78:1 79:1 80:1 81:1 82:1 84:1 85:1 86:1 87:1 88:1 89:1 90:1 91:1 92:1 94:1 95:1 96:1 97:1 99:1 100:1 102:1 104:1 105:1 107:1 108:1 110:1 111:1 112:1 113:1 114:1 115:1 116:1 117:1 118:1 119:1 120:1 121:1 122:1 123:1 124:1 125:1 128:1 129:1 131:1 132:1 133:1 134:1 137:1 138:1 139:1 140:1 142:1 143:1 144:1 145:1 146:1 147:1 148:1 150:1 151:1 152:1 154:1 161:1 163:1 164:1 165:1 174:1 175:1 176:1 177:1 179:1 185:1 186:1 187:1 189:1 190:1 191:1 192:1 194:1 195:1 196:1 197:1 201:1 203:1 204:1 209:1 211:1 212:1 215:1 216:1 220:1 223:1 226:1 228:1 229:1 230:1 233:1 235:1 237:1 241:1 242:1 243:1 251:1 253:1 254:1 256:1 258:1 260:1 264:1 265:1 266:1 267:1 270:1 273:1 274:1 275:1 276:1 277:1 279:1 280:1 281:1 283:1 284:1 287:1 288:1 289:1 293:1 297:1 299:1 300:1 303:1 304:1 308:1 311:1 320:1 322:1 325:1 332:1 339:1 344:1 345:1 351:1 352:1 353:1 359:1 360:1 362:1 363:1 364:1 367:1 371:1 374:1 377:1 380:1 384:1 387:1 389:1 409:1 415:1 416:1 417:1 423:1 425:1 426:1 428:1 432:1 433:1 435:1 436:1 442:1 444:1 450:1 457:1 458:1 459:1 461:1 465:1 471:1 477:1 478:1 492:1 494:1 495:1 497:1 501:1 502:1 505:1 506:1 509:1 511:1 512:1 515:1 521:1 524:1 525:1 529:1 533:1 541:1 551:1 555:1 559:1 574:1 576:1 577:1 579:1 589:1 599:1 605:1 611:1 616:1 617:1 635:1 663:1 666:1 668:1 676:1 684:1 701:1 704:1 721:1 727:1 740:1 749:1 755:1 766:1 767:1 770:1 787:1 804:1 808:1 821:1 830:1 837:1 842:1 848:1 858:1 872:1 874:1 876:1 892:1 899:1 903:1 908:1 915:1 934:1 940:1 944:1 951:1 952:1 961:1 967:1 969:1 1012:1 1021:1 1030:1 1045:1 1051:1 1074:1 1083:1 1094:1 1146:1 1148:1 1153:1 1156:1 1158:1 1168:1 1171:1 1192:1 1203:1 1206:1 1215:1 1219:1 1236:1 1242:1 1276:1 1278:1 1279:1 1283:1 1285:1 1291:1 1296:1 1312:1 1332:1 1340:1 1361:1 1386:1 1391:1 1394:1 1402:1 1403:1 1424:1 1434:1 1441:1 1443:1 1493:1 1512:1 1515:1 1552:1 1567:1 1590:1 1593:1 1599:1 1609:1 1612:1 1618:1 1625:1 1638:1 1665:1 1675:1 1679:1 1703:1 1713:1 1723:1 1858:1 1859:1 1871:1 1878:1 1892:1 1899:1 1925:1 1931:1 1933:1 1971:1 1994:1 2030:1 2040:1 #
-0.0029442093699920891987364957032014 1:1 2:1 3:1 4:1 5:1 6:1 7:1 8:1 9:1 10:1 11:1 12:1 13:1 14:1 15:1 16:1 17:1 18:1 19:1 20:1 21:1 22:1 23:1 24:1 25:1 26:1 27:1 28:1 29:1 30:1 31:1 32:1 33:1 34:1 35:1 36:1 37:1 38:1 39:1 40:1 41:1 42:1 44:1 45:1 46:1 47:1 48:1 49:1 50:1 51:1 52:1 53:1 54:1 55:1 56:1 57:1 58:1 59:1 60:1 62:1 63:1 64:1 65:1 66:1 67:1 69:1 70:1 71:1 72:1 73:1 76:1 77:1 78:1 79:1 80:1 81:1 82:1 83:1 84:1 85:1 86:1 87:1 88:1 90:1 91:1 93:1 94:1 95:1 96:1 97:1 98:1 99:1 100:1 101:1 102:1 105:1 106:1 107:1 108:1 109:1 110:1 111:1 113:1 114:1 115:1 116:1 117:1 118:1 121:1 122:1 123:1 125:1 126:1 129:1 130:1 133:1 135:1 136:1 137:1 138:1 140:1 145:1 146:1 147:1 148:1 149:1 152:1 154:1 155:1 157:1 158:1 160:1 161:1 162:1 163:1 164:1 168:1 169:1 170:1 172:1 173:1 175:1 176:1 177:1 178:1 179:1 182:1 188:1 189:1 190:1 192:1 197:1 198:1 200:1 202:1 204:1 205:1 206:1 208:1 212:1 218:1 219:1 221:1 222:1 223:1 225:1 227:1 228:1 230:1 231:1 232:1 234:1 237:1 238:1 239:1 241:1 242:1 245:1 249:1 250:1 253:1 254:1 256:1 257:1 258:1 261:1 268:1 270:1 271:1 275:1 280:1 283:1 285:1 288:1 293:1 299:1 304:1 306:1 311:1 312:1 318:1 319:1 323:1 325:1 326:1 329:1 331:1 335:1 339:1 340:1 359:1 360:1 382:1 383:1 388:1 395:1 396:1 397:1 398:1 399:1 402:1 406:1 410:1 411:1 416:1 417:1 418:1 423:1 427:1 428:1 437:1 438:1 441:1 443:1 447:1 448:1 449:1 450:1 451:1 457:1 463:1 465:1 466:1 467:1 475:1 481:1 490:1 497:1 499:1 500:1 504:1 507:1 510:1 537:1 542:1 557:1 566:1 581:1 584:1 587:1 588:1 592:1 593:1 595:1 599:1 601:1 605:1 608:1 613:1 623:1 625:1 633:1 635:1 636:1 643:1 661:1 662:1 681:1 684:1 690:1 691:1 693:1 701:1 703:1 705:1 708:1 709:1 712:1 730:1 749:1 751:1 755:1 756:1 760:1 762:1 764:1 776:1 783:1 817:1 819:1 821:1 822:1 830:1 849:1 851:1 858:1 874:1 876:1 879:1 905:1 917:1 924:1 933:1 936:1 938:1 940:1 945:1 967:1 983:1 993:1 1001:1 1004:1 1014:1 1029:1 1031:1 1037:1 1038:1 1064:1 1076:1 1103:1 1121:1 1123:1 1128:1 1129:1 1141:1 1143:1 1148:1 1155:1 1169:1 1182:1 1197:1 1236:1 1240:1 1253:1 1254:1 1263:1 1276:1 1278:1 1280:1 1292:1 1305:1 1335:1 1369:1 1372:1 1374:1 1378:1 1400:1 1422:1 1425:1 1447:1 1455:1 1475:1 1510:1 1515:1 1547:1 1557:1 1565:1 1598:1 1606:1 1625:1 1641:1 1648:1 1654:1 1698:1 1717:1 1718:1 1731:1 1827:1 1861:1 1883:1 1945:1 1967:1 2001:1 2017:1 2034:1 #
0.0044250118221682895741642127518389 1:1 2:1 3:1 4:1 5:1 6:1 8:1 9:1 10:1 11:1 12:1 13:1 17:1 18:1 20:1 22:1 27:1 29:1 30:1 38:1 40:1 42:1 47:1 54:1 56:1 63:1 64:1 85:1 96:1 99:1 135:1 166:1 178:1 179:1 195:1 196:1 221:1 241:1 280:1 312:1 338:1 398:1 440:1 508:1 548:1 560:1 598:1 661:1 787:1 829:1 873:1 878:1 936:1 976:1 1008:1 1042:1 1161:1 1165:1 1202:1 1361:1 1415:1 1450:1 #
0.0044250118221682895741642127518389 1:1 2:1 3:1 4:1 5:1 6:1 7:1 8:1 9:1 10:1 11:1 12:1 14:1 15:1 16:1 17:1 22:1 23:1 26:1 27:1 30:1 32:1 33:1 34:1 38:1 44:1 46:1 52:1 60:1 66:1 73:1 74:1 78:1 79:1 82:1 93:1 99:1 103:1 112:1 116:1 123:1 131:1 135:1 155:1 169:1 180:1 199:1 201:1 220:1 249:1 270:1 286:1 295:1 310:1 334:1 339:1 343:1 353:1 412:1 420:1 446:1 458:1 479:1 484:1 488:1 515:1 526:1 542:1 579:1 583:1 599:1 625:1 661:1 665:1 705:1 710:1 749:1 750:1 759:1 775:1 780:1 881:1 914:1 949:1 1047:1 1077:1 1088:1 1112:1 1171:1 1292:1 1296:1 1368:1 1390:1 1434:1 1518:1 1604:1 1683:1 1863:1 1884:1 #
0.0044250118221682895741642127518389 1:1 2:1 3:1 4:1 5:1 6:1 7:1 8:1 9:1 11:1 12:1 13:1 14:1 15:1 16:1 17:1 18:1 19:1 20:1 21:1 22:1 24:1 26:1 30:1 31:1 33:1 34:1 37:1 46:1 52:1 58:1 60:1 70:1 74:1 75:1 86:1 91:1 93:1 113:1 116:1 125:1 134:1 141:1 163:1 176:1 179:1 191:1 197:1 209:1 214:1 225:1 236:1 251:1 291:1 296:1 317:1 383:1 415:1 432:1 438:1 452:1 458:1 479:1 496:1 500:1 557:1 634:1 789:1 855:1 1003:1 1044:1 1073:1 1094:1 1199:1 1925:1 2029:1 2035:1 #
-0.0003814885157791715738703763882711 1:1 2:1 3:1 4:1 5:1 6:1 7:1 8:1 9:1 10:1 11:1 12:1 13:1 14:1 15:1 16:1 17:1 18:1 19:1 20:1 22:1 23:1 24:1 26:1 27:1 28:1 29:1 30:1 31:1 32:1 33:1 35:1 37:1 38:1 39:1 40:1 42:1 45:1 46:1 47:1 48:1 51:1 53:1 54:1 56:1 57:1 59:1 60:1 62:1 64:1 69:1 70:1 72:1 74:1 75:1 76:1 77:1 78:1 80:1 81:1 83:1 85:1 87:1 90:1 95:1 96:1 98:1 99:1 100:1 103:1 106:1 110:1 111:1 112:1 118:1 119:1 126:1 127:1 130:1 135:1 136:1 138:1 139:1 144:1 146:1 148:1 149:1 150:1 152:1 155:1 159:1 160:1 163:1 164:1 171:1 179:1 182:1 185:1 193:1 194:1 200:1 204:1 207:1 212:1 219:1 224:1 228:1 229:1 239:1 241:1 248:1 251:1 253:1 256:1 261:1 264:1 269:1 273:1 282:1 283:1 293:1 294:1 299:1 302:1 318:1 324:1 328:1 339:1 341:1 344:1 345:1 362:1 368:1 377:1 385:1 394:1 407:1 416:1 420:1 430:1 434:1 456:1 476:1 482:1 483:1 496:1 498:1 506:1 512:1 514:1 528:1 534:1 544:1 561:1 562:1 576:1 582:1 588:1 596:1 602:1 622:1 636:1 639:1 652:1 654:1 664:1 676:1 716:1 731:1 740:1 745:1 746:1 760:1 774:1 786:1 789:1 821:1 864:1 972:1 977:1 994:1 1009:1 1045:1 1117:1 1119:1 1124:1 1140:1 1160:1 1175:1 1192:1 1276:1 1287:1 1374:1 1396:1 1419:1 1446:1 1448:1 1454:1 1559:1 1574:1 1608:1 1646:1 1719:1 1722:1 1747:1 1840:1 1892:1 1921:1 1998:1 2010:1 #
0.0044250118221682895741642127518389 1:1 2:1 3:1 4:1 5:1 6:1 7:1 8:1 9:1 10:1 11:1 12:1 13:1 14:1 15:1 16:1 17:1 18:1 22:1 23:1 24:1 25:1 28:1 29:1 30:1 31:1 33:1 34:1 37:1 38:1 40:1 46:1 47:1 53:1 54:1 58:1 61:1 62:1 63:1 64:1 67:1 68:1 78:1 81:1 88:1 90:1 107:1 113:1 126:1 127:1 133:1 139:1 150:1 161:1 164:1 183:1 198:1 223:1 230:1 272:1 290:1 303:1 304:1 315:1 334:1 385:1 399:1 403:1 406:1 423:1 425:1 438:1 452:1 555:1 584:1 693:1 713:1 741:1 764:1 812:1 826:1 856:1 874:1 900:1 907:1 923:1 944:1 945:1 1073:1 1097:1 1201:1 1205:1 1280:1 1282:1 1322:1 1363:1 1368:1 1497:1 1651:1 1701:1 1789:1 1888:1 1940:1 #
-0.0044250118221682895741642127518389 1:1 2:1 3:1 4:1 5:1 6:1 7:1 8:1 9:1 12:1 13:1 14:1 15:1 16:1 17:1 18:1 19:1 21:1 22:1 24:1 25:1 27:1 28:1 30:1 34:1 37:1 40:1 41:1 46:1 47:1 49:1 53:1 60:1 63:1 64:1 67:1 68:1 69:1 70:1 71:1 73:1 75:1 85:1 88:1 91:1 114:1 121:1 130:1 134:1 138:1 139:1 140:1 142:1 150:1 155:1 162:1 163:1 173:1 192:1 195:1 203:1 209:1 218:1 224:1 233:1 247:1 251:1 266:1 270:1 272:1 290:1 291:1 302:1 318:1 323:1 327:1 332:1 336:1 338:1 346:1 352:1 404:1 440:1 448:1 458:1 489:1 498:1 503:1 506:1 519:1 578:1 583:1 591:1 598:1 673:1 675:1 679:1 693:1 697:1 710:1 723:1 755:1 779:1 801:1 810:1 825:1 855:1 861:1 934:1 1027:1 1031:1 1060:1 1096:1 1352:1 1359:1 1363:1 1401:1 1421:1 1464:1 1511:1 1579:1 1582:1 1691:1 1756:1 1780:1 1804:1 1815:1 1821:1 1848:1 1957:1 #
-0.0034082758663179571478885065971554 1:1 2:1 3:1 4:1 5:1 6:1 7:1 8:1 9:1 10:1 11:1 12:1 13:1 14:1 15:1 16:1 17:1 18:1 20:1 23:1 24:1 25:1 26:1 28:1 31:1 32:1 33:1 37:1 38:1 40:1 41:1 43:1 44:1 45:1 46:1 49:1 52:1 54:1 56:1 58:1 61:1 64:1 67:1 70:1 71:1 72:1 84:1 88:1 94:1 95:1 101:1 105:1 111:1 113:1 119:1 124:1 140:1 146:1 154:1 156:1 171:1 175:1 181:1 183:1 195:1 196:1 203:1 214:1 216:1 218:1 233:1 251:1 258:1 262:1 286:1 290:1 303:1 306:1 325:1 329:1 334:1 335:1 346:1 352:1 368:1 373:1 375:1 470:1 471:1 475:1 500:1 501:1 502:1 505:1 535:1 580:1 594:1 604:1 612:1 687:1 722:1 739:1 750:1 793:1 815:1 987:1 1126:1 1135:1 1136:1 1153:1 1216:1 1299:1 1376:1 1436:1 1462:1 1472:1 1503:1 1525:1 1597:1 1610:1 1616:1 1718:1 1806:1 1878:1 #
-0.0044250118221682895741642127518389 1:1 2:1 3:1 4:1 5:1 6:1 7:1 8:1 9:1 11:1 12:1 13:1 14:1 15:1 17:1 18:1 19:1 21:1 23:1 24:1 25:1 27:1 28:1 30:1 31:1 33:1 35:1 38:1 43:1 46:1 48:1 55:1 59:1 61:1 63:1 72:1 78:1 85:1 88:1 95:1 98:1 99:1 101:1 102:1 105:1 114:1 130:1 132:1 134:1 135:1 141:1 142:1 150:1 160:1 201:1 228:1 234:1 236:1 237:1 247:1 249:1 304:1 317:1 346:1 348:1 358:1 373:1 388:1 413:1 460:1 470:1 545:1 598:1 603:1 621:1 646:1 650:1 661:1 686:1 693:1 786:1 830:1 846:1 849:1 935:1 994:1 1247:1 1305:1 1439:1 1534:1 1600:1 1646:1 1797:1 1992:1 #
0.0011591288548528338574888918444117 1:1 2:1 3:1 4:1 5:1 6:1 7:1 8:1 9:1 11:1 12:1 13:1 14:1 15:1 16:1 17:1 18:1 19:1 21:1 22:1 23:1 25:1 27:1 28:1 30:1 31:1 32:1 33:1 35:1 36:1 37:1 38:1 39:1 40:1 41:1 42:1 43:1 45:1 46:1 47:1 48:1 51:1 52:1 53:1 59:1 60:1 61:1 62:1 63:1 66:1 68:1 70:1 71:1 72:1 73:1 74:1 75:1 81:1 82:1 86:1 88:1 89:1 90:1 91:1 94:1 98:1 100:1 105:1 108:1 111:1 114:1 116:1 119:1 122:1 123:1 125:1 127:1 128:1 129:1 133:1 135:1 137:1 149:1 152:1 157:1 160:1 165:1 171:1 175:1 176:1 179:1 183:1 184:1 187:1 189:1 200:1 202:1 204:1 205:1 208:1 211:1 216:1 218:1 226:1 228:1 233:1 234:1 236:1 241:1 251:1 261:1 263:1 266:1 270:1 271:1 272:1 285:1 288:1 297:1 307:1 316:1 321:1 323:1 327:1 337:1 356:1 369:1 375:1 377:1 419:1 428:1 429:1 431:1 436:1 451:1 457:1 475:1 505:1 506:1 508:1 537:1 541:1 542:1 544:1 547:1 553:1 558:1 560:1 563:1 580:1 583:1 588:1 602:1 612:1 629:1 635:1 663:1 664:1 669:1 682:1 698:1 712:1 713:1 715:1 718:1 740:1 747:1 750:1 788:1 791:1 793:1 811:1 828:1 844:1 851:1 859:1 869:1 873:1 897:1 903:1 916:1 936:1 957:1 958:1 959:1 975:1 977:1 1002:1 1004:1 1012:1 1026:1 1038:1 1088:1 1100:1 1142:1 1201:1 1223:1 1233:1 1236:1 1250:1 1273:1 1278:1 1284:1 1297:1 1301:1 1374:1 1461:1 1478:1 1508:1 1517:1 1530:1 1568:1 1678:1 1680:1 1718:1 1735:1 1752:1 1765:1 1770:1 1775:1 1813:1 1817:1 1851:1 1877:1 1907:1 1948:1 1975:1 1989:1 1993:1 #
0.0019226096470661489627740348140605 1:1 2:1 3:1 4:1 5:1 6:1 7:1 8:1 9:1 10:1 11:1 12:1 13:1 14:1 15:1 16:1 17:1 18:1 19:1 20:1 21:1 22:1 23:1 24:1 25:1 26:1 27:1 28:1 29:1 30:1 31:1 33:1 34:1 35:1 36:1 37:1 38:1 39:1 40:1 41:1 42:1 43:1 45:1 46:1 47:1 48:1 49:1 50:1 51:1 52:1 53:1 54:1 55:1 56:1 57:1 58:1 59:1 60:1 61:1 62:1 63:1 64:1 66:1 67:1 68:1 71:1 72:1 75:1 76:1 77:1 78:1 79:1 80:1 81:1 82:1 83:1 84:1 85:1 86:1 88:1 89:1 91:1 92:1 96:1 97:1 100:1 101:1 103:1 104:1 105:1 106:1 107:1 108:1 109:1 110:1 111:1 112:1 113:1 114:1 115:1 116:1 117:1 119:1 122:1 123:1 124:1 125:1 126:1 128:1 129:1 130:1 132:1 133:1 134:1 136:1 139:1 140:1 141:1 142:1 144:1 146:1 149:1 150:1 151:1 154:1 155:1 158:1 161:1 162:1 164:1 165:1 166:1 167:1 169:1 171:1 172:1 173:1 174:1 176:1 177:1 179:1 181:1 182:1 185:1 186:1 187:1 188:1 190:1 192:1 193:1 194:1 195:1 196:1 197:1 198:1 199:1 203:1 204:1 207:1 208:1 209:1 210:1 213:1 214:1 215:1 216:1 217:1 220:1 221:1 222:1 224:1 225:1 227:1 229:1 231:1 235:1 236:1 242:1 243:1 244:1 245:1 251:1 255:1 259:1 260:1 262:1 263:1 264:1 267:1 268:1 269:1 276:1 281:1 287:1 289:1 290:1 292:1 297:1 298:1 302:1 303:1 305:1 312:1 313:1 315:1 317:1 320:1 326:1 331:1 332:1 333:1 341:1 343:1 345:1 352:1 361:1 370:1 371:1 377:1 381:1 384:1 397:1 398:1 400:1 403:1 406:1 408:1 409:1 411:1 413:1 428:1 433:1 440:1 443:1 451:1 455:1 456:1 461:1 462:1 464:1 467:1 472:1 478:1 481:1 484:1 489:1 503:1 517:1 525:1 526:1 538:1 540:1 556:1 558:1 559:1 561:1 570:1 578:1 582:1 585:1 586:1 588:1 603:1 605:1 610:1 615:1 641:1 643:1 653:1 654:1 669:1 673:1 679:1 684:1 688:1 691:1 704:1 709:1 717:1 720:1 726:1 741:1 747:1 766:1 768:1 796:1 798:1 806:1 820:1 825:1 829:1 831:1 838:1 839:1 843:1 851:1 853:1 863:1 864:1 876:1 878:1 881:1 882:1 888:1 889:1 890:1 893:1 914:1 917:1 919:1 920:1 937:1 952:1 957:1 962:1 963:1 973:1 977:1 1003:1 1013:1 1015:1 1019:1 1021:1 1037:1 1043:1 1055:1 1056:1 1084:1 1094:1 1104:1 1110:1 1114:1 1132:1 1141:1 1149:1 1187:1 1189:1 1205:1 1212:1 1217:1 1228:1 1231:1 1239:1 1240:1 1241:1 1252:1 1275:1 1276:1 1288:1 1290:1 1292:1 1326:1 1348:1 1350:1 1353:1 1378:1 1405:1 1409:1 1422:1 1425:1 1434:1 1446:1 1459:1 1475:1 1518:1 1525:1 1539:1 1541:1 1545:1 1573:1 1605:1 1612:1 1627:1 1636:1 1696:1 1704:1 1707:1 1739:1 1770:1 1804:1 1847:1 1918:1 1921:1 1923:1 1924:1 1945:1 1977:1 1980:1 2004:1 2008:1 2013:1 2015:1 #
-0.0017083353769641591683725589945197 1:1 2:1 3:1 4:1 5:1 6:1 7:1 8:1 9:1 10:1 11:1 12:1 13:1 14:1 15:1 16:1 17:1 18:1 19:1 20:1 21:1 23:1 25:1 26:1 27:1 28:1 29:1 30:1 31:1 33:1 34:1 35:1 36:1 37:1 38:1 39:1 40:1 41:1 42:1 43:1 45:1 46:1 47:1 49:1 50:1 51:1 52:1 53:1 54:1 55:1 56:1 57:1 58:1 59:1 60:1 61:1 62:1 63:1 64:1 67:1 68:1 70:1 72:1 73:1 76:1 78:1 79:1 80:1 83:1 86:1 87:1 88:1 89:1 90:1 91:1 93:1 96:1 99:1 102:1 106:1 107:1 108:1 111:1 114:1 117:1 118:1 122:1 123:1 131:1 132:1 137:1 141:1 150:1 153:1 155:1 156:1 157:1 160:1 162:1 163:1 165:1 173:1 182:1 183:1 184:1 186:1 198:1 202:1 204:1 212:1 214:1 218:1 222:1 225:1 227:1 237:1 243:1 245:1 250:1 261:1 269:1 270:1 290:1 291:1 293:1 304:1 312:1 313:1 316:1 317:1 324:1 338:1 346:1 350:1 352:1 369:1 373:1 377:1 380:1 389:1 395:1 415:1 416:1 440:1 441:1 450:1 452:1 462:1 466:1 468:1 480:1 482:1 483:1 486:1 488:1 499:1 504:1 508:1 566:1 575:1 577:1 586:1 588:1 604:1 610:1 619:1 623:1 634:1 653:1 674:1 682:1 723:1 732:1 737:1 740:1 745:1 769:1 797:1 827:1 879:1 888:1 893:1 897:1 912:1 935:1 944:1 956:1 993:1 1023:1 1086:1 1097:1 1105:1 1127:1 1164:1 1206:1 1285:1 1288:1 1315:1 1330:1 1368:1 1410:1 1474:1 1502:1 1540:1 1564:1 1825:1 1899:1 1919:1 1921:1 1925:1 1971:1 1993:1 #
0.0012495499649276290907162767496175 1:1 2:1 3:1 4:1 5:1 6:1 7:1 8:1 9:1 10:1 11:1 12:1 13:1 14:1 15:1 16:1 17:1 18:1 19:1 20:1 21:1 22:1 23:1 24:1 25:1 26:1 27:1 28:1 29:1 30:1 31:1 32:1 33:1 34:1 35:1 37:1 38:1 39:1 40:1 41:1 42:1 43:1 44:1 45:1 46:1 47:1 48:1 49:1 50:1 51:1 52:1 53:1 54:1 55:1 56:1 57:1 58:1 59:1 60:1 62:1 63:1 64:1 65:1 66:1 67:1 68:1 69:1 70:1 71:1 72:1 73:1 75:1 76:1 77:1 78:1 79:1 80:1 81:1 82:1 83:1 84:1 85:1 86:1 88:1 89:1 90:1 91:1 92:1 93:1 96:1 97:1 100:1 101:1 102:1 104:1 105:1 106:1 107:1 110:1 113:1 114:1 116:1 117:1 118:1 119:1 121:1 122:1 124:1 126:1 127:1 128:1 129:1 130:1 131:1 132:1 133:1 134:1 138:1 139:1 141:1 142:1 143:1 145:1 146:1 147:1 148:1 149:1 150:1 153:1 154:1 155:1 161:1 164:1 165:1 169:1 172:1 173:1 174:1 175:1 176:1 177:1 178:1 180:1 181:1 182:1 185:1 186:1 188:1 189:1 190:1 192:1 194:1 195:1 196:1 197:1 198:1 201:1 204:1 205:1 209:1 210:1 211:1 213:1 215:1 216:1 220:1 221:1 224:1 225:1 228:1 229:1 237:1 242:1 243:1 244:1 246:1 247:1 249:1 250:1 251:1 258:1 263:1 264:1 268:1 272:1 274:1 277:1 279:1 280:1 281:1 282:1 283:1 285:1 286:1 287:1 288:1 290:1 293:1 297:1 298:1 299:1 305:1 306:1 307:1 312:1 316:1 319:1 321:1 323:1 324:1 325:1 328:1 333:1 335:1 339:1 342:1 346:1 347:1 353:1 354:1 355:1 359:1 360:1 361:1 363:1 368:1 370:1 374:1 377:1 378:1 379:1 380:1 384:1 387:1 388:1 395:1 397:1 408:1 410:1 412:1 416:1 421:1 423:1 427:1 440:1 442:1 446:1 449:1 451:1 455:1 466:1 476:1 481:1 486:1 488:1 492:1 493:1 494:1 496:1 503:1 513:1 516:1 528:1 541:1 542:1 547:1 556:1 558:1 563:1 564:1 567:1 569:1 570:1 579:1 585:1 586:1 588:1 589:1 592:1 597:1 607:1 615:1 625:1 632:1 635:1 639:1 642:1 643:1 644:1 645:1 646:1 667:1 669:1 675:1 680:1 691:1 696:1 704:1 705:1 710:1 714:1 727:1 730:1 734:1 735:1 765:1 771:1 783:1 804:1 806:1 814:1 819:1 822:1 832:1 843:1 848:1 855:1 856:1 861:1 870:1 873:1 912:1 918:1 927:1 932:1 938:1 942:1 943:1 954:1 966:1 970:1 971:1 979:1 982:1 1003:1 1024:1 1054:1 1072:1 1083:1 1099:1 1102:1 1106:1 1152:1 1154:1 1188:1 1190:1 1217:1 1240:1 1266:1 1289:1 1310:1 1316:1 1330:1 1345:1 1354:1 1369:1 1374:1 1390:1 1421:1 1424:1 1457:1 1463:1 1474:1 1494:1 1515:1 1524:1 1527:1 1533:1 1539:1 1548:1 1553:1 1586:1 1590:1 1605:1 1677:1 1683:1 1688:1 1693:1 1699:1 1713:1 1726:1 1751:1 1752:1 1763:1 1776:1 1789:1 1803:1 1809:1 1832:1 1835:1 1849:1 1872:1 1873:1 1890:1 1891:1 1902:1 1918:1 1932:1 1941:1 1991:1 1996:1 2033:1 #
-0.0044250118221682895741642127518389 1:1 2:1 3:1 4:1 5:1 6:1 7:1 8:1 9:1 10:1 11:1 12:1 13:1 14:1 15:1 16:1 17:1 18:1 19:1 20:1 21:1 22:1 23:1 24:1 25:1 26:1 27:1 28:1 29:1 30:1 31:1 32:1 33:1 34:1 35:1 36:1 37:1 38:1 39:1 40:1 41:1 42:1 43:1 44:1 45:1 46:1 47:1 48:1 49:1 50:1 51:1 52:1 53:1 54:1 55:1 56:1 57:1 58:1 59:1 60:1 61:1 62:1 63:1 64:1 65:1 66:1 67:1 68:1 69:1 70:1 71:1 72:1 73:1 75:1 76:1 78:1 79:1 80:1 81:1 83:1 86:1 87:1 88:1 89:1 90:1 91:1 92:1 93:1 95:1 96:1 97:1 98:1 99:1 100:1 101:1 102:1 103:1 104:1 106:1 107:1 108:1 110:1 111:1 112:1 113:1 114:1 115:1 116:1 117:1 119:1 122:1 123:1 125:1 126:1 127:1 128:1 130:1 133:1 135:1 136:1 137:1 138:1 139:1 141:1 142:1 143:1 145:1 146:1 148:1 150:1 152:1 153:1 155:1 156:1 158:1 160:1 161:1 166:1 167:1 169:1 170:1 176:1 177:1 178:1 179:1 181:1 182:1 183:1 184:1 187:1 189:1 191:1 197:1 198:1 199:1 200:1 204:1 209:1 212:1 213:1 215:1 218:1 220:1 222:1 224:1 226:1 229:1 232:1 235:1 237:1 248:1 260:1 261:1 262:1 265:1 266:1 269:1 271:1 272:1 273:1 274:1 276:1 278:1 279:1 283:1 285:1 286:1 290:1 292:1 296:1 297:1 300:1 303:1 304:1 317:1 324:1 326:1 327:1 331:1 333:1 342:1 343:1 350:1 351:1 353:1 355:1 358:1 363:1 364:1 369:1 376:1 377:1 378:1 380:1 388:1 390:1 411:1 412:1 422:1 428:1 429:1 445:1 450:1 457:1 460:1 461:1 480:1 482:1 486:1 488:1 497:1 498:1 500:1 504:1 512:1 516:1 522:1 526:1 528:1 530:1 547:1 558:1 559:1 560:1 561:1 564:1 569:1 572:1 575:1 577:1 587:1 588:1 589:1 592:1 613:1 615:1 627:1 631:1 632:1 640:1 641:1 652:1 686:1 690:1 695:1 697:1 717:1 733:1 735:1 739:1 750:1 769:1 778:1 779:1 791:1 797:1 806:1 841:1 848:1 860:1 862:1 873:1 888:1 889:1 890:1 894:1 895:1 900:1 917:1 922:1 943:1 948:1 959:1 963:1 973:1 976:1 994:1 999:1 1003:1 1004:1 1007:1 1023:1 1039:1 1048:1 1052:1 1066:1 1099:1 1102:1 1127:1 1148:1 1165:1 1195:1 1217:1 1218:1 1235:1 1257:1 1285:1 1286:1 1301:1 1315:1 1327:1 1330:1 1332:1 1349:1 1379:1 1383:1 1388:1 1389:1 1402:1 1424:1 1456:1 1458:1 1481:1 1494:1 1512:1 1514:1 1518:1 1540:1 1541:1 1597:1 1609:1 1620:1 1630:1 1708:1 1714:1 1740:1 1775:1 1782:1 1825:1 1848:1 1857:1 1859:1 1888:1 1921:1 1927:1 1939:1 1940:1 1964:1 2025:1 2031:1 #
-0.0044250118221682895741642127518389 1:1 2:1 3:1 4:1 5:1 6:1 7:1 8:1 9:1 11:1 12:1 13:1 14:1 15:1 16:1 17:1 18:1 19:1 20:1 21:1 22:1 23:1 24:1 25:1 26:1 27:1 28:1 29:1 30:1 31:1 32:1 33:1 34:1 35:1 36:1 37:1 38:1 39:1 40:1 41:1 42:1 43:1 44:1 45:1 46:1 48:1 49:1 50:1 51:1 53:1 55:1 57:1 59:1 60:1 61:1 62:1 63:1 67:1 68:1 69:1 70:1 72:1 75:1 76:1 77:1 78:1 81:1 82:1 83:1 84:1 86:1 89:1 90:1 91:1 92:1 93:1 94:1 96:1 98:1 99:1 100:1 102:1 103:1 104:1 105:1 106:1 107:1 108:1 109:1 110:1 112:1 113:1 115:1 116:1 118:1 119:1 121:1 122:1 123:1 126:1 129:1 132:1 133:1 134:1 135:1 136:1 138:1 141:1 144:1 146:1 148:1 151:1 153:1 154:1 155:1 156:1 157:1 160:1 161:1 162:1 167:1 170:1 173:1 174:1 178:1 181:1 185:1 189:1 190:1 192:1 193:1 195:1 199:1 200:1 201:1 202:1 203:1 205:1 206:1 208:1 209:1 211:1 216:1 217:1 219:1 224:1 225:1 227:1 234:1 236:1 240:1 242:1 243:1 246:1 250:1 252:1 253:1 255:1 259:1 260:1 262:1 263:1 272:1 273:1 276:1 286:1 287:1 294:1 297:1 298:1 300:1 308:1 310:1 314:1 320:1 328:1 334:1 337:1 338:1 339:1 349:1 352:1 353:1 359:1 363:1 365:1 368:1 372:1 377:1 378:1 384:1 385:1 388:1 390:1 391:1 393:1 397:1 399:1 402:1 403:1 404:1 409:1 412:1 420:1 433:1 434:1 435:1 438:1 440:1 442:1 448:1 452:1 456:1 457:1 470:1 475:1 481:1 483:1 486:1 490:1 494:1 526:1 527:1 529:1 534:1 546:1 556:1 563:1 571:1 584:1 585:1 590:1 611:1 624:1 641:1 650:1 658:1 676:1 680:1 689:1 691:1 703:1 713:1 717:1 722:1 729:1 739:1 742:1 746:1 760:1 764:1 766:1 770:1 776:1 781:1 785:1 788:1 825:1 828:1 838:1 845:1 875:1 892:1 902:1 912:1 914:1 915:1 919:1 923:1 928:1 930:1 990:1 992:1 993:1 1001:1 1018:1 1020:1 1022:1 1025:1 1041:1 1049:1 1051:1 1073:1 1120:1 1131:1 1140:1 1187:1 1201:1 1203:1 1210:1 1213:1 1233:1 1244:1 1270:1 1281:1 1312:1 1323:1 1325:1 1362:1 1370:1 1413:1 1469:1 1496:1 1499:1 1564:1 1581:1 1617:1 1657:1 1673:1 1675:1 1679:1 1684:1 1694:1 1723:1 1757:1 1758:1 1804:1 1851:1 1853:1 1908:1 1929:1 1993:1 2014:1 #
-0.00086587146537664319134036672309662 1:1 2:1 3:1 4:1 5:1 6:1 7:1 8:1 9:1 10:1 11:1 12:1 13:1 14:1 15:1 16:1 17:1 18:1 19:1 20:1 21:1 22:1 23:1 24:1 25:1 26:1 27:1 28:1 29:1 30:1 31:1 32:1 33:1 34:1 35:1 36:1 37:1 38:1 39:1 40:1 41:1 42:1 43:1 44:1 45:1 46:1 47:1 48:1 49:1 50:1 51:1 52:1 53:1 54:1 55:1 56:1 57:1 58:1 59:1 60:1 61:1 62:1 63:1 64:1 65:1 66:1 67:1 68:1 69:1 70:1 71:1 72:1 73:1 75:1 76:1 77:1 78:1 79:1 80:1 81:1 82:1 83:1 84:1 85:1 86:1 87:1 88:1 89:1 91:1 93:1 95:1 96:1 97:1 98:1 99:1 100:1 101:1 102:1 103:1 104:1 105:1 106:1 107:1 108:1 109:1 110:1 112:1 113:1 115:1 116:1 117:1 118:1 121:1 123:1 124:1 125:1 126:1 127:1 128:1 130:1 131:1 133:1 134:1 135:1 136:1 137:1 139:1 140:1 141:1 142:1 143:1 144:1 145:1 146:1 147:1 148:1 149:1 150:1 151:1 152:1 153:1 154:1 155:1 157:1 160:1 161:1 162:1 163:1 164:1 166:1 167:1 168:1 169:1 170:1 172:1 173:1 174:1 175:1 176:1 178:1 180:1 185:1 188:1 189:1 192:1 194:1 195:1 199:1 201:1 202:1 204:1 205:1 206:1 207:1 208:1 209:1 210:1 211:1 213:1 215:1 216:1 219:1 220:1 221:1 222:1 223:1 224:1 225:1 228:1 229:1 234:1 235:1 236:1 239:1 241:1 242:1 245:1 247:1 250:1 252:1 255:1 256:1 257:1 258:1 259:1 260:1 262:1 269:1 271:1 273:1 280:1 281:1 286:1 287:1 289:1 290:1 295:1 298:1 300:1 301:1 302:1 303:1 305:1 307:1 310:1 316:1 317:1 318:1 320:1 323:1 325:1 330:1 335:1 336:1 337:1 341:1 344:1 345:1 362:1 365:1 366:1 369:1 372:1 380:1 388:1 393:1 394:1 396:1 398:1 402:1 412:1 415:1 417:1 421:1 427:1 431:1 435:1 440:1 443:1 444:1 450:1 452:1 467:1 471:1 484:1 486:1 490:1 491:1 500:1 516:1 518:1 519:1 530:1 540:1 549:1 553:1 559:1 562:1 564:1 575:1 577:1 580:1 581:1 582:1 584:1 588:1 595:1 600:1 605:1 626:1 628:1 646:1 654:1 656:1 690:1 700:1 703:1 717:1 720:1 729:1 733:1 740:1 749:1 753:1 769:1 771:1 774:1 776:1 799:1 800:1 803:1 808:1 816:1 818:1 831:1 836:1 838:1 854:1 874:1 880:1 883:1 893:1 897:1 921:1 922:1 944:1 952:1 953:1 968:1 972:1 976:1 1015:1 1023:1 1025:1 1032:1 1035:1 1073:1 1083:1 1084:1 1105:1 1121:1 1159:1 1160:1 1170:1 1188:1 1201:1 1207:1 1209:1 1223:1 1226:1 1251:1 1258:1 1277:1 1301:1 1315:1 1324:1 1328:1 1350:1 1353:1 1381:1 1389:1 1415:1 1429:1 1431:1 1442:1 1474:1 1476:1 1479:1 1494:1 1508:1 1513:1 1515:1 1537:1 1544:1 1548:1 1555:1 1576:1 1580:1 1593:1 1605:1 1611:1 1627:1 1629:1 1638:1 1668:1 1698:1 1704:1 1742:1 1786:1 1803:1 1819:1 1830:1 1835:1 1864:1 1891:1 1897:1 1899:1 1971:1 1973:1 2009:1 2013:1 2027:1 #
0.00036215827841599946765316353491926 1:1 2:1 3:1 4:1 5:1 6:1 7:1 8:1 9:1 10:1 11:1 12:1 13:1 14:1 15:1 16:1 17:1 18:1 19:1 20:1 22:1 23:1 24:1 25:1 26:1 27:1 29:1 30:1 31:1 32:1 33:1 34:1 35:1 37:1 38:1 39:1 40:1 41:1 42:1 43:1 44:1 45:1 46:1 47:1 48:1 49:1 50:1 52:1 53:1 54:1 56:1 57:1 58:1 61:1 62:1 63:1 64:1 66:1 67:1 68:1 69:1 70:1 71:1 72:1 78:1 80:1 81:1 82:1 83:1 85:1 87:1 88:1 89:1 91:1 93:1 103:1 106:1 108:1 112:1 114:1 116:1 117:1 118:1 123:1 124:1 126:1 131:1 135:1 137:1 143:1 144:1 150:1 157:1 160:1 167:1 168:1 174:1 175:1 182:1 183:1 185:1 186:1 188:1 190:1 191:1 192:1 193:1 195:1 197:1 198:1 207:1 208:1 210:1 220:1 224:1 231:1 236:1 237:1 243:1 258:1 269:1 275:1 276:1 282:1 291:1 294:1 297:1 298:1 301:1 303:1 305:1 310:1 319:1 327:1 338:1 342:1 348:1 350:1 351:1 355:1 356:1 374:1 379:1 382:1 389:1 392:1 398:1 400:1 402:1 405:1 411:1 414:1 421:1 423:1 434:1 444:1 464:1 469:1 471:1 476:1 514:1 520:1 523:1 546:1 558:1 560:1 563:1 566:1 597:1 639:1 645:1 668:1 670:1 673:1 698:1 708:1 743:1 747:1 748:1 776:1 790:1 798:1 805:1 825:1 831:1 839:1 851:1 867:1 872:1 874:1 888:1 890:1 896:1 917:1 955:1 991:1 995:1 1058:1 1072:1 1097:1 1119:1 1168:1 1173:1 1180:1 1230:1 1279:1 1331:1 1348:1 1358:1 1377:1 1446:1 1464:1 1495:1 1504:1 1535:1 1556:1 1589:1 1591:1 1600:1 1601:1 1640:1 1739:1 1937:1 1990:1 2014:1 #
-0.0044250118221682895741642127518389 1:1 2:1 3:1 4:1 5:1 6:1 7:1 8:1 9:1 10:1 11:1 12:1 13:1 14:1 15:1 16:1 17:1 18:1 19:1 20:1 21:1 22:1 23:1 24:1 25:1 26:1 27:1 28:1 29:1 30:1 31:1 32:1 33:1 34:1 35:1 36:1 37:1 38:1 39:1 40:1 41:1 42:1 44:1 45:1 46:1 47:1 48:1 49:1 50:1 51:1 52:1 53:1 54:1 55:1 56:1 58:1 59:1 60:1 62:1 63:1 64:1 65:1 66:1 67:1 68:1 69:1 70:1 71:1 72:1 73:1 75:1 77:1 78:1 80:1 81:1 82:1 84:1 85:1 86:1 88:1 89:1 90:1 91:1 92:1 93:1 94:1 96:1 97:1 98:1 99:1 100:1 101:1 102:1 104:1 105:1 106:1 108:1 110:1 111:1 112:1 114:1 117:1 118:1 119:1 121:1 122:1 123:1 125:1 126:1 127:1 128:1 129:1 132:1 136:1 137:1 138:1 139:1 140:1 141:1 142:1 144:1 147:1 149:1 150:1 154:1 155:1 157:1 160:1 161:1 166:1 167:1 168:1 169:1 170:1 172:1 173:1 174:1 175:1 176:1 178:1 180:1 181:1 182:1 183:1 187:1 188:1 189:1 193:1 195:1 199:1 202:1 203:1 204:1 208:1 209:1 210:1 211:1 212:1 220:1 222:1 223:1 231:1 232:1 233:1 235:1 236:1 237:1 244:1 246:1 250:1 253:1 254:1 258:1 262:1 264:1 265:1 266:1 268:1 271:1 272:1 279:1 280:1 282:1 283:1 284:1 287:1 288:1 289:1 290:1 292:1 297:1 298:1 299:1 310:1 314:1 318:1 319:1 326:1 329:1 330:1 335:1 339:1 344:1 347:1 360:1 363:1 371:1 382:1 387:1 389:1 392:1 395:1 396:1 397:1 411:1 425:1 429:1 438:1 441:1 442:1 443:1 449:1 456:1 457:1 458:1 460:1 462:1 464:1 471:1 481:1 488:1 495:1 501:1 524:1 542:1 550:1 559:1 565:1 570:1 580:1 587:1 595:1 613:1 621:1 634:1 645:1 650:1 654:1 668:1 682:1 687:1 692:1 705:1 721:1 724:1 725:1 737:1 744:1 747:1 750:1 767:1 773:1 782:1 783:1 784:1 795:1 796:1 798:1 805:1 817:1 851:1 854:1 881:1 890:1 894:1 898:1 908:1 910:1 921:1 922:1 932:1 944:1 947:1 950:1 958:1 961:1 970:1 986:1 988:1 1003:1 1010:1 1024:1 1028:1 1037:1 1053:1 1072:1 1083:1 1094:1 1118:1 1146:1 1156:1 1174:1 1188:1 1203:1 1221:1 1224:1 1233:1 1268:1 1285:1 1290:1 1295:1 1341:1 1367:1 1416:1 1420:1 1454:1 1475:1 1476:1 1488:1 1502:1 1545:1 1552:1 1558:1 1571:1 1593:1 1612:1 1628:1 1665:1 1770:1 1822:1 1830:1 1839:1 1929:1 1941:1 1955:1 1968:1 1979:1 1993:1 2002:1 2016:1 #
0.0044250118221682895741642127518389 1:1 2:1 3:1 4:1 5:1 6:1 7:1 8:1 9:1 10:1 11:1 12:1 13:1 14:1 15:1 16:1 17:1 19:1 21:1 22:1 23:1 24:1 25:1 26:1 28:1 30:1 31:1 32:1 34:1 36:1 38:1 39:1 41:1 47:1 50:1 53:1 59:1 62:1 64:1 77:1 82:1 84:1 91:1 94:1 103:1 112:1 117:1 124:1 134:1 138:1 163:1 167:1 176:1 186:1 188:1 196:1 216:1 223:1 253:1 258:1 265:1 268:1 290:1 291:1 299:1 302:1 328:1 364:1 404:1 466:1 475:1 478:1 479:1 517:1 525:1 545:1 584:1 590:1 591:1 684:1 691:1 715:1 810:1 822:1 902:1 910:1 913:1 942:1 954:1 996:1 1036:1 1091:1 1136:1 1162:1 1168:1 1203:1 1268:1 1355:1 1362:1 1375:1 1411:1 1537:1 1544:1 1675:1 1733:1 1856:1 1984:1 2010:1 2029:1 #
0.0044250118221682895741642127518389 1:1 2:1 3:1 4:1 5:1 6:1 7:1 8:1 9:1 11:1 12:1 13:1 14:1 15:1 19:1 20:1 21:1 23:1 26:1 27:1 28:1 33:1 36:1 37:1 40:1 43:1 46:1 48:1 52:1 53:1 54:1 56:1 57:1 59:1 61:1 67:1 70:1 71:1 91:1 93:1 101:1 110:1 115:1 123:1 135:1 139:1 141:1 142:1 160:1 169:1 186:1 191:1 193:1 202:1 227:1 229:1 248:1 255:1 256:1 274:1 284:1 285:1 294:1 337:1 363:1 431:1 454:1 498:1 503:1 563:1 581:1 648:1 679:1 775:1 776:1 778:1 815:1 834:1 840:1 910:1 982:1 1002:1 1037:1 1141:1 1244:1 1344:1 1363:1 1433:1 1490:1 1535:1 1552:1 1589:1 1645:1 1660:1 1811:1 1827:1 2030:1 #
0.0044250118221682895741642127518389 2:1 3:1 4:1 5:1 6:1 7:1 8:1 9:1 12:1 13:1 16:1 17:1 18:1 20:1 22:1 23:1 24:1 29:1 33:1 36:1 37:1 38:1 45:1 46:1 48:1 49:1 52:1 65:1 70:1 71:1 73:1 76:1 77:1 79:1 93:1 95:1 100:1 107:1 122:1 123:1 139:1 141:1 145:1 155:1 156:1 159:1 169:1 173:1 213:1 238:1 242:1 275:1 278:1 299:1 381:1 382:1 397:1 406:1 450:1 470:1 488:1 553:1 566:1 600:1 673:1 734:1 735:1 771:1 829:1 863:1 883:1 918:1 998:1 1037:1 1065:1 1182:1 1311:1 1361:1 1650:1 1791:1 1913:1 2009:1 #
0.0044250118221682895741642127518389 1:1 2:1 3:1 4:1 5:1 6:1 7:1 8:1 9:1 10:1 11:1 12:1 13:1 14:1 15:1 16:1 17:1 18:1 19:1 21:1 22:1 24:1 25:1 28:1 29:1 31:1 32:1 34:1 35:1 37:1 39:1 40:1 47:1 48:1 49:1 53:1 55:1 56:1 58:1 62:1 65:1 68:1 71:1 72:1 79:1 82:1 83:1 107:1 114:1 121:1 123:1 136:1 145:1 150:1 174:1 181:1 183:1 184:1 205:1 208:1 219:1 221:1 235:1 242:1 255:1 261:1 264:1 269:1 314:1 315:1 340:1 352:1 357:1 375:1 399:1 408:1 419:1 429:1 464:1 480:1 504:1 518:1 538:1 553:1 555:1 573:1 624:1 657:1 681:1 700:1 703:1 704:1 736:1 768:1 782:1 783:1 790:1 813:1 818:1 832:1 883:1 944:1 945:1 995:1 1016:1 1021:1 1078:1 1086:1 1158:1 1161:1 1300:1 1365:1 1403:1 1405:1 1450:1 1458:1 1535:1 1552:1 1561:1 1664:1 1763:1 1825:1 1859:1 1860:1 1944:1 1967:1 2025:1 #
0.0044250118221682895741642127518389 1:1 2:1 3:1 4:1 5:1 6:1 7:1 8:1 9:1 10:1 11:1 12:1 13:1 14:1 15:1 16:1 17:1 18:1 19:1 21:1 22:1 23:1 24:1 25:1 26:1 28:1 29:1 30:1 32:1 33:1 34:1 36:1 37:1 41:1 42:1 45:1 46:1 47:1 48:1 49:1 51:1 53:1 54:1 56:1 57:1 58:1 62:1 64:1 65:1 67:1 69:1 75:1 76:1 84:1 95:1 97:1 99:1 102:1 136:1 137:1 140:1 146:1 154:1 157:1 160:1 162:1 169:1 170:1 192:1 203:1 209:1 218:1 230:1 233:1 258:1 259:1 284:1 292:1 297:1 316:1 351:1 355:1 360:1 364:1 377:1 379:1 383:1 395:1 398:1 408:1 452:1 458:1 470:1 496:1 508:1 524:1 558:1 565:1 593:1 595:1 689:1 729:1 834:1 835:1 852:1 920:1 932:1 951:1 1161:1 1162:1 1277:1 1320:1 1364:1 1395:1 1430:1 1454:1 1468:1 1494:1 1780:1 #
-0.0044250118221682895741642127518389 1:1 2:1 3:1 4:1 5:1 6:1 7:1 9:1 11:1 12:1 14:1 15:1 16:1 17:1 18:1 20:1 21:1 22:1 23:1 26:1 27:1 35:1 36:1 38:1 39:1 45:1 48:1 49:1 52:1 56:1 62:1 68:1 76:1 78:1 85:1 88:1 95:1 133:1 141:1 142:1 143:1 148:1 155:1 158:1 162:1 163:1 176:1 196:1 200:1 206:1 220:1 223:1 225:1 255:1 296:1 317:1 321:1 328:1 329:1 353:1 360:1 400:1 434:1 439:1 440:1 548:1 689:1 704:1 747:1 771:1 818:1 822:1 858:1 904:1 936:1 944:1 970:1 1140:1 1153:1 1282:1 1462:1 1472:1 1651:1 1738:1 1749:1 1900:1 #
-0.0044250118221682895741642127518389 1:1 2:1 3:1 4:1 5:1 6:1 7:1 8:1 9:1 11:1 12:1 13:1 14:1 15:1 16:1 17:1 18:1 19:1 23:1 26:1 29:1 30:1 32:1 33:1 34:1 35:1 36:1 37:1 38:1 39:1 40:1 42:1 44:1 45:1 48:1 52:1 53:1 56:1 57:1 63:1 72:1 81:1 83:1 86:1 91:1 93:1 94:1 98:1 101:1 104:1 105:1 117:1 119:1 134:1 136:1 142:1 146:1 160:1 171:1 182:1 190:1 196:1 216:1 236:1 243:1 248:1 260:1 262:1 266:1 268:1 279:1 285:1 289:1 294:1 303:1 312:1 314:1 315:1 328:1 329:1 344:1 353:1 354:1 377:1 398:1 407:1 459:1 465:1 483:1 489:1 493:1 503:1 513:1 517:1 529:1 559:1 566:1 571:1 587:1 624:1 633:1 742:1 748:1 759:1 782:1 813:1 814:1 839:1 906:1 938:1 948:1 1016:1 1050:1 1078:1 1079:1 1141:1 1181:1 1211:1 1222:1 1257:1 1343:1 1347:1 1351:1 1401:1 1539:1 1781:1 1920:1 1959:1 #
-0.0044250118221682895741642127518389 1:1 2:1 3:1 4:1 5:1 6:1 7:1 8:1 9:1 11:1 13:1 14:1 15:1 16:1 18:1 19:1 21:1 22:1 23:1 24:1 30:1 31:1 34:1 41:1 42:1 47:1 49:1 51:1 55:1 59:1 67:1 68:1 81:1 97:1 109:1 113:1 115:1 126:1 130:1 145:1 161:1 171:1 174:1 175:1 177:1 201:1 209:1 219:1 244:1 247:1 255:1 266:1 268:1 278:1 307:1 362:1 389:1 399:1 480:1 490:1 543:1 565:1 578:1 590:1 665:1 669:1 707:1 709:1 751:1 753:1 765:1 789:1 855:1 871:1 957:1 1047:1 1173:1 1176:1 1209:1 1291:1 1318:1 1357:1 1382:1 1452:1 1537:1 1987:1 2012:1 2037:1 #
-0.0044250118221682895741642127518389 1:1 2:1 3:1 4:1 5:1 6:1 7:1 8:1 9:1 10:1 11:1 12:1 14:1 15:1 16:1 17:1 18:1 19:1 21:1 22:1 23:1 24:1 25:1 26:1 27:1 28:1 31:1 33:1 34:1 36:1 37:1 38:1 39:1 40:1 44:1 45:1 49:1 51:1 54:1 55:1 60:1 63:1 77:1 85:1 106:1 116:1 117:1 121:1 133:1 141:1 155:1 156:1 167:1 179:1 184:1 185:1 186:1 189:1 196:1 200:1 210:1 213:1 219:1 228:1 274:1 278:1 279:1 302:1 316:1 322:1 329:1 345:1 355:1 367:1 385:1 386:1 395:1 401:1 443:1 448:1 453:1 470:1 513:1 517:1 552:1 555:1 575:1 582:1 590:1 606:1 613:1 648:1 650:1 662:1 676:1 689:1 707:1 733:1 760:1 772:1 777:1 816:1 818:1 823:1 832:1 853:1 865:1 875:1 904:1 932:1 942:1 1016:1 1020:1 1082:1 1100:1 1123:1 1146:1 1170:1 1183:1 1205:1 1218:1 1257:1 1284:1 1327:1 1379:1 1462:1 1472:1 1481:1 1495:1 1596:1 1624:1 1685:1 1714:1 1774:1 1824:1 1954:1 1965:1 #
0.0044250118221682895741642127518389 1:1 2:1 3:1 4:1 5:1 6:1 7:1 8:1 9:1 10:1 11:1 12:1 13:1 14:1 15:1 16:1 17:1 18:1 19:1 20:1 21:1 22:1 23:1 24:1 25:1 26:1 27:1 28:1 29:1 30:1 31:1 32:1 33:1 34:1 35:1 36:1 37:1 38:1 39:1 40:1 41:1 42:1 44:1 45:1 46:1 47:1 48:1 49:1 50:1 51:1 52:1 53:1 54:1 55:1 57:1 58:1 60:1 61:1 63:1 64:1 65:1 66:1 67:1 69:1 70:1 71:1 72:1 73:1 75:1 76:1 78:1 79:1 80:1 81:1 83:1 85:1 86:1 88:1 90:1 91:1 93:1 96:1 97:1 98:1 100:1 101:1 102:1 103:1 104:1 105:1 106:1 107:1 109:1 110:1 112:1 114:1 115:1 116:1 117:1 118:1 121:1 123:1 124:1 125:1 126:1 128:1 131:1 132:1 133:1 135:1 137:1 138:1 139:1 140:1 141:1 142:1 143:1 145:1 146:1 152:1 153:1 154:1 156:1 157:1 158:1 161:1 162:1 163:1 165:1 167:1 168:1 169:1 170:1 171:1 172:1 174:1 175:1 177:1 185:1 188:1 189:1 190:1 192:1 194:1 197:1 198:1 199:1 203:1 204:1 205:1 206:1 207:1 208:1 209:1 211:1 213:1 224:1 226:1 227:1 228:1 229:1 232:1 233:1 234:1 238:1 239:1 240:1 241:1 243:1 244:1 246:1 247:1 248:1 249:1 250:1 263:1 268:1 269:1 270:1 273:1 274:1 275:1 278:1 280:1 281:1 285:1 286:1 287:1 289:1 292:1 297:1 305:1 306:1 307:1 316:1 317:1 321:1 323:1 324:1 325:1 335:1 343:1 346:1 351:1 353:1 373:1 374:1 376:1 377:1 380:1 385:1 392:1 397:1 402:1 406:1 407:1 412:1 416:1 420:1 429:1 434:1 439:1 440:1 442:1 443:1 444:1 449:1 461:1 463:1 470:1 484:1 486:1 493:1 494:1 500:1 501:1 510:1 512:1 513:1 522:1 541:1 552:1 561:1 564:1 575:1 579:1 582:1 586:1 593:1 596:1 601:1 603:1 617:1 622:1 627:1 629:1 644:1 652:1 660:1 671:1 676:1 689:1 693:1 705:1 708:1 716:1 739:1 740:1 742:1 743:1 758:1 774:1 777:1 779:1 786:1 834:1 844:1 845:1 847:1 851:1 870:1 873:1 876:1 877:1 890:1 908:1 911:1 917:1 938:1 943:1 960:1 968:1 977:1 980:1 1000:1 1029:1 1038:1 1040:1 1045:1 1057:1 1059:1 1063:1 1069:1 1106:1 1125:1 1139:1 1142:1 1151:1 1182:1 1184:1 1186:1 1198:1 1205:1 1208:1 1254:1 1267:1 1271:1 1274:1 1275:1 1305:1 1335:1 1338:1 1359:1 1388:1 1389:1 1401:1 1432:1 1449:1 1456:1 1473:1 1479:1 1496:1 1499:1 1524:1 1531:1 1548:1 1569:1 1588:1 1600:1 1606:1 1612:1 1620:1 1637:1 1661:1 1672:1 1690:1 1772:1 1855:1 1856:1 1857:1 1861:1 1874:1 1883:1 1886:1 1890:1 1918:1 1950:1 #
0.0044250118221682895741642127518389 1:1 2:1 3:1 4:1 5:1 6:1 7:1 8:1 9:1 10:1 11:1 12:1 13:1 14:1 15:1 16:1 17:1 18:1 19:1 20:1 21:1 22:1 23:1 24:1 25:1 26:1 27:1 28:1 30:1 31:1 32:1 33:1 34:1 35:1 36:1 37:1 38:1 39:1 40:1 41:1 42:1 43:1 44:1 45:1 46:1 47:1 48:1 49:1 50:1 51:1 52:1 53:1 54:1 55:1 56:1 57:1 58:1 59:1 60:1 61:1 62:1 63:1 64:1 65:1 66:1 69:1 70:1 71:1 72:1 73:1 75:1 76:1 77:1 78:1 80:1 81:1 83:1 85:1 86:1 87:1 88:1 89:1 91:1 93:1 94:1 96:1 99:1 101:1 102:1 103:1 104:1 105:1 106:1 107:1 108:1 109:1 110:1 111:1 112:1 115:1 116:1 117:1 118:1 119:1 121:1 122:1 123:1 125:1 127:1 128:1 129:1 135:1 136:1 138:1 139:1 140:1 142:1 143:1 144:1 145:1 146:1 150:1 151:1 153:1 155:1 156:1 158:1 166:1 167:1 168:1 172:1 175:1 176:1 178:1 179:1 180:1 182:1 184:1 187:1 189:1 192:1 193:1 194:1 196:1 197:1 198:1 199:1 202:1 203:1 205:1 209:1 216:1 218:1 219:1 221:1 222:1 226:1 227:1 232:1 233:1 235:1 236:1 239:1 243:1 244:1 245:1 246:1 249:1 250:1 252:1 258:1 265:1 266:1 268:1 271:1 272:1 280:1 281:1 282:1 283:1 285:1 287:1 289:1 292:1 296:1 298:1 299:1 302:1 303:1 304:1 312:1 319:1 325:1 327:1 329:1 330:1 333:1 335:1 337:1 345:1 358:1 359:1 373:1 375:1 383:1 385:1 386:1 395:1 403:1 407:1 412:1 427:1 439:1 449:1 451:1 459:1 473:1 478:1 483:1 484:1 487:1 489:1 504:1 530:1 540:1 555:1 557:1 564:1 577:1 586:1 589:1 593:1 597:1 614:1 626:1 629:1 634:1 648:1 672:1 685:1 699:1 707:1 712:1 713:1 724:1 728:1 729:1 732:1 755:1 763:1 764:1 767:1 775:1 778:1 818:1 822:1 829:1 850:1 853:1 859:1 864:1 866:1 887:1 917:1 935:1 945:1 948:1 957:1 959:1 971:1 983:1 998:1 1000:1 1002:1 1007:1 1010:1 1017:1 1031:1 1039:1 1044:1 1083:1 1121:1 1127:1 1151:1 1166:1 1188:1 1190:1 1191:1 1196:1 1203:1 1206:1 1231:1 1255:1 1273:1 1274:1 1285:1 1330:1 1332:1 1345:1 1379:1 1392:1 1421:1 1439:1 1481:1 1500:1 1533:1 1586:1 1592:1 1598:1 1653:1 1676:1 1684:1 1690:1 1697:1 1726:1 1741:1 1770:1 1803:1 1804:1 1814:1 1825:1 1843:1 1877:1 1880:1 1993:1 1996:1 2030:1 #
0.00045719815023922462122324406053053 1:1 2:1 3:1 4:1 5:1 6:1 7:1 8:1 9:1 10:1 11:1 12:1 13:1 14:1 15:1 16:1 17:1 18:1 19:1 20:1 21:1 22:1 23:1 24:1 25:1 26:1 27:1 28:1 29:1 30:1 31:1 32:1 33:1 34:1 35:1 36:1 37:1 38:1 39:1 40:1 41:1 42:1 43:1 44:1 45:1 46:1 47:1 48:1 49:1 50:1 51:1 52:1 53:1 54:1 55:1 56:1 57:1 58:1 59:1 60:1 61:1 63:1 64:1 65:1 66:1 67:1 68:1 69:1 71:1 73:1 75:1 77:1 78:1 81:1 84:1 85:1 88:1 89:1 90:1 93:1 94:1 95:1 96:1 97:1 98:1 99:1 103:1 104:1 106:1 107:1 108:1 109:1 112:1 114:1 116:1 117:1 118:1 119:1 121:1 122:1 124:1 125:1 126:1 127:1 130:1 132:1 133:1 134:1 136:1 137:1 138:1 139:1 141:1 142:1 143:1 144:1 145:1 149:1 155:1 157:1 160:1 161:1 166:1 167:1 169:1 170:1 172:1 174:1 175:1 176:1 177:1 178:1 179:1 180:1 181:1 183:1 186:1 187:1 188:1 189:1 190:1 191:1 194:1 197:1 198:1 199:1 202:1 206:1 207:1 211:1 212:1 214:1 216:1 218:1 222:1 225:1 226:1 227:1 232:1 235:1 242:1 245:1 246:1 248:1 249:1 250:1 254:1 256:1 259:1 262:1 263:1 265:1 271:1 273:1 278:1 280:1 281:1 284:1 286:1 287:1 288:1 293:1 294:1 300:1 303:1 304:1 306:1 310:1 313:1 314:1 317:1 322:1 326:1 328:1 329:1 331:1 334:1 335:1 339:1 341:1 344:1 346:1 347:1 350:1 353:1 368:1 369:1 372:1 378:1 386:1 387:1 389:1 393:1 397:1 398:1 403:1 408:1 410:1 422:1 427:1 431:1 434:1 436:1 439:1 440:1 444:1 445:1 450:1 456:1 462:1 463:1 464:1 470:1 486:1 499:1 502:1 504:1 510:1 514:1 522:1 523:1 524:1 530:1 531:1 540:1 544:1 557:1 569:1 571:1 575:1 581:1 586:1 598:1 604:1 605:1 612:1 621:1 633:1 638:1 655:1 673:1 679:1 687:1 693:1 701:1 703:1 709:1 716:1 730:1 740:1 743:1 763:1 764:1 767:1 814:1 819:1 820:1 829:1 838:1 843:1 844:1 853:1 860:1 864:1 870:1 874:1 875:1 878:1 879:1 883:1 889:1 890:1 896:1 898:1 929:1 931:1 962:1 980:1 988:1 1004:1 1012:1 1016:1 1046:1 1060:1 1084:1 1104:1 1151:1 1173:1 1175:1 1188:1 1216:1 1233:1 1241:1 1242:1 1261:1 1270:1 1280:1 1296:1 1320:1 1322:1 1325:1 1332:1 1341:1 1377:1 1388:1 1414:1 1419:1 1459:1 1464:1 1469:1 1506:1 1519:1 1522:1 1548:1 1580:1 1583:1 1626:1 1635:1 1671:1 1681:1 1704:1 1721:1 1769:1 1811:1 1825:1 1831:1 1874:1 1930:1 1947:1 1949:1 2001:1 2017:1 #
0.0044250118221682895741642127518389 1:1 2:1 3:1 4:1 5:1 6:1 7:1 8:1 9:1 10:1 11:1 12:1 13:1 14:1 15:1 16:1 17:1 18:1 19:1 20:1 21:1 22:1 23:1 24:1 25:1 26:1 27:1 28:1 29:1 30:1 31:1 32:1 33:1 34:1 35:1 36:1 37:1 38:1 39:1 40:1 41:1 42:1 43:1 44:1 45:1 46:1 48:1 49:1 50:1 51:1 52:1 53:1 54:1 55:1 56:1 57:1 58:1 59:1 61:1 63:1 64:1 65:1 66:1 67:1 68:1 69:1 70:1 71:1 72:1 73:1 75:1 76:1 79:1 80:1 82:1 83:1 84:1 86:1 87:1 90:1 91:1 93:1 96:1 97:1 98:1 99:1 101:1 102:1 103:1 104:1 105:1 106:1 107:1 108:1 109:1 111:1 112:1 113:1 115:1 116:1 118:1 122:1 124:1 125:1 126:1 129:1 130:1 133:1 134:1 135:1 136:1 137:1 139:1 141:1 142:1 143:1 145:1 147:1 150:1 151:1 153:1 154:1 155:1 157:1 159:1 161:1 162:1 163:1 167:1 168:1 171:1 172:1 174:1 177:1 179:1 181:1 186:1 187:1 188:1 189:1 191:1 193:1 198:1 199:1 200:1 201:1 202:1 203:1 204:1 210:1 211:1 214:1 215:1 216:1 218:1 220:1 221:1 222:1 225:1 226:1 228:1 230:1 231:1 233:1 235:1 245:1 246:1 249:1 250:1 251:1 254:1 257:1 258:1 260:1 261:1 263:1 264:1 265:1 267:1 268:1 270:1 271:1 273:1 274:1 276:1 279:1 280:1 282:1 285:1 286:1 287:1 288:1 289:1 292:1 293:1 298:1 301:1 307:1 308:1 316:1 318:1 322:1 325:1 327:1 333:1 334:1 335:1 336:1 343:1 344:1 345:1 347:1 351:1 359:1 362:1 365:1 376:1 378:1 382:1 388:1 389:1 391:1 394:1 399:1 402:1 404:1 410:1 411:1 412:1 416:1 425:1 426:1 428:1 431:1 439:1 441:1 442:1 443:1 444:1 445:1 451:1 452:1 453:1 457:1 458:1 461:1 466:1 471:1 476:1 498:1 514:1 516:1 522:1 534:1 542:1 546:1 555:1 557:1 561:1 568:1 577:1 585:1 587:1 589:1 592:1 593:1 596:1 599:1 609:1 618:1 621:1 632:1 639:1 647:1 651:1 652:1 665:1 677:1 678:1 682:1 693:1 695:1 708:1 709:1 718:1 737:1 755:1 781:1 783:1 785:1 789:1 801:1 803:1 804:1 815:1 816:1 824:1 825:1 828:1 834:1 835:1 839:1 855:1 858:1 863:1 867:1 880:1 893:1 896:1 903:1 922:1 927:1 934:1 938:1 956:1 959:1 963:1 968:1 970:1 979:1 982:1 1000:1 1003:1 1017:1 1019:1 1020:1 1052:1 1070:1 1090:1 1094:1 1102:1 1118:1 1128:1 1154:1 1156:1 1157:1 1165:1 1176:1 1179:1 1188:1 1219:1 1235:1 1239:1 1250:1 1254:1 1257:1 1263:1 1270:1 1285:1 1296:1 1319:1 1329:1 1361:1 1367:1 1369:1 1377:1 1387:1 1405:1 1408:1 1417:1 1421:1 1441:1 1449:1 1470:1 1514:1 1522:1 1525:1 1528:1 1539:1 1555:1 1560:1 1587:1 1623:1 1627:1 1633:1 1722:1 1747:1 1789:1 1791:1 1793:1 1826:1 1830:1 1835:1 1887:1 1899:1 1901:1 1954:1 1969:1 1971:1 1991:1 2011:1 2012:1 2021:1 2033:1 2038:1 #
0.0044250118221682895741642127518389 1:1 2:1 3:1 4:1 5:1 6:1 7:1 8:1 9:1 10:1 11:1 12:1 13:1 14:1 15:1 16:1 17:1 18:1 19:1 20:1 21:1 22:1 23:1 24:1 25:1 26:1 27:1 28:1 30:1 31:1 32:1 33:1 34:1 35:1 36:1 37:1 38:1 39:1 40:1 41:1 42:1 43:1 44:1 45:1 46:1 47:1 48:1 49:1 50:1 51:1 52:1 53:1 54:1 55:1 56:1 57:1 58:1 59:1 60:1 61:1 62:1 63:1 64:1 65:1 67:1 68:1 69:1 70:1 71:1 72:1 73:1 75:1 78:1 79:1 81:1 82:1 83:1 84:1 85:1 86:1 87:1 88:1 89:1 90:1 91:1 92:1 93:1 94:1 96:1 97:1 98:1 100:1 101:1 102:1 103:1 104:1 105:1 106:1 108:1 109:1 110:1 112:1 113:1 114:1 115:1 117:1 118:1 120:1 125:1 128:1 129:1 132:1 135:1 136:1 139:1 141:1 142:1 143:1 147:1 148:1 149:1 150:1 151:1 158:1 159:1 160:1 161:1 162:1 166:1 167:1 168:1 169:1 172:1 173:1 174:1 176:1 182:1 183:1 184:1 194:1 195:1 198:1 205:1 207:1 210:1 211:1 212:1 219:1 220:1 221:1 222:1 223:1 225:1 228:1 231:1 232:1 234:1 237:1 239:1 243:1 246:1 248:1 254:1 255:1 256:1 261:1 263:1 264:1 266:1 268:1 270:1 277:1 278:1 279:1 284:1 286:1 287:1 293:1 296:1 298:1 300:1 305:1 309:1 310:1 311:1 316:1 321:1 324:1 328:1 333:1 337:1 342:1 343:1 355:1 358:1 363:1 369:1 376:1 378:1 383:1 389:1 393:1 396:1 397:1 398:1 402:1 405:1 407:1 414:1 426:1 437:1 438:1 447:1 449:1 450:1 464:1 465:1 470:1 471:1 476:1 477:1 489:1 497:1 499:1 500:1 515:1 531:1 540:1 549:1 551:1 557:1 582:1 584:1 589:1 594:1 598:1 601:1 605:1 607:1 611:1 615:1 619:1 633:1 639:1 640:1 644:1 648:1 652:1 653:1 657:1 661:1 664:1 665:1 667:1 678:1 684:1 702:1 714:1 719:1 720:1 730:1 734:1 737:1 739:1 740:1 750:1 760:1 765:1 775:1 811:1 816:1 818:1 825:1 831:1 837:1 842:1 846:1 854:1 856:1 864:1 866:1 873:1 894:1 900:1 920:1 923:1 927:1 949:1 985:1 986:1 1004:1 1037:1 1044:1 1051:1 1080:1 1081:1 1088:1 1124:1 1145:1 1162:1 1168:1 1169:1 1177:1 1191:1 1218:1 1229:1 1262:1 1267:1 1308:1 1349:1 1377:1 1382:1 1389:1 1398:1 1410:1 1423:1 1431:1 1450:1 1465:1 1486:1 1494:1 1500:1 1537:1 1580:1 1595:1 1605:1 1624:1 1672:1 1698:1 1709:1 1722:1 1746:1 1757:1 1760:1 1782:1 1800:1 1877:1 1881:1 1899:1 1922:1 1933:1 1949:1 1971:1 1996:1 2006:1 2037:1 2039:1 #
-0.0008340293528572850778601832644199 1:1 2:1 3:1 4:1 5:1 6:1 7:1 8:1 9:1 10:1 11:1 12:1 13:1 14:1 15:1 16:1 17:1 18:1 19:1 20:1 21:1 22:1 23:1 24:1 25:1 26:1 27:1 28:1 29:1 30:1 31:1 32:1 33:1 34:1 35:1 36:1 37:1 38:1 39:1 40:1 41:1 42:1 43:1 44:1 45:1 46:1 47:1 48:1 49:1 50:1 51:1 52:1 53:1 54:1 55:1 56:1 57:1 58:1 59:1 60:1 61:1 62:1 63:1 64:1 65:1 66:1 67:1 68:1 69:1 70:1 71:1 72:1 73:1 74:1 75:1 76:1 77:1 78:1 79:1 80:1 81:1 82:1 83:1 84:1 86:1 87:1 89:1 90:1 91:1 92:1 93:1 94:1 95:1 96:1 97:1 98:1 99:1 100:1 101:1 102:1 103:1 105:1 106:1 107:1 108:1 109:1 110:1 111:1 112:1 113:1 115:1 116:1 117:1 118:1 122:1 123:1 124:1 125:1 131:1 132:1 133:1 134:1 138:1 139:1 141:1 142:1 143:1 144:1 145:1 148:1 149:1 150:1 151:1 152:1 153:1 154:1 155:1 156:1 158:1 159:1 161:1 165:1 166:1 167:1 168:1 170:1 171:1 172:1 174:1 177:1 178:1 182:1 185:1 186:1 187:1 190:1 193:1 194:1 196:1 197:1 198:1 200:1 203:1 206:1 207:1 208:1 210:1 212:1 213:1 218:1 220:1 221:1 224:1 226:1 227:1 228:1 232:1 233:1 234:1 236:1 238:1 239:1 240:1 243:1 244:1 248:1 249:1 250:1 251:1 252:1 253:1 254:1 258:1 259:1 261:1 264:1 267:1 268:1 269:1 270:1 275:1 277:1 280:1 282:1 288:1 290:1 298:1 300:1 301:1 302:1 304:1 306:1 308:1 312:1 313:1 318:1 320:1 321:1 324:1 325:1 326:1 327:1 328:1 333:1 334:1 336:1 337:1 339:1 340:1 342:1 345:1 346:1 347:1 348:1 349:1 350:1 352:1 355:1 359:1 362:1 369:1 373:1 375:1 376:1 380:1 383:1 385:1 387:1 392:1 395:1 396:1 397:1 398:1 399:1 401:1 402:1 403:1 406:1 408:1 409:1 411:1 414:1 415:1 416:1 420:1 423:1 427:1 428:1 431:1 433:1 437:1 439:1 443:1 450:1 453:1 460:1 461:1 466:1 470:1 471:1 475:1 476:1 478:1 482:1 486:1 494:1 495:1 499:1 501:1 503:1 507:1 508:1 513:1 514:1 516:1 521:1 522:1 542:1 544:1 552:1 553:1 557:1 567:1 578:1 581:1 591:1 592:1 593:1 594:1 595:1 597:1 598:1 601:1 602:1 605:1 606:1 608:1 612:1 617:1 619:1 626:1 630:1 633:1 638:1 643:1 644:1 652:1 654:1 658:1 671:1 677:1 685:1 688:1 702:1 708:1 710:1 715:1 716:1 720:1 721:1 723:1 724:1 725:1 728:1 730:1 732:1 733:1 734:1 736:1 740:1 748:1 763:1 776:1 781:1 791:1 795:1 796:1 817:1 825:1 836:1 839:1 846:1 851:1 858:1 863:1 873:1 885:1 886:1 889:1 893:1 907:1 912:1 914:1 920:1 931:1 933:1 937:1 938:1 952:1 954:1 955:1 976:1 983:1 988:1 997:1 1001:1 1004:1 1006:1 1010:1 1025:1 1027:1 1053:1 1054:1 1057:1 1058:1 1060:1 1061:1 1063:1 1089:1 1090:1 1093:1 1102:1 1103:1 1105:1 1110:1 1120:1 1122:1 1123:1 1125:1 1130:1 1134:1 1162:1 1171:1 1190:1 1199:1 1205:1 1208:1 1213:1 1230:1 1249:1 1266:1 1270:1 1277:1 1281:1 1288:1 1299:1 1300:1 1301:1 1305:1 1308:1 1311:1 1323:1 1324:1 1340:1 1354:1 1356:1 1372:1 1393:1 1410:1 1411:1 1419:1 1432:1 1441:1 1470:1 1474:1 1475:1 1476:1 1478:1 1521:1 1552:1 1555:1 1563:1 1568:1 1574:1 1576:1 1587:1 1597:1 1605:1 1623:1 1635:1 1653:1 1667:1 1674:1 1721:1 1744:1 1762:1 1772:1 1784:1 1788:1 1790:1 1802:1 1824:1 1825:1 1829:1 1833:1 1843:1 1856:1 1858:1 1859:1 1860:1 1861:1 1865:1 1879:1 1887:1 1931:1 1950:1 1970:1 1978:1 1981:1 1988:1 2019:1 #
-0.0040792153175330872483250743698591 1:1 2:1 3:1 4:1 5:1 6:1 7:1 8:1 9:1 10:1 11:1 12:1 13:1 14:1 15:1 16:1 17:1 18:1 19:1 21:1 22:1 23:1 24:1 26:1 27:1 28:1 29:1 30:1 31:1 32:1 33:1 34:1 35:1 37:1 38:1 39:1 40:1 41:1 42:1 43:1 45:1 46:1 47:1 50:1 51:1 52:1 54:1 55:1 56:1 58:1 59:1 60:1 61:1 63:1 64:1 66:1 68:1 69:1 72:1 77:1 80:1 81:1 84:1 85:1 86:1 88:1 90:1 93:1 94:1 95:1 100:1 103:1 105:1 107:1 114:1 116:1 117:1 121:1 124:1 125:1 129:1 137:1 138:1 143:1 148:1 153:1 154:1 157:1 163:1 165:1 167:1 168:1 170:1 173:1 174:1 177:1 180:1 182:1 183:1 184:1 186:1 194:1 201:1 203:1 206:1 210:1 213:1 260:1 261:1 284:1 285:1 296:1 297:1 298:1 300:1 301:1 307:1 310:1 324:1 352:1 369:1 371:1 375:1 383:1 388:1 390:1 400:1 402:1 410:1 415:1 422:1 430:1 434:1 439:1 446:1 458:1 484:1 494:1 495:1 506:1 517:1 536:1 546:1 548:1 570:1 584:1 597:1 602:1 619:1 627:1 633:1 652:1 670:1 676:1 683:1 687:1 704:1 725:1 753:1 788:1 805:1 841:1 846:1 849:1 852:1 858:1 865:1 891:1 896:1 910:1 932:1 940:1 947:1 960:1 971:1 1015:1 1017:1 1019:1 1060:1 1078:1 1130:1 1137:1 1153:1 1165:1 1180:1 1181:1 1212:1 1230:1 1234:1 1242:1 1277:1 1281:1 1289:1 1307:1 1312:1 1316:1 1328:1 1336:1 1372:1 1420:1 1458:1 1511:1 1556:1 1565:1 1580:1 1583:1 1620:1 1694:1 1715:1 1719:1 1726:1 1792:1 1798:1 1848:1 1884:1 1904:1 1955:1 1959:1 1973:1 2021:1 #
-0.0038311827360580654432131719744348 1:1 2:1 3:1 4:1 5:1 6:1 7:1 8:1 9:1 10:1 11:1 12:1 13:1 14:1 15:1 16:1 17:1 18:1 19:1 20:1 21:1 25:1 26:1 28:1 29:1 30:1 31:1 32:1 33:1 34:1 37:1 38:1 39:1 40:1 41:1 42:1 45:1 46:1 47:1 48:1 49:1 54:1 56:1 57:1 58:1 59:1 60:1 64:1 65:1 66:1 68:1 72:1 73:1 82:1 85:1 86:1 87:1 98:1 101:1 102:1 117:1 125:1 127:1 135:1 136:1 138:1 142:1 164:1 165:1 170:1 179:1 183:1 184:1 197:1 206:1 217:1 231:1 232:1 236:1 237:1 239:1 257:1 272:1 288:1 291:1 297:1 302:1 303:1 306:1 334:1 338:1 350:1 367:1 374:1 384:1 420:1 449:1 457:1 460:1 463:1 478:1 500:1 526:1 549:1 560:1 563:1 565:1 656:1 664:1 690:1 793:1 797:1 857:1 893:1 914:1 943:1 951:1 1053:1 1067:1 1069:1 1107:1 1120:1 1123:1 1135:1 1140:1 1151:1 1155:1 1277:1 1303:1 1423:1 1864:1 1910:1 1935:1 1962:1 1982:1 1997:1 #
-0.0042639851882347035161302528649685 1:1 2:1 3:1 4:1 5:1 6:1 7:1 8:1 9:1 10:1 11:1 12:1 13:1 14:1 15:1 16:1 17:1 18:1 19:1 20:1 21:1 22:1 23:1 24:1 25:1 26:1 27:1 28:1 29:1 30:1 31:1 32:1 33:1 34:1 35:1 36:1 37:1 38:1 39:1 40:1 41:1 42:1 43:1 44:1 45:1 46:1 47:1 48:1 49:1 50:1 51:1 52:1 53:1 54:1 55:1 56:1 57:1 58:1 59:1 60:1 63:1 64:1 66:1 67:1 68:1 69:1 71:1 72:1 73:1 75:1 76:1 77:1 78:1 80:1 81:1 84:1 85:1 86:1 88:1 89:1 90:1 92:1 95:1 100:1 101:1 103:1 104:1 105:1 106:1 107:1 108:1 109:1 110:1 111:1 112:1 113:1 114:1 115:1 118:1 119:1 121:1 123:1 125:1 126:1 127:1 128:1 129:1 130:1 132:1 134:1 135:1 136:1 137:1 139:1 140:1 141:1 142:1 143:1 144:1 147:1 148:1 149:1 152:1 155:1 156:1 157:1 161:1 166:1 167:1 168:1 169:1 170:1 172:1 173:1 179:1 182:1 185:1 187:1 190:1 195:1 198:1 202:1 203:1 205:1 206:1 207:1 208:1 211:1 213:1 215:1 217:1 220:1 222:1 225:1 232:1 235:1 236:1 237:1 240:1 241:1 249:1 250:1 253:1 271:1 274:1 277:1 278:1 287:1 289:1 296:1 299:1 300:1 301:1 307:1 312:1 317:1 318:1 323:1 328:1 330:1 332:1 333:1 334:1 335:1 339:1 340:1 348:1 350:1 351:1 368:1 369:1 375:1 378:1 379:1 383:1 384:1 386:1 389:1 398:1 409:1 412:1 413:1 416:1 420:1 429:1 431:1 442:1 445:1 454:1 458:1 474:1 480:1 484:1 498:1 499:1 500:1 501:1 510:1 512:1 514:1 522:1 523:1 524:1 528:1 529:1 538:1 541:1 545:1 547:1 550:1 558:1 576:1 586:1 593:1 595:1 611:1 623:1 637:1 638:1 640:1 645:1 646:1 653:1 654:1 686:1 688:1 690:1 691:1 715:1 721:1 722:1 741:1 749:1 754:1 758:1 765:1 774:1 775:1 776:1 779:1 786:1 825:1 830:1 832:1 848:1 850:1 864:1 867:1 870:1 876:1 885:1 890:1 896:1 940:1 949:1 959:1 976:1 993:1 998:1 999:1 1012:1 1022:1 1068:1 1084:1 1090:1 1102:1 1109:1 1124:1 1132:1 1151:1 1170:1 1206:1 1240:1 1251:1 1322:1 1333:1 1350:1 1360:1 1400:1 1414:1 1419:1 1432:1 1479:1 1506:1 1548:1 1575:1 1582:1 1585:1 1603:1 1683:1 1710:1 1748:1 1755:1 1782:1 1789:1 1801:1 1808:1 1816:1 1836:1 1872:1 1900:1 1919:1 1950:1 1986:1 1992:1 2004:1 #
-0.0044250118221682895741642127518389 1:1 2:1 3:1 4:1 5:1 6:1 7:1 8:1 9:1 10:1 11:1 12:1 13:1 16:1 17:1 18:1 19:1 20:1 21:1 22:1 23:1 24:1 25:1 26:1 27:1 28:1 29:1 30:1 31:1 33:1 34:1 35:1 36:1 37:1 38:1 39:1 40:1 41:1 42:1 43:1 44:1 45:1 46:1 48:1 49:1 51:1 52:1 53:1 54:1 56:1 57:1 58:1 60:1 61:1 62:1 63:1 64:1 65:1 66:1 67:1 70:1 71:1 72:1 73:1 74:1 75:1 76:1 77:1 80:1 81:1 82:1 83:1 84:1 85:1 86:1 88:1 90:1 91:1 92:1 94:1 95:1 96:1 97:1 98:1 100:1 102:1 103:1 105:1 106:1 108:1 109:1 110:1 112:1 113:1 116:1 119:1 122:1 126:1 128:1 129:1 130:1 131:1 132:1 135:1 137:1 138:1 139:1 140:1 141:1 142:1 146:1 147:1 148:1 149:1 151:1 153:1 156:1 158:1 159:1 160:1 165:1 173:1 174:1 175:1 177:1 178:1 180:1 181:1 193:1 197:1 199:1 201:1 203:1 204:1 208:1 210:1 211:1 222:1 226:1 243:1 248:1 251:1 252:1 254:1 258:1 261:1 263:1 268:1 293:1 294:1 295:1 298:1 303:1 308:1 309:1 315:1 324:1 326:1 335:1 343:1 348:1 352:1 354:1 355:1 360:1 361:1 362:1 377:1 384:1 386:1 393:1 395:1 396:1 397:1 410:1 416:1 428:1 451:1 452:1 455:1 459:1 462:1 464:1 471:1 480:1 481:1 492:1 494:1 500:1 501:1 509:1 528:1 535:1 538:1 556:1 557:1 564:1 572:1 583:1 584:1 590:1 593:1 598:1 631:1 633:1 639:1 642:1 661:1 665:1 668:1 690:1 697:1 707:1 712:1 713:1 715:1 716:1 719:1 720:1 724:1 736:1 737:1 743:1 750:1 758:1 763:1 788:1 804:1 808:1 815:1 817:1 825:1 828:1 829:1 835:1 844:1 847:1 851:1 853:1 856:1 869:1 879:1 893:1 912:1 920:1 942:1 954:1 956:1 957:1 960:1 989:1 992:1 996:1 1004:1 1035:1 1044:1 1073:1 1077:1 1088:1 1123:1 1124:1 1131:1 1134:1 1142:1 1154:1 1190:1 1219:1 1227:1 1253:1 1270:1 1294:1 1296:1 1344:1 1348:1 1394:1 1412:1 1418:1 1419:1 1440:1 1447:1 1463:1 1500:1 1510:1 1514:1 1527:1 1595:1 1666:1 1684:1 1686:1 1722:1 1737:1 1742:1 1800:1 1809:1 1813:1 1828:1 1845:1 1850:1 1904:1 1920:1 1956:1 1961:1 #
