SVM-light Version V6.02
0 # kernel type
3 # kernel parameter -d 
1 # kernel parameter -g 
1 # kernel parameter -s 
1 # kernel parameter -r 
empty# kernel parameter -u 
11106 # highest feature index 
1600 # number of training documents 
1252 # number of support vectors plus 1 
-0.06176268 # threshold b, each following line is a SV (starting with alpha*y)
-0.0033386058045510244585152292984276 1:1 4:1 47:1 55:1 62:1 64:1 69:1 70:1 74:1 88:1 90:1 101:1 107:1 123:1 178:1 181:1 202:1 240:1 253:1 259:1 288:1 291:1 315:1 362:1 383:1 396:1 429:1 462:1 544:1 596:1 641:1 654:1 660:1 698:1 708:1 754:1 777:1 778:1 817:1 941:1 993:1 1000:1 1016:1 1049:1 1052:1 1127:1 1141:1 1198:1 1235:1 1240:1 1270:1 1293:1 1304:1 1392:1 1411:1 1422:1 1479:1 1503:1 1520:1 1545:1 1561:1 1562:1 1577:1 1616:1 1638:1 1730:1 1753:1 1803:1 1833:1 1876:1 1890:1 1910:1 1924:1 1974:1 1979:1 1990:1 2012:1 2020:1 2101:1 2121:1 2126:1 2129:1 2205:1 2263:1 2317:1 2370:1 2384:1 2394:1 2465:1 2466:1 2499:1 2658:1 2661:1 2666:1 2682:1 2714:1 2787:1 2842:1 2868:1 2869:1 2871:1 2883:1 2885:1 2912:1 2941:1 2945:1 2946:1 2948:1 3049:1 3081:1 3091:1 3182:1 3193:1 3209:1 3248:1 3278:1 3285:1 3317:1 3324:1 3332:1 3423:1 3431:1 3462:1 3463:1 3499:1 3590:1 3674:1 3771:1 3793:1 3830:1 3834:1 3842:1 3985:1 4029:1 4083:1 4101:1 4105:1 4169:1 4186:1 4252:1 4303:1 4425:1 4434:1 4448:1 4480:1 4486:1 4487:1 4493:1 4527:1 4534:1 4549:1 4573:1 4576:1 4609:1 4616:1 4617:1 4641:1 4650:1 4752:1 4775:1 4853:1 4855:1 4866:1 4932:1 5015:1 5050:1 5054:1 5055:1 5134:1 5186:1 5227:1 5273:1 5281:1 5351:1 5366:1 5410:1 5415:1 5462:1 5510:1 5602:1 5637:1 5675:1 5726:1 5764:1 5774:1 5788:1 5847:1 5862:1 5910:1 5947:1 6012:1 6132:1 6149:1 6214:1 6265:1 6322:1 6332:1 6395:1 6403:1 6423:1 6429:1 6446:1 6499:1 6519:1 6592:1 6600:1 6609:1 6623:1 6640:1 6750:1 6861:1 6871:1 7034:1 7078:1 7083:1 7085:1 7100:1 7105:1 7112:1 7165:1 7209:1 7216:1 7234:1 7246:1 7252:1 7295:1 7331:1 7368:1 7450:1 7469:1 7475:1 7491:1 7492:1 7502:1 7565:1 7649:1 7667:1 7673:1 7723:1 7786:1 7794:1 7807:1 7812:1 7893:1 7916:1 7959:1 7986:1 7999:1 8014:1 8042:1 8122:1 8152:1 8312:1 8331:1 8345:1 8422:1 8521:1 8623:1 8684:1 8716:1 8748:1 8754:1 8755:1 8790:1 8798:1 8801:1 8802:1 8813:1 8831:1 8882:1 8892:1 8923:1 8950:1 9013:1 9014:1 9032:1 9076:1 9079:1 9129:1 9131:1 9144:1 9233:1 9364:1 9365:1 9381:1 9403:1 9443:1 9452:1 9492:1 9505:1 9558:1 9673:1 9690:1 9706:1 9743:1 9799:1 9806:1 9915:1 9923:1 9972:1 9986:1 10001:1 10010:1 10031:1 10089:1 10176:1 10340:1 10349:1 10375:1 10384:1 10456:1 10463:1 10494:1 10528:1 10546:1 10637:1 10655:1 10691:1 10724:1 10740:1 10742:1 10787:1 10812:1 10830:1 10878:1 10889:1 10895:1 10933:1 10940:1 10950:1 10951:1 10996:1 11048:1 #
-0.0033386058045510244585152292984276 26:1 62:1 64:1 69:1 74:1 178:1 253:1 259:1 410:1 412:1 440:1 596:1 654:1 664:1 816:1 1031:1 1127:1 1141:1 1240:1 1304:1 1309:1 1349:1 1392:1 1411:1 1501:1 1545:1 1574:1 1577:1 1730:1 1890:1 1910:1 1952:1 1979:1 2033:1 2101:1 2129:1 2189:1 2300:1 2317:1 2454:1 2682:1 2701:1 2722:1 2868:1 2869:1 2902:1 2929:1 2941:1 2945:1 2946:1 2957:1 3253:1 3332:1 3463:1 3537:1 3570:1 3927:1 4051:1 4131:1 4335:1 4378:1 4486:1 4487:1 4549:1 4617:1 4738:1 4769:1 4858:1 4911:1 4947:1 4978:1 5044:1 5054:1 5186:1 5366:1 5370:1 5415:1 5462:1 5477:1 5788:1 5859:1 5897:1 5898:1 6130:1 6157:1 6322:1 6686:1 6771:1 6941:1 7034:1 7083:1 7100:1 7182:1 7197:1 7246:1 7458:1 7475:1 7528:1 7538:1 7635:1 7703:1 7812:1 7859:1 7893:1 7916:1 8042:1 8140:1 8289:1 8422:1 8521:1 8614:1 8638:1 8646:1 8684:1 8801:1 8936:1 9061:1 9112:1 9213:1 9271:1 9323:1 9372:1 9460:1 9478:1 9505:1 9545:1 9568:1 9665:1 9734:1 9743:1 9775:1 9923:1 10012:1 10042:1 10089:1 10340:1 10384:1 10559:1 10561:1 10637:1 10724:1 10742:1 10757:1 10787:1 10812:1 10824:1 10895:1 11004:1 11048:1 11096:1 #
-0.0024302842597827153080236595172892 58:1 62:1 64:1 69:1 74:1 122:1 123:1 178:1 202:1 253:1 259:1 262:1 288:1 291:1 337:1 362:1 409:1 440:1 445:1 560:1 616:1 644:1 715:1 778:1 941:1 1049:1 1051:1 1127:1 1137:1 1158:1 1164:1 1170:1 1182:1 1208:1 1220:1 1240:1 1246:1 1283:1 1302:1 1309:1 1313:1 1392:1 1413:1 1443:1 1503:1 1512:1 1561:1 1562:1 1574:1 1576:1 1577:1 1588:1 1591:1 1688:1 1730:1 1796:1 1807:1 1910:1 1974:1 1977:1 2020:1 2028:1 2063:1 2071:1 2075:1 2087:1 2095:1 2101:1 2111:1 2126:1 2132:1 2192:1 2225:1 2292:1 2316:1 2317:1 2346:1 2357:1 2379:1 2553:1 2658:1 2661:1 2666:1 2701:1 2714:1 2771:1 2774:1 2810:1 2929:1 2941:1 2945:1 2946:1 2972:1 2997:1 3248:1 3253:1 3257:1 3314:1 3317:1 3391:1 3392:1 3406:1 3460:1 3490:1 3507:1 3600:1 3629:1 3649:1 3680:1 3689:1 3765:1 3889:1 4079:1 4087:1 4101:1 4186:1 4212:1 4245:1 4261:1 4372:1 4400:1 4422:1 4433:1 4487:1 4525:1 4527:1 4567:1 4609:1 4616:1 4618:1 4724:1 4726:1 4730:1 4752:1 4944:1 4956:1 4960:1 4979:1 5052:1 5073:1 5127:1 5185:1 5226:1 5227:1 5273:1 5445:1 5462:1 5484:1 5498:1 5602:1 5648:1 5675:1 5686:1 5788:1 5827:1 5883:1 5910:1 5998:1 6140:1 6209:1 6228:1 6245:1 6258:1 6322:1 6326:1 6345:1 6444:1 6458:1 6513:1 6519:1 6627:1 6636:1 6674:1 6745:1 6768:1 6861:1 6941:1 6990:1 7017:1 7034:1 7036:1 7078:1 7083:1 7100:1 7105:1 7112:1 7154:1 7230:1 7246:1 7252:1 7312:1 7314:1 7392:1 7452:1 7475:1 7601:1 7616:1 7707:1 7786:1 7794:1 7839:1 7900:1 7916:1 8007:1 8014:1 8042:1 8073:1 8140:1 8345:1 8350:1 8421:1 8422:1 8593:1 8627:1 8684:1 8748:1 8771:1 8785:1 8798:1 8801:1 8808:1 8813:1 8831:1 8950:1 8989:1 8990:1 9014:1 9044:1 9129:1 9155:1 9199:1 9286:1 9328:1 9381:1 9386:1 9452:1 9488:1 9505:1 9743:1 9775:1 9792:1 9805:1 9915:1 9923:1 10005:1 10050:1 10127:1 10230:1 10334:1 10340:1 10357:1 10379:1 10496:1 10650:1 10703:1 10724:1 10761:1 10996:1 11048:1 11051:1 11055:1 #
-0.0033386058045510244585152292984276 58:1 62:1 64:1 69:1 74:1 123:1 159:1 173:1 178:1 202:1 215:1 243:1 248:1 253:1 261:1 262:1 288:1 292:1 303:1 315:1 440:1 530:1 544:1 625:1 654:1 778:1 798:1 817:1 899:1 974:1 1026:1 1127:1 1141:1 1170:1 1222:1 1240:1 1283:1 1285:1 1361:1 1392:1 1399:1 1400:1 1498:1 1561:1 1577:1 1588:1 1658:1 1730:1 1753:1 1876:1 1879:1 1890:1 1910:1 1944:1 1974:1 1979:1 2020:1 2051:1 2057:1 2063:1 2159:1 2178:1 2211:1 2314:1 2317:1 2330:1 2334:1 2338:1 2341:1 2363:1 2557:1 2658:1 2725:1 2923:1 2929:1 2941:1 2945:1 2946:1 3081:1 3206:1 3248:1 3253:1 3292:1 3317:1 3403:1 3434:1 3463:1 3479:1 3485:1 3490:1 3491:1 3524:1 3582:1 3590:1 3669:1 3705:1 3731:1 3804:1 3836:1 3845:1 3869:1 3878:1 3925:1 3927:1 4004:1 4101:1 4137:1 4145:1 4150:1 4243:1 4261:1 4331:1 4339:1 4372:1 4434:1 4452:1 4456:1 4487:1 4488:1 4493:1 4520:1 4525:1 4527:1 4536:1 4549:1 4609:1 4613:1 4616:1 4617:1 4618:1 4637:1 4666:1 4707:1 4752:1 4778:1 4823:1 4936:1 5050:1 5192:1 5199:1 5226:1 5366:1 5406:1 5415:1 5426:1 5445:1 5461:1 5462:1 5507:1 5531:1 5558:1 5640:1 5683:1 5734:1 5788:1 5869:1 5933:1 5936:1 5937:1 6050:1 6070:1 6097:1 6222:1 6245:1 6262:1 6322:1 6407:1 6433:1 6480:1 6488:1 6504:1 6551:1 6565:1 6604:1 6775:1 6861:1 6862:1 6871:1 6923:1 6925:1 6986:1 6990:1 7034:1 7072:1 7078:1 7083:1 7100:1 7112:1 7251:1 7252:1 7261:1 7410:1 7475:1 7534:1 7550:1 7758:1 7779:1 7780:1 7822:1 7898:1 8014:1 8144:1 8165:1 8169:1 8191:1 8219:1 8346:1 8368:1 8492:1 8612:1 8684:1 8801:1 8883:1 8936:1 8950:1 8989:1 9061:1 9129:1 9160:1 9231:1 9275:1 9328:1 9392:1 9403:1 9452:1 9488:1 9505:1 9525:1 9541:1 9545:1 9558:1 9592:1 9601:1 9616:1 9749:1 9775:1 9797:1 9833:1 9923:1 9938:1 9949:1 9958:1 10089:1 10161:1 10265:1 10269:1 10311:1 10340:1 10379:1 10396:1 10488:1 10554:1 10649:1 10684:1 10724:1 10761:1 10812:1 10857:1 10867:1 10885:1 10940:1 10960:1 11027:1 #
-0.0033386058045510244585152292984276 36:1 62:1 64:1 69:1 71:1 74:1 102:1 107:1 110:1 113:1 123:1 178:1 212:1 226:1 237:1 253:1 259:1 266:1 276:1 337:1 374:1 407:1 423:1 434:1 440:1 449:1 476:1 507:1 534:1 552:1 601:1 625:1 627:1 647:1 654:1 674:1 762:1 777:1 778:1 801:1 816:1 878:1 901:1 911:1 940:1 974:1 980:1 1000:1 1003:1 1053:1 1084:1 1127:1 1182:1 1201:1 1240:1 1263:1 1278:1 1283:1 1285:1 1308:1 1309:1 1329:1 1392:1 1408:1 1413:1 1422:1 1441:1 1503:1 1531:1 1537:1 1561:1 1562:1 1577:1 1584:1 1588:1 1591:1 1594:1 1638:1 1696:1 1704:1 1719:1 1730:1 1841:1 1888:1 1894:1 1910:1 1919:1 1923:1 1974:1 1979:1 1995:1 2005:1 2101:1 2129:1 2154:1 2263:1 2308:1 2317:1 2332:1 2379:1 2527:1 2550:1 2552:1 2562:1 2645:1 2661:1 2666:1 2797:1 2835:1 2853:1 2912:1 2929:1 2940:1 2941:1 2945:1 2946:1 2955:1 3001:1 3028:1 3081:1 3137:1 3179:1 3206:1 3216:1 3217:1 3226:1 3248:1 3253:1 3263:1 3283:1 3302:1 3332:1 3359:1 3405:1 3423:1 3463:1 3479:1 3488:1 3490:1 3518:1 3526:1 3529:1 3533:1 3558:1 3645:1 3670:1 3741:1 3801:1 3882:1 3901:1 3927:1 3958:1 4051:1 4111:1 4186:1 4261:1 4388:1 4434:1 4478:1 4487:1 4488:1 4525:1 4545:1 4549:1 4573:1 4609:1 4616:1 4617:1 4618:1 4650:1 4742:1 4752:1 4786:1 4787:1 4853:1 4866:1 4904:1 4961:1 5049:1 5050:1 5121:1 5227:1 5259:1 5273:1 5385:1 5415:1 5462:1 5471:1 5484:1 5494:1 5538:1 5560:1 5613:1 5625:1 5639:1 5663:1 5675:1 5730:1 5788:1 5897:1 5908:1 5910:1 5966:1 6024:1 6132:1 6161:1 6198:1 6245:1 6265:1 6280:1 6322:1 6345:1 6435:1 6480:1 6529:1 6564:1 6600:1 6610:1 6616:1 6627:1 6646:1 6690:1 6802:1 6823:1 6955:1 7017:1 7034:1 7078:1 7083:1 7100:1 7105:1 7112:1 7180:1 7193:1 7234:1 7246:1 7272:1 7306:1 7353:1 7411:1 7475:1 7538:1 7550:1 7585:1 7588:1 7600:1 7638:1 7649:1 7699:1 7706:1 7707:1 7741:1 7763:1 7794:1 7809:1 7825:1 7900:1 7916:1 8014:1 8042:1 8060:1 8105:1 8170:1 8188:1 8289:1 8306:1 8325:1 8345:1 8419:1 8422:1 8448:1 8521:1 8684:1 8706:1 8748:1 8777:1 8783:1 8801:1 8846:1 8892:1 8923:1 8936:1 8950:1 9013:1 9014:1 9119:1 9186:1 9246:1 9285:1 9365:1 9374:1 9440:1 9452:1 9488:1 9492:1 9505:1 9545:1 9547:1 9643:1 9647:1 9661:1 9719:1 9805:1 9856:1 9884:1 9901:1 9923:1 10010:1 10068:1 10079:1 10088:1 10089:1 10114:1 10155:1 10230:1 10250:1 10251:1 10317:1 10334:1 10340:1 10344:1 10384:1 10496:1 10497:1 10501:1 10571:1 10640:1 10649:1 10703:1 10724:1 10730:1 10766:1 10771:1 10787:1 10812:1 10828:1 10831:1 10903:1 10930:1 10940:1 11002:1 11005:1 11011:1 11048:1 11083:1 11098:1 #
0.0033386058045510244585152292984276 58:1 62:1 64:1 69:1 70:1 74:1 88:1 107:1 122:1 123:1 178:1 202:1 223:1 226:1 237:1 253:1 259:1 262:1 273:1 276:1 288:1 315:1 427:1 440:1 441:1 479:1 504:1 585:1 612:1 625:1 641:1 654:1 660:1 692:1 694:1 698:1 777:1 790:1 816:1 867:1 878:1 897:1 929:1 941:1 958:1 974:1 983:1 1025:1 1127:1 1141:1 1228:1 1240:1 1245:1 1285:1 1304:1 1309:1 1335:1 1392:1 1423:1 1561:1 1562:1 1577:1 1588:1 1710:1 1730:1 1736:1 1740:1 1753:1 1910:1 1927:1 1951:1 1960:1 1974:1 1979:1 1990:1 2005:1 2052:1 2082:1 2101:1 2162:1 2179:1 2211:1 2225:1 2229:1 2245:1 2255:1 2263:1 2275:1 2295:1 2317:1 2357:1 2423:1 2608:1 2625:1 2661:1 2682:1 2714:1 2723:1 2771:1 2780:1 2800:1 2826:1 2929:1 2932:1 2934:1 2938:1 2941:1 2945:1 2946:1 2957:1 2960:1 3026:1 3049:1 3081:1 3137:1 3162:1 3170:1 3174:1 3200:1 3208:1 3216:1 3249:1 3253:1 3285:1 3314:1 3317:1 3333:1 3394:1 3423:1 3463:1 3468:1 3479:1 3486:1 3491:1 3534:1 3558:1 3568:1 3590:1 3604:1 3650:1 3670:1 3782:1 3804:1 3808:1 3830:1 3834:1 3879:1 3883:1 3900:1 4005:1 4019:1 4024:1 4078:1 4091:1 4169:1 4208:1 4252:1 4261:1 4325:1 4335:1 4353:1 4366:1 4388:1 4424:1 4434:1 4459:1 4461:1 4477:1 4478:1 4486:1 4487:1 4525:1 4549:1 4609:1 4616:1 4617:1 4618:1 4672:1 4686:1 4691:1 4724:1 4734:1 4745:1 4752:1 4837:1 4866:1 5083:1 5109:1 5113:1 5127:1 5129:1 5143:1 5217:1 5248:1 5271:1 5273:1 5307:1 5314:1 5318:1 5366:1 5410:1 5479:1 5484:1 5494:1 5538:1 5540:1 5574:1 5675:1 5700:1 5734:1 5755:1 5769:1 5788:1 5812:1 5820:1 5884:1 5908:1 5910:1 5928:1 5945:1 6001:1 6011:1 6038:1 6132:1 6222:1 6236:1 6265:1 6322:1 6326:1 6332:1 6395:1 6420:1 6478:1 6480:1 6519:1 6548:1 6556:1 6567:1 6655:1 6752:1 6788:1 6801:1 6815:1 6920:1 6941:1 6951:1 7032:1 7034:1 7078:1 7083:1 7100:1 7105:1 7112:1 7130:1 7177:1 7180:1 7199:1 7220:1 7252:1 7311:1 7331:1 7431:1 7475:1 7495:1 7523:1 7538:1 7539:1 7575:1 7578:1 7589:1 7622:1 7707:1 7794:1 7813:1 7836:1 7867:1 7966:1 7999:1 8054:1 8057:1 8166:1 8170:1 8251:1 8264:1 8289:1 8307:1 8366:1 8435:1 8455:1 8521:1 8634:1 8642:1 8646:1 8684:1 8691:1 8704:1 8748:1 8754:1 8798:1 8801:1 8802:1 8880:1 8909:1 8936:1 8996:1 9000:1 9012:1 9095:1 9218:1 9220:1 9328:1 9392:1 9452:1 9458:1 9505:1 9514:1 9550:1 9575:1 9578:1 9585:1 9690:1 9743:1 9775:1 9781:1 9785:1 9805:1 9854:1 9862:1 9915:1 9923:1 9938:1 9945:1 9968:1 9999:1 10001:1 10049:1 10067:1 10089:1 10113:1 10199:1 10250:1 10252:1 10334:1 10338:1 10340:1 10364:1 10431:1 10456:1 10496:1 10518:1 10525:1 10547:1 10566:1 10591:1 10694:1 10724:1 10742:1 10791:1 10796:1 10812:1 10814:1 10836:1 10869:1 10975:1 11012:1 11028:1 11042:1 11048:1 11054:1 11063:1 11083:1 11086:1 #
0.0033386058045510244585152292984276 58:1 62:1 64:1 69:1 74:1 107:1 123:1 132:1 178:1 202:1 214:1 250:1 253:1 258:1 259:1 288:1 315:1 347:1 422:1 434:1 471:1 610:1 625:1 645:1 654:1 727:1 731:1 770:1 777:1 778:1 816:1 843:1 885:1 942:1 995:1 1016:1 1037:1 1137:1 1237:1 1240:1 1270:1 1283:1 1287:1 1313:1 1366:1 1392:1 1449:1 1503:1 1561:1 1562:1 1574:1 1577:1 1616:1 1669:1 1719:1 1730:1 1898:1 1910:1 1974:1 1979:1 1990:1 1999:1 2006:1 2020:1 2057:1 2058:1 2126:1 2129:1 2192:1 2227:1 2250:1 2317:1 2322:1 2343:1 2379:1 2531:1 2565:1 2576:1 2590:1 2632:1 2642:1 2658:1 2661:1 2682:1 2701:1 2792:1 2833:1 2868:1 2912:1 2938:1 2941:1 2945:1 2946:1 2960:1 3048:1 3090:1 3180:1 3200:1 3206:1 3221:1 3279:1 3285:1 3297:1 3306:1 3324:1 3449:1 3463:1 3485:1 3491:1 3526:1 3586:1 3604:1 3655:1 3660:1 3779:1 3793:1 3901:1 3937:1 4002:1 4069:1 4071:1 4075:1 4080:1 4084:1 4166:1 4182:1 4233:1 4261:1 4435:1 4487:1 4560:1 4609:1 4616:1 4617:1 4618:1 4650:1 4667:1 4688:1 4769:1 4866:1 4911:1 4976:1 5074:1 5206:1 5229:1 5273:1 5327:1 5366:1 5404:1 5426:1 5457:1 5649:1 5675:1 5697:1 5715:1 5779:1 5786:1 5788:1 5872:1 5910:1 5936:1 5947:1 6083:1 6169:1 6174:1 6176:1 6236:1 6265:1 6281:1 6322:1 6395:1 6480:1 6533:1 6556:1 6594:1 6610:1 6636:1 6646:1 6730:1 6775:1 6911:1 6921:1 6926:1 6967:1 6990:1 7034:1 7078:1 7079:1 7083:1 7100:1 7180:1 7234:1 7246:1 7251:1 7310:1 7312:1 7412:1 7430:1 7475:1 7569:1 7589:1 7593:1 7660:1 7693:1 7741:1 7752:1 7808:1 7813:1 7867:1 7898:1 7900:1 7954:1 7999:1 8025:1 8034:1 8042:1 8193:1 8248:1 8264:1 8345:1 8346:1 8371:1 8409:1 8476:1 8521:1 8562:1 8654:1 8659:1 8684:1 8686:1 8690:1 8748:1 8754:1 8785:1 8801:1 8859:1 8882:1 8923:1 8934:1 8936:1 8950:1 9014:1 9018:1 9061:1 9076:1 9114:1 9150:1 9197:1 9285:1 9309:1 9371:1 9386:1 9392:1 9452:1 9474:1 9492:1 9505:1 9524:1 9545:1 9551:1 9578:1 9706:1 9733:1 9775:1 9833:1 9837:1 9884:1 9923:1 10010:1 10064:1 10087:1 10089:1 10187:1 10241:1 10296:1 10334:1 10340:1 10379:1 10422:1 10429:1 10488:1 10638:1 10674:1 10724:1 10725:1 10742:1 10761:1 10812:1 10815:1 10878:1 10975:1 10996:1 11048:1 11054:1 #
0.0033386058045510244585152292984276 12:1 62:1 64:1 69:1 74:1 123:1 178:1 202:1 253:1 262:1 288:1 340:1 358:1 440:1 490:1 567:1 625:1 660:1 771:1 980:1 1000:1 1062:1 1127:1 1141:1 1203:1 1240:1 1270:1 1279:1 1309:1 1392:1 1400:1 1413:1 1485:1 1503:1 1562:1 1577:1 1586:1 1730:1 1787:1 1832:1 1884:1 1910:1 1960:1 1974:1 2005:1 2012:1 2033:1 2101:1 2129:1 2179:1 2189:1 2211:1 2317:1 2405:1 2466:1 2483:1 2528:1 2590:1 2661:1 2682:1 2725:1 2929:1 2937:1 2941:1 2945:1 2946:1 3022:1 3243:1 3253:1 3285:1 3412:1 3423:1 3436:1 3463:1 3526:1 3600:1 3760:1 3811:1 3836:1 3842:1 3913:1 3927:1 4071:1 4091:1 4101:1 4208:1 4309:1 4399:1 4422:1 4481:1 4487:1 4575:1 4609:1 4616:1 4617:1 4618:1 4734:1 4754:1 4769:1 4783:1 4786:1 4858:1 4928:1 4932:1 5052:1 5106:1 5113:1 5133:1 5155:1 5185:1 5217:1 5273:1 5366:1 5410:1 5479:1 5607:1 5656:1 5675:1 5788:1 5877:1 5897:1 5910:1 5929:1 5984:1 6059:1 6072:1 6132:1 6190:1 6237:1 6242:1 6245:1 6322:1 6327:1 6480:1 6529:1 6686:1 6751:1 6775:1 6782:1 6800:1 6864:1 6941:1 6945:1 6986:1 7000:1 7034:1 7036:1 7078:1 7083:1 7085:1 7105:1 7112:1 7246:1 7272:1 7286:1 7306:1 7411:1 7435:1 7467:1 7475:1 7550:1 7634:1 7693:1 7737:1 7809:1 7867:1 7893:1 7999:1 8013:1 8014:1 8042:1 8165:1 8251:1 8264:1 8345:1 8350:1 8368:1 8396:1 8422:1 8425:1 8476:1 8490:1 8521:1 8554:1 8673:1 8684:1 8716:1 8748:1 8790:1 8796:1 8801:1 8860:1 8934:1 8936:1 8976:1 8989:1 9000:1 9053:1 9061:1 9066:1 9088:1 9271:1 9333:1 9338:1 9400:1 9452:1 9459:1 9488:1 9492:1 9505:1 9522:1 9545:1 9620:1 9719:1 9805:1 9814:1 9884:1 9890:1 9915:1 9923:1 10034:1 10176:1 10220:1 10250:1 10276:1 10334:1 10340:1 10484:1 10547:1 10724:1 10742:1 10761:1 10812:1 10815:1 10897:1 10996:1 11027:1 11048:1 #
-0.001570415664691976074737733704012 1:1 62:1 64:1 69:1 74:1 107:1 112:1 124:1 178:1 202:1 253:1 261:1 262:1 288:1 291:1 325:1 337:1 341:1 387:1 434:1 467:1 514:1 530:1 544:1 604:1 625:1 654:1 656:1 732:1 776:1 777:1 778:1 790:1 819:1 829:1 836:1 941:1 974:1 980:1 1041:1 1079:1 1105:1 1106:1 1127:1 1304:1 1392:1 1449:1 1491:1 1498:1 1531:1 1555:1 1632:1 1730:1 1753:1 1859:1 1865:1 1888:1 1907:1 1910:1 1974:1 1979:1 2062:1 2091:1 2106:1 2129:1 2263:1 2371:1 2391:1 2465:1 2528:1 2584:1 2620:1 2661:1 2722:1 2868:1 2912:1 2929:1 2941:1 2945:1 2946:1 2998:1 3099:1 3200:1 3226:1 3253:1 3263:1 3264:1 3288:1 3423:1 3463:1 3521:1 3526:1 3535:1 3685:1 3687:1 3699:1 3731:1 3811:1 3836:1 3842:1 3881:1 4002:1 4004:1 4060:1 4097:1 4186:1 4234:1 4283:1 4487:1 4525:1 4533:1 4609:1 4616:1 4617:1 4618:1 4672:1 4734:1 4742:1 4746:1 4752:1 4803:1 4929:1 4951:1 5007:1 5058:1 5158:1 5181:1 5226:1 5318:1 5366:1 5462:1 5508:1 5510:1 5521:1 5565:1 5626:1 5675:1 5678:1 5680:1 5710:1 5798:1 5817:1 5829:1 5850:1 5871:1 5897:1 5906:1 5908:1 5910:1 6053:1 6070:1 6087:1 6162:1 6265:1 6322:1 6341:1 6345:1 6395:1 6406:1 6429:1 6456:1 6480:1 6531:1 6559:1 6579:1 6636:1 6640:1 6686:1 6739:1 6775:1 6802:1 6835:1 6861:1 6870:1 7034:1 7078:1 7083:1 7097:1 7100:1 7105:1 7112:1 7154:1 7234:1 7235:1 7246:1 7430:1 7475:1 7538:1 7548:1 7566:1 7620:1 7734:1 7783:1 7794:1 7865:1 7880:1 7909:1 7916:1 7983:1 7999:1 8044:1 8078:1 8084:1 8091:1 8156:1 8174:1 8263:1 8265:1 8297:1 8318:1 8345:1 8383:1 8403:1 8422:1 8485:1 8505:1 8585:1 8639:1 8684:1 8716:1 8739:1 8772:1 8798:1 8801:1 8808:1 8881:1 8887:1 8913:1 8923:1 8929:1 8936:1 8950:1 8969:1 8976:1 8994:1 9009:1 9014:1 9044:1 9124:1 9152:1 9155:1 9170:1 9249:1 9287:1 9346:1 9402:1 9426:1 9452:1 9488:1 9505:1 9536:1 9540:1 9617:1 9671:1 9736:1 9752:1 9781:1 9901:1 9923:1 9938:1 10001:1 10010:1 10050:1 10067:1 10193:1 10212:1 10227:1 10267:1 10334:1 10340:1 10355:1 10363:1 10384:1 10456:1 10473:1 10484:1 10498:1 10509:1 10593:1 10601:1 10708:1 10718:1 10724:1 10775:1 10804:1 10849:1 10878:1 10939:1 10970:1 11027:1 11028:1 #
0.0033386058045510244585152292984276 47:1 62:1 64:1 69:1 74:1 97:1 107:1 123:1 178:1 179:1 202:1 253:1 259:1 262:1 266:1 283:1 288:1 291:1 362:1 387:1 427:1 440:1 530:1 544:1 596:1 607:1 644:1 654:1 727:1 769:1 875:1 895:1 1008:1 1028:1 1062:1 1127:1 1197:1 1207:1 1225:1 1250:1 1293:1 1304:1 1352:1 1366:1 1392:1 1411:1 1413:1 1440:1 1503:1 1561:1 1562:1 1577:1 1588:1 1589:1 1629:1 1730:1 1753:1 1773:1 1792:1 1803:1 1878:1 1902:1 1910:1 1960:1 1974:1 1979:1 2106:1 2126:1 2129:1 2263:1 2294:1 2317:1 2452:1 2465:1 2495:1 2620:1 2632:1 2648:1 2670:1 2681:1 2682:1 2720:1 2723:1 2780:1 2815:1 2912:1 2929:1 2941:1 2945:1 3006:1 3012:1 3032:1 3038:1 3063:1 3081:1 3088:1 3174:1 3278:1 3285:1 3317:1 3400:1 3404:1 3419:1 3423:1 3469:1 3479:1 3503:1 3537:1 3624:1 3630:1 3669:1 3672:1 3714:1 3716:1 3797:1 3804:1 3813:1 3836:1 3887:1 3900:1 3919:1 3940:1 3981:1 4071:1 4073:1 4101:1 4169:1 4173:1 4260:1 4261:1 4366:1 4367:1 4372:1 4380:1 4422:1 4434:1 4438:1 4461:1 4487:1 4488:1 4583:1 4609:1 4613:1 4616:1 4617:1 4618:1 4635:1 4734:1 4752:1 4769:1 4779:1 4831:1 4839:1 4897:1 4956:1 5050:1 5082:1 5217:1 5227:1 5228:1 5366:1 5410:1 5415:1 5430:1 5462:1 5510:1 5614:1 5626:1 5645:1 5675:1 5795:1 5803:1 5906:1 5910:1 6001:1 6105:1 6291:1 6312:1 6322:1 6345:1 6357:1 6395:1 6564:1 6648:1 6678:1 6686:1 6703:1 6745:1 6843:1 6861:1 6874:1 6921:1 6928:1 7030:1 7034:1 7051:1 7078:1 7079:1 7083:1 7100:1 7105:1 7112:1 7139:1 7189:1 7234:1 7246:1 7258:1 7286:1 7310:1 7475:1 7538:1 7550:1 7566:1 7570:1 7635:1 7646:1 7651:1 7673:1 7821:1 7824:1 7862:1 7893:1 7912:1 7939:1 7965:1 8014:1 8042:1 8057:1 8074:1 8080:1 8105:1 8154:1 8156:1 8215:1 8258:1 8271:1 8345:1 8410:1 8484:1 8616:1 8617:1 8640:1 8684:1 8748:1 8798:1 8801:1 8892:1 8915:1 8929:1 8936:1 8966:1 8973:1 8976:1 9014:1 9081:1 9082:1 9166:1 9168:1 9186:1 9195:1 9196:1 9199:1 9218:1 9233:1 9309:1 9311:1 9452:1 9459:1 9467:1 9473:1 9565:1 9660:1 9713:1 9733:1 9769:1 9771:1 9923:1 9927:1 9938:1 9968:1 10001:1 10010:1 10026:1 10042:1 10059:1 10196:1 10244:1 10271:1 10334:1 10340:1 10453:1 10496:1 10548:1 10552:1 10724:1 10761:1 10767:1 10780:1 10846:1 10957:1 10990:1 10996:1 11011:1 11026:1 11027:1 11048:1 #
-0.0033386058045510244585152292984276 1:1 13:1 19:1 62:1 64:1 69:1 74:1 81:1 86:1 91:1 107:1 110:1 169:1 178:1 183:1 202:1 210:1 237:1 253:1 259:1 262:1 263:1 269:1 270:1 288:1 291:1 315:1 325:1 337:1 358:1 362:1 390:1 412:1 427:1 433:1 434:1 440:1 475:1 544:1 550:1 562:1 567:1 585:1 625:1 654:1 660:1 675:1 683:1 765:1 777:1 778:1 831:1 838:1 843:1 901:1 927:1 941:1 966:1 974:1 1024:1 1028:1 1053:1 1106:1 1122:1 1140:1 1141:1 1188:1 1198:1 1200:1 1203:1 1231:1 1240:1 1267:1 1270:1 1272:1 1281:1 1283:1 1285:1 1306:1 1309:1 1348:1 1352:1 1378:1 1392:1 1411:1 1413:1 1416:1 1437:1 1465:1 1561:1 1562:1 1574:1 1577:1 1579:1 1588:1 1592:1 1621:1 1638:1 1677:1 1685:1 1719:1 1730:1 1752:1 1792:1 1802:1 1847:1 1879:1 1910:1 1960:1 1974:1 1979:1 1990:1 2033:1 2037:1 2101:1 2106:1 2126:1 2129:1 2131:1 2136:1 2175:1 2189:1 2197:1 2211:1 2275:1 2283:1 2296:1 2366:1 2423:1 2463:1 2465:1 2483:1 2489:1 2506:1 2534:1 2544:1 2546:1 2592:1 2599:1 2629:1 2636:1 2638:1 2658:1 2661:1 2682:1 2720:1 2735:1 2796:1 2820:1 2868:1 2900:1 2908:1 2912:1 2929:1 2935:1 2940:1 2941:1 2945:1 2946:1 2970:1 2972:1 3001:1 3012:1 3036:1 3081:1 3114:1 3147:1 3170:1 3200:1 3206:1 3209:1 3226:1 3248:1 3253:1 3275:1 3285:1 3323:1 3332:1 3339:1 3376:1 3387:1 3423:1 3446:1 3462:1 3463:1 3468:1 3479:1 3485:1 3491:1 3498:1 3508:1 3530:1 3535:1 3553:1 3558:1 3561:1 3572:1 3600:1 3673:1 3705:1 3742:1 3761:1 3772:1 3779:1 3804:1 3823:1 3834:1 3842:1 4062:1 4071:1 4076:1 4092:1 4122:1 4143:1 4164:1 4168:1 4208:1 4261:1 4284:1 4309:1 4338:1 4341:1 4366:1 4386:1 4411:1 4434:1 4460:1 4476:1 4480:1 4487:1 4493:1 4501:1 4525:1 4540:1 4576:1 4591:1 4609:1 4613:1 4616:1 4617:1 4618:1 4672:1 4726:1 4732:1 4734:1 4752:1 4769:1 4778:1 4837:1 4860:1 4866:1 4924:1 4932:1 4978:1 5009:1 5026:1 5046:1 5050:1 5059:1 5119:1 5121:1 5128:1 5134:1 5158:1 5185:1 5192:1 5220:1 5226:1 5260:1 5273:1 5328:1 5366:1 5410:1 5415:1 5426:1 5457:1 5462:1 5494:1 5510:1 5513:1 5514:1 5552:1 5589:1 5598:1 5621:1 5675:1 5676:1 5680:1 5701:1 5710:1 5724:1 5730:1 5751:1 5764:1 5786:1 5788:1 5819:1 5870:1 5897:1 5906:1 5910:1 5958:1 6012:1 6059:1 6070:1 6083:1 6145:1 6160:1 6174:1 6222:1 6232:1 6237:1 6262:1 6322:1 6332:1 6378:1 6395:1 6446:1 6449:1 6464:1 6472:1 6480:1 6502:1 6553:1 6556:1 6557:1 6564:1 6576:1 6609:1 6640:1 6646:1 6689:1 6707:1 6719:1 6725:1 6730:1 6731:1 6761:1 6769:1 6815:1 6824:1 6861:1 6898:1 6921:1 6923:1 6956:1 7002:1 7034:1 7039:1 7066:1 7078:1 7080:1 7083:1 7100:1 7101:1 7105:1 7112:1 7138:1 7180:1 7234:1 7251:1 7261:1 7264:1 7310:1 7312:1 7314:1 7337:1 7348:1 7411:1 7475:1 7495:1 7566:1 7585:1 7589:1 7616:1 7632:1 7673:1 7693:1 7744:1 7774:1 7791:1 7794:1 7812:1 7813:1 7816:1 7821:1 7867:1 7880:1 7898:1 7900:1 7916:1 7983:1 8014:1 8020:1 8021:1 8029:1 8042:1 8054:1 8078:1 8129:1 8154:1 8196:1 8219:1 8239:1 8247:1 8259:1 8264:1 8288:1 8289:1 8345:1 8382:1 8455:1 8508:1 8521:1 8635:1 8659:1 8662:1 8684:1 8709:1 8716:1 8740:1 8748:1 8751:1 8754:1 8798:1 8801:1 8809:1 8870:1 8892:1 8895:1 8936:1 8994:1 9014:1 9018:1 9026:1 9061:1 9082:1 9129:1 9149:1 9155:1 9170:1 9186:1 9192:1 9310:1 9336:1 9383:1 9396:1 9402:1 9452:1 9460:1 9488:1 9492:1 9496:1 9505:1 9538:1 9543:1 9545:1 9571:1 9585:1 9620:1 9621:1 9654:1 9706:1 9713:1 9729:1 9743:1 9752:1 9775:1 9802:1 9853:1 9854:1 9883:1 9884:1 9912:1 9915:1 9923:1 9925:1 9938:1 9968:1 9986:1 9999:1 10001:1 10010:1 10033:1 10038:1 10042:1 10045:1 10050:1 10147:1 10159:1 10181:1 10218:1 10250:1 10269:1 10271:1 10340:1 10350:1 10364:1 10376:1 10379:1 10431:1 10433:1 10446:1 10456:1 10457:1 10468:1 10476:1 10496:1 10518:1 10528:1 10547:1 10557:1 10601:1 10616:1 10624:1 10717:1 10724:1 10730:1 10742:1 10761:1 10767:1 10769:1 10775:1 10789:1 10806:1 10812:1 10828:1 10836:1 10892:1 10918:1 10930:1 10951:1 10994:1 11048:1 11055:1 11083:1 11085:1 11101:1 #
-0.0012396094815581317188230014991746 1:1 50:1 58:1 62:1 64:1 66:1 69:1 70:1 74:1 102:1 107:1 151:1 178:1 182:1 189:1 202:1 215:1 253:1 259:1 266:1 288:1 291:1 315:1 358:1 362:1 370:1 404:1 434:1 466:1 553:1 585:1 589:1 612:1 625:1 642:1 645:1 646:1 653:1 654:1 673:1 674:1 692:1 708:1 778:1 792:1 801:1 869:1 878:1 896:1 932:1 942:1 971:1 981:1 994:1 1000:1 1013:1 1029:1 1049:1 1062:1 1104:1 1108:1 1112:1 1126:1 1129:1 1141:1 1189:1 1240:1 1270:1 1293:1 1302:1 1313:1 1352:1 1373:1 1392:1 1394:1 1408:1 1503:1 1505:1 1533:1 1561:1 1562:1 1577:1 1638:1 1645:1 1651:1 1685:1 1727:1 1730:1 1780:1 1792:1 1826:1 1866:1 1888:1 1924:1 1960:1 1974:1 1979:1 2005:1 2033:1 2039:1 2070:1 2096:1 2126:1 2129:1 2263:1 2281:1 2317:1 2333:1 2344:1 2376:1 2379:1 2394:1 2401:1 2459:1 2529:1 2573:1 2592:1 2609:1 2617:1 2658:1 2661:1 2682:1 2705:1 2725:1 2771:1 2775:1 2799:1 2861:1 2883:1 2900:1 2912:1 2924:1 2929:1 2941:1 2945:1 2946:1 2948:1 2950:1 3012:1 3049:1 3069:1 3081:1 3115:1 3133:1 3153:1 3162:1 3196:1 3200:1 3238:1 3253:1 3269:1 3285:1 3382:1 3423:1 3426:1 3452:1 3468:1 3491:1 3498:1 3522:1 3558:1 3590:1 3613:1 3669:1 3703:1 3705:1 3753:1 3791:1 3804:1 3807:1 3834:1 3859:1 3900:1 3928:1 3956:1 3970:1 4025:1 4057:1 4060:1 4071:1 4091:1 4108:1 4109:1 4137:1 4178:1 4208:1 4239:1 4252:1 4259:1 4323:1 4341:1 4372:1 4422:1 4434:1 4435:1 4437:1 4461:1 4463:1 4480:1 4485:1 4487:1 4488:1 4525:1 4607:1 4609:1 4616:1 4617:1 4618:1 4643:1 4646:1 4752:1 4766:1 4769:1 4834:1 4839:1 4866:1 4939:1 4945:1 5072:1 5097:1 5109:1 5133:1 5187:1 5197:1 5227:1 5273:1 5324:1 5328:1 5366:1 5410:1 5415:1 5457:1 5462:1 5507:1 5510:1 5612:1 5640:1 5675:1 5700:1 5747:1 5786:1 5788:1 5846:1 5894:1 5897:1 5903:1 5908:1 5926:1 5928:1 5954:1 5955:1 5992:1 6080:1 6085:1 6118:1 6137:1 6144:1 6265:1 6299:1 6300:1 6322:1 6332:1 6339:1 6345:1 6384:1 6395:1 6439:1 6460:1 6466:1 6480:1 6499:1 6501:1 6517:1 6551:1 6569:1 6579:1 6594:1 6613:1 6692:1 6695:1 6700:1 6738:1 6764:1 6775:1 6889:1 6897:1 6898:1 6910:1 6911:1 6925:1 6971:1 6990:1 7002:1 7034:1 7078:1 7079:1 7080:1 7083:1 7094:1 7100:1 7105:1 7112:1 7139:1 7150:1 7163:1 7184:1 7242:1 7246:1 7252:1 7286:1 7306:1 7315:1 7372:1 7399:1 7453:1 7466:1 7469:1 7475:1 7520:1 7614:1 7635:1 7707:1 7722:1 7723:1 7726:1 7742:1 7786:1 7794:1 7816:1 7836:1 7850:1 7907:1 7928:1 7978:1 7983:1 7999:1 8014:1 8034:1 8056:1 8106:1 8124:1 8136:1 8165:1 8169:1 8191:1 8231:1 8248:1 8282:1 8289:1 8325:1 8345:1 8370:1 8406:1 8419:1 8422:1 8423:1 8476:1 8494:1 8521:1 8564:1 8596:1 8612:1 8627:1 8684:1 8693:1 8716:1 8748:1 8749:1 8753:1 8754:1 8777:1 8798:1 8801:1 8808:1 8846:1 8876:1 8909:1 8931:1 8936:1 8950:1 8981:1 8996:1 9114:1 9198:1 9203:1 9222:1 9255:1 9276:1 9285:1 9323:1 9327:1 9358:1 9370:1 9381:1 9386:1 9407:1 9441:1 9452:1 9458:1 9460:1 9492:1 9504:1 9505:1 9545:1 9622:1 9661:1 9662:1 9781:1 9849:1 9884:1 9915:1 9923:1 9935:1 9938:1 9944:1 9968:1 10001:1 10003:1 10010:1 10050:1 10063:1 10106:1 10148:1 10161:1 10184:1 10193:1 10218:1 10244:1 10248:1 10271:1 10325:1 10334:1 10340:1 10344:1 10379:1 10416:1 10456:1 10463:1 10512:1 10515:1 10518:1 10566:1 10568:1 10589:1 10615:1 10617:1 10640:1 10665:1 10668:1 10669:1 10703:1 10724:1 10728:1 10772:1 10776:1 10869:1 10878:1 10881:1 10960:1 10996:1 11006:1 11042:1 11047:1 11048:1 11083:1 11104:1 #
-0.0028124307114762562599674655672288 1:1 47:1 58:1 62:1 64:1 69:1 74:1 82:1 86:1 88:1 102:1 107:1 123:1 169:1 178:1 202:1 230:1 242:1 253:1 259:1 266:1 275:1 286:1 288:1 291:1 325:1 352:1 362:1 399:1 427:1 434:1 440:1 462:1 467:1 479:1 565:1 596:1 601:1 607:1 625:1 654:1 698:1 708:1 778:1 789:1 801:1 816:1 932:1 941:1 974:1 981:1 1000:1 1072:1 1240:1 1270:1 1304:1 1352:1 1370:1 1392:1 1485:1 1503:1 1532:1 1554:1 1561:1 1562:1 1570:1 1576:1 1577:1 1579:1 1588:1 1691:1 1696:1 1730:1 1826:1 1862:1 1910:1 1957:1 1960:1 1973:1 1974:1 1979:1 1983:1 2012:1 2020:1 2082:1 2108:1 2126:1 2129:1 2236:1 2257:1 2258:1 2263:1 2317:1 2394:1 2465:1 2471:1 2564:1 2591:1 2599:1 2661:1 2682:1 2687:1 2710:1 2749:1 2751:1 2883:1 2899:1 2926:1 2929:1 2941:1 2945:1 2946:1 2959:1 2981:1 3051:1 3081:1 3200:1 3203:1 3302:1 3324:1 3338:1 3374:1 3376:1 3383:1 3392:1 3394:1 3423:1 3461:1 3463:1 3479:1 3490:1 3491:1 3492:1 3506:1 3572:1 3590:1 3639:1 3705:1 3760:1 3836:1 3845:1 3878:1 4010:1 4019:1 4023:1 4037:1 4059:1 4099:1 4101:1 4137:1 4188:1 4303:1 4316:1 4372:1 4434:1 4437:1 4438:1 4460:1 4475:1 4477:1 4486:1 4488:1 4588:1 4609:1 4616:1 4617:1 4618:1 4624:1 4626:1 4734:1 4746:1 4752:1 4759:1 4764:1 4769:1 4785:1 4938:1 4989:1 5031:1 5050:1 5097:1 5109:1 5171:1 5217:1 5226:1 5238:1 5261:1 5276:1 5366:1 5425:1 5427:1 5466:1 5474:1 5485:1 5531:1 5552:1 5639:1 5640:1 5657:1 5675:1 5785:1 5788:1 5801:1 5845:1 5897:1 5903:1 5942:1 5947:1 6130:1 6137:1 6177:1 6245:1 6265:1 6300:1 6322:1 6345:1 6376:1 6413:1 6420:1 6439:1 6441:1 6442:1 6480:1 6499:1 6552:1 6556:1 6594:1 6610:1 6623:1 6624:1 6646:1 6654:1 6695:1 6730:1 6941:1 7034:1 7078:1 7079:1 7083:1 7085:1 7100:1 7105:1 7112:1 7128:1 7204:1 7208:1 7234:1 7246:1 7286:1 7289:1 7310:1 7320:1 7427:1 7475:1 7506:1 7538:1 7550:1 7575:1 7614:1 7635:1 7673:1 7693:1 7713:1 7783:1 7794:1 7809:1 7812:1 7839:1 7856:1 7880:1 7916:1 7991:1 7999:1 8014:1 8042:1 8044:1 8054:1 8057:1 8132:1 8152:1 8167:1 8207:1 8264:1 8345:1 8370:1 8426:1 8447:1 8457:1 8521:1 8546:1 8582:1 8632:1 8634:1 8637:1 8649:1 8654:1 8684:1 8716:1 8748:1 8766:1 8798:1 8800:1 8801:1 8844:1 8878:1 8882:1 8914:1 8915:1 8936:1 8980:1 9014:1 9061:1 9076:1 9149:1 9160:1 9170:1 9186:1 9189:1 9238:1 9311:1 9322:1 9340:1 9386:1 9392:1 9452:1 9492:1 9495:1 9505:1 9578:1 9610:1 9647:1 9684:1 9780:1 9781:1 9805:1 9859:1 9915:1 9923:1 9938:1 9969:1 9972:1 9979:1 9986:1 9996:1 10010:1 10050:1 10089:1 10117:1 10214:1 10334:1 10340:1 10357:1 10456:1 10464:1 10495:1 10496:1 10543:1 10637:1 10724:1 10730:1 10761:1 10812:1 10815:1 10878:1 10893:1 10955:1 10992:1 10994:1 10996:1 11048:1 #
-0.00016511278605511113906113840332779 1:1 62:1 64:1 69:1 74:1 81:1 89:1 91:1 107:1 123:1 178:1 202:1 204:1 253:1 259:1 262:1 266:1 288:1 291:1 315:1 377:1 434:1 437:1 440:1 570:1 611:1 626:1 654:1 669:1 777:1 831:1 862:1 897:1 909:1 941:1 949:1 1029:1 1053:1 1091:1 1127:1 1141:1 1198:1 1203:1 1240:1 1250:1 1270:1 1302:1 1304:1 1311:1 1313:1 1316:1 1392:1 1459:1 1465:1 1499:1 1512:1 1561:1 1562:1 1570:1 1574:1 1577:1 1588:1 1605:1 1685:1 1730:1 1800:1 1810:1 1822:1 1827:1 1832:1 1833:1 1902:1 1910:1 1974:1 1979:1 2020:1 2082:1 2101:1 2129:1 2189:1 2195:1 2199:1 2225:1 2276:1 2393:1 2417:1 2423:1 2463:1 2546:1 2553:1 2568:1 2658:1 2661:1 2682:1 2684:1 2704:1 2782:1 2812:1 2912:1 2913:1 2929:1 2938:1 2940:1 2941:1 2945:1 2946:1 2961:1 3036:1 3081:1 3089:1 3144:1 3200:1 3248:1 3253:1 3259:1 3285:1 3287:1 3382:1 3386:1 3394:1 3423:1 3455:1 3462:1 3468:1 3476:1 3491:1 3498:1 3518:1 3543:1 3556:1 3563:1 3570:1 3617:1 3646:1 3650:1 3673:1 3705:1 3761:1 3879:1 3896:1 4058:1 4101:1 4122:1 4317:1 4387:1 4388:1 4401:1 4422:1 4434:1 4461:1 4467:1 4480:1 4486:1 4487:1 4501:1 4525:1 4575:1 4609:1 4616:1 4617:1 4618:1 4650:1 4660:1 4676:1 4690:1 4734:1 4752:1 4769:1 4775:1 4783:1 4803:1 4813:1 4913:1 4956:1 4978:1 5054:1 5109:1 5121:1 5127:1 5128:1 5227:1 5251:1 5273:1 5322:1 5327:1 5353:1 5366:1 5410:1 5415:1 5419:1 5420:1 5457:1 5462:1 5538:1 5675:1 5764:1 5778:1 5788:1 5897:1 5903:1 6104:1 6150:1 6174:1 6223:1 6245:1 6262:1 6293:1 6322:1 6332:1 6339:1 6345:1 6355:1 6397:1 6407:1 6450:1 6464:1 6480:1 6495:1 6513:1 6556:1 6564:1 6592:1 6597:1 6645:1 6656:1 6739:1 6751:1 6782:1 6800:1 6808:1 6835:1 6861:1 6916:1 6921:1 6925:1 6929:1 6964:1 6984:1 7034:1 7078:1 7079:1 7083:1 7100:1 7105:1 7112:1 7114:1 7187:1 7199:1 7234:1 7294:1 7295:1 7334:1 7391:1 7395:1 7411:1 7452:1 7475:1 7495:1 7538:1 7566:1 7589:1 7614:1 7635:1 7650:1 7677:1 7688:1 7744:1 7823:1 7839:1 7850:1 7863:1 7867:1 7916:1 8014:1 8042:1 8166:1 8325:1 8331:1 8345:1 8422:1 8518:1 8535:1 8554:1 8684:1 8748:1 8783:1 8798:1 8801:1 8802:1 8815:1 8832:1 8892:1 8936:1 8946:1 8950:1 8991:1 9014:1 9018:1 9067:1 9170:1 9186:1 9187:1 9218:1 9275:1 9381:1 9382:1 9386:1 9403:1 9445:1 9452:1 9496:1 9505:1 9509:1 9521:1 9545:1 9578:1 9620:1 9687:1 9743:1 9752:1 9795:1 9826:1 9840:1 9883:1 9915:1 9923:1 9986:1 10001:1 10010:1 10016:1 10074:1 10089:1 10193:1 10224:1 10271:1 10340:1 10350:1 10364:1 10404:1 10406:1 10431:1 10488:1 10496:1 10500:1 10528:1 10554:1 10576:1 10637:1 10640:1 10724:1 10730:1 10740:1 10761:1 10769:1 10772:1 10775:1 10787:1 10803:1 10835:1 10869:1 10878:1 10969:1 10994:1 11010:1 11020:1 11048:1 11065:1 11104:1 #
-0.00064357983142728739534704773816998 1:1 5:1 51:1 58:1 62:1 64:1 69:1 74:1 87:1 107:1 112:1 123:1 178:1 199:1 202:1 221:1 253:1 259:1 262:1 291:1 315:1 328:1 360:1 445:1 544:1 567:1 598:1 617:1 625:1 650:1 654:1 660:1 661:1 698:1 708:1 727:1 777:1 778:1 801:1 872:1 913:1 921:1 941:1 974:1 977:1 1015:1 1065:1 1127:1 1141:1 1198:1 1240:1 1263:1 1285:1 1308:1 1352:1 1366:1 1375:1 1392:1 1500:1 1503:1 1518:1 1561:1 1570:1 1576:1 1659:1 1669:1 1730:1 1739:1 1783:1 1792:1 1851:1 1876:1 1888:1 1890:1 1894:1 1910:1 1967:1 1973:1 1974:1 1979:1 1990:1 2020:1 2026:1 2043:1 2126:1 2129:1 2159:1 2189:1 2211:1 2258:1 2263:1 2317:1 2386:1 2387:1 2440:1 2463:1 2465:1 2499:1 2541:1 2546:1 2561:1 2585:1 2599:1 2632:1 2658:1 2661:1 2701:1 2725:1 2796:1 2821:1 2856:1 2864:1 2868:1 2903:1 2908:1 2912:1 2938:1 2941:1 2945:1 2946:1 2970:1 2994:1 3010:1 3081:1 3114:1 3188:1 3253:1 3285:1 3288:1 3333:1 3354:1 3359:1 3364:1 3385:1 3423:1 3449:1 3461:1 3463:1 3479:1 3486:1 3491:1 3518:1 3558:1 3586:1 3590:1 3680:1 3689:1 3702:1 3731:1 3761:1 3826:1 3831:1 3834:1 3839:1 3878:1 3882:1 3966:1 4025:1 4071:1 4078:1 4101:1 4114:1 4137:1 4182:1 4186:1 4208:1 4211:1 4245:1 4261:1 4277:1 4309:1 4372:1 4422:1 4428:1 4461:1 4480:1 4486:1 4487:1 4492:1 4525:1 4529:1 4550:1 4609:1 4616:1 4617:1 4618:1 4631:1 4637:1 4734:1 4752:1 4767:1 4768:1 4769:1 4775:1 4814:1 4901:1 4922:1 4932:1 4948:1 5076:1 5086:1 5097:1 5109:1 5127:1 5132:1 5134:1 5137:1 5169:1 5204:1 5240:1 5297:1 5318:1 5329:1 5339:1 5366:1 5410:1 5415:1 5457:1 5462:1 5540:1 5552:1 5558:1 5602:1 5614:1 5640:1 5645:1 5675:1 5680:1 5697:1 5752:1 5753:1 5765:1 5788:1 5903:1 5906:1 5910:1 5936:1 5947:1 5969:1 5995:1 6012:1 6066:1 6081:1 6086:1 6108:1 6132:1 6174:1 6206:1 6222:1 6245:1 6262:1 6311:1 6395:1 6450:1 6478:1 6499:1 6513:1 6514:1 6537:1 6573:1 6592:1 6594:1 6609:1 6610:1 6627:1 6631:1 6673:1 6686:1 6740:1 6805:1 6837:1 6844:1 6861:1 6896:1 6923:1 6941:1 6957:1 6990:1 7015:1 7034:1 7078:1 7079:1 7083:1 7100:1 7105:1 7112:1 7114:1 7173:1 7180:1 7234:1 7286:1 7306:1 7399:1 7411:1 7427:1 7435:1 7466:1 7475:1 7540:1 7554:1 7614:1 7632:1 7634:1 7663:1 7673:1 7741:1 7755:1 7783:1 7786:1 7793:1 7794:1 7816:1 7823:1 7855:1 7859:1 7893:1 7900:1 7959:1 7999:1 8014:1 8032:1 8042:1 8064:1 8073:1 8205:1 8264:1 8289:1 8313:1 8345:1 8422:1 8611:1 8624:1 8627:1 8650:1 8684:1 8740:1 8743:1 8748:1 8801:1 8814:1 8852:1 8892:1 8923:1 8934:1 8936:1 8940:1 8950:1 8953:1 8976:1 9004:1 9013:1 9053:1 9099:1 9108:1 9144:1 9146:1 9186:1 9188:1 9210:1 9258:1 9276:1 9285:1 9328:1 9394:1 9408:1 9410:1 9452:1 9460:1 9488:1 9525:1 9545:1 9567:1 9652:1 9665:1 9690:1 9706:1 9743:1 9822:1 9840:1 9915:1 9923:1 9938:1 9939:1 10001:1 10010:1 10044:1 10059:1 10080:1 10145:1 10229:1 10258:1 10271:1 10334:1 10340:1 10379:1 10417:1 10456:1 10496:1 10515:1 10563:1 10569:1 10612:1 10637:1 10703:1 10723:1 10724:1 10730:1 10742:1 10761:1 10805:1 10815:1 10835:1 10858:1 10878:1 10900:1 10940:1 10996:1 11021:1 11027:1 11048:1 #
0.0012099310940098641567463921830949 47:1 62:1 64:1 69:1 70:1 74:1 107:1 123:1 169:1 178:1 202:1 243:1 244:1 253:1 259:1 262:1 315:1 369:1 427:1 429:1 431:1 440:1 467:1 477:1 542:1 547:1 596:1 625:1 654:1 663:1 706:1 778:1 781:1 810:1 817:1 941:1 965:1 974:1 1000:1 1029:1 1037:1 1052:1 1127:1 1141:1 1203:1 1208:1 1235:1 1240:1 1285:1 1313:1 1340:1 1392:1 1397:1 1462:1 1561:1 1576:1 1577:1 1588:1 1730:1 1781:1 1792:1 1836:1 1876:1 1890:1 1910:1 1960:1 1974:1 1979:1 1990:1 2005:1 2020:1 2032:1 2033:1 2035:1 2101:1 2126:1 2189:1 2263:1 2317:1 2379:1 2465:1 2588:1 2594:1 2599:1 2658:1 2661:1 2714:1 2787:1 2912:1 2929:1 2937:1 2940:1 2941:1 2945:1 2946:1 2973:1 3077:1 3081:1 3200:1 3253:1 3324:1 3326:1 3376:1 3449:1 3463:1 3468:1 3491:1 3553:1 3558:1 3577:1 3600:1 3650:1 3674:1 3680:1 3707:1 3811:1 3836:1 3862:1 3927:1 3976:1 4008:1 4041:1 4097:1 4151:1 4261:1 4303:1 4309:1 4352:1 4362:1 4372:1 4400:1 4421:1 4426:1 4434:1 4486:1 4487:1 4525:1 4549:1 4616:1 4650:1 4714:1 4752:1 4826:1 4948:1 4982:1 5015:1 5023:1 5050:1 5097:1 5127:1 5169:1 5227:1 5273:1 5305:1 5318:1 5330:1 5341:1 5346:1 5410:1 5415:1 5443:1 5484:1 5601:1 5638:1 5639:1 5675:1 5683:1 5715:1 5726:1 5743:1 5764:1 5786:1 5788:1 5862:1 5897:1 5908:1 5947:1 6070:1 6188:1 6222:1 6264:1 6345:1 6395:1 6403:1 6425:1 6435:1 6447:1 6460:1 6475:1 6480:1 6486:1 6513:1 6519:1 6533:1 6564:1 6581:1 6623:1 6636:1 6645:1 6698:1 6704:1 6750:1 6762:1 6904:1 6929:1 6951:1 6990:1 7002:1 7017:1 7034:1 7036:1 7083:1 7085:1 7100:1 7105:1 7112:1 7180:1 7246:1 7259:1 7272:1 7285:1 7286:1 7312:1 7331:1 7344:1 7411:1 7414:1 7475:1 7502:1 7593:1 7615:1 7661:1 7813:1 7836:1 7852:1 7866:1 7916:1 7920:1 7965:1 8041:1 8167:1 8187:1 8289:1 8319:1 8419:1 8422:1 8481:1 8507:1 8552:1 8607:1 8634:1 8684:1 8716:1 8748:1 8754:1 8777:1 8801:1 8892:1 8936:1 8941:1 8950:1 8994:1 9014:1 9033:1 9177:1 9186:1 9256:1 9276:1 9359:1 9452:1 9488:1 9492:1 9505:1 9554:1 9706:1 9743:1 9747:1 9752:1 9775:1 9938:1 10001:1 10010:1 10054:1 10089:1 10128:1 10159:1 10269:1 10316:1 10340:1 10357:1 10361:1 10363:1 10379:1 10455:1 10488:1 10547:1 10703:1 10724:1 10787:1 10933:1 10971:1 11020:1 #
0.00065652520154474501134361785759097 47:1 62:1 64:1 69:1 74:1 87:1 103:1 107:1 123:1 173:1 178:1 202:1 253:1 259:1 262:1 276:1 288:1 301:1 315:1 436:1 445:1 465:1 467:1 567:1 583:1 588:1 596:1 632:1 642:1 644:1 654:1 708:1 729:1 732:1 736:1 756:1 778:1 803:1 851:1 876:1 909:1 930:1 932:1 974:1 1026:1 1051:1 1082:1 1098:1 1127:1 1132:1 1140:1 1141:1 1182:1 1206:1 1240:1 1285:1 1304:1 1321:1 1352:1 1392:1 1455:1 1503:1 1561:1 1562:1 1572:1 1576:1 1577:1 1650:1 1658:1 1679:1 1696:1 1719:1 1730:1 1744:1 1775:1 1792:1 1805:1 1819:1 1865:1 1876:1 1908:1 1910:1 1950:1 1974:1 1979:1 1990:1 2082:1 2101:1 2165:1 2189:1 2223:1 2267:1 2268:1 2275:1 2284:1 2304:1 2317:1 2325:1 2341:1 2379:1 2391:1 2394:1 2465:1 2592:1 2599:1 2600:1 2614:1 2666:1 2699:1 2719:1 2725:1 2782:1 2835:1 2842:1 2846:1 2847:1 2912:1 2929:1 2941:1 2942:1 2945:1 2946:1 2973:1 3028:1 3049:1 3173:1 3200:1 3216:1 3247:1 3253:1 3258:1 3288:1 3324:1 3332:1 3359:1 3375:1 3377:1 3412:1 3445:1 3463:1 3491:1 3510:1 3529:1 3573:1 3590:1 3644:1 3650:1 3680:1 3687:1 3731:1 3751:1 3765:1 3782:1 3811:1 3823:1 3834:1 3842:1 3844:1 3881:1 3922:1 3970:1 4058:1 4097:1 4101:1 4128:1 4145:1 4154:1 4251:1 4256:1 4261:1 4299:1 4309:1 4316:1 4330:1 4356:1 4369:1 4400:1 4413:1 4428:1 4481:1 4486:1 4487:1 4525:1 4529:1 4536:1 4549:1 4573:1 4585:1 4587:1 4591:1 4609:1 4616:1 4618:1 4621:1 4692:1 4726:1 4762:1 4793:1 4827:1 4879:1 4923:1 4963:1 4978:1 5023:1 5128:1 5140:1 5177:1 5185:1 5187:1 5218:1 5223:1 5226:1 5242:1 5247:1 5273:1 5281:1 5295:1 5357:1 5366:1 5406:1 5410:1 5459:1 5462:1 5546:1 5612:1 5656:1 5675:1 5683:1 5700:1 5715:1 5788:1 5796:1 5799:1 5821:1 5862:1 5910:1 5914:1 5950:1 6066:1 6132:1 6216:1 6238:1 6265:1 6270:1 6273:1 6317:1 6322:1 6332:1 6348:1 6388:1 6433:1 6472:1 6478:1 6480:1 6515:1 6533:1 6564:1 6592:1 6597:1 6604:1 6609:1 6610:1 6623:1 6626:1 6646:1 6652:1 6687:1 6715:1 6748:1 6750:1 6810:1 6816:1 6861:1 6921:1 7018:1 7034:1 7078:1 7083:1 7100:1 7112:1 7128:1 7209:1 7220:1 7234:1 7237:1 7246:1 7298:1 7391:1 7410:1 7411:1 7443:1 7475:1 7575:1 7598:1 7610:1 7620:1 7683:1 7693:1 7707:1 7718:1 7721:1 7722:1 7786:1 7822:1 7900:1 7920:1 7936:1 8014:1 8091:1 8130:1 8156:1 8159:1 8191:1 8245:1 8343:1 8373:1 8422:1 8440:1 8512:1 8521:1 8535:1 8546:1 8570:1 8614:1 8623:1 8624:1 8637:1 8689:1 8706:1 8738:1 8748:1 8754:1 8798:1 8801:1 8802:1 8823:1 8859:1 8866:1 8945:1 8950:1 8951:1 8953:1 8956:1 8980:1 8995:1 9044:1 9049:1 9061:1 9076:1 9119:1 9156:1 9159:1 9166:1 9177:1 9222:1 9271:1 9334:1 9360:1 9385:1 9402:1 9418:1 9427:1 9436:1 9452:1 9460:1 9488:1 9492:1 9494:1 9505:1 9545:1 9558:1 9578:1 9604:1 9679:1 9743:1 9744:1 9763:1 9775:1 9833:1 9843:1 9861:1 9870:1 9901:1 9915:1 9923:1 9930:1 9949:1 9987:1 10001:1 10010:1 10089:1 10121:1 10140:1 10193:1 10195:1 10214:1 10217:1 10256:1 10269:1 10271:1 10340:1 10398:1 10456:1 10498:1 10640:1 10641:1 10706:1 10713:1 10724:1 10730:1 10742:1 10750:1 10754:1 10787:1 10812:1 10878:1 10879:1 10890:1 10908:1 10917:1 10940:1 10951:1 10960:1 11096:1 #
0.0026552478796244907699453108307353 47:1 62:1 64:1 69:1 74:1 107:1 110:1 119:1 173:1 178:1 202:1 243:1 253:1 259:1 265:1 301:1 315:1 362:1 434:1 440:1 467:1 550:1 562:1 675:1 692:1 778:1 876:1 878:1 1026:1 1053:1 1080:1 1127:1 1285:1 1304:1 1321:1 1352:1 1392:1 1459:1 1475:1 1561:1 1588:1 1638:1 1650:1 1710:1 1730:1 1775:1 1792:1 1878:1 1974:1 1979:1 2082:1 2163:1 2197:1 2314:1 2341:1 2394:1 2495:1 2714:1 2911:1 2912:1 2941:1 2942:1 2945:1 2946:1 3012:1 3248:1 3452:1 3529:1 3639:1 3658:1 3669:1 3751:1 3948:1 3970:1 4101:1 4164:1 4249:1 4275:1 4299:1 4331:1 4400:1 4487:1 4488:1 4609:1 4616:1 4618:1 4635:1 4692:1 4714:1 4726:1 4856:1 4923:1 4932:1 5050:1 5054:1 5226:1 5385:1 5436:1 5531:1 5546:1 5610:1 5658:1 5701:1 5788:1 5835:1 5883:1 5897:1 5966:1 6108:1 6174:1 6183:1 6610:1 6646:1 6736:1 6861:1 6908:1 6990:1 7034:1 7078:1 7083:1 7084:1 7100:1 7112:1 7149:1 7220:1 7246:1 7475:1 7713:1 7794:1 7818:1 7999:1 8087:1 8169:1 8289:1 8331:1 8345:1 8375:1 8422:1 8437:1 8597:1 8624:1 8641:1 8754:1 8783:1 8798:1 8801:1 8802:1 8813:1 8892:1 8936:1 9061:1 9091:1 9149:1 9156:1 9176:1 9195:1 9368:1 9452:1 9492:1 9494:1 9743:1 9780:1 9884:1 9930:1 9949:1 10010:1 10089:1 10140:1 10340:1 10571:1 10601:1 10640:1 10703:1 10724:1 10890:1 10994:1 11033:1 11045:1 11048:1 11096:1 #
0.0033386058045510244585152292984276 69:1 74:1 178:1 202:1 243:1 253:1 262:1 292:1 506:1 601:1 654:1 708:1 769:1 777:1 909:1 932:1 941:1 1037:1 1127:1 1141:1 1240:1 1392:1 1472:1 1501:1 1561:1 1574:1 1576:1 1588:1 1600:1 1638:1 1696:1 1730:1 1736:1 1803:1 1866:1 1910:1 1974:1 1979:1 1990:1 2126:1 2129:1 2225:1 2317:1 2338:1 2395:1 2533:1 2661:1 2714:1 2725:1 2868:1 2929:1 2941:1 2945:1 2946:1 3226:1 3253:1 3306:1 3423:1 3463:1 3491:1 3591:1 3705:1 3857:1 3927:1 4002:1 4038:1 4372:1 4434:1 4486:1 4525:1 4534:1 4616:1 4617:1 4618:1 4670:1 4742:1 4752:1 4769:1 4775:1 4876:1 4944:1 5054:1 5148:1 5273:1 5318:1 5363:1 5366:1 5384:1 5602:1 5614:1 5675:1 5788:1 5897:1 6248:1 6265:1 6322:1 6345:1 6444:1 6480:1 6503:1 6687:1 6784:1 6800:1 7034:1 7078:1 7080:1 7083:1 7173:1 7246:1 7407:1 7475:1 7495:1 7620:1 7673:1 7708:1 7758:1 7763:1 7794:1 7880:1 8150:1 8223:1 8289:1 8422:1 8627:1 8684:1 8748:1 8798:1 8801:1 8802:1 8813:1 8934:1 8936:1 8950:1 9014:1 9131:1 9160:1 9276:1 9386:1 9452:1 9488:1 9505:1 9617:1 9677:1 9743:1 9775:1 9923:1 9938:1 10340:1 10512:1 10724:1 10757:1 10782:1 10859:1 11083:1 #
0.0033386058045510244585152292984276 62:1 64:1 69:1 74:1 107:1 178:1 197:1 202:1 253:1 262:1 288:1 315:1 361:1 362:1 427:1 440:1 507:1 544:1 654:1 756:1 773:1 777:1 778:1 850:1 941:1 955:1 1043:1 1053:1 1056:1 1065:1 1127:1 1141:1 1143:1 1240:1 1270:1 1283:1 1304:1 1316:1 1392:1 1408:1 1413:1 1503:1 1518:1 1561:1 1562:1 1577:1 1688:1 1690:1 1730:1 1763:1 1782:1 1787:1 1788:1 1792:1 1850:1 1860:1 1910:1 1924:1 1960:1 1974:1 1979:1 1990:1 2033:1 2101:1 2126:1 2129:1 2132:1 2158:1 2163:1 2192:1 2227:1 2231:1 2243:1 2263:1 2275:1 2317:1 2516:1 2634:1 2658:1 2659:1 2666:1 2749:1 2785:1 2788:1 2835:1 2856:1 2871:1 2885:1 2929:1 2937:1 2941:1 2945:1 2946:1 2972:1 2991:1 3147:1 3200:1 3203:1 3253:1 3324:1 3332:1 3449:1 3491:1 3497:1 3586:1 3590:1 3591:1 3842:1 3864:1 3927:1 3970:1 4002:1 4032:1 4100:1 4363:1 4434:1 4461:1 4481:1 4484:1 4486:1 4493:1 4525:1 4558:1 4609:1 4616:1 4618:1 4672:1 4694:1 4777:1 4872:1 4876:1 4948:1 4978:1 5107:1 5176:1 5257:1 5410:1 5415:1 5426:1 5447:1 5462:1 5500:1 5710:1 5734:1 5788:1 5849:1 5897:1 5958:1 6070:1 6081:1 6265:1 6308:1 6322:1 6404:1 6442:1 6446:1 6480:1 6561:1 6609:1 6686:1 6694:1 6695:1 6730:1 6861:1 6921:1 6941:1 7034:1 7078:1 7083:1 7100:1 7105:1 7112:1 7246:1 7286:1 7347:1 7416:1 7475:1 7550:1 7566:1 7586:1 7601:1 7706:1 7707:1 7715:1 7756:1 7911:1 7916:1 8014:1 8042:1 8078:1 8383:1 8422:1 8521:1 8629:1 8679:1 8684:1 8754:1 8777:1 8801:1 8923:1 8924:1 8936:1 8950:1 9014:1 9061:1 9129:1 9205:1 9271:1 9381:1 9389:1 9403:1 9419:1 9432:1 9452:1 9460:1 9488:1 9492:1 9505:1 9581:1 9588:1 9600:1 9626:1 9716:1 9729:1 9731:1 9743:1 9771:1 9844:1 9861:1 9923:1 9938:1 10037:1 10050:1 10070:1 10083:1 10108:1 10183:1 10340:1 10361:1 10363:1 10368:1 10461:1 10538:1 10564:1 10649:1 10674:1 10681:1 10684:1 10724:1 10734:1 10787:1 10833:1 10873:1 10878:1 10940:1 10960:1 11005:1 #
-0.0033386058045510244585152292984276 74:1 202:1 243:1 2868:1 2945:1 2946:1 5062:1 5538:1 6485:1 7100:1 8684:1 8748:1 8801:1 9452:1 9770:1 10724:1 10761:1 11048:1 #
-0.0033386058045510244585152292984276 58:1 62:1 64:1 69:1 74:1 178:1 202:1 253:1 259:1 440:1 504:1 616:1 625:1 1017:1 1129:1 1141:1 1240:1 1255:1 1352:1 1392:1 1577:1 1642:1 1730:1 1873:1 2082:1 2189:1 2264:1 2400:1 2534:1 2588:1 2613:1 2696:1 2720:1 2912:1 2934:1 2937:1 2945:1 2946:1 3109:1 3172:1 3200:1 3241:1 3302:1 3449:1 3468:1 3491:1 3496:1 3739:1 3804:1 3834:1 3945:1 4204:1 4413:1 4421:1 4487:1 4609:1 4616:1 4734:1 4775:1 4830:1 5142:1 5196:1 5226:1 5273:1 5277:1 5457:1 5500:1 5616:1 5675:1 5788:1 5903:1 6070:1 6221:1 6250:1 6265:1 6404:1 6594:1 6921:1 6940:1 7078:1 7083:1 7100:1 7112:1 7286:1 7379:1 7475:1 7553:1 7589:1 7609:1 7767:1 7898:1 8231:1 8246:1 8265:1 8614:1 8684:1 8801:1 8863:1 8885:1 8935:1 8936:1 9155:1 9452:1 9537:1 9545:1 9743:1 9764:1 9888:1 10010:1 10216:1 10234:1 10252:1 10357:1 10521:1 10608:1 10632:1 10724:1 10730:1 10742:1 10908:1 10951:1 11063:1 #
-0.0033386058045510244585152292984276 47:1 74:1 82:1 88:1 90:1 91:1 95:1 97:1 100:1 104:1 105:1 107:1 178:1 228:1 253:1 315:1 479:1 798:1 974:1 1235:1 1979:1 2534:1 2941:1 2945:1 3049:1 3571:1 3960:1 4261:1 4618:1 5044:1 5248:1 5415:1 5788:1 6300:1 6519:1 6594:1 6941:1 7083:1 7100:1 7252:1 7475:1 7496:1 7898:1 8289:1 8748:1 9081:1 9833:1 9923:1 10334:1 10340:1 10495:1 #
-0.0033386058045510244585152292984276 19:1 47:1 62:1 64:1 69:1 74:1 107:1 123:1 172:1 175:1 178:1 191:1 226:1 262:1 434:1 459:1 590:1 625:1 674:1 777:1 843:1 941:1 1106:1 1127:1 1240:1 1442:1 1503:1 1561:1 1616:1 1631:1 1644:1 1726:1 1730:1 1792:1 1865:1 1979:1 1990:1 2061:1 2129:1 2197:1 2275:1 2317:1 2357:1 2550:1 2658:1 2838:1 2929:1 2941:1 2945:1 2946:1 3041:1 3109:1 3235:1 3253:1 3264:1 3324:1 3332:1 3423:1 3437:1 3449:1 3558:1 3577:1 3649:1 3867:1 3916:1 4073:1 4114:1 4215:1 4398:1 4434:1 4497:1 4616:1 4617:1 4618:1 4670:1 4872:1 5007:1 5118:1 5227:1 5311:1 5318:1 5347:1 5410:1 5675:1 5788:1 5908:1 6132:1 6150:1 6345:1 6399:1 6480:1 6513:1 6730:1 6861:1 6958:1 7034:1 7078:1 7083:1 7100:1 7475:1 7495:1 7519:1 7632:1 7794:1 7838:1 7900:1 8014:1 8084:1 8091:1 8422:1 8513:1 8535:1 8650:1 8684:1 8729:1 8801:1 8849:1 8936:1 9061:1 9171:1 9220:1 9353:1 9386:1 9419:1 9452:1 9505:1 9545:1 9586:1 9690:1 9826:1 9884:1 9923:1 9986:1 10070:1 10098:1 10228:1 10322:1 10370:1 10456:1 10580:1 10724:1 10994:1 10996:1 #
-0.0033386058045510244585152292984276 1:1 62:1 64:1 69:1 74:1 123:1 178:1 202:1 253:1 288:1 315:1 596:1 829:1 941:1 1127:1 1177:1 1182:1 1352:1 1392:1 1577:1 1593:1 1727:1 1730:1 1792:1 1890:1 1910:1 1979:1 2189:1 2263:1 2609:1 2661:1 2920:1 2929:1 2941:1 2945:1 2946:1 3317:1 3332:1 3649:1 3765:1 3784:1 3793:1 3834:1 4073:1 4366:1 4461:1 4486:1 4525:1 4618:1 4672:1 5204:1 5227:1 5410:1 5675:1 5788:1 5798:1 5831:1 5854:1 6130:1 6231:1 6332:1 6397:1 6439:1 6446:1 6540:1 6564:1 6610:1 6745:1 7034:1 7059:1 7083:1 7100:1 7386:1 7475:1 7593:1 7891:1 8194:1 8266:1 8406:1 8521:1 8684:1 8780:1 8801:1 8858:1 8936:1 8978:1 9009:1 9585:1 9915:1 9926:1 10037:1 10108:1 10306:1 10626:1 10724:1 10735:1 10742:1 10890:1 10926:1 11048:1 #
-0.0023485481268281597350133793611349 47:1 51:1 58:1 62:1 64:1 69:1 74:1 102:1 107:1 110:1 123:1 132:1 139:1 178:1 196:1 213:1 253:1 259:1 262:1 288:1 291:1 337:1 362:1 412:1 418:1 421:1 429:1 433:1 440:1 475:1 486:1 511:1 596:1 599:1 604:1 608:1 625:1 649:1 654:1 713:1 727:1 798:1 801:1 803:1 816:1 818:1 834:1 870:1 930:1 941:1 1028:1 1091:1 1110:1 1177:1 1231:1 1239:1 1240:1 1246:1 1270:1 1281:1 1352:1 1360:1 1364:1 1392:1 1413:1 1451:1 1477:1 1499:1 1561:1 1562:1 1577:1 1587:1 1651:1 1673:1 1675:1 1690:1 1710:1 1730:1 1768:1 1771:1 1780:1 1785:1 1826:1 1873:1 1910:1 1974:1 1975:1 2005:1 2010:1 2026:1 2051:1 2069:1 2076:1 2079:1 2155:1 2165:1 2257:1 2263:1 2275:1 2299:1 2317:1 2344:1 2420:1 2498:1 2565:1 2609:1 2658:1 2661:1 2666:1 2700:1 2714:1 2827:1 2853:1 2868:1 2903:1 2920:1 2927:1 2929:1 2941:1 2945:1 2946:1 2972:1 3001:1 3077:1 3084:1 3126:1 3200:1 3207:1 3248:1 3285:1 3335:1 3406:1 3485:1 3491:1 3535:1 3558:1 3570:1 3581:1 3668:1 3680:1 3713:1 3834:1 3836:1 3951:1 3981:1 3986:1 4071:1 4083:1 4097:1 4101:1 4168:1 4186:1 4257:1 4303:1 4372:1 4413:1 4422:1 4460:1 4484:1 4493:1 4525:1 4549:1 4574:1 4609:1 4616:1 4617:1 4618:1 4643:1 4672:1 4734:1 4752:1 4769:1 4778:1 4956:1 5019:1 5029:1 5183:1 5255:1 5358:1 5366:1 5373:1 5415:1 5462:1 5523:1 5675:1 5683:1 5799:1 5827:1 5871:1 5897:1 5908:1 5910:1 5944:1 6064:1 6209:1 6248:1 6278:1 6288:1 6300:1 6322:1 6345:1 6381:1 6407:1 6480:1 6500:1 6502:1 6506:1 6514:1 6517:1 6543:1 6551:1 6592:1 6610:1 6623:1 6624:1 6632:1 6654:1 6703:1 6727:1 6733:1 6769:1 6772:1 6775:1 6804:1 6843:1 6911:1 6951:1 6968:1 6991:1 7001:1 7002:1 7034:1 7078:1 7083:1 7097:1 7100:1 7105:1 7112:1 7143:1 7175:1 7234:1 7246:1 7286:1 7289:1 7329:1 7400:1 7411:1 7425:1 7475:1 7519:1 7533:1 7538:1 7589:1 7682:1 7707:1 7748:1 7756:1 7769:1 7794:1 7893:1 7999:1 8033:1 8042:1 8045:1 8174:1 8241:1 8264:1 8271:1 8289:1 8290:1 8331:1 8345:1 8370:1 8419:1 8422:1 8464:1 8521:1 8523:1 8528:1 8603:1 8611:1 8684:1 8748:1 8754:1 8766:1 8783:1 8796:1 8798:1 8801:1 8808:1 8857:1 8892:1 8918:1 8936:1 9061:1 9152:1 9247:1 9452:1 9492:1 9505:1 9540:1 9545:1 9617:1 9665:1 9690:1 9773:1 9775:1 9818:1 9917:1 9923:1 10001:1 10010:1 10127:1 10212:1 10250:1 10254:1 10270:1 10340:1 10420:1 10431:1 10450:1 10470:1 10495:1 10496:1 10577:1 10610:1 10653:1 10681:1 10703:1 10724:1 10749:1 10761:1 10770:1 10857:1 10877:1 10878:1 10890:1 11048:1 11083:1 #
0.0014624434119113510679305312223164 1:1 12:1 47:1 58:1 62:1 64:1 69:1 74:1 101:1 107:1 110:1 178:1 182:1 202:1 207:1 230:1 243:1 253:1 259:1 262:1 266:1 288:1 291:1 315:1 325:1 343:1 362:1 389:1 412:1 421:1 429:1 433:1 440:1 445:1 467:1 476:1 505:1 515:1 518:1 546:1 552:1 560:1 567:1 570:1 576:1 585:1 589:1 610:1 616:1 625:1 654:1 727:1 776:1 778:1 798:1 801:1 809:1 816:1 829:1 834:1 878:1 941:1 993:1 1000:1 1107:1 1125:1 1127:1 1129:1 1141:1 1190:1 1198:1 1200:1 1201:1 1203:1 1207:1 1208:1 1214:1 1240:1 1262:1 1278:1 1285:1 1293:1 1297:1 1302:1 1312:1 1349:1 1364:1 1392:1 1455:1 1499:1 1503:1 1522:1 1554:1 1561:1 1574:1 1576:1 1577:1 1588:1 1606:1 1608:1 1638:1 1645:1 1668:1 1709:1 1730:1 1753:1 1790:1 1796:1 1826:1 1839:1 1855:1 1864:1 1888:1 1910:1 1974:1 1979:1 1983:1 1992:1 2001:1 2005:1 2020:1 2037:1 2040:1 2057:1 2063:1 2101:1 2126:1 2129:1 2165:1 2189:1 2205:1 2211:1 2256:1 2263:1 2267:1 2290:1 2317:1 2375:1 2379:1 2405:1 2454:1 2456:1 2465:1 2488:1 2514:1 2534:1 2642:1 2658:1 2661:1 2678:1 2712:1 2714:1 2737:1 2742:1 2754:1 2782:1 2820:1 2868:1 2881:1 2885:1 2908:1 2912:1 2929:1 2940:1 2941:1 2945:1 2946:1 2950:1 3000:1 3043:1 3081:1 3082:1 3129:1 3202:1 3205:1 3248:1 3249:1 3253:1 3263:1 3285:1 3288:1 3328:1 3332:1 3337:1 3359:1 3404:1 3412:1 3423:1 3426:1 3436:1 3443:1 3449:1 3462:1 3463:1 3468:1 3479:1 3486:1 3491:1 3498:1 3512:1 3523:1 3525:1 3571:1 3600:1 3629:1 3657:1 3669:1 3731:1 3745:1 3796:1 3802:1 3804:1 3813:1 3823:1 3834:1 3837:1 3898:1 3903:1 3928:1 4002:1 4020:1 4047:1 4058:1 4071:1 4075:1 4080:1 4101:1 4105:1 4129:1 4148:1 4170:1 4182:1 4184:1 4216:1 4252:1 4284:1 4302:1 4314:1 4330:1 4331:1 4366:1 4372:1 4399:1 4400:1 4422:1 4461:1 4510:1 4517:1 4525:1 4549:1 4579:1 4608:1 4609:1 4616:1 4618:1 4662:1 4717:1 4726:1 4731:1 4734:1 4738:1 4746:1 4752:1 4769:1 4792:1 4828:1 4840:1 4853:1 4865:1 4866:1 4901:1 4906:1 4930:1 4950:1 4957:1 5000:1 5019:1 5059:1 5060:1 5084:1 5109:1 5155:1 5206:1 5214:1 5227:1 5310:1 5314:1 5318:1 5366:1 5391:1 5400:1 5415:1 5419:1 5429:1 5462:1 5473:1 5479:1 5506:1 5539:1 5541:1 5560:1 5566:1 5586:1 5622:1 5675:1 5686:1 5697:1 5708:1 5721:1 5724:1 5751:1 5774:1 5788:1 5801:1 5844:1 5883:1 5897:1 5906:1 5908:1 5910:1 5956:1 6029:1 6070:1 6137:1 6145:1 6148:1 6174:1 6181:1 6184:1 6228:1 6229:1 6245:1 6248:1 6262:1 6265:1 6299:1 6300:1 6322:1 6325:1 6345:1 6361:1 6389:1 6395:1 6407:1 6429:1 6439:1 6480:1 6499:1 6519:1 6535:1 6592:1 6594:1 6597:1 6602:1 6622:1 6639:1 6646:1 6673:1 6730:1 6784:1 6816:1 6870:1 6908:1 6926:1 6953:1 6980:1 6990:1 6991:1 7002:1 7018:1 7022:1 7034:1 7051:1 7066:1 7067:1 7078:1 7083:1 7087:1 7100:1 7112:1 7128:1 7150:1 7154:1 7175:1 7189:1 7246:1 7252:1 7265:1 7270:1 7272:1 7286:1 7340:1 7374:1 7384:1 7391:1 7411:1 7465:1 7475:1 7479:1 7511:1 7550:1 7585:1 7598:1 7600:1 7630:1 7635:1 7786:1 7790:1 7794:1 7840:1 7879:1 7881:1 7898:1 7900:1 7901:1 7905:1 7916:1 7925:1 7959:1 7999:1 8014:1 8017:1 8042:1 8091:1 8112:1 8114:1 8163:1 8198:1 8229:1 8288:1 8316:1 8345:1 8365:1 8419:1 8422:1 8437:1 8457:1 8476:1 8493:1 8518:1 8521:1 8551:1 8574:1 8590:1 8612:1 8619:1 8677:1 8684:1 8690:1 8721:1 8726:1 8748:1 8766:1 8777:1 8783:1 8798:1 8801:1 8802:1 8808:1 8813:1 8815:1 8845:1 8877:1 8892:1 8929:1 8936:1 8940:1 8950:1 8986:1 9069:1 9076:1 9146:1 9160:1 9186:1 9224:1 9233:1 9247:1 9250:1 9255:1 9280:1 9286:1 9287:1 9303:1 9360:1 9366:1 9386:1 9392:1 9420:1 9445:1 9452:1 9460:1 9488:1 9492:1 9504:1 9505:1 9538:1 9545:1 9547:1 9558:1 9561:1 9578:1 9585:1 9619:1 9660:1 9681:1 9690:1 9695:1 9712:1 9743:1 9781:1 9812:1 9833:1 9851:1 9883:1 9884:1 9892:1 9901:1 9915:1 9923:1 9938:1 9939:1 9944:1 9986:1 10001:1 10010:1 10050:1 10054:1 10069:1 10089:1 10171:1 10174:1 10195:1 10205:1 10230:1 10298:1 10304:1 10334:1 10340:1 10344:1 10347:1 10348:1 10357:1 10361:1 10368:1 10379:1 10456:1 10521:1 10546:1 10597:1 10644:1 10667:1 10703:1 10724:1 10742:1 10781:1 10812:1 10901:1 10909:1 10913:1 10960:1 10994:1 11027:1 11048:1 11083:1 #
0.0013509314294022972333109144926766 1:1 47:1 50:1 62:1 64:1 69:1 74:1 88:1 107:1 110:1 167:1 178:1 189:1 202:1 215:1 237:1 243:1 253:1 259:1 265:1 271:1 288:1 291:1 315:1 325:1 362:1 409:1 427:1 434:1 440:1 502:1 507:1 526:1 547:1 593:1 596:1 601:1 616:1 625:1 640:1 650:1 654:1 660:1 673:1 675:1 708:1 739:1 743:1 765:1 777:1 778:1 787:1 801:1 816:1 878:1 908:1 913:1 930:1 932:1 941:1 974:1 981:1 1000:1 1053:1 1120:1 1122:1 1127:1 1129:1 1140:1 1177:1 1182:1 1240:1 1270:1 1283:1 1285:1 1290:1 1302:1 1304:1 1309:1 1330:1 1392:1 1467:1 1499:1 1501:1 1503:1 1539:1 1545:1 1554:1 1561:1 1562:1 1574:1 1576:1 1577:1 1588:1 1638:1 1642:1 1685:1 1691:1 1730:1 1760:1 1792:1 1824:1 1826:1 1832:1 1876:1 1884:1 1910:1 1937:1 1960:1 1974:1 1979:1 1983:1 1990:1 2012:1 2020:1 2033:1 2051:1 2082:1 2101:1 2129:1 2211:1 2263:1 2292:1 2303:1 2326:1 2394:1 2420:1 2457:1 2463:1 2517:1 2528:1 2534:1 2607:1 2628:1 2643:1 2645:1 2658:1 2661:1 2682:1 2694:1 2714:1 2725:1 2780:1 2782:1 2808:1 2817:1 2853:1 2861:1 2862:1 2868:1 2869:1 2898:1 2912:1 2923:1 2924:1 2929:1 2938:1 2941:1 2945:1 2946:1 2948:1 2970:1 3028:1 3036:1 3057:1 3081:1 3109:1 3209:1 3216:1 3248:1 3253:1 3278:1 3285:1 3324:1 3332:1 3333:1 3364:1 3390:1 3423:1 3424:1 3468:1 3479:1 3488:1 3491:1 3523:1 3526:1 3533:1 3570:1 3572:1 3596:1 3600:1 3604:1 3639:1 3641:1 3645:1 3650:1 3669:1 3680:1 3705:1 3727:1 3779:1 3804:1 3811:1 3823:1 3836:1 3875:1 3927:1 3945:1 3985:1 4042:1 4051:1 4071:1 4074:1 4080:1 4083:1 4131:1 4137:1 4165:1 4166:1 4178:1 4186:1 4209:1 4225:1 4275:1 4309:1 4318:1 4372:1 4390:1 4411:1 4434:1 4476:1 4486:1 4487:1 4493:1 4525:1 4604:1 4609:1 4616:1 4618:1 4626:1 4667:1 4670:1 4672:1 4742:1 4752:1 4767:1 4866:1 4876:1 4895:1 4901:1 4904:1 4906:1 4919:1 4939:1 4944:1 4948:1 4961:1 4978:1 5010:1 5019:1 5040:1 5086:1 5109:1 5115:1 5159:1 5226:1 5227:1 5258:1 5273:1 5281:1 5318:1 5366:1 5393:1 5401:1 5415:1 5432:1 5457:1 5462:1 5490:1 5507:1 5508:1 5510:1 5535:1 5560:1 5576:1 5577:1 5657:1 5675:1 5697:1 5760:1 5761:1 5764:1 5788:1 5809:1 5872:1 5877:1 5888:1 5894:1 5897:1 5908:1 6026:1 6035:1 6070:1 6076:1 6103:1 6132:1 6174:1 6198:1 6206:1 6248:1 6262:1 6281:1 6322:1 6326:1 6345:1 6395:1 6446:1 6455:1 6480:1 6509:1 6640:1 6649:1 6695:1 6731:1 6750:1 6775:1 6788:1 6799:1 6861:1 6894:1 6921:1 6926:1 6941:1 6991:1 7034:1 7078:1 7083:1 7100:1 7105:1 7110:1 7112:1 7142:1 7154:1 7234:1 7246:1 7251:1 7271:1 7306:1 7311:1 7391:1 7406:1 7411:1 7466:1 7475:1 7480:1 7491:1 7546:1 7566:1 7589:1 7593:1 7600:1 7601:1 7632:1 7673:1 7682:1 7699:1 7707:1 7742:1 7757:1 7794:1 7812:1 7816:1 7820:1 7866:1 7873:1 7881:1 7895:1 7899:1 7916:1 7935:1 7999:1 8014:1 8054:1 8091:1 8129:1 8150:1 8165:1 8196:1 8289:1 8292:1 8318:1 8327:1 8345:1 8382:1 8419:1 8422:1 8447:1 8456:1 8521:1 8564:1 8603:1 8627:1 8644:1 8659:1 8675:1 8684:1 8704:1 8748:1 8753:1 8756:1 8775:1 8801:1 8802:1 8813:1 8857:1 8875:1 8921:1 8936:1 8950:1 8973:1 9009:1 9035:1 9125:1 9129:1 9130:1 9155:1 9170:1 9183:1 9186:1 9210:1 9247:1 9276:1 9386:1 9403:1 9410:1 9426:1 9451:1 9452:1 9488:1 9492:1 9505:1 9545:1 9550:1 9578:1 9594:1 9603:1 9662:1 9666:1 9668:1 9690:1 9706:1 9711:1 9719:1 9743:1 9771:1 9775:1 9778:1 9781:1 9789:1 9805:1 9810:1 9870:1 9923:1 9938:1 9986:1 10010:1 10050:1 10089:1 10117:1 10121:1 10193:1 10214:1 10228:1 10229:1 10230:1 10340:1 10347:1 10379:1 10432:1 10456:1 10496:1 10512:1 10523:1 10533:1 10543:1 10568:1 10580:1 10655:1 10703:1 10724:1 10728:1 10730:1 10742:1 10761:1 10780:1 10787:1 10812:1 10878:1 10892:1 10951:1 10958:1 10960:1 10996:1 11048:1 11063:1 11083:1 11087:1 11098:1 #
0.0033386058045510244585152292984276 1:1 13:1 50:1 58:1 62:1 64:1 69:1 74:1 107:1 110:1 123:1 178:1 189:1 196:1 202:1 253:1 259:1 261:1 266:1 275:1 288:1 291:1 324:1 328:1 337:1 414:1 417:1 421:1 434:1 440:1 445:1 467:1 478:1 562:1 589:1 600:1 610:1 625:1 644:1 654:1 674:1 769:1 778:1 780:1 834:1 841:1 843:1 872:1 873:1 904:1 941:1 970:1 1003:1 1040:1 1051:1 1082:1 1122:1 1127:1 1139:1 1141:1 1182:1 1203:1 1237:1 1240:1 1255:1 1270:1 1272:1 1283:1 1285:1 1302:1 1309:1 1352:1 1355:1 1366:1 1367:1 1375:1 1392:1 1487:1 1545:1 1553:1 1561:1 1574:1 1576:1 1577:1 1588:1 1603:1 1638:1 1645:1 1655:1 1727:1 1730:1 1753:1 1779:1 1792:1 1819:1 1829:1 1832:1 1851:1 1873:1 1885:1 1888:1 1890:1 1894:1 1910:1 1930:1 1974:1 1979:1 1990:1 1995:1 2001:1 2005:1 2030:1 2031:1 2033:1 2100:1 2101:1 2126:1 2129:1 2146:1 2175:1 2184:1 2189:1 2192:1 2211:1 2225:1 2274:1 2275:1 2357:1 2394:1 2427:1 2437:1 2462:1 2492:1 2544:1 2561:1 2567:1 2590:1 2645:1 2658:1 2661:1 2683:1 2723:1 2777:1 2782:1 2792:1 2902:1 2912:1 2923:1 2929:1 2937:1 2940:1 2941:1 2945:1 2946:1 2972:1 3001:1 3006:1 3081:1 3092:1 3126:1 3200:1 3203:1 3206:1 3209:1 3248:1 3253:1 3285:1 3306:1 3324:1 3332:1 3376:1 3404:1 3406:1 3423:1 3434:1 3462:1 3463:1 3466:1 3468:1 3482:1 3486:1 3491:1 3521:1 3558:1 3572:1 3650:1 3665:1 3669:1 3720:1 3727:1 3731:1 3742:1 3765:1 3779:1 3826:1 3839:1 3841:1 3842:1 3881:1 3909:1 3985:1 4003:1 4004:1 4051:1 4056:1 4059:1 4080:1 4124:1 4158:1 4186:1 4208:1 4212:1 4303:1 4356:1 4357:1 4372:1 4381:1 4422:1 4434:1 4486:1 4487:1 4488:1 4525:1 4549:1 4594:1 4609:1 4616:1 4617:1 4618:1 4653:1 4707:1 4734:1 4742:1 4752:1 4758:1 4769:1 4775:1 4838:1 4866:1 4906:1 4938:1 4961:1 4966:1 4978:1 5039:1 5050:1 5092:1 5106:1 5109:1 5171:1 5184:1 5185:1 5192:1 5226:1 5254:1 5273:1 5281:1 5318:1 5351:1 5366:1 5369:1 5405:1 5415:1 5426:1 5457:1 5462:1 5482:1 5510:1 5560:1 5648:1 5675:1 5769:1 5788:1 5819:1 5869:1 5897:1 5903:1 5906:1 5936:1 5947:1 5983:1 6023:1 6050:1 6121:1 6160:1 6164:1 6190:1 6214:1 6222:1 6245:1 6262:1 6265:1 6278:1 6280:1 6289:1 6320:1 6322:1 6332:1 6383:1 6398:1 6420:1 6448:1 6480:1 6499:1 6513:1 6515:1 6523:1 6533:1 6559:1 6613:1 6640:1 6641:1 6646:1 6678:1 6695:1 6763:1 6806:1 6861:1 6910:1 6923:1 6931:1 6941:1 6990:1 7002:1 7034:1 7078:1 7080:1 7083:1 7100:1 7105:1 7112:1 7154:1 7173:1 7186:1 7188:1 7246:1 7286:1 7306:1 7310:1 7327:1 7366:1 7443:1 7454:1 7475:1 7491:1 7523:1 7537:1 7538:1 7545:1 7550:1 7555:1 7579:1 7598:1 7616:1 7632:1 7671:1 7693:1 7724:1 7744:1 7763:1 7770:1 7786:1 7794:1 7836:1 7867:1 7885:1 7893:1 7916:1 7988:1 7999:1 8014:1 8019:1 8083:1 8108:1 8129:1 8165:1 8174:1 8254:1 8270:1 8286:1 8289:1 8345:1 8350:1 8422:1 8449:1 8463:1 8492:1 8624:1 8684:1 8690:1 8716:1 8748:1 8777:1 8790:1 8796:1 8801:1 8802:1 8808:1 8813:1 8820:1 8831:1 8841:1 8846:1 8907:1 8913:1 8923:1 8936:1 8947:1 8950:1 8968:1 9043:1 9045:1 9067:1 9129:1 9155:1 9186:1 9241:1 9264:1 9285:1 9328:1 9384:1 9392:1 9403:1 9414:1 9452:1 9460:1 9505:1 9594:1 9626:1 9660:1 9668:1 9743:1 9775:1 9781:1 9805:1 9831:1 9840:1 9853:1 9915:1 9923:1 9931:1 9938:1 10001:1 10010:1 10033:1 10042:1 10089:1 10127:1 10161:1 10191:1 10193:1 10196:1 10244:1 10250:1 10271:1 10286:1 10334:1 10340:1 10357:1 10379:1 10393:1 10403:1 10426:1 10442:1 10493:1 10496:1 10511:1 10542:1 10563:1 10568:1 10583:1 10587:1 10640:1 10703:1 10724:1 10742:1 10761:1 10767:1 10771:1 10804:1 10808:1 10826:1 10834:1 10878:1 10901:1 10985:1 10994:1 11048:1 11063:1 11083:1 11098:1 #
-0.0024697705104429865281823186506927 12:1 20:1 47:1 58:1 62:1 64:1 69:1 74:1 75:1 107:1 123:1 144:1 178:1 202:1 253:1 257:1 259:1 262:1 267:1 291:1 315:1 344:1 387:1 440:1 475:1 487:1 534:1 552:1 570:1 580:1 625:1 650:1 654:1 753:1 778:1 789:1 897:1 904:1 932:1 938:1 941:1 942:1 953:1 1017:1 1049:1 1058:1 1088:1 1127:1 1134:1 1174:1 1203:1 1234:1 1240:1 1262:1 1263:1 1268:1 1374:1 1377:1 1389:1 1392:1 1408:1 1466:1 1496:1 1501:1 1551:1 1554:1 1561:1 1577:1 1582:1 1621:1 1638:1 1730:1 1792:1 1829:1 1871:1 1906:1 1910:1 1936:1 1974:1 1979:1 1995:1 2006:1 2085:1 2129:1 2160:1 2227:1 2239:1 2258:1 2317:1 2387:1 2449:1 2458:1 2465:1 2534:1 2605:1 2625:1 2682:1 2685:1 2714:1 2725:1 2726:1 2749:1 2820:1 2842:1 2846:1 2868:1 2871:1 2929:1 2941:1 2945:1 2946:1 2998:1 3081:1 3115:1 3172:1 3206:1 3226:1 3248:1 3263:1 3285:1 3288:1 3445:1 3449:1 3464:1 3468:1 3490:1 3498:1 3617:1 3680:1 3702:1 3807:1 3823:1 3964:1 4025:1 4071:1 4087:1 4101:1 4212:1 4247:1 4262:1 4309:1 4447:1 4470:1 4507:1 4525:1 4545:1 4549:1 4573:1 4576:1 4589:1 4602:1 4607:1 4609:1 4616:1 4617:1 4650:1 4700:1 4706:1 4726:1 4734:1 4746:1 4752:1 4783:1 4821:1 4858:1 4958:1 5041:1 5128:1 5129:1 5227:1 5228:1 5245:1 5254:1 5315:1 5318:1 5324:1 5351:1 5353:1 5366:1 5410:1 5415:1 5457:1 5462:1 5596:1 5624:1 5657:1 5675:1 5700:1 5788:1 5821:1 5860:1 5862:1 5910:1 5956:1 5966:1 6070:1 6150:1 6159:1 6164:1 6170:1 6177:1 6222:1 6264:1 6322:1 6345:1 6365:1 6378:1 6385:1 6405:1 6519:1 6529:1 6530:1 6556:1 6596:1 6597:1 6627:1 6646:1 6652:1 6687:1 6731:1 6733:1 6784:1 6880:1 6930:1 6957:1 6981:1 6991:1 6994:1 7002:1 7034:1 7059:1 7078:1 7079:1 7083:1 7085:1 7100:1 7112:1 7173:1 7206:1 7209:1 7234:1 7246:1 7306:1 7331:1 7421:1 7475:1 7506:1 7512:1 7575:1 7635:1 7653:1 7679:1 7752:1 7786:1 7788:1 7794:1 7795:1 7820:1 7855:1 7869:1 7880:1 7898:1 7900:1 7905:1 7916:1 8017:1 8048:1 8062:1 8080:1 8125:1 8165:1 8179:1 8229:1 8345:1 8350:1 8419:1 8422:1 8425:1 8435:1 8437:1 8452:1 8460:1 8537:1 8554:1 8644:1 8654:1 8667:1 8684:1 8703:1 8716:1 8748:1 8783:1 8801:1 8808:1 8820:1 8892:1 8907:1 8936:1 8950:1 8976:1 9057:1 9061:1 9067:1 9090:1 9132:1 9186:1 9217:1 9219:1 9285:1 9294:1 9328:1 9329:1 9342:1 9350:1 9422:1 9437:1 9452:1 9460:1 9464:1 9488:1 9492:1 9504:1 9545:1 9554:1 9561:1 9600:1 9690:1 9703:1 9743:1 9748:1 9781:1 9840:1 9879:1 9923:1 9938:1 9944:1 9951:1 9986:1 10001:1 10010:1 10090:1 10106:1 10174:1 10193:1 10214:1 10218:1 10264:1 10266:1 10271:1 10300:1 10305:1 10318:1 10334:1 10340:1 10379:1 10496:1 10511:1 10538:1 10542:1 10548:1 10600:1 10621:1 10667:1 10724:1 10735:1 10742:1 10743:1 10761:1 10812:1 10878:1 10890:1 10907:1 10918:1 10951:1 10960:1 10993:1 10994:1 11048:1 11083:1 #
-0.0016315624095543019601850520672315 1:1 47:1 55:1 58:1 60:1 62:1 64:1 66:1 69:1 70:1 74:1 82:1 88:1 90:1 95:1 102:1 107:1 123:1 132:1 172:1 175:1 178:1 202:1 204:1 209:1 212:1 215:1 219:1 230:1 234:1 237:1 241:1 243:1 245:1 253:1 256:1 259:1 262:1 266:1 288:1 308:1 315:1 328:1 347:1 358:1 361:1 362:1 369:1 374:1 412:1 427:1 440:1 467:1 490:1 493:1 504:1 530:1 550:1 567:1 585:1 589:1 597:1 616:1 617:1 625:1 634:1 644:1 654:1 669:1 671:1 708:1 736:1 753:1 777:1 778:1 786:1 796:1 801:1 816:1 817:1 834:1 843:1 851:1 885:1 925:1 930:1 941:1 942:1 974:1 981:1 1000:1 1028:1 1037:1 1049:1 1065:1 1072:1 1116:1 1127:1 1141:1 1157:1 1182:1 1203:1 1240:1 1258:1 1285:1 1301:1 1302:1 1304:1 1308:1 1309:1 1334:1 1352:1 1381:1 1392:1 1411:1 1413:1 1461:1 1499:1 1503:1 1522:1 1561:1 1562:1 1574:1 1577:1 1588:1 1686:1 1696:1 1710:1 1730:1 1763:1 1792:1 1802:1 1819:1 1833:1 1868:1 1878:1 1896:1 1908:1 1910:1 1937:1 1960:1 1964:1 1974:1 1979:1 1980:1 1990:1 2005:1 2020:1 2029:1 2034:1 2051:1 2069:1 2075:1 2082:1 2094:1 2101:1 2122:1 2129:1 2156:1 2159:1 2175:1 2179:1 2189:1 2197:1 2204:1 2206:1 2227:1 2235:1 2238:1 2255:1 2263:1 2275:1 2308:1 2312:1 2317:1 2322:1 2349:1 2360:1 2394:1 2414:1 2433:1 2444:1 2465:1 2491:1 2492:1 2522:1 2523:1 2524:1 2534:1 2544:1 2561:1 2574:1 2594:1 2630:1 2640:1 2648:1 2658:1 2661:1 2665:1 2668:1 2682:1 2714:1 2715:1 2720:1 2769:1 2780:1 2781:1 2796:1 2797:1 2819:1 2842:1 2853:1 2869:1 2885:1 2904:1 2912:1 2929:1 2934:1 2941:1 2945:1 2946:1 2955:1 2972:1 3081:1 3084:1 3109:1 3127:1 3184:1 3200:1 3206:1 3207:1 3209:1 3222:1 3248:1 3253:1 3257:1 3262:1 3263:1 3285:1 3317:1 3324:1 3332:1 3348:1 3384:1 3392:1 3406:1 3423:1 3455:1 3463:1 3479:1 3491:1 3521:1 3526:1 3527:1 3529:1 3537:1 3558:1 3570:1 3586:1 3590:1 3611:1 3639:1 3669:1 3673:1 3689:1 3699:1 3716:1 3727:1 3731:1 3742:1 3765:1 3766:1 3773:1 3804:1 3811:1 3834:1 3836:1 3881:1 3905:1 3951:1 4004:1 4014:1 4029:1 4036:1 4040:1 4048:1 4056:1 4071:1 4074:1 4080:1 4091:1 4101:1 4169:1 4197:1 4202:1 4215:1 4231:1 4261:1 4263:1 4330:1 4331:1 4372:1 4420:1 4425:1 4434:1 4461:1 4468:1 4486:1 4487:1 4488:1 4492:1 4525:1 4529:1 4599:1 4609:1 4613:1 4616:1 4617:1 4618:1 4670:1 4672:1 4734:1 4752:1 4769:1 4772:1 4775:1 4785:1 4830:1 4837:1 4856:1 4866:1 4890:1 4916:1 4930:1 4938:1 4944:1 4945:1 4948:1 4956:1 4966:1 5006:1 5051:1 5054:1 5077:1 5094:1 5097:1 5119:1 5193:1 5226:1 5227:1 5260:1 5273:1 5283:1 5303:1 5307:1 5339:1 5345:1 5366:1 5369:1 5379:1 5383:1 5397:1 5402:1 5410:1 5415:1 5462:1 5474:1 5484:1 5493:1 5508:1 5510:1 5552:1 5558:1 5560:1 5589:1 5602:1 5645:1 5648:1 5649:1 5674:1 5675:1 5700:1 5715:1 5761:1 5788:1 5799:1 5897:1 5928:1 5936:1 5947:1 5961:1 5990:1 6011:1 6108:1 6117:1 6118:1 6132:1 6169:1 6174:1 6245:1 6252:1 6265:1 6290:1 6296:1 6322:1 6323:1 6332:1 6345:1 6347:1 6385:1 6399:1 6403:1 6404:1 6430:1 6442:1 6495:1 6504:1 6513:1 6529:1 6535:1 6537:1 6576:1 6592:1 6594:1 6597:1 6613:1 6640:1 6646:1 6694:1 6695:1 6730:1 6750:1 6758:1 6781:1 6815:1 6816:1 6835:1 6860:1 6870:1 6898:1 6902:1 6921:1 6974:1 7007:1 7018:1 7022:1 7024:1 7034:1 7045:1 7078:1 7079:1 7083:1 7092:1 7100:1 7105:1 7112:1 7149:1 7162:1 7173:1 7180:1 7189:1 7198:1 7234:1 7246:1 7261:1 7286:1 7297:1 7324:1 7327:1 7358:1 7377:1 7391:1 7392:1 7430:1 7435:1 7441:1 7472:1 7475:1 7506:1 7521:1 7524:1 7530:1 7550:1 7602:1 7614:1 7619:1 7626:1 7635:1 7654:1 7661:1 7673:1 7679:1 7683:1 7707:1 7713:1 7721:1 7741:1 7794:1 7835:1 7839:1 7850:1 7852:1 7876:1 7895:1 7914:1 7916:1 7982:1 7983:1 8003:1 8014:1 8037:1 8042:1 8064:1 8078:1 8079:1 8084:1 8091:1 8105:1 8132:1 8152:1 8194:1 8236:1 8264:1 8300:1 8312:1 8337:1 8345:1 8347:1 8386:1 8395:1 8397:1 8422:1 8447:1 8457:1 8475:1 8484:1 8492:1 8508:1 8512:1 8521:1 8552:1 8554:1 8588:1 8603:1 8624:1 8627:1 8637:1 8670:1 8684:1 8702:1 8716:1 8743:1 8748:1 8754:1 8776:1 8783:1 8798:1 8801:1 8804:1 8808:1 8813:1 8815:1 8828:1 8846:1 8859:1 8874:1 8876:1 8888:1 8892:1 8893:1 8923:1 8929:1 8934:1 8936:1 8950:1 8971:1 8976:1 8989:1 9046:1 9061:1 9076:1 9091:1 9093:1 9125:1 9127:1 9144:1 9149:1 9155:1 9170:1 9172:1 9181:1 9186:1 9202:1 9211:1 9233:1 9235:1 9252:1 9263:1 9266:1 9285:1 9309:1 9319:1 9328:1 9385:1 9386:1 9401:1 9410:1 9426:1 9440:1 9447:1 9452:1 9487:1 9488:1 9492:1 9505:1 9577:1 9578:1 9581:1 9588:1 9600:1 9619:1 9659:1 9661:1 9690:1 9699:1 9706:1 9743:1 9747:1 9775:1 9781:1 9802:1 9805:1 9813:1 9830:1 9884:1 9901:1 9908:1 9915:1 9923:1 9938:1 9941:1 9944:1 9947:1 9969:1 9986:1 10010:1 10012:1 10042:1 10050:1 10088:1 10089:1 10108:1 10135:1 10174:1 10188:1 10212:1 10228:1 10240:1 10250:1 10261:1 10299:1 10334:1 10340:1 10381:1 10383:1 10452:1 10456:1 10478:1 10496:1 10504:1 10514:1 10521:1 10547:1 10568:1 10640:1 10681:1 10700:1 10703:1 10724:1 10740:1 10742:1 10755:1 10761:1 10775:1 10787:1 10812:1 10866:1 10908:1 10918:1 10930:1 10940:1 10951:1 10994:1 11006:1 11011:1 11013:1 11023:1 11042:1 11046:1 11048:1 11055:1 11073:1 11075:1 11083:1 #
-0.0014792663755563988277341724852931 1:1 12:1 32:1 58:1 62:1 64:1 69:1 74:1 107:1 110:1 178:1 253:1 259:1 315:1 340:1 456:1 589:1 625:1 641:1 654:1 708:1 778:1 798:1 801:1 817:1 834:1 858:1 905:1 920:1 922:1 974:1 1049:1 1198:1 1207:1 1240:1 1304:1 1392:1 1464:1 1466:1 1577:1 1588:1 1730:1 1818:1 1891:1 1910:1 1974:1 1979:1 2379:1 2661:1 2701:1 2775:1 2785:1 2835:1 2918:1 2941:1 2945:1 2946:1 3012:1 3060:1 3185:1 3263:1 3317:1 3320:1 3627:1 3650:1 3698:1 3745:1 3761:1 3791:1 3869:1 3935:1 3971:1 4007:1 4101:1 4131:1 4169:1 4285:1 4366:1 4471:1 4487:1 4591:1 4609:1 4616:1 4617:1 4618:1 4734:1 4754:1 4866:1 4901:1 4937:1 4950:1 4978:1 4983:1 5054:1 5366:1 5407:1 5410:1 5613:1 5675:1 5715:1 5800:1 5851:1 5897:1 5910:1 5956:1 5958:1 6076:1 6113:1 6262:1 6266:1 6345:1 6400:1 6579:1 6627:1 6717:1 6739:1 6803:1 6898:1 6923:1 6984:1 6990:1 7018:1 7034:1 7078:1 7083:1 7105:1 7184:1 7223:1 7286:1 7411:1 7475:1 7581:1 7680:1 7809:1 7954:1 7999:1 8014:1 8105:1 8233:1 8345:1 8400:1 8422:1 8684:1 8728:1 8743:1 8748:1 8801:1 8892:1 9014:1 9155:1 9287:1 9452:1 9505:1 9516:1 9644:1 9660:1 9729:1 9743:1 9780:1 9805:1 9923:1 9938:1 10001:1 10010:1 10050:1 10091:1 10193:1 10334:1 10340:1 10441:1 10547:1 10571:1 10601:1 10722:1 10724:1 10897:1 10994:1 11048:1 #
-0.0014490720650725394044733285170423 1:1 18:1 47:1 56:1 62:1 63:1 64:1 69:1 70:1 74:1 86:1 88:1 90:1 107:1 123:1 138:1 169:1 178:1 202:1 243:1 253:1 259:1 261:1 262:1 288:1 291:1 315:1 328:1 358:1 381:1 382:1 423:1 427:1 431:1 434:1 440:1 466:1 467:1 469:1 500:1 585:1 592:1 616:1 625:1 632:1 640:1 644:1 654:1 696:1 708:1 725:1 769:1 776:1 778:1 816:1 885:1 910:1 931:1 932:1 938:1 941:1 944:1 974:1 980:1 985:1 1000:1 1011:1 1029:1 1053:1 1073:1 1084:1 1089:1 1127:1 1141:1 1197:1 1198:1 1206:1 1240:1 1262:1 1265:1 1270:1 1285:1 1301:1 1304:1 1352:1 1369:1 1392:1 1446:1 1462:1 1499:1 1503:1 1509:1 1561:1 1562:1 1574:1 1577:1 1578:1 1588:1 1638:1 1677:1 1685:1 1710:1 1730:1 1753:1 1783:1 1792:1 1819:1 1826:1 1832:1 1884:1 1890:1 1910:1 1960:1 1974:1 1979:1 1990:1 2005:1 2006:1 2012:1 2020:1 2033:1 2051:1 2054:1 2076:1 2082:1 2101:1 2106:1 2114:1 2126:1 2129:1 2179:1 2189:1 2194:1 2211:1 2275:1 2303:1 2317:1 2379:1 2425:1 2454:1 2465:1 2515:1 2523:1 2527:1 2550:1 2575:1 2590:1 2599:1 2658:1 2661:1 2682:1 2684:1 2700:1 2714:1 2726:1 2764:1 2782:1 2791:1 2827:1 2842:1 2868:1 2908:1 2912:1 2929:1 2941:1 2945:1 2946:1 3009:1 3081:1 3086:1 3140:1 3193:1 3200:1 3203:1 3216:1 3248:1 3253:1 3278:1 3285:1 3309:1 3318:1 3332:1 3346:1 3400:1 3404:1 3419:1 3423:1 3452:1 3463:1 3479:1 3491:1 3510:1 3524:1 3526:1 3537:1 3590:1 3596:1 3650:1 3705:1 3739:1 3782:1 3793:1 3799:1 3801:1 3804:1 3823:1 3834:1 3851:1 3881:1 3890:1 3908:1 3917:1 3927:1 3991:1 4036:1 4075:1 4101:1 4157:1 4213:1 4366:1 4384:1 4434:1 4447:1 4472:1 4486:1 4487:1 4493:1 4496:1 4525:1 4549:1 4554:1 4573:1 4584:1 4594:1 4609:1 4616:1 4617:1 4618:1 4661:1 4670:1 4681:1 4691:1 4695:1 4726:1 4742:1 4746:1 4752:1 4769:1 4824:1 4858:1 4866:1 4930:1 4939:1 4944:1 5043:1 5050:1 5076:1 5109:1 5185:1 5192:1 5223:1 5226:1 5227:1 5273:1 5284:1 5314:1 5318:1 5366:1 5374:1 5410:1 5415:1 5426:1 5462:1 5471:1 5510:1 5518:1 5602:1 5614:1 5617:1 5631:1 5645:1 5675:1 5677:1 5684:1 5700:1 5715:1 5786:1 5788:1 5803:1 5809:1 5861:1 5869:1 5897:1 5910:1 5921:1 6001:1 6012:1 6042:1 6068:1 6070:1 6098:1 6112:1 6132:1 6182:1 6198:1 6202:1 6214:1 6222:1 6241:1 6265:1 6284:1 6285:1 6300:1 6311:1 6322:1 6332:1 6345:1 6360:1 6395:1 6399:1 6431:1 6470:1 6480:1 6526:1 6592:1 6596:1 6623:1 6631:1 6636:1 6688:1 6695:1 6750:1 6775:1 6788:1 6850:1 6861:1 6902:1 6921:1 6968:1 6973:1 6982:1 6990:1 7004:1 7017:1 7034:1 7078:1 7083:1 7087:1 7100:1 7105:1 7112:1 7128:1 7137:1 7139:1 7180:1 7183:1 7234:1 7246:1 7286:1 7288:1 7304:1 7306:1 7391:1 7411:1 7453:1 7463:1 7466:1 7471:1 7475:1 7506:1 7538:1 7550:1 7553:1 7566:1 7575:1 7635:1 7651:1 7677:1 7687:1 7707:1 7744:1 7777:1 7794:1 7807:1 7808:1 7816:1 7836:1 7862:1 7866:1 7885:1 7893:1 7900:1 7904:1 7916:1 7973:1 8002:1 8014:1 8042:1 8055:1 8084:1 8105:1 8113:1 8160:1 8163:1 8165:1 8179:1 8229:1 8258:1 8265:1 8270:1 8271:1 8289:1 8345:1 8357:1 8358:1 8389:1 8391:1 8422:1 8441:1 8457:1 8470:1 8492:1 8521:1 8654:1 8684:1 8739:1 8748:1 8754:1 8756:1 8798:1 8800:1 8801:1 8808:1 8831:1 8859:1 8892:1 8894:1 8897:1 8909:1 8923:1 8924:1 8936:1 8950:1 8982:1 8990:1 8994:1 9014:1 9032:1 9053:1 9129:1 9160:1 9164:1 9186:1 9210:1 9233:1 9271:1 9294:1 9309:1 9322:1 9328:1 9332:1 9429:1 9452:1 9460:1 9488:1 9492:1 9505:1 9545:1 9578:1 9600:1 9608:1 9652:1 9659:1 9670:1 9706:1 9719:1 9743:1 9747:1 9773:1 9781:1 9814:1 9843:1 9901:1 9915:1 9923:1 9952:1 9968:1 10001:1 10010:1 10033:1 10050:1 10161:1 10193:1 10228:1 10334:1 10340:1 10347:1 10379:1 10386:1 10434:1 10440:1 10456:1 10490:1 10496:1 10512:1 10518:1 10528:1 10547:1 10573:1 10696:1 10703:1 10724:1 10742:1 10761:1 10772:1 10787:1 10812:1 10834:1 10878:1 10897:1 10901:1 10919:1 10958:1 10994:1 11048:1 11083:1 11085:1 #
0.0012847875075556673251514494538128 1:1 20:1 47:1 52:1 59:1 62:1 64:1 69:1 74:1 107:1 110:1 123:1 174:1 178:1 202:1 237:1 243:1 253:1 259:1 262:1 291:1 315:1 348:1 362:1 370:1 403:1 422:1 427:1 434:1 440:1 445:1 479:1 516:1 544:1 617:1 624:1 654:1 673:1 698:1 708:1 778:1 801:1 834:1 909:1 940:1 941:1 942:1 960:1 965:1 974:1 1000:1 1016:1 1029:1 1042:1 1106:1 1157:1 1159:1 1185:1 1203:1 1240:1 1270:1 1283:1 1302:1 1309:1 1324:1 1352:1 1368:1 1392:1 1461:1 1472:1 1496:1 1503:1 1546:1 1561:1 1562:1 1574:1 1576:1 1577:1 1588:1 1621:1 1638:1 1645:1 1662:1 1730:1 1794:1 1801:1 1828:1 1879:1 1910:1 1930:1 1974:1 1979:1 1983:1 1995:1 2005:1 2011:1 2020:1 2082:1 2101:1 2126:1 2129:1 2189:1 2192:1 2211:1 2250:1 2263:1 2317:1 2389:1 2433:1 2514:1 2527:1 2528:1 2555:1 2587:1 2643:1 2658:1 2661:1 2701:1 2723:1 2768:1 2780:1 2814:1 2816:1 2835:1 2842:1 2852:1 2868:1 2869:1 2898:1 2908:1 2912:1 2929:1 2941:1 2942:1 2945:1 2946:1 2952:1 3012:1 3036:1 3081:1 3082:1 3105:1 3133:1 3178:1 3243:1 3253:1 3317:1 3324:1 3332:1 3423:1 3461:1 3463:1 3468:1 3472:1 3479:1 3486:1 3545:1 3572:1 3590:1 3689:1 3713:1 3744:1 3761:1 3856:1 3887:1 3931:1 4091:1 4097:1 4163:1 4262:1 4275:1 4343:1 4368:1 4375:1 4422:1 4426:1 4428:1 4434:1 4461:1 4480:1 4486:1 4487:1 4488:1 4493:1 4497:1 4518:1 4525:1 4577:1 4606:1 4609:1 4616:1 4617:1 4618:1 4726:1 4734:1 4742:1 4752:1 4789:1 4792:1 4917:1 4939:1 4957:1 4966:1 4969:1 4978:1 5050:1 5109:1 5128:1 5134:1 5162:1 5191:1 5226:1 5248:1 5273:1 5366:1 5395:1 5415:1 5419:1 5447:1 5452:1 5457:1 5462:1 5477:1 5483:1 5492:1 5494:1 5530:1 5538:1 5637:1 5639:1 5645:1 5675:1 5715:1 5773:1 5788:1 5796:1 5799:1 5897:1 5908:1 5910:1 5919:1 5942:1 5951:1 6012:1 6038:1 6061:1 6089:1 6096:1 6132:1 6174:1 6179:1 6195:1 6239:1 6245:1 6264:1 6322:1 6325:1 6343:1 6345:1 6371:1 6417:1 6513:1 6533:1 6589:1 6640:1 6646:1 6687:1 6694:1 6695:1 6717:1 6750:1 6758:1 6775:1 6874:1 6921:1 7034:1 7078:1 7079:1 7083:1 7100:1 7105:1 7112:1 7173:1 7194:1 7231:1 7236:1 7246:1 7261:1 7263:1 7276:1 7286:1 7325:1 7344:1 7353:1 7391:1 7401:1 7416:1 7475:1 7491:1 7545:1 7565:1 7575:1 7649:1 7673:1 7707:1 7713:1 7722:1 7786:1 7809:1 7816:1 7818:1 7859:1 7867:1 7868:1 7874:1 7898:1 7916:1 7999:1 8014:1 8042:1 8043:1 8074:1 8108:1 8165:1 8196:1 8331:1 8345:1 8396:1 8422:1 8425:1 8439:1 8483:1 8493:1 8504:1 8513:1 8521:1 8554:1 8559:1 8627:1 8684:1 8716:1 8748:1 8777:1 8801:1 8808:1 8813:1 8820:1 8843:1 8846:1 8876:1 8892:1 8913:1 8929:1 8936:1 8950:1 8980:1 9006:1 9061:1 9069:1 9113:1 9127:1 9129:1 9186:1 9264:1 9386:1 9389:1 9392:1 9445:1 9447:1 9452:1 9474:1 9488:1 9495:1 9505:1 9545:1 9616:1 9620:1 9743:1 9745:1 9781:1 9833:1 9840:1 9901:1 9915:1 9916:1 9920:1 9923:1 9939:1 9943:1 10001:1 10010:1 10033:1 10089:1 10200:1 10241:1 10243:1 10271:1 10340:1 10361:1 10379:1 10384:1 10420:1 10496:1 10535:1 10543:1 10555:1 10703:1 10724:1 10761:1 10804:1 10812:1 10829:1 10878:1 10897:1 10940:1 10951:1 10991:1 10994:1 10996:1 11018:1 11048:1 11085:1 #
-5.457721742722718572937007364132e-05 1:1 20:1 24:1 47:1 58:1 62:1 64:1 69:1 70:1 74:1 77:1 88:1 95:1 105:1 107:1 110:1 123:1 132:1 158:1 169:1 178:1 182:1 184:1 202:1 219:1 242:1 243:1 253:1 259:1 262:1 265:1 269:1 288:1 291:1 315:1 325:1 347:1 366:1 374:1 402:1 405:1 409:1 427:1 437:1 440:1 445:1 504:1 536:1 540:1 625:1 640:1 644:1 654:1 698:1 708:1 777:1 778:1 816:1 843:1 849:1 894:1 938:1 941:1 953:1 964:1 1017:1 1037:1 1060:1 1127:1 1141:1 1182:1 1198:1 1200:1 1201:1 1240:1 1262:1 1264:1 1265:1 1270:1 1283:1 1285:1 1293:1 1302:1 1309:1 1326:1 1352:1 1366:1 1389:1 1392:1 1413:1 1497:1 1503:1 1506:1 1515:1 1545:1 1552:1 1554:1 1561:1 1562:1 1574:1 1577:1 1588:1 1613:1 1694:1 1695:1 1718:1 1730:1 1753:1 1803:1 1820:1 1850:1 1861:1 1876:1 1890:1 1910:1 1970:1 1974:1 1979:1 2012:1 2020:1 2033:1 2046:1 2047:1 2082:1 2085:1 2092:1 2101:1 2126:1 2129:1 2145:1 2148:1 2192:1 2205:1 2257:1 2263:1 2281:1 2290:1 2303:1 2315:1 2317:1 2326:1 2351:1 2379:1 2382:1 2386:1 2420:1 2433:1 2434:1 2453:1 2465:1 2488:1 2550:1 2645:1 2658:1 2661:1 2682:1 2714:1 2771:1 2803:1 2835:1 2842:1 2868:1 2918:1 2929:1 2938:1 2940:1 2941:1 2943:1 2945:1 2946:1 2972:1 3001:1 3077:1 3081:1 3093:1 3109:1 3115:1 3170:1 3184:1 3200:1 3253:1 3259:1 3263:1 3273:1 3285:1 3317:1 3324:1 3332:1 3333:1 3392:1 3406:1 3423:1 3426:1 3430:1 3463:1 3468:1 3491:1 3493:1 3503:1 3526:1 3529:1 3558:1 3576:1 3581:1 3590:1 3626:1 3630:1 3639:1 3669:1 3689:1 3705:1 3707:1 3733:1 3740:1 3814:1 3823:1 3826:1 3834:1 3836:1 3842:1 3859:1 3913:1 3927:1 3928:1 3962:1 4049:1 4059:1 4071:1 4101:1 4105:1 4145:1 4165:1 4168:1 4186:1 4210:1 4231:1 4267:1 4278:1 4289:1 4301:1 4309:1 4331:1 4356:1 4372:1 4394:1 4441:1 4471:1 4486:1 4487:1 4493:1 4525:1 4545:1 4576:1 4592:1 4609:1 4616:1 4617:1 4618:1 4626:1 4694:1 4700:1 4734:1 4752:1 4766:1 4769:1 4775:1 4809:1 4829:1 4891:1 4901:1 4911:1 4919:1 4944:1 4966:1 4981:1 4982:1 5073:1 5115:1 5220:1 5226:1 5240:1 5254:1 5258:1 5273:1 5286:1 5318:1 5343:1 5363:1 5366:1 5406:1 5415:1 5426:1 5457:1 5482:1 5510:1 5560:1 5602:1 5614:1 5640:1 5675:1 5786:1 5788:1 5862:1 5866:1 5871:1 5872:1 5879:1 5892:1 5897:1 5906:1 5910:1 5928:1 5929:1 5935:1 5960:1 6010:1 6035:1 6053:1 6068:1 6070:1 6101:1 6112:1 6132:1 6159:1 6174:1 6185:1 6214:1 6236:1 6245:1 6264:1 6265:1 6322:1 6332:1 6345:1 6385:1 6395:1 6399:1 6413:1 6427:1 6429:1 6480:1 6517:1 6519:1 6529:1 6534:1 6556:1 6594:1 6600:1 6640:1 6646:1 6678:1 6686:1 6689:1 6746:1 6775:1 6815:1 6861:1 6941:1 6948:1 7018:1 7022:1 7029:1 7034:1 7051:1 7078:1 7083:1 7085:1 7100:1 7105:1 7112:1 7128:1 7173:1 7180:1 7194:1 7200:1 7204:1 7213:1 7224:1 7234:1 7246:1 7252:1 7258:1 7286:1 7353:1 7391:1 7419:1 7475:1 7484:1 7487:1 7495:1 7521:1 7549:1 7550:1 7566:1 7572:1 7583:1 7606:1 7608:1 7622:1 7665:1 7673:1 7682:1 7683:1 7686:1 7706:1 7722:1 7744:1 7781:1 7794:1 7796:1 7807:1 7812:1 7816:1 7836:1 7852:1 7999:1 8014:1 8020:1 8025:1 8042:1 8054:1 8059:1 8078:1 8095:1 8152:1 8174:1 8331:1 8345:1 8391:1 8396:1 8422:1 8425:1 8441:1 8448:1 8520:1 8521:1 8545:1 8564:1 8632:1 8657:1 8673:1 8684:1 8704:1 8742:1 8744:1 8748:1 8753:1 8783:1 8798:1 8801:1 8808:1 8814:1 8828:1 8846:1 8876:1 8892:1 8936:1 8950:1 8958:1 8970:1 8972:1 8988:1 8989:1 9014:1 9032:1 9053:1 9081:1 9127:1 9155:1 9168:1 9170:1 9186:1 9199:1 9210:1 9233:1 9250:1 9268:1 9328:1 9339:1 9371:1 9376:1 9386:1 9428:1 9452:1 9456:1 9488:1 9492:1 9505:1 9545:1 9578:1 9617:1 9629:1 9690:1 9706:1 9719:1 9731:1 9732:1 9747:1 9764:1 9854:1 9856:1 9883:1 9904:1 9915:1 9923:1 9938:1 9986:1 10001:1 10007:1 10010:1 10033:1 10042:1 10050:1 10079:1 10089:1 10163:1 10164:1 10181:1 10193:1 10200:1 10230:1 10231:1 10250:1 10271:1 10283:1 10334:1 10340:1 10379:1 10384:1 10394:1 10495:1 10498:1 10500:1 10512:1 10547:1 10568:1 10594:1 10608:1 10684:1 10703:1 10724:1 10730:1 10740:1 10742:1 10744:1 10761:1 10772:1 10782:1 10784:1 10805:1 10812:1 10878:1 10890:1 10931:1 10996:1 10997:1 11004:1 11005:1 11027:1 11035:1 11048:1 11083:1 #
0.0033386058045510244585152292984276 69:1 74:1 178:1 202:1 253:1 288:1 644:1 807:1 913:1 1141:1 1577:1 1730:1 1836:1 1910:1 1979:1 2516:1 2645:1 2668:1 2807:1 2835:1 2849:1 2892:1 2941:1 2945:1 2946:1 3468:1 3687:1 3836:1 4073:1 4145:1 4278:1 4366:1 4487:1 4493:1 4618:1 4891:1 4944:1 5097:1 5410:1 5788:1 5869:1 6130:1 6132:1 6180:1 6332:1 6480:1 7034:1 7083:1 7105:1 7112:1 7139:1 7246:1 7285:1 7475:1 7722:1 8152:1 8345:1 8494:1 8535:1 8684:1 8996:1 9070:1 9129:1 9186:1 9742:1 9949:1 10010:1 10274:1 10340:1 10485:1 10583:1 10724:1 10761:1 10996:1 #
0.0033386058045510244585152292984276 62:1 64:1 69:1 74:1 178:1 202:1 243:1 253:1 259:1 422:1 708:1 1049:1 1285:1 1392:1 1561:1 1562:1 1638:1 1730:1 2091:1 2207:1 2249:1 2275:1 2541:1 2599:1 2701:1 2929:1 2941:1 2945:1 2946:1 3253:1 3282:1 3317:1 3604:1 3689:1 3823:1 4092:1 4422:1 4472:1 4488:1 4609:1 4616:1 4752:1 4889:1 4947:1 4957:1 4966:1 5226:1 5314:1 5560:1 5678:1 5897:1 6322:1 6678:1 6861:1 6941:1 7073:1 7083:1 7112:1 7475:1 7566:1 7574:1 7632:1 7783:1 7794:1 7855:1 7898:1 7916:1 8080:1 8103:1 8459:1 8684:1 8748:1 8777:1 8801:1 8892:1 8980:1 9188:1 9235:1 9386:1 9452:1 9923:1 10010:1 10061:1 10233:1 10334:1 10340:1 10431:1 10724:1 10788:1 10878:1 10994:1 10996:1 11048:1 11085:1 #
0.0033386058045510244585152292984276 47:1 62:1 64:1 69:1 74:1 123:1 178:1 253:1 502:1 512:1 843:1 909:1 1041:1 1141:1 1170:1 1208:1 1263:1 1352:1 1364:1 1379:1 1466:1 1638:1 1719:1 1730:1 1894:1 1910:1 1963:1 1974:1 1979:1 2082:1 2098:1 2227:1 2317:1 2341:1 2941:1 2942:1 2945:1 2946:1 2968:1 2970:1 3248:1 3317:1 3387:1 3404:1 3414:1 3419:1 3463:1 3570:1 3577:1 3639:1 3804:1 3813:1 3834:1 4145:1 4243:1 4339:1 4486:1 4488:1 4573:1 4616:1 4618:1 4752:1 4939:1 5007:1 5098:1 5172:1 5240:1 5410:1 5462:1 5484:1 5640:1 5796:1 5883:1 5897:1 5898:1 6050:1 6250:1 6320:1 6322:1 6415:1 6565:1 6597:1 6623:1 6795:1 6838:1 6986:1 7047:1 7083:1 7112:1 7199:1 7263:1 7272:1 7462:1 7475:1 7546:1 7613:1 7749:1 7783:1 7865:1 8029:1 8201:1 8255:1 8370:1 8382:1 8394:1 8521:1 8659:1 8742:1 8748:1 8751:1 8789:1 8801:1 8892:1 9050:1 9102:1 9222:1 9287:1 9368:1 9460:1 9545:1 9558:1 9578:1 9661:1 9870:1 9901:1 9923:1 9944:1 10010:1 10091:1 10106:1 10363:1 10395:1 10428:1 10521:1 10533:1 10724:1 10742:1 10755:1 10787:1 10800:1 10848:1 10884:1 11042:1 11048:1 #
0.0020174096176932762580769065152708 66:1 69:1 74:1 132:1 178:1 253:1 433:1 467:1 609:1 617:1 654:1 777:1 930:1 932:1 974:1 995:1 1067:1 1207:1 1219:1 1264:1 1392:1 1561:1 1576:1 1730:1 1836:1 1908:1 1921:1 2011:1 2129:1 2275:1 2714:1 2916:1 2941:1 2945:1 2984:1 3012:1 3226:1 3285:1 3359:1 3423:1 3705:1 3731:1 3779:1 3799:1 4071:1 4168:1 4569:1 4616:1 4752:1 5120:1 5226:1 5415:1 5462:1 5614:1 5869:1 5910:1 6164:1 6480:1 6646:1 6775:1 7083:1 7100:1 7112:1 7119:1 7135:1 7398:1 7423:1 7475:1 7523:1 7530:1 7667:1 7794:1 7880:1 7882:1 7911:1 7916:1 8684:1 8766:1 8801:1 8855:1 9025:1 9160:1 9545:1 9547:1 9701:1 9719:1 9742:1 9805:1 10010:1 10141:1 10334:1 10340:1 10502:1 10613:1 10655:1 10723:1 10724:1 10787:1 10789:1 10812:1 10878:1 11048:1 #
0.0033386058045510244585152292984276 47:1 74:1 102:1 132:1 178:1 202:1 259:1 266:1 315:1 434:1 567:1 625:1 913:1 941:1 1076:1 1458:1 1561:1 1730:1 1974:1 2033:1 2082:1 2159:1 2197:1 2211:1 2643:1 2661:1 2853:1 2941:1 2945:1 2946:1 3024:1 3200:1 3423:1 3463:1 3537:1 3683:1 3739:1 4071:1 4137:1 4261:1 4616:1 4617:1 4618:1 4624:1 4695:1 4830:1 4888:1 4891:1 5226:1 5228:1 5366:1 5640:1 5894:1 6081:1 6279:1 6322:1 6610:1 6766:1 7083:1 7176:1 7246:1 7310:1 7435:1 7475:1 7812:1 7823:1 8289:1 8422:1 8521:1 8684:1 8748:1 8801:1 8859:1 8892:1 8923:1 8936:1 9014:1 9053:1 9061:1 9492:1 9771:1 9903:1 10010:1 10031:1 10153:1 10334:1 10340:1 10488:1 10724:1 10787:1 10920:1 11048:1 #
-0.0033386058045510244585152292984276 62:1 64:1 69:1 74:1 118:1 178:1 180:1 204:1 230:1 234:1 259:1 386:1 544:1 552:1 585:1 616:1 650:1 654:1 780:1 878:1 909:1 930:1 941:1 1049:1 1157:1 1240:1 1256:1 1287:1 1297:1 1304:1 1348:1 1355:1 1375:1 1377:1 1392:1 1413:1 1487:1 1561:1 1577:1 1730:1 1880:1 1899:1 1910:1 2033:1 2042:1 2131:1 2225:1 2263:1 2771:1 2777:1 2835:1 2853:1 2937:1 2941:1 2945:1 2946:1 3009:1 3028:1 3115:1 3126:1 3253:1 3254:1 3463:1 3490:1 3503:1 3703:1 3811:1 3844:1 3902:1 3929:1 4074:1 4253:1 4362:1 4401:1 4468:1 4487:1 4616:1 4752:1 4760:1 4944:1 5097:1 5109:1 5171:1 5227:1 5390:1 5443:1 5554:1 5560:1 5648:1 5656:1 5700:1 5723:1 5873:1 5897:1 6047:1 6140:1 6141:1 6150:1 6222:1 6300:1 6322:1 6345:1 6480:1 6485:1 6646:1 6678:1 6703:1 6730:1 6775:1 6975:1 6986:1 7034:1 7078:1 7083:1 7097:1 7100:1 7112:1 7234:1 7272:1 7286:1 7312:1 7475:1 7566:1 7783:1 7794:1 7945:1 8014:1 8039:1 8074:1 8095:1 8289:1 8345:1 8422:1 8684:1 8727:1 8766:1 8780:1 8801:1 8802:1 8815:1 8837:1 8915:1 8973:1 9033:1 9035:1 9186:1 9233:1 9336:1 9381:1 9452:1 9458:1 9487:1 9488:1 9706:1 9723:1 9743:1 10001:1 10010:1 10112:1 10251:1 10334:1 10340:1 10496:1 10724:1 10767:1 10787:1 10878:1 10951:1 10994:1 #
-0.0033386058045510244585152292984276 20:1 62:1 64:1 69:1 70:1 74:1 82:1 91:1 105:1 178:1 202:1 253:1 262:1 315:1 381:1 419:1 424:1 559:1 596:1 624:1 664:1 714:1 725:1 778:1 816:1 902:1 959:1 1065:1 1127:1 1129:1 1130:1 1182:1 1240:1 1392:1 1446:1 1557:1 1561:1 1562:1 1576:1 1577:1 1588:1 1730:1 1771:1 1819:1 1824:1 1826:1 1888:1 1910:1 1928:1 1966:1 1974:1 1979:1 1990:1 2036:1 2142:1 2205:1 2263:1 2317:1 2367:1 2465:1 2632:1 2658:1 2722:1 2751:1 2843:1 2940:1 2941:1 2945:1 3253:1 3310:1 3598:1 3673:1 4034:1 4071:1 4075:1 4136:1 4240:1 4388:1 4438:1 4486:1 4493:1 4525:1 4616:1 4618:1 4752:1 4866:1 5013:1 5054:1 5267:1 5415:1 5493:1 5648:1 5660:1 5697:1 5756:1 5840:1 5897:1 6023:1 6112:1 6233:1 6322:1 6496:1 6548:1 6556:1 6564:1 6574:1 6815:1 7034:1 7078:1 7083:1 7100:1 7112:1 7246:1 7266:1 7311:1 7328:1 7475:1 7498:1 7554:1 7558:1 7679:1 7693:1 7702:1 7749:1 7823:1 8387:1 8464:1 8484:1 8518:1 8529:1 8600:1 8614:1 8642:1 8645:1 8659:1 8684:1 8780:1 8787:1 8801:1 8809:1 8878:1 8892:1 8958:1 9186:1 9352:1 9381:1 9452:1 9505:1 9545:1 9679:1 9703:1 9706:1 9711:1 9719:1 9824:1 9918:1 10010:1 10181:1 10191:1 10218:1 10238:1 10250:1 10334:1 10340:1 10423:1 10547:1 10616:1 10655:1 10724:1 10815:1 10838:1 10912:1 10979:1 10994:1 11048:1 #
-0.0033386058045510244585152292984276 1:1 20:1 51:1 54:1 55:1 62:1 64:1 69:1 74:1 84:1 90:1 107:1 110:1 123:1 128:1 177:1 178:1 202:1 253:1 259:1 409:1 662:1 698:1 727:1 753:1 878:1 1018:1 1200:1 1240:1 1392:1 1561:1 1655:1 1809:1 1829:1 1830:1 1873:1 1974:1 1979:1 2020:1 2129:1 2336:1 2465:1 2590:1 2941:1 2945:1 2946:1 2948:1 3253:1 3280:1 3479:1 3482:1 3572:1 3586:1 3769:1 3804:1 3834:1 3927:1 3938:1 4071:1 4114:1 4122:1 4127:1 4147:1 4246:1 4422:1 4434:1 4609:1 4618:1 4752:1 4798:1 4932:1 4944:1 4961:1 4999:1 5054:1 5185:1 5410:1 5675:1 5686:1 5786:1 6063:1 6607:1 6640:1 7034:1 7083:1 7100:1 7112:1 7246:1 7327:1 7475:1 7744:1 7794:1 7999:1 8264:1 8289:1 8303:1 8345:1 8360:1 8422:1 8437:1 8444:1 8684:1 8748:1 8780:1 8801:1 8915:1 8936:1 9179:1 9452:1 9585:1 9722:1 9743:1 9771:1 9887:1 9915:1 10010:1 10271:1 10334:1 10340:1 10557:1 10724:1 10940:1 #
-0.0033386058045510244585152292984276 1:1 58:1 62:1 64:1 69:1 74:1 82:1 88:1 102:1 107:1 115:1 178:1 188:1 193:1 253:1 259:1 288:1 370:1 519:1 572:1 654:1 702:1 777:1 778:1 816:1 828:1 885:1 930:1 951:1 1120:1 1127:1 1203:1 1208:1 1374:1 1377:1 1392:1 1411:1 1442:1 1499:1 1576:1 1588:1 1638:1 1730:1 1897:1 1910:1 1928:1 1974:1 1979:1 2033:1 2051:1 2129:1 2136:1 2172:1 2238:1 2357:1 2394:1 2413:1 2739:1 2941:1 2945:1 2946:1 3092:1 3115:1 3128:1 3171:1 3248:1 3249:1 3253:1 3339:1 3355:1 3461:1 3469:1 3526:1 3618:1 3630:1 3673:1 3804:1 3871:1 4007:1 4080:1 4132:1 4148:1 4212:1 4321:1 4372:1 4409:1 4422:1 4487:1 4609:1 4616:1 4657:1 4668:1 4752:1 4775:1 4912:1 4979:1 5013:1 5054:1 5097:1 5109:1 5113:1 5198:1 5271:1 5366:1 5415:1 5462:1 5520:1 5614:1 5648:1 5666:1 5788:1 5851:1 6224:1 6245:1 6250:1 6370:1 6480:1 6519:1 6548:1 6587:1 6623:1 6646:1 6785:1 6887:1 6941:1 6949:1 7078:1 7083:1 7100:1 7112:1 7246:1 7285:1 7310:1 7392:1 7475:1 7514:1 7598:1 7679:1 7693:1 7730:1 7749:1 7794:1 7825:1 8014:1 8031:1 8129:1 8163:1 8238:1 8289:1 8345:1 8419:1 8518:1 8614:1 8649:1 8663:1 8684:1 8716:1 8787:1 8801:1 8889:1 8923:1 8929:1 9053:1 9070:1 9159:1 9186:1 9220:1 9258:1 9681:1 9706:1 9923:1 10001:1 10010:1 10014:1 10084:1 10225:1 10334:1 10340:1 10437:1 10443:1 10655:1 10709:1 10724:1 10749:1 10761:1 10783:1 11018:1 11048:1 #
0.002301397235243319780439996691257 58:1 62:1 63:1 64:1 69:1 70:1 74:1 82:1 88:1 90:1 91:1 95:1 97:1 100:1 104:1 105:1 107:1 123:1 132:1 154:1 178:1 198:1 202:1 213:1 215:1 237:1 253:1 259:1 286:1 288:1 291:1 310:1 315:1 362:1 396:1 427:1 437:1 440:1 466:1 479:1 504:1 544:1 550:1 559:1 562:1 616:1 632:1 654:1 698:1 708:1 735:1 759:1 777:1 778:1 816:1 843:1 913:1 930:1 941:1 974:1 981:1 1017:1 1089:1 1112:1 1127:1 1141:1 1198:1 1210:1 1235:1 1240:1 1244:1 1270:1 1283:1 1285:1 1304:1 1309:1 1370:1 1392:1 1413:1 1425:1 1499:1 1503:1 1559:1 1561:1 1577:1 1585:1 1588:1 1638:1 1691:1 1696:1 1730:1 1738:1 1771:1 1829:1 1890:1 1910:1 1921:1 1943:1 1960:1 1972:1 1974:1 1979:1 1986:1 1990:1 1995:1 2012:1 2020:1 2076:1 2081:1 2101:1 2129:1 2160:1 2259:1 2314:1 2317:1 2323:1 2379:1 2394:1 2425:1 2433:1 2466:1 2658:1 2661:1 2682:1 2780:1 2806:1 2842:1 2856:1 2869:1 2883:1 2916:1 2929:1 2940:1 2941:1 2945:1 2946:1 2979:1 3001:1 3162:1 3200:1 3205:1 3206:1 3222:1 3248:1 3253:1 3285:1 3324:1 3332:1 3386:1 3423:1 3449:1 3455:1 3463:1 3468:1 3479:1 3491:1 3571:1 3590:1 3647:1 3649:1 3673:1 3679:1 3689:1 3799:1 3804:1 3808:1 3811:1 3824:1 3834:1 3836:1 3865:1 3867:1 3879:1 3881:1 3885:1 3886:1 3980:1 4002:1 4004:1 4071:1 4101:1 4166:1 4168:1 4188:1 4261:1 4309:1 4341:1 4366:1 4401:1 4428:1 4447:1 4471:1 4480:1 4486:1 4487:1 4493:1 4504:1 4525:1 4549:1 4609:1 4616:1 4617:1 4618:1 4742:1 4746:1 4752:1 4754:1 4767:1 4853:1 4877:1 4927:1 4939:1 4940:1 4950:1 4957:1 4966:1 5023:1 5089:1 5227:1 5248:1 5273:1 5366:1 5403:1 5410:1 5415:1 5426:1 5461:1 5462:1 5478:1 5505:1 5552:1 5604:1 5628:1 5631:1 5648:1 5675:1 5701:1 5715:1 5774:1 5786:1 5788:1 5812:1 5871:1 5877:1 5897:1 5899:1 5906:1 5910:1 5936:1 5971:1 6012:1 6071:1 6098:1 6132:1 6164:1 6231:1 6262:1 6265:1 6322:1 6332:1 6395:1 6429:1 6472:1 6480:1 6499:1 6529:1 6535:1 6592:1 6594:1 6623:1 6640:1 6646:1 6695:1 6750:1 6772:1 6812:1 6815:1 6820:1 6831:1 6861:1 6921:1 6949:1 6962:1 7002:1 7034:1 7078:1 7083:1 7085:1 7100:1 7105:1 7112:1 7156:1 7165:1 7234:1 7286:1 7310:1 7318:1 7357:1 7391:1 7411:1 7429:1 7475:1 7538:1 7566:1 7614:1 7642:1 7707:1 7741:1 7794:1 7816:1 7868:1 7880:1 7898:1 7914:1 7916:1 7920:1 7999:1 8020:1 8042:1 8087:1 8091:1 8154:1 8229:1 8251:1 8289:1 8345:1 8354:1 8422:1 8431:1 8435:1 8466:1 8521:1 8597:1 8640:1 8644:1 8663:1 8684:1 8704:1 8716:1 8748:1 8798:1 8801:1 8815:1 8816:1 8892:1 8915:1 8936:1 8950:1 8976:1 8980:1 8990:1 9018:1 9035:1 9120:1 9127:1 9155:1 9160:1 9170:1 9206:1 9236:1 9247:1 9273:1 9328:1 9381:1 9386:1 9452:1 9458:1 9459:1 9488:1 9492:1 9505:1 9617:1 9687:1 9706:1 9735:1 9747:1 9781:1 9817:1 9840:1 9861:1 9886:1 9893:1 9902:1 9915:1 9923:1 9943:1 10001:1 10010:1 10026:1 10078:1 10089:1 10322:1 10334:1 10340:1 10370:1 10384:1 10441:1 10521:1 10547:1 10634:1 10637:1 10684:1 10724:1 10737:1 10742:1 10761:1 10771:1 10787:1 10812:1 10974:1 10996:1 11048:1 11083:1 #
0.0033386058045510244585152292984276 1:1 18:1 36:1 47:1 48:1 62:1 64:1 69:1 72:1 74:1 102:1 107:1 112:1 123:1 178:1 182:1 202:1 215:1 237:1 245:1 253:1 259:1 262:1 266:1 360:1 361:1 427:1 440:1 467:1 475:1 478:1 585:1 596:1 600:1 604:1 625:1 627:1 644:1 654:1 660:1 698:1 777:1 798:1 826:1 843:1 941:1 966:1 974:1 1002:1 1029:1 1072:1 1127:1 1131:1 1157:1 1200:1 1203:1 1240:1 1256:1 1270:1 1283:1 1290:1 1302:1 1309:1 1392:1 1400:1 1413:1 1437:1 1462:1 1521:1 1561:1 1577:1 1578:1 1580:1 1588:1 1638:1 1688:1 1719:1 1722:1 1730:1 1753:1 1763:1 1792:1 1803:1 1829:1 1832:1 1875:1 1890:1 1910:1 1953:1 1974:1 1977:1 1979:1 1990:1 2011:1 2012:1 2020:1 2051:1 2075:1 2076:1 2082:1 2085:1 2091:1 2101:1 2126:1 2129:1 2178:1 2203:1 2211:1 2225:1 2263:1 2279:1 2290:1 2317:1 2379:1 2436:1 2482:1 2528:1 2569:1 2592:1 2630:1 2643:1 2658:1 2661:1 2674:1 2714:1 2753:1 2843:1 2868:1 2869:1 2870:1 2929:1 2941:1 2945:1 2946:1 2972:1 3024:1 3051:1 3057:1 3058:1 3077:1 3081:1 3123:1 3184:1 3193:1 3200:1 3209:1 3232:1 3248:1 3253:1 3263:1 3285:1 3295:1 3302:1 3332:1 3376:1 3400:1 3405:1 3406:1 3423:1 3449:1 3463:1 3479:1 3491:1 3494:1 3518:1 3526:1 3570:1 3590:1 3649:1 3702:1 3705:1 3726:1 3773:1 3782:1 3793:1 3804:1 3811:1 3823:1 3824:1 3867:1 3881:1 3882:1 3898:1 3970:1 3993:1 4004:1 4049:1 4092:1 4097:1 4098:1 4101:1 4111:1 4186:1 4261:1 4290:1 4331:1 4362:1 4366:1 4411:1 4434:1 4460:1 4486:1 4487:1 4520:1 4549:1 4573:1 4585:1 4608:1 4609:1 4613:1 4616:1 4617:1 4618:1 4667:1 4694:1 4707:1 4734:1 4742:1 4746:1 4752:1 4775:1 4845:1 4876:1 4884:1 4939:1 4944:1 4999:1 5050:1 5082:1 5084:1 5121:1 5226:1 5227:1 5273:1 5314:1 5318:1 5366:1 5410:1 5412:1 5415:1 5429:1 5462:1 5471:1 5510:1 5598:1 5602:1 5607:1 5614:1 5675:1 5713:1 5788:1 5866:1 5897:1 5928:1 5933:1 5947:1 6011:1 6070:1 6117:1 6140:1 6164:1 6222:1 6286:1 6322:1 6395:1 6407:1 6425:1 6429:1 6439:1 6480:1 6488:1 6529:1 6600:1 6610:1 6623:1 6640:1 6646:1 6729:1 6762:1 6775:1 6794:1 6832:1 6844:1 6861:1 6923:1 6990:1 7025:1 7034:1 7078:1 7083:1 7084:1 7100:1 7105:1 7112:1 7125:1 7147:1 7234:1 7246:1 7261:1 7262:1 7272:1 7286:1 7290:1 7353:1 7362:1 7411:1 7465:1 7475:1 7538:1 7550:1 7566:1 7567:1 7568:1 7586:1 7616:1 7666:1 7686:1 7713:1 7794:1 7809:1 7812:1 7839:1 7916:1 7967:1 8014:1 8037:1 8042:1 8057:1 8074:1 8084:1 8087:1 8091:1 8095:1 8150:1 8156:1 8165:1 8181:1 8184:1 8212:1 8284:1 8289:1 8331:1 8345:1 8370:1 8419:1 8422:1 8423:1 8483:1 8501:1 8518:1 8521:1 8566:1 8670:1 8684:1 8716:1 8748:1 8754:1 8783:1 8798:1 8801:1 8808:1 8831:1 8846:1 8876:1 8892:1 8936:1 8950:1 8976:1 8978:1 8994:1 9018:1 9093:1 9149:1 9155:1 9276:1 9328:1 9370:1 9386:1 9392:1 9451:1 9452:1 9460:1 9488:1 9492:1 9505:1 9509:1 9558:1 9586:1 9620:1 9625:1 9706:1 9733:1 9775:1 9781:1 9832:1 9840:1 9875:1 9883:1 9884:1 9915:1 9923:1 9938:1 9967:1 10001:1 10008:1 10010:1 10014:1 10030:1 10033:1 10050:1 10051:1 10053:1 10135:1 10220:1 10240:1 10317:1 10334:1 10340:1 10363:1 10383:1 10426:1 10456:1 10488:1 10496:1 10523:1 10583:1 10667:1 10684:1 10703:1 10716:1 10724:1 10730:1 10742:1 10747:1 10761:1 10780:1 10828:1 10847:1 10900:1 10912:1 10994:1 11048:1 11072:1 11083:1 #
0.0028341924880958039266454218108038 12:1 58:1 62:1 63:1 64:1 69:1 74:1 102:1 110:1 178:1 202:1 253:1 259:1 262:1 272:1 288:1 315:1 335:1 358:1 432:1 434:1 440:1 465:1 475:1 479:1 507:1 559:1 625:1 654:1 698:1 738:1 769:1 776:1 777:1 817:1 874:1 930:1 932:1 1000:1 1065:1 1127:1 1186:1 1224:1 1304:1 1392:1 1459:1 1461:1 1496:1 1503:1 1561:1 1576:1 1577:1 1588:1 1594:1 1638:1 1730:1 1736:1 1746:1 1792:1 1836:1 1868:1 1878:1 1890:1 1910:1 1947:1 1950:1 1960:1 1974:1 1979:1 2101:1 2103:1 2104:1 2151:1 2192:1 2268:1 2317:1 2341:1 2345:1 2379:1 2420:1 2465:1 2483:1 2587:1 2628:1 2658:1 2682:1 2688:1 2714:1 2723:1 2725:1 2796:1 2868:1 2935:1 2941:1 2945:1 2946:1 3001:1 3012:1 3036:1 3114:1 3200:1 3248:1 3279:1 3317:1 3324:1 3333:1 3423:1 3425:1 3452:1 3479:1 3491:1 3537:1 3538:1 3558:1 3578:1 3590:1 3671:1 3705:1 3802:1 3804:1 3823:1 3830:1 3842:1 3879:1 3896:1 3898:1 3916:1 4004:1 4074:1 4151:1 4166:1 4243:1 4261:1 4273:1 4284:1 4335:1 4425:1 4461:1 4486:1 4487:1 4488:1 4493:1 4525:1 4541:1 4549:1 4573:1 4616:1 4618:1 4624:1 4637:1 4667:1 4734:1 4752:1 4766:1 4775:1 4809:1 4853:1 4866:1 4934:1 5109:1 5119:1 5140:1 5162:1 5212:1 5226:1 5227:1 5271:1 5366:1 5410:1 5415:1 5515:1 5553:1 5560:1 5631:1 5656:1 5675:1 5761:1 5849:1 5897:1 5958:1 6029:1 6174:1 6209:1 6256:1 6273:1 6385:1 6442:1 6475:1 6476:1 6480:1 6499:1 6533:1 6551:1 6556:1 6558:1 6592:1 6610:1 6627:1 6636:1 6639:1 6640:1 6652:1 6697:1 6717:1 6750:1 6788:1 6820:1 6858:1 6973:1 6980:1 7034:1 7078:1 7083:1 7100:1 7112:1 7154:1 7224:1 7246:1 7250:1 7266:1 7329:1 7435:1 7442:1 7475:1 7498:1 7538:1 7550:1 7565:1 7566:1 7593:1 7707:1 7794:1 7799:1 7816:1 7849:1 7859:1 7999:1 8105:1 8123:1 8148:1 8300:1 8422:1 8454:1 8458:1 8581:1 8614:1 8634:1 8646:1 8649:1 8684:1 8706:1 8743:1 8748:1 8796:1 8801:1 8823:1 8936:1 8950:1 9000:1 9078:1 9149:1 9152:1 9160:1 9192:1 9231:1 9235:1 9345:1 9349:1 9384:1 9386:1 9398:1 9474:1 9505:1 9518:1 9553:1 9743:1 9747:1 9781:1 9833:1 9923:1 9968:1 10010:1 10050:1 10161:1 10193:1 10210:1 10217:1 10236:1 10282:1 10340:1 10440:1 10488:1 10518:1 10538:1 10547:1 10565:1 10724:1 10730:1 10759:1 10787:1 10841:1 10851:1 10884:1 10890:1 10900:1 10908:1 10950:1 11019:1 11048:1 11083:1 #
-0.00046880332256390245876040423489428 1:1 15:1 38:1 62:1 64:1 69:1 74:1 107:1 123:1 134:1 178:1 202:1 253:1 259:1 288:1 315:1 347:1 348:1 351:1 440:1 479:1 589:1 597:1 645:1 654:1 706:1 776:1 777:1 778:1 843:1 867:1 932:1 941:1 993:1 1018:1 1127:1 1136:1 1140:1 1240:1 1243:1 1283:1 1304:1 1332:1 1392:1 1431:1 1503:1 1554:1 1561:1 1577:1 1588:1 1621:1 1730:1 1908:1 1910:1 1974:1 1979:1 2005:1 2129:1 2175:1 2189:1 2205:1 2317:1 2592:1 2658:1 2682:1 2842:1 2868:1 2912:1 2929:1 2941:1 2945:1 2946:1 3023:1 3081:1 3133:1 3216:1 3248:1 3263:1 3302:1 3312:1 3324:1 3463:1 3479:1 3521:1 3529:1 3687:1 3707:1 3811:1 3834:1 3836:1 3842:1 3878:1 3881:1 3928:1 4032:1 4120:1 4233:1 4284:1 4312:1 4332:1 4422:1 4486:1 4523:1 4534:1 4573:1 4576:1 4609:1 4616:1 4617:1 4618:1 4752:1 4767:1 4769:1 4775:1 4808:1 4876:1 5047:1 5050:1 5109:1 5140:1 5162:1 5316:1 5318:1 5341:1 5366:1 5484:1 5549:1 5558:1 5560:1 5585:1 5675:1 5678:1 5697:1 5747:1 5774:1 5788:1 5879:1 5897:1 5908:1 5936:1 6028:1 6029:1 6174:1 6207:1 6222:1 6226:1 6278:1 6326:1 6345:1 6383:1 6472:1 6495:1 6528:1 6609:1 6781:1 6806:1 6882:1 6906:1 7018:1 7034:1 7051:1 7078:1 7083:1 7100:1 7105:1 7112:1 7246:1 7428:1 7475:1 7549:1 7550:1 7614:1 7713:1 7786:1 7809:1 7879:1 7999:1 8014:1 8167:1 8199:1 8345:1 8422:1 8518:1 8559:1 8598:1 8684:1 8748:1 8801:1 8802:1 8846:1 8936:1 8989:1 9006:1 9014:1 9061:1 9148:1 9180:1 9285:1 9344:1 9449:1 9452:1 9492:1 9497:1 9551:1 9578:1 9583:1 9619:1 9690:1 9703:1 9743:1 9783:1 9784:1 9792:1 9813:1 9820:1 9822:1 9824:1 9833:1 9840:1 9846:1 9915:1 9923:1 9968:1 9986:1 10001:1 10010:1 10089:1 10218:1 10271:1 10339:1 10340:1 10384:1 10441:1 10496:1 10498:1 10545:1 10606:1 10630:1 10644:1 10724:1 10730:1 10769:1 10775:1 10776:1 10791:1 10804:1 10822:1 10998:1 11008:1 11048:1 11083:1 #
