SVM-light Version V6.02
0 # kernel type
3 # kernel parameter -d 
1 # kernel parameter -g 
1 # kernel parameter -s 
1 # kernel parameter -r 
empty# kernel parameter -u 
152 # highest feature index 
100 # number of training documents 
89 # number of support vectors plus 1 
0.26603892 # threshold b, each following line is a SV (starting with alpha*y)
-0.013880844033193017600380514409153 21:1 33:1 36:1 42:1 56:1 59:1 84:1 108:1 149:1 #
-0.11681876708898682182269368468042 56:1 104:1 114:1 125:1 #
-0.10207114927056211428624266090992 71:1 100:1 140:1 152:1 #
-0.10173132501329915089449684728606 19:1 21:1 83:1 120:1 133:1 144:1 148:1 #
-0.1003778763383879613080296167027 7:1 20:1 32:1 41:1 49:1 54:1 68:1 90:1 102:1 135:1 142:1 #
0.11681876708898682182269368468042 1:1 5:1 17:1 36:1 47:1 48:1 135:1 138:1 150:1 151:1 #
0.063693290091335785785275902526337 86:1 101:1 108:1 111:1 129:1 130:1 138:1 150:1 #
0.11681876708898682182269368468042 37:1 58:1 116:1 151:1 #
0.11681876708898682182269368468042 28:1 34:1 53:1 57:1 72:1 88:1 100:1 101:1 107:1 116:1 152:1 #
0.11681876708898682182269368468042 56:1 60:1 74:1 76:1 110:1 #
-0.09352992324516595790129258602974 21:1 48:1 54:1 55:1 58:1 66:1 67:1 80:1 101:1 108:1 111:1 112:1 122:1 123:1 131:1 132:1 135:1 138:1 149:1 150:1 #
-0.11681876708898682182269368468042 1:1 14:1 36:1 43:1 58:1 83:1 103:1 106:1 111:1 121:1 129:1 141:1 151:1 #
-0.11681876708898682182269368468042 1:1 10:1 58:1 67:1 101:1 104:1 112:1 151:1 #
-0.11681876708898682182269368468042 17:1 34:1 42:1 47:1 48:1 60:1 66:1 72:1 112:1 121:1 #
-0.11681876708898682182269368468042 1:1 23:1 25:1 28:1 29:1 52:1 65:1 86:1 107:1 109:1 117:1 139:1 #
0.11681876708898682182269368468042 25:1 28:1 31:1 43:1 49:1 54:1 63:1 131:1 148:1 149:1 #
0.11681876708898682182269368468042 2:1 9:1 21:1 28:1 32:1 40:1 51:1 58:1 65:1 71:1 93:1 100:1 #
0.11681876708898682182269368468042 28:1 31:1 33:1 49:1 52:1 103:1 141:1 142:1 146:1 #
0.11681876708898682182269368468042 7:1 33:1 46:1 60:1 96:1 #
0.11681876708898682182269368468042 10:1 19:1 24:1 28:1 72:1 73:1 148:1 #
-0.11681876708898682182269368468042 2:1 19:1 24:1 34:1 59:1 96:1 98:1 116:1 138:1 #
-0.11681876708898682182269368468042 4:1 8:1 40:1 63:1 82:1 94:1 95:1 106:1 116:1 118:1 138:1 148:1 #
-0.11681876708898682182269368468042 28:1 46:1 69:1 93:1 103:1 126:1 131:1 149:1 #
-0.058512436488160325664953376190169 22:1 24:1 30:1 31:1 54:1 88:1 91:1 93:1 98:1 #
-0.11681876708898682182269368468042 12:1 18:1 28:1 38:1 47:1 89:1 100:1 103:1 #
0.11681876708898682182269368468042 36:1 48:1 49:1 55:1 112:1 129:1 146:1 #
0.0027506711906251347064811252352001 10:1 42:1 52:1 58:1 66:1 69:1 79:1 129:1 131:1 147:1 150:1 152:1 #
0.021946914962465965959204083901568 10:1 25:1 36:1 49:1 86:1 123:1 129:1 135:1 139:1 145:1 #
0.10777136391221346645163947641777 10:1 58:1 67:1 79:1 86:1 145:1 151:1 #
0.11681876708898682182269368468042 49:1 58:1 67:1 123:1 135:1 #
-0.11681876708898682182269368468042 6:1 35:1 51:1 62:1 132:1 135:1 150:1 #
-0.11681876708898682182269368468042 25:1 32:1 41:1 45:1 77:1 97:1 122:1 123:1 140:1 145:1 148:1 150:1 151:1 #
-0.11681876708898682182269368468042 14:1 33:1 49:1 85:1 115:1 #
-0.083443332218701982139208439548383 10:1 12:1 25:1 30:1 34:1 39:1 43:1 53:1 65:1 66:1 110:1 116:1 142:1 144:1 146:1 152:1 #
-0.11681876708898682182269368468042 86:1 145:1 #
0.080964329302601487081680886603863 4:1 22:1 34:1 40:1 79:1 82:1 84:1 111:1 119:1 131:1 #
0.057132741437826213559691979071431 18:1 28:1 34:1 37:1 66:1 93:1 116:1 148:1 149:1 #
0.11681876708898682182269368468042 1:1 52:1 73:1 80:1 116:1 125:1 143:1 #
0.10555800713329216433677970599092 19:1 34:1 36:1 46:1 82:1 86:1 102:1 151:1 #
0.11681876708898682182269368468042 9:1 18:1 32:1 34:1 #
-0.11681876708898682182269368468042 16:1 31:1 82:1 84:1 131:1 143:1 152:1 #
-0.07933761984916419540692089640288 16:1 37:1 44:1 75:1 85:1 86:1 92:1 107:1 113:1 125:1 128:1 143:1 #
-0.11681876708898682182269368468042 8:1 13:1 49:1 52:1 56:1 57:1 93:1 96:1 102:1 120:1 125:1 141:1 #
-0.061399291883117983192885702692365 3:1 6:1 18:1 35:1 46:1 57:1 79:1 94:1 102:1 123:1 125:1 126:1 #
-0.11681876708898682182269368468042 19:1 20:1 24:1 39:1 40:1 79:1 99:1 108:1 131:1 #
0.11681876708898682182269368468042 10:1 19:1 33:1 42:1 57:1 65:1 69:1 80:1 85:1 86:1 94:1 103:1 110:1 111:1 #
0.11681876708898682182269368468042 25:1 31:1 103:1 129:1 #
0.11681876708898682182269368468042 77:1 151:1 152:1 #
0.11681876708898682182269368468042 25:1 51:1 79:1 82:1 109:1 114:1 135:1 150:1 #
-0.11681876708898682182269368468042 4:1 71:1 80:1 114:1 116:1 135:1 143:1 #
-0.11681876708898682182269368468042 29:1 36:1 56:1 63:1 65:1 67:1 90:1 110:1 129:1 152:1 #
-0.10166099321715608982952261385435 5:1 17:1 31:1 33:1 44:1 48:1 53:1 59:1 68:1 71:1 74:1 76:1 109:1 119:1 #
-0.11681876708898682182269368468042 5:1 7:1 9:1 14:1 87:1 114:1 130:1 137:1 #
-0.11681876708898682182269368468042 7:1 10:1 33:1 69:1 106:1 107:1 111:1 123:1 124:1 #
0.11681876708898682182269368468042 3:1 40:1 57:1 63:1 76:1 90:1 93:1 97:1 111:1 112:1 115:1 117:1 123:1 127:1 128:1 129:1 150:1 #
0.11681876708898682182269368468042 35:1 107:1 129:1 148:1 152:1 #
0.11681876708898682182269368468042 2:1 6:1 40:1 58:1 #
0.11681876708898682182269368468042 5:1 21:1 31:1 86:1 92:1 107:1 150:1 #
0.11681876708898682182269368468042 7:1 52:1 114:1 131:1 150:1 #
-0.060333631199926872346050998885403 2:1 24:1 35:1 37:1 41:1 42:1 45:1 46:1 50:1 51:1 61:1 62:1 74:1 76:1 82:1 86:1 105:1 112:1 126:1 128:1 129:1 132:1 147:1 #
-0.11681876708898682182269368468042 22:1 26:1 57:1 72:1 88:1 #
-0.11681876708898682182269368468042 3:1 11:1 35:1 73:1 76:1 107:1 111:1 134:1 140:1 #
-0.11681876708898682182269368468042 34:1 40:1 60:1 68:1 70:1 80:1 109:1 126:1 134:1 #
-0.093347060165292594646757606824394 3:1 12:1 51:1 52:1 73:1 85:1 88:1 90:1 #
0.11681876708898682182269368468042 20:1 74:1 76:1 109:1 111:1 116:1 #
0.11681876708898682182269368468042 13:1 20:1 33:1 43:1 55:1 79:1 111:1 114:1 126:1 129:1 138:1 #
0.11681876708898682182269368468042 19:1 32:1 36:1 69:1 75:1 93:1 99:1 119:1 134:1 151:1 #
0.11681876708898682182269368468042 17:1 34:1 39:1 128:1 129:1 137:1 #
0.11681876708898682182269368468042 151:1 #
-0.11634474366859237637328305936535 10:1 19:1 43:1 64:1 73:1 78:1 113:1 121:1 127:1 128:1 #
-0.096710718371971302054213026622165 11:1 21:1 39:1 71:1 141:1 146:1 150:1 #
0.11681876708898682182269368468042 15:1 27:1 40:1 73:1 99:1 135:1 #
0.076897880947828789466313992306823 7:1 28:1 34:1 49:1 56:1 60:1 63:1 72:1 107:1 #
0.053917933830880171441890524874907 3:1 12:1 28:1 29:1 49:1 52:1 63:1 111:1 116:1 #
0.091419828404181002756700991085381 23:1 24:1 34:1 49:1 63:1 73:1 79:1 135:1 #
-0.11681876708898682182269368468042 20:1 63:1 110:1 142:1 #
-0.11681876708898682182269368468042 6:1 23:1 59:1 61:1 77:1 89:1 114:1 129:1 135:1 #
0.11681876708898682182269368468042 10:1 18:1 29:1 43:1 82:1 110:1 111:1 125:1 129:1 #
0.11681876708898682182269368468042 34:1 76:1 86:1 #
-0.11657359314134073391411305919974 30:1 36:1 64:1 72:1 80:1 97:1 #
-0.033806944971889060780334546052472 3:1 7:1 12:1 13:1 15:1 22:1 27:1 29:1 44:1 52:1 61:1 92:1 130:1 132:1 146:1 151:1 #
-0.061566153033102283265165510783845 17:1 43:1 47:1 65:1 79:1 96:1 99:1 118:1 142:1 145:1 #
-0.041897529434130831305083120241761 3:1 10:1 36:1 106:1 118:1 123:1 148:1 #
0.10108166925602235508563353505451 67:1 79:1 102:1 116:1 129:1 131:1 #
0.012569767916494889448131289100274 3:1 34:1 43:1 48:1 49:1 73:1 93:1 116:1 117:1 #
0.052395986025310224698525729536414 5:1 10:1 49:1 52:1 78:1 80:1 115:1 116:1 129:1 132:1 #
0.027637001663530398609669447296255 3:1 4:1 7:1 37:1 49:1 52:1 86:1 101:1 129:1 145:1 148:1 #
-0.023306055976387223677148696765471 26:1 46:1 60:1 73:1 78:1 100:1 104:1 140:1 #
