SVM-light Version V6.02
0 # kernel type
3 # kernel parameter -d 
1 # kernel parameter -g 
1 # kernel parameter -s 
1 # kernel parameter -r 
empty# kernel parameter -u 
3112 # highest feature index 
1600 # number of training documents 
1175 # number of support vectors plus 1 
-0.090304393 # threshold b, each following line is a SV (starting with alpha*y)
-0.0040362920855857202864780397533195 1:1 2:1 3:1 4:1 5:1 6:1 7:1 8:1 9:1 10:1 11:1 12:1 13:1 14:1 15:1 16:1 17:1 18:1 19:1 20:1 21:1 22:1 23:1 24:1 25:1 26:1 27:1 28:1 29:1 30:1 31:1 32:1 33:1 34:1 35:1 37:1 39:1 40:1 41:1 42:1 43:1 44:1 45:1 46:1 47:1 48:1 49:1 50:1 51:1 52:1 53:1 55:1 56:1 57:1 59:1 61:1 62:1 64:1 65:1 66:1 67:1 68:1 70:1 72:1 73:1 75:1 76:1 80:1 82:1 83:1 85:1 86:1 89:1 91:1 92:1 94:1 95:1 96:1 97:1 98:1 101:1 103:1 104:1 105:1 106:1 107:1 108:1 109:1 110:1 111:1 112:1 113:1 114:1 115:1 116:1 117:1 118:1 120:1 125:1 126:1 128:1 129:1 131:1 132:1 134:1 135:1 137:1 142:1 143:1 146:1 147:1 149:1 152:1 154:1 155:1 156:1 159:1 160:1 161:1 165:1 166:1 174:1 176:1 180:1 181:1 182:1 183:1 184:1 185:1 186:1 190:1 198:1 199:1 202:1 208:1 214:1 216:1 217:1 225:1 226:1 230:1 237:1 249:1 251:1 255:1 258:1 262:1 263:1 264:1 266:1 267:1 268:1 276:1 278:1 287:1 290:1 294:1 302:1 310:1 312:1 314:1 318:1 320:1 330:1 331:1 336:1 337:1 338:1 344:1 346:1 352:1 353:1 354:1 373:1 385:1 393:1 394:1 399:1 405:1 425:1 428:1 431:1 434:1 439:1 449:1 452:1 456:1 467:1 468:1 469:1 477:1 488:1 493:1 523:1 524:1 531:1 533:1 545:1 595:1 604:1 614:1 616:1 617:1 618:1 633:1 641:1 652:1 668:1 675:1 682:1 687:1 699:1 702:1 704:1 711:1 735:1 738:1 761:1 803:1 816:1 856:1 869:1 875:1 877:1 879:1 902:1 912:1 936:1 979:1 1002:1 1014:1 1026:1 1055:1 1065:1 1078:1 1097:1 1098:1 1119:1 1190:1 1274:1 1294:1 1295:1 1296:1 1308:1 1311:1 1312:1 1321:1 1330:1 1366:1 1368:1 1386:1 1414:1 1440:1 1448:1 1451:1 1479:1 1534:1 1535:1 1567:1 1591:1 1615:1 1629:1 1658:1 1706:1 1754:1 1788:1 1799:1 1880:1 1911:1 1913:1 1992:1 2027:1 2098:1 2168:1 2196:1 2250:1 2265:1 2292:1 2319:1 2373:1 2380:1 2406:1 2437:1 2470:1 2604:1 2684:1 2721:1 2855:1 2944:1 2976:1 3026:1 3049:1 #
-0.0040362920855857202864780397533195 1:1 2:1 3:1 4:1 5:1 6:1 7:1 8:1 9:1 10:1 11:1 12:1 13:1 14:1 15:1 17:1 18:1 20:1 22:1 25:1 26:1 28:1 33:1 35:1 36:1 39:1 40:1 41:1 42:1 43:1 45:1 46:1 47:1 49:1 50:1 51:1 52:1 57:1 60:1 61:1 63:1 64:1 66:1 67:1 70:1 72:1 74:1 78:1 81:1 85:1 86:1 98:1 103:1 107:1 112:1 125:1 126:1 132:1 134:1 138:1 140:1 146:1 149:1 150:1 153:1 158:1 161:1 170:1 172:1 174:1 175:1 181:1 193:1 210:1 222:1 231:1 234:1 278:1 294:1 329:1 346:1 405:1 406:1 422:1 452:1 468:1 469:1 474:1 499:1 508:1 515:1 538:1 543:1 617:1 632:1 636:1 643:1 660:1 670:1 674:1 689:1 698:1 787:1 853:1 856:1 920:1 936:1 1031:1 1125:1 1145:1 1339:1 1353:1 1387:1 1490:1 1539:1 1581:1 1631:1 1746:1 1787:1 1871:1 1972:1 1998:1 2031:1 2079:1 2173:1 2209:1 2312:1 2417:1 2589:1 2770:1 2816:1 2817:1 3020:1 3050:1 3068:1 3105:1 #
-0.0037509813966065735577060102912128 1:1 2:1 3:1 4:1 5:1 6:1 7:1 8:1 9:1 10:1 12:1 13:1 14:1 15:1 16:1 17:1 18:1 20:1 21:1 22:1 23:1 24:1 25:1 26:1 27:1 28:1 29:1 30:1 31:1 32:1 33:1 34:1 35:1 37:1 38:1 39:1 41:1 43:1 44:1 46:1 47:1 49:1 50:1 51:1 53:1 54:1 55:1 56:1 57:1 62:1 63:1 64:1 66:1 67:1 68:1 69:1 71:1 73:1 74:1 76:1 80:1 81:1 87:1 89:1 90:1 91:1 92:1 93:1 96:1 97:1 101:1 102:1 103:1 104:1 108:1 111:1 116:1 121:1 123:1 124:1 125:1 132:1 135:1 142:1 143:1 157:1 159:1 162:1 165:1 166:1 167:1 168:1 177:1 180:1 182:1 186:1 192:1 193:1 195:1 205:1 206:1 209:1 210:1 211:1 222:1 234:1 235:1 237:1 243:1 249:1 251:1 252:1 254:1 256:1 274:1 276:1 284:1 286:1 289:1 295:1 302:1 304:1 314:1 332:1 337:1 360:1 367:1 371:1 372:1 374:1 376:1 397:1 398:1 399:1 403:1 416:1 424:1 438:1 441:1 445:1 448:1 456:1 461:1 462:1 472:1 493:1 500:1 516:1 522:1 525:1 533:1 535:1 546:1 559:1 565:1 583:1 596:1 598:1 602:1 628:1 649:1 659:1 661:1 675:1 712:1 764:1 766:1 771:1 792:1 853:1 860:1 865:1 879:1 883:1 884:1 945:1 1000:1 1031:1 1062:1 1075:1 1077:1 1143:1 1171:1 1174:1 1178:1 1202:1 1279:1 1306:1 1331:1 1369:1 1397:1 1399:1 1441:1 1461:1 1507:1 1550:1 1578:1 1593:1 1597:1 1603:1 1609:1 1624:1 1738:1 1815:1 1947:1 1955:1 1965:1 2069:1 2142:1 2189:1 2225:1 2236:1 2402:1 2449:1 2497:1 2602:1 2689:1 2732:1 2833:1 2907:1 2910:1 #
-0.0038197870073621810124708808587002 1:1 2:1 3:1 4:1 5:1 6:1 7:1 8:1 9:1 10:1 11:1 12:1 13:1 14:1 15:1 16:1 17:1 18:1 20:1 21:1 23:1 24:1 25:1 26:1 27:1 28:1 29:1 30:1 31:1 34:1 35:1 36:1 38:1 39:1 40:1 41:1 42:1 43:1 44:1 45:1 46:1 47:1 51:1 53:1 54:1 55:1 57:1 58:1 61:1 63:1 64:1 67:1 68:1 70:1 71:1 72:1 73:1 74:1 75:1 77:1 78:1 79:1 81:1 84:1 86:1 87:1 89:1 90:1 93:1 94:1 96:1 100:1 102:1 104:1 116:1 124:1 129:1 133:1 134:1 144:1 145:1 148:1 158:1 161:1 163:1 167:1 170:1 177:1 180:1 188:1 189:1 192:1 193:1 195:1 202:1 203:1 206:1 208:1 213:1 216:1 219:1 227:1 230:1 236:1 240:1 241:1 258:1 274:1 278:1 281:1 282:1 287:1 293:1 295:1 298:1 306:1 317:1 321:1 322:1 325:1 337:1 343:1 348:1 394:1 402:1 404:1 430:1 432:1 445:1 447:1 467:1 493:1 503:1 507:1 533:1 549:1 570:1 577:1 579:1 591:1 606:1 611:1 615:1 619:1 620:1 628:1 631:1 676:1 678:1 711:1 712:1 812:1 877:1 879:1 880:1 896:1 897:1 930:1 998:1 1008:1 1018:1 1104:1 1114:1 1199:1 1202:1 1223:1 1229:1 1257:1 1284:1 1285:1 1314:1 1354:1 1376:1 1434:1 1454:1 1573:1 1574:1 1575:1 1578:1 1611:1 1642:1 1677:1 1682:1 1693:1 1717:1 1726:1 1810:1 1907:1 1910:1 1980:1 2003:1 2060:1 2197:1 2202:1 2203:1 2313:1 2370:1 2372:1 2409:1 2434:1 2443:1 2519:1 2546:1 2553:1 2631:1 2657:1 2661:1 2702:1 2751:1 2767:1 2779:1 2951:1 2967:1 2990:1 3006:1 #
-0.0040362920855857202864780397533195 1:1 2:1 3:1 4:1 5:1 6:1 7:1 8:1 9:1 10:1 11:1 12:1 13:1 14:1 15:1 16:1 17:1 18:1 19:1 20:1 21:1 22:1 24:1 25:1 26:1 27:1 28:1 29:1 30:1 31:1 32:1 33:1 34:1 35:1 36:1 37:1 38:1 39:1 40:1 41:1 42:1 43:1 44:1 46:1 47:1 48:1 49:1 50:1 51:1 52:1 53:1 54:1 56:1 57:1 58:1 59:1 60:1 61:1 62:1 63:1 64:1 67:1 68:1 69:1 70:1 71:1 72:1 74:1 78:1 79:1 80:1 81:1 82:1 83:1 84:1 87:1 88:1 91:1 92:1 94:1 96:1 97:1 100:1 103:1 104:1 105:1 108:1 110:1 111:1 112:1 117:1 118:1 121:1 122:1 123:1 125:1 126:1 129:1 130:1 132:1 134:1 135:1 138:1 139:1 144:1 145:1 146:1 147:1 150:1 154:1 157:1 160:1 161:1 162:1 163:1 165:1 166:1 167:1 170:1 179:1 183:1 192:1 194:1 197:1 206:1 214:1 221:1 229:1 231:1 234:1 238:1 239:1 242:1 243:1 244:1 247:1 248:1 252:1 256:1 258:1 260:1 261:1 266:1 270:1 273:1 275:1 280:1 283:1 291:1 317:1 324:1 327:1 339:1 355:1 356:1 357:1 358:1 359:1 362:1 367:1 368:1 380:1 382:1 383:1 389:1 394:1 423:1 434:1 441:1 456:1 458:1 463:1 466:1 469:1 487:1 498:1 522:1 525:1 530:1 531:1 532:1 546:1 552:1 559:1 560:1 566:1 572:1 574:1 581:1 582:1 598:1 614:1 623:1 625:1 628:1 646:1 653:1 683:1 706:1 714:1 717:1 721:1 728:1 729:1 733:1 742:1 786:1 804:1 826:1 827:1 865:1 876:1 893:1 905:1 924:1 950:1 1036:1 1042:1 1063:1 1065:1 1115:1 1134:1 1137:1 1150:1 1185:1 1190:1 1197:1 1207:1 1209:1 1224:1 1225:1 1233:1 1282:1 1294:1 1301:1 1319:1 1323:1 1326:1 1334:1 1361:1 1364:1 1380:1 1406:1 1424:1 1457:1 1464:1 1465:1 1513:1 1533:1 1589:1 1616:1 1662:1 1697:1 1743:1 1803:1 1817:1 1835:1 1852:1 1966:1 1979:1 2035:1 2045:1 2075:1 2115:1 2126:1 2204:1 2244:1 2259:1 2278:1 2306:1 2315:1 2341:1 2389:1 2417:1 2439:1 2494:1 2523:1 2574:1 2606:1 2682:1 2757:1 2797:1 2836:1 2839:1 2865:1 2901:1 2903:1 2945:1 3010:1 3055:1 3062:1 #
0.0040362920855857202864780397533195 1:1 2:1 3:1 4:1 5:1 6:1 7:1 8:1 9:1 10:1 11:1 12:1 13:1 14:1 15:1 16:1 17:1 18:1 20:1 21:1 22:1 23:1 24:1 25:1 26:1 27:1 28:1 29:1 30:1 31:1 32:1 34:1 35:1 36:1 37:1 38:1 39:1 40:1 41:1 42:1 43:1 44:1 45:1 46:1 47:1 48:1 50:1 51:1 54:1 55:1 56:1 57:1 58:1 59:1 63:1 65:1 66:1 67:1 69:1 70:1 71:1 72:1 74:1 75:1 76:1 77:1 80:1 81:1 84:1 85:1 86:1 90:1 92:1 93:1 94:1 97:1 98:1 99:1 100:1 101:1 103:1 106:1 107:1 108:1 110:1 113:1 114:1 117:1 120:1 122:1 126:1 128:1 129:1 131:1 133:1 134:1 136:1 138:1 139:1 143:1 145:1 147:1 149:1 150:1 151:1 152:1 154:1 155:1 157:1 161:1 163:1 164:1 165:1 167:1 171:1 178:1 183:1 185:1 187:1 191:1 193:1 195:1 196:1 202:1 203:1 220:1 222:1 226:1 230:1 231:1 233:1 234:1 238:1 240:1 242:1 249:1 252:1 255:1 256:1 269:1 271:1 279:1 291:1 302:1 312:1 313:1 318:1 321:1 323:1 334:1 336:1 340:1 353:1 356:1 360:1 369:1 372:1 380:1 389:1 390:1 396:1 409:1 411:1 419:1 420:1 425:1 443:1 447:1 451:1 459:1 484:1 485:1 489:1 493:1 494:1 495:1 505:1 518:1 519:1 525:1 529:1 530:1 533:1 557:1 562:1 565:1 599:1 605:1 623:1 634:1 635:1 648:1 653:1 657:1 690:1 692:1 707:1 708:1 803:1 813:1 835:1 844:1 848:1 859:1 873:1 876:1 881:1 886:1 890:1 937:1 947:1 953:1 962:1 967:1 968:1 988:1 1006:1 1011:1 1014:1 1021:1 1032:1 1055:1 1068:1 1079:1 1100:1 1102:1 1109:1 1174:1 1194:1 1212:1 1244:1 1278:1 1280:1 1289:1 1315:1 1332:1 1338:1 1349:1 1350:1 1361:1 1364:1 1378:1 1450:1 1483:1 1487:1 1517:1 1525:1 1534:1 1540:1 1541:1 1544:1 1560:1 1575:1 1581:1 1593:1 1609:1 1634:1 1658:1 1660:1 1711:1 1763:1 1764:1 1769:1 1775:1 1805:1 1809:1 1832:1 1848:1 1900:1 1921:1 1929:1 1932:1 2025:1 2066:1 2084:1 2120:1 2154:1 2161:1 2165:1 2191:1 2301:1 2415:1 2430:1 2444:1 2510:1 2515:1 2606:1 2650:1 2805:1 2806:1 2866:1 2869:1 2878:1 2918:1 3012:1 3050:1 3099:1 3109:1 #
0.0040362920855857202864780397533195 1:1 2:1 3:1 4:1 5:1 6:1 7:1 8:1 9:1 10:1 11:1 12:1 13:1 14:1 15:1 16:1 17:1 18:1 19:1 20:1 21:1 22:1 23:1 24:1 25:1 26:1 28:1 29:1 31:1 32:1 33:1 34:1 35:1 36:1 37:1 38:1 39:1 40:1 41:1 42:1 43:1 44:1 45:1 46:1 47:1 50:1 51:1 52:1 53:1 55:1 59:1 62:1 67:1 69:1 70:1 72:1 73:1 75:1 77:1 78:1 80:1 82:1 84:1 90:1 91:1 96:1 97:1 98:1 100:1 102:1 106:1 107:1 108:1 109:1 111:1 114:1 115:1 116:1 117:1 118:1 120:1 126:1 127:1 130:1 131:1 132:1 134:1 147:1 150:1 151:1 154:1 155:1 156:1 158:1 159:1 160:1 162:1 165:1 167:1 168:1 172:1 173:1 174:1 177:1 186:1 188:1 192:1 193:1 197:1 199:1 210:1 213:1 215:1 218:1 221:1 233:1 248:1 250:1 257:1 261:1 265:1 274:1 277:1 281:1 282:1 285:1 291:1 293:1 300:1 303:1 307:1 310:1 317:1 319:1 327:1 364:1 379:1 393:1 403:1 421:1 432:1 434:1 435:1 442:1 443:1 447:1 451:1 458:1 478:1 490:1 494:1 506:1 518:1 524:1 531:1 563:1 583:1 596:1 598:1 600:1 612:1 635:1 654:1 657:1 659:1 691:1 692:1 739:1 742:1 747:1 749:1 761:1 787:1 789:1 797:1 799:1 834:1 851:1 853:1 866:1 869:1 892:1 933:1 996:1 999:1 1016:1 1100:1 1104:1 1148:1 1160:1 1166:1 1167:1 1188:1 1189:1 1235:1 1249:1 1253:1 1254:1 1257:1 1262:1 1327:1 1349:1 1419:1 1423:1 1430:1 1451:1 1502:1 1504:1 1518:1 1523:1 1533:1 1543:1 1584:1 1590:1 1627:1 1656:1 1678:1 1702:1 1741:1 1745:1 1796:1 1798:1 1862:1 1973:1 2010:1 2048:1 2111:1 2147:1 2264:1 2266:1 2326:1 2359:1 2411:1 2484:1 2534:1 2540:1 2582:1 2586:1 2635:1 2720:1 2738:1 2921:1 2950:1 #
0.0040362920855857202864780397533195 1:1 2:1 3:1 4:1 5:1 6:1 7:1 8:1 9:1 10:1 12:1 13:1 14:1 15:1 16:1 17:1 18:1 20:1 21:1 23:1 24:1 26:1 27:1 28:1 29:1 31:1 32:1 33:1 35:1 36:1 37:1 38:1 39:1 41:1 42:1 43:1 44:1 45:1 46:1 47:1 48:1 49:1 50:1 51:1 52:1 55:1 56:1 57:1 60:1 62:1 63:1 67:1 68:1 69:1 70:1 72:1 74:1 78:1 80:1 81:1 84:1 86:1 87:1 91:1 93:1 97:1 98:1 99:1 100:1 101:1 102:1 103:1 106:1 107:1 108:1 118:1 119:1 126:1 127:1 128:1 131:1 132:1 139:1 144:1 153:1 156:1 158:1 164:1 165:1 170:1 172:1 175:1 180:1 183:1 186:1 197:1 200:1 205:1 206:1 213:1 214:1 215:1 217:1 220:1 222:1 227:1 229:1 234:1 236:1 240:1 243:1 248:1 252:1 270:1 283:1 290:1 294:1 322:1 324:1 330:1 336:1 342:1 349:1 352:1 366:1 368:1 375:1 379:1 381:1 389:1 402:1 407:1 411:1 419:1 424:1 463:1 472:1 482:1 494:1 496:1 508:1 509:1 535:1 563:1 578:1 591:1 599:1 608:1 610:1 636:1 656:1 657:1 669:1 682:1 709:1 712:1 727:1 740:1 753:1 762:1 771:1 800:1 816:1 870:1 889:1 915:1 926:1 987:1 1089:1 1138:1 1178:1 1188:1 1194:1 1206:1 1208:1 1216:1 1217:1 1235:1 1258:1 1266:1 1285:1 1385:1 1454:1 1455:1 1490:1 1521:1 1634:1 1635:1 1662:1 1775:1 1900:1 1963:1 1990:1 2011:1 2018:1 2078:1 2222:1 2251:1 2261:1 2336:1 2345:1 2436:1 2458:1 2470:1 2551:1 2584:1 2731:1 2758:1 2897:1 2918:1 3040:1 3100:1 #
0.0030597837947440283470901256634988 1:1 2:1 3:1 4:1 5:1 6:1 7:1 8:1 9:1 10:1 11:1 12:1 13:1 14:1 15:1 16:1 17:1 18:1 19:1 20:1 21:1 22:1 25:1 27:1 28:1 29:1 30:1 32:1 33:1 34:1 35:1 36:1 37:1 38:1 39:1 40:1 42:1 43:1 44:1 45:1 46:1 48:1 49:1 50:1 51:1 54:1 55:1 56:1 57:1 60:1 61:1 62:1 64:1 66:1 68:1 70:1 72:1 74:1 77:1 78:1 81:1 82:1 89:1 92:1 94:1 101:1 102:1 103:1 104:1 105:1 107:1 109:1 111:1 112:1 113:1 115:1 118:1 121:1 123:1 129:1 130:1 131:1 132:1 135:1 139:1 142:1 144:1 145:1 146:1 148:1 153:1 160:1 161:1 168:1 169:1 172:1 179:1 187:1 189:1 190:1 191:1 193:1 198:1 212:1 215:1 223:1 227:1 244:1 249:1 251:1 256:1 260:1 261:1 266:1 270:1 277:1 279:1 314:1 319:1 324:1 325:1 332:1 361:1 381:1 382:1 455:1 470:1 471:1 474:1 482:1 513:1 520:1 525:1 554:1 594:1 597:1 598:1 603:1 608:1 622:1 625:1 630:1 633:1 651:1 664:1 688:1 689:1 709:1 736:1 742:1 751:1 754:1 755:1 805:1 839:1 869:1 882:1 905:1 923:1 956:1 979:1 1004:1 1047:1 1078:1 1079:1 1095:1 1100:1 1186:1 1231:1 1238:1 1332:1 1346:1 1373:1 1383:1 1389:1 1415:1 1453:1 1459:1 1488:1 1496:1 1536:1 1633:1 1714:1 1739:1 1802:1 1812:1 1830:1 1839:1 2014:1 2201:1 2240:1 2342:1 2399:1 2479:1 2637:1 2678:1 2717:1 2787:1 2912:1 2962:1 3005:1 #
0.0040362920855857202864780397533195 1:1 2:1 3:1 4:1 5:1 6:1 7:1 8:1 9:1 10:1 11:1 13:1 14:1 15:1 16:1 17:1 18:1 19:1 20:1 21:1 22:1 23:1 24:1 25:1 26:1 27:1 28:1 29:1 30:1 31:1 32:1 33:1 34:1 35:1 36:1 37:1 38:1 39:1 40:1 44:1 45:1 46:1 47:1 48:1 50:1 52:1 55:1 56:1 57:1 59:1 61:1 62:1 63:1 64:1 65:1 67:1 68:1 69:1 70:1 71:1 79:1 81:1 82:1 83:1 89:1 91:1 93:1 94:1 95:1 99:1 102:1 106:1 107:1 108:1 110:1 111:1 119:1 120:1 123:1 127:1 128:1 129:1 132:1 133:1 135:1 142:1 143:1 144:1 145:1 149:1 157:1 159:1 160:1 164:1 165:1 167:1 169:1 172:1 180:1 181:1 182:1 186:1 190:1 191:1 194:1 203:1 204:1 205:1 207:1 216:1 218:1 223:1 227:1 230:1 231:1 235:1 243:1 250:1 258:1 260:1 272:1 279:1 285:1 292:1 294:1 295:1 307:1 313:1 316:1 322:1 325:1 328:1 338:1 354:1 383:1 390:1 410:1 422:1 428:1 429:1 457:1 460:1 466:1 470:1 474:1 476:1 490:1 493:1 504:1 505:1 514:1 515:1 516:1 523:1 526:1 545:1 610:1 612:1 620:1 636:1 665:1 673:1 678:1 685:1 701:1 705:1 747:1 796:1 803:1 811:1 828:1 836:1 847:1 860:1 873:1 878:1 887:1 888:1 895:1 936:1 938:1 968:1 990:1 1022:1 1061:1 1088:1 1096:1 1110:1 1132:1 1140:1 1206:1 1216:1 1244:1 1289:1 1295:1 1326:1 1351:1 1398:1 1483:1 1606:1 1668:1 1739:1 1772:1 1773:1 1777:1 1813:1 1882:1 1930:1 1940:1 1954:1 2042:1 2089:1 2160:1 2187:1 2257:1 2284:1 2304:1 2387:1 2449:1 2518:1 2520:1 2554:1 2563:1 2609:1 2615:1 2623:1 2665:1 2793:1 2800:1 2812:1 2856:1 2887:1 2913:1 2918:1 2941:1 2950:1 2980:1 #
-0.0040362920855857202864780397533195 1:1 2:1 3:1 4:1 5:1 6:1 7:1 8:1 9:1 10:1 11:1 12:1 13:1 14:1 15:1 16:1 17:1 18:1 19:1 20:1 21:1 22:1 23:1 24:1 25:1 26:1 27:1 28:1 29:1 30:1 31:1 32:1 34:1 36:1 37:1 38:1 39:1 40:1 41:1 42:1 43:1 45:1 46:1 47:1 48:1 50:1 51:1 52:1 53:1 54:1 55:1 56:1 58:1 59:1 60:1 61:1 62:1 63:1 64:1 65:1 66:1 67:1 68:1 70:1 71:1 72:1 73:1 74:1 75:1 76:1 77:1 78:1 80:1 81:1 82:1 83:1 84:1 86:1 87:1 88:1 89:1 92:1 93:1 94:1 97:1 98:1 99:1 100:1 101:1 102:1 103:1 104:1 105:1 106:1 107:1 108:1 111:1 112:1 114:1 118:1 120:1 122:1 124:1 125:1 126:1 127:1 128:1 129:1 130:1 132:1 133:1 137:1 138:1 140:1 142:1 143:1 145:1 147:1 148:1 151:1 152:1 153:1 154:1 155:1 156:1 157:1 158:1 159:1 160:1 163:1 164:1 165:1 167:1 169:1 171:1 172:1 173:1 174:1 175:1 176:1 179:1 182:1 185:1 189:1 190:1 191:1 192:1 193:1 194:1 199:1 201:1 203:1 204:1 207:1 208:1 209:1 210:1 212:1 215:1 216:1 217:1 218:1 219:1 220:1 221:1 223:1 226:1 234:1 238:1 240:1 243:1 248:1 254:1 258:1 262:1 265:1 268:1 271:1 274:1 275:1 282:1 283:1 291:1 293:1 300:1 301:1 307:1 309:1 313:1 316:1 317:1 320:1 321:1 323:1 326:1 327:1 330:1 332:1 336:1 337:1 338:1 341:1 342:1 344:1 347:1 348:1 349:1 352:1 362:1 363:1 365:1 377:1 380:1 381:1 384:1 385:1 387:1 389:1 403:1 406:1 410:1 414:1 415:1 419:1 420:1 422:1 424:1 428:1 433:1 438:1 440:1 443:1 452:1 457:1 459:1 466:1 470:1 477:1 483:1 494:1 495:1 510:1 511:1 512:1 518:1 519:1 535:1 540:1 546:1 557:1 560:1 573:1 575:1 579:1 585:1 586:1 598:1 600:1 615:1 623:1 627:1 631:1 641:1 642:1 649:1 652:1 656:1 657:1 660:1 665:1 666:1 668:1 672:1 678:1 688:1 691:1 692:1 701:1 709:1 714:1 716:1 722:1 728:1 744:1 750:1 751:1 760:1 762:1 770:1 773:1 781:1 783:1 794:1 809:1 813:1 822:1 823:1 834:1 838:1 845:1 850:1 851:1 868:1 871:1 873:1 887:1 917:1 919:1 921:1 923:1 925:1 935:1 936:1 953:1 981:1 983:1 985:1 994:1 1001:1 1003:1 1007:1 1020:1 1030:1 1040:1 1079:1 1086:1 1091:1 1097:1 1104:1 1105:1 1107:1 1123:1 1128:1 1140:1 1161:1 1172:1 1184:1 1185:1 1209:1 1227:1 1237:1 1240:1 1243:1 1252:1 1257:1 1276:1 1284:1 1315:1 1330:1 1334:1 1371:1 1376:1 1390:1 1410:1 1432:1 1433:1 1438:1 1481:1 1491:1 1505:1 1511:1 1529:1 1531:1 1541:1 1558:1 1570:1 1584:1 1604:1 1620:1 1624:1 1633:1 1635:1 1661:1 1716:1 1733:1 1759:1 1772:1 1773:1 1779:1 1800:1 1804:1 1809:1 1834:1 1872:1 1903:1 1917:1 1920:1 1943:1 1984:1 1991:1 2000:1 2010:1 2027:1 2030:1 2053:1 2076:1 2086:1 2100:1 2120:1 2176:1 2178:1 2184:1 2197:1 2215:1 2226:1 2243:1 2250:1 2291:1 2293:1 2323:1 2331:1 2378:1 2383:1 2433:1 2436:1 2452:1 2494:1 2505:1 2524:1 2549:1 2571:1 2587:1 2592:1 2597:1 2642:1 2698:1 2732:1 2753:1 2828:1 2831:1 2860:1 2878:1 2925:1 2995:1 3009:1 3030:1 3078:1 3081:1 3095:1 3103:1 3107:1 #
-0.002890930228486617969280159101686 1:1 2:1 3:1 4:1 5:1 6:1 7:1 8:1 9:1 10:1 11:1 12:1 13:1 14:1 15:1 16:1 17:1 18:1 19:1 20:1 21:1 22:1 23:1 24:1 25:1 26:1 27:1 29:1 30:1 31:1 32:1 33:1 34:1 35:1 36:1 37:1 38:1 39:1 40:1 41:1 43:1 45:1 46:1 47:1 48:1 49:1 50:1 51:1 52:1 53:1 54:1 55:1 56:1 59:1 60:1 61:1 62:1 63:1 64:1 65:1 67:1 68:1 69:1 70:1 73:1 74:1 75:1 77:1 78:1 79:1 80:1 82:1 84:1 86:1 90:1 91:1 92:1 94:1 96:1 97:1 100:1 101:1 105:1 106:1 107:1 108:1 109:1 110:1 113:1 117:1 118:1 119:1 120:1 121:1 122:1 123:1 126:1 127:1 128:1 129:1 131:1 133:1 135:1 137:1 138:1 139:1 140:1 141:1 142:1 143:1 147:1 151:1 152:1 155:1 156:1 159:1 162:1 164:1 168:1 169:1 171:1 172:1 175:1 177:1 178:1 182:1 184:1 185:1 186:1 189:1 202:1 203:1 204:1 205:1 209:1 212:1 213:1 214:1 217:1 221:1 223:1 224:1 225:1 226:1 232:1 236:1 238:1 242:1 244:1 247:1 248:1 250:1 251:1 256:1 259:1 260:1 269:1 271:1 274:1 276:1 279:1 284:1 289:1 295:1 297:1 300:1 305:1 308:1 314:1 316:1 324:1 325:1 331:1 334:1 338:1 343:1 347:1 355:1 356:1 359:1 363:1 364:1 369:1 377:1 379:1 398:1 402:1 419:1 423:1 425:1 430:1 436:1 437:1 440:1 453:1 458:1 464:1 465:1 474:1 475:1 477:1 497:1 502:1 507:1 523:1 533:1 541:1 544:1 554:1 580:1 582:1 583:1 594:1 605:1 606:1 610:1 624:1 638:1 639:1 656:1 666:1 684:1 686:1 690:1 713:1 715:1 722:1 739:1 748:1 770:1 814:1 829:1 835:1 839:1 842:1 843:1 851:1 858:1 873:1 874:1 886:1 890:1 894:1 896:1 897:1 929:1 938:1 957:1 966:1 989:1 1008:1 1014:1 1035:1 1058:1 1096:1 1099:1 1130:1 1134:1 1150:1 1156:1 1179:1 1195:1 1197:1 1198:1 1201:1 1211:1 1215:1 1225:1 1234:1 1241:1 1249:1 1259:1 1267:1 1277:1 1282:1 1296:1 1311:1 1312:1 1315:1 1333:1 1362:1 1371:1 1378:1 1391:1 1396:1 1405:1 1408:1 1417:1 1421:1 1456:1 1483:1 1495:1 1508:1 1529:1 1567:1 1570:1 1579:1 1582:1 1593:1 1634:1 1638:1 1726:1 1727:1 1741:1 1825:1 1841:1 1843:1 1854:1 1871:1 1902:1 1903:1 1914:1 1969:1 1982:1 2019:1 2049:1 2078:1 2125:1 2159:1 2165:1 2199:1 2203:1 2214:1 2296:1 2305:1 2327:1 2364:1 2370:1 2372:1 2424:1 2484:1 2496:1 2541:1 2586:1 2718:1 2757:1 2762:1 2791:1 2795:1 2882:1 2908:1 2920:1 2935:1 2968:1 2976:1 2986:1 3044:1 3075:1 #
-0.0034899199476835962747955921514631 1:1 2:1 3:1 4:1 5:1 6:1 7:1 8:1 9:1 10:1 11:1 12:1 13:1 14:1 15:1 16:1 17:1 18:1 19:1 20:1 21:1 22:1 23:1 24:1 25:1 26:1 27:1 28:1 29:1 30:1 31:1 32:1 33:1 34:1 35:1 36:1 37:1 38:1 39:1 40:1 41:1 42:1 43:1 44:1 45:1 46:1 47:1 48:1 50:1 51:1 52:1 53:1 55:1 56:1 58:1 59:1 60:1 62:1 63:1 68:1 69:1 70:1 71:1 72:1 76:1 77:1 79:1 80:1 81:1 84:1 85:1 90:1 91:1 92:1 94:1 95:1 99:1 100:1 101:1 102:1 107:1 108:1 109:1 110:1 111:1 115:1 116:1 117:1 118:1 119:1 123:1 124:1 125:1 126:1 129:1 130:1 131:1 132:1 133:1 134:1 136:1 137:1 142:1 143:1 144:1 145:1 149:1 150:1 151:1 156:1 157:1 158:1 159:1 160:1 164:1 168:1 172:1 176:1 178:1 179:1 180:1 181:1 182:1 184:1 186:1 187:1 189:1 190:1 191:1 194:1 201:1 202:1 204:1 206:1 209:1 211:1 214:1 215:1 217:1 221:1 222:1 224:1 225:1 226:1 228:1 231:1 233:1 244:1 250:1 252:1 255:1 258:1 260:1 261:1 269:1 272:1 290:1 295:1 297:1 298:1 304:1 307:1 308:1 309:1 310:1 322:1 331:1 339:1 346:1 351:1 353:1 355:1 364:1 368:1 374:1 378:1 387:1 397:1 408:1 414:1 418:1 426:1 428:1 430:1 436:1 439:1 443:1 444:1 447:1 449:1 452:1 455:1 465:1 471:1 474:1 494:1 502:1 513:1 520:1 524:1 536:1 537:1 547:1 552:1 558:1 562:1 563:1 567:1 575:1 580:1 586:1 606:1 621:1 628:1 638:1 682:1 684:1 691:1 696:1 713:1 724:1 765:1 782:1 801:1 808:1 813:1 815:1 827:1 844:1 852:1 885:1 917:1 933:1 978:1 979:1 983:1 995:1 1003:1 1036:1 1046:1 1056:1 1086:1 1152:1 1163:1 1183:1 1191:1 1238:1 1276:1 1283:1 1311:1 1359:1 1362:1 1375:1 1450:1 1451:1 1468:1 1485:1 1574:1 1625:1 1643:1 1651:1 1661:1 1664:1 1696:1 1755:1 1761:1 1768:1 1777:1 1781:1 1812:1 1842:1 1929:1 1939:1 1946:1 1992:1 2021:1 2026:1 2049:1 2066:1 2124:1 2128:1 2132:1 2181:1 2193:1 2275:1 2295:1 2312:1 2353:1 2365:1 2378:1 2379:1 2395:1 2409:1 2428:1 2453:1 2490:1 2538:1 2609:1 2702:1 2771:1 2777:1 2819:1 2918:1 2945:1 #
-0.0010776044182323829892511390937671 1:1 2:1 3:1 4:1 5:1 6:1 7:1 8:1 9:1 10:1 11:1 12:1 13:1 14:1 15:1 16:1 17:1 18:1 19:1 20:1 21:1 22:1 23:1 24:1 25:1 26:1 27:1 28:1 29:1 30:1 31:1 32:1 33:1 34:1 35:1 36:1 37:1 38:1 39:1 40:1 43:1 44:1 45:1 46:1 47:1 48:1 49:1 51:1 53:1 54:1 56:1 57:1 60:1 62:1 63:1 66:1 67:1 71:1 72:1 73:1 74:1 76:1 77:1 79:1 80:1 81:1 82:1 84:1 85:1 87:1 92:1 94:1 96:1 111:1 114:1 117:1 119:1 121:1 127:1 134:1 135:1 136:1 138:1 143:1 144:1 148:1 153:1 169:1 172:1 181:1 183:1 187:1 189:1 199:1 205:1 212:1 215:1 224:1 225:1 233:1 266:1 274:1 285:1 288:1 290:1 292:1 305:1 306:1 312:1 314:1 316:1 333:1 340:1 369:1 374:1 376:1 388:1 390:1 404:1 406:1 413:1 416:1 421:1 424:1 450:1 451:1 466:1 494:1 497:1 499:1 503:1 512:1 519:1 525:1 543:1 559:1 566:1 567:1 571:1 580:1 595:1 601:1 616:1 618:1 622:1 708:1 712:1 772:1 781:1 849:1 874:1 907:1 949:1 962:1 969:1 975:1 990:1 1005:1 1063:1 1073:1 1075:1 1095:1 1135:1 1156:1 1174:1 1198:1 1240:1 1283:1 1340:1 1381:1 1442:1 1484:1 1489:1 1507:1 1602:1 1609:1 1634:1 1652:1 1705:1 1755:1 1776:1 1782:1 1820:1 1876:1 1907:1 1947:1 1960:1 1965:1 2112:1 2117:1 2128:1 2149:1 2162:1 2202:1 2315:1 2363:1 2518:1 2534:1 2540:1 2663:1 2672:1 2685:1 2754:1 2886:1 2939:1 3000:1 3033:1 #
-0.0012852962450164455085466208572598 1:1 2:1 3:1 4:1 5:1 6:1 7:1 8:1 9:1 10:1 11:1 12:1 13:1 14:1 15:1 16:1 17:1 18:1 19:1 20:1 21:1 22:1 23:1 24:1 25:1 26:1 27:1 28:1 29:1 30:1 31:1 32:1 33:1 34:1 35:1 36:1 37:1 38:1 39:1 40:1 41:1 43:1 44:1 45:1 46:1 47:1 48:1 49:1 50:1 51:1 52:1 53:1 54:1 55:1 56:1 57:1 58:1 59:1 60:1 61:1 62:1 63:1 64:1 65:1 66:1 67:1 68:1 69:1 70:1 71:1 72:1 73:1 75:1 76:1 77:1 78:1 79:1 80:1 81:1 82:1 83:1 84:1 85:1 87:1 88:1 89:1 90:1 92:1 96:1 97:1 99:1 100:1 101:1 102:1 103:1 104:1 105:1 106:1 107:1 111:1 112:1 114:1 115:1 117:1 118:1 119:1 121:1 122:1 123:1 126:1 127:1 128:1 131:1 133:1 134:1 136:1 138:1 139:1 142:1 143:1 144:1 145:1 146:1 147:1 149:1 150:1 151:1 153:1 154:1 156:1 159:1 163:1 164:1 165:1 167:1 169:1 174:1 175:1 176:1 178:1 179:1 180:1 182:1 187:1 188:1 189:1 191:1 192:1 193:1 195:1 200:1 201:1 202:1 203:1 205:1 208:1 210:1 214:1 216:1 223:1 226:1 228:1 230:1 232:1 234:1 235:1 236:1 239:1 242:1 248:1 252:1 254:1 256:1 257:1 259:1 262:1 263:1 264:1 265:1 267:1 269:1 273:1 279:1 288:1 292:1 300:1 310:1 312:1 313:1 321:1 323:1 324:1 327:1 328:1 335:1 336:1 338:1 340:1 343:1 344:1 348:1 359:1 362:1 366:1 369:1 374:1 375:1 378:1 384:1 387:1 389:1 390:1 393:1 395:1 399:1 405:1 407:1 408:1 410:1 415:1 431:1 440:1 441:1 447:1 448:1 450:1 452:1 458:1 460:1 462:1 463:1 465:1 467:1 472:1 478:1 487:1 488:1 492:1 496:1 502:1 505:1 511:1 512:1 514:1 517:1 523:1 529:1 530:1 539:1 552:1 558:1 561:1 562:1 570:1 571:1 585:1 588:1 591:1 594:1 601:1 604:1 606:1 634:1 640:1 652:1 654:1 659:1 664:1 665:1 672:1 685:1 688:1 693:1 694:1 708:1 722:1 730:1 734:1 738:1 742:1 751:1 752:1 753:1 760:1 764:1 768:1 771:1 774:1 775:1 791:1 792:1 797:1 798:1 807:1 813:1 819:1 841:1 843:1 850:1 859:1 874:1 879:1 886:1 903:1 905:1 906:1 908:1 915:1 916:1 922:1 933:1 957:1 962:1 967:1 969:1 972:1 992:1 1003:1 1008:1 1014:1 1015:1 1030:1 1040:1 1044:1 1052:1 1064:1 1076:1 1079:1 1086:1 1087:1 1089:1 1104:1 1105:1 1121:1 1141:1 1145:1 1158:1 1162:1 1168:1 1174:1 1179:1 1199:1 1202:1 1206:1 1214:1 1218:1 1230:1 1255:1 1274:1 1275:1 1291:1 1299:1 1300:1 1332:1 1359:1 1366:1 1391:1 1443:1 1451:1 1467:1 1480:1 1489:1 1509:1 1569:1 1572:1 1574:1 1596:1 1617:1 1641:1 1643:1 1659:1 1666:1 1706:1 1707:1 1742:1 1752:1 1778:1 1823:1 1828:1 1852:1 1943:1 1969:1 1973:1 1974:1 1994:1 2021:1 2029:1 2048:1 2095:1 2124:1 2214:1 2245:1 2262:1 2301:1 2310:1 2336:1 2364:1 2375:1 2387:1 2396:1 2429:1 2470:1 2486:1 2488:1 2498:1 2526:1 2533:1 2542:1 2587:1 2621:1 2691:1 2710:1 2714:1 2768:1 2771:1 2845:1 2857:1 2915:1 2945:1 2966:1 2973:1 2985:1 3016:1 3047:1 3095:1 #
0.0031177277384708454964490353944484 1:1 2:1 3:1 4:1 5:1 6:1 7:1 8:1 9:1 10:1 11:1 12:1 13:1 14:1 15:1 16:1 17:1 18:1 19:1 20:1 21:1 22:1 23:1 24:1 25:1 27:1 28:1 30:1 32:1 33:1 34:1 35:1 36:1 37:1 39:1 40:1 41:1 43:1 44:1 47:1 49:1 51:1 53:1 54:1 56:1 57:1 58:1 59:1 60:1 61:1 63:1 65:1 66:1 67:1 71:1 72:1 73:1 74:1 75:1 76:1 77:1 80:1 81:1 82:1 83:1 84:1 85:1 86:1 87:1 93:1 94:1 95:1 96:1 97:1 100:1 103:1 110:1 111:1 113:1 114:1 115:1 116:1 118:1 119:1 120:1 121:1 123:1 125:1 128:1 129:1 133:1 134:1 135:1 138:1 139:1 146:1 148:1 151:1 153:1 155:1 159:1 161:1 162:1 163:1 164:1 167:1 169:1 170:1 171:1 175:1 177:1 181:1 190:1 191:1 193:1 194:1 196:1 198:1 199:1 200:1 211:1 214:1 217:1 220:1 228:1 229:1 232:1 238:1 241:1 242:1 247:1 249:1 257:1 258:1 274:1 275:1 278:1 283:1 286:1 287:1 291:1 295:1 302:1 303:1 304:1 308:1 319:1 321:1 322:1 349:1 371:1 372:1 377:1 381:1 387:1 403:1 409:1 414:1 423:1 432:1 439:1 442:1 464:1 466:1 472:1 482:1 524:1 525:1 531:1 535:1 552:1 569:1 583:1 586:1 587:1 588:1 616:1 658:1 659:1 661:1 682:1 692:1 693:1 697:1 704:1 711:1 719:1 732:1 783:1 793:1 801:1 820:1 835:1 837:1 844:1 851:1 865:1 883:1 912:1 914:1 928:1 932:1 942:1 944:1 963:1 979:1 996:1 1026:1 1027:1 1055:1 1087:1 1141:1 1142:1 1162:1 1177:1 1226:1 1243:1 1246:1 1260:1 1330:1 1344:1 1425:1 1497:1 1520:1 1524:1 1580:1 1641:1 1766:1 1774:1 1867:1 1914:1 1983:1 2028:1 2116:1 2133:1 2168:1 2197:1 2207:1 2294:1 2302:1 2373:1 2386:1 2404:1 2415:1 2421:1 2478:1 2664:1 2684:1 2715:1 2752:1 2797:1 2864:1 2912:1 3006:1 3030:1 #
0.0040362920855857202864780397533195 1:1 2:1 3:1 4:1 5:1 6:1 7:1 8:1 9:1 10:1 11:1 12:1 13:1 14:1 15:1 16:1 17:1 18:1 19:1 21:1 22:1 23:1 24:1 25:1 27:1 29:1 31:1 33:1 34:1 36:1 38:1 39:1 43:1 49:1 50:1 53:1 57:1 59:1 60:1 62:1 66:1 67:1 71:1 75:1 79:1 81:1 82:1 83:1 88:1 89:1 92:1 95:1 104:1 105:1 118:1 121:1 124:1 130:1 131:1 134:1 136:1 138:1 143:1 149:1 155:1 158:1 163:1 169:1 173:1 177:1 180:1 182:1 184:1 201:1 204:1 221:1 228:1 241:1 248:1 249:1 258:1 261:1 264:1 306:1 312:1 316:1 325:1 340:1 352:1 356:1 357:1 369:1 399:1 401:1 438:1 455:1 468:1 471:1 503:1 517:1 540:1 574:1 582:1 603:1 624:1 661:1 673:1 686:1 689:1 697:1 705:1 714:1 751:1 781:1 784:1 849:1 881:1 945:1 977:1 982:1 983:1 984:1 995:1 998:1 1117:1 1336:1 1431:1 1438:1 1491:1 1511:1 1512:1 1674:1 1684:1 1718:1 1740:1 1802:1 1817:1 1906:1 1910:1 1918:1 1942:1 1979:1 2051:1 2190:1 2203:1 2230:1 2274:1 2291:1 2661:1 2674:1 2702:1 2710:1 2931:1 3008:1 #
0.0002340717628539678500480814005158 1:1 2:1 3:1 4:1 5:1 6:1 7:1 8:1 9:1 10:1 12:1 13:1 14:1 15:1 16:1 17:1 18:1 19:1 20:1 22:1 23:1 25:1 26:1 27:1 30:1 33:1 35:1 37:1 39:1 40:1 41:1 42:1 43:1 44:1 45:1 47:1 48:1 49:1 51:1 52:1 55:1 56:1 59:1 61:1 63:1 65:1 68:1 70:1 71:1 72:1 73:1 74:1 77:1 88:1 97:1 102:1 104:1 106:1 109:1 112:1 113:1 119:1 121:1 122:1 125:1 126:1 133:1 147:1 152:1 161:1 162:1 170:1 174:1 181:1 192:1 193:1 196:1 206:1 217:1 218:1 221:1 224:1 248:1 259:1 269:1 276:1 283:1 297:1 298:1 301:1 302:1 304:1 312:1 314:1 319:1 328:1 359:1 382:1 404:1 407:1 430:1 446:1 464:1 477:1 500:1 570:1 582:1 636:1 639:1 657:1 689:1 713:1 723:1 734:1 743:1 758:1 759:1 760:1 761:1 772:1 808:1 839:1 875:1 931:1 974:1 1004:1 1014:1 1026:1 1069:1 1078:1 1121:1 1137:1 1182:1 1276:1 1310:1 1313:1 1406:1 1441:1 1479:1 1484:1 1575:1 1660:1 1677:1 1777:1 1798:1 1819:1 1830:1 1963:1 1979:1 2081:1 2202:1 2281:1 2318:1 2364:1 2435:1 2448:1 2465:1 2477:1 2635:1 2944:1 #
0.00062109637335434854030213891462608 1:1 2:1 3:1 4:1 5:1 6:1 7:1 8:1 9:1 10:1 11:1 12:1 13:1 14:1 15:1 16:1 17:1 18:1 19:1 21:1 22:1 23:1 24:1 25:1 26:1 27:1 28:1 29:1 31:1 32:1 33:1 34:1 35:1 37:1 38:1 39:1 40:1 41:1 42:1 43:1 44:1 45:1 46:1 47:1 49:1 51:1 53:1 54:1 55:1 57:1 58:1 59:1 63:1 64:1 65:1 66:1 67:1 68:1 72:1 74:1 75:1 77:1 78:1 82:1 84:1 85:1 86:1 87:1 89:1 91:1 93:1 95:1 96:1 97:1 98:1 101:1 103:1 108:1 109:1 112:1 114:1 115:1 117:1 118:1 124:1 126:1 128:1 130:1 134:1 136:1 140:1 143:1 146:1 149:1 151:1 152:1 153:1 155:1 158:1 160:1 161:1 162:1 163:1 165:1 167:1 169:1 179:1 180:1 181:1 183:1 184:1 185:1 188:1 190:1 193:1 198:1 200:1 202:1 204:1 211:1 215:1 218:1 223:1 224:1 225:1 226:1 228:1 233:1 235:1 246:1 256:1 257:1 259:1 261:1 266:1 273:1 283:1 296:1 303:1 310:1 312:1 314:1 326:1 327:1 330:1 333:1 334:1 342:1 347:1 349:1 351:1 358:1 367:1 371:1 373:1 391:1 394:1 396:1 401:1 402:1 406:1 409:1 412:1 413:1 414:1 420:1 424:1 425:1 427:1 438:1 439:1 456:1 462:1 466:1 467:1 481:1 503:1 507:1 508:1 512:1 513:1 517:1 521:1 527:1 530:1 555:1 558:1 572:1 574:1 577:1 582:1 597:1 598:1 618:1 619:1 622:1 624:1 630:1 632:1 637:1 641:1 661:1 663:1 668:1 671:1 689:1 695:1 700:1 706:1 711:1 719:1 734:1 744:1 745:1 774:1 784:1 808:1 810:1 812:1 815:1 823:1 827:1 849:1 857:1 866:1 867:1 881:1 894:1 912:1 931:1 965:1 998:1 1008:1 1025:1 1030:1 1034:1 1042:1 1054:1 1075:1 1078:1 1088:1 1092:1 1099:1 1111:1 1130:1 1182:1 1183:1 1210:1 1217:1 1268:1 1291:1 1297:1 1304:1 1307:1 1321:1 1322:1 1325:1 1340:1 1344:1 1365:1 1367:1 1388:1 1409:1 1416:1 1431:1 1434:1 1450:1 1514:1 1520:1 1530:1 1597:1 1618:1 1629:1 1642:1 1667:1 1684:1 1718:1 1759:1 1770:1 1783:1 1831:1 1844:1 1876:1 1910:1 1918:1 1965:1 2014:1 2019:1 2050:1 2051:1 2144:1 2152:1 2197:1 2227:1 2269:1 2272:1 2274:1 2314:1 2346:1 2386:1 2394:1 2448:1 2485:1 2551:1 2610:1 2651:1 2719:1 2726:1 2751:1 2767:1 2851:1 2931:1 3006:1 3042:1 #
0.0040362920855857202864780397533195 1:1 2:1 3:1 4:1 5:1 6:1 7:1 8:1 9:1 10:1 11:1 12:1 13:1 14:1 15:1 16:1 17:1 18:1 20:1 21:1 23:1 24:1 25:1 26:1 27:1 28:1 29:1 31:1 33:1 34:1 35:1 36:1 38:1 39:1 40:1 41:1 43:1 46:1 47:1 49:1 51:1 52:1 53:1 54:1 55:1 56:1 57:1 59:1 60:1 61:1 63:1 64:1 66:1 68:1 73:1 74:1 75:1 76:1 77:1 81:1 84:1 85:1 86:1 87:1 89:1 91:1 93:1 94:1 96:1 103:1 108:1 109:1 110:1 111:1 112:1 114:1 115:1 117:1 118:1 119:1 125:1 126:1 128:1 132:1 133:1 140:1 144:1 146:1 148:1 149:1 151:1 154:1 155:1 156:1 158:1 159:1 164:1 169:1 170:1 175:1 182:1 191:1 192:1 202:1 207:1 208:1 209:1 216:1 218:1 222:1 243:1 251:1 256:1 279:1 282:1 297:1 319:1 320:1 330:1 332:1 337:1 345:1 382:1 394:1 406:1 420:1 423:1 434:1 456:1 482:1 492:1 507:1 508:1 510:1 528:1 539:1 557:1 564:1 567:1 572:1 576:1 596:1 624:1 636:1 645:1 654:1 658:1 668:1 691:1 693:1 714:1 716:1 736:1 780:1 833:1 852:1 877:1 880:1 891:1 918:1 984:1 986:1 999:1 1000:1 1066:1 1070:1 1105:1 1115:1 1132:1 1136:1 1141:1 1197:1 1222:1 1307:1 1312:1 1366:1 1397:1 1453:1 1492:1 1496:1 1575:1 1643:1 1670:1 1672:1 1686:1 1698:1 1712:1 1745:1 1767:1 1793:1 1833:1 1845:1 1933:1 1948:1 2002:1 2054:1 2057:1 2083:1 2096:1 2118:1 2123:1 2126:1 2198:1 2323:1 2454:1 2471:1 2600:1 2621:1 2635:1 2642:1 2719:1 2721:1 2826:1 2832:1 2906:1 2966:1 3046:1 #
-0.0040362920855857202864780397533195 3:1 5:1 7:1 8:1 12:1 20:1 21:1 23:1 25:1 32:1 50:1 102:1 174:1 241:1 653:1 961:1 #
-0.0040362920855857202864780397533195 1:1 2:1 3:1 4:1 5:1 6:1 7:1 8:1 10:1 12:1 14:1 15:1 16:1 17:1 18:1 19:1 20:1 21:1 22:1 23:1 25:1 27:1 29:1 31:1 36:1 37:1 43:1 47:1 51:1 66:1 67:1 77:1 78:1 81:1 82:1 86:1 90:1 97:1 98:1 99:1 100:1 117:1 119:1 124:1 136:1 148:1 151:1 152:1 153:1 171:1 179:1 203:1 204:1 218:1 254:1 263:1 293:1 300:1 304:1 311:1 319:1 364:1 376:1 392:1 470:1 482:1 483:1 497:1 518:1 580:1 632:1 641:1 644:1 648:1 664:1 778:1 790:1 832:1 952:1 973:1 1006:1 1036:1 1074:1 1192:1 1346:1 1347:1 1435:1 1712:1 1766:1 1865:1 1921:1 1932:1 1935:1 2007:1 2097:1 2123:1 2177:1 2195:1 2513:1 2522:1 2610:1 2685:1 #
-0.0040362920855857202864780397533195 2:1 3:1 4:1 6:1 8:1 9:1 10:1 11:1 13:1 25:1 26:1 32:1 38:1 43:1 58:1 59:1 61:1 69:1 75:1 95:1 138:1 167:1 187:1 188:1 222:1 293:1 302:1 353:1 364:1 425:1 483:1 533:1 536:1 611:1 621:1 638:1 699:1 1026:1 1125:1 1338:1 1398:1 1401:1 1531:1 1546:1 1566:1 1924:1 2520:1 2599:1 #
-0.0040362920855857202864780397533195 1:1 2:1 3:1 4:1 5:1 6:1 7:1 8:1 9:1 10:1 11:1 12:1 14:1 15:1 17:1 18:1 20:1 23:1 25:1 28:1 36:1 37:1 38:1 39:1 43:1 44:1 47:1 50:1 54:1 55:1 57:1 63:1 75:1 76:1 80:1 85:1 98:1 101:1 110:1 112:1 126:1 128:1 135:1 137:1 152:1 153:1 169:1 181:1 185:1 204:1 261:1 278:1 279:1 313:1 320:1 367:1 442:1 466:1 493:1 514:1 553:1 557:1 748:1 761:1 772:1 777:1 849:1 860:1 900:1 953:1 957:1 1075:1 1143:1 1362:1 1449:1 1496:1 1508:1 1605:1 1855:1 1909:1 2137:1 2312:1 2422:1 2480:1 2772:1 2960:1 #
-0.0040362920855857202864780397533195 1:1 2:1 3:1 4:1 5:1 6:1 7:1 8:1 9:1 11:1 12:1 14:1 15:1 16:1 17:1 20:1 21:1 25:1 26:1 29:1 34:1 35:1 36:1 37:1 38:1 39:1 41:1 43:1 44:1 48:1 49:1 51:1 52:1 57:1 59:1 63:1 68:1 70:1 73:1 74:1 76:1 78:1 84:1 89:1 91:1 92:1 93:1 94:1 95:1 100:1 112:1 114:1 115:1 123:1 128:1 135:1 154:1 158:1 168:1 169:1 176:1 183:1 186:1 196:1 201:1 221:1 226:1 238:1 242:1 246:1 248:1 265:1 286:1 318:1 319:1 323:1 400:1 420:1 485:1 514:1 565:1 573:1 598:1 691:1 710:1 732:1 741:1 745:1 758:1 778:1 802:1 869:1 876:1 959:1 1045:1 1059:1 1134:1 1143:1 1161:1 1268:1 1471:1 1472:1 1492:1 1511:1 1563:1 1601:1 1743:1 1820:1 1859:1 1881:1 1883:1 2062:1 2096:1 2118:1 2210:1 2357:1 2366:1 2445:1 2810:1 2889:1 3009:1 3110:1 #
0.0033694025816216636656785787806712 1:1 2:1 3:1 4:1 5:1 6:1 7:1 8:1 9:1 10:1 11:1 12:1 13:1 14:1 15:1 16:1 17:1 18:1 19:1 20:1 21:1 22:1 24:1 25:1 26:1 27:1 28:1 29:1 30:1 31:1 32:1 33:1 34:1 37:1 38:1 39:1 40:1 42:1 43:1 44:1 46:1 47:1 48:1 49:1 50:1 51:1 52:1 53:1 55:1 56:1 59:1 60:1 61:1 62:1 63:1 66:1 67:1 68:1 70:1 71:1 73:1 75:1 78:1 82:1 84:1 86:1 90:1 91:1 92:1 93:1 96:1 97:1 99:1 102:1 104:1 105:1 107:1 108:1 110:1 121:1 122:1 123:1 124:1 125:1 126:1 128:1 130:1 138:1 139:1 143:1 148:1 152:1 156:1 157:1 158:1 159:1 171:1 172:1 173:1 182:1 187:1 188:1 191:1 192:1 202:1 203:1 204:1 221:1 225:1 228:1 234:1 236:1 240:1 242:1 243:1 248:1 249:1 250:1 253:1 261:1 267:1 275:1 279:1 286:1 289:1 295:1 297:1 299:1 304:1 307:1 312:1 313:1 330:1 333:1 336:1 346:1 347:1 355:1 356:1 357:1 358:1 360:1 372:1 382:1 388:1 389:1 392:1 393:1 399:1 413:1 420:1 437:1 452:1 456:1 482:1 496:1 497:1 508:1 514:1 517:1 518:1 521:1 532:1 534:1 540:1 541:1 551:1 575:1 580:1 582:1 585:1 599:1 608:1 622:1 623:1 625:1 628:1 659:1 660:1 661:1 663:1 664:1 679:1 681:1 694:1 695:1 704:1 715:1 716:1 718:1 727:1 732:1 737:1 738:1 742:1 757:1 761:1 768:1 770:1 774:1 805:1 806:1 817:1 844:1 855:1 857:1 868:1 884:1 907:1 931:1 945:1 979:1 980:1 987:1 992:1 1006:1 1007:1 1022:1 1026:1 1030:1 1034:1 1035:1 1045:1 1048:1 1066:1 1071:1 1076:1 1079:1 1080:1 1163:1 1174:1 1185:1 1209:1 1214:1 1215:1 1249:1 1252:1 1258:1 1284:1 1306:1 1320:1 1326:1 1327:1 1373:1 1418:1 1430:1 1454:1 1492:1 1495:1 1503:1 1516:1 1567:1 1570:1 1597:1 1666:1 1715:1 1725:1 1730:1 1749:1 1766:1 1822:1 1844:1 1858:1 1863:1 1908:1 1956:1 1962:1 1968:1 1978:1 2009:1 2220:1 2262:1 2288:1 2325:1 2390:1 2392:1 2400:1 2418:1 2431:1 2475:1 2824:1 2859:1 2863:1 2864:1 2981:1 3005:1 3019:1 3081:1 #
0.0017298158747541376133172175144637 1:1 2:1 3:1 4:1 5:1 6:1 7:1 8:1 9:1 10:1 11:1 12:1 13:1 14:1 15:1 16:1 17:1 18:1 19:1 20:1 21:1 22:1 23:1 24:1 25:1 26:1 27:1 28:1 29:1 30:1 31:1 32:1 33:1 34:1 36:1 37:1 38:1 39:1 40:1 41:1 42:1 43:1 45:1 46:1 47:1 48:1 49:1 50:1 51:1 52:1 53:1 54:1 55:1 56:1 57:1 58:1 59:1 60:1 61:1 62:1 63:1 64:1 66:1 67:1 68:1 71:1 73:1 74:1 75:1 76:1 77:1 78:1 80:1 81:1 82:1 84:1 85:1 87:1 88:1 89:1 91:1 92:1 94:1 95:1 96:1 97:1 98:1 100:1 102:1 103:1 104:1 105:1 106:1 107:1 108:1 109:1 110:1 112:1 114:1 115:1 116:1 118:1 120:1 121:1 122:1 123:1 124:1 125:1 126:1 127:1 129:1 131:1 133:1 134:1 135:1 136:1 137:1 138:1 142:1 145:1 146:1 147:1 148:1 149:1 150:1 154:1 156:1 157:1 160:1 163:1 164:1 166:1 168:1 169:1 170:1 171:1 173:1 174:1 175:1 176:1 178:1 179:1 181:1 182:1 183:1 184:1 186:1 189:1 191:1 192:1 193:1 194:1 196:1 197:1 198:1 199:1 200:1 203:1 207:1 208:1 209:1 210:1 211:1 212:1 213:1 214:1 218:1 219:1 221:1 222:1 224:1 225:1 226:1 233:1 234:1 236:1 239:1 240:1 241:1 242:1 246:1 247:1 249:1 252:1 254:1 256:1 259:1 262:1 269:1 270:1 274:1 277:1 280:1 283:1 284:1 290:1 295:1 296:1 297:1 300:1 309:1 312:1 318:1 320:1 322:1 324:1 325:1 326:1 329:1 336:1 337:1 338:1 339:1 343:1 349:1 353:1 355:1 356:1 361:1 367:1 371:1 376:1 382:1 390:1 398:1 399:1 402:1 406:1 407:1 409:1 415:1 416:1 418:1 427:1 428:1 430:1 435:1 437:1 442:1 451:1 452:1 453:1 461:1 464:1 465:1 475:1 480:1 483:1 497:1 507:1 518:1 521:1 522:1 528:1 530:1 535:1 547:1 549:1 551:1 557:1 566:1 569:1 585:1 600:1 607:1 617:1 623:1 625:1 626:1 627:1 635:1 641:1 647:1 681:1 684:1 688:1 693:1 694:1 696:1 702:1 706:1 711:1 714:1 717:1 737:1 743:1 751:1 757:1 764:1 769:1 777:1 778:1 782:1 791:1 802:1 805:1 808:1 811:1 813:1 814:1 823:1 826:1 834:1 839:1 842:1 856:1 862:1 863:1 877:1 889:1 916:1 917:1 929:1 935:1 954:1 955:1 958:1 981:1 995:1 1023:1 1037:1 1053:1 1056:1 1057:1 1059:1 1072:1 1080:1 1082:1 1103:1 1116:1 1119:1 1132:1 1155:1 1161:1 1166:1 1174:1 1176:1 1180:1 1182:1 1201:1 1211:1 1227:1 1237:1 1257:1 1258:1 1267:1 1269:1 1277:1 1278:1 1292:1 1295:1 1304:1 1319:1 1320:1 1321:1 1330:1 1346:1 1397:1 1406:1 1407:1 1413:1 1415:1 1419:1 1423:1 1448:1 1474:1 1480:1 1487:1 1517:1 1523:1 1529:1 1567:1 1579:1 1605:1 1616:1 1644:1 1659:1 1661:1 1689:1 1735:1 1736:1 1787:1 1805:1 1811:1 1822:1 1832:1 1866:1 1895:1 1908:1 1911:1 1932:1 1942:1 1958:1 1997:1 2000:1 2012:1 2027:1 2052:1 2074:1 2079:1 2081:1 2082:1 2092:1 2117:1 2128:1 2132:1 2147:1 2176:1 2221:1 2228:1 2246:1 2248:1 2295:1 2306:1 2310:1 2364:1 2367:1 2372:1 2417:1 2451:1 2517:1 2550:1 2707:1 2731:1 2814:1 2839:1 2856:1 2877:1 2912:1 2940:1 2986:1 3010:1 3045:1 #
0.0040362920855857202864780397533195 1:1 2:1 3:1 4:1 5:1 6:1 7:1 8:1 9:1 10:1 11:1 12:1 13:1 14:1 15:1 16:1 17:1 18:1 19:1 20:1 21:1 22:1 23:1 24:1 25:1 26:1 27:1 28:1 29:1 30:1 31:1 32:1 33:1 34:1 36:1 37:1 38:1 39:1 40:1 41:1 43:1 44:1 45:1 46:1 47:1 48:1 49:1 50:1 51:1 52:1 53:1 54:1 55:1 56:1 57:1 59:1 60:1 61:1 62:1 63:1 64:1 65:1 66:1 67:1 68:1 69:1 70:1 71:1 72:1 73:1 74:1 76:1 77:1 79:1 80:1 81:1 82:1 84:1 85:1 86:1 88:1 89:1 90:1 92:1 94:1 96:1 97:1 98:1 99:1 100:1 101:1 102:1 103:1 104:1 105:1 106:1 109:1 112:1 114:1 115:1 117:1 119:1 121:1 122:1 124:1 125:1 129:1 130:1 131:1 133:1 134:1 137:1 138:1 139:1 140:1 142:1 144:1 147:1 151:1 153:1 156:1 157:1 159:1 161:1 163:1 166:1 169:1 171:1 172:1 175:1 177:1 178:1 184:1 185:1 192:1 193:1 194:1 195:1 196:1 201:1 204:1 205:1 206:1 210:1 211:1 215:1 217:1 219:1 221:1 222:1 223:1 228:1 230:1 231:1 234:1 235:1 236:1 238:1 239:1 240:1 245:1 252:1 253:1 254:1 258:1 259:1 260:1 262:1 263:1 265:1 269:1 274:1 275:1 277:1 278:1 280:1 281:1 282:1 284:1 286:1 288:1 289:1 292:1 294:1 295:1 297:1 300:1 301:1 303:1 304:1 307:1 312:1 314:1 317:1 321:1 324:1 325:1 330:1 331:1 332:1 333:1 337:1 338:1 350:1 359:1 360:1 362:1 367:1 375:1 377:1 381:1 384:1 386:1 389:1 391:1 399:1 401:1 404:1 406:1 407:1 409:1 410:1 412:1 419:1 420:1 422:1 423:1 424:1 429:1 434:1 437:1 447:1 454:1 458:1 462:1 481:1 482:1 486:1 490:1 498:1 500:1 505:1 521:1 524:1 527:1 541:1 546:1 562:1 565:1 567:1 580:1 582:1 585:1 586:1 596:1 615:1 617:1 629:1 630:1 639:1 649:1 657:1 675:1 698:1 717:1 764:1 766:1 771:1 776:1 792:1 798:1 809:1 812:1 826:1 830:1 834:1 835:1 843:1 846:1 854:1 859:1 871:1 875:1 877:1 887:1 895:1 898:1 905:1 908:1 916:1 917:1 924:1 925:1 957:1 964:1 979:1 981:1 997:1 1005:1 1033:1 1046:1 1053:1 1060:1 1075:1 1089:1 1096:1 1097:1 1103:1 1123:1 1134:1 1137:1 1150:1 1161:1 1167:1 1180:1 1199:1 1211:1 1235:1 1303:1 1314:1 1318:1 1321:1 1333:1 1348:1 1371:1 1376:1 1402:1 1426:1 1435:1 1438:1 1448:1 1459:1 1494:1 1518:1 1547:1 1579:1 1600:1 1607:1 1611:1 1664:1 1678:1 1711:1 1716:1 1726:1 1733:1 1747:1 1749:1 1810:1 1819:1 1821:1 1850:1 1880:1 1901:1 1911:1 1915:1 1931:1 1932:1 1937:1 1947:1 1959:1 1965:1 1966:1 1981:1 2007:1 2017:1 2022:1 2027:1 2093:1 2094:1 2111:1 2139:1 2169:1 2211:1 2241:1 2276:1 2282:1 2328:1 2348:1 2382:1 2385:1 2417:1 2428:1 2470:1 2506:1 2634:1 2687:1 2691:1 2705:1 2759:1 2768:1 2771:1 2779:1 2904:1 2932:1 2943:1 2980:1 3019:1 3072:1 3090:1 3100:1 #
0.0018243492041053737274386437050566 1:1 2:1 3:1 4:1 5:1 6:1 7:1 8:1 9:1 10:1 11:1 12:1 13:1 14:1 15:1 16:1 17:1 18:1 19:1 20:1 21:1 22:1 23:1 24:1 25:1 26:1 27:1 28:1 29:1 30:1 31:1 32:1 33:1 34:1 35:1 36:1 37:1 38:1 39:1 40:1 41:1 42:1 43:1 45:1 46:1 47:1 48:1 49:1 50:1 51:1 52:1 53:1 54:1 55:1 57:1 59:1 60:1 61:1 62:1 63:1 64:1 65:1 66:1 68:1 69:1 71:1 72:1 73:1 74:1 75:1 76:1 77:1 78:1 80:1 81:1 82:1 83:1 84:1 86:1 87:1 88:1 90:1 91:1 92:1 93:1 95:1 96:1 98:1 99:1 100:1 101:1 103:1 104:1 105:1 106:1 110:1 112:1 116:1 117:1 118:1 119:1 120:1 121:1 122:1 123:1 125:1 126:1 127:1 129:1 130:1 131:1 132:1 133:1 134:1 135:1 137:1 139:1 140:1 142:1 143:1 144:1 145:1 147:1 148:1 150:1 152:1 153:1 159:1 161:1 162:1 163:1 165:1 168:1 171:1 172:1 173:1 174:1 176:1 177:1 178:1 180:1 182:1 188:1 190:1 194:1 196:1 201:1 203:1 205:1 206:1 209:1 210:1 211:1 214:1 219:1 226:1 227:1 228:1 229:1 230:1 233:1 239:1 240:1 241:1 242:1 246:1 247:1 248:1 249:1 260:1 267:1 268:1 269:1 271:1 273:1 274:1 275:1 277:1 279:1 283:1 284:1 285:1 288:1 289:1 292:1 293:1 295:1 296:1 298:1 302:1 304:1 306:1 310:1 312:1 313:1 314:1 318:1 319:1 325:1 326:1 331:1 342:1 351:1 354:1 355:1 356:1 357:1 358:1 364:1 370:1 373:1 376:1 377:1 379:1 381:1 388:1 395:1 399:1 408:1 410:1 412:1 413:1 418:1 423:1 433:1 435:1 438:1 440:1 444:1 445:1 447:1 450:1 462:1 467:1 474:1 483:1 487:1 489:1 497:1 504:1 507:1 511:1 521:1 522:1 523:1 529:1 533:1 535:1 541:1 551:1 555:1 595:1 598:1 601:1 611:1 616:1 633:1 637:1 638:1 639:1 644:1 647:1 655:1 660:1 661:1 662:1 674:1 676:1 677:1 684:1 685:1 687:1 691:1 713:1 715:1 718:1 725:1 730:1 734:1 740:1 752:1 754:1 757:1 760:1 764:1 765:1 772:1 774:1 782:1 795:1 812:1 822:1 831:1 841:1 850:1 854:1 859:1 867:1 883:1 903:1 913:1 915:1 916:1 918:1 931:1 945:1 950:1 953:1 969:1 978:1 982:1 999:1 1007:1 1014:1 1015:1 1017:1 1028:1 1035:1 1040:1 1043:1 1063:1 1065:1 1072:1 1095:1 1097:1 1107:1 1133:1 1141:1 1147:1 1150:1 1166:1 1172:1 1179:1 1185:1 1187:1 1224:1 1234:1 1263:1 1269:1 1270:1 1274:1 1279:1 1282:1 1302:1 1318:1 1351:1 1355:1 1358:1 1362:1 1366:1 1373:1 1380:1 1388:1 1391:1 1413:1 1460:1 1479:1 1482:1 1488:1 1507:1 1518:1 1536:1 1537:1 1548:1 1566:1 1590:1 1631:1 1661:1 1694:1 1699:1 1746:1 1783:1 1786:1 1792:1 1795:1 1822:1 1835:1 1857:1 1873:1 1879:1 1891:1 1892:1 1898:1 1900:1 1969:1 1976:1 2005:1 2023:1 2030:1 2053:1 2103:1 2111:1 2121:1 2125:1 2140:1 2171:1 2216:1 2249:1 2254:1 2264:1 2345:1 2367:1 2370:1 2402:1 2408:1 2420:1 2438:1 2448:1 2492:1 2496:1 2536:1 2540:1 2551:1 2552:1 2583:1 2625:1 2637:1 2638:1 2679:1 2693:1 2724:1 2739:1 2758:1 2807:1 2835:1 2876:1 2879:1 2980:1 3010:1 3022:1 3028:1 3053:1 3054:1 3064:1 3085:1 #
0.0040362920855857202864780397533195 1:1 2:1 3:1 4:1 5:1 6:1 7:1 8:1 9:1 10:1 11:1 12:1 13:1 14:1 15:1 16:1 17:1 18:1 19:1 20:1 21:1 22:1 24:1 25:1 26:1 27:1 28:1 29:1 30:1 31:1 32:1 33:1 35:1 36:1 37:1 38:1 40:1 41:1 43:1 44:1 45:1 46:1 47:1 48:1 50:1 51:1 52:1 53:1 55:1 58:1 60:1 61:1 62:1 64:1 65:1 67:1 68:1 69:1 71:1 72:1 73:1 78:1 81:1 83:1 86:1 89:1 90:1 92:1 94:1 96:1 98:1 99:1 101:1 102:1 107:1 112:1 113:1 118:1 121:1 123:1 124:1 126:1 130:1 131:1 132:1 133:1 136:1 139:1 141:1 150:1 156:1 157:1 158:1 160:1 165:1 168:1 173:1 174:1 180:1 183:1 187:1 192:1 194:1 201:1 206:1 207:1 210:1 213:1 217:1 219:1 223:1 227:1 229:1 239:1 254:1 257:1 259:1 265:1 268:1 275:1 276:1 286:1 288:1 292:1 295:1 297:1 300:1 318:1 328:1 329:1 346:1 349:1 363:1 367:1 368:1 370:1 371:1 375:1 379:1 384:1 398:1 401:1 416:1 424:1 425:1 426:1 445:1 447:1 449:1 450:1 465:1 468:1 489:1 491:1 492:1 505:1 522:1 580:1 594:1 600:1 617:1 619:1 665:1 667:1 674:1 691:1 714:1 735:1 749:1 752:1 781:1 784:1 789:1 790:1 807:1 816:1 833:1 859:1 866:1 883:1 887:1 898:1 903:1 905:1 935:1 953:1 954:1 958:1 989:1 1008:1 1015:1 1066:1 1068:1 1079:1 1086:1 1158:1 1165:1 1201:1 1206:1 1222:1 1233:1 1243:1 1245:1 1255:1 1301:1 1345:1 1450:1 1466:1 1486:1 1510:1 1568:1 1649:1 1659:1 1676:1 1744:1 1790:1 1804:1 1857:1 1906:1 1960:1 1996:1 2039:1 2074:1 2098:1 2149:1 2206:1 2319:1 2329:1 2362:1 2366:1 2369:1 2469:1 2526:1 2532:1 2540:1 2556:1 2619:1 2721:1 2779:1 2972:1 2989:1 3053:1 3099:1 #
0.0018066132827168196722106285889708 1:1 2:1 3:1 4:1 5:1 6:1 7:1 8:1 9:1 10:1 11:1 12:1 13:1 14:1 15:1 16:1 17:1 18:1 19:1 20:1 22:1 23:1 24:1 25:1 26:1 27:1 28:1 29:1 30:1 31:1 32:1 33:1 34:1 35:1 36:1 37:1 38:1 39:1 40:1 43:1 45:1 47:1 48:1 49:1 50:1 51:1 52:1 53:1 55:1 56:1 59:1 61:1 62:1 63:1 65:1 66:1 68:1 69:1 70:1 71:1 72:1 74:1 75:1 76:1 77:1 82:1 84:1 85:1 86:1 87:1 88:1 89:1 91:1 92:1 93:1 94:1 99:1 100:1 101:1 102:1 103:1 104:1 106:1 107:1 109:1 112:1 114:1 116:1 117:1 118:1 120:1 121:1 124:1 126:1 132:1 135:1 136:1 139:1 143:1 144:1 148:1 151:1 152:1 153:1 154:1 155:1 162:1 166:1 167:1 169:1 173:1 174:1 189:1 192:1 196:1 197:1 201:1 203:1 207:1 210:1 216:1 218:1 220:1 221:1 222:1 226:1 229:1 235:1 239:1 242:1 252:1 254:1 260:1 263:1 265:1 267:1 269:1 275:1 281:1 296:1 299:1 305:1 336:1 339:1 342:1 344:1 349:1 350:1 354:1 363:1 367:1 380:1 381:1 386:1 398:1 401:1 404:1 414:1 417:1 452:1 454:1 465:1 480:1 486:1 495:1 496:1 520:1 527:1 540:1 543:1 567:1 586:1 597:1 604:1 615:1 620:1 629:1 662:1 673:1 677:1 686:1 704:1 710:1 717:1 742:1 747:1 763:1 768:1 788:1 790:1 812:1 830:1 845:1 849:1 859:1 895:1 957:1 1002:1 1005:1 1007:1 1013:1 1035:1 1040:1 1048:1 1074:1 1112:1 1164:1 1201:1 1214:1 1222:1 1262:1 1273:1 1299:1 1332:1 1342:1 1355:1 1359:1 1378:1 1405:1 1408:1 1420:1 1422:1 1454:1 1476:1 1569:1 1591:1 1606:1 1663:1 1703:1 1707:1 1709:1 1724:1 1771:1 1775:1 1799:1 1807:1 1840:1 1850:1 1853:1 1869:1 1887:1 1955:1 2019:1 2051:1 2070:1 2078:1 2085:1 2092:1 2095:1 2113:1 2117:1 2134:1 2145:1 2169:1 2171:1 2317:1 2351:1 2451:1 2531:1 2757:1 2965:1 3003:1 3052:1 #
-0.0026027472382275677539875680110981 1:1 2:1 3:1 4:1 5:1 6:1 7:1 8:1 9:1 10:1 11:1 12:1 13:1 14:1 15:1 16:1 17:1 18:1 19:1 20:1 21:1 22:1 23:1 24:1 25:1 26:1 27:1 28:1 29:1 30:1 31:1 32:1 33:1 34:1 35:1 36:1 37:1 38:1 39:1 40:1 41:1 42:1 43:1 44:1 45:1 46:1 47:1 48:1 49:1 50:1 51:1 52:1 53:1 54:1 55:1 56:1 57:1 58:1 59:1 60:1 61:1 62:1 63:1 64:1 66:1 67:1 68:1 69:1 70:1 71:1 72:1 73:1 74:1 75:1 76:1 77:1 79:1 80:1 81:1 82:1 83:1 85:1 86:1 87:1 90:1 91:1 92:1 93:1 94:1 95:1 96:1 97:1 98:1 99:1 100:1 101:1 102:1 103:1 104:1 106:1 107:1 108:1 110:1 112:1 113:1 114:1 115:1 116:1 117:1 118:1 119:1 121:1 122:1 123:1 124:1 125:1 126:1 127:1 128:1 129:1 130:1 132:1 133:1 134:1 135:1 136:1 137:1 139:1 141:1 143:1 144:1 145:1 146:1 147:1 149:1 150:1 151:1 152:1 153:1 154:1 155:1 157:1 158:1 160:1 163:1 164:1 167:1 168:1 169:1 172:1 173:1 176:1 178:1 180:1 182:1 183:1 184:1 185:1 190:1 191:1 193:1 194:1 195:1 197:1 198:1 199:1 200:1 201:1 202:1 203:1 204:1 206:1 209:1 210:1 214:1 217:1 218:1 220:1 225:1 226:1 228:1 233:1 234:1 235:1 237:1 238:1 239:1 241:1 243:1 244:1 246:1 248:1 249:1 250:1 252:1 253:1 254:1 256:1 257:1 260:1 262:1 263:1 265:1 271:1 273:1 276:1 277:1 279:1 281:1 284:1 286:1 287:1 288:1 289:1 291:1 295:1 296:1 297:1 299:1 306:1 308:1 309:1 310:1 317:1 318:1 322:1 325:1 328:1 329:1 332:1 333:1 334:1 338:1 340:1 342:1 343:1 345:1 353:1 354:1 355:1 357:1 359:1 364:1 367:1 373:1 374:1 376:1 381:1 383:1 388:1 389:1 390:1 394:1 397:1 398:1 399:1 400:1 401:1 404:1 413:1 420:1 422:1 427:1 428:1 431:1 434:1 437:1 444:1 448:1 449:1 455:1 458:1 461:1 463:1 465:1 468:1 470:1 473:1 474:1 478:1 483:1 487:1 493:1 494:1 496:1 499:1 500:1 502:1 504:1 510:1 515:1 516:1 519:1 524:1 525:1 527:1 539:1 549:1 551:1 554:1 555:1 557:1 564:1 568:1 570:1 574:1 579:1 582:1 588:1 592:1 597:1 599:1 605:1 607:1 612:1 618:1 620:1 621:1 623:1 625:1 637:1 639:1 641:1 644:1 645:1 646:1 648:1 654:1 656:1 660:1 663:1 665:1 666:1 671:1 673:1 678:1 679:1 685:1 691:1 693:1 694:1 699:1 710:1 712:1 715:1 722:1 739:1 742:1 749:1 756:1 759:1 765:1 775:1 778:1 788:1 790:1 792:1 794:1 795:1 797:1 798:1 802:1 803:1 812:1 820:1 827:1 831:1 841:1 843:1 856:1 866:1 884:1 907:1 923:1 925:1 926:1 936:1 941:1 964:1 977:1 983:1 994:1 995:1 996:1 1001:1 1002:1 1003:1 1006:1 1009:1 1016:1 1020:1 1037:1 1041:1 1050:1 1053:1 1056:1 1059:1 1062:1 1068:1 1069:1 1075:1 1114:1 1117:1 1121:1 1123:1 1164:1 1170:1 1183:1 1188:1 1191:1 1205:1 1216:1 1221:1 1225:1 1242:1 1256:1 1265:1 1270:1 1286:1 1288:1 1300:1 1324:1 1325:1 1326:1 1334:1 1337:1 1348:1 1363:1 1366:1 1368:1 1370:1 1374:1 1381:1 1394:1 1399:1 1408:1 1415:1 1416:1 1418:1 1422:1 1426:1 1457:1 1458:1 1471:1 1472:1 1496:1 1499:1 1503:1 1511:1 1546:1 1549:1 1580:1 1587:1 1595:1 1602:1 1619:1 1621:1 1634:1 1643:1 1650:1 1668:1 1669:1 1685:1 1686:1 1687:1 1695:1 1697:1 1698:1 1706:1 1712:1 1745:1 1748:1 1782:1 1788:1 1810:1 1811:1 1859:1 1908:1 1919:1 1926:1 1937:1 1950:1 1975:1 1985:1 1994:1 2026:1 2027:1 2035:1 2041:1 2044:1 2068:1 2093:1 2115:1 2120:1 2145:1 2160:1 2179:1 2193:1 2196:1 2213:1 2248:1 2254:1 2291:1 2293:1 2294:1 2298:1 2377:1 2401:1 2405:1 2428:1 2431:1 2448:1 2490:1 2499:1 2511:1 2512:1 2516:1 2556:1 2610:1 2614:1 2621:1 2648:1 2655:1 2668:1 2674:1 2682:1 2697:1 2703:1 2729:1 2732:1 2737:1 2778:1 2812:1 2826:1 2848:1 2851:1 2864:1 2970:1 3058:1 3081:1 3089:1 #
-0.0016663389613098811541797017454769 1:1 2:1 3:1 4:1 5:1 6:1 7:1 8:1 9:1 10:1 11:1 12:1 13:1 14:1 15:1 16:1 17:1 18:1 19:1 20:1 21:1 22:1 23:1 24:1 25:1 26:1 27:1 28:1 29:1 30:1 31:1 32:1 33:1 34:1 35:1 36:1 37:1 38:1 39:1 40:1 41:1 42:1 43:1 44:1 45:1 46:1 47:1 48:1 49:1 50:1 51:1 52:1 53:1 54:1 55:1 56:1 57:1 58:1 59:1 60:1 61:1 62:1 63:1 64:1 65:1 66:1 67:1 68:1 69:1 70:1 71:1 72:1 73:1 74:1 75:1 76:1 77:1 78:1 80:1 81:1 82:1 83:1 84:1 85:1 86:1 87:1 89:1 91:1 92:1 93:1 94:1 95:1 96:1 97:1 98:1 100:1 101:1 102:1 103:1 104:1 105:1 106:1 107:1 108:1 109:1 111:1 112:1 113:1 114:1 116:1 117:1 118:1 119:1 120:1 121:1 122:1 123:1 124:1 125:1 126:1 128:1 129:1 132:1 135:1 136:1 137:1 138:1 139:1 140:1 142:1 143:1 144:1 145:1 146:1 147:1 148:1 149:1 150:1 151:1 152:1 153:1 155:1 156:1 157:1 159:1 160:1 161:1 162:1 163:1 164:1 165:1 169:1 170:1 172:1 174:1 175:1 177:1 178:1 180:1 183:1 185:1 189:1 190:1 191:1 194:1 195:1 196:1 197:1 198:1 199:1 201:1 202:1 203:1 204:1 207:1 208:1 209:1 210:1 212:1 213:1 214:1 218:1 220:1 221:1 224:1 225:1 226:1 228:1 230:1 231:1 232:1 233:1 235:1 236:1 237:1 240:1 241:1 249:1 256:1 257:1 258:1 259:1 266:1 268:1 269:1 270:1 271:1 273:1 274:1 278:1 280:1 282:1 283:1 289:1 290:1 291:1 292:1 294:1 296:1 297:1 298:1 301:1 305:1 313:1 321:1 324:1 326:1 328:1 333:1 334:1 337:1 338:1 340:1 351:1 353:1 354:1 366:1 373:1 376:1 383:1 384:1 385:1 387:1 396:1 400:1 407:1 408:1 409:1 414:1 420:1 421:1 424:1 429:1 434:1 438:1 439:1 450:1 453:1 457:1 460:1 461:1 474:1 475:1 478:1 491:1 508:1 515:1 521:1 527:1 529:1 530:1 542:1 549:1 551:1 564:1 567:1 569:1 571:1 578:1 581:1 588:1 589:1 598:1 599:1 601:1 612:1 618:1 626:1 638:1 656:1 659:1 662:1 667:1 674:1 675:1 680:1 684:1 686:1 690:1 699:1 710:1 714:1 730:1 737:1 760:1 761:1 765:1 783:1 802:1 807:1 828:1 832:1 835:1 839:1 841:1 847:1 851:1 854:1 865:1 866:1 873:1 908:1 921:1 933:1 938:1 940:1 963:1 968:1 972:1 973:1 980:1 1048:1 1052:1 1059:1 1082:1 1120:1 1135:1 1154:1 1171:1 1199:1 1200:1 1204:1 1210:1 1218:1 1228:1 1233:1 1235:1 1239:1 1247:1 1266:1 1290:1 1295:1 1302:1 1314:1 1315:1 1343:1 1352:1 1376:1 1377:1 1413:1 1414:1 1418:1 1426:1 1439:1 1450:1 1465:1 1478:1 1487:1 1490:1 1516:1 1529:1 1557:1 1589:1 1590:1 1640:1 1644:1 1662:1 1676:1 1723:1 1726:1 1736:1 1743:1 1754:1 1781:1 1810:1 1818:1 1846:1 1868:1 1870:1 1876:1 1880:1 1882:1 1905:1 1934:1 1936:1 1940:1 1975:1 1989:1 2022:1 2060:1 2095:1 2152:1 2211:1 2250:1 2272:1 2285:1 2306:1 2358:1 2369:1 2378:1 2387:1 2433:1 2464:1 2490:1 2513:1 2514:1 2558:1 2559:1 2607:1 2608:1 2662:1 2672:1 2731:1 2819:1 2846:1 2877:1 2891:1 3003:1 3077:1 #
-0.002765001140886802228485707999539 1:1 2:1 3:1 4:1 5:1 6:1 7:1 8:1 9:1 10:1 11:1 12:1 13:1 14:1 15:1 16:1 17:1 18:1 19:1 20:1 21:1 22:1 23:1 24:1 25:1 26:1 27:1 28:1 29:1 30:1 31:1 32:1 33:1 34:1 35:1 36:1 37:1 38:1 39:1 40:1 41:1 42:1 43:1 44:1 46:1 47:1 48:1 49:1 50:1 51:1 53:1 54:1 55:1 56:1 57:1 58:1 59:1 61:1 63:1 64:1 66:1 67:1 68:1 69:1 70:1 71:1 72:1 73:1 74:1 75:1 76:1 77:1 78:1 80:1 82:1 83:1 85:1 86:1 87:1 88:1 91:1 92:1 93:1 94:1 95:1 96:1 97:1 99:1 101:1 102:1 103:1 105:1 106:1 107:1 108:1 109:1 110:1 112:1 114:1 115:1 116:1 117:1 118:1 119:1 120:1 121:1 122:1 123:1 125:1 126:1 127:1 128:1 129:1 133:1 134:1 137:1 138:1 139:1 142:1 146:1 147:1 148:1 150:1 151:1 152:1 154:1 157:1 160:1 161:1 162:1 163:1 164:1 166:1 167:1 169:1 170:1 171:1 172:1 177:1 178:1 179:1 180:1 182:1 183:1 185:1 188:1 190:1 191:1 193:1 195:1 197:1 202:1 203:1 207:1 210:1 213:1 216:1 219:1 221:1 222:1 227:1 229:1 230:1 233:1 234:1 235:1 238:1 239:1 241:1 247:1 253:1 254:1 255:1 256:1 262:1 267:1 269:1 270:1 272:1 275:1 276:1 280:1 282:1 283:1 287:1 288:1 290:1 292:1 299:1 301:1 303:1 304:1 307:1 313:1 318:1 331:1 336:1 339:1 348:1 352:1 355:1 356:1 385:1 387:1 388:1 391:1 392:1 395:1 396:1 402:1 403:1 407:1 408:1 410:1 420:1 423:1 426:1 437:1 444:1 446:1 447:1 448:1 450:1 453:1 455:1 467:1 468:1 473:1 475:1 480:1 500:1 507:1 513:1 517:1 520:1 524:1 531:1 540:1 541:1 551:1 557:1 564:1 567:1 582:1 583:1 586:1 589:1 595:1 611:1 612:1 617:1 620:1 625:1 629:1 632:1 635:1 640:1 642:1 646:1 658:1 668:1 678:1 679:1 682:1 693:1 701:1 703:1 712:1 713:1 714:1 719:1 722:1 725:1 761:1 762:1 763:1 768:1 800:1 814:1 835:1 837:1 849:1 850:1 862:1 866:1 867:1 868:1 879:1 884:1 885:1 888:1 910:1 913:1 924:1 931:1 940:1 948:1 993:1 1004:1 1010:1 1022:1 1023:1 1024:1 1043:1 1048:1 1062:1 1070:1 1077:1 1078:1 1084:1 1088:1 1093:1 1097:1 1098:1 1122:1 1130:1 1134:1 1135:1 1152:1 1166:1 1169:1 1171:1 1174:1 1182:1 1186:1 1187:1 1191:1 1200:1 1224:1 1225:1 1233:1 1256:1 1262:1 1279:1 1282:1 1289:1 1299:1 1301:1 1324:1 1329:1 1337:1 1370:1 1378:1 1380:1 1398:1 1416:1 1418:1 1423:1 1436:1 1437:1 1438:1 1442:1 1471:1 1472:1 1485:1 1487:1 1488:1 1503:1 1510:1 1516:1 1536:1 1540:1 1564:1 1591:1 1599:1 1611:1 1642:1 1692:1 1695:1 1721:1 1731:1 1742:1 1756:1 1764:1 1785:1 1807:1 1813:1 1820:1 1868:1 1875:1 1905:1 1911:1 1926:1 1965:1 2019:1 2022:1 2034:1 2035:1 2040:1 2052:1 2097:1 2102:1 2118:1 2123:1 2127:1 2153:1 2155:1 2217:1 2342:1 2375:1 2393:1 2403:1 2435:1 2447:1 2465:1 2511:1 2527:1 2541:1 2636:1 2637:1 2711:1 2757:1 2775:1 2783:1 2805:1 2831:1 2851:1 2908:1 2922:1 2934:1 2947:1 2955:1 2966:1 2971:1 2989:1 3044:1 3053:1 3093:1 #
0.0031984246250246176242193474337228 1:1 2:1 3:1 4:1 5:1 6:1 7:1 8:1 9:1 10:1 11:1 12:1 13:1 15:1 16:1 17:1 18:1 19:1 20:1 21:1 22:1 23:1 24:1 25:1 26:1 27:1 28:1 29:1 30:1 31:1 33:1 34:1 35:1 36:1 37:1 40:1 41:1 42:1 43:1 45:1 46:1 47:1 48:1 49:1 50:1 51:1 52:1 54:1 57:1 58:1 59:1 61:1 62:1 65:1 66:1 69:1 71:1 72:1 73:1 74:1 80:1 81:1 82:1 83:1 87:1 88:1 89:1 92:1 93:1 94:1 96:1 97:1 99:1 104:1 106:1 109:1 111:1 114:1 120:1 122:1 124:1 126:1 132:1 133:1 135:1 136:1 137:1 139:1 140:1 144:1 145:1 150:1 153:1 164:1 167:1 168:1 172:1 174:1 175:1 177:1 183:1 185:1 186:1 187:1 193:1 194:1 196:1 197:1 199:1 203:1 205:1 212:1 213:1 215:1 216:1 217:1 221:1 230:1 232:1 236:1 242:1 243:1 249:1 252:1 259:1 261:1 264:1 265:1 268:1 284:1 286:1 290:1 294:1 301:1 305:1 311:1 332:1 378:1 381:1 397:1 400:1 406:1 407:1 415:1 418:1 419:1 426:1 437:1 438:1 446:1 450:1 471:1 483:1 486:1 496:1 499:1 507:1 525:1 540:1 551:1 565:1 566:1 577:1 584:1 608:1 610:1 625:1 633:1 647:1 679:1 696:1 709:1 712:1 728:1 750:1 755:1 765:1 766:1 769:1 787:1 819:1 823:1 833:1 839:1 880:1 884:1 891:1 939:1 946:1 951:1 964:1 1100:1 1118:1 1183:1 1192:1 1241:1 1322:1 1394:1 1410:1 1454:1 1494:1 1579:1 1598:1 1646:1 1771:1 1803:1 2015:1 2074:1 2094:1 2113:1 2134:1 2141:1 2193:1 2199:1 2216:1 2281:1 2317:1 2339:1 2362:1 2435:1 2456:1 2668:1 2749:1 2756:1 2837:1 2942:1 3094:1 3105:1 #
0.0040362920855857202864780397533195 1:1 2:1 3:1 4:1 5:1 6:1 8:1 9:1 10:1 11:1 12:1 13:1 17:1 19:1 20:1 23:1 27:1 28:1 33:1 38:1 39:1 43:1 47:1 55:1 56:1 62:1 67:1 84:1 86:1 102:1 128:1 171:1 183:1 185:1 186:1 194:1 208:1 235:1 308:1 313:1 322:1 337:1 449:1 461:1 514:1 572:1 576:1 577:1 743:1 745:1 826:1 846:1 910:1 914:1 938:1 956:1 998:1 1130:1 1142:1 1314:1 1322:1 1421:1 2165:1 2312:1 #
0.0040362920855857202864780397533195 1:1 2:1 3:1 4:1 5:1 6:1 7:1 8:1 9:1 10:1 12:1 13:1 14:1 15:1 16:1 17:1 18:1 19:1 20:1 21:1 22:1 23:1 26:1 27:1 30:1 31:1 32:1 34:1 46:1 50:1 60:1 63:1 69:1 74:1 79:1 83:1 89:1 92:1 105:1 108:1 109:1 124:1 125:1 163:1 168:1 186:1 201:1 205:1 207:1 222:1 225:1 239:1 241:1 276:1 293:1 326:1 414:1 417:1 420:1 423:1 426:1 448:1 493:1 529:1 534:1 558:1 635:1 752:1 853:1 895:1 921:1 964:1 1079:1 1161:1 1862:1 2080:1 2209:1 2240:1 2304:1 2587:1 2616:1 2655:1 2845:1 2893:1 #
0.0040362920855857202864780397533195 1:1 2:1 3:1 4:1 5:1 6:1 7:1 8:1 9:1 10:1 11:1 12:1 14:1 15:1 16:1 17:1 19:1 24:1 26:1 27:1 28:1 30:1 32:1 35:1 38:1 44:1 46:1 50:1 60:1 64:1 72:1 78:1 79:1 83:1 85:1 86:1 95:1 98:1 104:1 105:1 126:1 128:1 136:1 140:1 146:1 152:1 203:1 204:1 229:1 233:1 265:1 266:1 273:1 292:1 311:1 327:1 329:1 413:1 426:1 436:1 439:1 467:1 475:1 493:1 498:1 503:1 525:1 544:1 577:1 591:1 600:1 606:1 644:1 654:1 658:1 695:1 715:1 729:1 732:1 779:1 847:1 862:1 883:1 894:1 945:1 995:1 1118:1 1182:1 1225:1 1227:1 1350:1 1404:1 1407:1 1422:1 1532:1 1537:1 1578:1 1718:1 1790:1 1800:1 2108:1 2227:1 2434:1 2568:1 2580:1 2705:1 2734:1 2739:1 2817:1 2900:1 3097:1 #
0.0012976741584252487939771247837939 1:1 2:1 3:1 4:1 5:1 6:1 7:1 8:1 9:1 10:1 13:1 16:1 17:1 18:1 19:1 20:1 25:1 27:1 30:1 34:1 40:1 42:1 48:1 50:1 52:1 58:1 61:1 64:1 69:1 78:1 84:1 92:1 106:1 109:1 124:1 125:1 127:1 130:1 141:1 146:1 154:1 165:1 189:1 211:1 213:1 224:1 228:1 249:1 252:1 270:1 298:1 299:1 316:1 350:1 358:1 420:1 427:1 460:1 560:1 575:1 597:1 642:1 763:1 812:1 834:1 910:1 914:1 978:1 1016:1 1119:1 1136:1 1154:1 1224:1 1314:1 1351:1 1386:1 1437:1 1587:1 1711:1 1785:1 1993:1 2100:1 2148:1 2164:1 2252:1 2423:1 2569:1 2659:1 #
0.0040362920855857202864780397533195 2:1 3:1 4:1 5:1 6:1 7:1 8:1 9:1 12:1 13:1 16:1 17:1 19:1 20:1 22:1 23:1 24:1 32:1 33:1 34:1 36:1 38:1 45:1 46:1 48:1 49:1 50:1 69:1 70:1 72:1 75:1 76:1 80:1 83:1 95:1 100:1 111:1 118:1 124:1 126:1 127:1 136:1 138:1 146:1 151:1 158:1 167:1 175:1 221:1 240:1 244:1 260:1 261:1 307:1 342:1 361:1 430:1 432:1 434:1 452:1 515:1 570:1 578:1 606:1 625:1 743:1 780:1 790:1 806:1 832:1 842:1 866:1 926:1 956:1 1016:1 1132:1 1144:1 1511:1 1755:1 1801:1 1846:1 1954:1 2922:1 2992:1 #
-0.0040362920855857202864780397533195 1:1 2:1 3:1 4:1 5:1 6:1 7:1 8:1 9:1 12:1 13:1 14:1 15:1 16:1 17:1 18:1 19:1 20:1 21:1 22:1 25:1 27:1 28:1 29:1 30:1 34:1 39:1 40:1 46:1 47:1 49:1 51:1 60:1 62:1 65:1 66:1 67:1 68:1 69:1 72:1 74:1 76:1 84:1 87:1 92:1 109:1 110:1 119:1 123:1 130:1 135:1 138:1 146:1 149:1 157:1 160:1 175:1 194:1 199:1 200:1 201:1 207:1 213:1 216:1 229:1 239:1 243:1 251:1 269:1 271:1 272:1 276:1 308:1 312:1 321:1 334:1 354:1 356:1 360:1 376:1 388:1 403:1 426:1 427:1 444:1 461:1 480:1 482:1 500:1 550:1 568:1 572:1 591:1 607:1 625:1 628:1 638:1 641:1 691:1 695:1 706:1 756:1 830:1 874:1 887:1 888:1 890:1 895:1 960:1 961:1 978:1 989:1 990:1 1041:1 1063:1 1217:1 1252:1 1297:1 1303:1 1320:1 1425:1 1489:1 1526:1 1593:1 1645:1 1664:1 1883:1 1959:1 2020:1 2114:1 2169:1 2302:1 2534:1 2664:1 2665:1 2856:1 2910:1 2972:1 2973:1 2988:1 #
-0.0040362920855857202864780397533195 1:1 2:1 3:1 4:1 5:1 6:1 7:1 8:1 9:1 10:1 11:1 13:1 14:1 15:1 16:1 17:1 18:1 19:1 20:1 21:1 23:1 24:1 25:1 27:1 28:1 29:1 30:1 33:1 34:1 35:1 38:1 39:1 41:1 46:1 47:1 50:1 51:1 53:1 54:1 57:1 60:1 61:1 69:1 71:1 73:1 74:1 75:1 78:1 83:1 85:1 93:1 108:1 110:1 113:1 114:1 127:1 147:1 150:1 181:1 190:1 194:1 199:1 201:1 208:1 211:1 215:1 220:1 251:1 270:1 275:1 345:1 363:1 367:1 370:1 389:1 435:1 443:1 466:1 468:1 497:1 500:1 519:1 527:1 563:1 571:1 595:1 600:1 621:1 632:1 643:1 684:1 747:1 806:1 824:1 868:1 919:1 923:1 1050:1 1119:1 1150:1 1275:1 1364:1 1393:1 1395:1 1452:1 1531:1 1590:1 1668:1 1744:1 1751:1 1777:1 1832:1 1962:1 1987:1 2021:1 2092:1 2149:1 2186:1 2328:1 2368:1 2517:1 2565:1 2607:1 2734:1 2777:1 3005:1 3012:1 3018:1 #
-0.0040362920855857202864780397533195 1:1 2:1 3:1 4:1 5:1 6:1 7:1 8:1 9:1 10:1 11:1 12:1 13:1 14:1 15:1 16:1 17:1 18:1 19:1 20:1 22:1 24:1 25:1 26:1 27:1 28:1 29:1 30:1 31:1 33:1 40:1 43:1 45:1 50:1 52:1 53:1 55:1 57:1 59:1 61:1 62:1 64:1 65:1 67:1 68:1 69:1 71:1 74:1 84:1 90:1 92:1 102:1 104:1 105:1 130:1 137:1 138:1 150:1 154:1 175:1 184:1 194:1 197:1 199:1 203:1 205:1 206:1 211:1 215:1 217:1 222:1 244:1 247:1 263:1 269:1 277:1 295:1 302:1 307:1 308:1 311:1 353:1 370:1 381:1 411:1 412:1 427:1 434:1 439:1 460:1 468:1 478:1 485:1 489:1 500:1 504:1 532:1 549:1 551:1 561:1 565:1 578:1 601:1 621:1 632:1 766:1 874:1 883:1 923:1 936:1 981:1 1050:1 1062:1 1119:1 1142:1 1198:1 1248:1 1329:1 1489:1 1493:1 1683:1 1696:1 1782:1 1881:1 1927:1 2023:1 2059:1 2089:1 2139:1 2307:1 2324:1 2362:1 2397:1 2497:1 2518:1 2734:1 2787:1 2870:1 3099:1 #
0.0040362920855857202864780397533195 1:1 2:1 3:1 4:1 5:1 6:1 7:1 8:1 9:1 10:1 11:1 12:1 13:1 14:1 15:1 16:1 17:1 18:1 20:1 21:1 22:1 23:1 24:1 25:1 26:1 27:1 28:1 29:1 30:1 31:1 32:1 33:1 34:1 35:1 36:1 37:1 39:1 40:1 41:1 42:1 43:1 44:1 45:1 46:1 47:1 49:1 51:1 52:1 53:1 55:1 56:1 57:1 59:1 60:1 61:1 62:1 63:1 64:1 67:1 68:1 69:1 70:1 71:1 72:1 73:1 74:1 75:1 76:1 77:1 78:1 80:1 83:1 85:1 86:1 87:1 89:1 91:1 92:1 93:1 94:1 95:1 96:1 98:1 100:1 101:1 102:1 104:1 105:1 111:1 114:1 115:1 116:1 119:1 121:1 123:1 125:1 126:1 127:1 130:1 131:1 134:1 135:1 136:1 138:1 143:1 144:1 149:1 153:1 155:1 157:1 160:1 161:1 162:1 166:1 168:1 170:1 172:1 176:1 184:1 186:1 188:1 192:1 194:1 197:1 199:1 203:1 206:1 209:1 218:1 220:1 225:1 233:1 235:1 236:1 239:1 240:1 241:1 243:1 246:1 249:1 252:1 253:1 260:1 261:1 263:1 268:1 286:1 289:1 295:1 297:1 299:1 302:1 303:1 305:1 306:1 310:1 321:1 322:1 336:1 344:1 346:1 348:1 350:1 355:1 356:1 357:1 373:1 384:1 387:1 394:1 401:1 404:1 408:1 412:1 413:1 416:1 421:1 438:1 439:1 443:1 445:1 456:1 470:1 481:1 483:1 487:1 488:1 500:1 507:1 515:1 521:1 534:1 549:1 551:1 566:1 588:1 599:1 602:1 621:1 628:1 644:1 648:1 649:1 685:1 691:1 692:1 699:1 717:1 734:1 737:1 775:1 783:1 803:1 817:1 820:1 826:1 842:1 843:1 880:1 889:1 908:1 919:1 927:1 928:1 964:1 977:1 995:1 1022:1 1024:1 1028:1 1038:1 1044:1 1079:1 1095:1 1112:1 1139:1 1182:1 1209:1 1269:1 1270:1 1273:1 1278:1 1298:1 1336:1 1348:1 1383:1 1395:1 1401:1 1409:1 1471:1 1472:1 1496:1 1500:1 1534:1 1557:1 1583:1 1612:1 1698:1 1712:1 1718:1 1744:1 1803:1 1809:1 1811:1 1816:1 1826:1 1888:1 2035:1 2038:1 2051:1 2103:1 2203:1 2236:1 2346:1 2511:1 2703:1 2724:1 2776:1 2826:1 2903:1 2944:1 3056:1 3079:1 #
0.0040362920855857202864780397533195 1:1 2:1 3:1 4:1 5:1 6:1 7:1 8:1 9:1 10:1 11:1 12:1 13:1 14:1 15:1 16:1 17:1 18:1 19:1 20:1 21:1 22:1 23:1 24:1 25:1 26:1 27:1 28:1 29:1 30:1 31:1 32:1 33:1 34:1 35:1 36:1 37:1 38:1 39:1 40:1 41:1 43:1 44:1 45:1 46:1 47:1 48:1 49:1 50:1 51:1 52:1 56:1 57:1 58:1 59:1 60:1 61:1 62:1 63:1 64:1 65:1 67:1 68:1 69:1 70:1 71:1 72:1 73:1 74:1 76:1 77:1 80:1 81:1 83:1 84:1 85:1 87:1 89:1 92:1 93:1 94:1 95:1 96:1 97:1 98:1 99:1 100:1 101:1 102:1 103:1 104:1 105:1 106:1 110:1 112:1 114:1 116:1 118:1 119:1 120:1 121:1 122:1 124:1 125:1 126:1 128:1 129:1 130:1 132:1 133:1 135:1 136:1 137:1 138:1 140:1 143:1 144:1 145:1 148:1 151:1 154:1 155:1 156:1 157:1 159:1 160:1 161:1 162:1 166:1 167:1 168:1 169:1 174:1 177:1 178:1 179:1 180:1 181:1 189:1 191:1 192:1 193:1 195:1 196:1 197:1 199:1 200:1 201:1 202:1 203:1 207:1 209:1 213:1 217:1 226:1 228:1 229:1 230:1 231:1 232:1 234:1 235:1 236:1 237:1 240:1 243:1 244:1 245:1 246:1 247:1 248:1 249:1 254:1 255:1 258:1 260:1 261:1 262:1 263:1 264:1 265:1 266:1 267:1 271:1 278:1 280:1 283:1 284:1 289:1 290:1 301:1 306:1 313:1 319:1 321:1 326:1 327:1 329:1 332:1 333:1 336:1 338:1 343:1 347:1 350:1 357:1 359:1 360:1 361:1 368:1 370:1 381:1 386:1 396:1 397:1 400:1 404:1 407:1 408:1 432:1 433:1 436:1 439:1 447:1 452:1 455:1 460:1 461:1 463:1 464:1 467:1 475:1 487:1 511:1 524:1 528:1 529:1 539:1 542:1 545:1 549:1 554:1 561:1 568:1 579:1 584:1 586:1 589:1 603:1 605:1 609:1 611:1 614:1 615:1 623:1 624:1 627:1 649:1 658:1 675:1 676:1 678:1 683:1 703:1 709:1 719:1 725:1 728:1 733:1 741:1 761:1 763:1 783:1 786:1 792:1 804:1 805:1 811:1 824:1 845:1 846:1 856:1 880:1 888:1 891:1 898:1 909:1 911:1 934:1 942:1 954:1 958:1 963:1 983:1 993:1 1000:1 1013:1 1015:1 1027:1 1033:1 1036:1 1049:1 1068:1 1086:1 1088:1 1116:1 1127:1 1143:1 1144:1 1196:1 1207:1 1216:1 1232:1 1234:1 1258:1 1275:1 1285:1 1290:1 1310:1 1317:1 1328:1 1362:1 1369:1 1394:1 1399:1 1405:1 1414:1 1425:1 1436:1 1459:1 1465:1 1512:1 1523:1 1526:1 1528:1 1599:1 1621:1 1638:1 1641:1 1655:1 1687:1 1703:1 1789:1 1794:1 1795:1 1803:1 1820:1 1889:1 1919:1 1923:1 1953:1 1990:1 1994:1 2006:1 2010:1 2015:1 2027:1 2041:1 2052:1 2076:1 2091:1 2105:1 2158:1 2171:1 2193:1 2204:1 2242:1 2261:1 2286:1 2383:1 2410:1 2420:1 2427:1 2494:1 2495:1 2587:1 2621:1 2683:1 2696:1 2697:1 2760:1 2761:1 2765:1 2779:1 2783:1 2807:1 2831:1 2859:1 2874:1 2910:1 2924:1 2950:1 2960:1 2966:1 2967:1 2970:1 2985:1 3052:1 #
0.0026904150864453433254774861183023 1:1 2:1 3:1 4:1 5:1 6:1 7:1 8:1 9:1 10:1 11:1 12:1 13:1 14:1 15:1 16:1 17:1 18:1 19:1 20:1 21:1 22:1 23:1 24:1 25:1 26:1 27:1 28:1 29:1 30:1 31:1 32:1 34:1 35:1 36:1 37:1 38:1 39:1 40:1 41:1 42:1 43:1 44:1 45:1 46:1 47:1 48:1 49:1 50:1 51:1 52:1 53:1 54:1 55:1 56:1 57:1 58:1 59:1 60:1 61:1 62:1 63:1 64:1 65:1 67:1 69:1 70:1 71:1 72:1 73:1 74:1 75:1 76:1 77:1 80:1 81:1 83:1 84:1 85:1 86:1 87:1 89:1 90:1 91:1 92:1 96:1 97:1 98:1 101:1 102:1 103:1 104:1 105:1 106:1 107:1 112:1 113:1 114:1 115:1 116:1 117:1 118:1 119:1 120:1 122:1 125:1 126:1 127:1 128:1 130:1 131:1 132:1 134:1 135:1 138:1 142:1 143:1 145:1 146:1 149:1 150:1 151:1 152:1 154:1 156:1 160:1 161:1 162:1 163:1 164:1 165:1 167:1 168:1 171:1 178:1 180:1 182:1 183:1 184:1 185:1 186:1 187:1 191:1 192:1 195:1 198:1 199:1 200:1 202:1 203:1 207:1 208:1 212:1 216:1 217:1 218:1 219:1 220:1 225:1 231:1 234:1 243:1 245:1 246:1 251:1 254:1 255:1 256:1 257:1 262:1 265:1 267:1 268:1 272:1 275:1 278:1 280:1 281:1 282:1 283:1 290:1 293:1 296:1 297:1 298:1 307:1 309:1 313:1 315:1 317:1 319:1 322:1 331:1 333:1 343:1 346:1 349:1 350:1 353:1 362:1 364:1 373:1 376:1 377:1 385:1 386:1 388:1 390:1 395:1 404:1 408:1 410:1 427:1 439:1 448:1 463:1 465:1 469:1 475:1 477:1 500:1 502:1 512:1 519:1 551:1 553:1 558:1 575:1 588:1 589:1 603:1 618:1 621:1 623:1 634:1 642:1 644:1 648:1 662:1 664:1 679:1 682:1 687:1 699:1 723:1 738:1 741:1 742:1 743:1 746:1 752:1 767:1 775:1 781:1 785:1 791:1 796:1 816:1 825:1 827:1 851:1 855:1 856:1 870:1 880:1 886:1 889:1 890:1 907:1 923:1 924:1 946:1 947:1 960:1 962:1 964:1 985:1 988:1 999:1 1003:1 1016:1 1023:1 1026:1 1065:1 1120:1 1137:1 1143:1 1151:1 1154:1 1171:1 1204:1 1206:1 1216:1 1229:1 1261:1 1305:1 1307:1 1311:1 1320:1 1338:1 1359:1 1419:1 1438:1 1447:1 1462:1 1515:1 1520:1 1531:1 1535:1 1546:1 1556:1 1557:1 1566:1 1570:1 1572:1 1576:1 1594:1 1650:1 1669:1 1670:1 1680:1 1750:1 1773:1 1775:1 1805:1 1822:1 1863:1 1906:1 1924:1 1939:1 1953:1 1977:1 2010:1 2050:1 2128:1 2131:1 2232:1 2291:1 2320:1 2324:1 2423:1 2445:1 2479:1 2520:1 2526:1 2596:1 2599:1 2626:1 2659:1 2661:1 2676:1 2722:1 2730:1 2747:1 2764:1 2784:1 2800:1 2892:1 2959:1 3074:1 #
0.0010038909212604025036896793210417 1:1 2:1 3:1 4:1 5:1 6:1 7:1 8:1 9:1 10:1 11:1 12:1 13:1 14:1 15:1 16:1 17:1 18:1 19:1 20:1 21:1 22:1 23:1 24:1 25:1 26:1 27:1 28:1 29:1 30:1 31:1 32:1 33:1 34:1 35:1 36:1 37:1 38:1 39:1 40:1 41:1 42:1 43:1 45:1 46:1 47:1 48:1 49:1 50:1 51:1 54:1 55:1 56:1 57:1 58:1 61:1 63:1 64:1 65:1 66:1 68:1 69:1 72:1 74:1 75:1 76:1 77:1 78:1 81:1 82:1 83:1 85:1 86:1 88:1 89:1 90:1 91:1 92:1 93:1 94:1 97:1 98:1 100:1 102:1 104:1 105:1 107:1 108:1 109:1 110:1 111:1 114:1 116:1 117:1 118:1 121:1 123:1 124:1 130:1 131:1 133:1 134:1 135:1 136:1 137:1 138:1 141:1 146:1 147:1 148:1 152:1 154:1 156:1 161:1 162:1 163:1 170:1 171:1 172:1 173:1 175:1 176:1 178:1 179:1 182:1 183:1 188:1 189:1 190:1 194:1 199:1 202:1 203:1 205:1 206:1 207:1 208:1 214:1 218:1 219:1 221:1 223:1 232:1 238:1 239:1 241:1 243:1 248:1 251:1 258:1 266:1 267:1 275:1 276:1 280:1 289:1 292:1 297:1 311:1 313:1 315:1 318:1 319:1 325:1 331:1 333:1 334:1 343:1 344:1 346:1 354:1 355:1 358:1 360:1 369:1 378:1 381:1 386:1 390:1 391:1 392:1 393:1 394:1 398:1 403:1 408:1 416:1 428:1 440:1 444:1 447:1 450:1 455:1 465:1 471:1 475:1 478:1 479:1 480:1 500:1 501:1 506:1 507:1 509:1 512:1 518:1 524:1 535:1 547:1 551:1 554:1 573:1 576:1 580:1 583:1 587:1 599:1 604:1 605:1 611:1 630:1 684:1 688:1 697:1 703:1 721:1 730:1 734:1 752:1 757:1 763:1 764:1 770:1 789:1 802:1 807:1 816:1 825:1 829:1 832:1 833:1 845:1 849:1 866:1 871:1 876:1 880:1 883:1 903:1 906:1 913:1 937:1 945:1 954:1 963:1 969:1 980:1 988:1 990:1 991:1 1001:1 1005:1 1007:1 1011:1 1014:1 1017:1 1020:1 1027:1 1028:1 1040:1 1045:1 1047:1 1065:1 1081:1 1083:1 1091:1 1098:1 1111:1 1116:1 1118:1 1139:1 1179:1 1198:1 1238:1 1239:1 1249:1 1251:1 1263:1 1279:1 1289:1 1291:1 1308:1 1325:1 1393:1 1405:1 1429:1 1430:1 1456:1 1487:1 1556:1 1597:1 1623:1 1643:1 1724:1 1753:1 1772:1 1790:1 1814:1 1832:1 1897:1 1951:1 1969:1 1976:1 2019:1 2029:1 2034:1 2046:1 2103:1 2112:1 2116:1 2177:1 2319:1 2375:1 2399:1 2498:1 2502:1 2516:1 2536:1 2537:1 2548:1 2550:1 2552:1 2558:1 2598:1 2638:1 2684:1 2689:1 2740:1 2748:1 2758:1 2794:1 2857:1 2918:1 2949:1 2977:1 2980:1 3006:1 3039:1 3053:1 3074:1 3090:1 3094:1 3095:1 3100:1 3105:1 #
0.0040362920855857202864780397533195 1:1 2:1 3:1 4:1 5:1 6:1 7:1 8:1 9:1 10:1 11:1 12:1 13:1 14:1 15:1 16:1 17:1 18:1 19:1 20:1 21:1 22:1 23:1 24:1 25:1 26:1 27:1 28:1 29:1 30:1 31:1 32:1 33:1 34:1 35:1 36:1 37:1 38:1 39:1 40:1 41:1 42:1 43:1 44:1 45:1 47:1 48:1 49:1 50:1 51:1 52:1 53:1 55:1 56:1 57:1 59:1 60:1 61:1 62:1 63:1 64:1 65:1 66:1 67:1 68:1 69:1 72:1 73:1 75:1 76:1 81:1 82:1 83:1 85:1 87:1 89:1 91:1 93:1 94:1 95:1 96:1 97:1 98:1 100:1 102:1 103:1 104:1 106:1 107:1 108:1 109:1 110:1 112:1 113:1 114:1 116:1 117:1 118:1 120:1 123:1 125:1 126:1 127:1 130:1 131:1 132:1 136:1 143:1 147:1 149:1 150:1 154:1 156:1 165:1 167:1 168:1 169:1 172:1 175:1 178:1 180:1 182:1 183:1 184:1 185:1 186:1 189:1 190:1 191:1 192:1 193:1 195:1 196:1 200:1 202:1 205:1 208:1 211:1 214:1 218:1 219:1 220:1 225:1 227:1 232:1 233:1 234:1 235:1 237:1 239:1 242:1 246:1 249:1 255:1 257:1 262:1 264:1 266:1 267:1 270:1 271:1 281:1 283:1 288:1 291:1 294:1 297:1 301:1 303:1 305:1 306:1 307:1 310:1 320:1 326:1 330:1 335:1 336:1 346:1 348:1 353:1 355:1 361:1 362:1 363:1 366:1 369:1 373:1 374:1 378:1 380:1 382:1 383:1 384:1 389:1 390:1 400:1 401:1 407:1 408:1 414:1 416:1 417:1 420:1 422:1 424:1 436:1 439:1 441:1 454:1 463:1 467:1 475:1 481:1 483:1 485:1 488:1 496:1 506:1 508:1 515:1 516:1 520:1 528:1 532:1 539:1 545:1 584:1 598:1 601:1 605:1 607:1 615:1 621:1 626:1 635:1 640:1 647:1 648:1 649:1 680:1 702:1 703:1 719:1 760:1 761:1 772:1 775:1 781:1 791:1 824:1 863:1 864:1 870:1 877:1 905:1 939:1 945:1 949:1 958:1 985:1 1011:1 1017:1 1018:1 1023:1 1031:1 1034:1 1035:1 1051:1 1054:1 1058:1 1125:1 1136:1 1191:1 1208:1 1311:1 1330:1 1354:1 1376:1 1393:1 1416:1 1435:1 1439:1 1463:1 1504:1 1508:1 1522:1 1538:1 1551:1 1563:1 1585:1 1586:1 1593:1 1598:1 1609:1 1671:1 1685:1 1745:1 1764:1 1778:1 1814:1 1881:1 1919:1 2061:1 2076:1 2082:1 2131:1 2151:1 2158:1 2186:1 2217:1 2225:1 2298:1 2374:1 2394:1 2430:1 2453:1 2455:1 2471:1 2518:1 2572:1 2593:1 2605:1 2628:1 2717:1 2768:1 2805:1 2811:1 2836:1 2842:1 2871:1 2995:1 3110:1 #
-0.0021749392756241227829538953386646 1:1 2:1 3:1 4:1 5:1 6:1 7:1 8:1 9:1 10:1 11:1 12:1 13:1 14:1 15:1 16:1 17:1 18:1 19:1 20:1 21:1 22:1 23:1 24:1 25:1 26:1 28:1 29:1 30:1 31:1 32:1 33:1 34:1 35:1 36:1 37:1 38:1 39:1 40:1 41:1 44:1 45:1 46:1 47:1 48:1 49:1 50:1 51:1 52:1 53:1 54:1 55:1 56:1 57:1 59:1 60:1 61:1 62:1 63:1 64:1 67:1 68:1 69:1 70:1 72:1 73:1 74:1 76:1 77:1 78:1 79:1 80:1 81:1 82:1 83:1 85:1 86:1 88:1 90:1 92:1 93:1 94:1 96:1 97:1 99:1 100:1 102:1 103:1 104:1 105:1 107:1 108:1 110:1 114:1 115:1 116:1 117:1 118:1 119:1 120:1 122:1 124:1 127:1 128:1 129:1 130:1 131:1 135:1 136:1 142:1 144:1 145:1 146:1 148:1 149:1 150:1 151:1 155:1 156:1 158:1 160:1 163:1 164:1 166:1 167:1 168:1 169:1 172:1 173:1 174:1 175:1 177:1 178:1 179:1 181:1 183:1 185:1 186:1 191:1 193:1 197:1 204:1 210:1 213:1 214:1 218:1 219:1 221:1 224:1 225:1 230:1 231:1 233:1 236:1 238:1 240:1 243:1 246:1 247:1 250:1 251:1 257:1 261:1 264:1 266:1 271:1 275:1 277:1 278:1 282:1 285:1 286:1 289:1 291:1 293:1 294:1 295:1 298:1 300:1 313:1 315:1 316:1 319:1 322:1 331:1 337:1 338:1 340:1 341:1 346:1 351:1 353:1 354:1 358:1 360:1 362:1 368:1 375:1 383:1 384:1 386:1 388:1 389:1 395:1 400:1 401:1 402:1 404:1 416:1 418:1 425:1 428:1 442:1 451:1 453:1 459:1 463:1 468:1 484:1 490:1 491:1 503:1 510:1 520:1 522:1 523:1 525:1 529:1 530:1 544:1 549:1 553:1 564:1 572:1 574:1 578:1 584:1 589:1 591:1 608:1 618:1 626:1 629:1 639:1 665:1 670:1 675:1 681:1 715:1 722:1 729:1 736:1 739:1 741:1 768:1 775:1 785:1 786:1 801:1 818:1 822:1 833:1 835:1 836:1 847:1 867:1 871:1 890:1 908:1 915:1 919:1 925:1 926:1 943:1 961:1 969:1 986:1 990:1 999:1 1000:1 1010:1 1016:1 1046:1 1053:1 1082:1 1100:1 1103:1 1112:1 1134:1 1143:1 1148:1 1167:1 1168:1 1170:1 1177:1 1178:1 1187:1 1193:1 1198:1 1200:1 1201:1 1223:1 1298:1 1304:1 1310:1 1343:1 1371:1 1410:1 1415:1 1419:1 1420:1 1438:1 1468:1 1484:1 1503:1 1530:1 1550:1 1572:1 1603:1 1638:1 1644:1 1670:1 1682:1 1697:1 1730:1 1731:1 1732:1 1740:1 1760:1 1789:1 1800:1 1804:1 1816:1 1835:1 1864:1 2060:1 2076:1 2082:1 2092:1 2096:1 2159:1 2184:1 2201:1 2236:1 2241:1 2280:1 2327:1 2329:1 2364:1 2426:1 2453:1 2504:1 2537:1 2600:1 2602:1 2620:1 2665:1 2694:1 2762:1 2816:1 2825:1 2851:1 2866:1 3059:1 3077:1 3112:1 #
-0.00052871807882907354697588075964632 1:1 2:1 3:1 4:1 5:1 6:1 7:1 8:1 9:1 10:1 11:1 12:1 13:1 14:1 15:1 16:1 17:1 18:1 19:1 20:1 21:1 22:1 23:1 24:1 25:1 26:1 27:1 28:1 29:1 30:1 31:1 32:1 33:1 34:1 36:1 37:1 38:1 39:1 40:1 41:1 43:1 44:1 45:1 46:1 47:1 48:1 49:1 50:1 51:1 54:1 56:1 57:1 58:1 59:1 60:1 61:1 62:1 63:1 64:1 65:1 66:1 67:1 68:1 69:1 70:1 72:1 73:1 74:1 75:1 76:1 77:1 78:1 79:1 80:1 81:1 83:1 90:1 93:1 94:1 99:1 102:1 104:1 107:1 108:1 110:1 115:1 117:1 118:1 119:1 122:1 126:1 127:1 129:1 130:1 132:1 134:1 135:1 136:1 137:1 138:1 140:1 142:1 144:1 147:1 149:1 150:1 152:1 153:1 158:1 162:1 166:1 168:1 170:1 172:1 180:1 182:1 185:1 186:1 190:1 192:1 198:1 199:1 200:1 201:1 205:1 211:1 212:1 215:1 220:1 223:1 230:1 233:1 234:1 236:1 240:1 242:1 243:1 245:1 246:1 249:1 251:1 253:1 267:1 271:1 272:1 274:1 275:1 278:1 280:1 287:1 288:1 294:1 297:1 299:1 307:1 308:1 310:1 311:1 314:1 317:1 349:1 358:1 362:1 366:1 369:1 370:1 373:1 375:1 390:1 394:1 396:1 417:1 419:1 422:1 431:1 433:1 444:1 450:1 464:1 465:1 470:1 482:1 490:1 501:1 504:1 515:1 520:1 525:1 546:1 558:1 563:1 582:1 591:1 598:1 626:1 638:1 657:1 674:1 680:1 704:1 720:1 721:1 737:1 741:1 745:1 762:1 773:1 808:1 853:1 855:1 873:1 883:1 885:1 907:1 932:1 934:1 940:1 1031:1 1043:1 1063:1 1073:1 1088:1 1139:1 1140:1 1166:1 1219:1 1220:1 1295:1 1306:1 1322:1 1331:1 1363:1 1379:1 1407:1 1418:1 1430:1 1446:1 1449:1 1458:1 1463:1 1479:1 1502:1 1540:1 1598:1 1638:1 1648:1 1654:1 1659:1 1665:1 1671:1 1679:1 1687:1 1750:1 1769:1 1821:1 1837:1 1921:1 1923:1 1945:1 1978:1 2003:1 2042:1 2152:1 2163:1 2195:1 2264:1 2313:1 2318:1 2330:1 2390:1 2500:1 2604:1 2655:1 2713:1 2738:1 2800:1 2801:1 2812:1 2827:1 2851:1 2868:1 2883:1 2899:1 2930:1 3011:1 #
-0.00069281010841773136513938036173954 1:1 2:1 3:1 4:1 5:1 6:1 7:1 8:1 9:1 10:1 11:1 12:1 13:1 14:1 15:1 16:1 17:1 18:1 19:1 20:1 21:1 22:1 23:1 24:1 25:1 26:1 27:1 28:1 29:1 30:1 31:1 32:1 33:1 34:1 35:1 36:1 37:1 38:1 39:1 40:1 41:1 42:1 43:1 44:1 45:1 46:1 48:1 49:1 50:1 51:1 52:1 53:1 54:1 55:1 56:1 57:1 59:1 60:1 61:1 62:1 63:1 64:1 65:1 66:1 67:1 68:1 69:1 70:1 71:1 72:1 73:1 74:1 75:1 76:1 79:1 80:1 81:1 85:1 86:1 87:1 89:1 90:1 91:1 95:1 98:1 99:1 100:1 101:1 102:1 103:1 106:1 107:1 109:1 110:1 111:1 114:1 115:1 116:1 117:1 118:1 119:1 120:1 121:1 122:1 123:1 124:1 125:1 126:1 127:1 128:1 129:1 131:1 132:1 133:1 134:1 137:1 138:1 143:1 145:1 147:1 148:1 149:1 151:1 154:1 155:1 156:1 158:1 160:1 161:1 162:1 163:1 165:1 167:1 168:1 169:1 171:1 172:1 174:1 176:1 178:1 183:1 184:1 185:1 186:1 187:1 189:1 191:1 192:1 193:1 195:1 196:1 199:1 200:1 201:1 202:1 208:1 210:1 212:1 213:1 214:1 215:1 223:1 225:1 228:1 229:1 230:1 233:1 236:1 238:1 240:1 242:1 244:1 246:1 248:1 249:1 251:1 253:1 258:1 261:1 263:1 265:1 279:1 281:1 284:1 285:1 289:1 290:1 294:1 297:1 299:1 305:1 307:1 308:1 312:1 317:1 318:1 319:1 320:1 323:1 324:1 326:1 329:1 331:1 332:1 341:1 348:1 353:1 357:1 358:1 359:1 360:1 361:1 364:1 367:1 373:1 374:1 375:1 377:1 387:1 394:1 397:1 398:1 401:1 408:1 412:1 414:1 416:1 418:1 421:1 434:1 437:1 439:1 442:1 443:1 444:1 446:1 450:1 455:1 461:1 462:1 464:1 468:1 481:1 488:1 502:1 514:1 533:1 538:1 541:1 546:1 558:1 559:1 561:1 562:1 567:1 580:1 588:1 590:1 591:1 595:1 599:1 605:1 606:1 616:1 621:1 628:1 638:1 639:1 643:1 658:1 664:1 665:1 667:1 670:1 674:1 680:1 684:1 689:1 691:1 695:1 699:1 703:1 704:1 717:1 722:1 727:1 728:1 741:1 744:1 751:1 752:1 759:1 777:1 792:1 796:1 800:1 803:1 817:1 821:1 826:1 828:1 834:1 865:1 869:1 870:1 884:1 888:1 890:1 899:1 923:1 936:1 945:1 948:1 950:1 952:1 954:1 966:1 972:1 974:1 975:1 982:1 991:1 993:1 999:1 1002:1 1005:1 1016:1 1023:1 1030:1 1033:1 1041:1 1042:1 1045:1 1065:1 1070:1 1095:1 1101:1 1103:1 1112:1 1122:1 1123:1 1127:1 1132:1 1133:1 1147:1 1168:1 1178:1 1184:1 1189:1 1201:1 1206:1 1211:1 1212:1 1221:1 1230:1 1239:1 1242:1 1247:1 1269:1 1276:1 1287:1 1288:1 1296:1 1314:1 1317:1 1359:1 1376:1 1424:1 1435:1 1442:1 1465:1 1468:1 1490:1 1512:1 1517:1 1531:1 1537:1 1546:1 1553:1 1570:1 1577:1 1581:1 1593:1 1594:1 1626:1 1627:1 1640:1 1651:1 1656:1 1659:1 1662:1 1704:1 1733:1 1737:1 1738:1 1739:1 1744:1 1785:1 1787:1 1789:1 1793:1 1795:1 1822:1 1845:1 1898:1 1900:1 1912:1 1921:1 1924:1 1933:1 1954:1 1988:1 1999:1 2039:1 2053:1 2061:1 2072:1 2080:1 2096:1 2137:1 2170:1 2183:1 2190:1 2198:1 2220:1 2257:1 2303:1 2346:1 2359:1 2364:1 2370:1 2392:1 2418:1 2422:1 2425:1 2431:1 2454:1 2492:1 2496:1 2515:1 2520:1 2521:1 2534:1 2561:1 2574:1 2597:1 2599:1 2614:1 2622:1 2626:1 2682:1 2728:1 2735:1 2743:1 2749:1 2804:1 2922:1 2943:1 2946:1 2971:1 2995:1 3001:1 3005:1 3037:1 3038:1 3064:1 3071:1 3079:1 3100:1 #
-0.00082743649372647677317504921745694 1:1 2:1 3:1 4:1 5:1 6:1 7:1 8:1 9:1 10:1 11:1 12:1 13:1 14:1 15:1 16:1 17:1 18:1 19:1 20:1 21:1 22:1 23:1 24:1 25:1 26:1 27:1 28:1 29:1 30:1 31:1 32:1 33:1 34:1 35:1 36:1 37:1 38:1 39:1 40:1 41:1 42:1 43:1 44:1 45:1 46:1 47:1 48:1 49:1 50:1 51:1 52:1 53:1 54:1 55:1 56:1 57:1 58:1 59:1 60:1 61:1 62:1 63:1 64:1 65:1 66:1 67:1 68:1 69:1 70:1 71:1 72:1 73:1 74:1 75:1 76:1 77:1 78:1 79:1 80:1 81:1 82:1 83:1 85:1 86:1 88:1 89:1 90:1 91:1 92:1 93:1 94:1 95:1 97:1 98:1 99:1 100:1 101:1 102:1 103:1 104:1 105:1 106:1 107:1 108:1 109:1 111:1 112:1 114:1 115:1 116:1 117:1 118:1 120:1 124:1 125:1 126:1 127:1 129:1 130:1 132:1 133:1 137:1 138:1 140:1 142:1 143:1 146:1 147:1 148:1 149:1 151:1 153:1 154:1 155:1 156:1 158:1 160:1 161:1 164:1 166:1 167:1 168:1 169:1 171:1 173:1 174:1 177:1 178:1 179:1 181:1 182:1 183:1 184:1 185:1 189:1 191:1 192:1 193:1 195:1 197:1 200:1 206:1 208:1 209:1 210:1 213:1 216:1 217:1 219:1 225:1 227:1 228:1 229:1 230:1 231:1 233:1 234:1 237:1 238:1 239:1 240:1 243:1 244:1 245:1 246:1 249:1 250:1 254:1 257:1 260:1 262:1 263:1 264:1 265:1 268:1 269:1 270:1 277:1 278:1 281:1 286:1 287:1 288:1 295:1 296:1 298:1 305:1 306:1 309:1 311:1 313:1 314:1 315:1 318:1 319:1 322:1 323:1 328:1 330:1 331:1 332:1 333:1 334:1 335:1 337:1 341:1 347:1 352:1 353:1 354:1 355:1 356:1 357:1 359:1 360:1 361:1 364:1 366:1 374:1 376:1 379:1 380:1 385:1 386:1 387:1 388:1 389:1 390:1 398:1 400:1 404:1 405:1 406:1 407:1 410:1 416:1 418:1 420:1 424:1 432:1 434:1 436:1 437:1 441:1 443:1 445:1 447:1 448:1 449:1 450:1 452:1 453:1 455:1 460:1 464:1 465:1 466:1 468:1 469:1 473:1 479:1 480:1 487:1 491:1 494:1 495:1 496:1 498:1 499:1 501:1 510:1 517:1 524:1 525:1 530:1 531:1 533:1 536:1 538:1 541:1 542:1 553:1 554:1 558:1 561:1 567:1 571:1 572:1 574:1 578:1 583:1 584:1 586:1 587:1 588:1 597:1 607:1 608:1 615:1 617:1 620:1 622:1 624:1 626:1 628:1 633:1 651:1 659:1 668:1 678:1 691:1 695:1 701:1 706:1 710:1 711:1 716:1 718:1 719:1 720:1 721:1 725:1 737:1 738:1 741:1 742:1 758:1 761:1 764:1 767:1 773:1 776:1 781:1 802:1 803:1 805:1 806:1 813:1 818:1 823:1 828:1 841:1 842:1 846:1 858:1 862:1 863:1 877:1 879:1 898:1 902:1 903:1 913:1 924:1 938:1 950:1 969:1 975:1 979:1 989:1 991:1 994:1 999:1 1003:1 1008:1 1009:1 1029:1 1034:1 1036:1 1042:1 1046:1 1049:1 1063:1 1064:1 1072:1 1079:1 1082:1 1084:1 1085:1 1104:1 1106:1 1111:1 1115:1 1121:1 1128:1 1145:1 1160:1 1187:1 1188:1 1209:1 1215:1 1218:1 1221:1 1222:1 1223:1 1240:1 1247:1 1254:1 1258:1 1262:1 1263:1 1265:1 1268:1 1274:1 1276:1 1294:1 1310:1 1328:1 1345:1 1346:1 1350:1 1352:1 1353:1 1362:1 1372:1 1377:1 1388:1 1397:1 1398:1 1399:1 1426:1 1439:1 1440:1 1457:1 1497:1 1505:1 1511:1 1516:1 1520:1 1529:1 1533:1 1536:1 1540:1 1551:1 1595:1 1624:1 1648:1 1649:1 1651:1 1665:1 1674:1 1685:1 1704:1 1710:1 1734:1 1738:1 1742:1 1745:1 1750:1 1752:1 1760:1 1788:1 1816:1 1821:1 1824:1 1825:1 1828:1 1836:1 1880:1 1902:1 1905:1 1906:1 1919:1 1951:1 1952:1 1953:1 1961:1 1964:1 1977:1 1984:1 1992:1 2004:1 2006:1 2019:1 2023:1 2037:1 2041:1 2061:1 2064:1 2065:1 2066:1 2083:1 2102:1 2105:1 2151:1 2159:1 2176:1 2195:1 2236:1 2242:1 2252:1 2261:1 2286:1 2384:1 2392:1 2401:1 2430:1 2451:1 2460:1 2491:1 2513:1 2519:1 2526:1 2541:1 2570:1 2593:1 2631:1 2723:1 2727:1 2730:1 2739:1 2750:1 2752:1 2771:1 2775:1 2811:1 2817:1 2820:1 2829:1 2831:1 2835:1 2855:1 2943:1 2953:1 2970:1 2986:1 3063:1 3106:1 #
-0.0023914326331850609998197487726657 1:1 2:1 3:1 4:1 5:1 6:1 7:1 8:1 9:1 10:1 11:1 12:1 13:1 14:1 15:1 16:1 17:1 18:1 19:1 20:1 21:1 22:1 23:1 24:1 25:1 26:1 27:1 28:1 29:1 30:1 31:1 32:1 33:1 34:1 35:1 36:1 37:1 38:1 39:1 40:1 41:1 42:1 43:1 44:1 45:1 46:1 47:1 48:1 49:1 50:1 51:1 52:1 53:1 55:1 56:1 57:1 59:1 60:1 61:1 62:1 63:1 64:1 65:1 66:1 67:1 68:1 71:1 72:1 73:1 74:1 75:1 76:1 80:1 81:1 82:1 84:1 85:1 87:1 88:1 89:1 91:1 96:1 97:1 98:1 99:1 100:1 103:1 104:1 106:1 107:1 108:1 109:1 110:1 111:1 113:1 114:1 115:1 116:1 118:1 119:1 120:1 121:1 122:1 123:1 124:1 125:1 126:1 128:1 131:1 132:1 133:1 134:1 135:1 136:1 138:1 142:1 143:1 144:1 146:1 147:1 150:1 153:1 155:1 156:1 159:1 160:1 165:1 167:1 172:1 174:1 175:1 177:1 178:1 179:1 182:1 183:1 186:1 189:1 192:1 194:1 195:1 197:1 200:1 202:1 209:1 211:1 212:1 214:1 215:1 218:1 219:1 225:1 232:1 233:1 235:1 237:1 240:1 241:1 245:1 248:1 261:1 264:1 265:1 278:1 282:1 283:1 286:1 287:1 288:1 290:1 293:1 301:1 304:1 305:1 307:1 309:1 310:1 311:1 312:1 320:1 321:1 322:1 326:1 328:1 335:1 337:1 341:1 345:1 354:1 364:1 366:1 368:1 370:1 373:1 377:1 381:1 389:1 394:1 398:1 408:1 415:1 419:1 422:1 425:1 426:1 428:1 436:1 439:1 443:1 448:1 450:1 471:1 475:1 481:1 482:1 487:1 488:1 498:1 501:1 504:1 507:1 513:1 517:1 524:1 526:1 529:1 539:1 543:1 554:1 592:1 595:1 596:1 602:1 605:1 614:1 623:1 636:1 640:1 644:1 647:1 656:1 659:1 670:1 694:1 701:1 703:1 706:1 710:1 711:1 720:1 737:1 741:1 758:1 778:1 783:1 787:1 789:1 791:1 811:1 822:1 824:1 831:1 847:1 854:1 855:1 867:1 883:1 888:1 904:1 905:1 906:1 938:1 952:1 953:1 958:1 967:1 972:1 983:1 986:1 1016:1 1017:1 1018:1 1026:1 1031:1 1034:1 1075:1 1121:1 1199:1 1216:1 1278:1 1290:1 1292:1 1295:1 1297:1 1305:1 1364:1 1372:1 1384:1 1392:1 1396:1 1399:1 1401:1 1414:1 1441:1 1454:1 1469:1 1487:1 1491:1 1629:1 1656:1 1697:1 1708:1 1764:1 1778:1 1790:1 1840:1 1866:1 1901:1 1922:1 1947:1 1971:1 2006:1 2016:1 2020:1 2021:1 2024:1 2040:1 2061:1 2144:1 2150:1 2221:1 2276:1 2294:1 2312:1 2354:1 2415:1 2432:1 2453:1 2515:1 2528:1 2564:1 2575:1 2609:1 2657:1 2722:1 2723:1 2759:1 2805:1 2823:1 2835:1 2844:1 2881:1 2955:1 2987:1 #
0.0040362920855857202864780397533195 1:1 2:1 3:1 4:1 5:1 6:1 7:1 8:1 9:1 10:1 11:1 12:1 13:1 14:1 15:1 16:1 17:1 18:1 19:1 21:1 22:1 24:1 25:1 26:1 27:1 29:1 30:1 31:1 35:1 36:1 38:1 40:1 41:1 47:1 51:1 53:1 54:1 57:1 67:1 75:1 78:1 82:1 90:1 92:1 98:1 104:1 109:1 112:1 129:1 130:1 156:1 163:1 171:1 173:1 190:1 196:1 198:1 201:1 262:1 268:1 269:1 275:1 276:1 287:1 288:1 307:1 376:1 379:1 393:1 403:1 465:1 466:1 493:1 527:1 547:1 552:1 566:1 602:1 628:1 647:1 661:1 693:1 701:1 756:1 785:1 836:1 859:1 871:1 882:1 903:1 966:1 974:1 1077:1 1160:1 1185:1 1194:1 1230:1 1235:1 1276:1 1307:1 1488:1 1538:1 1643:1 1810:1 1834:1 1862:1 1939:1 1941:1 2075:1 2105:1 2281:1 2396:1 2547:1 2855:1 2895:1 2933:1 3021:1 #
0.0040362920855857202864780397533195 1:1 2:1 3:1 4:1 5:1 6:1 7:1 8:1 9:1 10:1 11:1 12:1 13:1 14:1 15:1 16:1 17:1 19:1 20:1 22:1 24:1 25:1 27:1 29:1 30:1 31:1 32:1 33:1 34:1 38:1 39:1 46:1 47:1 51:1 54:1 56:1 58:1 62:1 63:1 66:1 67:1 68:1 73:1 85:1 87:1 99:1 108:1 113:1 118:1 121:1 137:1 138:1 149:1 170:1 174:1 188:1 190:1 192:1 223:1 269:1 272:1 297:1 300:1 315:1 319:1 390:1 405:1 414:1 417:1 452:1 468:1 472:1 498:1 527:1 568:1 621:1 664:1 694:1 705:1 713:1 718:1 746:1 807:1 887:1 921:1 922:1 923:1 980:1 1095:1 1107:1 1118:1 1135:1 1156:1 1157:1 1246:1 1253:1 1258:1 1441:1 1924:1 1947:1 2009:1 2017:1 2077:1 2221:1 2230:1 2324:1 2326:1 2348:1 2426:1 2483:1 2487:1 2492:1 2563:1 2570:1 2734:1 2792:1 2916:1 #
0.0040362920855857202864780397533195 1:1 2:1 3:1 4:1 5:1 6:1 7:1 8:1 9:1 10:1 11:1 12:1 13:1 14:1 15:1 16:1 17:1 18:1 19:1 20:1 21:1 22:1 25:1 29:1 30:1 31:1 33:1 34:1 35:1 37:1 39:1 41:1 47:1 48:1 49:1 51:1 54:1 55:1 59:1 63:1 66:1 70:1 71:1 76:1 77:1 78:1 95:1 110:1 118:1 119:1 126:1 149:1 150:1 151:1 169:1 176:1 187:1 188:1 197:1 202:1 208:1 212:1 220:1 221:1 224:1 249:1 250:1 277:1 299:1 300:1 355:1 356:1 364:1 369:1 370:1 389:1 425:1 431:1 442:1 468:1 507:1 508:1 509:1 519:1 578:1 601:1 621:1 632:1 670:1 707:1 708:1 716:1 736:1 757:1 765:1 777:1 793:1 799:1 807:1 812:1 832:1 851:1 899:1 910:1 923:1 936:1 955:1 998:1 1004:1 1045:1 1149:1 1201:1 1203:1 1244:1 1520:1 1672:1 1704:1 1742:1 1782:1 1798:1 1831:1 1836:1 1847:1 1964:1 1983:1 2031:1 2139:1 2184:1 2198:1 2286:1 2307:1 2411:1 2493:1 2571:1 2599:1 2602:1 2734:1 2747:1 2863:1 2965:1 2990:1 3028:1 #
0.0040362920855857202864780397533195 1:1 2:1 3:1 4:1 5:1 6:1 7:1 8:1 9:1 10:1 11:1 12:1 13:1 14:1 15:1 16:1 17:1 18:1 19:1 20:1 21:1 22:1 24:1 25:1 26:1 27:1 30:1 31:1 34:1 36:1 38:1 39:1 41:1 43:1 45:1 46:1 47:1 49:1 51:1 52:1 54:1 55:1 56:1 59:1 60:1 64:1 67:1 68:1 75:1 91:1 96:1 100:1 101:1 108:1 111:1 129:1 139:1 143:1 144:1 145:1 146:1 150:1 156:1 157:1 159:1 166:1 167:1 169:1 171:1 187:1 188:1 189:1 201:1 206:1 238:1 243:1 246:1 253:1 264:1 267:1 269:1 277:1 285:1 302:1 304:1 307:1 315:1 318:1 327:1 332:1 341:1 349:1 353:1 354:1 356:1 357:1 361:1 362:1 369:1 374:1 385:1 393:1 394:1 408:1 411:1 415:1 419:1 440:1 441:1 458:1 477:1 488:1 495:1 527:1 532:1 551:1 566:1 570:1 580:1 581:1 592:1 597:1 611:1 612:1 613:1 621:1 664:1 705:1 753:1 756:1 758:1 794:1 801:1 807:1 827:1 860:1 884:1 890:1 918:1 929:1 1020:1 1045:1 1066:1 1097:1 1101:1 1112:1 1113:1 1142:1 1174:1 1208:1 1226:1 1231:1 1239:1 1245:1 1252:1 1291:1 1295:1 1334:1 1385:1 1391:1 1396:1 1453:1 1454:1 1455:1 1478:1 1515:1 1550:1 1557:1 1583:1 1589:1 1609:1 1736:1 1742:1 1781:1 1790:1 1888:1 1953:1 2091:1 2225:1 2235:1 2301:1 2321:1 2339:1 2396:1 2398:1 2546:1 2644:1 2691:1 2771:1 2794:1 2823:1 2879:1 2952:1 2974:1 3022:1 3028:1 3078:1 3100:1 3105:1 #
0.0040362920855857202864780397533195 1:1 2:1 3:1 4:1 5:1 6:1 7:1 8:1 9:1 10:1 11:1 12:1 13:1 14:1 15:1 16:1 17:1 18:1 19:1 20:1 22:1 24:1 25:1 26:1 27:1 28:1 29:1 31:1 33:1 38:1 45:1 49:1 50:1 52:1 53:1 61:1 62:1 64:1 69:1 71:1 73:1 75:1 78:1 83:1 84:1 95:1 97:1 99:1 102:1 109:1 112:1 113:1 117:1 118:1 121:1 128:1 137:1 156:1 159:1 202:1 204:1 232:1 233:1 235:1 248:1 259:1 264:1 269:1 285:1 293:1 349:1 355:1 371:1 415:1 417:1 427:1 436:1 444:1 457:1 468:1 478:1 490:1 516:1 551:1 597:1 602:1 612:1 621:1 623:1 643:1 670:1 684:1 706:1 710:1 713:1 799:1 806:1 828:1 848:1 851:1 906:1 923:1 962:1 968:1 975:1 1028:1 1041:1 1054:1 1143:1 1181:1 1221:1 1283:1 1317:1 1340:1 1392:1 1412:1 1474:1 1485:1 1522:1 1569:1 1605:1 1626:1 1655:1 1657:1 1673:1 1705:1 1861:1 1868:1 1869:1 1895:1 1924:1 1978:1 2053:1 2068:1 2121:1 2133:1 2194:1 2220:1 2286:1 2295:1 2324:1 2487:1 2581:1 2664:1 2722:1 2734:1 2777:1 2891:1 2990:1 3066:1 #
-0.0040362920855857202864780397533195 1:1 2:1 3:1 4:1 5:1 6:1 7:1 8:1 9:1 10:1 12:1 13:1 14:1 15:1 16:1 17:1 18:1 20:1 24:1 26:1 27:1 30:1 32:1 33:1 34:1 35:1 36:1 37:1 38:1 39:1 41:1 43:1 44:1 45:1 48:1 50:1 51:1 55:1 61:1 62:1 71:1 73:1 77:1 83:1 89:1 90:1 92:1 93:1 96:1 97:1 106:1 109:1 112:1 134:1 139:1 145:1 150:1 160:1 171:1 179:1 181:1 182:1 198:1 225:1 246:1 251:1 255:1 259:1 262:1 263:1 274:1 279:1 283:1 285:1 288:1 297:1 299:1 300:1 316:1 322:1 327:1 336:1 337:1 340:1 346:1 350:1 427:1 455:1 462:1 477:1 480:1 506:1 511:1 521:1 543:1 562:1 566:1 570:1 575:1 583:1 683:1 707:1 708:1 736:1 769:1 779:1 788:1 799:1 816:1 858:1 863:1 898:1 899:1 941:1 1050:1 1081:1 1101:1 1219:1 1331:1 1339:1 1358:1 1425:1 1492:1 1499:1 1507:1 1618:1 1681:1 1689:1 1839:1 2052:1 2059:1 2210:1 2636:1 2646:1 2801:1 2897:1 2917:1 2946:1 3053:1 #
-0.0040362920855857202864780397533195 1:1 2:1 3:1 4:1 5:1 6:1 7:1 8:1 9:1 10:1 11:1 12:1 13:1 14:1 15:1 18:1 19:1 20:1 21:1 22:1 23:1 24:1 25:1 27:1 30:1 31:1 32:1 33:1 34:1 36:1 37:1 38:1 39:1 44:1 49:1 51:1 52:1 59:1 62:1 66:1 69:1 74:1 88:1 92:1 94:1 101:1 116:1 127:1 128:1 131:1 137:1 138:1 145:1 152:1 170:1 190:1 203:1 205:1 223:1 255:1 262:1 272:1 285:1 352:1 356:1 384:1 386:1 394:1 424:1 431:1 433:1 446:1 461:1 468:1 486:1 494:1 651:1 699:1 717:1 773:1 819:1 851:1 917:1 953:1 959:1 982:1 1132:1 1203:1 1235:1 1279:1 1393:1 1435:1 1458:1 1567:1 1745:1 2167:1 2286:1 2392:1 2571:1 2850:1 3061:1 #
-0.0040362920855857202864780397533195 1:1 2:1 3:1 4:1 5:1 6:1 7:1 9:1 10:1 12:1 14:1 15:1 16:1 17:1 19:1 20:1 21:1 23:1 24:1 26:1 28:1 36:1 37:1 38:1 41:1 45:1 48:1 49:1 50:1 54:1 55:1 66:1 80:1 84:1 85:1 87:1 111:1 124:1 137:1 143:1 146:1 153:1 154:1 157:1 160:1 163:1 171:1 190:1 201:1 206:1 224:1 233:1 237:1 241:1 288:1 293:1 326:1 327:1 346:1 359:1 378:1 382:1 404:1 433:1 461:1 576:1 755:1 757:1 785:1 786:1 807:1 808:1 851:1 866:1 876:1 913:1 914:1 1107:1 1208:1 1347:1 1471:1 1472:1 1631:1 1855:1 2007:1 2077:1 2203:1 2214:1 2453:1 #
-0.0040362920855857202864780397533195 1:1 2:1 3:1 4:1 5:1 6:1 7:1 8:1 9:1 10:1 11:1 12:1 14:1 15:1 16:1 17:1 18:1 19:1 20:1 21:1 22:1 24:1 25:1 26:1 28:1 29:1 30:1 31:1 32:1 34:1 36:1 38:1 39:1 41:1 44:1 45:1 49:1 52:1 56:1 59:1 60:1 62:1 75:1 84:1 103:1 105:1 112:1 119:1 124:1 137:1 146:1 156:1 167:1 171:1 173:1 180:1 186:1 187:1 189:1 206:1 210:1 220:1 230:1 240:1 248:1 258:1 261:1 285:1 303:1 319:1 346:1 348:1 353:1 374:1 376:1 377:1 407:1 410:1 432:1 444:1 445:1 455:1 473:1 549:1 552:1 561:1 566:1 621:1 643:1 646:1 648:1 651:1 661:1 670:1 675:1 676:1 679:1 689:1 733:1 786:1 828:1 838:1 851:1 875:1 876:1 889:1 899:1 908:1 919:1 920:1 932:1 972:1 977:1 984:1 1024:1 1098:1 1123:1 1139:1 1188:1 1243:1 1258:1 1288:1 1348:1 1471:1 1472:1 1507:1 1546:1 1548:1 1572:1 1575:1 1582:1 1592:1 1698:1 1712:1 1791:1 1917:1 1937:1 1970:1 1986:1 2004:1 2083:1 2201:1 2226:1 2328:1 2403:1 2431:1 2511:1 3048:1 #
-0.0040362920855857202864780397533195 1:1 2:1 3:1 4:1 5:1 6:1 7:1 8:1 9:1 10:1 11:1 12:1 14:1 15:1 16:1 18:1 19:1 22:1 24:1 25:1 26:1 27:1 30:1 31:1 33:1 34:1 36:1 38:1 39:1 44:1 45:1 50:1 51:1 54:1 61:1 68:1 69:1 71:1 77:1 78:1 92:1 93:1 110:1 113:1 118:1 127:1 136:1 137:1 140:1 149:1 151:1 155:1 162:1 184:1 204:1 208:1 217:1 227:1 274:1 276:1 292:1 302:1 307:1 311:1 322:1 349:1 355:1 361:1 392:1 397:1 411:1 438:1 468:1 490:1 509:1 515:1 523:1 528:1 543:1 544:1 556:1 593:1 621:1 622:1 662:1 684:1 699:1 717:1 801:1 831:1 904:1 910:1 923:1 944:1 970:1 1054:1 1187:1 1197:1 1231:1 1237:1 1241:1 1247:1 1268:1 1347:1 1348:1 1358:1 1371:1 1379:1 1404:1 1408:1 1504:1 1519:1 1715:1 1782:1 1874:1 1880:1 1917:1 1943:1 1965:1 2023:1 2106:1 2175:1 2407:1 2480:1 2567:1 2734:1 2738:1 2867:1 2890:1 2934:1 2990:1 3038:1 3098:1 #
0.0040362920855857202864780397533195 1:1 2:1 3:1 4:1 5:1 6:1 7:1 8:1 9:1 10:1 12:1 13:1 14:1 15:1 16:1 17:1 18:1 19:1 20:1 21:1 22:1 23:1 24:1 25:1 26:1 27:1 28:1 29:1 30:1 31:1 32:1 33:1 34:1 35:1 36:1 37:1 38:1 39:1 40:1 41:1 42:1 43:1 44:1 45:1 46:1 47:1 48:1 49:1 50:1 51:1 52:1 53:1 54:1 55:1 56:1 57:1 58:1 60:1 61:1 62:1 63:1 64:1 65:1 66:1 67:1 68:1 69:1 70:1 71:1 72:1 73:1 74:1 76:1 77:1 78:1 79:1 80:1 81:1 82:1 83:1 84:1 85:1 86:1 87:1 91:1 92:1 93:1 94:1 96:1 97:1 98:1 100:1 101:1 102:1 103:1 105:1 106:1 108:1 109:1 110:1 111:1 114:1 115:1 116:1 118:1 119:1 120:1 121:1 122:1 124:1 126:1 127:1 129:1 132:1 133:1 134:1 135:1 136:1 137:1 138:1 139:1 140:1 143:1 144:1 146:1 147:1 148:1 149:1 152:1 156:1 158:1 160:1 161:1 162:1 163:1 164:1 166:1 167:1 168:1 169:1 172:1 173:1 177:1 178:1 179:1 182:1 184:1 188:1 189:1 191:1 192:1 193:1 194:1 196:1 198:1 199:1 201:1 202:1 204:1 206:1 207:1 208:1 214:1 215:1 219:1 225:1 226:1 227:1 228:1 229:1 230:1 232:1 236:1 237:1 241:1 243:1 245:1 248:1 249:1 251:1 252:1 262:1 266:1 269:1 271:1 277:1 278:1 281:1 282:1 284:1 285:1 286:1 289:1 290:1 291:1 293:1 294:1 300:1 303:1 305:1 311:1 313:1 314:1 318:1 324:1 326:1 327:1 328:1 329:1 330:1 331:1 332:1 334:1 337:1 340:1 342:1 361:1 363:1 372:1 382:1 393:1 399:1 409:1 410:1 418:1 421:1 424:1 430:1 432:1 434:1 438:1 440:1 449:1 450:1 452:1 454:1 460:1 470:1 471:1 474:1 477:1 479:1 486:1 489:1 492:1 502:1 504:1 517:1 525:1 529:1 530:1 535:1 546:1 551:1 553:1 558:1 561:1 570:1 571:1 575:1 584:1 586:1 590:1 592:1 593:1 598:1 608:1 610:1 614:1 619:1 620:1 633:1 635:1 639:1 647:1 652:1 653:1 654:1 656:1 660:1 665:1 674:1 675:1 676:1 681:1 684:1 685:1 698:1 699:1 706:1 711:1 714:1 715:1 716:1 720:1 738:1 741:1 745:1 748:1 749:1 762:1 782:1 797:1 800:1 812:1 832:1 835:1 838:1 844:1 847:1 856:1 866:1 890:1 893:1 906:1 912:1 913:1 917:1 920:1 923:1 933:1 935:1 939:1 950:1 977:1 997:1 1009:1 1017:1 1021:1 1061:1 1068:1 1081:1 1093:1 1119:1 1148:1 1168:1 1180:1 1198:1 1203:1 1206:1 1207:1 1224:1 1247:1 1261:1 1273:1 1287:1 1296:1 1300:1 1304:1 1318:1 1329:1 1338:1 1342:1 1376:1 1380:1 1381:1 1409:1 1415:1 1430:1 1436:1 1438:1 1455:1 1469:1 1500:1 1540:1 1550:1 1560:1 1569:1 1579:1 1595:1 1601:1 1626:1 1635:1 1640:1 1687:1 1711:1 1755:1 1787:1 1789:1 1793:1 1816:1 1880:1 1889:1 1920:1 1956:1 2011:1 2023:1 2048:1 2050:1 2068:1 2095:1 2103:1 2112:1 2161:1 2206:1 2209:1 2255:1 2421:1 2448:1 2497:1 2541:1 2587:1 2614:1 2652:1 2682:1 2694:1 2710:1 2714:1 2726:1 2732:1 2740:1 2745:1 2799:1 2814:1 2824:1 2838:1 2909:1 2912:1 2944:1 2977:1 3071:1 #
0.0040362920855857202864780397533195 1:1 2:1 3:1 4:1 5:1 6:1 7:1 8:1 9:1 10:1 11:1 12:1 13:1 14:1 15:1 16:1 17:1 18:1 19:1 20:1 21:1 22:1 23:1 24:1 25:1 26:1 27:1 28:1 29:1 30:1 31:1 32:1 33:1 34:1 35:1 36:1 37:1 38:1 39:1 40:1 41:1 42:1 43:1 44:1 45:1 46:1 48:1 49:1 50:1 51:1 52:1 53:1 55:1 56:1 57:1 58:1 59:1 61:1 62:1 63:1 64:1 65:1 66:1 67:1 68:1 69:1 70:1 71:1 72:1 74:1 76:1 77:1 78:1 80:1 81:1 82:1 83:1 86:1 89:1 92:1 93:1 94:1 95:1 96:1 97:1 98:1 99:1 101:1 102:1 103:1 104:1 105:1 106:1 107:1 108:1 109:1 114:1 115:1 116:1 117:1 118:1 121:1 123:1 124:1 125:1 127:1 128:1 129:1 131:1 132:1 137:1 138:1 143:1 144:1 146:1 148:1 149:1 150:1 151:1 156:1 157:1 158:1 159:1 160:1 161:1 164:1 165:1 169:1 172:1 173:1 174:1 176:1 178:1 180:1 181:1 184:1 186:1 192:1 193:1 195:1 196:1 198:1 200:1 201:1 203:1 204:1 205:1 206:1 208:1 210:1 212:1 214:1 216:1 217:1 218:1 219:1 222:1 223:1 226:1 229:1 230:1 232:1 233:1 238:1 239:1 241:1 242:1 243:1 247:1 248:1 250:1 252:1 255:1 256:1 258:1 262:1 265:1 266:1 267:1 268:1 274:1 275:1 277:1 278:1 281:1 282:1 283:1 285:1 289:1 290:1 294:1 295:1 296:1 301:1 303:1 304:1 309:1 310:1 313:1 314:1 323:1 328:1 329:1 331:1 333:1 334:1 340:1 342:1 343:1 344:1 347:1 349:1 352:1 353:1 354:1 368:1 375:1 381:1 384:1 387:1 388:1 396:1 400:1 403:1 404:1 406:1 407:1 408:1 411:1 414:1 416:1 422:1 426:1 429:1 438:1 439:1 440:1 445:1 450:1 458:1 464:1 466:1 468:1 472:1 476:1 479:1 482:1 487:1 490:1 491:1 494:1 498:1 500:1 501:1 503:1 505:1 506:1 518:1 524:1 525:1 528:1 535:1 558:1 563:1 564:1 567:1 568:1 573:1 579:1 604:1 608:1 616:1 621:1 630:1 635:1 654:1 663:1 665:1 678:1 682:1 698:1 699:1 704:1 706:1 709:1 712:1 719:1 730:1 740:1 741:1 744:1 747:1 754:1 755:1 758:1 762:1 801:1 802:1 812:1 819:1 830:1 842:1 852:1 853:1 855:1 861:1 863:1 872:1 874:1 880:1 892:1 895:1 898:1 906:1 908:1 913:1 916:1 917:1 920:1 946:1 956:1 960:1 963:1 1005:1 1040:1 1043:1 1047:1 1052:1 1067:1 1070:1 1075:1 1109:1 1113:1 1121:1 1125:1 1129:1 1130:1 1131:1 1133:1 1134:1 1145:1 1147:1 1161:1 1164:1 1183:1 1186:1 1200:1 1201:1 1204:1 1206:1 1209:1 1242:1 1277:1 1289:1 1329:1 1333:1 1342:1 1345:1 1356:1 1377:1 1380:1 1394:1 1413:1 1435:1 1449:1 1457:1 1464:1 1467:1 1480:1 1497:1 1505:1 1506:1 1507:1 1524:1 1549:1 1550:1 1563:1 1569:1 1578:1 1580:1 1665:1 1677:1 1685:1 1689:1 1703:1 1715:1 1770:1 1771:1 1781:1 1783:1 1789:1 1801:1 1838:1 1842:1 1900:1 1934:1 1947:1 1967:1 1970:1 1978:1 1984:1 2011:1 2015:1 2016:1 2022:1 2034:1 2043:1 2060:1 2080:1 2102:1 2147:1 2159:1 2168:1 2176:1 2179:1 2195:1 2201:1 2211:1 2228:1 2247:1 2270:1 2278:1 2322:1 2328:1 2361:1 2381:1 2433:1 2468:1 2502:1 2550:1 2598:1 2629:1 2646:1 2652:1 2689:1 2716:1 2742:1 2803:1 2899:1 2967:1 2994:1 3023:1 3065:1 #
