SVM-light Version V6.02
0 # kernel type
3 # kernel parameter -d 
1 # kernel parameter -g 
1 # kernel parameter -s 
1 # kernel parameter -r 
empty# kernel parameter -u 
1088 # highest feature index 
100 # number of training documents 
101 # number of support vectors plus 1 
0.15879972 # threshold b, each following line is a SV (starting with alpha*y)
-0.0052246729809923694518025705235686 2:1 13:1 34:1 39:1 40:1 46:1 50:1 51:1 53:1 56:1 59:1 60:1 64:1 65:1 66:1 69:1 70:1 74:1 77:1 80:1 85:1 86:1 87:1 94:1 95:1 108:1 116:1 121:1 125:1 133:1 143:1 152:1 154:1 155:1 158:1 159:1 160:1 165:1 171:1 174:1 176:1 177:1 184:1 186:1 187:1 189:1 191:1 198:1 199:1 200:1 201:1 211:1 215:1 223:1 224:1 229:1 231:1 236:1 247:1 252:1 253:1 266:1 271:1 272:1 274:1 276:1 279:1 280:1 290:1 294:1 296:1 301:1 303:1 307:1 308:1 318:1 319:1 323:1 328:1 336:1 337:1 339:1 351:1 354:1 355:1 359:1 361:1 362:1 366:1 368:1 369:1 373:1 374:1 376:1 387:1 388:1 400:1 404:1 406:1 412:1 415:1 416:1 419:1 426:1 428:1 435:1 436:1 445:1 454:1 455:1 461:1 466:1 473:1 481:1 490:1 492:1 494:1 499:1 507:1 509:1 512:1 519:1 522:1 523:1 525:1 529:1 532:1 537:1 540:1 542:1 543:1 549:1 553:1 554:1 557:1 578:1 585:1 592:1 599:1 600:1 605:1 607:1 608:1 610:1 612:1 614:1 626:1 632:1 634:1 636:1 638:1 645:1 670:1 672:1 688:1 696:1 700:1 708:1 709:1 714:1 720:1 730:1 741:1 746:1 752:1 756:1 759:1 760:1 761:1 768:1 770:1 776:1 777:1 780:1 782:1 783:1 787:1 800:1 801:1 807:1 820:1 821:1 822:1 825:1 831:1 836:1 840:1 841:1 845:1 855:1 865:1 867:1 869:1 877:1 880:1 885:1 897:1 908:1 909:1 920:1 922:1 928:1 929:1 931:1 933:1 940:1 942:1 943:1 950:1 951:1 961:1 967:1 974:1 976:1 978:1 987:1 989:1 990:1 998:1 1000:1 1005:1 1011:1 1012:1 1017:1 1019:1 1020:1 1021:1 1022:1 1027:1 1038:1 1047:1 1051:1 1054:1 1058:1 1061:1 1069:1 1072:1 1074:1 1079:1 #
-0.0052246729809923694518025705235686 18:1 26:1 29:1 34:1 43:1 50:1 51:1 56:1 60:1 64:1 69:1 70:1 76:1 85:1 86:1 104:1 108:1 133:1 137:1 143:1 152:1 162:1 171:1 186:1 187:1 189:1 198:1 201:1 211:1 218:1 224:1 247:1 253:1 272:1 274:1 276:1 290:1 303:1 318:1 337:1 348:1 350:1 354:1 361:1 385:1 387:1 399:1 407:1 412:1 415:1 416:1 419:1 422:1 426:1 428:1 473:1 478:1 479:1 492:1 525:1 542:1 553:1 566:1 585:1 588:1 599:1 609:1 638:1 659:1 677:1 684:1 688:1 750:1 752:1 760:1 774:1 800:1 820:1 821:1 825:1 860:1 869:1 878:1 899:1 908:1 918:1 920:1 928:1 931:1 933:1 961:1 962:1 974:1 975:1 987:1 991:1 992:1 1009:1 1012:1 1021:1 1051:1 1073:1 #
-0.0052246729809923694518025705235686 2:1 4:1 18:1 29:1 36:1 47:1 50:1 51:1 53:1 56:1 60:1 66:1 69:1 73:1 76:1 77:1 81:1 84:1 86:1 87:1 100:1 108:1 110:1 116:1 120:1 121:1 125:1 133:1 137:1 147:1 155:1 158:1 170:1 171:1 174:1 178:1 184:1 186:1 187:1 189:1 191:1 194:1 198:1 209:1 211:1 223:1 224:1 229:1 242:1 247:1 250:1 253:1 262:1 272:1 279:1 303:1 318:1 319:1 323:1 326:1 337:1 342:1 348:1 351:1 359:1 360:1 361:1 368:1 373:1 378:1 383:1 387:1 396:1 399:1 401:1 406:1 412:1 415:1 416:1 434:1 435:1 442:1 444:1 445:1 455:1 473:1 476:1 494:1 504:1 513:1 514:1 519:1 525:1 526:1 537:1 540:1 542:1 543:1 546:1 549:1 555:1 575:1 577:1 581:1 582:1 585:1 589:1 590:1 592:1 593:1 597:1 605:1 606:1 609:1 613:1 617:1 623:1 627:1 634:1 636:1 641:1 652:1 662:1 686:1 687:1 695:1 715:1 720:1 727:1 728:1 740:1 747:1 751:1 765:1 766:1 768:1 770:1 772:1 780:1 783:1 795:1 800:1 803:1 815:1 821:1 822:1 824:1 833:1 843:1 849:1 855:1 860:1 862:1 864:1 867:1 877:1 879:1 880:1 908:1 910:1 918:1 919:1 920:1 931:1 937:1 939:1 961:1 974:1 982:1 983:1 987:1 989:1 990:1 996:1 999:1 1011:1 1016:1 1017:1 1019:1 1024:1 1025:1 1028:1 1050:1 1062:1 1063:1 1070:1 1079:1 1081:1 #
-0.0052246729809923694518025705235686 10:1 18:1 20:1 27:1 28:1 29:1 34:1 35:1 43:1 47:1 49:1 50:1 51:1 53:1 55:1 56:1 60:1 66:1 69:1 73:1 77:1 83:1 86:1 87:1 88:1 95:1 108:1 110:1 116:1 121:1 133:1 146:1 147:1 155:1 158:1 163:1 164:1 166:1 170:1 171:1 182:1 186:1 187:1 189:1 197:1 198:1 199:1 209:1 216:1 217:1 222:1 223:1 224:1 232:1 237:1 242:1 247:1 253:1 272:1 274:1 285:1 288:1 303:1 306:1 307:1 311:1 313:1 318:1 330:1 343:1 359:1 368:1 399:1 406:1 407:1 412:1 415:1 416:1 417:1 419:1 426:1 428:1 435:1 443:1 449:1 464:1 472:1 473:1 492:1 498:1 499:1 524:1 526:1 536:1 537:1 540:1 542:1 543:1 546:1 549:1 582:1 583:1 585:1 593:1 604:1 611:1 616:1 617:1 624:1 662:1 670:1 684:1 689:1 701:1 711:1 714:1 728:1 752:1 753:1 774:1 778:1 780:1 789:1 790:1 796:1 800:1 803:1 831:1 843:1 846:1 864:1 869:1 872:1 877:1 917:1 918:1 920:1 922:1 924:1 928:1 929:1 935:1 937:1 949:1 961:1 968:1 974:1 987:1 990:1 1001:1 1011:1 1012:1 1014:1 1017:1 1020:1 1021:1 1049:1 1061:1 1062:1 1063:1 1072:1 1079:1 1080:1 1088:1 #
-0.0052246729809923694518025705235686 3:1 12:1 14:1 18:1 23:1 34:1 43:1 50:1 51:1 53:1 56:1 60:1 69:1 74:1 75:1 77:1 81:1 86:1 87:1 92:1 94:1 102:1 108:1 109:1 110:1 116:1 125:1 126:1 133:1 135:1 152:1 154:1 155:1 160:1 161:1 165:1 171:1 178:1 181:1 186:1 187:1 189:1 194:1 198:1 200:1 203:1 204:1 210:1 211:1 216:1 218:1 219:1 224:1 228:1 232:1 234:1 240:1 247:1 253:1 255:1 270:1 272:1 274:1 279:1 281:1 292:1 294:1 303:1 311:1 312:1 314:1 315:1 317:1 318:1 319:1 321:1 323:1 332:1 334:1 335:1 337:1 340:1 341:1 343:1 351:1 354:1 359:1 361:1 363:1 369:1 372:1 383:1 388:1 390:1 391:1 393:1 399:1 400:1 406:1 412:1 413:1 415:1 416:1 419:1 422:1 423:1 426:1 428:1 431:1 436:1 440:1 441:1 446:1 455:1 465:1 472:1 473:1 477:1 482:1 486:1 489:1 492:1 498:1 501:1 512:1 513:1 525:1 526:1 529:1 533:1 537:1 540:1 542:1 543:1 546:1 547:1 549:1 552:1 554:1 555:1 562:1 579:1 581:1 582:1 584:1 585:1 588:1 599:1 610:1 614:1 615:1 626:1 627:1 634:1 640:1 655:1 662:1 663:1 666:1 670:1 674:1 677:1 680:1 684:1 688:1 693:1 695:1 714:1 716:1 717:1 720:1 733:1 736:1 740:1 751:1 753:1 768:1 774:1 783:1 792:1 793:1 794:1 800:1 806:1 813:1 814:1 818:1 821:1 822:1 825:1 832:1 838:1 860:1 861:1 862:1 867:1 869:1 879:1 880:1 884:1 885:1 888:1 896:1 908:1 912:1 918:1 920:1 930:1 931:1 937:1 939:1 944:1 951:1 961:1 965:1 974:1 981:1 982:1 986:1 987:1 990:1 1002:1 1011:1 1012:1 1018:1 1019:1 1020:1 1024:1 1036:1 1054:1 1060:1 1062:1 1063:1 1072:1 1088:1 #
0.0052246729809923694518025705235686 5:1 8:1 13:1 14:1 16:1 18:1 29:1 31:1 43:1 47:1 48:1 50:1 51:1 55:1 56:1 59:1 60:1 65:1 66:1 69:1 74:1 76:1 77:1 86:1 108:1 110:1 116:1 121:1 126:1 133:1 135:1 143:1 145:1 148:1 161:1 171:1 177:1 182:1 187:1 189:1 194:1 198:1 199:1 201:1 205:1 215:1 216:1 218:1 223:1 224:1 232:1 234:1 235:1 246:1 247:1 253:1 257:1 259:1 264:1 271:1 272:1 273:1 274:1 296:1 303:1 305:1 311:1 313:1 315:1 318:1 319:1 320:1 323:1 337:1 339:1 351:1 355:1 359:1 364:1 366:1 370:1 373:1 383:1 387:1 394:1 399:1 400:1 404:1 408:1 409:1 412:1 415:1 416:1 418:1 419:1 422:1 426:1 428:1 436:1 445:1 455:1 466:1 472:1 473:1 476:1 487:1 492:1 496:1 498:1 499:1 503:1 508:1 509:1 512:1 520:1 521:1 531:1 537:1 540:1 542:1 543:1 544:1 546:1 548:1 549:1 555:1 565:1 579:1 581:1 585:1 589:1 592:1 600:1 601:1 602:1 604:1 607:1 610:1 614:1 617:1 630:1 634:1 638:1 662:1 670:1 672:1 674:1 677:1 693:1 705:1 719:1 749:1 751:1 752:1 759:1 763:1 770:1 771:1 773:1 783:1 789:1 800:1 804:1 805:1 806:1 809:1 819:1 822:1 824:1 825:1 832:1 834:1 853:1 860:1 864:1 867:1 869:1 896:1 908:1 918:1 920:1 929:1 931:1 932:1 933:1 937:1 942:1 951:1 956:1 961:1 966:1 971:1 974:1 980:1 983:1 987:1 989:1 990:1 997:1 1000:1 1011:1 1012:1 1020:1 1021:1 1037:1 1049:1 1060:1 1066:1 1070:1 1074:1 1079:1 #
0.0052246729809923694518025705235686 3:1 12:1 27:1 28:1 29:1 35:1 43:1 45:1 47:1 49:1 50:1 51:1 53:1 56:1 60:1 69:1 71:1 74:1 77:1 84:1 86:1 90:1 94:1 108:1 110:1 116:1 121:1 125:1 129:1 130:1 133:1 143:1 147:1 151:1 155:1 165:1 171:1 178:1 182:1 185:1 187:1 189:1 193:1 198:1 199:1 201:1 207:1 208:1 209:1 211:1 223:1 224:1 237:1 247:1 253:1 266:1 271:1 272:1 279:1 287:1 296:1 301:1 303:1 309:1 311:1 313:1 318:1 319:1 322:1 335:1 337:1 339:1 344:1 345:1 348:1 351:1 354:1 355:1 359:1 361:1 368:1 369:1 400:1 407:1 412:1 415:1 416:1 419:1 426:1 428:1 436:1 439:1 442:1 451:1 455:1 471:1 472:1 473:1 477:1 481:1 486:1 487:1 492:1 495:1 523:1 527:1 529:1 530:1 536:1 537:1 540:1 542:1 543:1 546:1 554:1 558:1 566:1 581:1 585:1 602:1 606:1 609:1 610:1 634:1 636:1 647:1 660:1 674:1 677:1 684:1 702:1 705:1 708:1 717:1 740:1 753:1 754:1 759:1 760:1 768:1 773:1 775:1 783:1 785:1 791:1 800:1 803:1 809:1 825:1 836:1 840:1 855:1 867:1 869:1 870:1 877:1 885:1 887:1 888:1 920:1 931:1 935:1 961:1 987:1 990:1 998:1 1005:1 1012:1 1021:1 1022:1 1035:1 1039:1 1052:1 1063:1 #
0.0052246729809923694518025705235686 12:1 16:1 18:1 43:1 45:1 50:1 51:1 55:1 56:1 57:1 60:1 69:1 76:1 77:1 86:1 87:1 105:1 108:1 116:1 121:1 131:1 133:1 134:1 143:1 162:1 167:1 171:1 185:1 187:1 189:1 192:1 198:1 201:1 209:1 211:1 223:1 224:1 237:1 247:1 253:1 254:1 262:1 271:1 272:1 273:1 279:1 292:1 303:1 308:1 310:1 311:1 314:1 319:1 323:1 337:1 343:1 346:1 351:1 354:1 361:1 383:1 386:1 399:1 403:1 407:1 412:1 415:1 416:1 419:1 426:1 427:1 431:1 435:1 446:1 455:1 472:1 473:1 501:1 508:1 509:1 526:1 529:1 530:1 537:1 540:1 542:1 543:1 546:1 552:1 566:1 573:1 579:1 581:1 583:1 585:1 588:1 614:1 617:1 634:1 636:1 653:1 683:1 684:1 693:1 696:1 727:1 728:1 738:1 752:1 759:1 768:1 769:1 774:1 777:1 783:1 796:1 800:1 809:1 813:1 815:1 820:1 821:1 825:1 836:1 860:1 865:1 867:1 869:1 888:1 893:1 905:1 908:1 910:1 918:1 920:1 924:1 951:1 961:1 974:1 982:1 987:1 989:1 990:1 992:1 1000:1 1011:1 1021:1 1027:1 1028:1 1050:1 1054:1 1059:1 1062:1 1066:1 1069:1 1073:1 #
0.0052246729809923694518025705235686 1:1 4:1 13:1 14:1 16:1 18:1 19:1 21:1 24:1 25:1 34:1 43:1 45:1 47:1 50:1 51:1 56:1 60:1 63:1 64:1 66:1 69:1 72:1 74:1 75:1 76:1 80:1 84:1 86:1 87:1 88:1 95:1 100:1 107:1 108:1 110:1 116:1 133:1 138:1 142:1 150:1 158:1 161:1 164:1 171:1 177:1 184:1 185:1 186:1 187:1 189:1 192:1 195:1 198:1 199:1 208:1 211:1 213:1 215:1 218:1 220:1 222:1 223:1 224:1 225:1 229:1 234:1 239:1 242:1 247:1 250:1 253:1 257:1 264:1 268:1 271:1 272:1 281:1 289:1 290:1 294:1 297:1 303:1 311:1 316:1 318:1 319:1 323:1 326:1 335:1 337:1 346:1 354:1 355:1 359:1 361:1 366:1 369:1 372:1 373:1 374:1 380:1 385:1 387:1 408:1 412:1 415:1 416:1 424:1 428:1 432:1 436:1 447:1 455:1 463:1 466:1 472:1 473:1 474:1 475:1 478:1 486:1 487:1 492:1 494:1 509:1 512:1 514:1 520:1 523:1 524:1 526:1 527:1 529:1 536:1 537:1 538:1 540:1 542:1 543:1 546:1 549:1 555:1 557:1 561:1 576:1 578:1 580:1 581:1 585:1 593:1 597:1 602:1 606:1 609:1 610:1 612:1 614:1 615:1 617:1 626:1 644:1 649:1 652:1 656:1 672:1 684:1 696:1 700:1 709:1 717:1 754:1 755:1 759:1 760:1 764:1 768:1 769:1 770:1 772:1 775:1 783:1 787:1 789:1 791:1 794:1 800:1 806:1 821:1 825:1 834:1 836:1 838:1 855:1 857:1 860:1 868:1 869:1 874:1 875:1 877:1 880:1 888:1 893:1 899:1 901:1 909:1 918:1 920:1 922:1 931:1 933:1 937:1 942:1 948:1 951:1 961:1 965:1 970:1 974:1 980:1 982:1 983:1 985:1 987:1 989:1 990:1 991:1 992:1 996:1 1011:1 1012:1 1019:1 1020:1 1021:1 1028:1 1035:1 1036:1 1043:1 1047:1 1055:1 1064:1 1066:1 1068:1 1071:1 1076:1 1088:1 #
0.0052246729809923694518025705235686 6:1 16:1 18:1 25:1 34:1 40:1 43:1 45:1 50:1 51:1 56:1 57:1 60:1 64:1 66:1 69:1 71:1 74:1 77:1 86:1 87:1 95:1 108:1 110:1 116:1 121:1 125:1 133:1 154:1 170:1 171:1 176:1 186:1 187:1 189:1 191:1 198:1 201:1 208:1 209:1 211:1 213:1 218:1 223:1 225:1 228:1 229:1 232:1 233:1 247:1 250:1 253:1 271:1 279:1 296:1 297:1 303:1 318:1 319:1 320:1 322:1 323:1 337:1 341:1 343:1 351:1 354:1 359:1 361:1 362:1 366:1 369:1 372:1 374:1 380:1 385:1 399:1 408:1 412:1 415:1 433:1 435:1 445:1 473:1 482:1 484:1 492:1 503:1 509:1 512:1 513:1 537:1 540:1 543:1 546:1 549:1 554:1 555:1 558:1 566:1 581:1 583:1 585:1 604:1 607:1 614:1 617:1 634:1 636:1 638:1 648:1 670:1 687:1 692:1 702:1 730:1 754:1 768:1 771:1 782:1 789:1 796:1 800:1 820:1 846:1 849:1 855:1 856:1 857:1 867:1 869:1 872:1 874:1 875:1 885:1 893:1 909:1 920:1 929:1 931:1 937:1 961:1 969:1 973:1 974:1 980:1 982:1 987:1 990:1 991:1 1011:1 1012:1 1017:1 1019:1 1020:1 1021:1 1028:1 1029:1 1032:1 1034:1 1037:1 1045:1 1051:1 1066:1 1072:1 1076:1 1088:1 #
-0.0052246729809923694518025705235686 4:1 8:1 14:1 18:1 20:1 25:1 31:1 34:1 43:1 50:1 51:1 56:1 60:1 69:1 74:1 77:1 86:1 87:1 88:1 93:1 107:1 108:1 110:1 116:1 121:1 133:1 139:1 148:1 154:1 155:1 167:1 170:1 171:1 172:1 182:1 187:1 189:1 191:1 193:1 198:1 207:1 209:1 223:1 224:1 227:1 229:1 232:1 237:1 247:1 250:1 252:1 253:1 271:1 272:1 289:1 291:1 296:1 303:1 306:1 307:1 315:1 318:1 319:1 323:1 337:1 338:1 340:1 343:1 345:1 351:1 354:1 359:1 366:1 369:1 370:1 372:1 373:1 382:1 383:1 387:1 391:1 399:1 407:1 411:1 412:1 415:1 416:1 424:1 430:1 433:1 448:1 471:1 472:1 473:1 476:1 481:1 489:1 509:1 523:1 524:1 525:1 526:1 535:1 537:1 540:1 542:1 543:1 546:1 550:1 554:1 555:1 564:1 567:1 569:1 575:1 581:1 583:1 585:1 588:1 593:1 601:1 604:1 614:1 617:1 621:1 626:1 639:1 641:1 650:1 652:1 663:1 674:1 677:1 685:1 688:1 693:1 699:1 741:1 744:1 749:1 751:1 754:1 755:1 759:1 766:1 768:1 770:1 775:1 778:1 800:1 806:1 821:1 822:1 824:1 825:1 836:1 839:1 865:1 866:1 869:1 877:1 878:1 888:1 893:1 894:1 908:1 918:1 920:1 929:1 930:1 931:1 937:1 938:1 942:1 960:1 961:1 967:1 974:1 987:1 989:1 990:1 996:1 999:1 1011:1 1012:1 1015:1 1019:1 1023:1 1047:1 1059:1 1066:1 1071:1 1075:1 #
-0.0046180744808466938494673215132025 9:1 12:1 13:1 16:1 17:1 18:1 20:1 29:1 30:1 33:1 34:1 40:1 41:1 42:1 43:1 45:1 47:1 50:1 51:1 52:1 53:1 54:1 56:1 57:1 60:1 63:1 65:1 69:1 70:1 71:1 74:1 75:1 77:1 80:1 86:1 87:1 90:1 92:1 93:1 97:1 108:1 114:1 116:1 119:1 121:1 123:1 125:1 133:1 137:1 140:1 143:1 144:1 147:1 148:1 152:1 153:1 155:1 160:1 161:1 162:1 165:1 167:1 169:1 170:1 171:1 178:1 180:1 185:1 186:1 187:1 189:1 192:1 193:1 198:1 199:1 201:1 202:1 203:1 207:1 208:1 209:1 211:1 216:1 222:1 223:1 224:1 228:1 229:1 232:1 234:1 244:1 246:1 247:1 250:1 253:1 266:1 268:1 269:1 270:1 271:1 272:1 278:1 279:1 289:1 291:1 295:1 296:1 300:1 301:1 303:1 305:1 306:1 307:1 308:1 311:1 313:1 314:1 318:1 319:1 320:1 323:1 324:1 327:1 328:1 330:1 335:1 336:1 337:1 343:1 345:1 351:1 354:1 355:1 359:1 360:1 361:1 362:1 364:1 366:1 368:1 369:1 370:1 372:1 378:1 380:1 382:1 383:1 385:1 387:1 388:1 396:1 398:1 399:1 400:1 401:1 405:1 408:1 409:1 412:1 415:1 416:1 419:1 422:1 426:1 428:1 430:1 431:1 435:1 437:1 444:1 445:1 447:1 449:1 451:1 453:1 455:1 461:1 472:1 473:1 474:1 481:1 486:1 487:1 492:1 493:1 494:1 498:1 501:1 502:1 508:1 512:1 517:1 520:1 522:1 523:1 525:1 526:1 529:1 531:1 533:1 537:1 540:1 542:1 543:1 546:1 548:1 549:1 552:1 554:1 558:1 563:1 566:1 581:1 583:1 585:1 588:1 593:1 598:1 600:1 602:1 604:1 605:1 606:1 608:1 613:1 614:1 624:1 626:1 632:1 634:1 636:1 638:1 640:1 641:1 643:1 644:1 655:1 659:1 662:1 670:1 673:1 674:1 675:1 680:1 681:1 683:1 684:1 700:1 703:1 705:1 710:1 715:1 717:1 733:1 744:1 745:1 747:1 749:1 750:1 752:1 753:1 759:1 760:1 768:1 769:1 770:1 774:1 782:1 787:1 790:1 793:1 800:1 805:1 806:1 808:1 811:1 816:1 817:1 821:1 822:1 823:1 825:1 829:1 839:1 840:1 846:1 848:1 851:1 862:1 865:1 869:1 874:1 875:1 877:1 880:1 882:1 885:1 891:1 893:1 894:1 907:1 909:1 910:1 916:1 918:1 920:1 924:1 925:1 929:1 931:1 933:1 934:1 937:1 939:1 947:1 948:1 953:1 954:1 961:1 969:1 972:1 974:1 977:1 982:1 983:1 987:1 989:1 990:1 998:1 1000:1 1001:1 1010:1 1011:1 1012:1 1015:1 1017:1 1018:1 1019:1 1020:1 1021:1 1023:1 1026:1 1028:1 1031:1 1033:1 1036:1 1038:1 1040:1 1053:1 1054:1 1061:1 1065:1 1066:1 1069:1 1075:1 1081:1 #
-0.0052246729809923694518025705235686 1:1 8:1 18:1 29:1 30:1 31:1 37:1 41:1 43:1 45:1 48:1 50:1 51:1 53:1 56:1 60:1 64:1 69:1 74:1 75:1 77:1 85:1 86:1 87:1 95:1 100:1 102:1 108:1 115:1 116:1 121:1 122:1 125:1 133:1 143:1 144:1 147:1 148:1 154:1 165:1 171:1 174:1 182:1 186:1 187:1 189:1 190:1 192:1 198:1 199:1 209:1 211:1 220:1 223:1 225:1 231:1 247:1 253:1 257:1 263:1 270:1 271:1 272:1 279:1 280:1 288:1 296:1 303:1 311:1 318:1 319:1 320:1 323:1 337:1 339:1 343:1 351:1 354:1 355:1 359:1 360:1 365:1 366:1 369:1 380:1 394:1 406:1 407:1 408:1 410:1 412:1 415:1 416:1 419:1 422:1 425:1 428:1 429:1 432:1 442:1 444:1 447:1 449:1 453:1 462:1 473:1 477:1 478:1 481:1 486:1 489:1 490:1 491:1 492:1 494:1 496:1 507:1 512:1 513:1 514:1 518:1 520:1 529:1 535:1 537:1 540:1 543:1 546:1 549:1 554:1 555:1 557:1 559:1 575:1 576:1 578:1 581:1 585:1 588:1 602:1 605:1 606:1 614:1 617:1 620:1 625:1 627:1 632:1 638:1 652:1 663:1 672:1 673:1 684:1 688:1 693:1 700:1 703:1 710:1 716:1 722:1 724:1 745:1 746:1 752:1 761:1 768:1 770:1 783:1 793:1 800:1 803:1 816:1 818:1 821:1 822:1 824:1 830:1 834:1 836:1 845:1 849:1 854:1 860:1 869:1 875:1 877:1 880:1 885:1 888:1 891:1 893:1 905:1 908:1 910:1 916:1 921:1 922:1 930:1 931:1 933:1 937:1 942:1 948:1 949:1 951:1 953:1 959:1 961:1 966:1 974:1 977:1 982:1 986:1 987:1 989:1 990:1 992:1 998:1 1005:1 1011:1 1012:1 1017:1 1019:1 1021:1 1028:1 1036:1 1052:1 1054:1 1066:1 1074:1 1077:1 #
-0.0052246729809923694518025705235686 4:1 6:1 8:1 16:1 18:1 19:1 27:1 28:1 29:1 31:1 32:1 34:1 40:1 43:1 45:1 46:1 50:1 51:1 53:1 56:1 59:1 60:1 64:1 69:1 71:1 74:1 76:1 77:1 82:1 86:1 87:1 92:1 108:1 114:1 116:1 117:1 121:1 125:1 133:1 143:1 151:1 154:1 155:1 159:1 163:1 171:1 174:1 178:1 182:1 184:1 186:1 187:1 189:1 192:1 195:1 199:1 200:1 201:1 203:1 209:1 211:1 215:1 222:1 224:1 241:1 244:1 247:1 254:1 259:1 261:1 263:1 271:1 272:1 276:1 279:1 286:1 296:1 299:1 301:1 303:1 308:1 311:1 318:1 319:1 321:1 323:1 324:1 326:1 328:1 331:1 337:1 339:1 343:1 351:1 352:1 354:1 355:1 359:1 361:1 366:1 369:1 373:1 376:1 379:1 380:1 383:1 385:1 399:1 400:1 407:1 409:1 412:1 415:1 416:1 422:1 426:1 435:1 445:1 447:1 449:1 453:1 473:1 478:1 481:1 482:1 488:1 490:1 494:1 503:1 510:1 512:1 513:1 515:1 519:1 532:1 537:1 540:1 542:1 543:1 546:1 549:1 552:1 553:1 557:1 566:1 572:1 575:1 577:1 578:1 579:1 581:1 583:1 585:1 586:1 588:1 590:1 594:1 596:1 602:1 604:1 606:1 609:1 610:1 614:1 617:1 626:1 627:1 630:1 632:1 634:1 636:1 638:1 639:1 648:1 652:1 662:1 663:1 665:1 674:1 684:1 693:1 697:1 700:1 704:1 706:1 708:1 715:1 717:1 724:1 729:1 738:1 744:1 745:1 746:1 749:1 753:1 754:1 768:1 770:1 774:1 782:1 796:1 799:1 800:1 801:1 805:1 806:1 815:1 820:1 821:1 837:1 865:1 872:1 874:1 885:1 887:1 888:1 893:1 913:1 918:1 924:1 928:1 931:1 937:1 951:1 961:1 969:1 974:1 978:1 987:1 990:1 992:1 998:1 1002:1 1005:1 1007:1 1011:1 1012:1 1018:1 1019:1 1020:1 1021:1 1023:1 1024:1 1027:1 1028:1 1047:1 1050:1 1069:1 1085:1 #
-0.0052246729809923694518025705235686 12:1 18:1 24:1 31:1 34:1 40:1 43:1 45:1 46:1 47:1 48:1 50:1 51:1 55:1 56:1 60:1 69:1 72:1 75:1 77:1 84:1 87:1 93:1 108:1 112:1 114:1 116:1 121:1 133:1 140:1 146:1 152:1 162:1 163:1 169:1 170:1 171:1 177:1 182:1 186:1 187:1 189:1 198:1 199:1 201:1 208:1 211:1 215:1 224:1 225:1 228:1 237:1 243:1 247:1 253:1 258:1 259:1 260:1 267:1 270:1 271:1 272:1 275:1 283:1 287:1 303:1 307:1 309:1 311:1 318:1 319:1 320:1 323:1 335:1 336:1 337:1 351:1 354:1 355:1 359:1 360:1 362:1 369:1 372:1 374:1 384:1 385:1 387:1 394:1 399:1 400:1 401:1 406:1 407:1 409:1 412:1 415:1 416:1 418:1 419:1 422:1 428:1 431:1 454:1 455:1 468:1 469:1 473:1 477:1 481:1 488:1 492:1 512:1 513:1 514:1 518:1 524:1 526:1 528:1 529:1 531:1 537:1 539:1 540:1 542:1 543:1 544:1 549:1 554:1 569:1 578:1 581:1 583:1 584:1 585:1 586:1 590:1 598:1 602:1 607:1 609:1 610:1 614:1 615:1 617:1 624:1 626:1 638:1 659:1 662:1 668:1 670:1 672:1 678:1 681:1 684:1 688:1 694:1 695:1 704:1 714:1 716:1 720:1 723:1 726:1 733:1 741:1 745:1 746:1 751:1 755:1 761:1 763:1 768:1 770:1 771:1 774:1 787:1 800:1 801:1 806:1 820:1 822:1 836:1 838:1 843:1 846:1 857:1 860:1 867:1 872:1 875:1 896:1 905:1 920:1 922:1 931:1 936:1 937:1 959:1 961:1 965:1 966:1 969:1 987:1 989:1 990:1 997:1 1011:1 1012:1 1013:1 1018:1 1019:1 1020:1 1021:1 1024:1 1028:1 1034:1 1037:1 1045:1 1046:1 1064:1 1066:1 1068:1 1088:1 #
0.0052246729809923694518025705235686 3:1 8:1 18:1 29:1 34:1 35:1 36:1 37:1 40:1 41:1 43:1 47:1 49:1 50:1 51:1 53:1 54:1 56:1 59:1 60:1 64:1 67:1 69:1 73:1 74:1 77:1 80:1 86:1 87:1 93:1 95:1 103:1 108:1 110:1 114:1 116:1 120:1 121:1 125:1 133:1 141:1 143:1 147:1 151:1 154:1 155:1 169:1 171:1 176:1 177:1 181:1 182:1 186:1 187:1 189:1 193:1 198:1 201:1 203:1 208:1 209:1 211:1 214:1 215:1 216:1 218:1 220:1 221:1 223:1 224:1 232:1 240:1 242:1 247:1 253:1 259:1 264:1 279:1 280:1 281:1 293:1 294:1 296:1 298:1 303:1 313:1 318:1 319:1 322:1 323:1 332:1 336:1 337:1 339:1 342:1 343:1 344:1 351:1 354:1 359:1 360:1 366:1 368:1 369:1 370:1 378:1 382:1 383:1 387:1 393:1 396:1 399:1 401:1 406:1 412:1 415:1 416:1 419:1 422:1 426:1 428:1 434:1 435:1 436:1 437:1 442:1 451:1 455:1 466:1 469:1 472:1 473:1 477:1 481:1 486:1 487:1 491:1 492:1 494:1 498:1 501:1 505:1 512:1 513:1 525:1 526:1 529:1 532:1 533:1 537:1 540:1 542:1 543:1 544:1 546:1 549:1 554:1 555:1 581:1 583:1 584:1 585:1 588:1 599:1 604:1 605:1 606:1 608:1 609:1 617:1 624:1 632:1 634:1 636:1 638:1 641:1 647:1 650:1 652:1 662:1 663:1 684:1 693:1 695:1 696:1 698:1 699:1 702:1 707:1 715:1 727:1 733:1 737:1 738:1 741:1 745:1 746:1 751:1 752:1 763:1 768:1 770:1 782:1 783:1 787:1 800:1 803:1 806:1 808:1 813:1 819:1 820:1 821:1 825:1 827:1 836:1 837:1 838:1 840:1 841:1 843:1 852:1 860:1 864:1 869:1 872:1 873:1 874:1 877:1 880:1 903:1 908:1 918:1 920:1 921:1 924:1 929:1 931:1 932:1 937:1 940:1 943:1 951:1 953:1 958:1 961:1 969:1 974:1 975:1 978:1 982:1 985:1 987:1 989:1 990:1 996:1 1001:1 1004:1 1011:1 1012:1 1016:1 1017:1 1020:1 1021:1 1023:1 1027:1 1034:1 1036:1 1039:1 1052:1 1057:1 1059:1 1060:1 1061:1 1063:1 1070:1 1071:1 1072:1 #
0.0052246729809923694518025705235686 8:1 14:1 16:1 18:1 29:1 34:1 39:1 40:1 43:1 49:1 50:1 51:1 53:1 56:1 59:1 60:1 64:1 69:1 74:1 77:1 79:1 81:1 84:1 86:1 94:1 101:1 108:1 110:1 114:1 116:1 119:1 121:1 125:1 129:1 147:1 151:1 153:1 154:1 155:1 162:1 163:1 170:1 171:1 178:1 182:1 183:1 187:1 189:1 192:1 194:1 198:1 199:1 203:1 211:1 216:1 220:1 224:1 234:1 241:1 247:1 262:1 272:1 274:1 296:1 301:1 303:1 307:1 308:1 311:1 314:1 318:1 319:1 323:1 326:1 339:1 341:1 342:1 345:1 351:1 355:1 359:1 366:1 368:1 369:1 372:1 373:1 378:1 384:1 386:1 387:1 399:1 408:1 412:1 415:1 416:1 419:1 422:1 428:1 442:1 454:1 455:1 472:1 473:1 481:1 492:1 498:1 501:1 509:1 512:1 513:1 520:1 525:1 526:1 529:1 540:1 542:1 543:1 548:1 549:1 554:1 565:1 585:1 588:1 591:1 592:1 602:1 604:1 617:1 624:1 647:1 650:1 652:1 662:1 669:1 670:1 674:1 676:1 688:1 693:1 697:1 705:1 709:1 744:1 745:1 746:1 752:1 757:1 766:1 769:1 770:1 774:1 782:1 783:1 787:1 796:1 799:1 800:1 802:1 803:1 818:1 821:1 824:1 855:1 865:1 874:1 877:1 892:1 893:1 908:1 910:1 918:1 920:1 928:1 931:1 933:1 937:1 950:1 961:1 974:1 976:1 987:1 992:1 1003:1 1005:1 1011:1 1012:1 1018:1 1019:1 1020:1 1024:1 1049:1 1054:1 1056:1 1072:1 1074:1 #
0.0052246729809923694518025705235686 12:1 17:1 18:1 20:1 29:1 34:1 40:1 41:1 43:1 47:1 50:1 51:1 53:1 55:1 56:1 60:1 64:1 69:1 70:1 74:1 75:1 79:1 82:1 86:1 87:1 90:1 95:1 108:1 110:1 114:1 116:1 121:1 126:1 133:1 135:1 143:1 147:1 151:1 154:1 155:1 160:1 162:1 171:1 173:1 187:1 189:1 191:1 192:1 193:1 198:1 201:1 216:1 224:1 232:1 237:1 242:1 243:1 247:1 253:1 265:1 266:1 272:1 303:1 306:1 309:1 311:1 313:1 318:1 319:1 321:1 328:1 341:1 345:1 350:1 351:1 356:1 368:1 370:1 373:1 378:1 387:1 399:1 403:1 412:1 415:1 416:1 442:1 462:1 472:1 473:1 479:1 492:1 501:1 513:1 525:1 529:1 537:1 540:1 542:1 543:1 546:1 547:1 549:1 551:1 555:1 579:1 583:1 585:1 599:1 614:1 626:1 652:1 676:1 688:1 692:1 696:1 700:1 701:1 705:1 706:1 745:1 769:1 770:1 774:1 789:1 800:1 815:1 822:1 855:1 860:1 862:1 866:1 869:1 877:1 885:1 898:1 913:1 918:1 919:1 920:1 923:1 938:1 960:1 961:1 969:1 974:1 976:1 982:1 987:1 990:1 1000:1 1011:1 1012:1 1018:1 1021:1 1062:1 1065:1 1069:1 1075:1 1081:1 1088:1 #
0.0052246729809923694518025705235686 8:1 9:1 43:1 47:1 50:1 51:1 56:1 60:1 66:1 69:1 71:1 80:1 108:1 116:1 119:1 133:1 143:1 152:1 155:1 171:1 184:1 189:1 198:1 199:1 202:1 216:1 247:1 264:1 266:1 272:1 303:1 307:1 316:1 318:1 326:1 341:1 369:1 382:1 406:1 412:1 415:1 416:1 442:1 451:1 486:1 489:1 491:1 492:1 496:1 506:1 508:1 514:1 520:1 530:1 537:1 540:1 542:1 543:1 546:1 549:1 554:1 575:1 582:1 585:1 597:1 637:1 662:1 670:1 684:1 741:1 758:1 782:1 787:1 794:1 800:1 822:1 836:1 840:1 920:1 931:1 961:1 974:1 984:1 987:1 990:1 1011:1 1012:1 1018:1 1031:1 #
0.0052246729809923694518025705235686 3:1 8:1 18:1 22:1 29:1 34:1 43:1 47:1 50:1 51:1 53:1 56:1 60:1 64:1 66:1 69:1 82:1 85:1 86:1 87:1 90:1 92:1 108:1 110:1 116:1 121:1 122:1 125:1 129:1 133:1 143:1 146:1 152:1 154:1 155:1 162:1 163:1 171:1 177:1 178:1 182:1 183:1 184:1 186:1 187:1 189:1 191:1 195:1 198:1 201:1 211:1 216:1 223:1 224:1 225:1 229:1 232:1 235:1 242:1 244:1 247:1 253:1 264:1 268:1 271:1 272:1 280:1 287:1 303:1 307:1 311:1 318:1 319:1 323:1 328:1 351:1 354:1 359:1 366:1 367:1 369:1 373:1 378:1 383:1 387:1 399:1 411:1 412:1 415:1 416:1 419:1 422:1 423:1 426:1 428:1 429:1 436:1 442:1 445:1 449:1 451:1 455:1 473:1 476:1 481:1 484:1 486:1 487:1 492:1 497:1 504:1 512:1 525:1 527:1 528:1 529:1 536:1 540:1 542:1 543:1 546:1 549:1 554:1 557:1 575:1 585:1 588:1 595:1 605:1 608:1 615:1 617:1 626:1 634:1 637:1 638:1 657:1 659:1 662:1 668:1 669:1 670:1 676:1 684:1 700:1 715:1 720:1 729:1 754:1 756:1 759:1 764:1 768:1 772:1 782:1 783:1 785:1 787:1 800:1 803:1 808:1 813:1 816:1 820:1 821:1 822:1 825:1 838:1 840:1 845:1 847:1 862:1 865:1 874:1 875:1 877:1 884:1 888:1 897:1 918:1 924:1 928:1 931:1 936:1 937:1 943:1 961:1 974:1 980:1 984:1 987:1 989:1 990:1 991:1 1005:1 1009:1 1011:1 1020:1 1027:1 1028:1 1029:1 1056:1 1061:1 1062:1 1066:1 1069:1 1077:1 #
-0.0052246729809923694518025705235686 14:1 18:1 28:1 31:1 37:1 40:1 43:1 50:1 51:1 52:1 56:1 60:1 61:1 67:1 69:1 73:1 74:1 77:1 86:1 108:1 116:1 121:1 125:1 133:1 143:1 145:1 151:1 166:1 171:1 187:1 189:1 198:1 201:1 211:1 218:1 224:1 227:1 247:1 253:1 271:1 272:1 274:1 294:1 301:1 303:1 318:1 319:1 322:1 344:1 351:1 354:1 359:1 399:1 405:1 412:1 415:1 416:1 419:1 443:1 449:1 455:1 471:1 472:1 473:1 486:1 492:1 498:1 505:1 529:1 537:1 540:1 543:1 546:1 554:1 558:1 585:1 592:1 597:1 604:1 606:1 610:1 614:1 636:1 646:1 652:1 654:1 676:1 692:1 698:1 700:1 703:1 711:1 727:1 759:1 770:1 777:1 783:1 787:1 790:1 800:1 806:1 846:1 864:1 869:1 877:1 904:1 908:1 920:1 929:1 932:1 937:1 951:1 961:1 964:1 975:1 976:1 981:1 987:1 989:1 990:1 1012:1 1021:1 1027:1 1040:1 1064:1 1066:1 #
-0.0052246729809923694518025705235686 21:1 28:1 43:1 50:1 51:1 55:1 56:1 60:1 69:1 76:1 86:1 87:1 90:1 94:1 95:1 101:1 106:1 107:1 108:1 110:1 116:1 122:1 123:1 133:1 153:1 158:1 186:1 187:1 189:1 190:1 198:1 201:1 209:1 211:1 212:1 218:1 222:1 224:1 227:1 232:1 246:1 247:1 252:1 253:1 288:1 292:1 296:1 303:1 310:1 311:1 318:1 320:1 337:1 342:1 345:1 351:1 354:1 359:1 369:1 372:1 408:1 412:1 415:1 416:1 419:1 426:1 440:1 441:1 442:1 455:1 470:1 472:1 473:1 474:1 486:1 492:1 498:1 499:1 513:1 526:1 530:1 536:1 540:1 543:1 547:1 549:1 554:1 555:1 571:1 573:1 575:1 581:1 585:1 588:1 593:1 602:1 614:1 619:1 624:1 634:1 657:1 659:1 669:1 693:1 700:1 738:1 752:1 753:1 770:1 775:1 783:1 785:1 794:1 800:1 802:1 803:1 808:1 811:1 832:1 833:1 840:1 841:1 910:1 920:1 929:1 936:1 937:1 974:1 987:1 990:1 1011:1 1017:1 1019:1 1024:1 1040:1 1049:1 1053:1 1055:1 1076:1 #
-0.0052246729809923694518025705235686 3:1 6:1 25:1 30:1 40:1 42:1 43:1 44:1 47:1 56:1 59:1 60:1 69:1 74:1 80:1 86:1 92:1 95:1 108:1 110:1 116:1 120:1 121:1 130:1 132:1 133:1 150:1 154:1 164:1 171:1 182:1 186:1 189:1 191:1 195:1 198:1 209:1 212:1 215:1 223:1 225:1 232:1 241:1 242:1 246:1 247:1 252:1 265:1 272:1 279:1 280:1 301:1 303:1 307:1 309:1 314:1 318:1 319:1 336:1 343:1 345:1 366:1 369:1 380:1 382:1 396:1 403:1 411:1 412:1 415:1 416:1 419:1 420:1 437:1 441:1 443:1 445:1 455:1 473:1 492:1 497:1 508:1 512:1 531:1 537:1 540:1 543:1 548:1 549:1 552:1 553:1 582:1 585:1 588:1 592:1 597:1 608:1 609:1 634:1 642:1 650:1 656:1 658:1 661:1 662:1 684:1 693:1 700:1 709:1 713:1 731:1 734:1 741:1 742:1 745:1 751:1 752:1 756:1 766:1 770:1 772:1 774:1 800:1 805:1 818:1 821:1 840:1 851:1 858:1 863:1 877:1 892:1 896:1 898:1 928:1 938:1 958:1 961:1 965:1 969:1 974:1 987:1 989:1 990:1 1004:1 1011:1 1012:1 1017:1 1019:1 1025:1 1028:1 1029:1 1048:1 1062:1 1066:1 1073:1 1082:1 1083:1 1086:1 #
-0.0052246729809923694518025705235686 16:1 18:1 29:1 43:1 50:1 51:1 56:1 60:1 69:1 85:1 86:1 87:1 95:1 106:1 108:1 116:1 123:1 131:1 133:1 147:1 154:1 158:1 162:1 165:1 171:1 175:1 187:1 189:1 191:1 198:1 209:1 211:1 224:1 227:1 229:1 234:1 235:1 241:1 247:1 254:1 255:1 272:1 279:1 292:1 303:1 310:1 311:1 318:1 323:1 329:1 330:1 337:1 359:1 362:1 369:1 380:1 387:1 400:1 404:1 406:1 408:1 412:1 415:1 416:1 426:1 435:1 442:1 445:1 449:1 451:1 473:1 487:1 498:1 509:1 526:1 528:1 532:1 536:1 537:1 540:1 543:1 546:1 549:1 558:1 562:1 573:1 575:1 585:1 588:1 591:1 592:1 614:1 617:1 620:1 630:1 634:1 641:1 652:1 668:1 669:1 670:1 681:1 700:1 719:1 748:1 752:1 759:1 769:1 772:1 783:1 793:1 794:1 800:1 801:1 806:1 820:1 823:1 833:1 836:1 843:1 852:1 874:1 877:1 880:1 893:1 905:1 918:1 920:1 929:1 931:1 933:1 936:1 965:1 987:1 990:1 1011:1 1049:1 1055:1 1064:1 1076:1 1079:1 1086:1 #
-0.0052246729809923694518025705235686 2:1 4:1 6:1 13:1 27:1 40:1 44:1 47:1 50:1 51:1 53:1 56:1 60:1 66:1 69:1 76:1 86:1 87:1 107:1 108:1 116:1 128:1 133:1 144:1 166:1 171:1 183:1 184:1 185:1 187:1 189:1 199:1 201:1 222:1 223:1 224:1 230:1 232:1 236:1 244:1 250:1 253:1 257:1 277:1 284:1 285:1 286:1 299:1 303:1 309:1 311:1 319:1 323:1 331:1 333:1 336:1 345:1 351:1 353:1 355:1 359:1 361:1 367:1 368:1 369:1 370:1 374:1 375:1 377:1 378:1 385:1 387:1 392:1 400:1 405:1 412:1 415:1 416:1 427:1 428:1 453:1 455:1 456:1 471:1 473:1 488:1 492:1 499:1 503:1 509:1 513:1 515:1 537:1 540:1 542:1 543:1 546:1 549:1 556:1 557:1 558:1 561:1 583:1 585:1 594:1 595:1 596:1 602:1 608:1 629:1 634:1 653:1 656:1 659:1 662:1 665:1 670:1 684:1 693:1 698:1 700:1 709:1 719:1 732:1 774:1 783:1 800:1 818:1 821:1 823:1 825:1 829:1 845:1 849:1 852:1 863:1 877:1 884:1 889:1 911:1 914:1 918:1 928:1 931:1 954:1 974:1 987:1 1007:1 1009:1 1011:1 1021:1 1024:1 1029:1 1043:1 1050:1 1057:1 1066:1 1076:1 1079:1 1088:1 #
0.0052246729809923694518025705235686 1:1 3:1 4:1 14:1 17:1 20:1 31:1 34:1 43:1 50:1 51:1 55:1 56:1 60:1 69:1 74:1 75:1 76:1 77:1 86:1 87:1 92:1 93:1 95:1 96:1 97:1 108:1 109:1 112:1 115:1 116:1 120:1 121:1 123:1 126:1 127:1 128:1 129:1 133:1 143:1 146:1 147:1 154:1 155:1 161:1 162:1 167:1 171:1 172:1 173:1 178:1 179:1 180:1 182:1 183:1 185:1 186:1 187:1 189:1 195:1 198:1 199:1 201:1 207:1 211:1 215:1 219:1 223:1 224:1 225:1 229:1 230:1 232:1 237:1 242:1 246:1 247:1 253:1 258:1 259:1 263:1 264:1 266:1 270:1 271:1 272:1 279:1 280:1 287:1 288:1 294:1 296:1 303:1 304:1 307:1 311:1 314:1 318:1 319:1 320:1 323:1 327:1 336:1 337:1 339:1 343:1 348:1 351:1 354:1 356:1 359:1 366:1 368:1 369:1 372:1 382:1 387:1 391:1 396:1 399:1 407:1 408:1 412:1 415:1 416:1 419:1 424:1 427:1 432:1 440:1 444:1 451:1 455:1 461:1 463:1 472:1 473:1 479:1 481:1 487:1 489:1 492:1 498:1 501:1 505:1 512:1 513:1 517:1 525:1 526:1 527:1 534:1 537:1 540:1 543:1 544:1 546:1 547:1 549:1 554:1 555:1 564:1 573:1 575:1 581:1 585:1 588:1 597:1 599:1 602:1 604:1 605:1 610:1 614:1 617:1 621:1 624:1 626:1 638:1 640:1 643:1 659:1 662:1 670:1 677:1 690:1 695:1 705:1 711:1 712:1 717:1 729:1 745:1 759:1 760:1 768:1 770:1 772:1 776:1 778:1 782:1 785:1 787:1 790:1 792:1 794:1 796:1 800:1 803:1 813:1 815:1 818:1 821:1 822:1 824:1 825:1 828:1 844:1 845:1 850:1 851:1 855:1 860:1 862:1 867:1 869:1 874:1 875:1 877:1 878:1 880:1 885:1 893:1 908:1 910:1 912:1 918:1 920:1 924:1 928:1 931:1 933:1 936:1 937:1 951:1 953:1 956:1 961:1 964:1 965:1 966:1 969:1 974:1 983:1 987:1 990:1 991:1 1000:1 1008:1 1011:1 1012:1 1018:1 1019:1 1020:1 1024:1 1028:1 1029:1 1032:1 1033:1 1036:1 1037:1 1047:1 1053:1 1056:1 1059:1 1061:1 1062:1 1063:1 1080:1 1086:1 #
0.0052246729809923694518025705235686 3:1 9:1 12:1 13:1 18:1 22:1 34:1 35:1 41:1 43:1 47:1 50:1 51:1 52:1 53:1 55:1 56:1 59:1 60:1 64:1 66:1 69:1 74:1 75:1 77:1 78:1 80:1 86:1 87:1 94:1 97:1 108:1 116:1 119:1 125:1 129:1 133:1 143:1 149:1 154:1 155:1 162:1 171:1 177:1 182:1 185:1 186:1 187:1 189:1 191:1 192:1 193:1 198:1 199:1 209:1 210:1 211:1 212:1 214:1 215:1 217:1 219:1 223:1 224:1 229:1 234:1 242:1 247:1 252:1 253:1 254:1 257:1 258:1 262:1 263:1 266:1 271:1 272:1 279:1 280:1 283:1 293:1 296:1 297:1 301:1 303:1 307:1 311:1 313:1 318:1 319:1 322:1 323:1 328:1 337:1 343:1 347:1 351:1 354:1 355:1 359:1 360:1 361:1 366:1 369:1 379:1 380:1 387:1 391:1 393:1 400:1 408:1 412:1 415:1 416:1 419:1 426:1 428:1 435:1 436:1 440:1 443:1 445:1 446:1 449:1 451:1 455:1 461:1 462:1 463:1 472:1 473:1 476:1 477:1 481:1 486:1 487:1 492:1 496:1 498:1 499:1 501:1 507:1 509:1 512:1 513:1 514:1 518:1 522:1 523:1 526:1 529:1 536:1 537:1 540:1 542:1 543:1 546:1 549:1 553:1 554:1 555:1 569:1 576:1 578:1 579:1 581:1 583:1 585:1 588:1 599:1 602:1 604:1 605:1 606:1 609:1 614:1 617:1 620:1 626:1 627:1 634:1 636:1 638:1 650:1 660:1 662:1 670:1 672:1 674:1 684:1 687:1 688:1 693:1 694:1 695:1 696:1 700:1 711:1 714:1 717:1 720:1 722:1 732:1 752:1 759:1 760:1 768:1 773:1 774:1 782:1 783:1 789:1 794:1 795:1 800:1 806:1 813:1 820:1 821:1 822:1 824:1 825:1 829:1 836:1 837:1 840:1 841:1 849:1 850:1 855:1 860:1 861:1 864:1 869:1 875:1 877:1 878:1 884:1 888:1 892:1 893:1 897:1 908:1 913:1 918:1 928:1 929:1 931:1 933:1 935:1 937:1 942:1 948:1 949:1 951:1 953:1 956:1 961:1 965:1 967:1 974:1 975:1 977:1 983:1 987:1 989:1 990:1 991:1 992:1 1000:1 1011:1 1017:1 1019:1 1020:1 1021:1 1024:1 1027:1 1033:1 1036:1 1038:1 1049:1 1052:1 1053:1 1054:1 1059:1 1063:1 1066:1 1071:1 1073:1 #
0.0052246729809923694518025705235686 8:1 18:1 21:1 31:1 34:1 35:1 43:1 45:1 46:1 49:1 50:1 51:1 53:1 54:1 56:1 60:1 69:1 70:1 72:1 74:1 75:1 76:1 77:1 86:1 87:1 93:1 108:1 116:1 121:1 125:1 133:1 149:1 152:1 154:1 155:1 162:1 171:1 182:1 186:1 187:1 189:1 191:1 192:1 198:1 203:1 209:1 211:1 213:1 214:1 216:1 218:1 221:1 222:1 223:1 229:1 234:1 247:1 253:1 263:1 265:1 268:1 272:1 276:1 279:1 280:1 293:1 294:1 296:1 303:1 308:1 311:1 313:1 315:1 318:1 319:1 323:1 330:1 337:1 339:1 344:1 351:1 354:1 355:1 359:1 361:1 366:1 369:1 370:1 372:1 373:1 399:1 400:1 401:1 406:1 412:1 415:1 416:1 417:1 419:1 422:1 424:1 428:1 439:1 440:1 445:1 455:1 467:1 468:1 473:1 477:1 486:1 492:1 494:1 512:1 518:1 525:1 526:1 537:1 540:1 542:1 543:1 544:1 546:1 549:1 551:1 552:1 554:1 573:1 578:1 579:1 581:1 585:1 588:1 591:1 600:1 602:1 604:1 605:1 609:1 610:1 614:1 617:1 647:1 652:1 659:1 669:1 677:1 684:1 687:1 688:1 689:1 700:1 701:1 702:1 709:1 724:1 733:1 736:1 738:1 749:1 751:1 752:1 768:1 769:1 774:1 787:1 788:1 789:1 800:1 801:1 819:1 821:1 822:1 825:1 835:1 836:1 838:1 855:1 864:1 873:1 874:1 875:1 877:1 879:1 884:1 885:1 896:1 897:1 898:1 908:1 910:1 918:1 920:1 922:1 931:1 933:1 937:1 945:1 951:1 961:1 973:1 974:1 978:1 980:1 982:1 987:1 990:1 992:1 998:1 1005:1 1011:1 1012:1 1017:1 1018:1 1020:1 1024:1 1028:1 1037:1 1047:1 1054:1 1063:1 1066:1 1071:1 1076:1 #
0.0052246729809923694518025705235686 2:1 3:1 4:1 8:1 9:1 18:1 19:1 20:1 28:1 34:1 35:1 40:1 41:1 43:1 47:1 50:1 51:1 53:1 55:1 56:1 59:1 60:1 64:1 65:1 69:1 70:1 71:1 76:1 86:1 92:1 100:1 108:1 116:1 121:1 122:1 133:1 143:1 146:1 151:1 154:1 155:1 157:1 161:1 163:1 165:1 171:1 186:1 187:1 189:1 192:1 199:1 201:1 208:1 209:1 210:1 211:1 212:1 213:1 220:1 223:1 224:1 237:1 247:1 253:1 261:1 265:1 268:1 271:1 272:1 274:1 279:1 286:1 303:1 305:1 318:1 319:1 322:1 327:1 336:1 337:1 351:1 359:1 366:1 369:1 373:1 374:1 380:1 383:1 386:1 387:1 407:1 408:1 412:1 415:1 416:1 419:1 421:1 424:1 426:1 435:1 446:1 455:1 462:1 464:1 466:1 472:1 473:1 477:1 478:1 479:1 481:1 492:1 505:1 511:1 512:1 513:1 526:1 537:1 542:1 543:1 546:1 549:1 554:1 562:1 573:1 581:1 583:1 585:1 588:1 591:1 592:1 600:1 604:1 607:1 609:1 610:1 614:1 617:1 624:1 625:1 626:1 638:1 648:1 655:1 662:1 666:1 674:1 677:1 685:1 686:1 688:1 690:1 695:1 712:1 721:1 727:1 747:1 750:1 751:1 752:1 760:1 768:1 783:1 794:1 796:1 800:1 806:1 815:1 821:1 822:1 825:1 831:1 834:1 840:1 843:1 844:1 845:1 851:1 855:1 865:1 875:1 879:1 891:1 892:1 893:1 901:1 903:1 910:1 917:1 929:1 931:1 933:1 937:1 939:1 951:1 960:1 961:1 969:1 971:1 974:1 987:1 989:1 990:1 992:1 1012:1 1018:1 1019:1 1020:1 1021:1 1023:1 1024:1 1043:1 1061:1 1071:1 1087:1 #
0.0052246729809923694518025705235686 9:1 12:1 18:1 20:1 25:1 28:1 31:1 34:1 41:1 43:1 47:1 50:1 51:1 54:1 56:1 60:1 69:1 75:1 84:1 86:1 87:1 90:1 92:1 93:1 108:1 116:1 118:1 121:1 123:1 125:1 129:1 133:1 135:1 138:1 139:1 143:1 146:1 154:1 157:1 163:1 171:1 177:1 178:1 182:1 184:1 186:1 187:1 189:1 191:1 198:1 199:1 200:1 201:1 202:1 209:1 211:1 216:1 217:1 223:1 224:1 234:1 242:1 247:1 252:1 253:1 260:1 262:1 263:1 266:1 268:1 270:1 272:1 274:1 278:1 279:1 280:1 281:1 289:1 290:1 294:1 301:1 303:1 313:1 318:1 319:1 320:1 322:1 323:1 328:1 336:1 337:1 339:1 351:1 359:1 364:1 366:1 368:1 369:1 372:1 380:1 387:1 393:1 399:1 400:1 401:1 403:1 404:1 406:1 412:1 415:1 416:1 419:1 422:1 426:1 428:1 436:1 442:1 449:1 451:1 460:1 471:1 472:1 473:1 476:1 486:1 492:1 498:1 499:1 512:1 513:1 520:1 524:1 529:1 531:1 537:1 540:1 542:1 543:1 544:1 546:1 549:1 551:1 554:1 557:1 566:1 571:1 581:1 585:1 604:1 605:1 610:1 614:1 617:1 624:1 626:1 629:1 634:1 641:1 654:1 656:1 662:1 669:1 672:1 673:1 684:1 688:1 700:1 701:1 703:1 714:1 715:1 717:1 724:1 730:1 745:1 752:1 759:1 761:1 769:1 770:1 774:1 777:1 782:1 783:1 789:1 793:1 795:1 800:1 821:1 822:1 829:1 834:1 836:1 840:1 872:1 901:1 903:1 906:1 909:1 913:1 918:1 922:1 931:1 933:1 948:1 951:1 953:1 961:1 969:1 974:1 980:1 982:1 987:1 990:1 992:1 997:1 1005:1 1011:1 1012:1 1015:1 1016:1 1017:1 1018:1 1019:1 1020:1 1021:1 1024:1 1028:1 1036:1 1039:1 1040:1 1048:1 1052:1 1054:1 1055:1 1057:1 1062:1 1072:1 1075:1 1081:1 #
-0.0045007444141086571862131471277735 9:1 13:1 16:1 18:1 19:1 20:1 21:1 32:1 34:1 45:1 46:1 47:1 50:1 51:1 53:1 56:1 60:1 62:1 69:1 82:1 86:1 87:1 108:1 112:1 116:1 125:1 128:1 129:1 132:1 133:1 138:1 142:1 143:1 144:1 147:1 149:1 151:1 154:1 157:1 161:1 162:1 164:1 167:1 171:1 177:1 178:1 182:1 184:1 186:1 187:1 189:1 191:1 198:1 199:1 201:1 209:1 215:1 216:1 218:1 223:1 224:1 229:1 230:1 240:1 241:1 242:1 243:1 247:1 250:1 251:1 253:1 257:1 264:1 265:1 267:1 270:1 271:1 274:1 279:1 281:1 283:1 285:1 293:1 296:1 297:1 299:1 303:1 307:1 311:1 314:1 318:1 319:1 322:1 323:1 333:1 336:1 337:1 344:1 349:1 351:1 354:1 355:1 358:1 359:1 361:1 367:1 369:1 382:1 383:1 387:1 391:1 395:1 396:1 399:1 400:1 402:1 407:1 412:1 413:1 415:1 416:1 419:1 422:1 423:1 426:1 428:1 435:1 442:1 453:1 454:1 455:1 456:1 459:1 461:1 462:1 464:1 470:1 471:1 473:1 477:1 478:1 481:1 483:1 486:1 491:1 492:1 498:1 499:1 502:1 512:1 513:1 520:1 525:1 526:1 529:1 530:1 532:1 536:1 537:1 538:1 540:1 542:1 543:1 544:1 546:1 549:1 551:1 553:1 554:1 557:1 559:1 570:1 575:1 576:1 577:1 581:1 585:1 591:1 592:1 595:1 602:1 604:1 608:1 614:1 615:1 617:1 624:1 626:1 634:1 637:1 638:1 642:1 648:1 651:1 653:1 659:1 662:1 670:1 673:1 676:1 680:1 681:1 688:1 689:1 692:1 695:1 698:1 700:1 706:1 712:1 714:1 720:1 723:1 733:1 734:1 741:1 742:1 744:1 750:1 751:1 752:1 754:1 757:1 759:1 760:1 764:1 768:1 770:1 775:1 781:1 793:1 794:1 795:1 800:1 806:1 813:1 821:1 822:1 829:1 833:1 835:1 838:1 839:1 840:1 848:1 851:1 855:1 856:1 857:1 860:1 867:1 869:1 875:1 877:1 880:1 885:1 889:1 891:1 892:1 893:1 894:1 907:1 911:1 912:1 914:1 918:1 920:1 922:1 924:1 927:1 931:1 937:1 958:1 961:1 969:1 974:1 981:1 982:1 987:1 990:1 995:1 996:1 999:1 1002:1 1003:1 1005:1 1011:1 1012:1 1017:1 1018:1 1020:1 1021:1 1024:1 1029:1 1032:1 1034:1 1036:1 1037:1 1047:1 1054:1 1058:1 1059:1 1060:1 1067:1 1070:1 1072:1 1080:1 1081:1 1087:1 #
-0.0052246729809923694518025705235686 17:1 18:1 40:1 43:1 45:1 47:1 50:1 51:1 53:1 56:1 57:1 60:1 69:1 74:1 76:1 77:1 79:1 80:1 86:1 87:1 93:1 95:1 102:1 108:1 116:1 118:1 121:1 123:1 125:1 127:1 131:1 133:1 143:1 145:1 154:1 155:1 162:1 171:1 177:1 178:1 180:1 186:1 187:1 189:1 191:1 192:1 198:1 199:1 203:1 209:1 211:1 223:1 224:1 228:1 230:1 232:1 235:1 238:1 242:1 247:1 253:1 265:1 266:1 267:1 271:1 272:1 274:1 276:1 286:1 294:1 303:1 307:1 309:1 311:1 318:1 319:1 322:1 337:1 343:1 344:1 351:1 354:1 359:1 365:1 366:1 369:1 380:1 387:1 395:1 399:1 406:1 412:1 413:1 415:1 416:1 422:1 425:1 436:1 438:1 446:1 451:1 463:1 466:1 473:1 474:1 496:1 509:1 520:1 525:1 526:1 527:1 528:1 530:1 533:1 534:1 537:1 540:1 541:1 543:1 546:1 549:1 551:1 554:1 558:1 559:1 563:1 581:1 585:1 588:1 599:1 604:1 606:1 614:1 617:1 624:1 627:1 632:1 634:1 638:1 644:1 659:1 662:1 677:1 687:1 693:1 700:1 708:1 721:1 733:1 744:1 751:1 758:1 768:1 769:1 770:1 774:1 775:1 781:1 782:1 788:1 789:1 790:1 793:1 797:1 800:1 801:1 806:1 809:1 821:1 822:1 825:1 836:1 840:1 855:1 867:1 875:1 880:1 893:1 901:1 909:1 918:1 928:1 931:1 933:1 939:1 951:1 952:1 956:1 961:1 966:1 974:1 976:1 977:1 981:1 983:1 987:1 990:1 991:1 992:1 997:1 998:1 1009:1 1011:1 1018:1 1019:1 1020:1 1021:1 1024:1 1028:1 1036:1 1053:1 1067:1 1070:1 1072:1 1076:1 1077:1 1084:1 1086:1 1088:1 #
-0.0052246729809923694518025705235686 2:1 4:1 8:1 10:1 16:1 17:1 18:1 19:1 20:1 23:1 24:1 34:1 35:1 40:1 43:1 45:1 47:1 50:1 51:1 52:1 53:1 56:1 60:1 67:1 69:1 73:1 77:1 80:1 86:1 87:1 96:1 99:1 104:1 108:1 110:1 112:1 114:1 116:1 121:1 127:1 133:1 145:1 151:1 152:1 161:1 162:1 170:1 171:1 175:1 178:1 181:1 187:1 189:1 191:1 192:1 193:1 198:1 201:1 210:1 211:1 218:1 223:1 224:1 232:1 242:1 247:1 253:1 271:1 274:1 279:1 296:1 303:1 311:1 318:1 319:1 321:1 322:1 323:1 337:1 338:1 339:1 342:1 343:1 344:1 351:1 354:1 359:1 366:1 368:1 380:1 386:1 388:1 399:1 400:1 401:1 407:1 408:1 412:1 415:1 416:1 422:1 426:1 428:1 433:1 434:1 435:1 445:1 451:1 457:1 464:1 470:1 472:1 473:1 476:1 478:1 487:1 492:1 498:1 499:1 502:1 508:1 512:1 520:1 525:1 526:1 529:1 531:1 537:1 540:1 542:1 543:1 546:1 548:1 549:1 554:1 557:1 566:1 575:1 578:1 585:1 588:1 591:1 601:1 602:1 604:1 608:1 609:1 614:1 617:1 634:1 638:1 647:1 659:1 662:1 669:1 670:1 673:1 676:1 677:1 684:1 689:1 695:1 706:1 708:1 723:1 732:1 740:1 746:1 752:1 753:1 758:1 762:1 766:1 768:1 775:1 779:1 782:1 788:1 789:1 791:1 796:1 800:1 801:1 803:1 808:1 810:1 818:1 821:1 822:1 836:1 840:1 842:1 843:1 845:1 849:1 855:1 867:1 868:1 869:1 872:1 877:1 880:1 885:1 888:1 893:1 897:1 905:1 908:1 912:1 918:1 920:1 924:1 925:1 928:1 931:1 933:1 937:1 940:1 942:1 948:1 950:1 956:1 958:1 961:1 962:1 974:1 979:1 981:1 982:1 987:1 988:1 989:1 990:1 992:1 998:1 1001:1 1011:1 1012:1 1019:1 1020:1 1028:1 1029:1 1035:1 1036:1 1038:1 1041:1 1048:1 1054:1 1056:1 1057:1 1066:1 1080:1 1081:1 1088:1 #
-0.0052246729809923694518025705235686 6:1 9:1 14:1 18:1 31:1 34:1 43:1 45:1 47:1 50:1 51:1 53:1 55:1 56:1 57:1 60:1 67:1 69:1 71:1 73:1 74:1 75:1 77:1 84:1 86:1 87:1 90:1 96:1 101:1 102:1 108:1 109:1 114:1 116:1 119:1 121:1 124:1 133:1 141:1 143:1 146:1 147:1 150:1 152:1 154:1 155:1 158:1 160:1 161:1 170:1 171:1 178:1 182:1 186:1 187:1 189:1 192:1 196:1 198:1 199:1 200:1 211:1 216:1 217:1 223:1 224:1 227:1 229:1 230:1 232:1 235:1 238:1 241:1 247:1 249:1 253:1 258:1 262:1 263:1 269:1 271:1 272:1 274:1 279:1 280:1 290:1 292:1 296:1 301:1 303:1 304:1 307:1 311:1 314:1 316:1 318:1 319:1 320:1 323:1 337:1 344:1 351:1 354:1 355:1 359:1 360:1 361:1 366:1 369:1 387:1 393:1 396:1 397:1 399:1 406:1 409:1 412:1 415:1 416:1 419:1 424:1 436:1 443:1 445:1 446:1 447:1 449:1 453:1 455:1 463:1 470:1 473:1 476:1 479:1 480:1 481:1 482:1 486:1 487:1 489:1 490:1 491:1 492:1 499:1 502:1 504:1 505:1 512:1 513:1 520:1 523:1 528:1 529:1 537:1 540:1 542:1 543:1 546:1 549:1 554:1 557:1 565:1 567:1 575:1 581:1 583:1 585:1 588:1 592:1 600:1 604:1 606:1 608:1 610:1 614:1 615:1 617:1 627:1 634:1 636:1 638:1 640:1 646:1 648:1 650:1 660:1 662:1 668:1 671:1 681:1 684:1 690:1 700:1 701:1 704:1 710:1 711:1 717:1 724:1 735:1 736:1 741:1 742:1 752:1 753:1 758:1 759:1 760:1 770:1 783:1 789:1 790:1 795:1 800:1 803:1 805:1 806:1 807:1 809:1 810:1 811:1 821:1 822:1 825:1 832:1 834:1 836:1 840:1 845:1 869:1 877:1 882:1 885:1 888:1 891:1 892:1 893:1 908:1 910:1 912:1 918:1 920:1 928:1 929:1 931:1 933:1 937:1 939:1 945:1 947:1 949:1 951:1 953:1 954:1 960:1 961:1 978:1 983:1 987:1 989:1 990:1 991:1 999:1 1000:1 1006:1 1009:1 1011:1 1012:1 1014:1 1018:1 1020:1 1021:1 1035:1 1036:1 1051:1 1052:1 1053:1 1054:1 1056:1 1059:1 1063:1 1064:1 1066:1 1072:1 1082:1 #
-0.0052011703530500108527689917536918 1:1 2:1 8:1 14:1 16:1 18:1 20:1 21:1 22:1 31:1 34:1 40:1 47:1 49:1 50:1 51:1 53:1 55:1 56:1 57:1 60:1 67:1 69:1 74:1 77:1 79:1 81:1 84:1 86:1 87:1 92:1 108:1 116:1 121:1 125:1 133:1 134:1 143:1 146:1 150:1 155:1 162:1 165:1 171:1 186:1 187:1 189:1 190:1 193:1 198:1 199:1 200:1 201:1 208:1 211:1 222:1 223:1 224:1 229:1 232:1 237:1 242:1 247:1 249:1 251:1 253:1 262:1 264:1 271:1 272:1 274:1 280:1 293:1 294:1 296:1 297:1 298:1 303:1 305:1 310:1 311:1 314:1 316:1 318:1 319:1 322:1 328:1 332:1 337:1 339:1 354:1 355:1 358:1 359:1 360:1 361:1 368:1 369:1 378:1 382:1 383:1 385:1 387:1 388:1 394:1 397:1 399:1 400:1 406:1 412:1 414:1 415:1 416:1 418:1 422:1 428:1 434:1 445:1 455:1 461:1 472:1 473:1 476:1 480:1 481:1 487:1 502:1 505:1 526:1 528:1 531:1 535:1 537:1 540:1 542:1 543:1 546:1 548:1 553:1 557:1 569:1 576:1 581:1 585:1 588:1 591:1 604:1 607:1 610:1 614:1 617:1 620:1 634:1 638:1 640:1 646:1 662:1 672:1 677:1 678:1 684:1 685:1 691:1 696:1 700:1 703:1 711:1 715:1 717:1 722:1 733:1 752:1 756:1 757:1 759:1 760:1 761:1 762:1 768:1 770:1 774:1 775:1 780:1 789:1 790:1 800:1 807:1 813:1 818:1 819:1 821:1 822:1 832:1 834:1 838:1 847:1 851:1 858:1 860:1 864:1 865:1 877:1 880:1 893:1 899:1 908:1 918:1 920:1 926:1 929:1 933:1 937:1 947:1 950:1 951:1 953:1 961:1 971:1 973:1 974:1 985:1 987:1 990:1 993:1 999:1 1000:1 1012:1 1017:1 1019:1 1020:1 1021:1 1027:1 1033:1 1042:1 1054:1 1056:1 1066:1 1069:1 1079:1 1085:1 #
0.0052246729809923694518025705235686 22:1 25:1 26:1 31:1 43:1 45:1 50:1 51:1 56:1 59:1 60:1 69:1 74:1 75:1 86:1 107:1 108:1 109:1 116:1 129:1 133:1 144:1 148:1 152:1 171:1 187:1 189:1 192:1 198:1 199:1 211:1 223:1 229:1 250:1 265:1 274:1 288:1 301:1 303:1 316:1 318:1 319:1 323:1 326:1 330:1 351:1 354:1 359:1 362:1 369:1 371:1 373:1 387:1 392:1 400:1 407:1 412:1 415:1 419:1 445:1 472:1 473:1 479:1 512:1 526:1 537:1 541:1 542:1 543:1 546:1 549:1 555:1 581:1 585:1 586:1 610:1 614:1 652:1 660:1 684:1 689:1 717:1 724:1 726:1 736:1 741:1 762:1 774:1 776:1 778:1 789:1 793:1 800:1 821:1 822:1 825:1 840:1 864:1 918:1 924:1 933:1 965:1 974:1 987:1 990:1 992:1 996:1 1011:1 1017:1 1024:1 1061:1 1066:1 1067:1 #
0.0052246729809923694518025705235686 1:1 18:1 22:1 50:1 51:1 53:1 56:1 60:1 65:1 69:1 93:1 108:1 116:1 122:1 133:1 138:1 142:1 149:1 154:1 155:1 158:1 162:1 171:1 178:1 181:1 183:1 184:1 189:1 194:1 198:1 199:1 209:1 221:1 229:1 230:1 242:1 247:1 271:1 272:1 277:1 280:1 297:1 301:1 303:1 311:1 314:1 319:1 337:1 342:1 346:1 349:1 351:1 359:1 369:1 383:1 387:1 391:1 406:1 412:1 415:1 416:1 437:1 455:1 481:1 488:1 492:1 501:1 504:1 518:1 537:1 540:1 542:1 543:1 546:1 552:1 555:1 556:1 562:1 571:1 581:1 585:1 606:1 624:1 626:1 629:1 634:1 638:1 641:1 648:1 659:1 670:1 684:1 700:1 701:1 759:1 778:1 782:1 785:1 793:1 800:1 803:1 814:1 818:1 829:1 856:1 866:1 869:1 877:1 880:1 888:1 904:1 911:1 920:1 927:1 928:1 933:1 937:1 951:1 958:1 969:1 974:1 987:1 990:1 992:1 1011:1 1017:1 1021:1 1032:1 1046:1 1061:1 #
0.0052246729809923694518025705235686 23:1 29:1 31:1 34:1 35:1 40:1 41:1 43:1 56:1 60:1 64:1 69:1 71:1 74:1 77:1 86:1 108:1 116:1 117:1 121:1 122:1 133:1 143:1 148:1 152:1 170:1 171:1 186:1 187:1 189:1 193:1 211:1 212:1 229:1 236:1 247:1 250:1 253:1 272:1 294:1 296:1 303:1 319:1 322:1 323:1 337:1 339:1 350:1 351:1 354:1 359:1 360:1 361:1 366:1 368:1 374:1 378:1 387:1 399:1 401:1 412:1 415:1 416:1 426:1 435:1 441:1 455:1 472:1 473:1 482:1 487:1 492:1 494:1 499:1 540:1 543:1 546:1 554:1 557:1 577:1 585:1 588:1 602:1 606:1 609:1 614:1 641:1 650:1 662:1 684:1 697:1 705:1 737:1 749:1 757:1 760:1 769:1 770:1 796:1 800:1 805:1 806:1 816:1 822:1 834:1 840:1 880:1 888:1 908:1 920:1 931:1 937:1 961:1 974:1 987:1 990:1 1012:1 1019:1 1029:1 1036:1 1057:1 1063:1 1069:1 #
0.0052246729809923694518025705235686 3:1 12:1 23:1 49:1 50:1 51:1 55:1 56:1 60:1 69:1 71:1 76:1 77:1 86:1 101:1 108:1 113:1 114:1 116:1 120:1 121:1 123:1 134:1 135:1 176:1 177:1 178:1 189:1 198:1 201:1 203:1 208:1 210:1 220:1 247:1 253:1 271:1 288:1 303:1 314:1 318:1 323:1 339:1 351:1 354:1 359:1 368:1 369:1 370:1 380:1 386:1 393:1 399:1 406:1 412:1 415:1 416:1 422:1 426:1 445:1 473:1 498:1 499:1 512:1 513:1 520:1 525:1 533:1 537:1 540:1 543:1 546:1 549:1 562:1 571:1 577:1 585:1 588:1 604:1 614:1 632:1 634:1 652:1 662:1 693:1 699:1 717:1 752:1 754:1 768:1 774:1 782:1 800:1 803:1 805:1 806:1 820:1 822:1 845:1 851:1 858:1 877:1 888:1 898:1 903:1 914:1 920:1 930:1 931:1 932:1 933:1 973:1 980:1 987:1 990:1 1001:1 1011:1 1028:1 1036:1 1041:1 1054:1 1066:1 #
0.0052246729809923694518025705235686 9:1 47:1 50:1 51:1 56:1 60:1 64:1 69:1 71:1 74:1 85:1 86:1 108:1 116:1 121:1 125:1 147:1 154:1 155:1 162:1 171:1 177:1 178:1 181:1 182:1 189:1 193:1 198:1 199:1 211:1 223:1 230:1 239:1 247:1 266:1 270:1 272:1 291:1 303:1 311:1 337:1 339:1 342:1 351:1 359:1 369:1 370:1 412:1 415:1 416:1 419:1 422:1 426:1 428:1 453:1 473:1 494:1 508:1 509:1 513:1 516:1 519:1 529:1 533:1 534:1 537:1 540:1 541:1 543:1 546:1 549:1 554:1 569:1 581:1 585:1 586:1 605:1 607:1 609:1 624:1 657:1 662:1 666:1 688:1 717:1 738:1 752:1 759:1 774:1 787:1 800:1 806:1 818:1 825:1 834:1 851:1 855:1 864:1 867:1 868:1 869:1 880:1 912:1 918:1 931:1 985:1 987:1 1011:1 1012:1 1021:1 1024:1 1076:1 #
-0.0052246729809923694518025705235686 9:1 13:1 18:1 27:1 34:1 43:1 50:1 51:1 52:1 56:1 60:1 63:1 64:1 69:1 74:1 80:1 87:1 89:1 108:1 116:1 121:1 129:1 133:1 135:1 145:1 147:1 148:1 149:1 151:1 155:1 157:1 158:1 162:1 171:1 177:1 180:1 185:1 186:1 189:1 192:1 193:1 199:1 208:1 211:1 221:1 223:1 247:1 252:1 254:1 271:1 272:1 274:1 279:1 290:1 292:1 298:1 301:1 303:1 311:1 318:1 319:1 323:1 337:1 348:1 350:1 351:1 355:1 359:1 363:1 372:1 382:1 405:1 408:1 412:1 415:1 416:1 422:1 423:1 425:1 426:1 436:1 440:1 443:1 448:1 455:1 473:1 492:1 498:1 500:1 511:1 513:1 526:1 533:1 534:1 537:1 540:1 541:1 542:1 543:1 546:1 549:1 550:1 554:1 572:1 577:1 578:1 581:1 585:1 609:1 614:1 624:1 630:1 637:1 642:1 645:1 662:1 692:1 693:1 730:1 733:1 748:1 758:1 768:1 775:1 786:1 787:1 793:1 800:1 815:1 818:1 836:1 840:1 861:1 869:1 884:1 893:1 906:1 918:1 928:1 929:1 932:1 933:1 937:1 943:1 961:1 962:1 967:1 974:1 980:1 984:1 987:1 990:1 996:1 1000:1 1011:1 1012:1 1017:1 1031:1 1040:1 1047:1 1052:1 1054:1 1079:1 #
-0.0052246729809923694518025705235686 2:1 8:1 18:1 24:1 27:1 28:1 29:1 34:1 39:1 41:1 44:1 45:1 47:1 50:1 51:1 53:1 55:1 56:1 60:1 64:1 69:1 70:1 74:1 76:1 77:1 86:1 87:1 99:1 108:1 116:1 121:1 122:1 125:1 145:1 152:1 154:1 155:1 156:1 164:1 171:1 182:1 183:1 186:1 187:1 189:1 194:1 198:1 208:1 211:1 213:1 215:1 221:1 223:1 237:1 247:1 253:1 258:1 261:1 271:1 272:1 274:1 277:1 282:1 290:1 295:1 296:1 301:1 303:1 311:1 318:1 319:1 323:1 324:1 337:1 339:1 342:1 351:1 355:1 359:1 360:1 361:1 368:1 369:1 372:1 380:1 387:1 400:1 403:1 406:1 412:1 415:1 416:1 422:1 426:1 432:1 433:1 439:1 442:1 449:1 452:1 465:1 469:1 473:1 486:1 489:1 490:1 492:1 498:1 506:1 510:1 512:1 529:1 537:1 542:1 543:1 546:1 549:1 550:1 554:1 561:1 562:1 566:1 570:1 583:1 585:1 600:1 603:1 626:1 646:1 654:1 657:1 662:1 663:1 674:1 677:1 692:1 721:1 728:1 730:1 749:1 759:1 761:1 768:1 779:1 780:1 782:1 784:1 789:1 792:1 798:1 800:1 802:1 804:1 811:1 821:1 822:1 824:1 825:1 846:1 848:1 850:1 855:1 858:1 860:1 866:1 869:1 873:1 874:1 877:1 879:1 880:1 883:1 885:1 888:1 893:1 894:1 903:1 908:1 918:1 920:1 925:1 931:1 933:1 961:1 962:1 969:1 974:1 985:1 987:1 1011:1 1012:1 1021:1 1024:1 1028:1 1036:1 1047:1 1050:1 1063:1 1066:1 1088:1 #
-0.0052246729809923694518025705235686 2:1 3:1 14:1 40:1 43:1 45:1 50:1 51:1 56:1 60:1 63:1 69:1 74:1 77:1 86:1 88:1 108:1 116:1 121:1 133:1 143:1 152:1 154:1 155:1 171:1 178:1 186:1 189:1 191:1 192:1 193:1 198:1 209:1 214:1 215:1 223:1 224:1 229:1 232:1 237:1 247:1 249:1 252:1 253:1 272:1 295:1 300:1 303:1 306:1 318:1 332:1 337:1 339:1 354:1 399:1 412:1 415:1 416:1 419:1 422:1 428:1 458:1 473:1 477:1 484:1 486:1 502:1 510:1 518:1 526:1 529:1 537:1 540:1 542:1 543:1 546:1 549:1 561:1 585:1 588:1 597:1 614:1 617:1 637:1 638:1 677:1 688:1 689:1 695:1 707:1 720:1 730:1 736:1 760:1 762:1 778:1 787:1 800:1 801:1 806:1 814:1 819:1 824:1 834:1 850:1 864:1 908:1 929:1 931:1 935:1 951:1 953:1 967:1 970:1 974:1 979:1 987:1 990:1 1002:1 1011:1 1012:1 1021:1 1036:1 1046:1 1049:1 1085:1 #
-0.0052246729809923694518025705235686 5:1 12:1 16:1 28:1 34:1 43:1 49:1 50:1 51:1 53:1 56:1 60:1 67:1 69:1 74:1 77:1 86:1 87:1 92:1 96:1 108:1 113:1 116:1 121:1 122:1 126:1 130:1 146:1 154:1 155:1 169:1 171:1 182:1 183:1 185:1 187:1 188:1 189:1 191:1 193:1 198:1 202:1 211:1 223:1 224:1 227:1 232:1 236:1 240:1 247:1 250:1 253:1 269:1 271:1 272:1 279:1 292:1 303:1 304:1 308:1 311:1 315:1 318:1 319:1 320:1 321:1 323:1 333:1 345:1 350:1 354:1 356:1 359:1 361:1 366:1 369:1 380:1 382:1 387:1 391:1 402:1 403:1 406:1 407:1 408:1 412:1 415:1 416:1 419:1 421:1 426:1 427:1 428:1 435:1 438:1 441:1 443:1 445:1 473:1 481:1 487:1 492:1 493:1 498:1 504:1 505:1 513:1 525:1 526:1 529:1 530:1 537:1 542:1 546:1 549:1 566:1 572:1 573:1 578:1 580:1 581:1 585:1 588:1 591:1 602:1 609:1 610:1 614:1 617:1 641:1 647:1 656:1 667:1 670:1 688:1 694:1 698:1 707:1 712:1 727:1 738:1 743:1 751:1 752:1 757:1 769:1 774:1 796:1 798:1 800:1 807:1 821:1 822:1 825:1 855:1 860:1 867:1 868:1 869:1 874:1 877:1 883:1 885:1 909:1 918:1 920:1 925:1 931:1 933:1 937:1 945:1 950:1 951:1 957:1 967:1 969:1 974:1 987:1 994:1 1012:1 1019:1 1020:1 1021:1 1024:1 1028:1 1039:1 1054:1 1059:1 1078:1 1088:1 #
-0.0047275589052983013615971685794648 3:1 4:1 8:1 12:1 14:1 16:1 17:1 22:1 29:1 43:1 45:1 47:1 50:1 51:1 53:1 56:1 60:1 69:1 72:1 77:1 86:1 87:1 97:1 108:1 116:1 133:1 151:1 155:1 171:1 173:1 174:1 182:1 186:1 187:1 189:1 191:1 192:1 199:1 211:1 213:1 216:1 222:1 223:1 224:1 229:1 231:1 232:1 235:1 247:1 253:1 256:1 261:1 272:1 287:1 291:1 294:1 299:1 303:1 304:1 311:1 318:1 319:1 323:1 327:1 339:1 354:1 359:1 361:1 364:1 368:1 369:1 379:1 385:1 392:1 399:1 400:1 404:1 407:1 410:1 412:1 414:1 415:1 419:1 422:1 426:1 430:1 432:1 442:1 457:1 461:1 466:1 468:1 473:1 481:1 485:1 487:1 490:1 492:1 498:1 510:1 525:1 526:1 537:1 540:1 542:1 543:1 546:1 552:1 554:1 565:1 566:1 577:1 581:1 585:1 614:1 630:1 638:1 659:1 677:1 684:1 687:1 693:1 699:1 707:1 709:1 715:1 745:1 750:1 772:1 774:1 778:1 780:1 789:1 800:1 803:1 812:1 818:1 821:1 822:1 824:1 827:1 840:1 855:1 864:1 868:1 871:1 875:1 877:1 884:1 885:1 890:1 906:1 918:1 920:1 933:1 941:1 943:1 951:1 955:1 959:1 961:1 973:1 974:1 983:1 987:1 990:1 993:1 1011:1 1012:1 1017:1 1023:1 1024:1 1029:1 1030:1 1035:1 1036:1 1037:1 1044:1 1060:1 1065:1 1084:1 #
0.0052246729809923694518025705235686 8:1 18:1 21:1 34:1 45:1 47:1 50:1 51:1 53:1 55:1 56:1 60:1 67:1 69:1 74:1 75:1 77:1 86:1 95:1 108:1 110:1 116:1 125:1 133:1 146:1 147:1 154:1 155:1 158:1 164:1 170:1 171:1 177:1 181:1 182:1 183:1 186:1 187:1 189:1 191:1 194:1 198:1 207:1 209:1 214:1 215:1 216:1 223:1 224:1 234:1 235:1 237:1 242:1 247:1 266:1 270:1 271:1 272:1 279:1 287:1 290:1 303:1 305:1 308:1 311:1 318:1 319:1 320:1 323:1 331:1 333:1 337:1 343:1 345:1 346:1 351:1 352:1 354:1 355:1 359:1 361:1 366:1 369:1 373:1 378:1 379:1 380:1 387:1 392:1 399:1 406:1 412:1 415:1 416:1 422:1 423:1 429:1 430:1 431:1 436:1 445:1 447:1 449:1 453:1 455:1 467:1 472:1 473:1 478:1 481:1 482:1 487:1 489:1 492:1 495:1 499:1 503:1 505:1 509:1 512:1 524:1 525:1 526:1 527:1 528:1 536:1 537:1 540:1 541:1 542:1 543:1 544:1 546:1 548:1 549:1 554:1 555:1 557:1 571:1 573:1 581:1 582:1 585:1 588:1 591:1 592:1 600:1 601:1 602:1 604:1 606:1 609:1 610:1 614:1 624:1 626:1 634:1 638:1 650:1 662:1 673:1 696:1 730:1 736:1 741:1 746:1 760:1 768:1 777:1 778:1 782:1 783:1 793:1 794:1 800:1 803:1 806:1 807:1 809:1 821:1 822:1 834:1 840:1 846:1 851:1 861:1 865:1 869:1 874:1 877:1 885:1 893:1 909:1 918:1 920:1 924:1 925:1 929:1 931:1 933:1 937:1 948:1 951:1 961:1 965:1 967:1 974:1 982:1 983:1 987:1 989:1 990:1 992:1 997:1 1001:1 1009:1 1011:1 1012:1 1017:1 1018:1 1019:1 1020:1 1021:1 1024:1 1025:1 1027:1 1028:1 1030:1 1035:1 1036:1 1049:1 1050:1 1054:1 1064:1 1066:1 1081:1 1084:1 #
0.0052246729809923694518025705235686 2:1 6:1 13:1 18:1 20:1 25:1 27:1 29:1 31:1 34:1 43:1 50:1 51:1 53:1 55:1 56:1 57:1 60:1 69:1 70:1 75:1 79:1 86:1 87:1 108:1 114:1 116:1 120:1 121:1 129:1 133:1 144:1 147:1 152:1 154:1 155:1 162:1 171:1 183:1 184:1 186:1 187:1 189:1 190:1 191:1 198:1 209:1 211:1 215:1 217:1 218:1 223:1 224:1 237:1 242:1 244:1 247:1 250:1 253:1 262:1 270:1 271:1 272:1 279:1 280:1 301:1 303:1 305:1 307:1 311:1 313:1 318:1 320:1 321:1 322:1 333:1 336:1 339:1 344:1 345:1 350:1 351:1 354:1 355:1 359:1 361:1 366:1 369:1 378:1 389:1 391:1 400:1 405:1 407:1 412:1 415:1 416:1 419:1 428:1 433:1 436:1 447:1 449:1 451:1 455:1 472:1 473:1 486:1 489:1 491:1 492:1 496:1 499:1 506:1 509:1 513:1 514:1 516:1 520:1 524:1 525:1 526:1 533:1 537:1 540:1 542:1 543:1 546:1 549:1 554:1 555:1 565:1 566:1 567:1 578:1 585:1 588:1 600:1 604:1 606:1 609:1 610:1 614:1 615:1 624:1 627:1 634:1 636:1 648:1 652:1 662:1 674:1 676:1 684:1 689:1 700:1 708:1 726:1 730:1 741:1 742:1 750:1 752:1 759:1 765:1 768:1 773:1 775:1 776:1 781:1 782:1 783:1 785:1 787:1 800:1 811:1 814:1 818:1 821:1 825:1 828:1 832:1 836:1 841:1 847:1 851:1 860:1 861:1 877:1 887:1 888:1 893:1 918:1 920:1 931:1 933:1 939:1 943:1 948:1 952:1 953:1 965:1 966:1 969:1 974:1 980:1 987:1 989:1 990:1 1011:1 1018:1 1019:1 1020:1 1021:1 1024:1 1027:1 1028:1 1035:1 1036:1 1048:1 1054:1 1082:1 1088:1 #
0.0052246729809923694518025705235686 1:1 3:1 4:1 18:1 19:1 20:1 25:1 29:1 39:1 40:1 41:1 43:1 50:1 51:1 53:1 56:1 60:1 65:1 66:1 69:1 71:1 73:1 74:1 76:1 77:1 86:1 87:1 103:1 108:1 109:1 116:1 118:1 121:1 133:1 152:1 155:1 165:1 171:1 176:1 178:1 179:1 181:1 182:1 186:1 187:1 189:1 190:1 191:1 192:1 198:1 199:1 201:1 208:1 210:1 211:1 212:1 215:1 216:1 223:1 224:1 228:1 232:1 238:1 247:1 253:1 254:1 272:1 273:1 276:1 279:1 280:1 289:1 290:1 297:1 303:1 318:1 319:1 323:1 333:1 337:1 338:1 339:1 340:1 341:1 343:1 351:1 354:1 358:1 359:1 365:1 369:1 372:1 374:1 375:1 383:1 387:1 396:1 399:1 400:1 402:1 407:1 408:1 412:1 415:1 416:1 417:1 428:1 445:1 446:1 454:1 455:1 461:1 463:1 471:1 472:1 473:1 484:1 487:1 492:1 494:1 512:1 513:1 523:1 525:1 526:1 537:1 540:1 542:1 543:1 548:1 549:1 552:1 553:1 559:1 573:1 579:1 581:1 583:1 585:1 586:1 588:1 602:1 604:1 606:1 608:1 612:1 614:1 617:1 624:1 626:1 634:1 638:1 640:1 652:1 662:1 666:1 668:1 669:1 670:1 672:1 676:1 684:1 685:1 700:1 732:1 738:1 741:1 742:1 744:1 749:1 752:1 766:1 768:1 782:1 783:1 785:1 800:1 802:1 803:1 806:1 813:1 818:1 820:1 821:1 822:1 824:1 825:1 834:1 836:1 838:1 841:1 845:1 846:1 855:1 860:1 864:1 868:1 869:1 875:1 877:1 880:1 885:1 888:1 899:1 900:1 910:1 918:1 920:1 927:1 929:1 931:1 933:1 937:1 942:1 954:1 961:1 974:1 982:1 987:1 990:1 1011:1 1012:1 1020:1 1021:1 1030:1 1035:1 1063:1 1066:1 1069:1 1072:1 1073:1 1074:1 1088:1 #
0.0052246729809923694518025705235686 4:1 8:1 34:1 37:1 40:1 41:1 43:1 45:1 46:1 50:1 51:1 52:1 55:1 56:1 59:1 60:1 64:1 65:1 67:1 69:1 70:1 71:1 74:1 77:1 79:1 82:1 86:1 96:1 108:1 116:1 121:1 125:1 133:1 143:1 145:1 152:1 154:1 155:1 162:1 170:1 171:1 173:1 177:1 180:1 182:1 187:1 189:1 191:1 195:1 198:1 209:1 211:1 215:1 223:1 224:1 234:1 241:1 247:1 253:1 271:1 273:1 284:1 286:1 295:1 296:1 301:1 303:1 318:1 319:1 323:1 335:1 337:1 339:1 342:1 343:1 348:1 351:1 355:1 359:1 361:1 368:1 369:1 376:1 385:1 388:1 399:1 401:1 402:1 405:1 406:1 407:1 408:1 412:1 415:1 416:1 428:1 445:1 473:1 482:1 486:1 488:1 494:1 495:1 498:1 499:1 509:1 512:1 522:1 526:1 529:1 537:1 540:1 542:1 543:1 546:1 547:1 549:1 550:1 554:1 557:1 566:1 585:1 588:1 591:1 607:1 614:1 624:1 626:1 630:1 634:1 638:1 654:1 661:1 670:1 672:1 677:1 697:1 713:1 721:1 728:1 733:1 738:1 752:1 753:1 759:1 766:1 768:1 770:1 783:1 784:1 785:1 800:1 806:1 811:1 815:1 818:1 820:1 821:1 822:1 826:1 844:1 855:1 860:1 864:1 865:1 867:1 869:1 871:1 874:1 877:1 884:1 905:1 908:1 918:1 920:1 922:1 929:1 931:1 933:1 939:1 945:1 961:1 974:1 987:1 989:1 990:1 992:1 996:1 1005:1 1011:1 1012:1 1020:1 1021:1 1054:1 1059:1 1061:1 1062:1 1066:1 1068:1 1085:1 #
0.0052246729809923694518025705235686 1:1 8:1 12:1 14:1 17:1 20:1 28:1 31:1 37:1 40:1 43:1 45:1 50:1 51:1 52:1 53:1 55:1 56:1 60:1 63:1 69:1 74:1 79:1 80:1 85:1 86:1 87:1 93:1 95:1 102:1 105:1 108:1 116:1 120:1 121:1 129:1 133:1 137:1 150:1 152:1 154:1 162:1 171:1 176:1 177:1 181:1 185:1 186:1 187:1 189:1 198:1 209:1 211:1 218:1 224:1 225:1 232:1 247:1 252:1 253:1 270:1 271:1 273:1 296:1 303:1 305:1 309:1 311:1 318:1 322:1 335:1 337:1 346:1 351:1 354:1 359:1 363:1 366:1 368:1 369:1 371:1 379:1 399:1 402:1 405:1 406:1 412:1 415:1 416:1 419:1 422:1 428:1 436:1 445:1 449:1 466:1 472:1 473:1 477:1 486:1 488:1 491:1 506:1 509:1 511:1 512:1 513:1 514:1 526:1 537:1 540:1 542:1 543:1 546:1 549:1 554:1 555:1 564:1 565:1 567:1 571:1 575:1 585:1 591:1 592:1 602:1 604:1 612:1 614:1 626:1 632:1 634:1 638:1 662:1 684:1 687:1 697:1 736:1 746:1 749:1 753:1 769:1 770:1 774:1 779:1 800:1 806:1 808:1 813:1 820:1 821:1 832:1 834:1 840:1 864:1 865:1 867:1 868:1 874:1 875:1 877:1 888:1 893:1 908:1 918:1 931:1 951:1 953:1 960:1 961:1 974:1 984:1 987:1 989:1 990:1 992:1 993:1 1011:1 1017:1 1019:1 1020:1 1021:1 1041:1 1064:1 1066:1 1081:1 1088:1 #
-0.0052246729809923694518025705235686 12:1 14:1 20:1 29:1 31:1 34:1 43:1 45:1 50:1 51:1 52:1 54:1 56:1 60:1 63:1 64:1 65:1 69:1 70:1 74:1 75:1 77:1 78:1 86:1 87:1 93:1 95:1 108:1 116:1 118:1 119:1 120:1 121:1 122:1 125:1 127:1 128:1 133:1 143:1 146:1 150:1 154:1 162:1 171:1 178:1 179:1 182:1 184:1 186:1 187:1 189:1 191:1 198:1 199:1 209:1 213:1 216:1 224:1 228:1 237:1 247:1 248:1 250:1 253:1 255:1 270:1 275:1 276:1 279:1 290:1 296:1 297:1 300:1 303:1 305:1 318:1 319:1 320:1 322:1 323:1 329:1 336:1 351:1 353:1 354:1 359:1 369:1 371:1 373:1 378:1 383:1 387:1 402:1 405:1 406:1 409:1 412:1 414:1 415:1 416:1 417:1 424:1 426:1 428:1 430:1 435:1 436:1 446:1 455:1 457:1 467:1 473:1 485:1 492:1 498:1 509:1 516:1 526:1 528:1 537:1 538:1 540:1 542:1 543:1 546:1 549:1 555:1 567:1 570:1 581:1 585:1 588:1 602:1 612:1 624:1 634:1 637:1 638:1 647:1 659:1 663:1 669:1 684:1 687:1 699:1 715:1 726:1 732:1 740:1 745:1 746:1 752:1 754:1 760:1 764:1 768:1 776:1 800:1 806:1 812:1 819:1 821:1 828:1 836:1 838:1 847:1 851:1 860:1 865:1 867:1 869:1 871:1 875:1 882:1 898:1 913:1 927:1 928:1 929:1 931:1 941:1 948:1 955:1 961:1 974:1 983:1 987:1 990:1 992:1 999:1 1008:1 1011:1 1012:1 1013:1 1016:1 1021:1 1025:1 1034:1 1037:1 1038:1 1044:1 1046:1 1049:1 1072:1 1088:1 #
-0.0052246729809923694518025705235686 14:1 20:1 22:1 27:1 28:1 31:1 35:1 36:1 37:1 43:1 45:1 48:1 50:1 51:1 53:1 55:1 56:1 59:1 60:1 69:1 74:1 75:1 77:1 85:1 86:1 87:1 108:1 112:1 116:1 121:1 122:1 123:1 131:1 132:1 135:1 140:1 143:1 152:1 154:1 155:1 162:1 163:1 170:1 171:1 173:1 182:1 184:1 185:1 186:1 187:1 189:1 194:1 196:1 198:1 203:1 207:1 208:1 209:1 211:1 214:1 215:1 223:1 224:1 242:1 247:1 249:1 250:1 251:1 252:1 253:1 260:1 270:1 272:1 279:1 280:1 296:1 297:1 301:1 303:1 307:1 311:1 314:1 315:1 318:1 319:1 323:1 328:1 335:1 339:1 343:1 348:1 351:1 354:1 355:1 356:1 359:1 363:1 366:1 368:1 382:1 383:1 384:1 386:1 387:1 388:1 389:1 390:1 400:1 402:1 406:1 408:1 412:1 415:1 416:1 419:1 426:1 427:1 435:1 466:1 468:1 472:1 473:1 477:1 486:1 494:1 495:1 498:1 507:1 509:1 525:1 530:1 534:1 535:1 537:1 540:1 541:1 542:1 543:1 549:1 554:1 557:1 566:1 572:1 573:1 574:1 578:1 583:1 585:1 586:1 589:1 602:1 604:1 606:1 609:1 614:1 623:1 624:1 626:1 634:1 662:1 674:1 677:1 681:1 688:1 697:1 700:1 705:1 713:1 715:1 720:1 731:1 736:1 751:1 759:1 773:1 774:1 775:1 776:1 777:1 782:1 783:1 785:1 787:1 791:1 800:1 806:1 807:1 813:1 820:1 822:1 825:1 831:1 840:1 851:1 857:1 864:1 865:1 867:1 869:1 870:1 877:1 884:1 885:1 887:1 888:1 894:1 902:1 908:1 909:1 916:1 918:1 922:1 932:1 933:1 937:1 938:1 949:1 961:1 980:1 982:1 987:1 990:1 1002:1 1010:1 1011:1 1012:1 1017:1 1018:1 1019:1 1022:1 1023:1 1030:1 1033:1 1040:1 1041:1 1050:1 1055:1 1057:1 1062:1 1066:1 1079:1 1084:1 #
-0.0052246729809923694518025705235686 5:1 12:1 13:1 20:1 31:1 34:1 40:1 41:1 43:1 44:1 48:1 50:1 51:1 52:1 53:1 54:1 56:1 60:1 69:1 74:1 76:1 80:1 86:1 87:1 101:1 108:1 110:1 116:1 121:1 133:1 145:1 153:1 154:1 155:1 157:1 162:1 170:1 171:1 179:1 180:1 186:1 187:1 189:1 191:1 198:1 209:1 210:1 211:1 212:1 215:1 216:1 219:1 223:1 225:1 228:1 237:1 242:1 247:1 249:1 253:1 266:1 270:1 296:1 300:1 303:1 307:1 313:1 316:1 319:1 320:1 336:1 337:1 345:1 349:1 351:1 354:1 359:1 361:1 366:1 368:1 369:1 374:1 387:1 400:1 402:1 406:1 412:1 415:1 416:1 418:1 419:1 422:1 424:1 428:1 433:1 436:1 439:1 449:1 455:1 460:1 465:1 468:1 473:1 477:1 481:1 486:1 487:1 492:1 498:1 504:1 512:1 520:1 527:1 529:1 537:1 540:1 542:1 543:1 544:1 546:1 549:1 552:1 554:1 556:1 566:1 569:1 585:1 588:1 597:1 599:1 600:1 602:1 604:1 605:1 606:1 609:1 610:1 614:1 624:1 629:1 634:1 645:1 649:1 659:1 672:1 673:1 677:1 681:1 684:1 686:1 700:1 730:1 742:1 744:1 745:1 753:1 754:1 759:1 761:1 765:1 768:1 770:1 774:1 784:1 789:1 796:1 800:1 806:1 808:1 813:1 821:1 825:1 829:1 837:1 838:1 841:1 851:1 855:1 856:1 865:1 866:1 869:1 877:1 880:1 893:1 908:1 910:1 920:1 922:1 924:1 931:1 933:1 936:1 937:1 939:1 940:1 951:1 967:1 974:1 987:1 990:1 991:1 998:1 999:1 1012:1 1018:1 1019:1 1021:1 1028:1 1029:1 1032:1 1038:1 1043:1 1047:1 1049:1 #
-0.0052246729809923694518025705235686 1:1 2:1 12:1 17:1 34:1 41:1 50:1 51:1 53:1 56:1 60:1 66:1 69:1 73:1 74:1 75:1 76:1 81:1 84:1 86:1 87:1 90:1 101:1 108:1 109:1 116:1 121:1 125:1 129:1 131:1 133:1 134:1 157:1 166:1 170:1 171:1 173:1 186:1 187:1 189:1 191:1 199:1 208:1 209:1 211:1 219:1 221:1 224:1 229:1 232:1 234:1 237:1 238:1 242:1 244:1 247:1 249:1 253:1 259:1 278:1 279:1 284:1 291:1 297:1 301:1 303:1 311:1 313:1 314:1 316:1 318:1 319:1 320:1 321:1 322:1 326:1 337:1 341:1 347:1 351:1 359:1 360:1 362:1 369:1 370:1 378:1 380:1 382:1 387:1 396:1 401:1 402:1 403:1 404:1 405:1 407:1 408:1 411:1 412:1 415:1 416:1 419:1 422:1 423:1 428:1 435:1 437:1 438:1 442:1 446:1 459:1 461:1 468:1 472:1 473:1 481:1 482:1 484:1 492:1 511:1 512:1 513:1 524:1 529:1 536:1 537:1 540:1 542:1 543:1 544:1 549:1 550:1 555:1 563:1 571:1 575:1 580:1 583:1 585:1 588:1 591:1 600:1 604:1 614:1 627:1 634:1 656:1 659:1 668:1 676:1 684:1 685:1 693:1 717:1 740:1 742:1 752:1 768:1 769:1 770:1 774:1 783:1 789:1 792:1 795:1 800:1 801:1 803:1 804:1 810:1 813:1 821:1 822:1 825:1 836:1 850:1 852:1 855:1 865:1 867:1 869:1 871:1 876:1 877:1 893:1 894:1 900:1 904:1 909:1 910:1 915:1 918:1 926:1 927:1 931:1 933:1 936:1 937:1 938:1 939:1 942:1 952:1 965:1 982:1 987:1 990:1 991:1 992:1 1011:1 1012:1 1017:1 1018:1 1020:1 1021:1 1041:1 1047:1 1049:1 1051:1 1052:1 1060:1 1066:1 1076:1 1079:1 1088:1 #
-0.0052246729809923694518025705235686 1:1 4:1 16:1 18:1 23:1 25:1 29:1 34:1 43:1 50:1 51:1 53:1 56:1 60:1 69:1 71:1 74:1 78:1 86:1 97:1 98:1 108:1 116:1 120:1 121:1 125:1 133:1 143:1 150:1 152:1 154:1 155:1 157:1 162:1 171:1 178:1 181:1 186:1 189:1 190:1 191:1 195:1 198:1 201:1 205:1 207:1 210:1 211:1 212:1 213:1 214:1 220:1 223:1 229:1 233:1 234:1 237:1 247:1 253:1 258:1 275:1 278:1 288:1 294:1 296:1 303:1 310:1 318:1 319:1 320:1 322:1 337:1 338:1 340:1 341:1 342:1 343:1 351:1 352:1 354:1 368:1 369:1 371:1 373:1 375:1 387:1 391:1 396:1 399:1 400:1 401:1 406:1 408:1 412:1 414:1 415:1 416:1 419:1 422:1 426:1 435:1 446:1 454:1 455:1 457:1 472:1 473:1 480:1 481:1 484:1 485:1 486:1 488:1 491:1 492:1 509:1 516:1 517:1 525:1 528:1 529:1 537:1 540:1 542:1 543:1 546:1 549:1 559:1 560:1 561:1 564:1 578:1 579:1 581:1 583:1 585:1 588:1 602:1 604:1 606:1 609:1 612:1 634:1 635:1 637:1 648:1 659:1 666:1 670:1 674:1 679:1 684:1 688:1 692:1 699:1 700:1 704:1 709:1 717:1 718:1 729:1 741:1 752:1 759:1 768:1 770:1 775:1 780:1 783:1 788:1 800:1 801:1 806:1 812:1 816:1 819:1 821:1 822:1 827:1 828:1 833:1 834:1 838:1 846:1 851:1 865:1 869:1 875:1 878:1 880:1 885:1 893:1 894:1 905:1 906:1 908:1 915:1 917:1 918:1 929:1 931:1 937:1 943:1 954:1 967:1 969:1 970:1 975:1 981:1 983:1 987:1 989:1 990:1 1002:1 1008:1 1011:1 1012:1 1021:1 1034:1 1042:1 1044:1 1048:1 1063:1 1087:1 #
0.0052246729809923694518025705235686 2:1 4:1 12:1 18:1 20:1 29:1 31:1 34:1 40:1 43:1 45:1 47:1 48:1 50:1 51:1 54:1 56:1 60:1 64:1 69:1 86:1 87:1 108:1 112:1 116:1 121:1 129:1 133:1 143:1 147:1 155:1 162:1 165:1 170:1 171:1 178:1 182:1 186:1 187:1 189:1 209:1 215:1 220:1 223:1 224:1 229:1 247:1 253:1 260:1 266:1 272:1 274:1 276:1 286:1 303:1 310:1 311:1 314:1 318:1 319:1 337:1 342:1 351:1 359:1 369:1 373:1 379:1 389:1 393:1 399:1 404:1 406:1 407:1 408:1 412:1 415:1 416:1 426:1 427:1 444:1 447:1 473:1 498:1 513:1 525:1 529:1 537:1 540:1 543:1 546:1 549:1 566:1 575:1 585:1 588:1 599:1 602:1 609:1 610:1 614:1 617:1 624:1 626:1 638:1 652:1 662:1 677:1 688:1 693:1 696:1 742:1 756:1 768:1 774:1 775:1 778:1 789:1 796:1 800:1 801:1 803:1 807:1 809:1 818:1 820:1 821:1 825:1 832:1 855:1 857:1 862:1 869:1 875:1 877:1 880:1 885:1 917:1 918:1 920:1 922:1 924:1 925:1 933:1 937:1 961:1 974:1 979:1 982:1 987:1 990:1 991:1 996:1 1000:1 1004:1 1011:1 1012:1 1020:1 1021:1 1036:1 1040:1 1043:1 1047:1 1064:1 1069:1 #
0.0052246729809923694518025705235686 9:1 14:1 16:1 28:1 34:1 40:1 50:1 51:1 53:1 54:1 55:1 56:1 60:1 64:1 66:1 69:1 70:1 71:1 76:1 77:1 86:1 90:1 108:1 116:1 121:1 133:1 143:1 149:1 154:1 155:1 161:1 162:1 164:1 169:1 171:1 178:1 184:1 185:1 187:1 189:1 193:1 207:1 209:1 216:1 218:1 220:1 223:1 224:1 229:1 242:1 247:1 253:1 264:1 271:1 272:1 279:1 282:1 283:1 288:1 296:1 298:1 303:1 311:1 318:1 324:1 333:1 337:1 343:1 351:1 354:1 360:1 363:1 364:1 369:1 371:1 377:1 382:1 383:1 385:1 387:1 404:1 406:1 412:1 415:1 416:1 417:1 419:1 428:1 430:1 445:1 453:1 468:1 473:1 476:1 477:1 479:1 481:1 486:1 487:1 505:1 508:1 512:1 537:1 540:1 542:1 543:1 546:1 549:1 552:1 561:1 571:1 572:1 581:1 583:1 585:1 588:1 592:1 610:1 614:1 617:1 624:1 626:1 639:1 655:1 662:1 663:1 670:1 677:1 684:1 688:1 689:1 690:1 691:1 695:1 700:1 706:1 715:1 743:1 752:1 757:1 766:1 768:1 784:1 789:1 796:1 800:1 802:1 803:1 824:1 825:1 832:1 836:1 840:1 862:1 864:1 867:1 869:1 875:1 877:1 881:1 885:1 887:1 893:1 896:1 908:1 929:1 931:1 933:1 937:1 951:1 961:1 974:1 977:1 982:1 987:1 990:1 997:1 999:1 1011:1 1012:1 1017:1 1021:1 1028:1 1034:1 1036:1 1049:1 1057:1 1062:1 1066:1 1069:1 1084:1 #
0.0052246729809923694518025705235686 2:1 3:1 8:1 14:1 20:1 40:1 43:1 47:1 50:1 51:1 56:1 59:1 60:1 69:1 70:1 74:1 86:1 87:1 94:1 108:1 116:1 121:1 128:1 129:1 133:1 140:1 145:1 154:1 157:1 162:1 171:1 178:1 182:1 187:1 189:1 192:1 201:1 211:1 213:1 223:1 224:1 247:1 253:1 272:1 288:1 303:1 305:1 307:1 310:1 311:1 318:1 333:1 337:1 339:1 351:1 358:1 359:1 366:1 368:1 369:1 409:1 412:1 415:1 416:1 418:1 419:1 426:1 435:1 436:1 445:1 451:1 452:1 473:1 481:1 486:1 492:1 498:1 499:1 512:1 518:1 526:1 533:1 537:1 540:1 543:1 546:1 549:1 554:1 555:1 573:1 581:1 585:1 592:1 593:1 602:1 604:1 617:1 647:1 654:1 688:1 695:1 741:1 749:1 752:1 768:1 770:1 775:1 787:1 800:1 821:1 822:1 824:1 834:1 836:1 846:1 855:1 865:1 877:1 883:1 884:1 893:1 898:1 914:1 918:1 925:1 931:1 933:1 961:1 969:1 974:1 977:1 982:1 987:1 989:1 1011:1 1012:1 1017:1 1021:1 1024:1 1028:1 1040:1 1054:1 1060:1 1066:1 1068:1 #
0.0052246729809923694518025705235686 8:1 9:1 12:1 16:1 18:1 30:1 31:1 34:1 50:1 51:1 55:1 56:1 60:1 61:1 64:1 69:1 74:1 75:1 77:1 86:1 92:1 93:1 108:1 116:1 121:1 133:1 140:1 145:1 151:1 152:1 154:1 155:1 163:1 171:1 176:1 185:1 187:1 189:1 198:1 201:1 207:1 209:1 211:1 215:1 218:1 219:1 220:1 223:1 224:1 228:1 229:1 247:1 250:1 253:1 264:1 267:1 271:1 272:1 274:1 276:1 281:1 292:1 293:1 294:1 303:1 305:1 309:1 318:1 319:1 322:1 327:1 337:1 339:1 351:1 359:1 360:1 369:1 371:1 378:1 380:1 387:1 395:1 399:1 406:1 412:1 415:1 416:1 419:1 424:1 441:1 455:1 459:1 473:1 480:1 487:1 492:1 494:1 509:1 525:1 526:1 534:1 537:1 540:1 542:1 543:1 549:1 555:1 566:1 578:1 579:1 581:1 585:1 588:1 589:1 593:1 605:1 607:1 614:1 617:1 636:1 641:1 657:1 659:1 662:1 670:1 677:1 678:1 681:1 693:1 696:1 729:1 732:1 752:1 764:1 768:1 770:1 780:1 789:1 800:1 806:1 808:1 813:1 819:1 832:1 836:1 838:1 841:1 849:1 852:1 860:1 869:1 870:1 874:1 877:1 880:1 899:1 908:1 913:1 918:1 931:1 932:1 935:1 937:1 943:1 951:1 953:1 974:1 982:1 984:1 986:1 987:1 990:1 993:1 1002:1 1011:1 1015:1 1017:1 1020:1 1023:1 1045:1 1061:1 1062:1 1066:1 1069:1 1072:1 #
0.0052246729809923694518025705235686 5:1 6:1 12:1 14:1 17:1 23:1 24:1 31:1 34:1 39:1 40:1 41:1 43:1 45:1 49:1 50:1 51:1 52:1 55:1 56:1 59:1 60:1 69:1 74:1 75:1 76:1 80:1 85:1 86:1 87:1 107:1 108:1 116:1 121:1 125:1 133:1 143:1 145:1 154:1 155:1 158:1 167:1 171:1 173:1 178:1 186:1 187:1 189:1 194:1 198:1 199:1 209:1 211:1 224:1 242:1 247:1 249:1 253:1 265:1 270:1 272:1 274:1 287:1 296:1 303:1 312:1 316:1 318:1 319:1 323:1 335:1 337:1 339:1 343:1 351:1 354:1 361:1 366:1 368:1 369:1 372:1 387:1 399:1 400:1 407:1 412:1 415:1 416:1 451:1 453:1 455:1 468:1 469:1 471:1 472:1 473:1 481:1 486:1 487:1 492:1 499:1 506:1 509:1 520:1 525:1 526:1 529:1 530:1 531:1 534:1 540:1 543:1 544:1 546:1 549:1 555:1 585:1 588:1 591:1 609:1 617:1 626:1 627:1 629:1 632:1 636:1 638:1 648:1 657:1 670:1 674:1 677:1 688:1 693:1 705:1 720:1 744:1 745:1 762:1 768:1 775:1 789:1 793:1 800:1 810:1 820:1 821:1 831:1 832:1 836:1 837:1 840:1 855:1 863:1 874:1 877:1 885:1 898:1 908:1 918:1 925:1 931:1 943:1 961:1 974:1 980:1 984:1 987:1 988:1 990:1 1000:1 1005:1 1011:1 1012:1 1017:1 1020:1 1028:1 1035:1 1063:1 #
-0.0052246729809923694518025705235686 2:1 8:1 18:1 27:1 38:1 39:1 40:1 42:1 50:1 51:1 53:1 56:1 57:1 60:1 69:1 70:1 71:1 74:1 75:1 77:1 86:1 87:1 89:1 95:1 100:1 103:1 105:1 108:1 109:1 116:1 133:1 147:1 152:1 154:1 155:1 162:1 170:1 171:1 185:1 187:1 189:1 198:1 199:1 211:1 212:1 215:1 223:1 224:1 225:1 230:1 235:1 242:1 247:1 249:1 253:1 266:1 279:1 296:1 303:1 317:1 318:1 319:1 322:1 337:1 343:1 351:1 354:1 359:1 364:1 366:1 369:1 372:1 383:1 387:1 394:1 399:1 412:1 415:1 416:1 433:1 444:1 445:1 453:1 466:1 473:1 477:1 481:1 482:1 492:1 494:1 496:1 509:1 512:1 514:1 525:1 526:1 529:1 537:1 540:1 541:1 542:1 543:1 546:1 549:1 555:1 577:1 578:1 581:1 585:1 587:1 592:1 593:1 609:1 614:1 625:1 646:1 652:1 657:1 662:1 677:1 684:1 700:1 701:1 716:1 720:1 732:1 742:1 764:1 766:1 768:1 775:1 782:1 783:1 788:1 800:1 805:1 809:1 822:1 823:1 824:1 825:1 836:1 840:1 858:1 864:1 869:1 877:1 887:1 918:1 931:1 952:1 961:1 967:1 987:1 990:1 1011:1 1012:1 1021:1 1023:1 1024:1 1040:1 1066:1 1071:1 1077:1 1083:1 1088:1 #
-0.0052246729809923694518025705235686 3:1 7:1 12:1 16:1 21:1 29:1 31:1 34:1 35:1 46:1 47:1 50:1 51:1 55:1 56:1 60:1 64:1 69:1 70:1 77:1 80:1 87:1 88:1 91:1 98:1 105:1 108:1 116:1 121:1 124:1 133:1 134:1 147:1 148:1 152:1 163:1 169:1 171:1 177:1 186:1 187:1 189:1 193:1 194:1 195:1 198:1 199:1 201:1 209:1 215:1 222:1 224:1 234:1 244:1 247:1 249:1 253:1 258:1 270:1 271:1 272:1 274:1 279:1 280:1 287:1 297:1 303:1 306:1 318:1 322:1 323:1 327:1 329:1 337:1 338:1 339:1 343:1 347:1 351:1 354:1 366:1 369:1 372:1 387:1 390:1 399:1 403:1 408:1 410:1 412:1 415:1 416:1 419:1 426:1 438:1 443:1 444:1 447:1 455:1 458:1 468:1 469:1 473:1 475:1 479:1 492:1 496:1 501:1 513:1 522:1 527:1 529:1 532:1 537:1 540:1 542:1 543:1 549:1 554:1 557:1 571:1 581:1 583:1 585:1 587:1 597:1 604:1 608:1 612:1 614:1 617:1 624:1 634:1 637:1 646:1 652:1 661:1 662:1 674:1 690:1 700:1 702:1 735:1 741:1 742:1 746:1 747:1 763:1 768:1 788:1 793:1 794:1 800:1 806:1 822:1 824:1 825:1 835:1 836:1 837:1 840:1 843:1 857:1 860:1 865:1 877:1 882:1 895:1 908:1 917:1 918:1 920:1 923:1 931:1 933:1 937:1 961:1 966:1 974:1 984:1 987:1 996:1 1011:1 1012:1 1019:1 1020:1 1021:1 1024:1 1028:1 1034:1 1043:1 1048:1 1064:1 1065:1 1088:1 #
-0.0052246729809923694518025705235686 1:1 3:1 6:1 8:1 12:1 14:1 16:1 18:1 29:1 30:1 34:1 40:1 43:1 46:1 47:1 50:1 51:1 54:1 55:1 56:1 60:1 64:1 65:1 66:1 69:1 74:1 86:1 106:1 108:1 116:1 121:1 122:1 133:1 147:1 152:1 154:1 155:1 171:1 176:1 189:1 198:1 199:1 201:1 214:1 223:1 224:1 226:1 228:1 230:1 239:1 247:1 253:1 254:1 256:1 266:1 267:1 268:1 271:1 272:1 279:1 294:1 297:1 303:1 311:1 318:1 319:1 323:1 324:1 337:1 341:1 342:1 343:1 351:1 354:1 356:1 359:1 361:1 366:1 369:1 382:1 383:1 385:1 387:1 393:1 396:1 399:1 406:1 407:1 412:1 415:1 416:1 419:1 422:1 432:1 433:1 455:1 459:1 472:1 473:1 486:1 492:1 498:1 509:1 537:1 540:1 542:1 543:1 545:1 546:1 549:1 551:1 554:1 558:1 566:1 568:1 573:1 575:1 576:1 581:1 585:1 588:1 602:1 610:1 614:1 618:1 624:1 638:1 644:1 657:1 659:1 662:1 663:1 667:1 668:1 679:1 681:1 684:1 688:1 694:1 696:1 704:1 706:1 711:1 730:1 744:1 749:1 752:1 761:1 765:1 766:1 768:1 770:1 774:1 788:1 789:1 793:1 799:1 800:1 819:1 821:1 822:1 827:1 836:1 838:1 855:1 860:1 864:1 869:1 877:1 878:1 880:1 900:1 905:1 908:1 913:1 918:1 920:1 921:1 928:1 931:1 935:1 937:1 953:1 958:1 965:1 966:1 969:1 973:1 977:1 982:1 986:1 987:1 989:1 990:1 1011:1 1012:1 1013:1 1017:1 1019:1 1020:1 1021:1 1024:1 1035:1 1052:1 1056:1 1057:1 1062:1 1066:1 1082:1 #
-0.0052246729809923694518025705235686 2:1 8:1 14:1 27:1 28:1 34:1 36:1 39:1 43:1 47:1 50:1 51:1 56:1 57:1 60:1 69:1 73:1 74:1 77:1 79:1 86:1 87:1 92:1 108:1 110:1 116:1 121:1 133:1 137:1 155:1 158:1 160:1 162:1 171:1 182:1 187:1 189:1 191:1 198:1 211:1 216:1 218:1 220:1 223:1 224:1 232:1 237:1 242:1 247:1 253:1 264:1 266:1 271:1 272:1 274:1 277:1 278:1 279:1 290:1 303:1 305:1 316:1 318:1 321:1 323:1 337:1 339:1 343:1 351:1 354:1 355:1 356:1 361:1 366:1 369:1 383:1 387:1 399:1 405:1 412:1 415:1 416:1 417:1 419:1 424:1 426:1 428:1 445:1 452:1 455:1 466:1 473:1 479:1 487:1 492:1 498:1 509:1 526:1 529:1 531:1 540:1 541:1 545:1 549:1 550:1 572:1 577:1 581:1 585:1 588:1 589:1 597:1 605:1 606:1 614:1 624:1 634:1 636:1 638:1 662:1 677:1 689:1 691:1 697:1 733:1 753:1 760:1 776:1 783:1 800:1 806:1 810:1 814:1 821:1 822:1 825:1 834:1 835:1 836:1 844:1 864:1 869:1 874:1 877:1 887:1 897:1 904:1 908:1 924:1 930:1 931:1 933:1 943:1 961:1 974:1 976:1 987:1 989:1 1000:1 1011:1 1012:1 1019:1 1021:1 1022:1 1029:1 1043:1 1049:1 1054:1 1057:1 1085:1 #
-0.0052246729809923694518025705235686 4:1 8:1 20:1 21:1 25:1 28:1 34:1 40:1 43:1 50:1 51:1 53:1 54:1 56:1 60:1 62:1 69:1 77:1 86:1 87:1 105:1 108:1 110:1 113:1 116:1 121:1 125:1 126:1 132:1 135:1 151:1 154:1 155:1 162:1 164:1 170:1 171:1 187:1 189:1 191:1 192:1 194:1 198:1 214:1 230:1 232:1 237:1 243:1 247:1 250:1 253:1 261:1 263:1 266:1 271:1 272:1 277:1 279:1 285:1 303:1 309:1 318:1 323:1 328:1 351:1 354:1 357:1 358:1 359:1 363:1 366:1 368:1 369:1 387:1 405:1 408:1 412:1 415:1 416:1 425:1 428:1 433:1 451:1 462:1 472:1 473:1 479:1 481:1 492:1 493:1 502:1 512:1 524:1 525:1 529:1 536:1 537:1 540:1 543:1 545:1 546:1 549:1 552:1 554:1 557:1 574:1 578:1 581:1 585:1 590:1 604:1 610:1 614:1 630:1 638:1 652:1 662:1 666:1 684:1 688:1 693:1 700:1 702:1 705:1 717:1 719:1 728:1 738:1 745:1 752:1 754:1 768:1 770:1 772:1 774:1 794:1 800:1 803:1 805:1 806:1 821:1 822:1 825:1 832:1 836:1 843:1 845:1 857:1 867:1 869:1 877:1 879:1 880:1 886:1 902:1 923:1 931:1 933:1 942:1 961:1 977:1 982:1 987:1 997:1 999:1 1011:1 1012:1 1017:1 1021:1 1024:1 1028:1 1039:1 1067:1 1088:1 #
0.0052246729809923694518025705235686 17:1 18:1 20:1 21:1 22:1 25:1 28:1 34:1 35:1 40:1 43:1 45:1 47:1 50:1 51:1 53:1 56:1 60:1 69:1 73:1 74:1 77:1 81:1 86:1 87:1 92:1 95:1 108:1 110:1 116:1 121:1 133:1 143:1 154:1 155:1 157:1 163:1 171:1 176:1 178:1 182:1 185:1 186:1 187:1 189:1 190:1 193:1 198:1 199:1 201:1 209:1 211:1 212:1 214:1 216:1 223:1 224:1 225:1 229:1 241:1 242:1 247:1 253:1 268:1 271:1 272:1 274:1 279:1 283:1 301:1 303:1 307:1 315:1 318:1 319:1 322:1 330:1 335:1 339:1 346:1 347:1 351:1 354:1 355:1 359:1 361:1 368:1 369:1 372:1 378:1 384:1 387:1 392:1 399:1 400:1 405:1 406:1 407:1 412:1 415:1 416:1 419:1 422:1 426:1 436:1 440:1 446:1 449:1 455:1 468:1 472:1 473:1 479:1 481:1 492:1 498:1 502:1 505:1 506:1 507:1 509:1 513:1 518:1 526:1 536:1 537:1 540:1 542:1 543:1 546:1 549:1 559:1 574:1 578:1 583:1 584:1 585:1 588:1 597:1 600:1 604:1 609:1 614:1 634:1 636:1 647:1 653:1 654:1 662:1 670:1 677:1 688:1 690:1 700:1 702:1 709:1 749:1 752:1 761:1 768:1 770:1 772:1 774:1 775:1 782:1 783:1 787:1 788:1 789:1 799:1 800:1 806:1 809:1 818:1 821:1 822:1 825:1 829:1 834:1 836:1 843:1 851:1 855:1 858:1 864:1 865:1 867:1 869:1 874:1 888:1 891:1 893:1 915:1 917:1 918:1 922:1 924:1 931:1 933:1 934:1 951:1 961:1 974:1 981:1 982:1 984:1 987:1 989:1 990:1 997:1 1011:1 1012:1 1017:1 1019:1 1020:1 1021:1 1025:1 1046:1 1047:1 1059:1 1060:1 1062:1 1063:1 1066:1 1068:1 1069:1 1070:1 1071:1 1077:1 1084:1 #
0.0052246729809923694518025705235686 1:1 2:1 3:1 4:1 12:1 18:1 20:1 21:1 27:1 28:1 45:1 50:1 51:1 56:1 60:1 65:1 66:1 69:1 74:1 77:1 86:1 87:1 92:1 108:1 110:1 116:1 121:1 129:1 133:1 145:1 147:1 151:1 154:1 169:1 170:1 171:1 176:1 182:1 183:1 185:1 186:1 187:1 189:1 192:1 198:1 201:1 205:1 208:1 209:1 211:1 212:1 214:1 215:1 218:1 223:1 224:1 228:1 232:1 233:1 247:1 253:1 258:1 260:1 262:1 264:1 269:1 272:1 274:1 277:1 279:1 283:1 292:1 294:1 296:1 299:1 301:1 303:1 318:1 319:1 321:1 330:1 337:1 339:1 345:1 351:1 359:1 366:1 368:1 369:1 383:1 387:1 393:1 399:1 407:1 412:1 415:1 416:1 422:1 424:1 426:1 435:1 441:1 442:1 443:1 446:1 455:1 466:1 471:1 472:1 473:1 476:1 478:1 481:1 482:1 492:1 498:1 500:1 504:1 509:1 512:1 523:1 529:1 537:1 540:1 542:1 543:1 546:1 549:1 557:1 565:1 581:1 585:1 605:1 609:1 615:1 617:1 624:1 640:1 650:1 652:1 653:1 654:1 662:1 698:1 700:1 703:1 712:1 721:1 746:1 752:1 765:1 770:1 774:1 783:1 791:1 799:1 800:1 803:1 811:1 821:1 822:1 823:1 825:1 826:1 834:1 840:1 845:1 851:1 855:1 864:1 865:1 867:1 868:1 869:1 875:1 877:1 884:1 888:1 908:1 913:1 916:1 918:1 919:1 924:1 931:1 933:1 935:1 937:1 961:1 974:1 982:1 987:1 990:1 1001:1 1011:1 1012:1 1016:1 1020:1 1021:1 1023:1 1024:1 1029:1 1037:1 1039:1 1043:1 1054:1 1059:1 1062:1 1080:1 1086:1 #
0.0052246729809923694518025705235686 2:1 5:1 8:1 12:1 18:1 22:1 25:1 27:1 28:1 29:1 31:1 34:1 35:1 40:1 43:1 45:1 49:1 50:1 51:1 52:1 53:1 56:1 57:1 59:1 60:1 64:1 69:1 73:1 75:1 77:1 78:1 86:1 87:1 108:1 109:1 110:1 115:1 116:1 121:1 124:1 129:1 132:1 133:1 143:1 152:1 153:1 155:1 163:1 167:1 170:1 171:1 175:1 182:1 185:1 186:1 187:1 189:1 193:1 198:1 199:1 210:1 211:1 214:1 215:1 216:1 223:1 224:1 229:1 247:1 252:1 253:1 264:1 271:1 272:1 279:1 282:1 290:1 296:1 297:1 303:1 311:1 318:1 319:1 322:1 323:1 337:1 338:1 341:1 343:1 346:1 348:1 351:1 354:1 359:1 361:1 369:1 387:1 393:1 396:1 399:1 400:1 406:1 412:1 415:1 416:1 426:1 433:1 436:1 451:1 472:1 473:1 488:1 501:1 510:1 513:1 514:1 520:1 524:1 525:1 526:1 529:1 537:1 540:1 542:1 543:1 546:1 549:1 572:1 576:1 581:1 585:1 605:1 606:1 610:1 624:1 630:1 634:1 636:1 638:1 648:1 650:1 662:1 669:1 677:1 693:1 739:1 749:1 752:1 754:1 759:1 760:1 761:1 766:1 768:1 776:1 787:1 793:1 800:1 801:1 806:1 815:1 818:1 821:1 822:1 825:1 834:1 840:1 843:1 845:1 860:1 862:1 864:1 867:1 877:1 885:1 892:1 894:1 896:1 908:1 913:1 918:1 920:1 922:1 931:1 933:1 937:1 949:1 961:1 974:1 986:1 987:1 989:1 990:1 999:1 1000:1 1001:1 1005:1 1011:1 1012:1 1018:1 1020:1 1021:1 1028:1 1030:1 1033:1 1036:1 1050:1 1060:1 1061:1 1066:1 1069:1 1079:1 #
0.0052246729809923694518025705235686 4:1 20:1 29:1 43:1 46:1 50:1 51:1 54:1 56:1 60:1 64:1 69:1 74:1 75:1 77:1 79:1 80:1 86:1 96:1 108:1 116:1 120:1 121:1 127:1 138:1 146:1 154:1 155:1 158:1 161:1 162:1 171:1 178:1 187:1 189:1 193:1 198:1 222:1 223:1 224:1 225:1 247:1 250:1 253:1 264:1 266:1 271:1 272:1 278:1 297:1 303:1 304:1 311:1 315:1 318:1 319:1 328:1 343:1 354:1 355:1 359:1 366:1 369:1 370:1 386:1 387:1 399:1 409:1 412:1 415:1 416:1 422:1 423:1 426:1 427:1 438:1 447:1 471:1 472:1 473:1 481:1 492:1 508:1 509:1 520:1 525:1 532:1 533:1 540:1 541:1 542:1 543:1 544:1 549:1 552:1 566:1 571:1 579:1 582:1 585:1 588:1 604:1 606:1 614:1 617:1 626:1 627:1 636:1 669:1 687:1 688:1 695:1 699:1 700:1 703:1 709:1 721:1 726:1 753:1 754:1 766:1 774:1 775:1 782:1 800:1 806:1 810:1 821:1 822:1 825:1 836:1 840:1 846:1 861:1 865:1 867:1 874:1 888:1 890:1 893:1 918:1 920:1 921:1 931:1 933:1 937:1 961:1 962:1 969:1 974:1 985:1 987:1 989:1 990:1 996:1 1011:1 1012:1 1018:1 1020:1 1021:1 1028:1 1041:1 1078:1 1088:1 #
0.0052246729809923694518025705235686 2:1 4:1 16:1 20:1 22:1 25:1 43:1 45:1 47:1 50:1 51:1 53:1 56:1 60:1 69:1 73:1 86:1 87:1 108:1 114:1 116:1 121:1 133:1 134:1 144:1 154:1 155:1 157:1 158:1 165:1 171:1 177:1 178:1 184:1 186:1 189:1 190:1 198:1 203:1 205:1 212:1 216:1 221:1 223:1 224:1 232:1 242:1 247:1 250:1 254:1 264:1 270:1 271:1 279:1 290:1 296:1 301:1 303:1 307:1 311:1 313:1 316:1 318:1 319:1 323:1 339:1 342:1 343:1 346:1 347:1 351:1 354:1 359:1 366:1 369:1 372:1 374:1 379:1 393:1 399:1 405:1 406:1 411:1 412:1 415:1 416:1 428:1 433:1 434:1 437:1 444:1 451:1 453:1 455:1 472:1 473:1 481:1 486:1 492:1 494:1 512:1 513:1 520:1 523:1 524:1 525:1 537:1 540:1 541:1 542:1 543:1 546:1 549:1 554:1 555:1 560:1 565:1 585:1 588:1 591:1 606:1 614:1 617:1 624:1 634:1 650:1 659:1 663:1 670:1 672:1 674:1 684:1 688:1 694:1 696:1 704:1 707:1 732:1 733:1 738:1 752:1 755:1 760:1 762:1 768:1 770:1 774:1 782:1 783:1 785:1 787:1 793:1 794:1 795:1 796:1 800:1 801:1 804:1 806:1 808:1 821:1 825:1 829:1 834:1 850:1 868:1 869:1 877:1 908:1 913:1 918:1 920:1 923:1 930:1 931:1 940:1 953:1 959:1 965:1 975:1 979:1 983:1 986:1 987:1 989:1 990:1 991:1 996:1 1000:1 1001:1 1011:1 1012:1 1017:1 1018:1 1019:1 1020:1 1021:1 1023:1 1024:1 1027:1 1035:1 1036:1 1048:1 1049:1 1053:1 1061:1 1062:1 1066:1 1071:1 1072:1 1083:1 1086:1 #
-0.0052246729809923694518025705235686 12:1 13:1 14:1 15:1 18:1 20:1 21:1 34:1 40:1 45:1 46:1 50:1 51:1 53:1 56:1 60:1 69:1 71:1 76:1 77:1 83:1 86:1 87:1 103:1 105:1 106:1 108:1 116:1 120:1 129:1 133:1 137:1 141:1 146:1 154:1 171:1 172:1 176:1 177:1 184:1 185:1 186:1 187:1 189:1 192:1 195:1 199:1 206:1 207:1 208:1 209:1 224:1 225:1 239:1 240:1 241:1 247:1 251:1 253:1 270:1 272:1 276:1 279:1 281:1 296:1 297:1 303:1 307:1 311:1 313:1 318:1 319:1 323:1 337:1 351:1 352:1 354:1 361:1 369:1 370:1 372:1 386:1 387:1 396:1 399:1 400:1 404:1 406:1 407:1 412:1 415:1 416:1 426:1 438:1 445:1 449:1 451:1 455:1 468:1 473:1 476:1 486:1 492:1 493:1 498:1 499:1 508:1 512:1 519:1 520:1 526:1 533:1 537:1 538:1 540:1 542:1 543:1 546:1 554:1 562:1 565:1 571:1 574:1 578:1 585:1 591:1 597:1 601:1 604:1 626:1 634:1 636:1 641:1 647:1 662:1 663:1 667:1 673:1 677:1 698:1 711:1 715:1 722:1 725:1 735:1 736:1 741:1 748:1 752:1 757:1 759:1 768:1 770:1 774:1 782:1 783:1 785:1 789:1 800:1 803:1 806:1 816:1 817:1 821:1 828:1 840:1 847:1 855:1 867:1 884:1 888:1 890:1 903:1 918:1 920:1 931:1 932:1 937:1 946:1 975:1 982:1 987:1 989:1 990:1 992:1 998:1 999:1 1001:1 1011:1 1012:1 1013:1 1017:1 1018:1 1019:1 1021:1 1028:1 1035:1 1047:1 1048:1 1057:1 1066:1 1070:1 1080:1 1084:1 1088:1 #
-0.0052246729809923694518025705235686 9:1 18:1 35:1 36:1 43:1 47:1 50:1 51:1 56:1 59:1 60:1 69:1 70:1 71:1 75:1 77:1 86:1 87:1 108:1 110:1 111:1 116:1 121:1 122:1 133:1 143:1 147:1 157:1 171:1 176:1 178:1 179:1 182:1 186:1 189:1 190:1 193:1 195:1 198:1 214:1 220:1 223:1 224:1 232:1 233:1 239:1 247:1 258:1 272:1 279:1 294:1 296:1 303:1 307:1 318:1 326:1 332:1 337:1 342:1 345:1 346:1 351:1 359:1 369:1 384:1 387:1 396:1 399:1 400:1 406:1 410:1 412:1 415:1 416:1 426:1 428:1 437:1 445:1 446:1 452:1 453:1 459:1 468:1 473:1 484:1 498:1 502:1 506:1 512:1 513:1 520:1 524:1 527:1 529:1 537:1 540:1 542:1 543:1 546:1 553:1 554:1 557:1 558:1 575:1 581:1 584:1 585:1 591:1 592:1 600:1 609:1 611:1 614:1 615:1 624:1 627:1 631:1 638:1 640:1 649:1 652:1 662:1 669:1 676:1 685:1 693:1 694:1 700:1 724:1 731:1 754:1 764:1 765:1 768:1 774:1 778:1 783:1 787:1 799:1 800:1 803:1 818:1 821:1 828:1 836:1 847:1 852:1 862:1 865:1 867:1 875:1 877:1 880:1 885:1 893:1 894:1 904:1 910:1 912:1 919:1 920:1 921:1 931:1 948:1 965:1 968:1 971:1 974:1 975:1 982:1 985:1 987:1 990:1 1004:1 1005:1 1011:1 1016:1 1017:1 1021:1 1028:1 1037:1 1047:1 1048:1 1068:1 1075:1 1083:1 #
-0.0052246729809923694518025705235686 2:1 17:1 43:1 49:1 50:1 51:1 53:1 55:1 56:1 59:1 60:1 63:1 65:1 69:1 77:1 82:1 86:1 87:1 92:1 106:1 108:1 116:1 125:1 131:1 133:1 147:1 165:1 166:1 171:1 175:1 178:1 185:1 186:1 187:1 189:1 190:1 198:1 199:1 205:1 211:1 247:1 253:1 269:1 271:1 272:1 279:1 280:1 283:1 301:1 303:1 307:1 311:1 313:1 318:1 319:1 323:1 324:1 330:1 343:1 345:1 346:1 351:1 359:1 362:1 365:1 369:1 374:1 379:1 392:1 401:1 405:1 406:1 412:1 415:1 416:1 419:1 426:1 442:1 455:1 473:1 481:1 486:1 487:1 492:1 495:1 498:1 523:1 524:1 525:1 526:1 530:1 532:1 537:1 540:1 541:1 542:1 543:1 546:1 549:1 554:1 555:1 565:1 574:1 575:1 583:1 585:1 600:1 609:1 620:1 628:1 634:1 648:1 662:1 668:1 671:1 674:1 682:1 684:1 694:1 734:1 740:1 741:1 752:1 760:1 762:1 773:1 774:1 783:1 789:1 800:1 806:1 821:1 822:1 825:1 826:1 828:1 832:1 834:1 844:1 850:1 855:1 857:1 861:1 869:1 877:1 884:1 885:1 893:1 918:1 920:1 921:1 924:1 931:1 945:1 951:1 965:1 974:1 987:1 990:1 994:1 996:1 1002:1 1011:1 1012:1 1015:1 1017:1 1019:1 1020:1 1021:1 1048:1 1050:1 1054:1 1055:1 1056:1 1058:1 1066:1 1084:1 #
-0.0052246729809923694518025705235686 2:1 11:1 14:1 17:1 18:1 34:1 40:1 50:1 51:1 53:1 54:1 55:1 56:1 60:1 64:1 67:1 69:1 74:1 75:1 80:1 86:1 87:1 95:1 103:1 104:1 108:1 110:1 116:1 121:1 124:1 133:1 136:1 139:1 152:1 154:1 158:1 162:1 164:1 171:1 173:1 181:1 182:1 186:1 187:1 189:1 191:1 192:1 198:1 199:1 201:1 209:1 211:1 214:1 216:1 223:1 224:1 227:1 228:1 239:1 244:1 247:1 253:1 259:1 263:1 268:1 273:1 274:1 283:1 296:1 301:1 303:1 313:1 315:1 318:1 319:1 322:1 325:1 327:1 329:1 330:1 337:1 343:1 344:1 348:1 350:1 351:1 354:1 355:1 358:1 359:1 361:1 366:1 368:1 369:1 374:1 382:1 390:1 396:1 399:1 400:1 405:1 406:1 407:1 411:1 412:1 415:1 416:1 421:1 426:1 428:1 432:1 435:1 449:1 450:1 455:1 466:1 473:1 486:1 492:1 498:1 499:1 501:1 505:1 511:1 512:1 525:1 526:1 533:1 534:1 537:1 538:1 540:1 542:1 543:1 546:1 549:1 554:1 555:1 573:1 581:1 585:1 588:1 591:1 609:1 610:1 614:1 621:1 626:1 640:1 652:1 657:1 670:1 676:1 677:1 684:1 686:1 712:1 713:1 715:1 721:1 723:1 733:1 737:1 738:1 745:1 746:1 755:1 765:1 767:1 768:1 770:1 774:1 778:1 783:1 787:1 794:1 800:1 801:1 806:1 816:1 821:1 822:1 824:1 828:1 834:1 838:1 846:1 849:1 855:1 860:1 862:1 867:1 874:1 877:1 879:1 880:1 893:1 908:1 912:1 920:1 922:1 926:1 929:1 931:1 933:1 951:1 959:1 970:1 972:1 974:1 979:1 980:1 987:1 990:1 993:1 994:1 1008:1 1012:1 1017:1 1020:1 1021:1 1027:1 1045:1 1060:1 1088:1 #
-0.0052246729809923694518025705235686 8:1 14:1 16:1 18:1 43:1 50:1 51:1 53:1 56:1 59:1 60:1 69:1 74:1 76:1 77:1 94:1 108:1 110:1 114:1 116:1 121:1 125:1 131:1 133:1 134:1 140:1 155:1 161:1 162:1 171:1 182:1 186:1 187:1 189:1 191:1 198:1 199:1 201:1 208:1 211:1 212:1 215:1 223:1 241:1 247:1 253:1 257:1 267:1 272:1 274:1 283:1 292:1 293:1 296:1 303:1 307:1 311:1 316:1 318:1 323:1 329:1 343:1 347:1 351:1 354:1 357:1 359:1 361:1 368:1 369:1 375:1 387:1 399:1 412:1 415:1 416:1 419:1 422:1 426:1 428:1 431:1 445:1 449:1 451:1 460:1 462:1 467:1 473:1 474:1 475:1 481:1 492:1 494:1 498:1 509:1 512:1 513:1 520:1 525:1 529:1 537:1 540:1 543:1 546:1 549:1 553:1 555:1 566:1 573:1 584:1 585:1 588:1 591:1 599:1 609:1 614:1 623:1 627:1 650:1 652:1 656:1 662:1 670:1 683:1 684:1 696:1 698:1 715:1 731:1 742:1 753:1 768:1 770:1 782:1 783:1 789:1 792:1 800:1 805:1 818:1 820:1 821:1 828:1 829:1 846:1 868:1 869:1 872:1 874:1 878:1 885:1 888:1 896:1 908:1 913:1 916:1 920:1 922:1 929:1 931:1 932:1 937:1 939:1 940:1 942:1 953:1 961:1 974:1 983:1 986:1 987:1 989:1 990:1 1011:1 1012:1 1017:1 1021:1 1024:1 1028:1 1043:1 1052:1 1055:1 1063:1 1073:1 1074:1 1083:1 1086:1 #
0.0052246729809923694518025705235686 14:1 19:1 30:1 34:1 41:1 43:1 45:1 49:1 50:1 51:1 55:1 56:1 60:1 67:1 69:1 71:1 74:1 86:1 87:1 93:1 108:1 110:1 116:1 145:1 154:1 155:1 161:1 171:1 173:1 177:1 178:1 182:1 187:1 189:1 198:1 199:1 201:1 211:1 215:1 233:1 247:1 256:1 266:1 268:1 271:1 272:1 280:1 289:1 300:1 303:1 309:1 313:1 316:1 318:1 319:1 337:1 342:1 351:1 358:1 360:1 366:1 369:1 380:1 385:1 387:1 399:1 405:1 408:1 412:1 415:1 416:1 426:1 443:1 455:1 468:1 471:1 473:1 481:1 486:1 492:1 496:1 518:1 519:1 523:1 529:1 536:1 537:1 540:1 542:1 543:1 546:1 549:1 551:1 555:1 577:1 581:1 585:1 588:1 591:1 602:1 614:1 626:1 656:1 663:1 670:1 692:1 693:1 700:1 701:1 730:1 740:1 741:1 742:1 743:1 744:1 749:1 755:1 768:1 770:1 776:1 800:1 816:1 824:1 829:1 833:1 834:1 851:1 855:1 880:1 884:1 888:1 892:1 918:1 919:1 925:1 931:1 967:1 987:1 989:1 990:1 996:1 1011:1 1012:1 1019:1 1021:1 1024:1 1032:1 1055:1 1066:1 1068:1 1076:1 1088:1 #
0.0052246729809923694518025705235686 2:1 4:1 13:1 20:1 29:1 34:1 43:1 45:1 46:1 50:1 51:1 56:1 60:1 64:1 65:1 67:1 69:1 70:1 74:1 87:1 103:1 108:1 116:1 121:1 125:1 129:1 133:1 143:1 171:1 173:1 181:1 182:1 189:1 198:1 203:1 208:1 211:1 220:1 221:1 247:1 258:1 283:1 296:1 303:1 304:1 311:1 318:1 323:1 337:1 351:1 354:1 362:1 366:1 369:1 372:1 387:1 403:1 412:1 415:1 416:1 419:1 422:1 459:1 473:1 476:1 496:1 501:1 513:1 520:1 529:1 535:1 537:1 540:1 542:1 543:1 546:1 548:1 553:1 565:1 581:1 583:1 585:1 600:1 604:1 606:1 610:1 614:1 617:1 636:1 638:1 640:1 647:1 652:1 659:1 662:1 666:1 670:1 714:1 752:1 787:1 790:1 800:1 825:1 834:1 836:1 837:1 855:1 860:1 864:1 877:1 897:1 910:1 914:1 922:1 925:1 931:1 933:1 947:1 948:1 961:1 965:1 983:1 987:1 1005:1 1011:1 1012:1 1019:1 1028:1 1029:1 1042:1 1050:1 1075:1 1076:1 #
0.0052246729809923694518025705235686 4:1 5:1 12:1 13:1 14:1 16:1 18:1 25:1 27:1 43:1 45:1 49:1 50:1 51:1 55:1 56:1 59:1 60:1 66:1 69:1 70:1 86:1 97:1 108:1 116:1 121:1 122:1 133:1 152:1 155:1 162:1 165:1 171:1 177:1 179:1 180:1 184:1 186:1 187:1 189:1 190:1 191:1 193:1 194:1 199:1 201:1 218:1 224:1 229:1 230:1 232:1 234:1 247:1 250:1 258:1 261:1 264:1 272:1 279:1 294:1 297:1 303:1 307:1 316:1 318:1 319:1 322:1 323:1 328:1 335:1 337:1 341:1 351:1 354:1 359:1 361:1 366:1 368:1 369:1 386:1 387:1 393:1 396:1 399:1 400:1 406:1 407:1 412:1 415:1 416:1 419:1 439:1 443:1 445:1 455:1 473:1 486:1 489:1 491:1 492:1 496:1 501:1 509:1 514:1 520:1 524:1 526:1 536:1 537:1 540:1 542:1 543:1 546:1 549:1 554:1 557:1 558:1 573:1 578:1 581:1 583:1 585:1 588:1 591:1 592:1 604:1 606:1 610:1 614:1 617:1 621:1 626:1 636:1 638:1 646:1 652:1 657:1 662:1 668:1 669:1 684:1 712:1 716:1 717:1 721:1 738:1 742:1 755:1 759:1 768:1 770:1 774:1 777:1 782:1 788:1 800:1 801:1 805:1 814:1 821:1 834:1 835:1 837:1 840:1 845:1 867:1 877:1 885:1 888:1 898:1 899:1 902:1 918:1 924:1 929:1 931:1 933:1 952:1 965:1 969:1 974:1 987:1 990:1 994:1 996:1 1011:1 1012:1 1018:1 1024:1 1034:1 1048:1 1056:1 1061:1 1062:1 1068:1 1071:1 1077:1 #
0.0052246729809923694518025705235686 8:1 20:1 24:1 26:1 28:1 34:1 43:1 50:1 51:1 55:1 56:1 60:1 69:1 74:1 75:1 76:1 86:1 92:1 108:1 116:1 121:1 122:1 133:1 143:1 147:1 148:1 154:1 155:1 171:1 180:1 183:1 187:1 189:1 198:1 201:1 208:1 210:1 211:1 218:1 224:1 236:1 247:1 249:1 258:1 265:1 272:1 273:1 274:1 279:1 281:1 291:1 294:1 301:1 303:1 311:1 318:1 319:1 320:1 323:1 335:1 337:1 351:1 354:1 359:1 361:1 368:1 369:1 383:1 387:1 407:1 412:1 415:1 416:1 419:1 421:1 426:1 430:1 436:1 442:1 447:1 449:1 451:1 455:1 468:1 485:1 491:1 492:1 494:1 498:1 509:1 520:1 528:1 533:1 537:1 540:1 542:1 543:1 544:1 549:1 554:1 555:1 561:1 578:1 581:1 585:1 598:1 600:1 602:1 626:1 655:1 668:1 684:1 696:1 712:1 714:1 741:1 768:1 774:1 778:1 800:1 808:1 816:1 829:1 832:1 840:1 867:1 877:1 885:1 887:1 888:1 897:1 905:1 918:1 931:1 945:1 951:1 960:1 961:1 974:1 982:1 987:1 989:1 990:1 1011:1 1012:1 1016:1 1017:1 1019:1 1020:1 1028:1 1055:1 1063:1 1068:1 1073:1 1074:1 1076:1 1077:1 1081:1 1088:1 #
0.0049748286199004067634210635162617 4:1 12:1 23:1 25:1 28:1 29:1 35:1 43:1 49:1 50:1 51:1 55:1 56:1 59:1 60:1 69:1 71:1 76:1 86:1 87:1 92:1 105:1 108:1 110:1 116:1 125:1 133:1 143:1 145:1 147:1 149:1 150:1 152:1 153:1 154:1 155:1 157:1 162:1 171:1 173:1 177:1 184:1 186:1 187:1 189:1 198:1 199:1 211:1 214:1 215:1 223:1 224:1 229:1 232:1 234:1 235:1 239:1 242:1 247:1 250:1 252:1 258:1 262:1 272:1 273:1 279:1 303:1 311:1 316:1 318:1 319:1 320:1 323:1 337:1 343:1 346:1 351:1 359:1 366:1 369:1 372:1 380:1 383:1 386:1 387:1 391:1 393:1 395:1 399:1 400:1 402:1 404:1 406:1 407:1 408:1 412:1 415:1 416:1 419:1 422:1 424:1 426:1 427:1 434:1 435:1 437:1 442:1 443:1 451:1 453:1 454:1 459:1 467:1 470:1 473:1 475:1 476:1 477:1 486:1 491:1 499:1 509:1 513:1 517:1 519:1 526:1 527:1 529:1 537:1 540:1 541:1 542:1 543:1 546:1 549:1 554:1 555:1 558:1 559:1 566:1 575:1 576:1 578:1 585:1 588:1 591:1 597:1 604:1 609:1 617:1 626:1 634:1 638:1 653:1 656:1 657:1 662:1 669:1 670:1 684:1 707:1 715:1 728:1 736:1 738:1 744:1 752:1 758:1 759:1 762:1 764:1 766:1 768:1 770:1 782:1 783:1 787:1 792:1 794:1 795:1 800:1 803:1 809:1 822:1 831:1 833:1 834:1 837:1 840:1 867:1 869:1 877:1 880:1 884:1 885:1 896:1 897:1 899:1 906:1 918:1 920:1 929:1 931:1 932:1 952:1 965:1 966:1 974:1 978:1 985:1 987:1 989:1 990:1 992:1 996:1 1011:1 1012:1 1017:1 1019:1 1035:1 1039:1 1042:1 1043:1 1054:1 1055:1 1062:1 1063:1 1064:1 1066:1 1068:1 1077:1 #
-0.0052246729809923694518025705235686 11:1 12:1 16:1 18:1 19:1 22:1 27:1 30:1 34:1 43:1 50:1 51:1 53:1 54:1 55:1 56:1 59:1 60:1 67:1 69:1 70:1 74:1 77:1 86:1 87:1 107:1 108:1 110:1 114:1 116:1 121:1 125:1 133:1 143:1 144:1 155:1 161:1 162:1 169:1 171:1 183:1 186:1 187:1 189:1 192:1 198:1 209:1 211:1 216:1 220:1 223:1 224:1 229:1 230:1 234:1 237:1 247:1 250:1 272:1 274:1 279:1 281:1 282:1 287:1 301:1 303:1 311:1 313:1 318:1 319:1 336:1 337:1 345:1 351:1 354:1 357:1 359:1 361:1 369:1 371:1 372:1 379:1 385:1 391:1 408:1 412:1 415:1 416:1 419:1 426:1 428:1 433:1 436:1 445:1 449:1 451:1 467:1 473:1 474:1 481:1 491:1 492:1 506:1 509:1 517:1 531:1 537:1 540:1 542:1 543:1 546:1 549:1 557:1 560:1 566:1 581:1 585:1 587:1 588:1 592:1 602:1 604:1 605:1 608:1 613:1 614:1 617:1 622:1 627:1 634:1 638:1 659:1 670:1 675:1 684:1 700:1 719:1 752:1 753:1 758:1 768:1 769:1 770:1 774:1 775:1 777:1 780:1 785:1 793:1 800:1 818:1 821:1 822:1 824:1 833:1 839:1 851:1 852:1 855:1 869:1 874:1 879:1 881:1 889:1 900:1 901:1 918:1 920:1 931:1 933:1 937:1 961:1 969:1 974:1 984:1 987:1 990:1 996:1 1011:1 1018:1 1019:1 1021:1 1032:1 1036:1 1043:1 1048:1 1053:1 1058:1 1064:1 1066:1 1067:1 1072:1 1080:1 1086:1 1088:1 #
-0.0052246729809923694518025705235686 2:1 12:1 13:1 14:1 18:1 20:1 22:1 29:1 43:1 45:1 50:1 51:1 56:1 60:1 65:1 71:1 76:1 86:1 87:1 105:1 108:1 115:1 116:1 133:1 157:1 166:1 171:1 177:1 179:1 187:1 189:1 217:1 232:1 253:1 275:1 279:1 282:1 289:1 303:1 311:1 315:1 316:1 318:1 319:1 337:1 354:1 366:1 369:1 370:1 373:1 375:1 378:1 387:1 393:1 399:1 406:1 412:1 415:1 416:1 419:1 422:1 426:1 455:1 473:1 486:1 498:1 499:1 502:1 504:1 510:1 516:1 518:1 520:1 525:1 537:1 540:1 543:1 557:1 565:1 571:1 581:1 602:1 614:1 646:1 660:1 667:1 670:1 684:1 693:1 709:1 714:1 729:1 741:1 761:1 774:1 795:1 800:1 806:1 815:1 822:1 834:1 841:1 908:1 917:1 920:1 923:1 931:1 933:1 967:1 974:1 987:1 990:1 991:1 999:1 1002:1 1011:1 1017:1 1033:1 1036:1 1038:1 1057:1 1058:1 1073:1 1085:1 #
-0.0052246729809923694518025705235686 4:1 10:1 14:1 16:1 18:1 24:1 25:1 34:1 43:1 50:1 51:1 54:1 56:1 57:1 60:1 67:1 69:1 71:1 73:1 75:1 76:1 77:1 86:1 87:1 95:1 103:1 108:1 116:1 133:1 140:1 158:1 171:1 186:1 187:1 189:1 198:1 199:1 201:1 202:1 215:1 223:1 224:1 247:1 272:1 274:1 279:1 296:1 301:1 303:1 318:1 319:1 323:1 333:1 336:1 337:1 338:1 351:1 354:1 359:1 380:1 382:1 387:1 392:1 395:1 396:1 400:1 408:1 412:1 415:1 416:1 426:1 427:1 428:1 436:1 468:1 472:1 473:1 476:1 477:1 481:1 487:1 492:1 502:1 507:1 518:1 520:1 521:1 524:1 526:1 537:1 540:1 542:1 543:1 546:1 549:1 555:1 572:1 578:1 581:1 583:1 585:1 605:1 609:1 617:1 624:1 638:1 639:1 640:1 662:1 675:1 690:1 697:1 701:1 704:1 717:1 726:1 727:1 741:1 743:1 748:1 759:1 760:1 774:1 781:1 789:1 800:1 802:1 822:1 824:1 828:1 836:1 839:1 853:1 860:1 862:1 865:1 867:1 869:1 877:1 885:1 897:1 898:1 918:1 920:1 922:1 928:1 931:1 960:1 965:1 969:1 975:1 980:1 982:1 985:1 987:1 990:1 1011:1 1012:1 1021:1 1025:1 1028:1 1035:1 1049:1 1055:1 1071:1 1072:1 1088:1 #
